// Auto-generated field NN weights
// Architecture: [32, 32, 32], activation=silu
// Parameters: 2339, FLOPs: 4864
// MAE: 7590.74 Gauss, p99: 47050.1 Gauss

#pragma once

static const float net_0_weight[96] = {
  -2.73617792, 0.54015219, 0.53941095, 0.01848097, 1.12411702, 0.20939891, -0.14188106, -1.03203189, -0.05872769, 0.07502118, -0.54706204, -0.29473493, -2.99992728, 0.49834317, -0.00234623, -5.02053022, -0.63749307, 1.11153030, -1.86165643, -1.06530774, -0.25929907, -4.56315660, 0.60838813, 0.77304757, 2.08743358, 0.03991992, -1.82542157, 0.23137850, -0.08597600, 3.06335783, 2.45889306, 0.77657384, 1.26380265, -1.59287918, -0.32711917, 1.45768178, 1.34228337, 0.67173493, -1.80907845, 0.99636966, -0.07354406, 0.26289463, -1.81891811, 0.05394417, 2.52908111, 3.56306958, -0.09033272, 1.20155382, 2.58283710, 0.14842197, -1.08990884, -5.73301268, -0.23729675, 2.85903549, 0.60916352, -0.14267692, -1.36650193, 2.44513559, -0.00697383, -0.54762089, 1.31693590, -0.81274265, 0.43502715, 1.97123337, -0.08826250, -2.55334044, -3.97134113, 0.01232268, 0.16481745, 2.98467088, 0.00409688, 1.99217010, 4.63109207, -0.27457419, 1.63139427, 2.94477940, -0.04607948, -0.52274334, -0.59553421, -0.01135858, -1.15148270, -0.12225890, -0.23474748, 0.13048206, -5.27949047, 0.05297771, -1.24059355, 3.30461216, -0.67727345, 1.28138351, 1.37041187, 0.00956456, 1.45799994, -4.99306679, 0.14408696, 0.04325488
};

static const float net_0_bias[32] = {
  0.17024691, -0.16286755, -0.51966196, -0.58187473, -0.44549710, -0.19724479, -0.28625682, -0.22632989, -0.41871172, 0.05013445, 0.48872066, 0.31755087, -0.58341879, 0.55019832, 0.84034461, 0.53983599, -0.07444802, 0.69937789, -0.48894578, -0.14453958, -0.27657464, -0.48207000, 0.10571188, 0.71356922, 0.28230798, 0.12076811, 0.12063884, 0.69420600, -0.35043588, 0.14867605, 1.04754221, 0.06526560
};

static const float net_2_weight[1024] = {
  -0.29303768, -0.57000881, -0.84712684, -0.17004041, 0.01990412, -0.89930034, -0.47884986, -0.26324743, 1.44646037, 0.16514979, -0.90691912, -0.51007509, 0.46991473, -0.12897713, -0.98987210, -1.77331448, 0.44624713, -0.28225684, 0.64731801, 0.85043252, -0.59298909, 2.63526201, 0.01490409, -1.51263976, -0.27482575, 0.52186793, 1.20250106, -0.18943627, 2.45820189, -0.41023821, -2.95317650, 0.68393016, 0.05058528, 0.29205143, 0.32597828, 0.18519859, -0.26286754, 0.40611291, 0.24751393, -0.22322248, -0.15607329, -0.14424703, 0.38471335, -0.16239686, 0.04037876, 0.19604199, -0.56857610, -0.07779568, -0.09007864, -0.36035213, -0.12898372, 0.17569348, 0.06130561, -0.05763933, -0.03877729, -0.45437998, -0.74135482, -0.02072399, -0.18833812, 0.29161340, -0.71867436, -0.46470600, 0.05836050, -0.47967258, 0.18030463, 0.27146423, 0.32372960, -0.14030813, 0.19768356, -0.73674858, 0.16033779, 0.54074180, -0.50536174, -0.32967353, 0.03458042, -0.26694158, -0.28383297, -0.03111296, -0.54960001, -0.21258342, -0.11358133, -1.14281702, -0.22143251, -0.33648813, 0.26252460, -0.49854159, -0.16379282, -0.45822257, -0.38865402, 0.02951712, 0.07258787, 0.16293620, -0.34988838, 0.13312797, -0.07508547, 0.16829824, -0.05234249, 0.13077512, 0.23033817, 0.12945068, -0.11884972, 0.45634848, 0.38444722, -0.51375622, 0.04148986, -0.30061546, 0.32661018, -0.16366757, -0.05851533, 0.18232757, -0.23983642, -0.45747060, 0.09580112, -0.13496138, -0.15594822, 0.11271181, -0.21250169, -0.23502281, -0.23951507, -0.38953531, -0.81571490, 0.15769061, -0.09901962, 0.18235403, -0.59993225, -0.62925184, 0.02431781, -0.56358188, -0.43240950, -0.46792760, -0.48086745, -0.30987918, -0.65656900, -0.46630186, -0.29294622, -0.82925856, 0.78143114, 0.03367052, 0.08593456, -0.69075656, -0.11116938, 0.27860823, -0.43767866, 0.25566006, 0.53555810, -0.04056061, 0.41606829, 0.73376471, -0.31577802, 1.09760773, -0.45452040, -0.07947548, -0.23638839, 0.52547687, 0.39895624, 0.21119356, 0.16467847, -0.46939355, -0.21420574, -0.40103072, -0.08934375, -0.06813492, 0.01925959, -0.14921032, -0.06327545, -0.53421134, -0.12092265, -0.09360487, -0.37384143, -0.06466310, -0.64022863, 0.10180712, 0.17037706, 0.17261003, -0.37331632, 0.07977294, -0.30299041, -0.11328874, -0.31724676, -0.34795010, 0.17636350, -0.36841521, -0.31250709, -0.20825201, 0.22381887, -0.06268365, -0.12943314, 0.17681725, -0.34138212, 0.40403298, -0.00963969, -0.15829811, -0.00942713, -0.06538694, 0.20114069, 0.33609465, 0.03591856, -1.10791719, 0.31610727, 0.34956208, -0.01008690, -0.36693662, 0.02498124, -0.55819267, -0.62239653, 0.26150900, -0.39989895, -0.02816534, -0.17076890, -1.26383865, 0.15427518, 0.22658886, 0.08836204, 0.10488714, -0.30161089, -0.23032483, -0.24977793, 0.07143079, 0.12711214, 0.20873605, -0.28032270, -0.14699593, -0.10961253, -0.24999797, 0.11141874, 0.22080413, 0.24159890, 0.18459813, 0.31797192, -0.64706904, -0.02938831, 0.48142797, -0.26334357, -0.41788441, 0.00471395, -0.05324950, -0.18101223, 0.02706504, -0.38729095, -0.36758333, -0.15600625, -0.60524404, -0.26966345, -0.32500640, 0.19062550, -0.23062220, 0.06876185, -0.15708169, -0.12208018, -0.05102789, -0.12235548, 0.20265751, -0.21422158, 0.15152149, -0.24372789, -0.00740601, 0.18037653, 0.04515301, 0.07400502, 0.02325002, 0.21473752, -0.65273988, -0.12780046, 0.47318202, -0.29254752, -0.24839355, -0.17933607, -0.00163562, -0.08793770, 0.14965689, -0.06821418, -0.14577539, -0.15911552, -0.79229265, -0.08113344, -0.20100023, 0.11503896, -0.19927093, 0.07415329, -0.09963353, 0.02407252, -0.21410541, -0.01471479, -0.13581838, 0.10230803, 0.15554310, -0.22239973, 0.17776570, 0.14635333, -0.07641362, 0.21272635, -0.04923633, -0.02447707, 0.87952906, 0.34305561, -0.00326282, -0.76794899, -0.21814632, 0.09932408, 0.16701457, 0.03384250, -0.22969456, 0.43824050, -0.42467961, -0.39309859, 1.16595387, 0.00639048, -1.34522760, -0.06544093, -0.18949699, 1.48343503, -0.10423889, -0.43429601, -0.34961498, 0.08141343, 0.29738387, 1.40570509, -0.22586016, 0.01299164, 0.84701347, 0.27825534, 0.41844955, 0.27333015, 0.08848087, 0.15929896, 0.02872689, 0.39967796, 0.25654989, 0.14293200, -0.12446697, -0.01816668, 0.23634100, 0.51753956, 0.07028404, -0.54003000, -0.45967758, 0.08367572, -0.28679204, -0.07350045, -0.25478324, 0.34044880, -0.19609192, -0.23067908, -0.50948179, -0.25347683, -0.23137403, -0.21446581, 0.10673241, -0.34622702, 0.46080893, -0.42434379, -0.36982891, 0.00596291, 0.09618358, 0.32218233, 0.12284196, 0.00164054, 0.27017090, 0.05486444, -0.31288496, -0.16399080, -0.26059327, 0.29010701, 0.00246575, 0.05235924, 0.11596252, -0.20803063, -0.48160318, 0.06415574, -0.24367739, 0.12966251, 0.01629801, 0.26245719, -0.26369244, -0.10732449, -0.41236189, -0.60494775, -0.22083303, -0.00974457, -0.04920151, -0.76873428, -0.02494170, -0.05144323, -0.69110036, 0.31138033, 0.55138922, 0.83238113, 0.08282074, 0.26510713, 0.07259283, 0.54485667, 0.17075655, -0.63877636, -0.51239651, 0.28567454, -0.18975122, 0.39963976, 0.36814481, -0.99310654, -0.55479467, 0.12693255, -1.15807867, -0.18722217, -0.47042742, 0.63113135, -0.82171005, -0.20631811, -1.10159850, -0.73873258, -0.12480038, -0.03978963, 0.20774369, -1.01319945, 0.29609394, -0.15407486, -0.17063992, 0.20963249, 0.48787168, 0.57067418, 0.09801792, 0.36627448, 0.19970475, 0.14497356, 0.06829828, -0.32077774, -0.36742392, -0.15261133, 0.21565130, 0.45724380, 0.07694983, -0.64095187, -0.38909882, 0.15339467, -0.45612586, -0.24708715, -0.19797105, 0.39529476, -0.33218297, -0.18980250, -0.53384781, -0.27162132, -0.22507113, -0.21149263, 0.23304656, -0.47069445, 0.40679979, -0.19196935, -0.23798923, 0.03556994, 0.25418985, 0.16845527, 0.04533660, -0.08198376, 0.33691776, 0.28408358, -0.14463578, -0.71384931, -0.33973989, -0.48260117, 0.59189624, 0.46923757, 0.26311463, -0.38419312, -0.15173389, -0.06957757, 0.14700921, -0.33052894, -0.42660925, 0.43226007, -0.59548944, -0.05867808, -0.49969965, 0.12723908, -0.11350379, 0.02398878, 0.26536390, -0.79690766, 0.73442137, 0.19151285, -0.27582914, 0.24170691, 0.38245651, 0.49729127, 0.16370782, 0.35318068, -1.25109017, 0.23147394, 0.44197801, -0.40501568, -0.40111032, -0.08494193, -0.33559355, -0.18454678, 0.08166493, -0.63519323, -0.37113446, -0.31563634, -1.21965766, -0.09032101, -0.39039782, 0.39589840, -0.32597458, -0.22742058, -0.62771934, -0.38149220, -0.29728201, 0.13234533, 0.14014457, -0.26048434, 0.38555986, -0.08042859, -0.24267362, 0.22943112, 0.40262994, 0.56772912, 0.15945973, 0.13445985, 0.28750452, 0.49427459, -0.16852337, -0.18567924, -0.46958214, 0.39239469, -0.06078534, 0.17684510, 0.22940527, -0.71371770, -0.33804014, -0.02273916, -0.37030953, -0.13817503, -0.01400695, 0.23677450, -0.32718498, -0.43564746, -0.52421182, -0.77877712, -0.08530623, -0.21254966, -0.06152686, -0.69532263, -0.01598646, -0.27894077, -0.58622468, 0.06764622, -0.33228821, -0.28939268, -0.00711160, -0.31021193, -0.51752234, 0.12059905, -0.17757188, -0.39426664, -0.25453216, -0.19119483, -0.30812046, -0.68450809, 0.16855271, -0.04022489, -0.42181787, -0.06883782, -0.11589422, 0.08164367, -0.46654320, -0.51395756, 0.37262493, 0.97369909, -0.22858511, -0.47353172, -0.03235382, 0.50123674, 0.22209725, 1.01718724, -0.78385377, -0.11901987, 0.78019494, 0.32835871, 0.45013186, 0.45616427, 0.04825879, 0.38898590, 0.03445142, 0.39813900, 0.10512494, -0.43837476, -0.22090007, 0.20324911, -0.14323246, 0.20461152, -0.06065803, -0.59019303, -0.27254209, -0.06594577, -0.94853801, -0.01810388, -0.35952282, 0.21620594, -0.44186568, -0.19515277, -0.71139652, -0.25696149, -0.09320465, -0.11998279, 0.06026822, -0.51483709, 0.31640613, -0.06074959, -0.25071657, 0.29071972, -0.39277440, -0.65968740, -0.66689312, -0.67417717, 0.10750830, -0.25598741, 0.03589132, -2.13808036, -0.04120256, 0.45355928, 0.65619755, -0.83861244, 0.54847950, 2.16982508, 1.70069337, -0.13843091, 1.72354496, -1.15231514, -0.79027951, -0.40720496, -0.53851295, 0.65596378, 2.15796065, 0.84265155, 0.20706874, 0.01654407, 0.32546210, -0.17058632, -0.08273515, 3.34871554, 0.72557557, -0.04824150, 0.06314177, -0.09694429, -0.02748802, -0.33610648, 0.28029817, -0.02730338, -0.70097792, 0.35375053, -0.13765202, 0.37686858, -0.22200654, 0.01693116, 0.12774235, -0.51083493, 0.01869628, 0.41604131, -0.02139282, 0.10691234, 0.75643194, -0.15006901, 0.38636774, -0.92295462, -0.00731796, -0.68767136, 0.34378362, 0.18928517, -0.13066097, -0.86099619, -0.55476612, -0.14070906, -0.72717029, 0.25688249, 0.47147653, 0.33782986, 0.24496585, -0.04373710, 0.30008915, 0.34795704, -0.31673855, -0.07178264, -0.41691941, 0.33739132, 0.09901281, 0.31797957, 0.07207473, -0.52675015, -0.40990785, -0.14108458, -0.71235913, -0.07724179, -0.20725560, 0.54920852, -0.38347417, -0.11976257, -0.56599367, -0.67751813, -0.15172739, 0.01994557, 0.17689715, -0.90931648, -0.00684578, -0.13957663, -0.56633055, 0.24308391, 0.18725520, 0.07877757, 0.04396744, 0.06779217, -0.63406330, 0.08616599, 0.46628943, -0.22721706, -0.23983604, 0.13240501, -0.30556965, -0.37836403, -0.10198408, -0.01680085, -0.11152627, -0.17346776, -0.83613032, -0.07709464, -0.31051090, 0.03460728, -0.15182871, 0.12802348, -0.19723526, -0.04966349, 0.00002924, 0.06206574, 0.01423586, 0.06624096, 0.14164805, 0.06026542, 0.17275462, -0.28117558, 0.41714075, 0.21899672, -0.04593471, -0.58864087, 0.62382829, 0.43359202, -1.25126612, -0.04219931, -0.27356827, 0.45052725, -0.10593299, 0.13195235, -0.01714834, -0.70755398, -0.73914337, 0.07961984, -0.39562440, -0.13101618, -0.02776663, -0.12404110, -0.33625877, -0.53201163, -0.68675941, -1.50458038, -0.10796148, -0.05592348, 0.04830617, -1.02350783, -0.76906884, -0.28081116, -1.17828989, -0.25104302, -0.60773200, -0.02650962, 0.00878161, -0.25616878, 0.27850476, 0.04467169, -0.71626854, 0.79035962, -0.05432525, -0.22517106, -0.36081326, -0.30920947, 0.16324368, -0.33018690, -0.42058054, 0.13977447, -0.28404543, 0.63211906, 0.47730258, -0.41257453, 0.83550638, 0.47085026, -0.66274303, -0.75161052, 0.37923941, 0.47486293, 0.28332481, 1.26899087, -0.65736896, -1.10535347, 0.09713674, 0.36528242, 0.64977109, 0.47908297, 0.30284977, 0.15034434, 0.11163577, 0.46499851, 0.14348625, -0.28674084, -0.36258680, 0.15156257, 0.03356518, 0.37185407, 0.22462788, -0.55464947, -0.24742712, -0.03210187, -0.64116472, -0.22185163, -0.08738283, 0.54575491, -0.47353965, -0.08060448, -0.58281749, -0.46472374, -0.00389874, -0.16223881, 0.19585636, -0.35739112, 0.40886506, 0.03923368, -0.10770965, -0.77659446, -0.55248576, -0.31866026, -0.09479012, -0.72137666, -1.10178995, -0.38358444, -0.37595364, 0.51789385, 0.30595100, -0.21744253, -0.02383155, 0.14519624, 0.45075852, 0.00695752, 2.71129823, 0.62253767, -0.09645367, 0.09104161, 1.61761796, 0.19136688, 0.70729208, -1.90374625, 1.65994954, 1.41932392, 0.68815345, -0.13886629, 0.15873083, -2.88457274, 0.49417958, 1.52296758, -2.38101792, -0.21193790, 0.15461360, -0.21569706, -0.34587076, -0.17004068, 0.30380380, -0.13198361, -0.79089856, 0.17246957, -0.33469382, -0.45482624, -0.01228451, 0.58837062, 0.18912281, -0.62913644, -0.29437572, 0.25624946, 0.27131751, -0.37974572, -0.01380682, -0.09496615, -0.40631273, -0.44681144, -0.75252706, -0.16160932, -0.02997783, 0.34860510, 0.13371763, -0.32966313, 0.25653496, 0.04654926, -0.44278702, 0.24467243, 0.24674203, 0.12406705, 0.28192100, -0.02575451, -0.56416082, 0.35448551, 0.27428123, -0.19403496, -0.39789072, 0.04763490, -0.50573593, -0.59669840, 0.18677729, -0.33900574, -0.00063429, -0.36299372, -1.05468071, 0.16755702, -0.12132603, -0.01210714, 0.08537465, 0.08633413, -0.18977425, -0.39375669, -0.13487320, 0.14292742, 0.10714763, 0.17355706, -0.34766224, -0.02915069, 0.09213410, -0.28165463, -0.77409685, -0.57010537, -0.64268929, -0.23143077, -0.04048222, -0.38183087, -0.32801509, 0.49235469, 0.37843069, -0.38444433, -0.49223161, 0.56237221, 0.13873167, 0.36318612, 0.48240462, 0.85352385, 1.12467742, -0.02398243, 0.71905321, -0.44712937, 1.86429226, 0.33494997, 0.62824088, 0.98364145, 0.69142419, 1.20334530, 0.15416709, 1.76205742, 0.15611236, -0.07400483, 0.77676517, -0.18320471, -0.34554759, -0.07155088, -0.15220357, -0.36293626, 0.80567437, 0.13970591, -0.41104507, -0.64593446, 0.06227466, -0.16997933, 0.84721208, -0.07338008, 0.22898607, 0.22713938, 0.42034683, -0.32954848, 1.34480703, -0.13041751, -0.45435295, 0.07430083, -0.36521941, 0.30199578, 0.65618122, 0.74296814, -0.18155469, -0.11631369, 0.23736331, -0.31957433, -0.00950620, 0.89006406, -0.11785132, 0.21379223, 0.03824291, 0.24674219, 0.12388098, -0.01090349, -1.20649314, 0.13168286, 0.44643486, -0.22064953, -0.30601761, -0.21660294, -0.14814955, -0.35481390, 0.02505027, -0.56219059, -0.27486861, -0.30882657, -1.08982420, -0.02874129, -0.07901976, 0.26029867, -0.22806391, -0.19240668, -0.62837481, -0.47813797, 0.05078611, -0.06908516, 0.17745900, -0.25506306, 0.12502940, 0.14104098, -0.24541295
};

static const float net_2_bias[32] = {
  -0.12566341, 0.08094545, 0.15405777, 0.02746051, 0.22481845, 0.18055966, -0.02762381, 0.01463564, 0.16317545, 0.05088899, -0.07803189, 0.07522619, 0.16458863, 0.14140029, 0.12452616, 0.05132056, 0.12572172, 0.41535336, 0.15822800, 0.69729233, -0.12396260, 0.23394544, 0.11872646, 0.06004076, -0.06042838, 0.06790014, -0.01213803, 0.22017193, -0.01461573, 0.51726204, 0.24854003, 0.02457312
};

static const float net_4_weight[1024] = {
  0.08429214, 0.18305974, 0.10587183, 0.05754628, -1.17441702, 0.32641077, -0.89106238, 0.07792051, -0.14056598, 0.16318817, 0.57876259, 0.05256195, 0.49804839, 0.53240228, 0.76201475, 0.26619437, 0.31744421, -1.63493514, 0.45791417, -2.18510628, -0.19859703, 0.30343711, -0.03128551, 0.00969849, -0.96612024, 0.76781142, -0.06696645, 0.75763416, -0.67944413, -0.31412253, 0.53719705, -0.69578034, -1.13156438, 0.56802261, 0.09986881, 0.71675187, 0.19122313, 0.34820113, -0.23392680, -0.22437143, -0.29415235, -0.21847369, 0.27445179, 0.37956181, 0.28232342, 0.33808988, 0.85898173, -0.39207411, 0.21166955, -0.77818376, 0.24313307, -2.46533918, 0.29552147, 0.45767707, -0.23596872, 1.06796098, -0.42965981, 0.10738555, -1.52165520, 1.43573713, -0.40886331, -0.31276226, 0.36645633, -0.53921384, -0.86305761, 0.43192202, 0.20340274, 0.30201513, 0.25022802, -0.79214621, 0.51016462, 0.17070185, 0.30273452, -0.02147006, -0.41684330, 0.12454359, -0.04710369, -0.04269194, -0.53402144, 0.21881147, 0.06614627, 1.03917205, 0.32708183, -0.28323901, 0.07594548, 0.04658104, 0.40252918, 0.17689304, 0.56577110, 0.23753431, 0.13787265, -0.71599853, 0.48915860, -0.34376070, -0.33556890, 0.35125050, -0.72800863, -0.12991562, 0.58417004, -0.36119539, -0.80994475, 0.54970330, 0.29161119, 0.43123007, 0.54017371, -0.34279162, 0.42396009, 0.06346089, 0.42305735, 0.50426024, 0.30408379, 1.03398001, 0.27419418, -0.49035919, 0.51088303, -2.86770463, -0.59746593, 0.08842792, 0.40850079, -1.16441214, -0.86624455, 0.41635329, 0.15370169, 0.04932823, 0.34706086, -0.93536347, -0.11534106, 0.95500815, -0.30682173, -0.00340102, -0.10544456, 0.16382927, 0.14652203, -0.79314256, -0.32741922, -0.64057761, -0.72210383, -0.23667976, -0.84412342, 0.21196246, 0.10543840, -0.31084675, -0.05003273, -0.07656296, -0.11643936, 0.28576174, -0.14447996, 0.20791335, 0.54293180, 0.06762388, 0.07965419, -0.09540243, 0.79344106, 0.11502032, -0.16851829, -0.00228860, 0.35345596, 0.09192651, -0.07410341, 0.00935879, -1.02153194, 0.09974662, 0.85543793, -0.38186577, -1.26632619, 0.18598424, 0.56042397, 0.62320602, 0.58032066, -0.27519915, 0.59603393, 0.08888602, 0.62276256, 0.30578011, 0.14190798, 1.09353828, 0.11915097, -0.74997389, 0.31205973, -3.53660965, -0.65632218, 0.36001137, 0.30104250, -0.73532891, -0.77553749, 0.60514665, -0.07304365, -0.70766711, 0.54457033, -1.24112725, -0.24220853, 1.17087364, -1.32367873, 0.51934540, -0.27864480, 0.48469359, -0.19724298, -0.96539110, -0.46785095, -0.31214532, -0.54540199, 0.52748960, 0.28761992, 0.14287883, 0.08844484, 0.24575357, -0.03829196, -0.31423506, 0.26225442, -0.91670018, 0.17153846, -1.96874893, 0.64436638, 0.33534205, -0.44047615, 0.88460666, -0.09287035, 0.33539894, -0.64173156, -0.24593081, -0.40897211, -0.25901541, 0.00993130, -0.77278733, -0.08608688, 0.01070280, 0.13661341, 0.04768924, -0.15928079, -0.13603176, -0.46973473, 0.24447151, -0.09926184, 0.03922803, 0.08471611, 0.21060416, 0.27441460, 0.41895062, 0.28043857, -0.10723031, 0.14626247, -0.11135019, 0.31358424, -0.05619831, 0.15605429, -0.01363058, -0.23105407, 0.16114421, 0.06922183, 0.42334360, 0.01640557, 0.26924339, -0.63244092, 0.01925163, -0.00474438, -0.12985960, -0.68282139, -0.11642797, 0.80870533, -0.34997019, -1.36549401, 0.41229269, 0.23633219, 0.43548638, 0.49055654, -0.39140967, 0.49675828, 0.15716183, 0.36455557, 0.45626944, 0.54511124, 1.03666747, 0.20797336, -1.02237833, 0.32546437, -3.38046145, -0.77040136, 0.25725487, 0.34653452, -1.06887925, -0.82041407, 0.64702708, -0.13696733, -0.33657920, 0.33571604, -0.80633307, -0.12284344, 0.89392263, -0.71245980, 0.09117816, 0.61803001, -0.07837842, -0.47055832, -0.20946531, 0.54747528, 0.54317814, 0.26857847, 0.23218715, -0.08148851, -0.09002376, 0.35325801, -0.13115323, -0.00594304, 0.82767546, 0.08117434, 0.09220853, 0.03193490, -1.42017317, -0.37678570, 0.22084443, 0.51522344, -0.58534032, -0.11950133, 0.59855342, 0.35515040, -0.90830582, 0.43656695, -0.26831719, -0.32251564, 0.64436418, -0.72875565, 0.35551593, -0.06569779, 0.39529830, -0.02974350, -0.52227783, -0.65580922, -0.42625132, -0.28433296, -0.03288094, -0.15416817, -0.34284467, 0.07049012, 0.08652978, -0.01461733, -0.24119583, 0.14316702, 0.25519919, 0.03472646, -0.37579817, 0.21418068, 0.05779245, -0.04225207, 0.75962842, 0.28930679, 0.23667753, -0.18395682, -0.17558843, -0.41706580, 0.09171415, 0.11275807, -0.84874552, 0.13778418, 0.25665811, -0.09076569, 0.15191625, -0.22448492, 0.32898375, -0.48969853, 0.07728237, -0.11066763, -0.10258026, 0.04913428, 0.16374469, 0.34554633, 0.35935238, 0.20669228, 0.03830295, 0.08885861, -0.00180300, 0.03409051, -1.06758797, -0.33596858, 0.25718424, -0.29200825, 0.65725762, -0.50420094, 0.30981159, -0.52126825, 0.39448908, -0.05596218, 0.12383574, 0.49009559, -0.43495274, 0.16470848, 0.04967857, 0.26704177, -0.13731624, -0.94849378, 0.45670012, -0.59673011, 0.11961153, 0.01776808, -0.00921437, 0.33504611, 0.13055815, 0.57292050, 0.56023431, 0.79186797, 0.56624913, 0.33756271, -0.87384111, 0.26860371, -2.03262806, -0.34553757, 0.39971143, -0.12264749, -0.47173610, -0.79660070, 0.60660607, -0.01103152, 1.07695544, -0.38182160, -0.53819281, 0.33333212, 0.00884627, -1.92011034, 0.49633175, 0.39335606, 0.64874071, 0.07183366, -0.68493146, 0.80223560, 0.32867357, 0.40094367, 0.13436456, -0.05800502, 0.12391303, 0.16413356, 0.06485448, -0.55914068, 0.30331963, 0.31774732, 0.99222481, 0.23417038, -1.85037673, 0.19208771, 0.08917221, 0.63759863, 0.46648523, 0.32723108, -0.09083522, -0.08875230, -1.09434628, 1.12192845, -0.71884924, -0.78140360, 0.74097151, -1.77150476, 0.45711049, -0.02288461, 0.22154254, -0.41293162, -0.77198702, -0.34843373, 0.45916143, 0.10655269, 0.59841293, 0.19270931, 0.03242091, 0.42092130, 0.17256834, -0.09996555, -0.21266732, 0.26840505, -0.05531425, 0.28701380, -1.21009457, 0.38346502, 0.14039087, 0.11078218, 0.80254477, -0.01436845, 0.55588233, -0.64864933, -0.62661564, 0.37511888, -0.58581495, -0.46522677, -0.67321599, -0.04695349, 0.29797530, 0.09811708, 0.04619474, -0.58322847, 0.93352622, -0.44015425, 0.27794030, 0.03369947, 0.27389085, 0.17520249, 0.34601632, 0.36774069, 0.47041717, 0.67062646, -0.08903773, 0.21344581, -0.40684217, 0.36297023, -1.35170853, -0.10790019, 0.39397720, -0.03110866, -0.09012263, -0.87593246, 0.20608553, 0.03941112, 1.49444532, -0.20871754, -0.04013978, 0.50843573, 0.13804907, -1.21288884, 0.30233204, -0.36032778, 0.25118819, -0.26881957, -0.85026634, -0.68782276, -0.54578018, -0.62778294, 0.37248725, 0.08308538, 0.08489604, 0.14446931, 0.07703945, -0.11649714, -0.31361103, 0.40415257, -0.22195402, 0.24146426, -1.27092457, 0.25804108, 0.35997787, -0.48235741, 0.82671452, -0.25339264, 0.36897722, -0.44660234, 0.07793107, -0.44658604, 0.10934339, 0.31225455, -1.15667987, -1.64532042, 0.33222196, 0.45319885, 0.57909250, -0.09467725, -0.12536678, 0.06992312, 0.08080776, -0.25217456, -0.01223906, -0.14584361, 0.20218641, 0.35285664, 0.05804956, 0.09213950, -0.07760549, 0.00560778, 0.17782709, 0.00046331, -1.69208252, -0.00295361, 0.11384192, 0.01855029, 0.82448143, -0.02614573, -0.05827606, -0.96893668, 0.49291641, 0.08674918, 0.02553721, -0.08285732, 0.15877636, -1.82065296, 0.44673902, 0.27717680, 0.64798534, -0.17206003, 0.02919834, 0.01509914, 0.16641718, -0.37383607, -0.08739793, 0.37011907, 0.32162827, 0.37146902, 0.28947854, 0.37925389, -0.32474717, 0.47197425, -0.65355670, 0.25840965, -2.97587562, 0.35161236, 0.38808963, -0.06878781, 1.01866245, -0.34793311, 0.17937775, -1.41956472, 0.56784785, -0.21499549, -0.78230363, -0.00958949, -0.31109914, -2.09398484, 0.79878020, 0.14345109, 0.59439415, -0.79574293, -0.25768077, -0.27099741, -0.02574918, -0.64179039, -0.19464971, 0.48439586, 0.46675733, 0.67851681, 0.46477962, 0.31174821, -0.33412182, 0.68398637, -1.51538646, 0.29393515, -4.19817686, 0.43751389, 0.58050132, -0.27733502, 1.65708518, -0.50331926, 0.70986682, -1.69482732, 0.19042671, 0.03482105, -1.50788856, 0.22000434, -0.31477958, -2.14779496, 0.60596502, 0.18060906, 0.68439597, -0.78944039, -0.51920176, 0.06181701, 0.17740788, -0.22294147, -0.21494156, 0.38821396, 0.34322590, 0.45033330, 0.33675328, 0.06423997, -0.09982347, 0.50386369, -0.96483451, 0.29991016, -3.01884079, 0.26330271, 0.36329657, 0.22149916, 1.28316545, -0.17844391, 0.57111645, -1.41583252, -0.44526565, 0.42241251, -1.04159784, -0.17451662, -0.01735773, -0.26747280, -0.03739158, 0.42863190, -0.14775719, -0.86255848, -0.10160304, -0.04240650, 0.41333690, 0.31218874, 0.12225976, 0.18816127, -0.07288157, 0.42043760, 0.37689272, 0.37359253, 0.79199237, 0.09589885, -0.12619288, 0.16787435, -1.40173125, -0.66037208, 0.08847659, 0.44590500, -0.72352201, -1.06960738, 0.65123171, 0.18792859, -0.20686644, 0.19719778, -0.45842537, 0.01036378, 0.28199062, -1.77906966, 0.39129841, 1.06794286, 0.45245793, -0.23568507, -0.14562622, 1.29427016, 0.57290077, 0.24206822, -0.36956713, -0.09375182, 0.16566658, 0.16870067, -0.11002120, -0.37951210, 1.24439228, 0.31962961, 0.46649215, 0.44921637, -2.21827269, 0.01565701, 0.40210387, 0.79093343, -0.02547356, 0.55979347, 0.15838282, -0.49238062, -1.05863500, 0.96885598, -1.21165800, -0.49032867, 1.28902936, -1.48963547, 0.36653540, -0.34943503, 0.55678755, -0.94719845, -0.21005155, -0.73829728, -0.51467913, -0.52833521, 0.10919405, 0.69429463, 0.46899396, 0.52759945, 0.64822930, 0.66220582, -0.19755523, 0.64613217, -2.01733160, 0.47577229, -3.73975730, 0.35928518, 0.49648690, -0.57525504, 1.43878031, -0.66432977, 0.63162893, -1.36111653, 0.77260369, -0.68210429, -0.86077303, 0.22050224, -0.97352028, -0.76938260, -0.01764764, 0.68936497, -0.29848251, -1.45545816, 0.45277908, 0.52458203, 0.55025357, 0.38759011, -0.35032293, 0.56665897, 0.00097790, 0.52342683, 0.63653600, 0.47211358, 1.47571361, 0.27204373, -0.88053715, 0.55965334, -3.82290626, -1.02900839, 0.19676845, 0.42936182, -1.36010838, -1.04190516, 0.52380335, -0.08402926, 0.08189455, 0.27997345, -1.22433925, -0.37987971, 0.88922799, -0.16601346, 0.21120362, 0.10405891, -0.04700987, -0.08334436, -0.37078053, 0.44489816, -0.05180490, -0.22853087, -0.01739237, -0.63825864, 0.04628970, -0.02771560, -0.52772212, -0.49752566, -0.00204172, -0.05670976, 0.01493393, -0.13507965, -0.03502233, 0.10723916, 0.06788921, 0.40654334, -0.06426576, 0.16287874, 0.34855327, -0.01104090, -0.45545501, -0.12901832, 0.04249096, -0.05041773, 0.14026323, -1.17885196, 0.14507431, 0.87360871, -0.36052173, -1.48275161, 0.60503536, 0.75470942, 0.73526257, 0.67550588, -0.62704837, 0.38614294, 0.17758653, 0.75703907, 0.46230596, 0.49142268, 1.65482008, 0.18256089, -0.67388970, 0.43278801, -3.97020698, -0.90103942, 0.17601120, 0.63267976, -1.02515256, -0.80985910, 0.33020014, -0.25729200, -0.48737389, 0.51926005, -1.22638595, -0.60088664, 1.57452762, -1.56283402, 0.42311847, 0.34001562, 0.48364422, 0.12500651, -0.67984682, 0.23414905, 0.26760134, -0.05693820, 0.21306087, -0.13210380, 0.21706845, 0.19596259, -0.16394036, -0.58208227, -0.10322167, 0.30290955, 0.62366337, 0.20461161, -0.69049191, 0.46973720, 0.16085631, 0.21823555, 0.71934515, 0.35736254, -0.10417972, -0.32102528, -0.56873345, 0.55932814, -0.21837462, -0.56037211, 0.15380964, -1.55909240, 0.33569485, 0.58707184, 0.26699883, 0.10260671, -0.55903929, 0.77788424, 0.37577865, 0.27662677, 0.50677299, -0.40950415, 0.05813494, 0.28810549, 0.01000515, -0.38794923, 0.61803055, 0.14948910, 0.99732250, 0.05603198, -1.78647661, 0.03255412, 0.08982112, 0.48937416, 0.11864106, 0.39013600, 0.01294942, 0.00647338, -1.07796896, 0.68885833, -0.35823834, -0.73300922, 0.72783983, -0.37155959, 0.10056094, 0.21466601, 0.24964255, 0.10686248, -0.41453633, -0.31697223, -0.07333046, -0.08851296, -0.14438944, -0.54183906, -0.11543690, 0.02517949, -0.21444111, 0.01372028, -0.30514848, -0.07499997, 0.36143041, 0.19274321, 0.00612057, 0.26983145, 0.10161762, 0.26462343, 0.33974937, 0.41501114, 0.00042986, -0.07605104, 0.02108446, -0.18256041, -0.00820293, -0.01967923, -0.04122028, -2.25322437, 0.59633279, 0.10449421, 0.55573249, -0.70820999, -0.34339538, 0.16813725, 0.20707309, -0.27437794, -0.23799857, 0.41583505, 0.32253176, 0.70103556, 0.38729492, 0.39014640, -0.16287540, 0.30032134, -0.95311236, 0.30789834, -3.65938854, 0.41385642, 0.33496433, -0.11466258, 1.62919736, -0.21747266, 0.26507613, -1.59412169, 0.10429418, 0.25746244, -1.01136839, -0.16004902, -0.14326552, 0.02126873, -0.06674597, 0.34210798, -0.29079369, -0.19321801, 0.06345738, 0.21582770, 0.13588820, 0.10591971, 0.13292444, 0.12244389, -0.06039172, 0.41209590, 0.13198958, 0.00997805, 0.84297210, 0.14359422, -0.08888569, 0.23856154, -0.20543230, -0.20886429, 0.16984138, 0.22196788, -0.70295304, -0.36972013, 0.32295656, 0.11327695, 0.04695873, -0.02218904, -0.05334721, 0.08141960, 0.18024905
};

static const float net_4_bias[32] = {
  0.28514832, 0.18547063, -0.03221259, -0.06572586, 0.88616318, -0.07956079, 0.13601972, 0.10248073, 0.05097609, -0.17510083, 0.32712123, 0.30800930, 0.27910098, 0.13729230, 0.09979676, 0.16604416, 0.02845326, 0.18227689, 0.01091998, -0.09482960, 0.02514060, 0.23038393, -0.20157561, 0.01160869, 0.09758250, 0.19404297, -0.00971130, 0.20429251, -0.04680699, 0.22004779, 0.02020835, -0.01134797
};

static const float net_6_weight[96] = {
  -0.13992622, 1.68550134, 0.00702134, -1.38346279, 0.03022459, -1.48809624, 0.81044894, 0.24127464, -1.52579510, -0.69063169, 0.63269258, 0.17194159, -0.66470200, -0.00630696, 0.96891278, -0.13559987, 0.89092290, 1.01471448, 1.51566267, 2.03318262, 1.39897418, -0.88843101, -0.54710138, 1.73524714, -1.92428672, -0.13480927, -1.73718870, 0.70150054, -0.36965749, 0.34615758, 1.84519303, -0.60718465, 0.56898135, -0.17788397, 0.00636015, 0.41266125, -0.00245607, 0.78755987, 0.48809043, 0.15261503, 0.76776677, 0.15203474, 0.06270415, 0.03862840, 0.32946137, -0.19840991, 0.47843194, -0.05809918, 0.35331446, -0.23197670, 0.26518148, 0.70215595, 0.56699127, 0.24269301, 0.06696934, 0.83851629, 0.75337279, 0.03719721, 0.61193490, -0.07913224, -0.10079230, -0.02781073, 0.45763516, 0.07028689, -1.02815306, -0.32778105, 1.12304235, 0.19996703, 0.00615749, 0.62419105, 0.05059171, -0.41097936, 0.09158643, 0.30219841, 0.03331090, -0.37441692, -1.08441591, 2.30658793, 0.66339284, -1.31718612, -0.17839329, 0.57055205, 0.34888992, 0.38299930, 0.82939911, -0.36114657, 1.66774797, -0.34898701, 0.14000428, 0.60805100, 0.65355510, 0.92645788, 1.52146089, 0.03995260, 0.67591912, -0.28137368
};

static const float net_6_bias[3] = {
  -0.07038197, 0.05964082, -0.00692047
};

static const float input_mean[3] = {0.00000000, 0.00000000, 6749.99951172};
static const float input_std[3]  = {2338.09155273, 2338.09155273, 4214.56005859};
static const float output_mean[3] = {0.00000001, 0.12292606, -0.00000000};
static const float output_std[3]  = {22.14661598, 71.60929108, 22.14662170};
