// Auto-generated field NN weights
// Architecture: [512], activation=silu
// Parameters: 3587, FLOPs: 8192
// MAE: 8072.98 Gauss, p99: 50780.0 Gauss

#pragma once

static const float net_0_weight[1536] = {
  -0.19922478, 0.03097568, 0.43646041, 0.47362268, -0.48639902, -0.23553002, -0.16932614, -0.33800846, 0.34526023, 0.00844427, -0.33291605, 0.26828682, -0.00674635, 0.39928851, -0.15933743, -0.05724055, -0.45837697, -0.25542700, 0.23059759, 0.06055094, -0.04716880, 0.50380236, 0.14103623, -0.10898013, 0.02590510, -0.19225062, 0.46939388, -0.32918549, 0.27486953, -0.42434540, 0.42306057, 0.15196563, -0.24694772, 0.37043315, 0.14531852, -0.24557620, 0.17702405, 0.12097634, 0.16187733, 0.09059578, 0.00223158, -0.29537925, -0.53732640, 0.37038523, 0.06434289, -0.02920739, 0.01612780, -0.24186696, 0.20528711, 0.36020201, -0.04426585, 0.11013243, 0.24920596, -0.24538350, -0.39728579, 0.33284804, -0.32056576, 0.32372677, -0.50607091, 0.17696001, -0.50959796, 0.40699023, -0.27483678, -0.50812083, 0.30017084, -0.54740822, 0.34198761, -0.15215093, -0.36175874, -0.32415518, 0.08457672, -0.03528663, -0.22129427, -0.09527642, 0.27044711, 0.46948230, -0.26800862, 0.09230664, -0.02232262, 0.07697719, 0.03956232, -0.02598265, 0.01266171, -0.17946866, 0.20197165, 0.19428077, -0.13864838, 0.04030744, -0.35669532, 0.12591548, 0.02554451, -0.36971295, -0.16949908, -0.42706883, -0.08648930, -0.45197037, 0.30655897, -0.23531045, -0.04887388, 0.04955591, 0.33057091, 0.29553035, 0.34899515, -0.15091370, -0.16598076, -0.20968224, -0.33748868, -0.30766600, -0.31929314, 0.27705246, -0.44962028, -0.22504255, -0.03074467, 0.22856802, 0.45411354, 0.35847896, -0.10314694, -0.23729685, -0.22758046, 0.31394547, 0.12751731, 0.31661803, -0.10022656, -0.07354424, 0.37361178, 0.44778749, -0.06460692, 0.22818457, -0.38042337, -0.00233538, 0.00037406, -0.23324002, -0.55208224, 0.06684913, 0.32827270, 0.39733425, 0.37476343, 0.11583035, 0.32608184, 0.43293005, -0.43333006, 0.21066540, -0.24463351, 0.23814872, -0.24613139, -0.15887041, 0.46587202, 0.13486791, -0.07308365, 0.28653565, 0.07998165, 0.03723042, -0.29783165, -0.04598152, -0.08296990, 0.18606913, -0.47638628, -0.40808564, 0.21533479, 0.27572656, 0.26907015, 0.31578672, 0.11757217, 0.22145669, -0.15361375, -0.01581991, -0.03573848, -0.37440294, 0.09738313, -0.06630504, 0.53462648, 0.05142748, -0.39406729, 0.15046048, -0.54059362, -0.11774542, 0.44123212, -0.16591337, 0.14482775, 0.14247531, 0.39184096, -0.09455461, 0.01939641, -0.73003268, -0.50057930, 0.59580988, -0.07234140, -0.35649365, 0.19448559, -0.12548487, -0.34570763, 0.41545540, -0.21019016, -0.45526975, 0.37059730, 0.52148259, 0.01903919, 0.28325912, 0.13501598, -0.19524640, 0.13735880, -0.13025440, 0.41930225, -0.55123937, -0.03454818, 0.07033528, -0.31705993, -0.02705950, 0.09550314, -0.09437642, 0.05237438, 0.37749118, -0.23840781, 0.37994614, 0.24043611, -0.34995937, -0.23931912, -0.18403146, -0.31559348, 0.53997856, -0.35160911, 0.28090337, 0.41586274, 0.42188174, -0.16839290, 0.07628246, -0.00605922, -0.29513186, -0.06016437, -0.23888877, 0.28851885, 0.35166886, 0.04542200, -0.21550870, -0.33068669, 0.18703939, -0.07202325, 0.50254381, -0.42947802, 0.49362150, 0.45050356, 0.05031304, -0.30556753, -0.28771010, 0.29001942, 0.12981968, 0.25312385, 0.10073885, -0.30854243, -0.25694802, -0.10787174, -0.11942941, -0.11507276, 0.14961877, -0.08239513, 0.21475491, -0.07298643, -0.18886662, -0.08038988, 0.20378067, -0.48395285, -0.02296609, 0.01478341, -0.09163213, -0.02346003, -0.14907938, 0.42177206, 0.42146450, -0.13294613, 0.06039450, 0.15025583, 0.35196069, -0.34005180, -0.25654832, -0.14528264, -0.07026225, 0.15945853, 0.48980519, -0.16778274, -0.42667016, 0.50792068, -0.02450329, -0.44773957, -0.09667295, -0.35085574, 0.00933759, 0.06760861, -0.45201015, -0.28403625, 0.01871952, 0.15805405, -0.10769443, 0.41373518, 0.07491703, -0.12734367, -0.31196463, -0.28532466, -0.33663529, -0.00594465, 0.20571819, -0.12311607, -0.00055854, 0.22198741, 0.31487608, -0.01698067, -0.08564992, -0.38274476, -0.38630503, 0.32018048, -0.00524444, 0.35498953, 0.39711729, -0.53770792, -0.47152293, -0.13069458, -0.12323141, -0.03294717, 0.20129953, 0.57401502, -0.29911068, 0.23722444, -0.34779060, -0.24749190, -0.26209536, -0.40543145, -0.41805729, -0.48967803, 0.33687094, -0.03802473, 0.37812993, 0.53004450, 0.52437824, -0.33370492, -0.06631557, 0.26628342, -0.40460509, 0.05353323, 0.18838315, -0.10608939, 0.35129005, -0.42466018, 0.18730219, 0.04317765, -0.21901023, 0.02697715, -0.02055015, 0.19742844, 0.39487153, -0.16986477, -0.30427277, 0.09709001, 0.51852643, 0.24116772, -0.20190799, 0.28997552, -0.03791103, 0.49767023, 0.58023548, -0.24209140, 0.43998167, -0.14913574, 0.16400707, -0.44417045, -0.21859898, 0.01986980, 0.15264270, 0.28395325, 0.34705430, 0.11596783, -0.11098725, 0.17989552, -0.39768901, -0.36920893, 0.40114167, 0.21926767, -0.50227392, 0.25351813, 0.07291744, -0.38190237, 0.20861951, 0.11820987, 0.15748136, -0.47905490, 0.42151511, 0.37481850, -0.06977775, 0.07769763, -0.53739768, 0.39265755, 0.10812744, 0.21742702, -0.26428878, 0.19398236, 0.08223089, -0.20197925, 0.26874059, -0.13888146, 0.39288872, 0.52834225, -0.00704266, -0.11250357, -0.13000531, -0.09635797, -0.26480216, -0.12889354, 0.30645892, -0.18978116, -0.35675120, 0.16105187, 0.09893289, -0.07231344, 0.36797753, -0.00510657, 0.06017428, -0.40591672, 0.30607343, -0.28352472, -0.20183083, -0.41131935, 0.04985424, -0.46456128, -0.01617013, 0.31671062, -0.33774590, 0.46605834, -0.40776357, 0.31871611, -0.24813882, -0.52885723, 0.00102391, -0.03294316, -0.53442073, -0.41359156, -0.03929599, 0.06576108, 0.20472798, -0.37716201, -0.37787834, -0.22287101, 0.07936645, 0.07078724, 0.06461645, 0.05382124, 0.18553753, -0.02377466, -0.00829717, -0.28270626, 0.07828433, -0.20876135, 0.02130957, -0.13287279, -0.04919429, 0.25074741, 0.44198394, 0.51144034, -0.24514306, -0.19432417, 0.07195290, -0.17567602, 0.27734193, -0.33916190, 0.24006754, -0.00725723, 0.36793754, -0.23205224, -0.44717106, -0.29725584, 0.12160507, 0.41945404, -0.33288336, -0.10786267, -0.38995305, -0.18928757, -0.11007481, -0.32515639, 0.02350886, -0.22320400, 0.27345997, 0.00520142, -0.31447902, -0.10029025, -0.01992962, 0.13258825, 0.14748515, -0.35296652, -0.55416059, -0.15548781, -0.42145634, -0.33417836, -0.41875759, 0.31000984, 0.07193656, 0.03808825, -0.06048119, 0.15813479, 0.12677117, 0.21651049, -0.09984366, 0.40261015, 0.45793480, -0.60613436, 0.62559623, -0.45182580, 0.45736408, 0.08619585, -0.23825380, -0.42461178, 0.52657843, -0.29012218, 0.45519698, 0.22846422, -0.37559500, -0.25364238, -0.26787683, 0.17840329, 0.10633374, 0.27164194, -0.09563825, -0.39285526, -0.06842545, 0.31556681, 0.02008289, -0.39235285, -0.03046321, -0.22382736, -0.32117048, -0.22021060, 0.35917616, -0.16182749, 0.07140087, -0.03825364, 0.40718624, 0.01786232, 0.36257145, -0.16230758, -0.02352984, 0.18217145, -0.36770466, 0.01317218, -0.16292873, -0.34747887, 0.22022709, 0.23209247, -0.36810327, -0.43148050, 0.60615849, 0.46664938, 0.07940820, 0.21158352, 0.20121877, -0.04118929, -0.21848637, 0.10908283, 0.02483532, -0.28207749, 0.04298767, -0.27798221, 0.11891651, -0.41913074, -0.18572211, 0.33391842, -0.30202821, -0.29147014, -0.13668433, 0.40109086, -0.01635527, 0.37634832, -0.04231942, 0.05971329, -0.19047582, -0.34528726, 0.35824445, 0.03661289, 0.01516854, 0.50053883, -0.40694883, -0.04363792, -0.01770323, 0.09358206, -0.41508400, -0.38062006, -0.01558354, -0.01468491, -0.14103723, 0.44978908, -0.45545876, 0.32926369, 0.33008933, 0.18226722, -0.00563188, -0.04948410, -0.45151040, -0.25106189, 0.43129855, 0.35183424, -0.23166321, -0.16866857, -0.47582662, -0.05986219, 0.14323317, -0.35027766, 0.34327528, 0.10689264, 0.21342070, -0.43720555, -0.16076864, 0.30241108, 0.48763776, -0.50901532, 0.12301797, 0.19554006, 0.18125632, 0.44052407, 0.14515521, 0.25356245, 0.21122068, -0.17525199, 0.16527615, -0.23814279, -0.42169046, 0.36116436, 0.02069929, 0.26881105, 0.44650176, 0.48694697, -0.31369656, 0.44316947, -0.35110235, -0.22434381, 0.45102155, -0.51045954, 0.04401952, -0.38907102, 0.40031442, 0.00466790, -0.08218172, -0.23966220, -0.11182078, 0.30561495, 0.29393440, 0.13606586, 0.26273149, 0.28815642, 0.19285214, -0.44122022, 0.46043837, -0.27883485, -0.16913432, 0.15123342, 0.27579457, 0.09233970, -0.16602620, 0.03619966, 0.12349267, -0.39249834, -0.25394592, -0.32744789, -0.19350049, -0.02709423, 0.20794454, -0.24178362, -0.46083611, 0.16106164, -0.21310553, 0.07505334, 0.35038301, 0.38059342, -0.08869995, -0.19945532, -0.16491428, -0.04423236, -0.23324229, 0.43558860, -0.42235839, 0.41966614, -0.17271529, -0.45654705, 0.24507666, 0.15869831, -0.22340076, 0.10465952, -0.53348660, 0.21249060, 0.36761045, -0.54574746, 0.34947324, -0.39535660, 0.33261228, -0.38542557, -0.21177763, 0.13405631, -0.10236562, -0.11165446, -0.00208865, 0.37525409, -0.49008057, -0.26750672, 0.13475761, 0.29647857, 0.00532948, -0.12019967, -0.19223775, -0.46649408, -0.08579551, -0.03105239, -0.04361539, -0.01309353, 0.38745055, 0.04549024, 0.04162018, -0.45165360, -0.18236363, 0.12793733, -0.25626898, 0.26511395, 0.22027376, -0.27097234, 0.15440035, 0.05302564, -0.16459922, 0.23887959, -0.12060859, -0.04858309, 0.04710874, 0.05768622, -0.20267265, -0.51839584, 0.25873759, -0.20802897, 0.48179442, -0.23943323, 0.42424017, -0.29253122, -0.15909916, -0.16158114, 0.24050710, -0.23227344, -0.11627559, -0.32210991, -0.40279818, 0.27987802, 0.19748168, -0.25723636, -0.38231286, -0.16936126, 0.44251594, 0.32024759, 0.48377460, -0.24745138, -0.01060900, 0.06676584, -0.31068867, -0.20486066, 0.66098553, -0.43930581, -0.28363490, -0.10843509, -0.04469560, 0.30051962, 0.04982501, -0.21482894, 0.03717748, 0.53868121, -0.43602785, -0.39439479, -0.50344539, 0.35938317, -0.42273930, -0.21335512, 0.18139572, -0.25905174, -0.51677155, 0.25209495, -0.12535404, 0.05702854, -0.24937537, 0.23066124, -0.15403616, 0.07477507, -0.06046294, 0.26340264, 0.10448013, -0.16207871, -0.25217101, -0.20989946, -0.37533468, 0.02218007, -0.02136279, 0.19113931, 0.37997049, -0.19652593, -0.43491131, -0.27300021, -0.02008629, -0.31191456, 0.24358900, 0.39198539, -0.45746717, 0.42391935, -0.21871525, 0.28021905, 0.45161682, 0.22723162, -0.46511990, 0.22221003, 0.08165773, -0.51854861, 0.32762423, 0.18744387, 0.40234575, 0.05759814, -0.09065150, -0.23807585, -0.46163136, 0.47564471, -0.06992863, 0.00815087, -0.08278782, 0.26181117, 0.19059373, -0.13749830, 0.13651332, -0.15419286, -0.09040883, -0.39132112, -0.12569007, 0.24417125, -0.33045059, -0.14334829, 0.47041166, -0.14164147, -0.65726316, -0.46771207, -0.36841360, 0.37844393, -0.10659703, 0.01883683, -0.37069178, -0.49745491, -0.49159518, 0.58079916, -0.16834965, 0.37534463, 0.04850456, -0.07004363, 0.22656381, -0.20649746, -0.00160094, 0.12293378, -0.55301368, 0.15895869, 0.30653399, 0.45473781, -0.24084419, 0.45149514, 0.57086176, 0.26020494, -0.10690349, 0.36752295, -0.37994939, 0.33513945, 0.49637267, 0.24040790, -0.12211331, -0.14122392, -0.42964312, -0.02714509, 0.10636277, -0.02182606, 0.48388079, -0.37737402, -0.41588026, 0.27951175, 0.57148910, -0.14096844, -0.08180008, -0.24827836, 0.00487783, 0.14969228, -0.44071254, 0.47359142, 0.49664634, 0.32809669, -0.20895410, -0.09715918, 0.40277332, 0.28154013, 0.40361348, -0.43677619, 0.35666013, -0.12678076, -0.06758523, -0.11814497, 0.12413607, 0.00243244, -0.06071602, 0.35208023, -0.38559371, 0.36239961, -0.16651313, 0.44241032, 0.07510965, -0.37408343, 0.25750047, -0.11007051, 0.02964793, -0.03604772, 0.33379039, -0.27253678, 0.36177289, 0.19384922, 0.18088838, 0.24359007, 0.15508644, -0.32080939, -0.22171797, -0.15087813, -0.01941447, 0.10316285, -0.13789999, 0.15365832, 0.07974630, 0.37407959, -0.07006162, 0.32934693, 0.03076694, 0.03614902, -0.19638988, -0.11667222, -0.25784636, 0.51542234, -0.19770525, 0.26908490, 0.37282056, 0.12852888, 0.34822893, -0.30194029, -0.00774671, 0.11716703, 0.39341167, -0.41814911, -0.29580075, -0.38490862, 0.11450426, 0.32198644, -0.44073516, 0.27892706, 0.35773832, 0.21794152, -0.45782694, 0.12064327, -0.19820161, 0.23970212, -0.04835311, -0.37248030, -0.13192134, 0.26986036, -0.26636213, 0.08485204, -0.35541153, -0.28189269, -0.27717999, 0.31660789, -0.25007024, 0.31154236, -0.42249635, -0.04834376, -0.22583793, -0.46662754, 0.67058933, 0.31504029, 0.52535748, -0.30457941, 0.21099560, 0.32285967, -0.12813759, 0.32201457, 0.10435198, 0.43162781, -0.15357950, 0.01042257, 0.23669377, -0.05949250, 0.28986639, -0.07778610, -0.34701955, 0.33551499, 0.49982435, 0.34124631, 0.29728341, 0.11820295, 0.30784866, 0.32177275, 0.33301625, -0.04258842, 0.18447049, 0.17785203, -0.29333931, -0.16242145, 0.10339716, 0.32809925, -0.27400795, -0.29188076, -0.05009433, -0.24015917, 0.08015361, -0.01764312, -0.21410549, 0.27937719, 0.05469701, -0.37980473, 0.47319317, -0.36656648, 0.17576121, -0.30321667, -0.09092242, 0.33713603, 0.45945296, -0.32473612, -0.36603844, 0.02359574, -0.22154674, 0.01092949, 0.28551170, 0.03854228, -0.20967309, 0.40400264, 0.39070368, -0.17535923, 0.40252867, -0.50054461, 0.14382119, 0.12188580, -0.24226336, 0.09429461, 0.10346378, -0.26381576, 0.24053882, 0.67834508, -0.38266951, 0.26813185, 0.23242567, 0.00203939, 0.31876978, -0.38422343, 0.29255220, -0.05145600, 0.30382270, 0.35284585, 0.12185209, 0.12616144, 0.40926659, -0.21973893, 0.26993501, 0.30449015, -0.16875616, 0.26118624, -0.03030145, -0.13506712, 0.41219795, 0.19812584, 0.13650084, -0.24492909, -0.47567019, 0.11139014, 0.40458068, 0.19202030, -0.16491896, -0.15315215, 0.40633529, 0.09786621, 0.14166726, 0.30102319, 0.40389979, -0.44138879, 0.11887896, -0.30202332, -0.40705445, 0.14441134, -0.12020673, 0.31294751, -0.00519375, -0.19806398, 0.28511566, -0.10734806, -0.27533010, -0.14847329, -0.15014628, 0.04815401, -0.19365841, -0.42483976, 0.05444878, -0.05183323, 0.15856390, 0.08421223, 0.35283577, -0.15578665, -0.13925962, 0.10346577, 0.05054137, -0.44198346, 0.01351597, 0.08992121, 0.41078851, -0.68165851, -0.42996296, 0.39732859, 0.53900307, 0.43513909, 0.47211406, -0.05812592, -0.29412940, 0.36017254, -0.17610604, 0.11038758, 0.46475956, -0.39275017, 0.34535143, -0.23316799, 0.10632119, 0.00597474, 0.11269170, -0.08644442, 0.16269666, -0.05439185, 0.53820473, -0.20431890, -0.30859628, 0.40876672, -0.09109957, -0.49373731, 0.40952012, -0.19593942, 0.10792043, -0.43768671, -0.08985286, 0.25715697, -0.13716100, 0.32641986, 0.52464813, -0.29764214, 0.26535243, 0.16766322, 0.21039239, -0.17323932, 0.31298372, 0.67879128, -0.47777498, -0.38399842, -0.50325757, 0.04450461, 0.14590587, -0.12604828, -0.05884000, 0.33728704, -0.41136846, 0.22448111, -0.06540377, 0.43168411, -0.19916482, -0.19787143, -0.40131950, -0.31369859, 0.38436452, 0.03395835, -0.08336554, 0.03855643, 0.37917009, -0.34297571, 0.42624259, -0.55369854, 0.08129614, 0.28667304, 0.04248621, -0.41410837, 0.05396024, 0.52679479, 0.34771654, 0.52635121, 0.06861667, 0.22831768, 0.32275987, -0.28469804, -0.29246879, -0.05126935, -0.05679505, -0.45072725, -0.30863729, 0.40285400, 0.05834690, 0.29541141, -0.45832631, 0.08418712, -0.31033802, -0.25680500, 0.03169310, 0.00619451, -0.32614917, 0.07460836, 0.13246268, -0.00510222, -0.29985362, 0.21338904, 0.02107926, 0.19203055, 0.11241053, -0.06570243, -0.02181899, 0.13026965, -0.05104988, -0.02527966, -0.40950215, -0.44825852, 0.06565752, 0.02965162, 0.20230564, 0.49618220, -0.22337578, -0.31977859, -0.46153998, -0.47344863, 0.32314119, -0.41725311, -0.43721360, -0.36040673, 0.14078137, -0.42473251, 0.42414719, 0.33220264, -0.50296593, -0.43423101, -0.41991934, -0.20899303, -0.27591568, -0.25047398, 0.25619540, -0.27114257, 0.15605082, 0.05607669, -0.35195434, 0.47159591, -0.28351673, -0.48995230, -0.16694027, 0.48220402, 0.52734911, -0.34924331, 0.52328622, -0.15325706, -0.10034539, -0.03407227, -0.40931004, -0.45078930, 0.22270580, -0.46104807, 0.26065576, 0.04098007, 0.35044417, -0.07567247, 0.02480137, -0.03109394, 0.03640239, 0.22389115, -0.37742469, 0.09918583, -0.40836599, -0.38880691, 0.25294033, -0.17718382, 0.37896577, 0.13074176, -0.17896137, 0.16344167, 0.00202428, -0.10311328, 0.36085847, -0.02635713, -0.34237739, -0.22874056, 0.36545098, 0.02173701, 0.32753322, -0.04101204, -0.20105983, -0.42253333, -0.21167557, 0.00142687, 0.07478530, 0.00970143, 0.42076480, 0.37277371, -0.41770193, 0.19547494, -0.74001414, 0.45859337, -0.00248447, -0.12174422, 0.06988467, -0.14229476, -0.04346656, -0.12943082, 0.41499048, 0.61170208, -0.31728435, 0.30893221, -0.43316695, 0.13745873, 0.20254080, 0.27880609, -0.01127937, -0.35908815, -0.34944150, 0.05452169, 0.41515815, 0.27348682, 0.15697227, 0.36321270, -0.14822234, -0.37404698, 0.15075155, 0.01392549, 0.44818503, 0.12983294, -0.32707220, 0.08507213, 0.36141330, 0.27024326, 0.02266252, -0.39997560, -0.14379030, -0.27776116, -0.23624311, 0.45566067, -0.07554490, -0.10077431, 0.46461484, -0.36223894, 0.47176030, 0.03491918, 0.21852979, -0.00225975, -0.09760776, 0.23880433, -0.36915427, -0.09424216, 0.06412509, 0.15206897, 0.25898841, 0.07710277, 0.09633666, 0.48079431, 0.47095203, -0.53540319, -0.43025416, 0.33623871, -0.42521706, 0.40137741, 0.07361486, -0.21157821, 0.40010214, -0.26058742, -0.05621837, 0.04532062, 0.22874860, 0.23469140, 0.09938182, 0.37270862, -0.43669051, -0.03973273, 0.31118712, -0.15360060, -0.19245127, -0.23944998, -0.56447160, 0.14042105, 0.27312601, -0.11871977, 0.27856466, -0.39728910, -0.31863701, -0.60448211, 0.30087280, 0.46825373, 0.08869814, 0.13430373, -0.28814712, -0.17667279, -0.44643885, 0.43012694, -0.04193072, -0.41591561, -0.13745885, -0.14567637, -0.16780129, -0.40654337, 0.36261699, 0.33339003, 0.19410190, 0.44121197, -0.48549080, 0.13963656, -0.26107824, 0.08600847, -0.18284051, 0.27646470, 0.27849394, -0.16385534, -0.46133009, -0.08646394, 0.35400093, 0.34056708, -0.15562838, 0.42576733, -0.12115842, 0.24134545, -0.00068067, -0.26773977, 0.39767906, -0.37407219, -0.43368125, 0.18854983, -0.33315367, 0.38102850, 0.20447600, 0.09446986, -0.42335489, 0.20397902, -0.22121562, 0.06674398, -0.13180213, 0.27033478, -0.62416840, 0.35587251, 0.39395744, 0.45537075, 0.09285075, -0.01126657, -0.23523372, 0.10984030, -0.34321046, -0.02158296, 0.00187323, -0.20500354, 0.44584516, -0.03765270, -0.24729604, -0.38957986, 0.01076993, 0.19249740, -0.37904194, 0.06355727, -0.29217440, 0.44407636, 0.02952290, 0.08234981, 0.00720008, -0.12221967, 0.51731682, -0.37531120, 0.13930926, 0.05170961, -0.24507983, -0.18201989, 0.10418195, 0.27650565, -0.14380272, -0.42684901, -0.35714799, -0.18230674, 0.27625084, -0.28526065, 0.11955905, 0.24737085, 0.57060486, -0.29962626, -0.38508254, 0.21470194, -0.16003950, 0.10173338, -0.45542318, -0.23384786, 0.25694233, -0.24259703, 0.29974803, -0.25850931, 0.21090125, 0.10808878, -0.32439464, -0.22206502, -0.14318086, 0.21949495, 0.13190655, -0.35260576, -0.45263106, 0.28165707, -0.03232012, 0.13683468, -0.44002110, -0.07289752, 0.09569439, -0.10487104, -0.01630482, 0.40581354, 0.30852464, 0.23059022, -0.36163771, 0.29038596, 0.44506922, -0.14785106, 0.10215131, -0.04380423, 0.09443533, 0.42557615, -0.28096437, 0.34901562, 0.51786220, -0.09350608, 0.46146461, -0.44320869, 0.30137214, -0.19776532, -0.42229635, -0.08584852, -0.04311049, -0.46540526, -0.20194082, 0.32555103, -0.46658072, 0.36679691, -0.26968941, 0.46600989, 0.06279252, -0.27382970, -0.22015199, 0.04696225, 0.22817531
};

static const float net_0_bias[512] = {
  -0.14564173, -0.15185127, -0.43508717, 0.14706914, -0.22227438, -0.16879690, -0.47168985, -0.52216107, 0.26844814, 0.06088493, -0.15776029, -0.18309705, -0.30856204, -0.25374535, -0.05218172, -0.08676132, 0.16480809, 0.34406817, -0.21726106, -0.48556045, 0.43522286, -0.47801676, 0.42608625, -0.19403626, -0.33696273, -0.08716222, -0.10409829, 0.28983453, 0.14860523, -0.52505088, -0.35642073, -0.13197353, -0.06012738, 0.27570257, -0.29058743, -0.40959281, 0.26850763, 0.22815421, -0.15568638, 0.45338419, 0.29648721, -0.60197443, -0.24737452, -0.08788598, -0.42775527, -0.43627420, -0.45664477, 0.07273204, 0.40732214, 0.15516213, -0.02392731, 0.45145598, -0.33745161, -0.50583565, 0.40372965, -0.17645827, -0.44969848, -0.27299652, -0.17450473, -0.05175561, -0.06142616, 0.22242065, 0.15159287, 0.50053006, 0.14182335, -0.41225910, -0.16968046, -0.18086024, 0.00653696, -0.16975512, 0.17633075, -0.43223119, -0.13082305, 0.40330890, -0.59692752, -0.32522890, -0.32699722, -0.44711882, 0.44625092, 0.32323393, -0.46431807, -0.48897448, 0.42095211, -0.19651860, 0.13099413, -0.02478813, -0.30338794, 0.07211874, -0.49655902, -0.06034225, -0.09636366, -0.13773856, -0.61034900, -0.52189904, 0.26168773, 0.11074473, 0.04892543, 0.16157505, -0.22252101, -0.52848083, 0.26660857, 0.38604367, -0.47609693, 0.16621892, -0.14939934, 0.14412336, -0.37563783, -0.44569999, -0.27857503, -0.38360348, 0.42044464, -0.10439417, -0.03383728, -0.31449708, -0.18885170, -0.09115297, 0.08446972, -0.44767401, -0.32452863, -0.11320166, -0.17214955, 0.04105210, -0.29713365, 0.19354798, -0.05745170, 0.41340882, -0.29490185, -0.54297745, -0.00672346, -0.00139287, 0.17523088, 0.35888407, 0.33408418, 0.49287641, -0.14378408, 0.27700314, -0.01156621, -0.16592014, -0.45083502, 0.25578767, 0.22493039, 0.22279747, -0.36331627, -0.49405667, -0.31676900, -0.36554036, 0.31264228, 0.00483338, -0.07200932, -0.04573974, 0.00801595, 0.12920728, 0.09042098, -0.15852612, 0.44721028, -0.41421396, -0.20357208, -0.14616157, -0.38949984, -0.22780979, 0.11250120, -0.42379251, -0.06737390, 0.37089399, 0.30361342, 0.13044281, -0.62313932, 0.05208627, -0.29725340, 0.40064675, -0.36948016, 0.04318646, -0.15997586, -0.15211183, 0.45205319, -0.10720697, 0.43037605, -0.24451424, 0.16928947, -0.46626666, 0.12988017, 0.27854666, -0.12999593, -0.45516598, -0.46876675, -0.46979064, -0.48116395, -0.45072800, -0.42643967, -0.14917500, 0.18603563, 0.35798299, 0.09173897, -0.27413371, -0.21010201, -0.47500911, -0.06113341, 0.24085359, 0.29804084, -0.15891431, 0.18149421, -0.30993146, -0.24209200, -0.36240920, -0.11531354, 0.28075936, -0.46330568, -0.53471696, 0.17515443, -0.33680341, -0.43457443, 0.09384765, -0.36604950, 0.34834522, -0.43388793, 0.42439157, -0.21845114, -0.48706418, -0.39632773, 0.17053548, -0.27741727, 0.24598606, -0.32611099, 0.30270895, -0.19996707, 0.35593852, 0.32451484, -0.47415099, -0.16624387, -0.23409565, 0.28748173, 0.45634004, 0.00537808, 0.25724092, -0.37698004, 0.36740193, -0.42863241, -0.22196852, -0.23802535, -0.06140586, -0.42061889, -0.13923511, 0.29164976, -0.23487708, 0.25658643, 0.15152769, -0.51118588, 0.42689785, 0.49755314, -0.36111632, -0.48734757, -0.07031086, 0.01274435, 0.24743298, 0.42899552, -0.23308964, 0.31668067, -0.37109846, 0.40345272, 0.03301661, -0.36141020, 0.00723052, 0.46383271, -0.53261751, -0.28526372, -0.37470469, -0.45290455, 0.45899200, -0.37196651, -0.40791219, -0.28033912, 0.25348756, 0.00550337, -0.48773342, 0.07092509, -0.32010537, -0.25405446, -0.20078211, -0.12894806, -0.62421435, -0.43230882, 0.14611551, 0.07242151, -0.16072164, 0.18946709, -0.28256321, -0.36090332, 0.36981720, 0.07163391, -0.31657919, 0.38254589, -0.33764452, 0.06934807, -0.55549580, -0.19838525, -0.51080257, 0.10872176, 0.23859480, 0.42186090, -0.03111556, -0.43119931, -0.47863430, 0.23145673, -0.27285486, 0.20750070, -0.27709970, 0.04106652, -0.16492271, -0.16430292, 0.16418773, -0.10692169, -0.40530947, 0.08748668, 0.31834358, 0.16921400, -0.05459710, -0.28520280, -0.01582436, 0.05182784, 0.04088054, -0.13149559, -0.12158547, -0.32706890, 0.08231997, -0.11552376, -0.56901312, -0.43353719, 0.44418925, -0.45202699, -0.46212500, -0.20049925, -0.40463728, -0.32416758, 0.03215972, -0.21180579, 0.41532022, -0.04034191, 0.24855471, 0.06254155, -0.01247426, -0.28188327, 0.21896528, 0.12471963, -0.49685952, 0.29386738, 0.28349525, -0.47285619, 0.22200625, -0.19500354, 0.50311834, 0.34775156, -0.22489640, 0.47844836, 0.17089963, -0.15788218, -0.24131390, -0.36384499, -0.58693457, 0.13179787, -0.49956420, -0.25125891, 0.44455582, -0.25067174, -0.10277001, 0.38044366, 0.48261845, -0.33448049, 0.44451690, 0.05928120, 0.15185821, 0.34881699, 0.22763459, -0.48916262, 0.23617411, -0.50089705, -0.39719814, -0.15239443, 0.26606551, 0.02311041, -0.45080340, -0.18210872, 0.14552978, -0.10271920, -0.11303699, -0.00288529, -0.37354746, 0.25395694, 0.04700607, 0.07791546, 0.07503973, -0.00158450, -0.01196231, -0.33470881, -0.14065333, 0.06374401, -0.18958566, -0.35312325, -0.42517707, -0.03164289, 0.27281505, 0.05088390, 0.45607308, 0.06020476, 0.35425442, -0.11573312, -0.28597462, 0.35304853, -0.08594622, 0.33651426, -0.02864172, 0.39692187, 0.30118436, 0.24361332, 0.48277327, 0.43923977, -0.43759301, 0.12381944, 0.00177025, 0.36522332, -0.08076238, 0.22162062, 0.05659040, 0.03931503, 0.42368421, -0.10615896, -0.35820925, -0.20550096, -0.28086799, 0.37540874, 0.01469750, -0.01986013, -0.18086861, 0.02384341, 0.15132901, -0.23764738, -0.32009810, 0.38267955, 0.45009238, -0.40804821, 0.04478839, 0.47909677, 0.03348599, -0.38160947, 0.07687372, -0.25559324, -0.32553488, 0.16599359, -0.05232570, -0.11847960, -0.08367942, -0.30754215, 0.48095593, -0.31521681, 0.01488335, -0.26867020, 0.35118005, 0.27292299, -0.47639284, -0.14827928, -0.01827484, 0.10998145, -0.27254370, 0.51112252, 0.03029367, 0.11808849, 0.20305589, 0.27321598, 0.04690000, -0.14837204, 0.12931819, -0.06761806, 0.22681539, -0.44008228, -0.41363317, -0.41545394, 0.34856355, 0.50154406, 0.43719110, -0.38242984, -0.23201197, -0.12392870, -0.42366853, -0.15892488, 0.12150659, -0.07328495, 0.00576002, 0.27554363, 0.35831755, -0.21198557, 0.41076994, 0.20015599, 0.10132319, -0.27811080, 0.42840874, 0.07223287, -0.26454437, -0.45928988, 0.22450683, -0.12485527, -0.01721507, -0.37946114, 0.37985003, -0.26135805, 0.20325468, -0.36287823, -0.20462467, 0.08578910, -0.30878901, 0.47865373, -0.35052100, -0.51805454, 0.04389372
};

static const float net_2_weight[1536] = {
  0.00785614, 0.02732560, -0.03188602, 0.03369534, -0.00438792, 0.01429127, 0.01132963, -0.03143789, 0.00994950, -0.00369034, -0.02150703, -0.01947577, -0.03338603, 0.00792316, -0.01581883, 0.00166534, -0.01546384, 0.01006492, -0.01477215, -0.03059167, 0.03232289, -0.05087006, 0.00050065, -0.00774438, -0.01095238, 0.02798023, 0.00338743, -0.01556465, -0.02548130, 0.02314934, -0.01209895, -0.01060819, -0.02476488, -0.01616611, -0.00977112, 0.00054182, -0.02375766, -0.00333422, -0.00266573, 0.01870139, 0.00691472, 0.00941846, 0.01237173, -0.00180542, 0.03043706, -0.01857411, 0.00238688, 0.01021586, -0.03146274, -0.01309313, -0.01881101, -0.01211150, 0.02167282, 0.00338594, 0.01488230, 0.00502422, 0.03204007, 0.00639031, -0.01251978, 0.00115968, 0.03097514, 0.05992423, 0.00072449, -0.00697185, -0.00818652, -0.01281777, 0.03813545, 0.00278247, -0.02924056, 0.02358250, 0.02954249, 0.00028484, -0.03372244, -0.03167672, 0.00130474, -0.00473313, -0.02746462, -0.02098203, 0.02422445, 0.00912767, -0.02091884, 0.01386140, 0.00256408, -0.01922779, -0.02110583, 0.01179113, -0.01536547, 0.01670586, 0.03163676, 0.00993854, 0.03517807, -0.01281689, -0.01407555, 0.05047770, -0.00336608, 0.02271478, 0.00258437, -0.00693713, -0.03723973, -0.02926564, -0.00443401, 0.01445923, -0.02667265, 0.03184484, 0.03292219, 0.00157744, 0.00443022, 0.00282649, 0.02533909, 0.02629670, -0.01075741, 0.03091196, 0.02108707, 0.03664794, 0.00001199, 0.02270599, -0.01181605, 0.02769509, 0.02069950, -0.04364908, 0.01656681, -0.00806175, -0.02898710, 0.01392571, 0.00767097, -0.01271386, 0.03728846, -0.01789487, -0.00586207, -0.00612254, 0.01410032, 0.02826456, -0.04536367, 0.01462794, -0.01114155, 0.03179780, -0.01294249, -0.00677278, 0.01327449, -0.00740200, 0.00221182, 0.02491697, -0.03421597, -0.01978547, -0.02432796, 0.02756972, 0.01749856, -0.00770589, 0.00216926, 0.00292249, -0.01770623, -0.03983635, 0.00584221, 0.02904882, -0.02547681, -0.02933901, 0.03430595, -0.01915207, -0.02657753, 0.01144418, -0.00139219, 0.00950467, -0.03946092, -0.00628906, 0.00462026, -0.03396155, 0.02495544, -0.03870908, -0.04221327, -0.01007724, -0.02797859, 0.00421960, 0.00989158, 0.01246918, -0.00687078, -0.00699585, 0.02012744, -0.01988630, -0.00044577, -0.01544460, 0.03610588, -0.00680345, -0.01525816, 0.02297389, 0.02177653, -0.02108820, -0.03433475, -0.04332848, 0.02864116, 0.00101962, 0.00772442, 0.00049245, -0.00057147, -0.03536776, 0.03370699, 0.00830992, 0.00297578, 0.02570279, -0.01104191, -0.02025156, 0.00542503, 0.03404107, 0.02862241, -0.01413112, 0.00123333, 0.00907988, -0.00011276, 0.02370711, -0.03371171, 0.03515387, 0.02700827, 0.01503396, -0.01220658, 0.00327816, 0.00483569, -0.03423562, -0.02760354, 0.02778724, -0.00739135, -0.00175796, -0.03566708, 0.02324349, -0.00498885, 0.00862081, 0.00301620, 0.02820786, 0.01740583, 0.00689569, -0.03315071, 0.02708445, 0.00722261, -0.02469825, 0.02987159, -0.00373369, -0.02661364, 0.00445270, -0.01240749, 0.00538054, 0.00516574, -0.00019371, 0.03267685, -0.00930186, 0.00771965, -0.00754354, 0.02382673, 0.01350564, 0.02968057, 0.00494237, 0.01801895, 0.01834078, 0.02138660, -0.03462074, 0.00320525, 0.00863903, -0.03733907, -0.01193817, 0.02104769, 0.00957280, -0.01354057, 0.01242532, -0.00474945, -0.03363762, -0.00963465, -0.02461156, -0.00009074, -0.00692164, 0.00368477, 0.02085406, 0.02682190, 0.00953627, -0.00284620, -0.02321807, 0.00145136, -0.01885819, -0.02058927, -0.00631517, 0.02381768, 0.04740143, 0.00453476, 0.02293181, -0.01114989, 0.00053688, 0.00070659, 0.01612471, 0.01687711, 0.02449990, 0.03355136, 0.03365973, -0.02863886, 0.00305329, -0.03623337, -0.01111107, 0.00049132, -0.02198136, 0.02103691, -0.00593146, -0.03235410, 0.00453274, -0.02437869, 0.01430598, -0.01273974, -0.01039612, 0.02960505, 0.01425992, -0.00809905, 0.01659782, -0.02675040, -0.02077479, -0.00020295, -0.01003423, -0.03170468, -0.03565402, -0.00766995, 0.03646972, -0.02006253, -0.03007069, 0.02393940, -0.00799188, -0.01717831, -0.01256047, -0.01141411, -0.03453802, -0.01591386, 0.05913636, 0.00183932, 0.02088001, 0.01728536, 0.01450233, 0.01003388, -0.03048800, 0.02943539, 0.01486414, 0.00752937, 0.02567262, -0.01287068, 0.00898314, 0.02657907, -0.02105266, -0.01065770, -0.00624939, -0.01471918, -0.01354714, -0.01902396, 0.02548944, 0.02977152, 0.03529117, -0.02958876, -0.00563361, -0.02059729, 0.03050262, -0.02497320, -0.00139500, 0.01844523, 0.01779068, -0.03317598, -0.00433821, 0.01609898, -0.02600499, 0.00871778, -0.01418942, 0.00311469, 0.03283567, -0.00092783, -0.03712697, 0.00488425, 0.02650345, -0.01333591, -0.03317036, 0.04915766, 0.00049848, -0.02974707, -0.01862576, 0.03805613, 0.01223797, -0.00930343, -0.02889466, -0.04123870, 0.03468574, -0.00393554, -0.00931707, 0.01212269, -0.01986799, -0.01997714, 0.02540615, -0.01977241, 0.03706967, -0.02352512, 0.02890902, -0.02853110, -0.01210341, -0.02533226, -0.02875661, 0.03546299, 0.01728066, -0.02204015, -0.01159667, 0.00612005, -0.01210565, -0.00203448, -0.00972210, -0.00687139, 0.01318040, 0.00000147, -0.02928935, 0.01955752, -0.04513069, 0.02473001, 0.02344453, -0.01602652, 0.02275489, -0.00757834, -0.03041535, 0.01015655, 0.03381348, 0.01131542, -0.01338247, -0.03174445, 0.02215421, 0.01053317, -0.00279191, -0.00629326, 0.01070539, 0.00341654, -0.01044966, -0.00072371, -0.00890409, 0.03479498, 0.02186377, 0.01887527, -0.02921352, 0.03463642, -0.04322056, -0.00759967, 0.01313029, -0.01236354, 0.02531860, -0.01990944, 0.02035410, -0.02137391, -0.03344870, -0.04116116, 0.01074215, 0.00239175, -0.00438358, 0.00120876, 0.01020218, -0.02369707, -0.02222511, 0.02425356, -0.01104338, -0.00218381, -0.00552018, 0.02410233, 0.03745716, -0.03812760, -0.02427073, -0.03609366, 0.03827110, -0.00357537, 0.01429364, -0.03565390, 0.01415200, -0.02023749, -0.01498112, 0.01173813, -0.01581935, 0.02131799, 0.02686721, -0.00979522, 0.01616042, 0.02223889, 0.02896161, 0.00852880, 0.01673365, -0.01483482, 0.02459311, -0.01820501, -0.02252270, -0.00398127, 0.02151574, 0.00105045, 0.00988919, 0.00766352, 0.00190875, 0.02437929, -0.02366471, 0.00125851, -0.00969594, -0.02060241, -0.02978575, 0.03793246, -0.02022917, -0.02423157, -0.02528410, -0.02988369, 0.01382169, -0.02402058, 0.01040729, -0.00350321, -0.01916985, 0.00135489, 0.01787794, 0.00430570, -0.00690454, 0.02667989, 0.00564049, 0.01231779, -0.00857331, 0.01050044, 0.01304527, -0.00286103, 0.01767651, 0.00772540, 0.03202635, -0.03122157, 0.03292628, -0.01562477, 0.01933271, 0.01328794, -0.02976794, 0.00280119, -0.00101571, -0.02954753, -0.00091665, -0.01871859, -0.00787463, 0.00251367, -0.02424213, -0.02764341, -0.01012542, -0.03316677, -0.02828188, 0.02675434, 0.01424898, 0.02028482, 0.00665353, 0.01640885, -0.01858960, 0.00388662, 0.00222847, 0.02370248, -0.01376375, 0.01501761, -0.05072490, 0.00379785, 0.00476818, -0.00571392, -0.02931373, 0.03610801, 0.00367098, -0.00884769, 0.00229656, -0.01441491, 0.00007844, -0.00326343, -0.00833291, 0.00819374, -0.00728274, 0.02460627, 0.01201901, -0.03783668, -0.01157608, -0.00636882, -0.02733910, -0.01473355, -0.02186292, -0.01131846, -0.00241846, -0.01673614, -0.04462763, -0.02375715, -0.03074146, 0.00511944, -0.01629696, 0.03667631, -0.00749502, -0.01285663, -0.01692824, 0.02424302, 0.04735615, 0.00081496, -0.00791490, -0.01768378, 0.01573498, -0.01298464, 0.00947229, 0.03991964, -0.00030063, -0.00826855, -0.03171217, -0.01734074, 0.03932125, -0.03721684, -0.01709595, -0.01121540, 0.01606162, -0.01674224, 0.01991989, -0.01099888, 0.00186855, 0.03462412, -0.00931565, 0.00588078, 0.00428863, 0.00567412, 0.03560957, 0.02078575, -0.02542879, -0.00032402, -0.03190505, 0.00622104, -0.01319639, -0.00792070, -0.01827121, -0.01568758, 0.00281925, -0.02448839, 0.00151020, -0.04053489, -0.00666619, 0.02618044, 0.02385337, 0.04651029, -0.00565304, -0.00872357, 0.02763736, -0.01375802, -0.02354740, 0.00504970, 0.00158300, -0.02442034, -0.04693355, 0.02146259, -0.00776301, -0.00130355, 0.01779813, -0.01469451, -0.02209122, 0.00758223, -0.03239677, -0.01036394, -0.01240919, 0.03185425, -0.02055089, -0.02454794, 0.03626967, -0.00171373, 0.02220860, -0.00783693, -0.01217212, 0.00944726, -0.02871954, -0.03086655, -0.01382544, 0.02291616, -0.02944339, 0.00905607, 0.02592075, 0.02694634, -0.01204358, -0.01326127, -0.01404418, 0.01594021, 0.03615855, -0.00087837, 0.00714893, -0.02268302, 0.02969869, -0.02123111, 0.01064800, 0.00268171, -0.01414894, -0.00474338, 0.04310511, -0.00278970, 0.02498987, 0.00567445, -0.00067241, 0.01697494, 0.03559495, 0.02721907, -0.03021932, -0.02565237, 0.00780741, -0.02775246, -0.03062133, -0.03976569, 0.01269054, -0.00266724, 0.01098441, -0.00066082, -0.04161697, -0.03125510, 0.01307768, -0.02081207, -0.00108927, 0.00917330, -0.01185260, 0.01777012, 0.01720113, 0.00839462, 0.00591735, -0.01567394, -0.02286426, 0.00021537, -0.02217039, 0.01929934, 0.01182605, -0.00878423, 0.01720075, -0.02001851, 0.00585106, 0.03526635, 0.01931201, -0.00737582, 0.00813397, 0.00474756, 0.01110372, 0.02674297, -0.01143048, -0.01227913, 0.01770348, -0.04563461, 0.00069564, -0.03011363, 0.03204934, -0.00130350, -0.03403603, 0.02657103, -0.02252768, -0.01682878, -0.00163924, 0.01351198, -0.01141265, 0.01712649, -0.02020659, 0.03055833, 0.00016037, 0.02120471, 0.02333407, -0.00321255, 0.01107012, -0.01036450, -0.03046861, 0.02107583, 0.00885666, 0.01296645, 0.00994598, 0.00148474, 0.00327336, -0.02377015, 0.00266504, 0.01495010, 0.01559069, -0.03730315, -0.00380547, 0.00813067, -0.01487536, -0.02714736, 0.01323513, -0.01652354, 0.00320216, 0.00438584, 0.01685380, -0.00208871, 0.00676846, -0.02087959, -0.02510176, 0.01632431, 0.01116167, 0.02082494, 0.00136713, -0.01971217, 0.03229585, 0.02783519, -0.01408205, -0.00966411, 0.02846529, -0.01253395, 0.03039332, -0.00059782, 0.01626588, 0.01158158, 0.01225690, 0.00238219, -0.02430492, 0.01160721, 0.00768641, -0.03702229, 0.01720778, 0.01023238, 0.03931074, 0.00894706, 0.00130400, 0.00065234, 0.00641844, 0.00577139, 0.01413419, -0.01654466, -0.03477306, -0.02305840, 0.01884108, -0.02891459, 0.00227685, 0.00044688, -0.01740268, -0.02519173, -0.00622842, 0.03782487, -0.02847471, 0.00282397, 0.01917949, -0.00715182, -0.03026056, -0.01471256, -0.01599724, 0.00589858, -0.02690782, -0.01251781, -0.03707171, 0.00887490, 0.01443967, 0.00659892, -0.00891119, -0.00299897, -0.04047958, -0.01323811, 0.04079451, 0.00221344, -0.01063313, -0.01799901, -0.03493055, 0.00189136, 0.02394833, -0.01859263, -0.02426822, 0.00644612, -0.04262331, -0.00692698, 0.01511155, 0.01808489, 0.03015093, -0.03227896, -0.01620550, 0.02277756, -0.00810119, -0.01157086, -0.00791442, -0.02154577, -0.01460990, 0.01852333, 0.01386183, -0.00295012, 0.00748631, -0.01483727, 0.01943415, 0.00296040, 0.03636203, 0.02911264, -0.00851474, -0.02938505, 0.02689686, -0.00541666, -0.00542873, -0.02967249, -0.01456440, 0.01198565, 0.01720932, 0.02524363, -0.01071415, 0.02398813, 0.01660721, 0.00301243, -0.01370041, -0.02105738, -0.03153258, 0.01921764, -0.01193861, -0.02084047, -0.00938618, 0.02639909, 0.05439903, -0.02932902, -0.00871435, 0.01970338, 0.02325016, -0.03570058, 0.00458104, -0.04126135, -0.02149456, -0.00104800, -0.02895672, 0.03326718, -0.00233381, 0.04060224, -0.02368834, 0.01978636, -0.03678392, -0.01327063, 0.02540907, -0.00924468, -0.01878604, -0.03135736, -0.03116780, 0.02449623, 0.01799782, -0.02461544, -0.02525773, -0.02181145, -0.00048330, -0.00039295, -0.00997334, -0.02247254, 0.00326203, -0.00126105, 0.00517612, -0.02185311, -0.00381238, -0.00784641, 0.02594764, -0.02267070, -0.01328126, 0.01873692, 0.02671581, 0.02119676, -0.00325593, -0.00426847, 0.02486950, -0.02334931, 0.02118568, -0.00348756, 0.00082499, 0.01433294, 0.01800393, 0.00150109, 0.01501464, -0.00060367, -0.01239159, 0.03491651, -0.00189215, -0.01745575, -0.00158376, 0.01975041, 0.01652713, 0.00555020, 0.00997905, 0.00223978, 0.00001475, -0.01623884, -0.04187961, -0.00430555, -0.02045839, -0.03184639, -0.02205555, -0.00682765, -0.02634386, -0.00082335, 0.01999815, 0.02356198, 0.00751502, 0.01594068, 0.00498069, 0.05082915, 0.01638064, -0.01530400, -0.00743135, 0.02081439, -0.03963269, -0.00143714, 0.00743282, 0.01743526, -0.00601192, 0.04168133, -0.01333129, -0.02744606, -0.00179032, 0.01085596, 0.00777951, 0.02998454, -0.03035960, -0.01412651, -0.01681488, -0.01394824, 0.02245785, 0.00722527, 0.01450514, -0.00316603, 0.01624916, -0.03819355, -0.01219604, -0.00003815, -0.00229338, -0.00467562, -0.02664653, -0.03623544, -0.00412959, 0.00841655, -0.02529694, -0.01182012, 0.00626208, -0.00213869, 0.02590912, 0.02385254, -0.02315796, -0.01943842, 0.02890388, -0.01630347, -0.01012172, 0.00815832, 0.00830095, -0.00229768, 0.00647344, 0.03350788, -0.01826346, -0.00189720, -0.01950072, -0.03695245, -0.03916459, -0.00369883, -0.00175175, 0.03051771, 0.01742949, 0.02524071, -0.00706416, -0.03785679, 0.01964844, 0.05411739, -0.00754143, 0.02584230, -0.01832619, -0.01428196, 0.03539665, -0.01034992, 0.02394090, -0.03087102, -0.00289980, -0.04178410, 0.00902322, -0.00799435, 0.01709900, -0.01292290, 0.00209119, 0.02034361, 0.03653465, -0.03358525, -0.04816856, 0.02839934, 0.01158375, 0.01356585, 0.01761165, -0.00559973, -0.00072949, 0.03608989, 0.01114320, 0.01556148, 0.02532882, -0.00702122, -0.01583995, -0.02856241, -0.02570936, 0.03432268, 0.00031306, 0.03363340, -0.01794806, 0.01902931, -0.02513481, 0.00590153, -0.00384764, 0.00508667, 0.02983273, 0.01859229, 0.02751948, -0.02383575, 0.02361415, -0.00405225, 0.00089587, 0.03650389, -0.01597262, 0.00085586, -0.01266188, 0.03244150, -0.02029747, -0.00606407, -0.02042186, 0.01417968, 0.00259046, 0.03566138, 0.02454074, 0.03276028, -0.00264414, -0.00470162, -0.00630867, 0.00803026, -0.00247728, -0.02188352, -0.00132164, -0.03061183, -0.00487721, 0.01782763, -0.03307112, 0.02797861, 0.01132488, 0.01536309, 0.00709320, 0.03300030, -0.03205940, -0.02336298, 0.00512948, 0.02539029, -0.02372892, 0.00314387, -0.00599834, 0.03568207, 0.02548979, 0.03146351, -0.00319188, 0.03415929, -0.03105887, 0.02856071, 0.00961085, -0.00638800, -0.00210898, 0.01143004, -0.03647958, -0.02035686, -0.00549218, 0.01617876, -0.01723459, -0.02791902, -0.00078182, -0.02608262, -0.01697993, 0.03541362, -0.00447289, -0.01572055, 0.01781630, 0.00709240, 0.03531616, -0.00905797, -0.01554356, -0.00309241, -0.01064262, 0.02617878, -0.04594732, 0.01181694, 0.00804028, 0.00968989, 0.02633018, -0.01493954, -0.01913769, -0.00009114, -0.01180900, 0.00669495, -0.00943530, -0.00581488, -0.00607200, 0.03354000, 0.03658240, -0.00857657, -0.02214307, -0.00096860, 0.00767349, -0.00951022, -0.01025787, 0.00661209, 0.00810463, 0.02272069, -0.01024702, -0.01843104, -0.03236847, -0.01601747, 0.00523040, -0.01089517, 0.00505320, 0.02403934, -0.03372261, -0.00202954, -0.00890608, -0.03078621, 0.02249867, -0.01044356, 0.03288908, -0.01008809, -0.00425880, 0.00249209, 0.03809740, -0.03903991, 0.03894658, 0.01257547, 0.00758361, -0.02437006, 0.01778019, 0.03554208, 0.01959493, 0.00778094, 0.00707546, 0.02795206, 0.02943680, 0.01104711, 0.00273374, 0.00445264, 0.00486540, 0.00017197, 0.01248354, 0.00419272, -0.02266545, 0.01964483, -0.00804695, -0.00001104, 0.01916713, -0.00781804, -0.02307140, -0.01223450, -0.00291241, 0.03643597, -0.02918513, -0.00067736, 0.01556437, 0.02423929, 0.00004505, 0.00572185, 0.01469157, -0.03460639, 0.01602295, 0.00542699, -0.02693453, -0.03701964, -0.00061305, 0.01688459, -0.00959303, 0.04793663, 0.01178382, 0.00715937, -0.00635885, -0.00516918, 0.01818652, 0.00525374, -0.01505804, 0.00371505, -0.01195457, -0.02984285, -0.03671435, 0.01044151, 0.00036503, -0.02306402, 0.02088078, 0.01274590, -0.01104834, -0.00965499, -0.02567407, 0.00328519, 0.02149755, -0.04459853, -0.01771589, 0.01697839, -0.01740956, -0.00959734, 0.00517832, -0.00305760, 0.00371096, -0.00565190, -0.00722839, 0.00667341, -0.00347846, -0.03962057, 0.00555695, -0.03186025, -0.00386432, 0.02922543, -0.02677522, 0.01086297, 0.02197163, 0.03834162, -0.01050747, 0.02174115, 0.00386348, -0.00505038, 0.00505258, -0.00488760, -0.04203153, 0.00894407, 0.00193032, 0.00325086, -0.01653310, -0.00290468, -0.00684495, 0.01055609, 0.01041729, -0.01555420, 0.00662732, 0.00483981, -0.01248929, -0.04636845, 0.00652417, -0.00723842, 0.00350284, 0.00624517, 0.00997816, 0.00218262, 0.00906384, -0.01940358, 0.00389865, -0.00076306, 0.01921808, -0.00697239, 0.00201045, -0.00014123, 0.02978721, -0.03503175, -0.00515501, 0.00142589, -0.03488132, 0.01007081, -0.01044878, -0.02826923, 0.02019173, 0.00120071, -0.01243258, 0.01379704, -0.02179686, -0.02134498, -0.01442229, 0.00851888, -0.01413245, -0.00389708, -0.00118607, -0.00847546, 0.01281892, -0.00464040, -0.02426193, -0.01626125, -0.01403165, -0.00765594, 0.02600276, -0.02051002, 0.01252908, 0.00656916, 0.04119236, -0.01418890, -0.02917190, 0.00968034, -0.01814343, -0.00189051, -0.00553945, 0.02233733, 0.00084134, -0.01821498, 0.04915363, -0.02771832, -0.00091010, -0.02363990, -0.00884905, -0.00927243, 0.01250999, -0.03939746, -0.02555373, 0.01906910, 0.02800878, 0.02458845, -0.02535917, 0.00382569, 0.00445428, -0.00248283, -0.02344451, 0.03263237, 0.01741366, 0.02118954, 0.02168441, -0.02723365, 0.02057324, -0.03321955, -0.00364230, -0.02300567, -0.02731164, 0.02987435, 0.00845809, -0.02053578, 0.00043208, -0.02080999, 0.00198536, -0.00402230, -0.01792567, 0.02944715, 0.02216504, -0.00403454, -0.01441076, 0.02757566, 0.00971241, 0.01421041, -0.01935377, -0.01806592, 0.02076527, -0.03303982, 0.03753420, 0.03033828, 0.03023835, -0.01784731, -0.01579190, -0.01418793, 0.00007095, 0.02942537, 0.01243750, -0.00740128, -0.02763536, 0.02560747, -0.01504507, 0.01942597, 0.02986269, -0.01411065, 0.02511711, -0.00970162, 0.01509547, 0.01175637, -0.02991194, -0.00218090, -0.02844949, -0.03654807, -0.01557853, -0.01168481, -0.01015715, -0.00462223, -0.01739241, 0.00148550, -0.02036606, -0.02488165, -0.03223167, 0.00034231, -0.00631275, -0.01713987, -0.03631909, -0.01999976, -0.01741290, -0.00513089, -0.00917767, -0.00686470, 0.03336952, -0.03027969, -0.00418323, -0.00548203, 0.02060388, 0.00735386, -0.02052595, 0.02340365, -0.00077942, 0.00828958, 0.02333688, 0.01325058, 0.01940951, -0.00002981, -0.00247407, -0.02830765, -0.01051182, -0.02230936, -0.01788428, 0.01140582, 0.03227057, 0.01085768, 0.00806932, -0.01015957, -0.00511082, -0.01300509, -0.00791603, 0.01175108, -0.00533259, -0.02112769, 0.02411477, -0.00276288, -0.02486691, -0.00024417, 0.01456274, 0.01142854, 0.00421290, -0.03561880, -0.02355569, -0.02928905, 0.03416874, 0.01824159, 0.01681395, 0.01552076, 0.04618111, 0.02066986, 0.03396810, 0.02773747, -0.00010737, -0.00501570, -0.00467551, -0.01832951, -0.02252138, 0.02474269, -0.00050301, 0.03047983, -0.01901501, 0.01208327, 0.02515705, -0.01504600, -0.00149634, 0.01822285, -0.02355379, 0.00627024, -0.01918621, 0.00741329, -0.00637147, 0.00874844, -0.01090912, 0.00135308, -0.02306066, 0.03520207, 0.01651302, -0.00849551, -0.01818106, -0.00132782, -0.02030138, 0.02363534, -0.01666614, 0.02294530, 0.03724572, 0.00451594, -0.02471563, 0.03112813, -0.01323070, -0.03460133, -0.03550962, -0.00504884, -0.01402168, -0.02163793, -0.02463064, 0.02556643, -0.01836998, -0.02407388, -0.01414988, 0.01313445, -0.00159521, 0.00926313, -0.00191547, -0.01687807, 0.00052889
};

static const float net_2_bias[3] = {
  -0.01183522, 0.00260891, 0.00271069
};

static const float input_mean[3] = {0.00000000, 0.00000000, 6749.99951172};
static const float input_std[3]  = {2338.09155273, 2338.09155273, 4214.56005859};
static const float output_mean[3] = {0.00000001, 0.12292606, -0.00000000};
static const float output_std[3]  = {22.14661598, 71.60929108, 22.14662170};
