// Auto-generated field NN weights
// Architecture: [64, 64, 64], activation=relu
// Parameters: 8771, FLOPs: 17344
// MAE: 7407.18 Gauss, p99: 49805.1 Gauss

#pragma once

static const float net_0_weight[192] = {
  2.31401420, 0.10057811, -0.93937761, -1.24170578, 0.17373344, 0.57603371, -2.07871175, -0.05346603, 0.60176557, -1.63832664, 0.18031237, -0.94118500, -1.12530529, 0.18134125, 0.15898989, -0.32745135, 0.11112841, 1.22304273, 0.88102490, -0.21954773, 0.92167908, 1.48242617, -0.04345368, -1.07747757, -0.20070374, -0.42702579, 0.99084038, 0.50794202, -0.20347773, 0.66566384, -1.65237033, -0.12815529, 0.74817753, -0.89871401, 0.59785813, 0.98412657, 0.38888618, 0.46631467, 0.12521802, -1.90820622, -0.25169280, -0.38854799, 0.02865707, 0.10803087, -1.06405449, 1.99795043, -0.26020831, 0.48693267, 0.40506366, -0.27320617, 1.10106361, 2.30054665, 0.13243116, 0.10758060, -1.80758834, 0.20543224, 0.46153688, -0.13530287, -0.36711702, 0.82778209, 1.74797285, 0.06285923, 0.90576708, 2.08811522, 0.31298721, -0.32161260, -0.35292572, -0.40830183, -0.38359791, 0.60372919, -0.39858761, 0.93143076, -0.54398739, -0.41659093, 0.91026503, 0.20412898, -0.38204753, 0.57449085, 0.63984853, 0.01098033, -0.69883859, -0.82177693, -0.35442552, 0.18591404, -0.15411918, -0.41441312, 0.63819319, -0.19649385, 0.31568494, 1.13021231, -1.91661167, -0.13887706, -0.06338701, -1.19461501, 0.48220682, -0.72321308, 1.55058658, 0.30775791, 0.49521521, -1.87352288, -0.32287320, 0.19062971, -1.02435482, 0.31625125, 0.84565347, -1.88382065, 0.04903624, -0.89506245, -0.33759972, 0.02323896, 1.09095013, 0.50017959, -0.25172445, 1.01074457, -0.84910583, 0.27329236, -0.35424146, 0.50623024, 0.43370122, -0.61030793, 1.44747698, -0.28045091, -0.43881297, 2.38884187, -0.05933194, 0.14626062, 1.84591496, -0.16296217, 1.10575950, 1.41297531, -0.38990101, -1.07342160, -1.44888604, 0.13074149, -0.66614997, -0.02190871, 0.31486297, -0.40105212, 2.00901794, 0.29953128, 0.67134398, 2.00610328, 0.05126215, 0.80281132, -1.62932801, 0.30704966, 0.42213568, -1.07699442, -0.43067569, 0.98107737, 0.64825445, -0.22939156, -0.49207926, 0.02202191, 0.20917611, 0.36532873, 1.54094863, 0.14457597, -0.36160430, 0.09632887, -0.00502016, -1.21649349, -0.41628772, -0.24882816, -0.84707969, -2.06966114, -0.20334300, 0.32499096, -0.84417355, 0.27576438, 0.70294201, -2.29675817, -0.05908193, -0.32191873, -1.20696616, 0.15847810, -0.51185536, 0.38420233, -0.18487887, -0.33428335, 0.21898673, 0.29018557, -0.64010888, 1.83150411, -0.18780735, 0.00516339, -0.76039541, -0.31920525, -0.37456354, 1.89701366, -0.36534336, -0.89633131
};

static const float net_0_bias[64] = {
  -0.31816101, 0.58421916, 0.25174600, -0.01754810, -0.23721914, 0.72402865, 0.12992023, -0.16391231, -0.13887100, 0.01530810, 0.59823126, -0.32002786, -0.51972097, -0.37418291, -0.10843302, -0.22818427, 0.16106038, 0.36109602, 0.46487007, 0.14933839, 0.42775178, -0.56915456, -0.56848520, -0.12923026, -0.17420605, -0.39587456, -0.19791447, -0.54832214, -0.38021255, 0.26932353, -0.24282312, 0.55622405, -0.13501403, -0.37628058, -0.08318796, -0.37078395, 0.52038354, 0.04486924, -0.43209454, -0.72098261, -0.55162001, 0.06089361, 0.67643923, 0.27106217, -0.43002397, 0.36970198, -0.14011376, 0.33377102, -0.32614878, -0.01662133, -0.47940698, -0.14357218, 0.10835848, -0.04883142, 0.09690842, -0.20297940, -0.06809910, -0.13429797, -0.53601807, -0.37546974, -0.50231892, -0.23615408, 0.41332227, 0.17907666
};

static const float net_2_weight[4096] = {
  0.00516486, -0.16102828, -0.01496603, -0.11841599, -0.13099812, -0.00862955, -0.09798876, -0.04595526, 0.07988086, -0.04617081, -0.00047486, -0.06917319, -0.04680042, -0.13771218, -0.10294145, -0.06998014, -0.14873448, -0.11183404, -0.11821982, -0.07822337, -0.09965598, 0.01466479, -0.09543465, 0.05038968, 0.06714530, -0.19064222, -0.07380524, 0.04325759, 0.02816463, 0.03009485, -0.08230445, 0.03879850, -0.06937890, -0.07441531, 0.00650720, -0.06450242, -0.09321869, 0.00626522, -0.10656579, 0.03980906, -0.04620767, 0.00871890, -0.14394744, 0.02411285, 0.03376980, -0.05268708, -0.06355461, -0.03590142, -0.01682531, 0.07281020, -0.11448909, -0.01302069, 0.01622103, 0.05485845, -0.14297239, 0.03754127, 0.02460160, -0.02125691, -0.03540033, 0.02067059, 0.09310372, 0.02797784, 0.01913468, 0.02732937, 0.06062522, 0.05384412, -0.33287194, 0.05015979, -0.07236233, -0.12273514, -0.11252411, -0.18558754, -0.09643966, -0.07663767, -0.00075325, 0.10604364, -0.07607777, -0.04552802, -0.06510536, -0.11907208, 0.04735957, -0.05707654, -0.04519550, -0.01216470, -0.00610778, 0.02942806, -0.12451825, 0.11937529, -0.13074780, -0.04731371, 0.11220095, -0.07799095, -0.07116254, 0.09632520, -0.20696948, 0.05755624, -0.10093232, 0.05403564, -0.25153947, -0.25480354, -0.11046030, -0.01226600, 0.06909389, -0.10116320, -0.05119648, 0.06010158, 0.04759156, -0.15890063, 0.10519157, 0.03281694, -0.16018386, -0.01448098, 0.13373448, -0.03986153, -0.00891316, -0.06530073, -0.11763070, 0.05055675, 0.06420067, -0.07612719, -0.04696597, -0.08999500, -0.21460129, 0.03657971, -0.07288514, -0.10999383, 0.05205283, 0.03382251, -0.04454595, 0.06485907, 0.77256888, -0.10449718, -0.16945657, 0.24890070, -0.00517588, -0.32385600, 0.25599584, 0.21430263, 0.14870147, 0.01096460, -0.10151644, 0.00705235, -0.18579388, 0.10546163, 0.11208118, -0.03469401, 0.02157013, 0.08779220, 0.76779330, 0.14951788, -0.02834943, 0.07398470, 0.06256340, 0.09236547, -0.33561662, -1.24602854, -0.07469942, 0.26066852, 0.11083838, 0.02870450, 0.10424786, 0.50878143, -0.07853981, -1.35386002, 0.78768224, 0.17908822, -0.16216171, -0.37212554, -0.92409736, -0.67144126, 0.01624827, 0.07598910, -1.00633597, 0.04486981, 0.39963862, 0.95231521, -0.54835504, 0.14513375, -0.28712797, 0.00469548, 0.16768308, 0.03051873, -0.04391048, 0.17804472, -0.01588467, 0.28454104, -0.64358217, -0.24076433, -0.18445797, -0.51280069, 0.12597050, -0.09581424, -0.10544863, 0.00351467, 0.01281445, 0.06945793, 0.08211861, 0.05385312, 0.04037150, -0.04104801, -0.09241588, -0.01854447, -0.15107208, -0.12646969, 0.05840432, -0.08411496, 0.08918080, -0.08403447, -0.06153607, -0.04746141, -0.11496194, -0.06622284, 0.08347324, 0.04068837, -0.13496818, -0.11003838, 0.00964998, -0.03875722, -0.03729524, -0.06846786, 0.00873980, -0.04889822, 0.03424843, -0.08292178, -0.13492656, 0.07085750, -0.11048901, 0.00395263, 0.03491556, -0.09985046, 0.06662509, -0.05811500, -0.07783826, -0.11279048, -0.10594779, 0.00907735, 0.00891449, 0.01710443, -0.09531081, 0.03389690, -0.09420163, 0.04169011, 0.10055838, -0.11294041, 0.00854127, 0.04738344, -0.00245542, 0.08362260, -0.05138196, -0.13189042, 0.05707465, -0.11174124, -0.13312577, 0.00922534, 0.08615425, -0.01822125, 0.08575827, 0.02328049, -0.07836004, -0.11015008, -0.12205300, -0.12282258, 0.09103616, -0.03560653, 0.06034909, -0.00603309, -0.09457346, 0.06835365, 0.07726760, 0.00908634, -0.07582158, 0.04980731, -0.09760147, -0.05281115, 0.02797611, -0.11299318, -0.06232958, -0.06313384, -0.10765683, -0.00665364, 0.03034232, -0.00888206, 0.00815933, -0.05054416, -0.01474275, 0.10102870, 0.06418385, -0.08393934, -0.13233766, -0.10534584, -0.02238256, -0.03897200, 0.11527501, 0.02168507, -0.11443370, 0.02957492, -0.08462949, 0.09530233, -0.05838561, -0.02972318, 0.04447839, -0.00281282, -0.00164860, 0.11644496, -0.02490200, 0.00958239, 0.06470837, -0.13252231, -0.04752291, -0.01524595, -0.00573771, 0.10449611, -0.09035825, -0.12847213, 0.02905953, -0.07452953, -0.06994706, -0.04850200, 0.08401013, -0.04795605, 1.34835577, -0.80200243, -0.03237820, 0.87147659, 0.30328262, -2.43277812, -0.71197069, 0.14547279, -0.21856470, -0.60825324, 0.13164419, 0.03709045, 0.86632711, 0.30117914, 0.35304803, -1.08217776, -0.31000865, -0.66219503, -1.23626590, -0.04789387, -1.50565839, -0.28897649, 0.25245348, -0.25252372, -0.15013835, -1.98479247, 0.38128161, -2.23250914, -1.25389016, 0.32109183, 0.29009107, 0.54685205, -1.16137934, 0.20716213, -0.45394352, -1.06891668, -2.27353334, -1.78179395, 0.64571905, 1.07648170, -0.26060051, -0.76767319, -0.20056428, 0.12802222, 0.39049363, 0.00124929, -1.32531798, -0.63818508, -0.05494931, 0.08953299, 0.21068200, -0.27319619, 0.46419707, 0.22036932, 0.20043367, 0.29200459, -0.47332892, 0.52742290, 0.54504520, 0.16390958, 0.74025339, -0.46548721, 0.20109554, 0.12278678, -1.28395581, 0.24538910, 1.07236016, 0.06020986, 0.36582136, 0.37217757, 0.06374806, -0.32042387, 0.29580575, 0.03840120, 0.44785073, 0.17702711, -0.12218826, 0.20095560, -0.19434939, -0.35177043, 0.16603710, -0.54797971, 0.22209221, 0.23223881, 0.16560251, -0.54773521, 0.17432244, 0.18891989, 0.18988760, -0.53782928, -0.47496021, -0.30559942, -0.12002178, 0.13005571, 0.33222961, 0.12443762, -0.54373860, 0.38092607, 0.45553654, -0.39240938, 0.59374976, -0.35243654, 0.13528089, -0.68008262, -0.72441494, -0.68939459, -0.04843853, 0.00665975, 0.01141119, 0.00274425, 0.22253703, 1.08915770, 0.32269993, 0.22044852, -0.08076459, 0.09301642, -0.59672165, -0.07117877, -0.00642650, 0.45287177, 0.21303208, 0.78199703, 0.42031142, -0.19509886, -0.09277418, -0.49229577, 0.23030958, -0.01208611, 0.23520371, -0.14783324, -0.54720867, 0.16095854, -0.29708388, -0.27998602, -0.54876268, 0.45766366, -0.53329271, -0.55048466, 0.03596674, -0.49214965, -0.19763172, -0.04400447, 0.31907082, -0.83525527, -0.17027846, 0.00840901, 0.07860524, -0.18475384, -0.46479630, -0.48206615, -0.19344367, -0.41664210, -0.59494102, -1.78089762, 0.45264030, 0.13706218, -1.26852357, -0.08366252, -0.41482991, 0.17667320, -0.42253762, -0.53958738, -0.83101350, 1.09947991, -1.05586886, -1.82383358, -0.03851803, -0.11277371, 0.16636357, 0.11860473, -0.10770767, 0.27857244, 0.33964774, 0.01649326, -0.62814456, -0.71904629, -0.31711450, -0.34155843, -0.03095018, -0.40515482, 0.11096361, 0.27132204, 0.15550992, -0.61678863, -0.59377122, -0.05390416, 0.38002467, -0.08607226, 0.11193982, 0.00995353, 0.17610936, 0.03430132, -0.06766240, 0.04030805, 0.02904136, -0.11701827, -0.08603834, 0.03251526, 0.09545715, -0.05860259, -0.11808331, -0.02318288, 0.06353289, -0.01687429, -0.04106991, 0.08044633, -0.08931922, 0.03362137, -0.04176139, 0.04990764, -0.10437477, -0.03980694, 0.07268077, 0.09170855, 0.04450610, 0.06259146, -0.07926138, -0.03885232, -0.01216468, 0.07470696, -0.12642865, -0.10270435, 0.06464049, -0.10117739, 0.01398098, 0.08982445, -0.00466107, -0.09359433, -0.07072019, -0.04377595, 0.11361813, 0.00250199, 0.05452844, 0.00603618, 0.06145841, -0.05575105, -0.05928411, 0.08661342, -0.05245493, -0.11831442, 0.07057476, 0.09560224, 0.06273286, 0.08244701, -0.04993086, -0.00606849, 0.10666852, -0.05468047, -0.12587790, -0.04928632, -0.08153698, -0.10768008, -0.03878429, -0.05004844, -0.03472001, -0.00333768, 0.42902863, -0.20965260, -0.47923225, 0.01998593, -0.05508833, -0.27390423, -0.64046133, 0.24960159, -0.52133030, -0.77234358, 0.31641611, -0.59404039, -0.07187214, -0.07894162, 0.11363180, -1.07166350, -0.45068881, 0.22006752, -0.27090439, -0.12399446, 0.07477119, 0.28292578, -0.01456438, -0.68521911, -0.68434244, -1.16014874, 0.41706058, 0.53722918, -1.65396726, -0.11322619, -0.26397437, -0.02585198, 0.03265553, -0.36808971, -0.52068895, 1.14686322, -0.71401674, -1.48457646, -0.23737252, 0.13308676, -0.01355967, 0.79461545, -0.06776512, 0.15612006, 0.08992382, 0.10533367, 0.03771399, 0.07280578, -0.13367909, -0.35290739, -0.04888366, 0.03097836, 0.04743623, 0.13705897, 0.32736021, -0.33875674, -0.57401651, -0.16284786, -0.16034909, -0.06381284, -0.04554058, 0.11114522, 0.15518798, 0.15597692, -0.97622788, -0.41599458, -0.43150318, -0.86384916, 0.05100541, -0.39652979, 0.34024420, 0.10892980, 0.02476313, 0.24514739, 0.09958556, -0.07210407, -0.03700234, -0.10770887, 0.00480216, -0.32699800, 0.09253088, 0.09023410, -0.28023395, 0.11691509, -0.85624975, -0.60642064, -0.08908790, 0.30324677, 0.05639774, -1.72836959, -0.07479221, 0.39683220, -0.34242588, -0.04524312, -0.54192346, -1.10580409, -0.21142797, -0.63803059, -0.11467069, -0.26923159, -0.17187655, -0.02916597, -0.00660072, 0.11014781, 0.26419678, 0.26567894, 0.23027162, 0.14882419, 0.13285683, -1.02943194, -0.25503263, -0.94291896, 0.07096292, 0.09471624, 0.06150432, 0.06945744, -0.24560627, -0.11552179, -0.05326874, -0.37973544, -0.05054313, -0.78492367, -0.06167275, 0.01649901, 0.09136552, 0.41055587, 0.09550525, 0.13979717, -0.08421004, -0.01080639, -1.54710293, 0.22557247, 0.00257061, -0.35893577, -0.25480789, 0.26372570, -0.19420071, -0.09674982, -0.30631647, 0.05925364, 0.06028168, 0.23093042, 0.19496517, -0.36428013, -0.07300226, -0.07835474, 0.10497262, -0.02337439, -0.85535246, -0.56847191, 0.28238237, 0.09273135, -0.13835241, -1.65358579, 0.23738515, 1.01011896, -0.87152708, 0.04312500, -0.06116664, 0.11906453, -0.15290198, -0.21393922, -0.21336064, 1.19580293, -1.06157875, -1.68014443, 0.13319506, 0.30178365, 0.44273102, 0.19180590, -0.10925221, 0.06100102, 0.87181413, 0.11971175, -0.71344888, -1.38066745, 0.28527009, -0.00999536, 0.31653789, -0.21020529, 0.11674560, 0.26448470, 0.12261418, -0.20833425, 0.02600587, -0.41646028, -1.31419933, 0.30307019, 0.16837837, 0.28779611, 0.09386954, 0.12715170, -0.06093973, 0.11691128, -0.00798672, 0.02371788, 0.06399960, -0.09169741, 0.04459456, -0.18767099, 0.11668368, 0.00019620, -0.01181994, 0.08514984, -0.06721970, -0.07997257, -0.10012687, -0.08112565, 0.10428154, -0.08922936, -0.08833824, 0.10399267, -0.06224183, -0.04381946, -0.08539174, -0.02908073, -0.07468411, -0.11380213, 0.00118507, -0.12312166, -0.10116050, 0.06862274, -0.05245557, 0.05965955, -0.11584033, 0.07311739, -0.14220320, -0.08942301, -0.06651016, 0.00083367, -0.11440782, 0.03991155, 0.01488650, -0.08321310, -0.11415252, 0.01000152, 0.05662483, -0.09837999, 0.03373376, -0.14104557, 0.04662982, 0.01603667, -0.03233835, 0.05889749, 0.05520904, -0.01674241, 0.03253084, -0.00049614, -0.04402559, -0.03661882, -0.08189258, -0.11818947, 0.02412621, 0.14735366, -0.02323541, -0.01318981, -0.72307122, 0.07322979, 0.34878844, 0.03000652, 0.50528485, -0.01666681, 0.15609984, -0.23089008, 0.16454303, 0.20691133, 0.21841018, 0.11868550, 0.02771794, 0.14574435, -0.02670365, -0.31558633, 0.05372325, -0.51698440, -0.10235427, 0.23078217, 0.06078495, -0.04357267, 0.00705550, 0.10569784, 0.21247697, -0.04235446, -0.20506881, -0.80477643, 0.32336465, 0.10026455, 0.40824440, 0.02805803, 0.14029308, 0.51612443, 0.30507883, -0.89559883, -0.00131680, -0.11485402, 0.26210985, 1.77059567, -0.90631062, -0.69067150, 0.14531793, 0.01542848, 0.13482673, -0.35201278, 0.32184854, 0.35196570, 0.37669444, 0.18493326, -0.04419819, -0.02366189, -0.21212779, 0.01479358, 0.03561774, 0.46809611, 0.38556826, 0.44133911, 0.23508966, 0.02691896, 0.75572234, -0.70427752, 0.11422101, 0.02948100, -0.11975284, -0.02871076, 0.06454053, -0.02164380, -0.08805437, -0.07544445, 0.08905166, -0.10554926, -0.07379772, 0.01072291, 0.04952098, 0.10647470, 0.08914641, -0.13837145, 0.01694577, -0.03168263, -0.09266399, -0.10721523, -0.07142445, 0.02793664, 0.08612841, 0.00874405, 0.04531903, 0.03718400, -0.09279451, 0.05268702, 0.01135894, -0.12222216, -0.01166651, -0.10600443, -0.07573211, -0.10428847, 0.03575297, 0.11397892, 0.05692762, -0.10305791, -0.02578324, 0.07434565, 0.05981798, 0.10631803, -0.01745714, -0.10367501, -0.12349993, 0.05971041, 0.00177336, -0.00428236, 0.00668043, -0.05121879, -0.07497896, -0.08787045, -0.01338924, 0.09928700, -0.03803405, 0.00992702, -0.00879308, -0.09230912, -0.07174949, -0.05979824, 0.08183393, -0.12624703, -0.06928824, 0.00785194, -0.03577507, -0.06108592, -0.37678558, 0.24147013, 0.57701236, -0.05127373, -0.05546370, 0.47091413, 0.56914842, -0.69153446, 0.23540860, 0.46799180, 0.40712476, 0.18149999, -0.23126186, -0.29307190, -0.25502321, 0.56216931, 0.43687105, 0.18220203, 0.08765434, 0.12316425, 0.63637233, -0.60188186, -0.33377850, 0.09192270, 0.10921358, 1.13670516, -0.51159447, 1.10908234, 0.13910106, 0.22193810, -0.06639968, -0.04777237, 0.12362719, -0.08490492, 0.57289910, -0.83482301, 1.49385190, 0.56720591, -0.22312856, -0.46801159, -0.07182749, 0.47784215, 0.55067396, -0.23976648, -0.73115402, 0.08910257, 0.25740850, 0.84456009, 0.32580680, 0.05347471, -0.63097781, 0.15812688, 0.00287286, -0.26112032, -0.36777103, 0.18404345, 0.40432459, -0.23594093, -0.97484082, -0.38537014, -0.16244861, 0.13811064, 0.05494203, -0.02369117, -0.28372720, 0.25338307, -2.48004389, 0.14904495, 0.36948535, 0.44771424, -0.72581404, -0.51922494, 0.31637442, -0.57870334, -0.73841888, 0.63959122, 0.50939155, -0.01769033, 0.14945891, 3.29365945, -1.72745311, 0.22944479, 0.32222638, -2.65250993, 0.33111906, -0.20400430, 0.11425181, -0.63842642, 0.49103031, 1.36281490, -0.07751913, 0.05786836, -0.08960607, 0.39891317, -3.77276349, 0.28982058, 0.41177961, -0.04658009, 0.43119520, -0.97250593, 0.25311810, -1.81071007, 0.35797042, 0.31962472, 0.80247468, -1.01757169, -1.26816225, -1.52071965, -0.44578832, 0.07923635, 0.32191518, 0.03555487, 0.40925330, -3.82642031, -0.82871383, 0.48140177, 0.23961078, -0.13473611, -2.78396463, -5.24259567, 0.58786577, -2.38229036, -2.77478671, -0.26003012, 0.22091112, 2.51358485, -2.26030016, -1.91550624, -0.25974131, -0.08018100, -1.53803635, 0.03269484, 0.01725457, -0.13288160, -0.06350776, 0.09300466, -0.15723793, -0.07137816, -0.02847688, 0.16086216, 0.22495534, -0.02739596, 0.16567633, -0.53333402, -0.08575977, -0.05486164, 0.16089551, -0.10019945, -0.65878940, -0.46656248, 0.10930502, -0.00222320, -0.00902629, -1.92436111, 0.07276884, 0.20105322, -0.87841129, -0.06129969, -0.47456607, 0.17439912, -0.13186872, -0.62982309, -0.10480207, 0.78693229, -0.57739508, -1.16230249, 0.18117036, 0.23031943, 0.52996737, 0.12356555, 0.11292865, 0.10300563, 0.70404196, -0.03383720, -0.75764805, -1.42077756, 0.31336460, 0.01208480, 0.13616984, -0.02671954, -0.01264339, 0.09943260, 0.07592802, -0.54301763, 0.03787899, -1.08004498, -1.78690755, 0.06400070, 0.30623123, 0.35718852, 0.11649191, 0.18269485, 0.15211666, 0.14820622, -0.03993446, 0.04126813, 0.19733791, 0.24852996, -0.17196907, -0.20437957, 0.02866388, -0.10490824, -1.00427878, 0.24861857, 0.19034383, 0.05932333, 0.10535314, -0.11195512, -0.66071385, 0.01438971, 0.11774473, 0.03749800, 0.22524901, 0.20389572, -0.08466405, -0.05268276, -0.10893633, 0.02616271, -0.10143252, 0.09037170, 0.06628913, 0.08532138, -1.78102028, 0.20857671, 0.28642231, -0.00004978, 0.04361232, -0.94107676, 0.07243249, -0.14897312, 0.05210362, 0.16279417, 0.01768437, -2.56792736, -3.33832407, -0.63809913, -0.49488226, 0.19853994, 0.18721241, 0.10669669, -0.24841924, -0.07226645, -0.06865647, 0.27056992, 0.11555598, 0.02291409, -2.86420107, -4.15770483, 0.40959960, -0.55743951, -1.66179717, 0.08056994, 0.12445835, -0.40144628, -2.28760719, -3.63786006, 0.80003816, -0.09427776, 0.25411388, 0.23669276, -0.07304646, -0.36809084, -0.65905154, 0.63358313, -0.44264710, -0.54245287, -0.78686827, -0.44541234, -0.11855199, 0.04363215, 0.29409617, -0.47833014, -0.33764076, -0.06124671, -0.15638162, -0.26448649, -0.39767420, 0.55302280, 0.13499424, -0.38201097, -0.54730660, -0.29637629, 0.45960996, 0.04895829, -0.97690195, -0.17896949, 0.15223198, -0.00201940, -0.22678024, -0.03059890, -1.41129553, 0.43176144, -1.05103111, -1.12733340, -0.00147353, 0.26884371, 0.39819217, -0.38794431, -0.64172798, 0.30761513, 0.37176955, 0.10654195, -0.15052576, -0.25229976, -0.68006468, -0.40128627, 0.22741796, -0.27148819, 0.21067321, 0.33737156, 0.44879061, -0.02033608, -0.54745454, 1.14231658, 1.88042426, 0.18596967, 0.24485604, 0.02849064, 0.09088245, -0.01368742, 0.20452762, -0.12096784, -1.34672427, 0.23972145, -0.19558963, -0.45925084, -0.04526883, 0.34461296, -0.17418523, -0.24773386, -0.27095285, 0.01208507, 0.35406771, 0.06387658, 0.16211484, -0.03380074, -0.07861428, -0.02077146, 0.06385303, 0.04986199, -0.80511326, -0.16676912, 0.31854331, -0.16324686, -0.15494758, -1.40649331, 0.32196790, 1.24094033, -1.13628542, -0.01685834, -0.18414837, 0.18054681, 0.08073979, -0.13332120, -0.37996668, 1.05401134, -1.39543629, -0.27322620, 0.37014502, 0.45360515, 0.36116257, -0.07117377, -0.15753925, -0.02217360, 0.84866589, 0.21977513, -0.63498914, -1.35215354, -0.02486592, -0.13229649, 0.33415499, -0.02288973, 0.11255311, 0.23451336, 0.11866944, -0.21032996, -0.13974208, -0.32720128, -1.05653846, 0.19402802, 0.40958604, 0.08349590, 0.06802488, 0.11706270, -0.28851986, -0.01713264, -1.74371254, 0.30484349, 0.15825760, -0.47510523, -0.40949613, 0.03572124, -0.17639722, -0.36523023, 0.00031876, 0.24271409, 0.26678732, 0.15914676, 0.25407499, -0.53507769, -0.16517349, -0.12605233, -0.06494959, -0.07701702, -0.54723531, -0.67816812, 0.25585818, -0.12923284, -0.18065815, -1.84538007, 0.24011482, 0.70154649, -0.82427025, 0.15823725, -0.05314625, 0.20036393, 0.00682282, -0.23375501, 0.11311999, 0.41472769, -0.92093211, -1.74342465, 0.06873887, 0.22468691, 0.60859627, -0.10601947, -0.18295516, -0.01872528, 0.41046277, -0.00856252, -0.56271440, -1.12008381, 0.31686893, -0.11300677, 0.35684216, -0.00035729, -0.08632563, 0.29714069, 0.20522039, -0.34312204, 0.20719492, -0.50663668, -1.40551722, 0.22944571, 0.09163877, 0.25350383, 0.10561631, 0.24289982, -0.46290255, 0.03393272, -0.18523073, 0.06094287, -0.04412599, -0.19590677, 0.29075289, -0.08035032, 0.53211999, 0.25885022, 0.37616789, -0.02524417, -0.01130047, 0.30340219, -0.05765696, 0.09426739, 0.36520773, -0.19180079, -0.04606056, 0.24427956, -0.52028292, -0.15622176, 0.42510229, 0.55102974, 0.56607717, -1.67805099, 0.05407490, -1.39872396, -0.33560294, 0.14918326, -0.01346601, 0.06520044, -0.15329921, 0.31230026, 0.03056346, -0.00660473, -0.19226897, -0.47508550, 0.00376899, -0.08921232, 0.01911040, -0.16737488, 0.19610199, 0.19227940, 0.09563359, -0.00235603, -0.65239352, -0.95050287, -0.07900873, 0.37570053, 0.24052788, -0.49674281, -0.01976627, 0.18503813, 0.34985450, 0.07588828, -0.11221034, -0.09658150, -0.23490953, 0.22716418, 0.15922937, 0.03316135, 0.33206633, 0.10157323, 0.08588116, -0.02299611, -0.01710878, -0.07523736, 0.08246350, 0.02206130, 0.09133045, -0.00208446, 0.05140854, 0.06349839, -0.02052949, 0.03466216, -0.11889073, -0.11182708, -0.10191764, -0.08726574, -0.01212244, -0.01501529, -0.02589914, -0.04982825, -0.02684076, 0.00266913, 0.08643973, 0.11043851, -0.04234172, 0.07172765, 0.03594340, 0.02900404, -0.03897525, 0.08456456, -0.01184242, -0.03404640, -0.10326807, -0.12530005, -0.10719874, -0.05009963, -0.06729292, 0.02552430, -0.10811628, -0.10570787, -0.05788192, -0.07836734, -0.08025993, 0.00700070, 0.09573607, -0.11947268, -0.07302815, -0.10352646, 0.02968962, -0.05601243, -0.05740327, -0.05758812, -0.09912042, -0.04491194, -0.08062951, 0.08963994, -0.01670593, -0.03081950, 0.10814889, -0.01552759, 0.11441444, -0.00708543, -0.02889591, -0.02755783, 0.05326354, -0.11097172, -0.08852668, -0.09050561, -0.02351679, 0.06230028, -0.11780779, -0.13800679, 0.07444823, -0.04123366, 0.02108663, -0.02498137, -0.09713546, -0.08631118, 0.11129074, 0.02935971, -0.00617337, 0.01952001, 0.09438963, -0.01533092, 0.04062484, -0.01591037, -0.06425897, -0.10095818, -0.02350687, 0.00828493, -0.04973421, -0.00042284, -0.08514802, 0.06085886, -0.13023110, -0.04150666, 0.08041738, -0.10959227, -0.17011204, -0.10369749, 0.06874225, 0.03557750, -0.05715305, -0.06980857, 0.06840410, -0.07115604, -0.13669017, -0.03371750, -0.19210649, 0.00006896, -0.04303388, -0.08120817, -0.01541122, -0.13512479, -0.08022472, 0.02790156, 0.08036222, -0.06948249, 0.03096921, -0.12587011, -0.05406752, -0.03877623, -0.07741283, -0.00854317, -0.01568582, 0.10514364, 0.05739379, -0.05856199, 0.09582383, 0.07710238, -0.10038386, 0.02090938, 0.10575389, -0.01054495, -0.05416561, 0.01086911, -0.11597110, -0.02190948, 0.08708297, -0.10771703, 0.01028194, -0.04793309, -0.01883420, -0.11380342, -0.05404970, 0.05484172, -0.06562339, -0.02423107, -0.03882365, 0.01196529, 0.08422991, -0.12420494, 0.06167961, 0.02666678, -0.06803654, 0.00355111, -0.03967115, 0.05123936, -0.03334737, -0.05297828, 0.06033121, -0.05126720, -0.14452514, -0.03968200, -0.00832424, 0.04007845, 0.00235333, 0.02797290, 0.10578024, -0.15287527, 0.02854394, -0.03131622, -0.16245244, -0.11073188, -0.11901063, 0.02235139, -0.05526674, -0.02101954, -0.11812021, -0.13074103, 0.05716225, 0.06324450, -0.04833817, -0.11863028, 0.06889284, -0.10603944, -0.05648288, 0.03043235, 0.04736301, -0.13516851, 0.06467330, -0.03963133, 0.24199636, -0.06950524, -0.26542279, -0.06421955, -0.35416147, 0.00718119, 0.31574067, 0.11133024, -0.06430060, -0.00046750, -0.01348581, -0.29884580, -0.06891582, -0.31775144, 0.00587533, -0.55509222, 0.18208921, 0.24884798, -0.07897385, 0.00201305, -0.24679741, 0.11214420, -0.24848461, -0.04688578, -0.00002243, -0.73398626, 0.16450381, -0.05456967, -0.22495377, -0.03191023, -0.66581470, -0.08647225, -0.14748396, -0.79507375, -0.18870962, 1.00255406, 0.07912840, 0.27562842, 0.04364145, -0.01899001, -0.29483181, 0.96702427, 0.30152929, 0.15033786, 0.71876729, -0.00552869, -0.07065263, -0.26653007, 0.00581258, -0.12288083, -0.19075027, 0.02061392, 0.06650048, 0.13941556, 0.04332647, -0.62252736, -0.36018258, -0.69748116, 0.16114591, -0.34614769, -0.00468443, 0.03950245, 0.09646566, -0.03508415, -0.04357670, -0.00385185, -0.38412350, 0.07209218, 0.02369177, -0.22066715, 0.06294972, 0.26666176, 0.27738646, -0.01136707, -0.07759927, 0.29838464, 0.40390009, 0.29278624, 0.19548163, 0.08420327, 0.09317257, 0.03932945, -0.05954483, 0.31028762, -0.08263630, 0.17321408, 0.26424348, 0.26168486, 0.36926830, -0.00563722, 0.13216080, -2.29419351, -0.24158885, 0.25653136, 0.30450091, -0.03859457, 0.10037514, 0.29198840, 0.01500830, -1.89743829, -0.85228097, -0.21489960, 0.11407125, 0.42792362, 0.02005010, -1.21502566, -0.05563031, 0.04708051, -0.70250714, 0.15021035, -0.03889326, 0.02358243, -0.16627572, 0.07571486, 0.56121719, 0.07485633, 0.22260664, 0.20140254, 0.00127776, 0.14677601, 0.26050380, 0.21447845, -0.56420100, 0.49616921, 0.28122136, -0.53011584, 0.20039597, 0.13136390, -2.33483410, -0.99299407, -0.47116682, -0.88403744, 0.03535797, -1.49438095, 0.20214526, 0.00369996, 0.28871462, 0.25252220, 0.03660991, -0.05145523, -0.14034760, -0.01423970, -0.14233348, -0.51863688, 0.02244388, -0.02039126, -0.62203056, 0.18997994, -1.79042125, -0.05900995, 0.04354175, 0.18375528, 0.27166909, -0.71127099, -0.00927468, 0.25955886, -0.05284856, -0.10168277, -0.39519227, -1.58514893, -0.24645746, -0.41082510, -0.11624087, -1.04523659, -0.99985850, -0.51337612, -0.03338723, 0.07910557, 0.33305755, 0.16325150, 0.18075153, 0.03682697, -0.17401111, -1.89696848, -0.21843366, -1.72200739, -0.12824751, 0.21593679, 0.15947121, -0.09275644, -1.28713536, 0.10979844, 0.02843145, -0.45243135, -0.19287819, -0.38830906, -0.15195227, 0.14531611, 0.06391822, 0.24973682, 0.15035404, 0.20409560, -2.97378016, -1.33521092, -0.64468509, -0.66617972, -0.07527823, -2.27466726, 0.01799027, 0.05326214, 0.11644124, 0.10936637, -0.08779141, 0.01384163, -0.01520017, 0.05397863, -0.04906783, -0.50152910, 0.10404398, -0.10752760, -0.52027249, 0.12537046, -2.07598114, 0.07793902, 0.18634765, 0.03276661, 0.09788123, -1.09609759, -0.02730769, 0.08232091, -0.19728932, -0.01452086, -0.35278687, -1.39816058, 0.06977633, -0.36945853, -0.00468257, -2.35850334, -1.92912769, -0.88089490, -0.11088534, 0.11036319, 0.16759089, 0.07351065, 0.05925630, 0.03141015, -0.04176156, -1.55047500, -0.00674783, -1.99682903, -0.05309004, 0.14500147, 0.08829366, -0.08170431, -1.48869312, 0.13941889, 0.14153790, -0.25945878, 0.05814202, -0.35837162, 0.01986803, 0.10782472, -0.12385319, 0.16048518, 0.14542912, 0.14187841, -0.59929222, 0.13979708, 0.58565593, -0.25886464, 0.36872822, 0.30351058, -0.28516808, -0.59686595, -0.11962353, -0.05745598, 0.19675219, 0.38427910, 0.04944809, 0.13372317, -0.16389158, 0.08420583, -0.12807059, -0.09255265, -0.03752090, 0.10992696, 0.81855309, -0.05486060, 0.06796390, -0.10565124, -0.00245490, 1.20956802, -0.60637468, 0.58933222, 0.42649844, 0.33263960, 0.42566422, -0.00250795, 0.22023663, 0.38607076, 0.62942737, -0.12747163, 0.83416557, 0.35393444, -0.22812045, -0.33094594, -0.16776258, 0.40419570, 0.20756210, 0.00937357, -0.54667097, 0.05226020, 0.56334960, 0.98522919, 0.19706498, 0.03199352, -0.10470206, 0.72149885, -0.10570543, -0.24672344, 0.13461144, 0.38151333, 0.61142784, 0.44574609, 0.16570394, -0.12069218, -0.39353102, -0.27242514, -0.06070535, -0.11969529, 0.31478620, -0.10025391, -0.69651747, 0.28001159, -0.17837022, -0.47565547, -0.35986310, 0.52357614, -0.55876195, -0.51510715, -0.02579381, -0.40054253, -0.08865991, -0.24345630, 0.26912373, -0.28664067, -0.27411017, 0.07924552, -0.08508793, -0.21901694, -0.76479220, -0.20224787, -0.11544377, -0.31545356, -0.46380213, -1.62726724, 0.24365589, 1.07712698, -1.40892482, -0.30625728, -0.55842203, 0.07564043, -0.41611221, -0.79007906, -0.69974041, 1.26014781, -1.03000832, -0.36670697, 0.09119169, 0.25676242, 0.04343805, 0.51861304, -0.00805098, 0.10156628, 0.87188870, 0.21278127, -0.63560027, -0.88855493, 0.00407541, -0.29056400, -0.16077705, -0.23206329, -0.06838062, 0.22115786, 0.27544975, -0.47963858, -0.54258263, -0.18678649, 0.23813638, -0.16659500, 0.19514905, 0.27084959, 0.12350664, 0.20601216, 0.56552380, -0.06724533, -0.41113436, 0.39285359, -0.34312373, -0.60377949, -0.90160507, 0.63881505, -0.73131543, -0.66056710, -0.21731633, -0.57480818, -0.10345488, 0.08245029, 0.31166989, -1.29626739, -0.51950562, 0.03149863, -0.22112858, -0.20333019, -0.66397166, 0.19945951, 0.04638778, -0.69787729, -0.81015545, -0.59170133, 0.36013019, 0.96853787, -0.24050850, -0.36444661, -0.03362637, 0.15654378, -0.19945593, -0.30776945, -0.91979289, 1.13744402, -1.11117697, -1.16667807, 0.13055393, 0.05264014, 0.06516325, 0.41171792, -0.64503348, 0.26890987, 0.45277953, 0.00379593, -0.28625298, -0.66629106, -0.40127239, -0.23790167, 0.05429447, -0.33475807, 0.16133477, 0.44148779, 0.34842232, -0.31234059, -0.52889740, 0.21803419, 0.96989876, 0.16707909, -0.00592837, 0.07001404, 0.11732036, 0.15275219, -0.11415619, -0.05403516, 0.03864304, -0.05968167, 0.07759968, -0.13129072, -0.06384210, 0.06445916, 0.05402457, -0.03844359, -0.06093716, 0.01054972, -0.04901559, -0.03015179, -0.11774427, -0.05559192, -0.07939561, 0.05293026, -0.02528097, 0.04255882, -0.04404442, -0.06823017, -0.09659991, -0.06511871, 0.01103823, 0.11722046, -0.12304964, 0.10229960, 0.01431950, 0.07347962, -0.08857906, 0.03452800, 0.09984774, 0.08968049, 0.03662864, -0.06110948, 0.06987955, -0.06894068, 0.01775652, 0.03940734, -0.04540500, 0.07294615, -0.09793440, 0.00454119, -0.10749115, -0.03912041, 0.01046386, 0.05676433, -0.00770148, -0.09125157, 0.00533587, -0.01218998, 0.03446325, -0.10152458, -0.03734922, 0.01098851, -0.03962075, -0.06674048, 0.10279202, -0.04419383, -0.11991299, -0.08413363, -0.09090162, -0.04990348, 0.03550884, -0.10020104, -0.09999192, -0.07364768, 0.01197742, 0.05168667, -0.05777526, -0.04242955, -0.01895179, 0.10419098, -0.08835080, -0.02644397, 0.09266354, -0.11170007, -0.11204989, 0.09030423, 0.04907985, -0.08252884, 0.08403167, -0.00937200, -0.09255469, 0.12244315, 0.04595092, 0.12446654, -0.08946557, 0.07519279, 0.04822242, 0.11243235, -0.10908680, 0.02417824, 0.00403459, -0.12426457, -0.06128095, -0.11979347, -0.10590291, 0.04260676, 0.10945192, 0.04761362, -0.05177094, 0.01460630, 0.01674421, 0.05845667, -0.12434702, -0.11467013, -0.10232252, -0.03847547, -0.09374407, 0.00871429, 0.11837278, 0.00177976, -0.08934286, -0.10592575, -0.02235284, 0.07716866, -0.10665478, 0.08973262, 0.02116860, 0.00862804, -0.11047061, 0.06464942, 0.00250003, -0.09302759, -0.02304539, 0.10675505, -1.58097911, -0.80480486, -0.09006295, -0.56679535, -0.11236617, -2.17476368, 0.30063555, 0.10729974, 0.72714061, 0.18025307, 0.33962053, 0.05080345, 0.03247564, 0.43506700, -0.13400096, 0.00559563, 0.44559556, -0.57630855, -1.99783170, 0.35070398, -1.28687537, -0.09098408, 0.43503511, 0.49685028, 0.62740535, -1.39547002, -0.00363730, -2.23838687, -0.22586039, -0.16393553, -0.04001907, -1.79596961, 0.11591201, 0.28635603, -0.05811468, -2.84881520, -1.31515980, -0.18499973, -0.10726888, -0.15950222, 0.04126684, -0.17549105, 0.29780912, 0.35584831, -0.64443839, -3.83218026, 0.10530531, -0.90772992, -0.01290241, 0.47753936, 0.40647736, -0.13173902, -0.83330607, 0.09403035, 0.35512313, 0.17726637, -0.10197279, 0.04715094, -0.10377871, 0.21798335, -0.15522388, -0.09565272, 0.29650086, 0.21320735, -0.10834197, 0.21699637, -1.75974977, 0.11880670, 0.27300790, 0.21769369, 0.14898655, -0.58292836, -2.94155240, 0.79356039, -0.26768538, 0.64931124, 0.53414917, 0.03900274, -0.06592157, 0.31933752, -0.39942211, 0.02002585, 0.24865754, -1.50211346, 0.06992362, -0.17445418, 0.02887398, -0.03365269, -2.80848575, -0.41543335, -0.13956542, -0.05352369, -0.06062147, 0.32737142, -5.08831978, 0.10969684, 0.21829836, -0.41003829, 0.82645780, -0.55763298, 0.45829883, -0.27770391, 0.17338006, 0.27948201, 0.05093689, -1.87186325, -2.17837739, -1.62002945, -0.17716591, 0.04232579, 0.13668740, -0.13158044, 0.55813527, -4.39609098, -0.04389789, 0.50825453, 0.17329416, -0.02393970, -2.49864531, -5.43308544, 0.52043915, -2.07286000, -2.38718438, -0.03950948, 0.27364165, -0.07478943, -1.50976646, -2.40366745, -0.04496127, 0.06478824, -0.37258139, 0.06875315, 0.09062853, -0.07886471, 0.11236919, -0.05696638, -0.03948607, -0.10443947, 0.02114465, -0.07188665, 0.09605753, -0.16460563, -0.05681818, -0.14016019, 0.08511830, 0.00122292, -0.03959034, -0.11417214, -0.09840671, -0.13162717, -0.08233692, 0.07469682, -0.04819502, -0.02996514, -0.03147439, -0.02713827, -0.00514086, -0.10410463, -0.15825112, 0.08910651, -0.00515954, -0.12755331, -0.38456303, -0.21653156, 0.00869152, -0.03374534, -0.01395757, 0.03254274, -0.10073292, -0.03337595, 0.05169465, -0.17002244, -0.06549034, -0.13001713, -0.14620258, -0.15349083, 0.11787101, -0.09431789, -0.06490287, 0.09868650, 0.09077936, 0.11175794, -0.16878474, -0.10730793, 0.02603391, -0.14010818, -0.22362889, 0.01560939, -0.06070423, -0.13762757, -0.15647206, -0.08566922, 0.40412578, -0.08506252, 0.19029421, 0.06173243, -0.43179908, -0.12842715, -0.34300113, 0.29733729, -0.14908543, -0.51498777, -0.00874108, -0.25375500, -0.03005748, 0.31857061, 0.21545185, -1.09477782, -0.05904802, -0.12919609, -0.11162899, -0.05534746, 0.19256394, 0.26951239, 0.08346281, -0.21232119, 0.07266586, -2.07452512, 0.26235986, -1.36739492, -0.57581121, 0.01116306, 0.45557085, 0.15890452, -0.01602585, 0.34138131, -0.81806743, -0.98407024, -0.68230879, -1.38353539, 0.03938455, 0.02264550, -0.55898243, -1.24367070, -0.14881586, 0.12173555, -0.59237772, 0.06876240, 0.21651544, 0.29441643, -0.89749336, 0.01301550, 0.18638103, -0.24043949, 0.23443565, 0.10962738, 0.19440243, 0.35701403, -0.48140365, 0.53455353, 0.87764090, 0.21123126, 0.00600535, -0.83062929, 0.15190634, 0.05272196, -0.36473233, 0.33896825, 0.92175412, -0.15208592, -0.25595078, 0.86356729, 0.46399444, -0.61937737, 0.24853802, 0.46605855, 0.28365171, 0.11202114, 0.02497638, -0.10609660, -0.23122708, 0.71493471, 0.17768964, 0.00146904, 0.26342839, -0.04549999, 0.49493280, -0.37585637, -0.24386494, 0.16529457, 0.17624822, 1.39760041, -0.70360965, 1.29315841, 0.15650921, 0.08187751, 0.17853363, -0.12259619, 0.01150885, 0.15270454, 0.38835886, -0.12889621, 1.70520496, 1.39401591, -0.13459454, -0.54530907, -0.68709850, 0.78319788, 0.34219214, -0.08724287, -0.27467474, 0.07277839, 0.04145312, 0.71937859, 0.05295989, 0.15247357, -0.80607796, 0.21338095, 0.00474774, -0.36122358, -0.16543847, 0.28712469, 0.24066681, 0.09761239, -0.52816963, -0.37722233, -0.24052122, 0.17258516, 0.06081278, -0.25126725, -0.52580351, 0.29681116, 0.39442569, -0.15388767, -0.12496807, 0.64461112, 0.43823981, -1.09705615, 0.28058666, 0.35574314, 0.55819297, 0.36277553, -0.16760127, -0.11407376, -0.29210389, 0.36182541, 0.42264926, -0.02194603, 0.20405848, 0.21512003, 0.44651431, -0.87255776, -0.18773235, 0.31280568, 0.18246014, 1.33000076, -0.46244273, 0.18391632, 0.20424618, 0.19158496, -0.12885535, -0.03192029, -0.04747690, 0.10785151, 0.59694713, -0.78819489, 1.32590139, 0.43793070, -0.00546050, -0.18301137, -1.27382326, 0.40524483, 0.59332657, -0.31757271, -0.65372539, 0.07345449, 0.00864287, 0.34239507, 0.38363421, 0.37213412, -0.99618286, 0.04797868, -0.01586316, -0.26988614, -0.18963695, 0.16046117, 0.41378024, -0.47700065, -1.89235091, -0.64436269, -0.11498453, -0.57387173, 0.09279384, -0.12792899, -0.05668547, -0.14647225, -1.45491421, -0.03160428, -0.05034665, -0.38749108, -0.35796317, 0.37162912, -0.28226587, -0.42387602, -0.05349251, 0.11147998, 0.24879007, 0.09381217, 0.23174335, -0.65486020, -0.17170791, 0.00853007, 0.14075379, 0.04289302, -0.59575844, -0.19572139, 0.04344976, -0.20208143, -0.15617678, -2.00073791, 0.30347535, 0.27056322, -1.21903694, 0.03156698, -0.44070208, -0.05107132, 0.10427273, -0.63013756, 0.23007743, 0.67109925, -0.74180752, -0.77503341, 0.09307621, 0.26479414, 0.38741642, 0.25230670, -0.11799952, 0.16063640, 0.36983040, -0.05035861, -0.30074373, -0.93475890, 0.34962991, -0.05105669, 0.10946829, -0.03247773, 0.05234715, 0.15479542, 0.07453038, -0.52105898, 0.04785697, -0.67458057, -1.59800649, 0.01750838, 0.08671112, 0.16497010, -0.02906675, 0.26254860, -0.56171262, 0.09013975, 0.35352162, 0.26155052, -0.04194803, 0.30444586, 0.26762444, -0.70072037, 0.02473506, 0.28437153, 0.38533723, 0.20197037, -0.04450665, 0.28825074, -0.00898322, 0.12031313, 0.04223965, -0.13022369, 0.30337098, 0.21198438, -0.04695040, -1.03019166, -0.00872573, -0.27644783, 0.12779617, 0.14679375, -0.24983528, 0.61471725, -0.20536123, -0.00351863, 0.40250039, 0.13993748, -0.04133162, 0.42443070, 0.21410725, 0.96026665, 0.76760381, 0.38611260, 0.14948557, -0.14098161, -0.05138168, 0.08468679, -0.00175201, -0.31815800, 0.35134396, 0.11077318, -0.51251382, -0.39843389, 0.30527711, 0.21885931, -0.63594460, 0.20731753, 0.03038170, -0.05071354, 0.03656725, 0.45490125, 0.22208007, 0.19701426, -0.19744717, -0.13788590, 0.01282498, -0.40069667, 0.03328571, -0.14837608, -0.65101385, 0.21962842, 0.98752165, -0.28565693, -0.36964205, 0.86045438, 0.64129525, -0.46114686, 0.28293693, 0.47450042, 0.30528218, -0.28284767, -0.58894664, -0.75337040, -0.36100543, -0.18922709, 0.37687457, 0.23104879, 0.08841959, 0.09010758, 0.84042305, -0.53445327, -0.30970031, 0.20429431, 0.14293346, 0.13403407, -0.42650217, 0.48236069, -0.33947271, 0.04486314, -0.49241221, 0.29233110, -0.54005402, -0.29844189, -0.14199933, -0.59051853, 1.66628551, 0.87368160, -0.18783855, -0.72898388, -0.80144089, 0.09868556, 0.46786135, -0.04644100, -0.51920247, 0.11106108, -0.32426003, 0.89939672, -0.51994926, 0.21746466, -0.47215602, -0.39248317, -0.09116761, -0.28589493, -0.08142810, -0.11511993, -0.19068605, -0.35275936, -0.62867081, -0.36517942, -0.43076777, -0.02544596, 0.08483745, -0.00661870, -2.08191609, -0.23120640, -0.22821476, -1.03170347, 0.10243693, 0.53870058, 0.42878038, -0.10501896, 0.31770617, 0.38272122, 0.18935004, 0.02052628, 0.09319822, -0.06387093, -0.25414544, -0.30242926, 0.31677213, -0.02074318, -0.14908156, 0.27053440, -1.46126997, 0.03164904, 0.02981785, 0.40694088, 0.36315945, -1.04105425, -0.14405254, -0.26836854, -0.49713856, -5.75964832, -0.57400560, -1.17204463, -0.14377734, -0.23232493, -3.02948356, -1.19695234, 0.52667820, 0.62226921, 0.02982448, -0.00372233, -0.08361267, 0.25008428, 0.24380870, -0.03197799, -0.01318962, -1.79041493, -0.33769536, -1.70150089, -0.01059344, 0.11599585, -0.11839499, 0.01669381, -0.91511762, -0.11833430, 0.11817487, -0.34402332, -1.24697316, -0.62047833, -0.24754030, 0.10954953, -0.06229695, 0.14996418, -0.01691744, 0.16081117, 0.43772292, 0.16886611, 0.12468961, 0.23516659, -0.71216595, 0.15560463, -0.15667921, -0.25571701, -0.13339372, -0.26301515, 0.02051713, -0.46171024, -0.07978502, 0.10563336, 0.00159547, 0.11645380, -0.12447815, 0.00388025, 0.05232980, -0.03546746, -0.55527079, -0.03489069, 0.04024602, -0.28898156, -0.02990362, -0.34325674, -0.18493919, -0.44405258, -0.85433626, -0.56918979, 0.08860935, 0.07353769, -0.02009741, -0.00296838, -1.22134888, 0.41960350, -0.06319258, -0.29057822, -0.08542611, -0.08770244, 0.46792734, -0.32160720, -0.25838059, 0.02303532, 0.01678739, 0.33003587, -0.33864710, -0.52148670, -1.00524759, -0.06937353, -0.39897126, -0.38615015, -0.07419651, 0.08789171, 0.20949407, 0.18424916, -0.86526489, 0.25297770, -0.37369540, -0.32559130, -0.07855249, 0.00081098, 0.06995225, -0.13421229, 0.00214431, -0.08560383, -0.22226870, 0.06155258, -0.09287757, 0.10851930, 0.03568883, -0.12371896, 0.10740224, -0.06746022, -0.12377505, -0.09987728, 0.08288924, -0.04528170, -0.06861675, 0.07184671, -0.03395466, -0.10497887, 0.08608714, -0.11973142, 0.05651024, -0.12511079, -0.02190318, -0.07602891, 0.01364978, 0.08064944, 0.10073055, 0.00527026, 0.08820696, -0.07409196, -0.04105120, 0.02612858, 0.00571456, -0.09434222, -0.08969310, -0.10968002, 0.08130033, 0.09595110, 0.00883224, -0.03430972, 0.06592558, -0.15167221, -0.04151641, -0.31679973, -0.06197308, -0.08424137, -0.03499044, -0.08287376, 0.14126182, 0.01116411, -0.03425892, -0.04529400, 0.07245619, -0.08558431, -0.20369714, 0.01435863, 0.05329408, -0.09803914, -0.28147143, 0.01170246, 0.05896011, -0.11949366, -0.10811649, -0.07316174, -2.70550489, -1.32300115, 0.24330749, -0.57710421, -0.05412113, -0.99134803, 0.54367280, -0.02914913, 0.67279071, 0.62186897, 0.08496750, -0.10738096, -0.11036768, 0.25383997, -0.15584899, 0.29849675, 0.47105783, -0.89481527, -3.23843837, 0.21581343, -1.53647232, 0.04404647, 0.29998302, 0.63396257, 0.73775607, -0.74740881, -0.10638275, -2.50953412, -1.35220015, -0.24591890, 0.18279314, -1.29657471, -0.12258634, 0.50467950, -0.12857281, -3.99044347, -1.21692777, -0.27966082, 0.08528792, -0.12513077, -0.42765778, -0.55341798, 0.31389716, 0.16349122, -0.31337529, -3.92718720, -0.13410112, -1.78398073, 0.13087851, 0.26051936, 0.15437180, 0.06684989, -1.71884882, 0.06500818, 0.03723944, 0.38560611, -0.06456191, 0.06778952, 0.03322385, 0.24672185, -0.05128763, -0.34525889, 0.21417914, 0.11222956, -3.29009104, -0.95803988, 0.16442774, -0.97882521, -0.11895624, -1.85477448, 0.38230282, -0.08500373, 0.96189082, 0.57568383, 0.32564050, -0.08163790, -0.03242393, 0.32075477, -0.19382359, -0.48306614, 0.40204769, -0.99720019, -2.14147234, 0.41476533, -2.36399674, -0.02099319, 0.33660087, 0.68402803, 0.84254599, -0.81543636, -0.08169395, -2.22240758, -0.01816780, 2.41553807, 0.07712854, -2.21911836, -0.01250350, 0.46545312, 0.08472344, -3.92749786, -1.03618419, -0.67389387, 0.01394584, -0.09097151, -0.15162446, -0.35481676, 0.32353371, 0.18272907, -0.38813981, -4.95671701, -0.08265351, -1.84305954, 0.01532452, 0.52834809, 0.28659749, 0.06556438, -2.33605886, 0.09434851, 0.20019133, 0.15221612, -0.05512109, -0.13893022, 0.06981246, 0.26309681, 0.02656871, -0.07287486, 0.34461007, 0.27794865, -0.06790243, -0.09990798, 0.07944185, 0.07014583, 0.09845490, -0.06284347, 0.01237287, -0.00311024, -0.08562604, 0.12161903, 0.02161962, -0.10795916, 0.01771946, -0.01605504, -0.00636022, -0.03029417, -0.11485478, -0.11950053, -0.05042884, 0.06083486, 0.02290556, 0.01756305, -0.06553932, -0.11884987, 0.03661755, -0.00747593, -0.07356317, -0.01343375, 0.01565334, -0.03603803, -0.12754750, -0.06236137, -0.03979105, -0.11779987, -0.08585222, -0.08496372, -0.00227145, 0.10282390, 0.09535474, -0.08629103, 0.04863560, 0.00106214, -0.07039063, -0.12507321, -0.11018817, -0.02831943, 0.06109196, 0.05537087, 0.02946038, -0.02456916, 0.04560924, 0.03571978, -0.06770763, 0.04230605, -0.02677317, 0.06335685, 0.06022206, -0.00882367, -0.09815520, 0.03068418, -0.09843140, 0.12339951, 0.02752486, -0.05540610, 0.13680969, 0.18387695, -3.27850580, 0.35168317, 0.21505722, 0.07942081, -0.18908989, -0.09112712, -0.07769217, -0.06514910, -0.91250491, 0.65331483, 0.56822807, -0.23334840, 0.14634620, -0.12709349, -0.03967410, 0.32730290, 0.28700915, -0.02176250, -0.28025183, -0.20572148, -0.12817603, -0.10989384, -0.11756887, 0.05470604, 0.25242853, -0.07653596, -0.11973815, 0.37636885, -0.98608011, 0.19287677, 0.33477220, -0.20328958, 0.27323744, 0.15259409, -0.10313724, -0.22691138, 0.51157284, 0.71616715, -0.22544280, -1.88927138, -2.89912605, -1.66750777, 0.62907624, 0.38618720, -0.18638442, -0.69302338, 0.36111861, -0.12925521, -0.04045311, 0.34395853, 0.19736212, 0.12081727, -1.89699674, -0.35143447, 0.41169199, -2.47669697, -2.13658023, -0.05088607, 0.32885382, -0.07364725, -1.59757626, -3.23048997, 0.18778214, -0.03155119, -1.12988842, 0.18696305, -0.02256681, -0.39968413, -0.10056886, 0.20499413, -0.03759464, -0.07211906, -0.16697845, -0.26007411, 0.09589885, 0.10026335, 0.28423658, -0.43060106, -0.16551480, 0.02385931, 0.07955047, -0.03079629, -0.73762202, -0.30898717, 0.04223279, -0.29948390, -0.06045092, -0.92749286, 0.25973320, 0.97397810, -0.03500989, -0.12840860, 0.11081596, 0.18710737, -0.24638020, 0.13217509, -0.60754251, 1.14468598, -1.08265173, -0.37253624, 0.20195633, 0.41619524, -0.04489795, 0.20658144, -0.16910376, 0.14971495, 0.73133451, 0.03352131, -0.55604661, -1.18382907, -0.08862210, -0.13979284, -0.00865569, -0.15663983, 0.01705972, 0.25259736, 0.15490822, -0.05756091, -0.49503800, -0.41532728, -0.70668775, 0.00119491, 0.34457526, -0.14663176, 0.11511220, 0.03297033, 0.35275725, -0.07465350, -0.82306981, 0.11930147, -0.24937235, -0.08803260, -0.16763623, 0.24845937, -0.03840007, 0.01643504, -1.69936037, 0.08457863, 0.20041381, 0.10561173, 0.10321242, -0.07774566, -0.10949782, 0.21427004, 0.07663035, -0.04701787, 0.20790172, 0.56726426, -0.00734140, -0.04548389, -0.03269364, -0.07957860, 0.10201603, -0.06602253, 0.05882222, -0.01506175, -0.00275453, 0.10952654, 0.13764296, -0.02613239, -0.74790692, -0.69842488, -0.40439764, 0.08719369, 0.07995395, 0.19239946, -0.02387524, -2.08585858, -2.92846513, 0.25211051, -0.50971156, 0.01105367, 0.19179806, 0.13041434, -0.80899256, -0.16107762, 0.02459331, 0.00673474, 0.11390272, 0.03289674, -1.45249510, -0.00356755, -0.33372569, -0.35087278, -0.00411717, -0.08461783, 0.15437746, -0.18186660, -1.77183437, -2.51817560, 0.00375199, -0.15324707, -0.08506668, -0.08053364, -0.08329970, -0.00990181, -0.04940822, 0.08378047, -0.08367012, -0.02148649, -0.02561499, -0.11788204, -0.11627176, 0.05621250, 0.09724271, -0.07923567, -0.01000773, -0.09475292, -0.11857374, -0.11183851, -0.01542376, -0.07089092, 0.05897734, -0.01241272, 0.03249209, 0.02377816, -0.01165158, -0.06679083, 0.09071238, -0.03658633, -0.13711452, -0.07046819, -0.07167124, -0.07674121, -0.05828513, 0.06937402, 0.03792885, -0.00658008, -0.11946791, -0.14179274, -0.11061531, -0.14040291, -0.16643836, -0.05850653, -0.00619669, -0.00134278, 0.08535500, 0.06379139, 0.02773438, 0.08196757, 0.05769807, -0.10502188, 0.00250866, 0.07142283, -0.04529067, 0.00194558, -0.06589862, 0.07001253, 0.08992946, 0.03793247, 0.12635095, -0.05333779, -0.02747418, -0.11318386, -0.04699881, -0.02648989, -0.11554319, -0.08578001, -0.10206192, 0.03264233, -0.00047146, 0.07153691, -0.02912201, -0.05119533, 0.07853133, 0.00145994, -0.03616389, -0.06096920, -0.12974074, -0.03677946, -0.09249513, -0.03538965, -0.06214032, 0.02274014, -0.03138404, -0.03388868, -0.08195381, -0.14161380, -0.03742985, -0.13072024, -0.08089577, 0.02113580, 0.05913461, -0.04132903, 0.02068930, -0.03428206, -0.03623240, -0.09028830, 0.05600686, -0.07855714, -0.11313307, -0.10902009, -0.01378371, 0.07359135, 0.04490298, 0.03771207, -0.02834258, -0.11544988, -0.07779951, 0.04790039, 0.01629020, -0.12129484, 0.08383894, -0.02263981, 0.04418334, 0.04558866, 0.12209330, -0.10587174, 0.04110837, -0.06311228, -0.00215003, 0.08843376, -0.03540311, -0.09571737, -0.07139309, -0.02715114, -0.03920263, 0.09427823, 0.66544813, -0.09800790, 0.01811668, 0.31265301, -0.29878655, -0.37301528, -0.38117990, 0.36788377, -0.19135225, -0.41278771, -0.20776425, -0.44140479, -0.11495756, -0.02343028, 0.17226228, -0.83212966, -0.28405562, -0.01821332, -0.25561202, -0.03475850, -0.52891195, 0.54650360, 0.12323791, -0.17050867, -0.15587129, -1.48673463, 0.40870473, -1.39126968, -1.06101632, -0.31303203, 0.23083495, 0.17226109, -0.30783084, 0.41477239, -1.07334781, 0.19022925, -1.32566094, -1.50462067, 0.13722199, 0.14400813, -0.62804639, -0.71114874, -0.20248938, 0.20845920, 0.32797435, 0.03515791, -0.35023808, -0.56850380, -0.72532839, -0.03796137, 0.01212389, -0.33826846, 0.21535715, 0.26640272, 0.14007090, 0.03762322, -0.56016934, 0.35452428, 1.07138681, 0.01576483, 0.24840410, -0.72791660, 0.10632838, 0.07081264, 0.57408988, -0.08455081, 0.22122563, 0.13624571, -0.18910722, -0.21614325, -0.87471765, 0.56607002, -1.12160134, -0.74784493, -0.38747317, -0.40858799, -0.16225381, -0.01195528, 0.36603031, -0.83038831, -0.35622719, 0.06392694, 0.02576966, -0.18606725, -0.30513877, 0.41078159, 0.06405914, -0.24548593, -0.81559050, -0.57750899, 0.32929915, -0.37410191, -1.39602220, -0.19764443, -0.07127430, 0.06356111, -0.16660534, 0.02697061, -1.39215565, -0.06837248, -0.94364858, -1.57563913, -0.01205443, 0.00711500, 0.16436960, -0.55836439, -0.44614619, 0.35064757, -0.14267610, 0.06112299, -0.02429975, -0.20897800, -0.88072962, -0.51483744, 0.29526606, -0.36238471, 0.09968171, 0.35482103, 0.38239464, -0.15199666, -0.64688498, 0.96329248, 1.62180662, 0.20022804, 0.14647739, -0.29706648, 0.22081900, 0.01005526, 0.06495021, 0.11210971, -0.10384837, 0.35999763, -0.21051970, -0.11447462, -0.27155054, 0.14310645, -0.40838560, -0.24149944, -0.14706667, -0.58300155, -0.32181963, -0.33785409, 0.12490984, -0.21371172, -0.11292606, 0.08054753, 0.04122062, -0.16828585, -0.23369420, -0.80531496, -0.26888758, -0.41458538, -0.51528704, -0.72887969, 0.30501994, 1.43961668, -0.90778971, -0.26652995, -0.18093297, 0.30211863, -0.26185989, -0.42684808, -0.97166210, 1.33550274, -0.60283673, -0.43884337, 0.00105523, -0.15690768, 0.10864239, 0.57771158, 0.04421856, 0.18980016, 0.43248218, 0.09778702, -0.56742227, -0.59471667, -0.64023113, -0.12864803, -0.11483514, -0.44497797, -0.06942248, 0.03538294, 0.17403138, -0.28662920, -0.76797479, 0.19640313, 1.05730116, -0.17746027, -0.15851706, 0.34042618, 0.16959676, 0.09311279, 0.31719235, 0.01389474, 0.61930406, 0.23436552, -0.25678498, 0.12483671, -0.11643643, 0.33286509, -0.47260651, -0.30368426, 0.14154060, -0.46484509, -0.55240709, -0.05805098, 0.09614035, -1.00630462, -0.29133338, -0.14503802, 0.01644897, -0.11640084, -0.10185272, 0.45741218, -0.33223364, -0.38589752, -0.48502132, -0.78479975, 0.09768549, 1.24654818, -0.61841196, -0.13349527, -0.07281893, 0.07258800, -0.72391999, -0.23346700, -0.42157590, 0.52391624, 0.10500233, -0.43941054, -0.16700409, -0.48141623, -0.28338313, -0.01602517, -0.05593529, 0.10636323, -0.00997126, 0.14578904, -0.36749172, 0.44068661, -0.33328223, -0.32699895, -0.40989903, -0.66605604, -0.31074575, 0.19869976, 0.20995551, -0.22126202, -0.45968887, 0.65089118, 0.95716828, -0.23657857, -0.15764323, -0.19315025, 0.22710845, -0.10074051, -2.57152343, -1.78093898, -0.68954206, -0.85052466, 0.00010884, -2.18671131, 0.24748716, 0.26858827, 0.27154201, 0.07450315, 0.02775888, -0.09068939, 0.00429527, -0.00240529, -0.05916544, -0.77426380, 0.03847896, 0.04877140, -1.04001546, 0.20272598, -2.49118447, -0.23331994, 0.21483800, 0.21675561, 0.11022042, -1.41430163, 0.13717571, 0.55098855, -0.17800875, -0.30668902, -0.43532494, -1.92185187, -0.34792894, -0.48663527, 0.05531252, -1.11278975, -1.90090084, -0.97619826, 0.07884119, -0.10177023, 0.34126645, 0.40428826, 0.15153368, 0.12077650, -0.13665649, -2.03647661, -0.30190465, -2.45318699, -0.03140284, 0.04206217, 0.10134859, -0.08436093, -1.40401769, 0.08468029, 0.08761885, -0.40537894, -0.01153200, -0.45950603, -0.08896343, 0.05176415, -0.05217936, 0.40721944, 0.09977927, 0.15875319, -0.57657486, 0.17455788, 0.41101640, -0.49727556, -0.39954871, 0.80819017, 0.18873091, -0.39663947, -0.35532942, 0.00307550, 0.54495966, 0.14616595, -0.30523577, -0.33677757, -0.33393437, -0.99864185, -0.08729260, 0.15225641, 0.14052457, -0.14056584, 0.69855845, -0.66089177, -0.39608365, -0.05066537, -0.31120631, 0.25488141, -0.41298190, 0.66289628, 0.14714231, 0.34162250, -0.47629178, 0.01446622, 0.14358541, -0.53337234, 0.45893943, -0.67293561, 1.88679695, 0.06636445, -0.29111952, -0.72204649, -0.67904347, 0.28851742, 0.68400609, -0.15929951, -0.82981271, 0.18328048, 0.26306006, 0.77842700, -0.10297503, -0.11527222, -0.64003235, 0.05792260, -0.00169407, -0.39806244, 0.40885627, -0.43626824, 0.33630884, -0.47461009, -1.14841032, -0.32617426, -0.30978462, -0.25938103, 0.41187713, -0.25493026, 0.01176386, -0.01794890, -0.67067778, 0.16672045, -0.16859469, -0.41199547, -0.73381704, 0.48784479, -0.73225278, -0.82073098, -0.09640335, -0.44411010, -0.14368966, 0.13640875, 0.24373035, -0.97358042, -0.38741139, -0.13920158, 0.08812232, -0.10940277, -0.45061293, -0.14100300, 0.04584242, -0.48232314, -0.55605352, -1.39253891, 0.40184763, 1.10966027, -1.00683928, -0.28785065, 0.02500186, 0.19070946, -0.20983279, -0.36255160, -0.66367787, 1.10827160, -1.08344626, -2.34192824, 0.04051251, 0.09001680, 0.40475807, 0.13372421, -0.23281574, 0.24638468, 0.57301754, 0.07713881, -0.55464160, -0.74622810, -0.15339574, -0.18331307, 0.04531277, -0.32721195, 0.03558665, 0.34604695, 0.29114306, -0.37110996, -0.51097322, 0.24997003, 0.36736807, 0.11929225, 0.14765757, 0.01214930, 0.13904710, 0.09464133, 0.14728391, 0.14111854, -0.64519554, 0.25552499, 0.03141708, -0.31428140, -0.56881672, 0.26200587, -0.16625871, -0.51084071, -0.26593232, 0.21974966, 0.35743684, 0.20110752, 0.26996690, -0.76806337, -0.04423746, 0.00116050, 0.19595620, -0.06356919, -0.15239185, 0.04874290, 0.28479403, -0.22066064, -0.25476885, -1.16936541, 0.26452151, -2.18543315, -0.82097530, 0.26934764, 0.02572830, 0.15167789, 0.00375085, -0.10021304, -0.36780182, -1.16282892, -1.49957430, -1.95236492, 0.29824236, 0.37174273, 0.45080054, -0.93837440, -0.37388438, 0.11105595, -0.32134831, 0.09506149, -0.15720591, -0.23680259, -0.40434691, 0.01433783, 0.41302782, 0.13009799, 0.15108337, 0.35278255, 0.05934989, -0.10889930, -0.02394455, -0.02600148, -1.90089285, 0.17793436, 0.27086231, -0.18644889, -0.02047036, 0.20714627, -0.78974050, 0.16346699, -0.44164944, -0.10356203, 0.04841359, 0.23718919, 0.29969043, -0.31147477, 0.23411511, 0.33126059, 0.21351270, 0.39824626, 0.11671323, 0.03604099, -0.08541325, -0.15913524, 0.16495889, 0.14492947, 0.26990518, 0.16016118, -0.29759735, -0.79637808, -0.06336863, 0.13342780, 0.23865084, -1.30842626, -0.34329760, 0.98466671, 0.00767635, 0.03642463, -0.57739866, 0.06639557, -0.06248369, -0.38733950, 0.58597547, 0.07272231, 0.64205122, 0.14348616, -0.08820142, -0.17675297, 0.06662841, 0.40083763, 0.27669939, -0.13205391, -0.02687204, 0.08722283, -0.20637393, -0.42663440, 0.70698392, 0.19762075, -0.21153602, 0.06693979, -0.01816020, -0.14365061, -0.04727959, -0.35951763, 0.36838272, -0.84123695, -1.01026416, -0.01490715, -0.09972025, 0.36452737, -0.03229580, 0.12420891
};

static const float net_2_bias[64] = {
  -0.01410070, -0.00478036, 0.23128895, -0.06480537, 0.04659098, -0.01629895, 0.06118806, 0.06391228, -0.12293757, -0.06129664, 0.05678671, -0.07400737, -0.01914363, -0.01187254, 0.04118294, 0.08803687, 0.13861468, 0.12188134, 0.13295279, 0.03253442, 0.05062975, -0.04221620, 0.25261363, -0.04348461, -0.01580404, -0.05759424, 0.13387674, 0.16549633, -0.07474243, 0.11769401, -0.17956637, 0.06859030, 0.02572137, -0.03837379, 0.01133227, 0.24656284, 0.13252419, -0.03827538, 0.10467339, 0.07904983, 0.21633707, 0.13521291, -0.04132345, 0.17134772, 0.05136900, 0.04348942, 0.05510120, 0.07537612, 0.17254303, 0.09890696, 0.25544429, -0.17071030, 0.13670978, -0.12154736, -0.08310764, 0.07592200, 0.04051745, -0.02652033, 0.15164217, 0.07917022, 0.20073041, -0.03038002, 0.17647423, 0.12965369
};

static const float net_4_weight[4096] = {
  0.00085238, -0.03367875, 0.12411900, 0.05410706, 0.04323892, 1.36561382, -0.02145797, -0.50781220, -0.05968224, -0.16672987, -0.27097374, -0.51764858, 0.00546536, 0.00756406, 0.07347901, 0.07440931, 0.32928252, -0.36905870, 0.53043735, -0.34516504, -0.28959733, 0.22927949, 0.00057347, -0.02591850, 0.05342170, -0.10773779, 0.00935012, 0.17510074, -0.04673913, 0.06452903, -0.10371435, -1.01874077, -0.71277761, 0.02409889, 0.09159797, 0.36145625, 0.19637015, -0.15445903, 0.30176029, -0.02817982, 0.05138108, -0.28731793, -0.07005697, -0.08668464, 0.13011226, -0.86036325, -0.08043532, 0.51792163, 0.36092377, 0.02956387, 0.19608204, -0.75294983, 0.49314722, -0.16422720, -0.01658385, 0.07263096, 0.06160016, -0.68269128, -0.07646198, -0.22434892, -0.00535364, 0.02733725, 0.39400688, 0.00270811, 0.07430813, 0.06832322, -0.02560326, 0.09594940, -0.12040962, 0.05465653, 0.27267104, -1.05600202, 0.07005040, -1.48656166, -0.04143101, -0.58268988, -0.11639229, 0.35833752, -0.04750691, -1.09335697, 0.31332284, -0.49971688, 0.87027222, 0.11717519, 0.14073811, -0.63418889, 0.20813544, 0.07283498, 0.06874914, -0.00761607, -0.17778553, 0.31314844, -0.06142671, -0.24551810, -1.12277651, -0.67570919, -1.29098439, 0.02862519, 0.09093177, 0.45790389, 0.49303398, 0.09736669, 0.30672786, -2.51125145, -2.01382923, -0.48613796, -1.41776001, -0.49500251, 0.24274144, -0.08948135, 0.13886550, 0.65524399, 0.65492308, -0.00718669, 0.60334998, -0.28212786, 0.90423340, -0.04933408, -0.07606187, 0.18892442, -0.12569283, -0.79944003, -0.65721935, -0.32690933, -1.86293173, -0.74671894, 0.10050907, -0.29765484, 0.06823774, -0.14127871, 0.38500097, 0.06313936, 0.09272432, 0.94988030, 0.20634133, -0.97766668, 0.02977069, -0.49525619, -0.66661006, -0.79195899, 0.08709025, 0.31621623, -0.00853629, 0.00782460, 0.51567358, -0.81119454, 0.79225528, -0.15194303, -0.09357123, -0.13703363, -0.01813565, -0.08902894, -0.02827153, 0.03780128, -1.05354559, 0.42654288, -0.26000929, -0.09111752, -1.32789934, -1.56250787, -1.28626680, -0.05806801, -0.01510103, 0.44388911, 0.40808028, 0.02863807, 0.42198098, -1.52740526, -0.77693152, -0.70562541, -0.99577409, -1.53887379, -0.60002708, -0.76006812, 0.01621598, 0.62607366, 0.48593614, -0.07210196, 0.33914196, -1.05927336, 0.66746068, -0.04925811, 0.01691771, -0.03386522, 0.03865119, -1.33145940, -0.48346239, -0.41427886, -1.26275039, -0.42575887, 0.20276152, -0.45670271, -0.01387073, 0.08964729, 0.04103581, -0.12152745, -0.10901463, 0.01340171, 0.08546922, 0.04270003, -0.01979654, -0.09684362, 0.08741117, -0.15064058, 0.03814370, -0.13664021, 0.06441623, -0.15121360, -0.08382335, -0.07688528, -0.06267044, -0.03665360, -0.03084466, 0.00471930, -0.04379281, 0.12283500, 0.12308177, 0.03817250, -0.10117197, -0.04167179, -0.09851525, -0.11960168, 0.06413326, 0.05886806, 0.02058799, 0.06497638, -0.00561331, -0.12058584, -0.02666604, -0.00514331, 0.08074950, -0.03944720, -0.15223427, -0.15399958, -0.07299640, 0.04302039, 0.01222484, -0.10491845, 0.11757927, 0.03722296, 0.05875454, -0.01261114, 0.01170388, 0.02823530, -0.02829890, 0.04244398, 0.00976191, -0.08296926, -0.01313655, 0.01101753, -0.03021304, -0.10364380, -0.11680411, -0.12922572, -0.17627351, 0.03658051, -0.08902550, 0.08016486, -0.39943761, -0.00506024, -0.01344035, -0.50868630, -1.75670445, -0.19746247, 0.09281003, -0.00001337, 0.14146198, 0.43683615, 0.01591331, -0.70378220, -0.10245179, 0.04373527, 0.54772896, 0.54897147, 0.30600333, -1.74138153, 0.05538675, 0.39367628, 0.07641710, 0.06828125, 0.01844016, -0.10682170, -0.12796384, 0.10099667, 0.67249882, 1.04477477, -1.49917376, -0.04973871, -1.56231654, -0.11290445, -0.08308178, 0.24142300, 0.59489179, -0.11998084, -0.64277065, -0.54557282, 0.27281639, 0.42336822, 0.24142979, -1.62950635, 0.23355214, -0.82240254, -0.03368674, 0.24674621, 0.27728936, 0.01037109, 0.53018695, 0.22450387, -0.38638952, 0.03619451, -0.11114434, -0.76173651, -1.54404485, -0.29306230, -1.31772387, 0.82693595, -0.84594655, -0.15626936, 0.20230499, 0.20256330, 0.05610631, 0.00515572, 0.02641575, -0.09093123, 0.12596014, -0.79667884, -0.04847828, -0.65652925, 0.10899645, -0.69800305, 0.69432992, -0.27335325, 0.02673626, -0.02132444, -0.05507135, -2.43116212, -0.09954894, 0.04466071, -0.00599622, -1.26371431, -0.33247030, -0.33190292, 0.00593916, 0.04066906, -0.07120283, -0.07550572, 0.02649521, 0.07055267, 0.56408060, 0.51509452, 0.04968242, 0.05664751, -1.30524337, -0.09658875, 0.03507183, 0.61770874, 0.02668701, -0.13890208, -0.29251310, -2.11999273, -1.39045215, -0.07331682, 0.48756871, 0.18163447, 0.82145369, -0.04208389, -0.01541601, 0.42933983, 0.57065815, 0.06121660, 0.01872840, -0.73532021, 0.07483179, -0.09098704, -0.07496821, -0.57440895, -1.40623522, -0.15959056, -0.42769542, 0.71674621, -0.31683743, -1.06388700, -0.97656959, -0.11169993, -0.06135961, -0.01851850, 0.40805724, -0.05086872, 0.01013489, 0.42322651, 0.40220547, -0.78808749, -0.10413526, -1.89623654, -0.54643267, -0.99416786, -0.10629843, 0.56711632, 0.04054444, -0.94509929, 0.43274656, -0.99123383, 0.87223262, 0.03110946, 0.06231448, -0.47088346, 0.06278083, 0.09066170, -0.00256664, -0.10472170, -0.92408711, 0.39499372, -0.34214631, -0.47014645, -1.06090748, -1.36526453, -1.76524496, 0.08677518, -0.08547834, 0.55777073, 0.53045851, -0.10576379, 0.32163572, -2.48175287, -1.84480417, -0.94397587, -1.30206525, -1.17111254, -0.04996074, -0.29491112, 0.04237004, 0.71953529, 0.67206669, 0.03319679, 0.46894494, -0.67082673, 1.04202580, -0.09909727, 0.07871569, 0.18122362, 0.13023883, -1.58988333, -0.42185837, -0.72761643, -2.01250958, -0.42787847, 0.29563221, -0.79063094, -0.01200903, -0.01582646, -0.33044273, -0.00212676, -0.08824012, -0.43593955, -1.38344896, -0.04387178, -0.10367920, 0.12336154, 0.08419415, 0.31561226, -0.04781530, -0.63997233, 0.03791657, -0.01904350, 0.37216854, 0.29103050, 0.32913303, -1.64667678, 0.20623232, 0.49681041, -0.08912506, -0.06902906, 0.07648434, -0.01260545, -0.02443475, 0.25102603, 0.52731425, 0.96608156, -1.47843897, -0.20003250, -1.32179964, -0.02450102, -0.02894753, 0.29768828, 0.37548181, 0.02439084, -0.40947196, -0.45581010, 0.39716840, 0.43634880, 0.12386601, -1.27703202, 0.12155418, -1.03288972, -0.04824903, 0.22036698, 0.10443238, -0.01183417, 0.41625500, 0.12378813, -0.40194729, 0.03730820, 0.02073873, -0.79327422, -1.20477259, -0.24190225, -1.19052923, 0.86377519, -0.61037362, -0.03117638, 0.15240276, 0.28252572, -0.00215690, 0.03940807, 0.34558073, 0.06233419, 0.04854591, -1.02987421, 0.21366701, -0.97043312, -0.06852583, -0.85078180, 0.50081867, -0.40333286, -0.05394488, 0.17687167, 0.04497899, -1.75366247, 0.01132580, 0.00861208, -0.02695130, -1.79054022, -0.29174009, -0.69890058, 0.42383832, -0.05044079, 0.06076572, 0.04751082, 0.21769452, 0.17427886, 0.76642239, 0.59385568, -0.19581150, -0.16910420, -2.39952278, 0.03846721, -0.10106376, 0.51616967, -0.11937996, -0.04526827, -0.29604885, -1.37563646, -2.35366583, 0.10514884, 0.46616486, 0.84550983, 0.46339685, 0.08948708, 0.02961290, 0.51278245, 0.61870712, 0.06019416, -0.12034731, -0.68243748, -0.05386645, -0.00182958, -0.10706884, -0.54757529, -2.05833411, -0.64218986, -0.35917833, 0.94058496, 0.07335375, -1.20106876, -1.07076645, 0.36077920, 0.00718315, 0.01153269, -0.04889468, 0.07405647, 0.05348127, -0.04469219, 0.01278230, 0.07001787, 0.02742086, -0.10714225, -0.08815996, 0.11097911, -0.10705305, -0.11919406, 0.08082737, -0.09385154, 0.08350357, 0.05244575, -0.11964302, -0.04297192, -0.06749415, -0.10430192, -0.11719729, 0.07746817, -0.07980987, 0.01648045, 0.04138851, -0.08408923, -0.12067904, 0.12536630, 0.00012320, -0.09352074, 0.00318306, -0.00562256, 0.05238749, 0.00150444, 0.06906969, 0.05892227, 0.04556182, -0.02108719, 0.05566765, -0.14802019, -0.12178717, -0.03302843, 0.02369610, 0.05616175, -0.10228413, 0.00707646, 0.00373368, 0.12036559, -0.06402887, 0.10702249, -0.06905888, 0.03723863, -0.10471409, 0.07425824, 0.05383223, -0.00881278, -0.15991995, -0.13736612, -0.08489170, -0.12901594, -0.05674224, 0.00877416, -0.10346320, 0.01537403, 0.44366401, 0.09370451, -0.07793347, 0.97738081, -0.06196607, -0.73595548, 0.08818696, -0.27658537, -0.76620948, -0.97008818, -0.07164316, 0.26748383, -0.06457494, -0.02242270, 0.56365907, -0.90122211, 0.77603853, 0.05039654, -0.11693985, -0.23120940, -0.00388145, -0.08985820, 0.06783207, -0.07663976, -0.54429197, 0.42669877, -0.21196339, -0.10502919, -1.45971453, -1.23686719, -1.31660020, 0.05793178, 0.02242720, 0.39248291, 0.42717132, -0.18552837, 0.68193340, -1.50835526, -1.02889800, -0.76884788, -1.15569687, -1.28916109, -0.47330666, -0.84320647, -0.03705075, 0.37766999, 0.37724409, -0.12012123, 0.29675099, -1.09362960, 0.54855204, 0.04362362, -0.10270353, 0.16802409, 0.23015992, -1.14113307, -0.44908354, -0.51013738, -1.11788750, -0.38907075, 0.49683243, -0.49132931, 0.11857453, -0.07179329, -0.76466888, -0.08644523, 0.08594349, 0.53400505, -0.03150568, 0.75193185, -0.05855531, 0.06501264, 0.00450383, 0.81134963, -0.11126841, -0.10115658, 0.03380349, -1.15601158, -1.17547059, 0.59767222, -1.34331000, 0.34397686, 0.56965047, 0.81025779, 0.09274084, -0.11521718, -0.00252209, -0.06792802, -0.03876816, 0.22414748, 0.40671623, 0.79480731, -0.00160810, 0.55724913, 0.48941347, -0.07944059, -0.11546740, 0.29601410, -2.22173285, 0.00273908, 0.45334655, -0.63306397, -1.54044616, 0.37401724, -0.13894147, -2.66871357, -0.42781377, 0.11947544, -0.09533604, 0.26822668, 0.26590759, -0.09474194, 0.12474804, 0.46771514, 0.64962029, -0.07605849, 0.09664179, 0.60059166, 0.46997571, 0.30350748, 0.20648578, 0.53151035, -2.88419414, 0.50323218, 0.62710518, -0.75415975, -0.07891371, -0.00161477, -0.29439303, -0.00359300, -0.10994442, 0.77650976, -0.95161277, -0.13306068, 0.00350660, 0.23315331, 0.26956242, 0.35386425, -0.08426418, -0.37872112, 0.05821458, 0.23736477, 0.30426553, 0.19373858, 0.37480032, -1.22344196, 0.04179521, 0.38883615, 0.09858457, -0.02105731, -0.05181868, -0.01129970, -0.37652668, 0.14485458, 0.64097428, 1.06031382, -1.74202263, -0.26215616, -0.76144993, -0.02293656, 0.08526321, 0.24261817, 0.50472176, -0.12581700, -0.17785066, -0.00268542, 0.65118974, 0.46006444, 0.10755795, -1.72053552, 0.01528011, -0.96962970, 0.12631097, 0.34113315, 0.16859633, -0.00927768, 0.27271524, -0.24855809, -0.26345351, 0.00305040, 0.06349350, -0.56890363, -0.70183539, -0.36090809, -0.64846164, 0.99654961, -0.79759353, 0.03035552, 0.05581806, 0.07806110, -0.02119505, -0.03304602, -1.25485659, 0.01539134, 0.05604276, -0.84803587, -1.54444599, -0.28390500, 0.06878221, -0.13061966, 0.31975806, 0.52071786, 0.13016596, -0.59389329, -0.11484511, -0.19601327, 0.51550305, 0.68149352, 0.10809349, -1.67312098, 0.29514170, 0.48506474, 0.02998771, -0.05400192, 0.00134319, 0.04529556, -0.02972969, 0.11109865, 0.75621730, 1.05300164, -1.59879673, -0.05151077, -1.57922983, 0.02118345, 0.02774598, 0.18320030, 0.39770204, 0.06931225, -1.09957397, -0.74989027, 0.29391593, 0.35331845, 0.45798928, -1.71767890, 0.38103610, -0.65519249, 0.02374617, 0.52259123, 0.46590307, 0.05640642, 0.53268462, 0.34013614, -0.49938300, 0.05282782, 0.01072438, -0.84982055, -1.80627918, -0.36207265, -1.31673944, 0.91940916, -1.53776681, 0.03711295, 0.01956239, 0.40916172, -0.11491233, 0.07900897, -0.49577978, -0.11843219, 0.00683299, 0.21170880, -1.17913449, -0.38345110, 0.10703765, 0.21258776, 0.10208973, 0.36236513, -0.01306880, -0.44230941, -0.08963384, 0.19309644, 0.45953459, 0.34873194, 0.34756660, -1.43569016, 0.14150609, 0.47227049, 0.01579335, 0.10018840, -0.02015187, -0.10496532, -0.25871229, 0.17607337, 0.57814723, 0.93389601, -1.75039697, -0.18835281, -1.21556544, 0.08428379, -0.03131075, 0.22882187, 0.54283029, 0.02240333, -0.48705247, -0.07143225, 0.57813460, 0.37166962, 0.13094957, -1.84419739, 0.12490097, -0.97133809, 0.08156893, 0.20521520, 0.28886023, 0.07134160, 0.35753283, -0.04912933, -0.17204994, 0.05767628, 0.10502829, -0.94694400, -1.04400754, -0.52983522, -1.13785911, 0.89391345, -0.63835073, -0.07632241, 0.16991720, 0.20088139, 0.02454746, 0.17030589, -0.64969295, -0.01779564, -0.05524705, -0.39290419, -0.10689246, 0.42376381, 0.17990796, 0.22308353, 0.17140679, 0.69879425, 0.07324912, -0.04054540, -0.10281581, -0.98052555, -0.38318917, 0.76106602, -0.85265070, -0.02287105, 0.32430288, 0.63942963, -0.08074624, -0.06255230, -0.16216668, 0.07573181, 0.17047867, -0.33468691, -0.08683365, -0.07496025, 0.05489508, 0.31484020, 0.18134077, 0.04197112, 0.06518386, -0.31306434, -0.48411366, 0.09394459, -0.24337219, -0.12263343, -0.72647148, 0.25647917, 0.07414335, -1.30204690, -0.12182143, 0.15956458, -0.24717399, -0.27157807, -0.07771902, -0.04747213, 0.14752965, 0.38313830, 0.11126083, -0.03944632, 0.06192008, 0.03970967, 0.08854487, 0.34442496, 0.00276258, 0.26861215, -0.34437048, 0.25102890, -0.05444928, -0.25521457, 0.12769674, 0.10001340, -0.17998450, -0.08654460, 0.00946864, -0.20510033, -0.10189036, 0.30140588, 0.00881150, -0.01653745, 0.33790603, 0.38584122, 0.11566680, 0.03615583, -0.03371841, -0.12902623, 0.12005189, 0.59863138, -0.09994394, -0.02163422, 0.41202682, 0.53113729, 0.14195770, 0.00559354, -0.00651580, -0.05141469, 0.04767841, 0.08836824, 0.41500929, 0.68303722, -0.10305852, 0.19487824, -0.02035704, -0.04406193, -0.04262500, 0.13519910, -0.02172368, -0.00852991, -0.14649716, -0.17184995, 0.27207816, 0.35309267, 0.16781166, 0.00756702, 0.37476882, 0.06740075, -0.02278579, -0.10275154, 0.07455900, -0.09375151, 0.24304622, 0.36293602, -0.58747715, 0.12910485, -0.01238795, -0.03844282, -0.03735567, 0.05945847, 0.03013293, 0.53901529, -0.18946685, 0.07617208, 0.18010947, 0.29922062, -0.10095874, 0.08627238, -0.12568606, -0.10026782, 0.01657837, -0.01614204, -0.24270110, 0.08169820, 0.01885756, -0.03916193, 0.11751591, 0.38747633, -0.05733967, -0.03752313, -0.08182905, 0.02708029, -0.38585737, 0.39648518, -0.74298733, -0.04028986, 0.23248194, 0.42395166, 0.11546665, 0.00534843, -0.09520914, -0.08058884, -0.00371959, -0.38019723, -0.18876421, -0.20061511, -0.00715290, 0.31654873, 0.23054183, -0.02142091, -0.08928572, -0.18494444, -0.30581596, -0.02812142, -0.35604915, 0.06137526, 0.04781077, 0.32869413, 0.26149958, 0.25654790, 0.42436650, -0.04832876, 0.10206112, -0.20397450, -0.21437734, 0.01215569, -0.12554203, 0.20185520, -1.12064040, 0.06617630, -0.05867008, 0.12968051, -0.08198435, -0.07196624, -0.10842955, -0.09095345, 0.32060584, 0.07518700, 0.24780627, 0.02778533, -0.06157441, -0.05839593, -0.40009046, -0.06147300, -0.03643619, 0.53378040, -0.01391755, 0.36553383, 0.10018326, 0.11132129, -0.24926540, 0.65723187, 0.09850013, 0.07790126, 0.10857444, -0.44872272, -0.53199017, 0.45142606, -1.79720247, 0.10646784, 0.38490704, 0.51283646, 0.15398258, -0.01552865, 0.02394080, 0.05300667, -0.17246233, 0.29469949, -0.05166918, 0.34350583, -0.14932111, 0.21970811, 0.25782180, -0.01234013, -0.11714150, 0.15096301, -1.06576502, -0.16845159, 0.38700405, -0.65827340, -1.84922194, 0.34292111, 0.07280239, -2.32728481, -0.64924979, 0.02862747, -0.08021104, 0.47562927, 0.33730942, 0.06429169, 0.11543858, 0.46618044, -0.31333217, -0.08886088, 0.04439507, 0.45688564, 0.40488794, 0.25589359, 0.01899659, 0.07203586, -1.97436464, 0.38366970, 0.53552914, -0.75267047, 0.06821875, -0.12739931, 0.13677013, 0.06184664, 0.09064647, -2.14202952, 0.65983105, -1.28810346, 0.05941299, -1.21417129, 0.03151799, -0.35369030, -0.11043447, 0.35469958, -0.05733241, 0.06333003, 0.54091173, -0.35514718, 0.86871320, -0.04901407, 0.13552704, -0.19591616, -0.31587580, 0.02334873, 0.11816988, 0.06328992, -0.72827137, 0.06787155, 0.09145772, 0.08189930, -2.26409793, -1.76253474, -1.62167788, 0.05305484, -0.08206682, -0.05029875, 0.62587494, -0.03299210, 0.10435343, -0.62745458, -0.16082551, -0.24272637, -0.35819960, -1.13234437, -0.02237049, -0.37677824, 0.12586184, -0.07360157, -0.12028035, -0.06893569, 0.55094063, -0.65659535, 0.87749624, 0.07240643, 0.08775473, -0.50092274, 0.13308327, -1.54781246, -1.29155970, 0.02254914, -1.38453233, -1.22134924, 0.19730909, -0.06445540, 0.07678187, -0.19678481, 0.30254117, 0.06147395, 0.00739024, 0.67067361, 0.32304507, -1.12141252, 0.02647468, -0.69970417, -0.60516810, -0.91731501, 0.05786514, 0.40319008, -0.11257845, -0.24662925, 0.40592694, -0.92339051, 0.79914635, 0.08979629, -0.09585398, -0.49967656, 0.06500384, 0.09594455, 0.08212929, -0.00442078, -0.71676433, 0.42582792, -0.24587314, -0.37551728, -1.23290157, -1.50771928, -1.26083636, 0.09091190, -0.03565322, 0.39397255, 0.61356598, -0.00306865, 0.57949853, -2.05297637, -1.17370296, -0.81545585, -1.30973744, -1.31740308, -0.43123353, -0.72149169, 0.03485551, 0.73796844, 0.43628329, -0.08787557, 0.36954761, -1.08237088, 0.84582716, -0.01439431, -0.02871880, 0.11191247, 0.23139206, -1.51444912, -0.55564916, -0.48641843, -1.68581080, -0.61470336, 0.45094335, -0.60598987, 0.10950097, 0.00728789, 0.16361070, -0.12652579, -0.03703369, 0.82486993, 0.07878654, -0.10336679, -0.04228915, -0.15916443, -0.05252549, -0.53795969, 0.04894280, 0.08540332, 0.09045461, 0.20649226, 0.38682702, -0.30334654, 0.22275700, -0.13162675, -0.34285039, -0.01243311, 0.10636029, -0.05266993, -0.11052419, -0.04433698, -0.28184548, 0.18058281, -0.08384120, 0.21254034, -0.53859472, -0.69604242, -0.65950084, 0.05931509, -0.11116135, 0.15947230, 0.34726858, -0.10232905, 0.33302799, -0.01207509, -0.14535910, -0.42191532, 0.06965518, -0.43080476, -0.29859746, -0.36555481, 0.01355627, 0.47632116, 0.27885202, 0.00897597, -0.05774087, -0.73265654, 0.37968189, -0.03514801, -0.03917040, 0.07009269, 0.27776459, -0.23632129, 0.07753890, -0.03444712, -0.32350606, -0.04881189, 0.42630535, 0.29897708, 0.11849837, -0.06369950, -0.03091739, 0.06892808, 0.00929153, -0.05758372, -0.01687025, 0.02145443, -0.08737548, 0.09093256, -0.10447125, -0.11084333, 0.08371468, -0.07832512, -0.07261756, -0.19731118, -0.10017799, 0.04658490, -0.06009577, -0.04323539, -0.22278553, 0.03403828, 0.05346830, -0.02977243, 0.03826384, -0.04753232, -0.03694291, -0.06553871, 0.05150221, -0.02447411, -0.11950776, -0.15359946, 0.05306301, 0.03358388, -0.09844577, -0.08656669, 0.04600154, 0.10109192, 0.09664425, -0.22226840, -0.10183452, 0.07821132, -0.04567678, 0.06774805, 0.06956836, -0.07792677, -0.09809144, 0.13005476, -0.06190237, 0.10355830, 0.00466000, 0.03240457, 0.07495612, -0.08088194, 0.05391112, -0.03853134, -0.10801435, -0.13596143, -0.06339236, 0.03232981, -0.02799045, -0.05502240, -0.06187767, -0.03222689, 0.10421330, -0.05610451, -1.02523971, -0.07190173, -0.08671458, 0.61484230, -0.18700814, 0.70851600, -0.04082461, 0.13697827, 0.04814692, 1.03739178, 0.07127190, -0.00977407, 0.03546883, -1.50849628, 0.23676282, 0.84075254, 0.10360754, 0.42479604, 0.68524629, 1.02865994, 0.15509224, 0.10536431, 0.05335855, -0.11577865, -0.05257933, 0.23443186, -1.58103418, -1.58086467, -0.10399212, 0.56553286, 0.54416925, 0.12006578, -0.12088771, 0.00219908, 0.23575220, 0.22855678, 0.37158960, -0.70764995, -1.22293234, 0.45549673, 0.16531458, -3.90755391, -2.03967094, -0.16281861, 0.11902461, -1.14476120, -0.73089695, 0.08876102, 0.40216935, 0.65191370, 0.28228721, 0.14531091, -0.08288676, 0.53982908, 0.46938673, 0.33703488, -0.04065788, -1.07887256, -3.13414192, 0.48734337, 0.61883175, -0.20462118, 0.06023704, 0.02040872, -0.01859892, 0.03987451, 0.07940076, 1.26315629, -0.13474326, -0.29688615, 0.03121299, 0.53964037, -0.08073406, -0.28563964, -0.03581511, -0.17188554, -0.12230353, 0.43473026, 0.36120084, -0.11643574, 0.43901920, -0.74756205, -0.30856180, 0.43149874, 0.10575891, 0.03573525, 0.13334462, -0.01656115, -0.61967909, 0.26208553, 0.23888172, 0.54276121, -2.31737518, -0.76355749, -0.58444959, -0.05837640, 0.10032272, 0.29005203, 0.33777434, -0.05549913, 0.15840152, -0.22433679, 0.38591111, 0.20023696, -0.06603964, -1.53249943, -0.59837115, -1.30381775, -0.09340894, 0.18369882, 0.23198029, 0.03214482, 0.09766881, -0.76207215, 0.24342170, -0.07755145, -0.07583968, -0.11242711, 0.03710285, -0.63913107, -0.09446228, 0.38531667, -0.84978420, -0.00418082, 0.28604659, 0.01064833, 0.08351566, -0.06140535, -0.44643196, 0.01104889, 0.08119651, 0.03108541, -0.10852480, 0.11185971, 0.01172987, 0.03890479, 0.29017475, 0.44883290, -0.06392122, -0.04728631, -0.07210252, -0.14987971, 0.06760608, 0.29918405, -0.13942315, -0.15082239, 0.32988408, 0.36537427, 0.00001538, -0.04633345, -0.00857412, 0.03875013, 0.02345183, 0.16391507, 0.58623970, 0.89045125, -0.08321495, 0.30167332, 0.13457528, -0.03417514, -0.00652114, 0.19049028, 0.15748669, -0.11939928, -0.12668568, 0.02366835, 0.18211004, 0.20551699, 0.20704225, -0.86376697, 0.08718754, -0.05353064, 0.07236397, 0.02918123, 0.11983447, -0.10443104, 0.38739669, 0.21966061, -0.53888720, 0.07797410, -0.07494052, 0.11788376, -0.06038564, 0.09054669, -0.09311527, 0.75513875, -1.17270505, 0.06664829, 0.10998853, 0.29960108, 0.10503698, 0.10005785, -1.06076121, -0.03713250, 0.04407344, -0.87884176, -1.46275258, 0.01567432, 0.11212657, -0.33793736, 0.21667224, 0.42299810, 0.03530408, -0.50453997, -0.02372541, -0.33107728, 0.46296868, 0.51427627, 0.15287957, -1.63462782, 0.12132054, 0.45480087, 0.07200009, 0.07524385, 0.00247055, -0.02346542, -0.00749075, 0.17723304, 0.69781041, 0.78537452, -1.67092681, -0.11669555, -1.15896320, -0.10486886, -0.05949903, 0.23404160, 0.38956764, 0.12629397, -1.10096657, -0.92633468, 0.02732763, 0.26323178, 0.37354770, -1.09647465, 0.45447358, -0.53984606, 0.06716838, 0.27646479, 0.27963266, 0.09995605, 0.50284356, 0.33094075, -0.75967515, 0.12337385, -0.04062215, -0.61350137, -1.74471331, -0.05084230, -0.83738101, 0.81315851, -1.45993757, 0.02982726, 0.22573663, 0.23016509, 0.08736807, 0.00734365, 0.06300164, 0.03973033, -0.00627473, 0.80784118, 0.21587302, -0.12575394, 0.07637616, -0.30738664, -0.15661244, 0.09567145, -0.10846711, 0.40814322, -0.10268722, -1.36643970, -0.20362876, -0.12764071, -0.17233819, -0.41940516, -0.18341173, 0.04411745, 0.01801272, 0.03181738, -0.13454147, 0.03394027, -0.38552332, 0.14960387, 0.20892349, 0.48023915, -0.31928441, -0.16814846, -0.22536989, 0.03380818, -0.02851857, 0.28417084, -0.23235548, 0.04788051, 0.29658169, -2.14279366, -3.03263521, -0.18891621, -0.46714395, -1.78681409, -0.47567680, 0.04115637, 0.06700400, 0.57823414, 0.41209853, -0.02084882, 0.15068410, -0.45851159, 0.17951283, 0.00693135, 0.03207015, 0.34051469, -0.07883800, -0.23204027, -0.32339638, 0.29184729, -2.57353902, 0.13087419, 0.38247254, -0.43590692, 0.08519268, -0.11678229, 0.29560024, -0.04652622, 0.00324420, 0.50267279, 0.46680248, -1.18274438, 0.04387942, -1.56402349, -0.06650172, -0.92482775, 0.07761458, 0.49496886, -0.00948139, -2.36520243, -0.11888774, -0.50955933, 0.01705954, -1.65739214, -0.67224103, -0.57192963, 0.43446159, -0.11043337, 0.04933543, -0.12577450, -0.29998136, 0.43763202, 0.08616521, -0.22178340, -0.42332456, -0.80708104, -2.01023841, 0.06079496, -0.02237172, 0.55247587, -0.09425583, -0.06830799, 0.42443931, -1.97234106, -3.69811940, -0.68520427, -1.66626048, -0.43566033, 0.16748814, -0.52677143, 0.08439846, 0.78759336, 0.61798507, -0.11802560, -0.11758684, -0.62243605, -0.11471012, -0.07637957, -0.06228760, 0.07559361, -1.56562340, -0.96601021, -0.55463171, -0.13177881, -0.34242406, -0.56357044, -0.29296544, -0.00935924, -0.08202647, 0.05151517, -0.15979159, 0.06635761, 0.04955541, -0.06183399, -0.05087994, -0.00333243, 0.01299246, -0.02837547, -0.14391322, -0.07941849, 0.11407620, -0.09370208, 0.09465057, 0.00455849, 0.09858213, -0.06086419, -0.03139814, -0.00199148, -0.00347978, -0.07539372, 0.00775124, -0.12179697, -0.11182325, 0.07394399, -0.12535250, -0.14142291, -0.11545954, 0.03154936, -0.13404529, -0.04136227, -0.09367426, -0.01404293, 0.06011453, 0.03449788, -0.04327725, 0.09227341, 0.08908114, -0.03753714, -0.11205967, -0.17429250, -0.02142343, -0.02282135, 0.05152745, 0.09236965, -0.08396167, 0.02885145, -0.00745951, -0.03992444, -0.04333470, -0.06936827, -0.10978999, -0.07629667, -0.08768123, -0.09223708, -0.11689702, 0.05135835, -0.02612509, -0.01254545, -0.02602915, 0.08572391, -0.10224012, 0.03143147, 0.05792619, -0.07276793, -0.01671099, 0.03629141, 0.06219954, 0.30764160, 0.13452239, -1.28634501, 0.06256928, -0.88642645, 0.04309814, -0.59974509, 0.05186422, 0.14453615, -0.02648547, -0.11698803, 0.49056351, -0.02773711, -0.06589352, -0.86605573, -0.86095494, -0.31909087, 0.24544296, 0.10945516, -0.00859034, 0.03395138, -0.14367928, 0.06518764, 0.03368163, -0.16066362, -0.08980457, -0.82733089, -1.17656696, -0.01301904, 0.09058146, 0.42835972, 0.47169453, -0.15916690, -0.00080398, -0.20241144, -0.17074595, -0.63228536, -0.09064875, -0.17269644, -0.00594605, 0.28096488, -0.03448810, 0.61144429, 0.46890816, 0.09060466, 0.39832103, -0.95126355, -1.34510541, 0.04861138, -0.06073163, 0.12840880, -1.12874281, 0.10600996, 0.04149271, -0.24918994, -0.20795532, -0.15372352, -0.52429706, 0.30890772, 0.00597285, 0.03532335, 0.10818154, 0.06413471, 0.06085313, -0.23440987, 0.11401873, -0.60204816, 0.05793329, -0.23067126, 0.58489078, -1.03846467, 0.07280065, 0.10218225, 0.06670506, 0.02050239, 0.41352764, 0.02925955, 0.33717060, -1.57848680, -1.06767416, -0.86241716, 0.23372422, 0.07059512, 0.05618457, 0.02843952, 0.09860156, 0.53874898, 0.54687625, 0.11085001, -0.01848695, -0.28344703, -2.11537457, -0.05262163, -0.06621256, 0.51420379, 0.21100101, 0.02064001, 0.16335681, -0.07355146, 0.13703297, -0.02389645, -0.15142763, -0.07133845, 0.60422564, -0.71793139, -0.09068848, 0.62633020, 0.48633814, 0.05617870, 0.19480461, -1.18730330, -1.07281363, -0.05868743, 0.05645500, -0.02731451, -1.61921692, -0.34588408, -0.24744324, 0.30911624, 0.00543705, -0.68864411, -0.49317417, 0.31847334, 0.02377303, -0.09583480, -0.08586434, -0.11023226, 0.03554934, 0.01067209, 0.01517086, -0.17883822, 0.04740672, -0.12587211, 0.01919765, 0.09409125, 0.17829911, -0.13291901, -0.01084432, -0.08740167, 0.07278509, 0.01501687, 0.04886701, -0.04441237, -0.12468207, -0.07901964, 0.01400617, -0.07580642, -0.04703749, -0.11270664, 0.03991929, -0.11032081, -0.16356212, 0.11076760, 0.13632035, 0.08588039, -0.05642001, -0.05134462, 0.02380368, -0.05245369, 0.10895874, -0.14997515, 0.00947993, -0.00535615, -0.14785625, 0.04517484, -0.04445980, -0.02337504, 0.04636256, -0.18666998, -0.10513942, 0.10655349, -0.19682793, -0.11387663, -0.02244944, -0.25401375, -0.03084839, 0.07973316, -0.03583871, -0.17677251, -0.03598872, -0.05459489, -0.17062499, -0.00620460, -0.04466946, 0.12959360, -0.00461898, -0.09725570, 0.04850155, 0.13198519, 0.11846924, -0.06076137, -0.01298554, -4.86126280, -0.31831688, 0.22939342, -0.02315053, -1.31400645, 0.22357655, 0.32909307, -0.05061371, 0.29720703, -0.01288825, -1.73771560, 0.35438055, -0.00809948, 0.85612494, 0.44390228, 0.42159176, 0.42419514, -0.35766858, 0.07562014, 0.09090340, 0.09452500, -0.22742689, 0.19009443, 0.29177174, -0.00395366, -1.05848825, -0.00733217, -0.22379254, 0.11069652, -0.09485608, 0.32843655, -0.01798891, 0.10349698, 0.43194231, -2.26532269, -1.61518335, 0.05242812, -0.36235085, -2.87817979, 0.06782679, -0.49555534, -0.19265053, 0.02168267, 0.03308732, 0.02590507, 0.60185981, 0.32418075, 0.93968540, -0.02550230, 0.07020752, 0.40936205, 0.45168623, -0.05586735, -0.78822184, 0.39130792, -3.30941749, 0.04738846, 0.37838182, -0.39582413, -0.06788801, 0.14837109, -1.07516205, 0.02615919, 0.01995515, -1.04418480, -1.29397607, -0.27995458, -0.04793044, -0.46935225, 0.22655699, 0.66290075, -0.07054581, -0.42616484, 0.00252107, -0.49218544, 0.42201957, 0.62577033, 0.13006525, -1.48402214, 0.19910461, 0.41228452, -0.02030372, -0.04208722, -0.09828911, -0.06824361, -0.02626108, -0.02188288, 0.68801874, 0.89063853, -1.37181628, -0.01545694, -1.41396105, -0.08479746, -0.00441726, 0.26500303, 0.43705630, 0.12581234, -1.20065188, -1.03635907, 0.13136774, 0.28056729, 0.26385546, -1.29098272, 0.47913837, -0.62085450, -0.08758834, 0.40715784, 0.43818471, 0.09022474, 0.57710576, 0.45240614, -0.68133456, -0.07890888, -0.10710251, -0.73523158, -1.74485564, -0.17927171, -1.29733694, 1.00022554, -1.47648299, -0.15655722, 0.09044538, 0.19048704, -0.11114889, -0.10461663, 0.20263654, -0.11486150, 0.10031435, 1.10867047, 0.07671824, -0.52754319, -0.07230885, -0.12854370, -0.03646045, -0.64979637, -0.03295900, 0.01866201, 0.03619847, 0.12910689, 0.34844697, -0.33740139, 0.58944380, -0.03665160, -0.19568989, -0.03874480, 0.14427856, 0.07210916, -0.02665087, 0.06029171, -0.12513781, 0.17074925, -0.20184912, -0.08525009, -0.09546474, -1.30112469, -0.84054774, -0.01823419, 0.04476251, 0.45186728, 0.46021122, -0.08756582, 0.13786180, -0.04887196, 0.22918124, -0.57718605, -0.04161683, -0.10333887, 0.03882523, -0.82014567, 0.02648601, 0.44319466, 0.46370387, -0.01078953, 0.10788474, -0.88105571, 0.68787253, -0.09314255, 0.04707595, 0.20539093, 0.24381430, -0.58534181, -0.28964338, -0.44115344, -0.07640775, -0.27271831, 0.29165897, 0.31161132, -0.05759794, -0.10273661, 0.13903354, -0.05345395, 0.06337768, -0.30488992, -0.95091188, -0.96203059, 0.00252026, -0.28930905, 0.12694587, 0.00922353, -0.06318173, -0.10115038, -0.10468577, 0.04538346, 0.50277424, 0.12861705, 0.44954154, -0.93947923, 0.21536587, 0.13525622, 0.10066720, 0.03591873, 0.06901821, 0.06781787, -0.33010828, 0.17646745, 0.12441337, -0.22361679, -4.36919737, -1.39046788, -2.32600307, 0.08129533, 0.01241764, 0.09609532, 0.43246886, 0.00910133, 0.15416066, -0.13142258, 0.10681465, -0.56086594, 0.44558007, -0.32452533, 0.11308122, -1.27974558, -0.01814906, 0.22094272, 0.04975491, 0.09105222, 0.49950683, -0.47025204, 0.32758194, 0.06999320, 0.11718382, -1.37985098, -0.51683933, -0.44911617, -0.65541440, -0.05977572, -0.04651980, -0.75884390, 0.39736229, 0.35537234, -0.00372845, 0.03009292, -0.60529101, -0.09356777, 0.02345386, 0.16651306, -0.14508326, 0.37834659, -0.03528094, 0.15307525, 0.35491717, 0.17876714, -0.19867370, -0.16235091, 0.07210737, -1.68191421, -0.70055628, 0.41218537, -0.26050925, 0.35164461, 0.29471612, 0.32607511, -0.08944177, 0.11267267, 0.03582004, 0.03415928, 0.13830473, 0.23116456, 0.72415316, 1.19630909, 0.02106928, 0.23566623, 0.43763939, -0.07345620, 0.06222655, 0.07761103, -1.96552432, 0.09711503, 0.23197253, -0.20091651, 0.20275535, 0.48211539, 0.01171619, -1.57352293, -0.16460431, -0.13876390, -0.16256289, 0.04528950, 0.16873589, -0.10199040, -0.04224550, 0.15060875, 0.76058781, -0.01683756, -0.00867645, 0.37903911, 0.39809027, 0.26562938, 0.06405875, 0.73894870, -1.96162820, 0.31561512, 0.57835001, -0.17673139, 0.04656411, -0.01371257, -0.58117157, -0.03240924, 0.00351566, -1.51511562, 0.02586408, 0.01269912, -0.00151498, -1.22379184, 0.28797829, 0.45298746, -0.04988628, 0.23511499, 0.06384312, -1.48881197, 0.35849088, 0.38833070, 0.25440553, -0.72767121, 0.50701290, 0.05348013, 0.04698928, -0.02528002, 0.01332154, -0.08382302, 0.22062355, -0.03739923, 0.43241346, 0.12040601, -0.71072054, 0.40774992, -1.21631861, 0.02354310, 0.03066397, 0.26205415, 0.32290664, 0.00807667, -0.59057099, -2.21263051, -0.97567582, 0.27915522, 0.50257397, -0.13972780, 0.59657514, 0.94859606, 0.07277524, 0.44141325, 0.37533054, 0.09506179, 0.51561654, 0.71972442, 0.05650585, 0.10991189, -0.09408205, 0.07233900, -1.93282115, 0.33787182, -0.29439795, 0.52690595, -1.61583698, -0.23130567, -0.16190255, 0.24786498, 0.05901675, 0.02331485, 0.03513141, -0.01095701, 0.06284937, 0.64586127, 0.04583960, 0.07602697, 0.00359865, -0.09081689, -0.21042134, -0.33705989, -0.13753940, -0.01541354, -0.06523573, 0.07298019, 0.17215860, -0.16720963, 0.19917674, 0.17035618, -0.01658902, -0.11142936, 0.06668806, -0.04236297, 0.03367390, -0.01083549, -0.11782943, 0.12449186, -0.30334854, -0.26993039, -0.07222380, -0.06482279, -0.00880127, 0.06784303, -0.12381506, 0.17828582, 0.05319381, -0.08148190, 0.06675398, 0.07213034, 0.15316983, -0.12088855, -0.05417050, -0.20486204, -0.01727402, -0.13712196, -0.04112634, 0.27154201, 0.21755618, 0.09440456, -0.11132205, -0.17847426, 0.61415935, -0.11155214, -0.05794030, 0.21887502, 0.19147693, -0.03615166, -0.18888591, -0.28733978, 0.03339077, 0.01400317, 0.19379207, 0.01729980, 0.03534228, -0.13519114, 0.47939625, -0.06876253, -0.06432258, 0.28819504, 0.51681679, -1.08757651, -0.07232352, -1.75015962, 0.15576106, -0.77838582, 0.04448736, 0.55542451, 0.03458224, -2.93004608, -0.00585068, -0.28509638, 0.04873352, -1.91059792, -0.81423271, -0.78663731, 0.37535736, -0.00796677, -0.11631785, -0.05304411, -0.05088309, 0.39109805, 0.00069237, -0.37031654, -0.52092081, -0.93153769, -2.92310071, 0.09190939, 0.05669156, 0.55231297, -0.04313406, -0.04170971, 0.43446261, -3.62846828, -3.42066741, -0.60919988, -1.20646000, 0.26782361, 0.52088344, -0.66773272, -0.14454335, 0.88068473, 0.76443678, -0.04699346, -0.05748587, -0.85002553, -0.05782881, -0.10161409, 0.11423723, 0.00530216, -2.21610141, -0.92336047, -0.29673293, -0.09187070, -0.00379901, -0.82838035, -0.49882671, 0.39045876, -0.02422715, 0.09278791, -0.06477941, 0.10681026, -0.09980579, -0.71005589, -0.08697100, 0.00530090, 0.09171908, 0.04374257, 0.32777992, 0.66108376, 0.01497544, -0.00181850, -0.00970219, -0.11231218, 0.35153782, 0.33097422, 0.24661238, -1.46877062, 0.24433777, 0.37724492, 0.22995552, 0.05197181, 0.02039035, 0.07256198, 0.09134723, 0.11342376, 0.68881291, 0.91688019, -0.23298113, 0.04405065, -1.21310043, -0.03339807, -0.11687715, 0.29529956, 0.34979701, 0.09678814, -0.19679371, 0.01447069, 0.09427320, 0.36555842, 0.19992922, -0.24679007, 0.25232807, -0.30110902, 0.04797969, 0.25858676, 0.43987885, 0.13116112, 0.50527173, 0.22168703, -0.46571451, -0.07088050, 0.00896104, -0.83302492, -1.51029480, -0.12283761, -0.25793993, 1.01514089, -0.32714120, -0.28892398, 0.09367091, 0.11401156, 0.00782545, 0.03783894, 0.06323741, 0.11116318, 0.05787434, -0.36016116, 0.32262564, -0.77114016, 0.00579918, -1.71494591, -0.04073650, -0.39107692, 0.03773699, 0.30630130, 0.02879873, -1.32381701, 0.29717270, -0.38278463, 0.74268299, 0.24778083, 0.40457311, -0.39993355, 0.19757307, 0.00594157, -0.09107345, -0.10584585, -0.20763245, 0.34454796, -0.07153419, -0.50612622, -0.99094355, -0.54769289, -1.50276005, 0.06072233, 0.01614401, 0.39560384, 0.31833640, 0.08374542, 0.38629657, -3.05496359, -2.14544559, -0.60876703, -0.98585975, -0.15208632, 0.28679183, 0.13583465, -0.03835972, 0.76578456, 0.60800636, 0.07804575, 0.58330452, 0.04406477, 1.13948607, -0.11985535, -0.00590287, 0.23177803, -0.08547612, -0.61766279, -0.61724401, -0.39343077, -2.05848026, -0.70157391, 0.16838382, -0.30487224, -0.07761900, 0.00770475, 0.12731972, -0.03300476, -0.04893122, -0.67677772, -0.01160297, -0.58551627, 0.10243711, -0.91856968, 0.37156361, -0.11069667, 0.01739489, 0.03367602, -0.07258785, -2.21291876, -0.09555136, 0.13656101, -0.05617712, -1.66688025, -0.26060200, -0.19916221, 0.10372361, 0.08470744, -0.12545878, 0.00365573, 0.04338157, 0.18937786, 0.79096651, 0.84464562, 0.46441022, -0.25621983, -1.77714658, 0.04224431, 0.09548937, 0.41248262, -0.06690121, -0.11620229, -0.39132962, -1.70393217, -1.63236105, 0.13095617, 0.49660835, -0.12368380, 0.46436679, 0.15242864, -0.11541363, 0.49328077, 0.59479874, 0.01093459, -0.18845487, -0.48929694, 0.08394179, -0.05522135, 0.09579721, -0.40472621, -1.59326804, -0.46105540, -0.57738435, 0.88015431, -0.12342837, -0.70061988, -0.72496116, 0.14578962, -0.09393503, -0.04070234, 0.19610652, 0.03613863, 0.01846564, 0.80507487, 0.25285417, -0.85701698, 0.04022853, -1.27175307, -0.58304435, -1.05848920, -0.02815158, 0.43469539, -0.10045528, -0.59150273, 0.47005385, -0.97731274, 0.85288316, 0.03160018, 0.04181652, -0.33233994, 0.17948739, 0.03496275, -0.10472026, -0.08305439, -0.93557221, 0.42561236, -0.32971269, -0.47315180, -1.27033579, -1.56303906, -1.69450605, 0.08043121, 0.08544387, 0.53347504, 0.53756762, 0.01742157, 0.33444741, -2.18023872, -1.37200940, -1.01979983, -1.56713700, -1.08439636, -0.25472909, -0.68200052, 0.12409965, 0.54330927, 0.49254751, 0.06412215, 0.45270467, -0.97168416, 0.95068157, -0.05576715, 0.09796070, 0.15560126, -0.03879200, -1.25694764, -0.56570965, -0.79372698, -1.47038221, -0.46502271, 0.20229791, -0.67206740, 0.06626146, -0.02900522, -0.05962066, -0.04529476, 0.12177627, 0.01811093, -0.07009130, -0.00335601, -0.10532492, -0.10891398, 0.07104459, -0.12851791, -0.04604737, 0.06502819, 0.10794020, -0.07685882, -0.11770890, 0.04865757, 0.00378372, 0.04384388, 0.03624886, -0.09508936, -0.05148860, -0.04328765, -0.08275890, 0.05078161, -0.14156057, -0.00646983, 0.01749092, -0.05017924, -0.00995954, 0.02353262, 0.01368244, -0.07492822, 0.03049475, 0.05675180, 0.02517715, 0.05156467, 0.04769462, -0.10492890, 0.08908505, -0.12201566, 0.03444076, -0.09239289, -0.13213246, 0.03338724, 0.10390915, 0.03020833, -0.05912985, 0.00499630, -0.06642438, -0.04408667, -0.01306275, 0.07095416, 0.05430214, -0.13441476, -0.08820324, -0.05472642, -0.12391696, 0.04902967, 0.02440299, 0.01249960, 0.08463127, -0.10166042, -0.06367344, 0.07141696, -0.11946245, 0.01684685, -0.09358446, 0.00808500, 0.01240950, 0.01975028, 0.10585310, -0.04922238, -0.07984713, -0.09018985, -0.08147200, 0.02996969, -0.02240445, -0.01859156, -0.10333634, -0.06235565, -0.08520875, -0.07728589, -0.05470980, -0.13902350, -0.04202779, 0.02075151, 0.05765033, -0.01444560, 0.13026227, -0.03436512, 0.07391709, 0.09775525, -0.12360695, -0.06594744, -0.06068442, -0.04561814, 0.04152822, -0.13961203, 0.05425020, -0.03237709, -0.01510822, -0.12811758, 0.07746994, 0.10740569, -0.13743009, 0.08264423, 0.03184198, -0.01560381, 0.06788828, -0.12344678, 0.07835951, -0.00396530, 0.07595184, 0.02887877, -0.04902697, -0.12065616, 0.00481838, -0.13810009, -0.09851114, 0.04269910, 0.07850385, 0.06529484, -0.18235821, -0.00173620, 0.01631137, -0.05938695, 0.08363692, -0.12192150, -0.13074827, 0.07480071, -0.01342580, 0.02790873, -0.14519408, 0.00033935, -0.06396672, -0.08452220, 0.05316372, -0.16078924, -0.09212458, -0.07552883, -0.06468573, -0.09610756, 0.05771646, 0.02248935, 0.05931656, 0.01064058, 0.07965945, -0.00071157, -0.09563198, -0.04674117, -0.03001688, -0.05540130, 0.02411639, 0.06456131, -0.06933370, 0.05138773, -0.03051320, -0.05051867, -0.07126591, -0.05842161, 0.10915953, -0.14202479, -0.07010628, 0.10555778, -0.15005416, 0.00982613, -0.03292170, -0.07732096, -0.02100910, -0.22810656, -0.04759843, 0.09673283, 0.02266741, 0.03779508, -0.10890722, 0.06247963, 0.05541102, 0.09488417, -0.10312162, 0.10618832, -0.01970224, -0.09434194, -0.07228995, -0.06274410, 0.01918883, 0.01860923, 0.00953556, -0.03393100, -0.14828448, 0.06049135, 0.09331397, 0.10259920, 0.03699745, -0.04944066, 0.03715194, -0.01667241, -0.16054606, -0.47975209, 0.01062608, -0.03767210, 1.08378196, -0.83439618, 0.11026772, -0.12437426, 0.01655453, 0.04996190, 0.38095590, -0.40148446, 0.25068656, -0.66314524, -1.07245350, -0.64627397, -0.17093745, -0.04137990, -0.08224830, 0.07467477, -0.19563907, -0.22955151, -0.51521772, -0.02756991, -0.03904118, -0.66892302, -0.12050594, -0.02030706, 0.03276899, 0.89293665, 0.47828245, -0.01928446, -0.29165617, 0.18306750, 0.29245791, -0.61628145, 0.13949542, -0.01891316, -0.82467967, -0.01749285, 0.00218361, -0.69192576, -0.30126294, -0.02969857, 0.26166543, -0.78062028, -0.76939392, -0.06993487, -0.06600775, -0.48861915, -1.04206645, -0.43865040, -0.07484228, -0.43136123, -0.04805274, -0.78915030, -0.16676152, -0.13928352, 0.05667036, -0.09876135, 0.10630231, 0.06323225, -0.06397060, -0.51801175, 0.00637798, -0.16849279, -0.01580456, -0.14741044, 0.36623430, 0.42674741, -0.06648602, -0.04895221, -0.07025088, 0.04956656, 0.20355773, 0.45244023, 0.08539587, -0.62886477, 0.16928539, 0.30883092, 0.12354632, -0.07988435, 0.05726911, 0.01906816, 0.02534790, 0.24523281, 0.60165387, 1.02573693, 0.04048602, 0.17401920, -0.64282745, -0.00506546, -0.00771275, 0.29771918, 0.21903676, 0.05441857, -0.08765435, -0.05815734, 0.14948319, 0.56375819, 0.00150161, -0.09085318, 0.27070954, -0.27716190, 0.10384380, -0.03635918, 0.19927722, -0.11396317, 0.22638501, 0.05774368, -0.25057229, -0.08949051, 0.02406691, -0.82406324, -0.83541203, 0.03494892, -0.17759597, 0.78896177, -0.06099785, 0.19792280, -0.13992241, 0.08886892, -0.01720015, -0.00764868, -0.28195229, -0.04123578, -0.02340789, -0.05981274, 0.10516610, 0.29234734, -0.03727688, 0.47279978, 0.41992810, -0.35886165, 0.04750975, -0.43657848, -0.04602683, -0.34304741, 0.05421415, 0.24640547, 0.04428713, -1.74952936, -0.04940827, -0.23122844, 0.14990929, 0.09713442, 0.09945390, -0.01498994, -0.03313190, -0.12208436, -0.26623940, -0.75330275, -0.51602274, -0.15608245, -0.21852922, -0.11219468, -0.02496877, -0.08020557, 0.03443204, -0.06490199, -0.30384645, -0.74972594, 0.12737128, 0.16439921, 0.14720125, 0.17020690, 0.70333564, 0.38714182, -0.12367978, -0.21967384, 0.04757735, 0.09588677, 0.04196611, -0.86074454, -0.28886691, -0.04219197, -0.12010279, 0.15021236, -0.88998318, 0.01372573, -0.09744774, -0.32859164, 0.47070673, -0.34684315, 0.05515411, 0.65065110, 0.02969669, 0.14353706, -1.18028212, 0.07657542, 0.02003486, -1.58505130, -1.07922876, -0.07690516, 0.08333996, -0.03227399, 0.51092720, 0.74175614, 0.04492913, -0.41249925, -0.06925513, -0.82941002, 0.30486140, 0.54495400, 0.06421950, -0.89306819, 0.34165972, 0.54035139, 0.21897738, -0.10753913, 0.10311870, -0.04734577, 0.29285511, 0.13876702, 0.71081483, 0.49524751, -1.58306313, 0.26672897, -1.24042523, 0.08459556, -0.08623388, 0.32381761, 0.37437275, 0.23593391, -1.00608206, -1.84524548, -0.17204413, 0.40861741, 0.32836545, -0.84306931, 0.44291267, -0.27808341, -0.01242403, 0.28246695, 0.29748112, -0.11095734, 0.78048664, 0.41213271, -0.50006294, 0.00555243, -0.04156813, -0.48438105, -1.52927768, 0.33364299, -1.59681547, 0.75623971, -1.98557234, -0.16839150, -0.09973735, 0.21323028, -0.06380219, 0.16868983, -0.17516269, 0.06617296, -0.09366914, -0.13607658, 0.23811877, 0.06705657, 0.06694072, -0.05725329, -0.14238235, -0.04353092, -0.00956152, -0.06704644, 0.00291987, -1.39242136, 0.34864324, 0.11987349, 0.60402441, 0.03256962, 0.13705654, 0.17118388, -0.12947136, -0.00246347, -0.07065067, 0.05213977, 0.00581202, 0.07627420, -0.14178893, 0.01266802, -0.18642838, 0.04125788, -0.08496591, -0.06822805, 0.06842403, 0.22235593, 0.33636719, 0.02488668, 0.02668471, -1.88074303, -1.24297190, 0.02793353, -0.16300897, -2.77567792, -0.46993551, -0.13503326, 0.03522393, -0.45076683, 0.02422144, -0.08233877, 0.50849319, 0.19472064, 0.71420228, -0.03947458, 0.06012037, -0.11267477, 0.13471515, -0.01729890, -0.06251031, 0.14419197, -2.56597328, 0.00792099, 0.26565397, -0.12126382, -0.02565045, 0.10659934, 0.64528579, 0.07188263, -0.10457224, 0.56408954, 0.74695158, -1.08988714, 0.04846230, -0.75519443, -0.05556371, -0.67263353, -0.02366954, 0.57112950, 0.02349661, -2.64423513, 0.09564365, -0.22441827, -0.20677385, -1.38678408, -1.08344328, -0.78521234, 0.47929984, -0.06112612, 0.07674652, -0.04400017, -0.33792424, 0.33035162, 0.11905200, -0.23070565, 0.24308302, -0.88611770, -2.25145435, 0.05602268, 0.11361428, 0.46160638, -0.03151316, -0.13840333, 0.64147276, -2.32218385, -2.23223853, -0.52060455, -0.16848451, -0.04249327, 0.32352605, 1.15438533, -0.06786763, 0.55666864, 0.46620354, 0.08087571, 0.12906905, -0.98815066, -0.42482662, -0.13810162, 0.07540672, 0.32384366, -1.52597737, -0.76653147, 0.27518699, -0.22892043, 0.10661334, -0.41142642, -0.57402438, 0.13782088, 0.00595031, 0.02958722, -0.49781024, 0.03538963, 0.09039394, -0.27587673, -1.11068392, -0.41742387, -0.08175010, -0.18423907, 0.27743399, 0.46026942, 0.08690488, -0.50579000, -0.02807873, 0.05360125, 0.37333876, 0.46527866, 0.30153823, -1.05479383, 0.17775336, 0.36939445, -0.05996312, 0.02082928, -0.05791993, -0.09200014, -0.25315860, 0.10513992, 0.66397417, 1.05880678, -1.38745165, -0.19290447, -1.17262709, 0.09326192, -0.02421774, 0.22406261, 0.41562670, 0.07711534, -0.49869594, -0.40519452, 0.46670610, 0.27102974, 0.27136123, -1.47972870, 0.28438762, -0.83659136, 0.03002576, 0.33896446, 0.26312354, 0.06068130, 0.37876225, 0.04080202, -0.02412841, 0.03618769, -0.10850122, -0.79938972, -1.29254377, -0.44322601, -1.41200745, 0.95322275, -0.88075149, -0.29827729, 0.13573527, 0.31224006, -0.13501836, -0.05672982, 0.32372108, -0.06504771, -0.10584697, -1.50056624, 0.38427675, -1.30419469, 0.11783926, -0.84411740, -0.17749660, -0.33299986, -0.06037423, 