// Auto-generated field NN weights
// Architecture: [128], activation=silu
// Parameters: 899, FLOPs: 2048
// MAE: 8266.54 Gauss, p99: 47741.6 Gauss

#pragma once

static const float net_0_weight[384] = {
  0.00008588, -0.00042284, 0.00022076, 0.24805550, 0.17675468, -0.01545865, -0.00357867, -0.00050059, -0.01297634, -0.00000204, -0.00029040, -0.00089942, -0.22343355, 0.23406348, 0.60758060, -0.07358829, -0.00075508, 0.02941971, -0.00068925, -0.00022862, 0.00047289, 0.18848453, -0.08613977, -0.33794129, 0.02468627, 0.10411955, -0.12774798, 0.08445191, -0.00096890, 0.19579437, 0.51110548, -0.13658644, -0.28988609, -0.34259915, 0.03853455, 0.68568426, -0.02543541, 0.15369497, 0.34436056, -0.00060436, -0.00028367, 0.00058910, 0.02432213, 0.00281746, 0.08490836, 0.41910329, -0.22899006, -0.30887991, 0.00013970, 0.00013530, 0.00064516, 0.62197673, -0.07184569, 0.42880356, 0.48746926, 0.37428227, -0.22864400, -0.06370296, 0.00401831, -0.07932680, 0.00698333, 0.09160639, 0.35351059, -0.00009050, 0.00002302, -0.00041898, -0.00905096, 0.08456448, 0.25109088, -0.00035463, -0.00010752, -0.00126533, 0.10482626, 0.03077063, 0.61012363, 0.38898695, -0.17650907, -0.10154679, -0.41279143, 0.18761361, -0.06438363, -0.00551886, 0.00068612, -0.00029921, -0.00020282, -0.00001686, -0.00084031, -0.44595236, 0.21342225, 0.60709488, 0.26293513, -0.08245574, 0.19617690, -0.00810197, 0.01901437, -0.19403513, -0.46397388, 0.34171674, -0.10937847, 0.00254800, -0.00048221, 0.00409327, 0.00165749, 0.00019431, 0.00597467, 0.03446076, -0.16152821, -0.07922998, -0.08080931, -0.05141741, 0.25379249, -0.05538057, 0.20328623, 0.38106737, -0.00028282, -0.00013710, -0.00195607, 0.11942384, -0.25661331, -0.24410230, 0.00018123, 0.00018450, 0.00102440, 0.23408188, 0.18624716, -0.29636332, -0.00044886, 0.00077672, 0.00096101, -0.00019009, 0.00081434, 0.00005079, 0.42569870, -0.03994711, 0.51429874, -0.00204641, 0.00036907, -0.00327325, 1.79249084, -0.44356033, -1.10353541, -0.37590301, -0.21213609, 0.23195146, 0.00007406, -0.00001916, -0.00031509, -0.47125012, 0.16701946, -0.29273909, 0.40111056, -0.20314892, 0.26937935, 0.58462965, 0.00424188, 0.14133331, 0.06637825, 0.52441019, 1.13323939, 0.54727179, -0.33701485, -0.08184716, -0.64975864, -0.37181446, -0.30996057, 0.26514781, -0.05541870, -0.15264854, -0.31092972, 0.33115780, 0.49657071, -0.09338734, -0.43300295, -0.22021389, 0.08907747, 0.00357574, 0.27344179, -0.16634561, 0.06933456, 0.15654546, -0.21040215, 0.06763358, -0.05050464, -0.29842058, -0.11021622, -0.12007055, -0.00004740, -0.00026721, 0.00020571, -0.13805449, 0.44218943, -0.96762770, -0.29577863, 0.13929544, 0.12215412, -0.00099547, 0.00054979, 0.00135110, 1.71262741, 0.35138357, -0.95441496, 0.04023131, 0.01691960, 0.25180218, -0.60886592, 0.08854500, -0.72918254, 0.18602133, 0.01198365, 0.15334798, -0.00844301, 0.01290810, 0.04716301, -0.05668891, 0.21922512, -0.04713107, 0.08981717, 0.00757191, 0.28665963, 0.23439080, -0.13598023, -0.33655792, 0.16744801, 0.08702117, -0.21021646, -0.01306454, 0.17037141, -0.25663126, -0.00035297, -0.00050085, -0.00090606, -0.58892620, 0.42799109, 0.58139378, -0.34946328, -0.34721488, -0.24988183, -0.44357091, -0.26096261, -0.33135924, -0.61979395, 0.27423105, 0.01820013, -0.00029335, 0.00015395, -0.00141087, 0.00024906, 0.00005452, 0.00085658, -0.00259910, 0.00054272, -0.00014790, -0.32963037, 0.07570483, -0.09380494, 0.67393208, -0.35417148, -0.31113857, -0.39212865, 0.37124705, 0.36132166, -0.00011337, -0.00014530, -0.00137931, -0.21614152, 0.04699417, 0.39773563, -0.37607011, 0.19110854, -0.12186065, -0.00031186, -0.00072371, -0.00090087, -0.21023956, -0.04346439, -0.01250840, 0.45496133, -0.36696294, 0.64340013, 0.21428204, 0.18849626, 0.29886883, 0.09164411, -0.05839144, -0.28038514, -0.06109760, -0.00647710, -0.31872413, 0.00022514, 0.00026628, 0.00067384, -1.05990207, 0.12025260, -0.90428829, -0.00007360, 0.00019317, -0.00073917, 0.09065087, 0.02209062, 0.33525372, -0.48060009, -0.32770142, 0.27416661, -0.27998194, 0.04995488, -0.52438015, 0.36640370, -0.11732014, -0.00575631, -0.18137941, 0.19817033, -0.28929290, -1.53036153, -0.40787554, -0.92055273, 0.00069916, -0.00037510, 0.00007426, -0.00032334, -0.00011719, -0.00113994, -0.00001866, -0.00038136, 0.00020623, -0.46184680, 0.04059312, 0.12944913, 0.04996596, -0.44472626, 0.26172623, 0.12211146, 0.06209473, 0.18017073, 0.28858832, -0.40949413, 0.65898293, 0.49560457, 0.28071329, -0.24712187, 0.06762050, 0.00754376, 0.24489513, 0.59676421, -0.33703187, -0.28533608, 0.28972739, -0.14831272, 0.13251498, -0.41260323, 0.27441013, 0.15314238, 0.00028188, 0.00007590, 0.00126493, 0.70062894, -0.38981858, 0.06651998, 0.00019030, 0.00022847, 0.00105730, 0.20896256, 0.17897485, -0.29930875, -0.25428411, 0.08843303, -0.53641224, 0.07206843, 0.06449624, 0.16226795, 0.24789622, -0.34101173, 0.29415268, 0.13638236, -0.00984537, 0.21375683, -0.00021131, -0.00067597, -0.00098646, 0.24168621, -0.24531026, -0.26290336, 1.77316451, -0.59496027, 0.49575529
};

static const float net_0_bias[128] = {
  0.00023818, -0.29640618, -0.00691418, -0.00015444, 0.24696787, 0.06565849, -0.00004442, -0.24120577, 0.32215783, 0.13748153, -0.26715592, 0.11614712, -0.08397021, -0.00048854, 0.04966518, -0.15900543, 0.00026002, -0.19555606, -0.21018940, -0.06921891, 0.31278273, -0.00006202, 0.04028466, -0.00059598, 0.41300735, 0.03193596, -0.20092191, -0.00064934, -0.00045221, 0.01167453, 0.12854195, 0.12393202, -0.19805881, 0.00241155, 0.00331524, -0.36586720, 0.24281801, 0.16708398, -0.00093681, -0.59305525, 0.00038610, 0.01521772, -0.00093855, -0.00069251, 0.26866081, -0.00194961, -0.39177683, 0.20556317, -0.00005877, -0.39461020, 0.07223730, -0.48390999, 0.28715560, -0.08753043, -0.60090971, -0.00016186, 0.21262991, 0.24771872, 0.17203003, -0.01518266, 0.03531734, -0.41962332, 0.00016547, -0.54831100, 0.03600171, -0.00028910, -0.32908815, 0.16931377, -0.42346713, 0.29863086, 0.04750609, 0.25459540, 0.20594637, -0.16864008, 0.23122767, 0.08414289, -0.00027082, -0.00266637, -0.50257534, -0.40538731, -0.42951828, -0.00063238, 0.00042366, -0.00033989, -0.16093272, -0.55044013, 0.09251844, -0.00062944, 0.29872957, -0.25758031, -0.00009849, -0.30016741, 0.30163831, 0.28938502, -0.25196677, -0.15495443, 0.00024159, -0.43729892, -0.00036482, 0.28320143, -0.09944977, -0.26728624, 0.09252083, 0.01378625, -0.43655753, 0.00020911, -0.00055022, 0.00021710, -0.17802639, -0.38985702, 0.23210521, 0.21267670, -0.47804335, 0.17446642, -0.15859641, 0.24818340, 0.22292303, 0.00051609, -0.53430820, 0.00039014, -0.06916045, -0.41804814, 0.05304169, -0.54277682, 0.24074972, -0.00011213, -0.26094171, 0.01579702
};

static const float net_2_weight[384] = {
  0.00005072, -0.04607989, -0.00011072, -0.00010212, 0.03673394, -0.02401028, 0.00014309, 0.02818112, -0.05540234, -0.00046706, 0.05557778, 0.02387786, 0.01746980, 0.00061320, 0.00014508, 0.03214295, 0.00000867, 0.08103472, -0.06362533, -0.00060184, 0.01207513, -0.00016790, -0.02094055, -0.00001285, -0.01535910, 0.04089560, 0.03390451, 0.00048983, 0.00000826, -0.06236348, 0.03042526, 0.01141516, 0.04827800, -0.00012231, 0.00002584, 0.02387832, -0.02779159, -0.00077500, -0.00003426, 0.00232643, 0.00001461, -0.07153773, 0.00069064, 0.00013156, -0.00114933, 0.00010631, -0.16435903, -0.07466242, -0.00012892, 0.03498154, 0.05475275, 0.05516852, -0.01376312, 0.10311504, -0.14679669, 0.00331332, -0.00098186, -0.05438063, -0.00021249, 0.00360039, -0.01348468, -0.03282047, -0.00032461, 0.01185786, 0.00620191, 0.00003732, 0.16514006, -0.00166380, -0.02585964, -0.02831849, 0.00368571, -0.05108683, -0.00028594, 0.03572115, 0.01836166, -0.02207168, -0.00002887, 0.04553213, -0.04698376, -0.08279423, 0.04168670, -0.00008602, 0.00001163, 0.00003359, 0.01513120, 0.11063056, 0.05363069, -0.00007741, -0.03900318, 0.02798426, -0.00007744, 0.00775189, 0.04928590, -0.03967294, 0.02060477, -0.00002430, 0.00001054, -0.13600892, -0.00006038, -0.01116182, -0.08752573, -0.01305202, 0.04189824, 0.01119511, 0.17501514, -0.00023516, -0.00000498, 0.00001878, 0.00153501, -0.01067514, -0.03264986, 0.04540052, -0.12656765, -0.00039436, 0.05788019, 0.04113289, -0.00083120, 0.00016618, 0.09081488, 0.00002291, -0.07388971, 0.03532382, -0.02938661, 0.05448476, -0.00793756, -0.00008377, 0.04523050, -0.14043029, 0.00080095, -0.00662320, 0.00006827, 0.00027712, -0.04424169, -0.00445563, 0.00042157, -0.02161837, 0.00356944, -0.00372550, -0.05418835, -0.16322654, -0.01708528, 0.00055565, -0.00017096, -0.00333137, -0.00017202, -0.08722744, 0.06531825, -0.00032692, 0.00489974, -0.00006003, 0.01368695, 0.00014207, -0.06633225, -0.00950406, -0.01342773, 0.00058983, -0.00001910, -0.05659840, -0.00031031, -0.03534672, -0.02391590, 0.00012882, -0.00001435, 0.06183958, 0.00295464, -0.04219308, 0.00000149, 0.03241729, -0.00016902, -0.05350088, -0.00110846, -0.00125089, -0.10562421, -0.00013734, 0.00013218, 0.03647086, -0.00003656, 0.00169005, -0.02199724, 0.00214750, 0.09832771, -0.03968358, 0.02903490, -0.04061567, 0.06087505, -0.06401163, -0.01434701, -0.01172303, 0.00984718, 0.01013337, 0.00021837, 0.07267769, 0.01959731, -0.00034520, 0.00999639, -0.00421347, -0.02073326, -0.02799020, 0.00507470, -0.06245465, -0.00202175, -0.03931015, 0.00681405, 0.00876333, 0.00083841, 0.08227594, -0.00277096, 0.01046385, -0.00944480, -0.00025846, -0.00006934, 0.00003927, -0.00439189, 0.00126671, -0.01837385, 0.00002588, -0.05639556, 0.01767843, 0.00111158, 0.04439888, 0.08062754, -0.03012215, 0.00570085, -0.00120953, -0.00036671, -0.08544126, -0.00045409, -0.00461779, 0.00695204, -0.03738328, -0.03618214, 0.03849394, 0.03105892, 0.00016974, 0.00017451, 0.00074885, -0.01735576, -0.04893865, -0.02626730, 0.09260534, -0.03527506, -0.00086994, 0.02549851, -0.01065338, 0.04339613, 0.00002766, -0.04378254, -0.00019832, -0.03493685, -0.00835449, -0.01251613, 0.01414782, -0.01244093, 0.00092478, 0.02773661, 0.04406506, -0.00068810, -0.00421761, 0.00013667, -0.00010676, 0.04281467, 0.00380395, -0.00009563, 0.00525268, 0.01564699, -0.00284073, -0.00965347, -0.04038430, -0.07499962, -0.00021274, -0.00037556, 0.01111111, 0.00012259, -0.05418091, -0.01516662, -0.00222528, -0.04948808, 0.00010955, -0.02945388, -0.00007861, -0.00154251, -0.01071588, 0.01636041, 0.00061862, 0.00005986, -0.03217522, -0.00631407, 0.02754442, 0.04046635, 0.00019280, -0.00005251, 0.01801124, 0.01550302, -0.00156522, 0.00004416, 0.00959505, 0.00015136, 0.04531813, 0.00172710, 0.00129585, -0.02475289, -0.00019040, 0.05437671, 0.02440731, 0.00002269, 0.03803949, 0.04747154, 0.03810668, 0.10471871, -0.00956662, -0.04376958, 0.01474832, -0.05100846, -0.06042212, -0.01033820, -0.00801745, 0.01005839, 0.02982721, 0.00033895, -0.09893406, 0.01701638, 0.00038607, -0.05184274, -0.00498863, 0.01335262, -0.01643111, -0.00903835, 0.03275425, -0.00203561, -0.00209485, 0.04507292, 0.04321218, -0.00034326, -0.02613598, -0.05731222, -0.07215974, 0.01349406, 0.00018907, 0.00002960, -0.00006581, 0.02015636, -0.02349756, -0.06150742, 0.00006871, 0.00257327, 0.00978223, -0.00050796, 0.02133189, -0.00283969, -0.03416482, -0.00329001, 0.00077038, 0.00015822, -0.05473462, 0.00034682, -0.00564827, 0.06377282, 0.02014381, 0.00216703, 0.03832831, 0.04669531, 0.00027783, -0.00008608, -0.00070333, 0.02801870, 0.08837401, -0.00962908, 0.01283116, 0.03182060, -0.00104179, -0.00879505, -0.01558951, -0.04528673, -0.00009487, -0.01944261, 0.00015093, 0.05180086, 0.01819026, -0.01617073, 0.05675052, -0.00045917, -0.00045172, -0.06462900, -0.00458581
};

static const float net_2_bias[3] = {
  0.07350676, 0.00985944, 0.00603703
};

static const float input_mean[3] = {0.00000000, 0.00000000, 6749.99951172};
static const float input_std[3]  = {2338.09155273, 2338.09155273, 4214.56005859};
static const float output_mean[3] = {0.00000001, 0.12292606, -0.00000000};
static const float output_std[3]  = {22.14661598, 71.60929108, 22.14662170};
