// Auto-generated field NN weights
// Architecture: [64], activation=relu
// Parameters: 451, FLOPs: 832
// MAE: 11035.98 Gauss, p99: 54085.4 Gauss

#pragma once

static const float net_0_weight[192] = {
  0.63002491, -0.27765647, -0.58944291, 1.40903652, -0.30234930, -0.63198924, 0.00160528, -0.45161116, -0.01870544, 2.25258780, -0.10936987, -0.28846288, -0.00246323, -0.06223209, 0.28441355, -1.39621937, -0.35184017, 0.18055832, -0.78751922, 0.30760604, -0.26244941, -0.69716161, 0.39461997, -0.50221562, -0.53315276, -0.40262485, 1.11115253, -0.41647017, -0.21252124, -0.43235186, 1.02990222, -0.40375367, 1.02347600, -0.12340496, 0.36306956, -0.87671524, -1.61190307, -0.09229199, 0.36646420, -0.56914258, -0.06493510, -1.25185096, 1.78960800, 0.09623355, 0.55045664, 1.49126899, -0.15703791, 0.20801029, -0.73254162, 0.28858992, -0.83510178, 0.11244954, 0.39061916, 0.03464906, 0.62064755, -0.11088461, 0.89441669, -1.42224836, -0.14539641, -0.09242492, -0.20644286, -0.37773746, -0.97673863, -1.18375659, 0.40528479, 0.00774554, -0.62440538, -0.35898212, 1.30803192, 0.00221061, 0.37588316, -0.00704754, 1.07762361, 0.22259070, 0.63346571, 0.74458224, 0.09459678, -0.45103455, -1.09288216, 0.33379504, 0.44594005, -0.80255753, -0.32821441, 0.74991167, 1.00126064, -0.28487191, 1.02696824, -0.92192543, 0.13947810, 0.60438693, -1.30357063, -0.31394842, 0.61401320, -1.66204119, 0.17389464, -0.06475831, -0.73353004, -0.37906665, 0.24975485, 2.13475776, 0.10763315, -0.19913505, 0.00157512, -0.07072148, 1.15557170, 1.26419759, 0.40883932, 0.82385916, -1.36745119, 0.09238409, 1.31020641, -1.15617061, -0.37024868, 0.51070547, 0.34791920, -0.35617489, 0.39652255, 0.56760275, -0.48456702, 0.23024744, 0.59897286, -0.03777228, 0.37481022, -0.45433977, 0.17569381, -0.38230401, 1.05112624, -0.52553296, 0.49915445, 0.06039741, 0.00436616, 0.04934533, 1.11639726, 0.28244138, 0.86600757, -0.01846999, -0.06656437, -1.09545064, -0.70067078, 0.21552762, -0.62171900, -0.77265918, 0.21870644, -0.80987233, -0.57502025, -0.09615909, -0.66824389, -0.81215209, -0.28397715, -0.15458772, 1.26388633, -0.20106815, -0.52234077, 0.85705340, -0.36431721, 0.43301269, 1.54213393, 0.19116056, -0.56741047, 1.56291342, 0.17507264, 0.23837215, -1.28341877, -0.08693396, 1.08516967, -0.91769421, -0.07072886, 0.99512917, -0.03633585, -0.36303899, 0.26277593, -0.51540476, 0.06153021, -1.16320658, -0.26203072, -0.14400356, 0.65215683, -0.05803439, -0.26907790, -0.05366400, -1.34796453, 0.20676231, -0.74511003, 2.00444770, -0.10874980, 0.58355969, 0.56634396, -0.04679374, -1.04184103, 0.23986271, -0.25278118, 0.66251242
};

static const float net_0_bias[64] = {
  -0.28200942, 0.41108164, -0.71242410, -0.11642683, 0.57061303, 0.10358558, 0.32433641, 0.34966400, -0.08223005, 0.24864861, -0.11610352, -0.37406218, 0.13445351, -0.51969147, 0.22340196, 0.47627169, -0.73007745, -0.05221020, 0.66491067, 0.32575053, -0.38821593, 0.01284914, -0.14449371, -0.55672991, -0.20584740, -0.43660897, -0.24271761, 0.30717009, -0.13722301, 0.63545346, -0.36735925, 0.40440634, -0.06862386, -0.08544426, 0.47725171, -0.20323408, 0.54183590, -0.28292075, 0.10734204, -0.11812702, -0.13548841, -0.38263643, -0.55784601, -0.21473542, -0.22759540, -0.44942248, 0.01294916, -0.77275896, -0.57900935, -0.07251426, 0.27155745, -0.49029887, 0.22341773, 0.52562368, 0.45670381, 0.40762550, 0.07632853, -0.48146632, 0.57986730, 0.43759140, 0.17269640, 0.24072355, 0.23299398, 0.26721609
};

static const float net_2_weight[192] = {
  0.21292098, 0.32131535, 0.04811361, -1.62082815, -0.20799102, -0.25023672, -0.28194979, -0.25714928, 0.51006037, -0.09209206, -0.56808567, 0.17233363, 0.67500961, 1.08910644, 1.26309097, 0.34902343, -0.87207699, 0.04773615, 0.13945256, -0.43041068, -0.11613595, 0.29309538, -0.60973644, 0.09890608, -0.75733596, -0.57631302, -0.45842737, -0.20260049, 0.77100104, 0.33677208, -0.81323433, 0.33562830, -0.11823630, 1.41983235, -0.03262157, 0.91028333, -1.20181811, 0.82144570, 0.15895131, 0.17557216, 0.22840706, -0.46596870, -0.68171221, -0.02761113, -0.74408007, 0.10146440, -0.15361132, 1.35405529, -0.66907245, -0.30159175, 0.40621328, 1.12771940, -0.28991488, -0.31504247, 0.76490825, 0.92505705, -0.04485674, -1.16210604, -0.22380880, -0.15665776, 0.34341154, -1.17242587, 0.18516217, 0.01830844, 0.12642771, -0.05021442, 0.96548969, -0.01095236, -0.01400823, 0.09380110, -0.00876193, 0.05758210, 0.25591588, -0.06494497, 0.19783249, 0.09484243, -0.07820763, 0.01062959, -0.02168194, -0.01656185, 0.19034554, -0.09432147, 0.05541703, -0.00247285, 0.14661375, 0.16490935, -0.25895044, 0.51884127, -0.19084670, -0.06133460, 0.03469836, 0.15853162, -0.19368428, -0.04865870, -0.21313502, 0.00632008, -0.02455775, -0.02536251, -0.02352620, 0.20314853, 0.01205833, 0.18434677, -0.03367864, -0.08983093, 0.38557464, 0.19815099, 0.31241447, 0.05333439, -0.08200300, -0.08647067, -0.02205369, -0.34953651, -0.00941914, 0.10313978, 0.00157629, -0.45412520, 0.04873873, 0.00930008, -0.05118150, -0.05337520, -0.10613184, -0.11823481, -0.04686784, -0.04947827, -0.09243923, -0.04447489, 0.04758988, 0.13426408, -0.20380199, -0.17079306, -0.03827201, 0.07463570, 0.12767389, 0.01676811, -0.01548955, -0.10455560, -0.61226422, -0.06320985, -0.31709141, 0.13513498, -0.01238821, 1.31118274, 0.23473562, 0.03976366, -0.59613037, 0.02524089, 0.42338774, 0.00517930, -0.32995898, 0.00642802, 0.73429370, 0.04869999, -0.24647801, 0.06017093, 0.23703954, 0.13234374, 0.54486001, -0.08318794, 0.29838336, 0.01429090, 0.04914734, -0.09017713, -1.24049962, 0.35070094, 0.70134491, -0.30187261, 0.09591199, 0.06860311, 0.07949730, -0.23131599, -0.23629005, -0.02206837, -0.33748639, 1.28623700, -0.21571048, 0.68761480, -0.48503733, -0.06211491, -0.11744899, 0.33101785, 0.04044979, -0.00514739, -0.32095796, -0.64544684, 0.02865226, -1.54938531, 0.30862105, -0.04997718, 0.09288480, -0.20371507, -0.20562926, 0.29209548
};

static const float net_2_bias[3] = {
  -0.19160204, 0.01019517, 0.18595101
};

static const float input_mean[3] = {0.00000000, 0.00000000, 6749.99951172};
static const float input_std[3]  = {2338.09155273, 2338.09155273, 4214.56005859};
static const float output_mean[3] = {0.00000001, 0.12292606, -0.00000000};
static const float output_std[3]  = {22.14661598, 71.60929108, 22.14662170};
