// Auto-generated field NN weights
// Architecture: [256, 256], activation=relu
// Parameters: 67587, FLOPs: 134656
// MAE: 9523.07 Gauss, p99: 52814.5 Gauss

#pragma once

static const float net_0_weight[768] = {
  1.25149608, 0.44715688, -0.81783986, -3.04666162, -0.00066772, -0.14598051, 2.22637296, -0.14347647, 0.03897319, -2.06649423, 0.25997707, -0.05125614, -1.26349914, 0.00050914, -0.08072858, 0.18404555, -0.38891745, -1.01562262, -0.32970145, 0.56061441, -0.08320235, 0.30979562, 0.22788624, 1.10476768, 1.08630824, 0.05590523, -0.82637775, -0.26417762, -0.34242630, -1.07936788, 0.61638141, 0.53400594, -0.01550987, 1.49978232, -0.04964222, 0.46942312, -0.75170541, 0.37223890, -0.30452496, -0.15814601, -0.00026278, 0.58314991, 2.24560285, -0.17431161, 0.01293268, -0.92311251, 0.52072775, 0.98597831, 2.18265629, -0.45459533, 0.66161436, 0.74654287, 0.08896772, 1.20063066, -1.22511303, -0.19472180, -0.35764560, -1.15141678, 0.45187432, -0.22182871, 0.62954205, 0.02629442, -0.88221925, 1.85505283, -0.30736440, -0.10133186, -0.59043604, -0.27354380, 0.08285410, -0.53356493, -0.28133339, 0.22814398, -2.08559299, -0.43206307, 0.53912592, -2.75213099, 0.06892496, 0.64092827, -0.77065676, 0.51458985, 0.02494214, -0.42712551, 0.42062503, 0.50907719, 0.07067124, 0.12789676, 0.90026522, -2.34657359, 0.06001990, 0.42015195, -1.12414742, 0.43698025, 0.85348779, 1.50726402, 0.21892488, 0.12816107, -0.31131575, 0.45632580, 0.49692389, -0.82659382, -0.35763127, 0.62696511, 1.50458682, -0.38641191, -0.66921568, 2.37119675, 0.10177893, -0.26715606, -0.78058165, -0.38153070, -0.25419015, -0.28036743, -0.25239033, -0.55205601, 2.11656451, 0.03509862, 0.52844042, -0.98029453, 0.59348375, 0.48534897, -2.05858254, -0.05257002, -0.29733616, -1.42268157, 0.06298390, 0.73646373, 0.01998375, 0.46951351, 0.95161068, -0.58082354, -0.33498847, -0.64543080, 0.00354541, -0.05570503, -0.10122093, -0.68480462, -0.01670108, 0.52670109, -2.37608671, 0.06056516, -0.29472822, -2.14001536, 0.25801182, 0.48780325, 1.21758974, -0.57147431, 0.73257065, 0.37950709, -0.22692636, 0.88623381, -2.46956015, 0.21689373, -0.45401016, 0.06189555, -0.39903918, -1.08022535, -1.34915328, 0.55473304, 0.62596267, -0.00231064, 0.22281833, 0.60464108, 1.82235217, 0.46679136, 0.66155106, -0.52198547, 0.36986446, -0.80978608, -2.74574113, -0.00185938, 0.05294312, -1.69354486, -0.44725281, 0.74816293, 0.25575253, 0.17735204, 0.22643191, -1.81060398, 0.22619323, -0.30935466, 1.53227675, 0.25318387, 0.01552299, 3.10650778, 0.00358914, -0.23083527, -0.02325448, 0.19869867, 0.96042639, -1.36649096, -0.03962862, 1.11900043, -0.94641322, -0.28343371, -0.70628214, 0.11728130, -0.28955254, -0.99097508, 0.04137395, -0.20004167, -0.76529956, -1.63589919, -0.22723518, -0.83134478, 1.06509507, 0.61454105, 0.25535738, 2.23553491, 0.00046489, 1.06948173, -1.24812901, -0.56270874, -0.14654641, 0.69850188, -0.56514567, 1.32157040, 0.31169805, -0.55213326, -0.44525596, -0.41969562, 0.00296001, 1.35638309, 0.96263123, -0.60002196, 0.21565627, -1.60314274, -0.23174402, -0.44920263, -1.55702662, -0.04017859, 0.98907769, -0.32004589, -0.32925513, -0.06983311, -1.79506373, -0.28000519, -0.17195557, -2.25243592, -0.05664143, -0.57276762, -2.51613617, 0.00002523, 0.30633965, 0.37711737, -0.17335875, -0.43158540, -0.75654227, -0.16089056, -0.04871698, 0.42349276, 0.06740608, 1.25737166, -0.87825978, 0.20722459, 0.37920919, 0.01589841, -0.57140785, 1.20786703, 0.55827022, -0.41175938, 1.48268819, -2.51210570, -0.12851988, 0.33179337, -1.91005182, 0.04881547, 0.79121512, -2.06984472, -0.24754700, -0.41336292, 1.40410745, 0.45598704, 0.52505499, -0.90665513, -0.04509178, -0.54664481, 0.06707210, -0.17340440, 1.36139071, -1.33589208, -0.37693626, 0.75031859, -0.18490347, 0.54797292, -0.51669514, -0.13508159, -0.52092636, 0.03510676, -0.14195253, -0.55364889, 1.25948083, 0.02640670, -0.00007408, 1.51188385, -1.75185955, -0.36266923, -0.46274498, 1.33560407, 0.26087531, 0.66403168, -1.03725159, -0.02747408, -0.78484190, -2.13363051, 0.30937114, -0.62732589, 0.62784421, -0.30577302, 0.82891989, -0.40995899, -0.58024943, 1.41447890, -1.20898283, 0.40537769, 0.66568041, 1.65459871, -0.39618903, -0.65181005, 0.82735443, 0.08482886, 0.19915944, -0.93722349, 0.53083104, 0.08075741, -2.29778361, -0.41475964, 0.17492072, -0.00485788, -0.01771394, -1.18376875, 1.04713416, -0.05945496, 1.04436517, 0.87703228, -0.42214558, -0.89071679, 1.59918129, 0.16349813, -0.64258647, 2.12931299, -0.05515064, 0.51659864, 1.05364370, -0.60113037, -0.07082546, -1.35599446, -0.32143673, -0.61577731, -0.41741192, -0.22131531, 1.00892627, -0.81635791, -0.04231766, -1.06563485, -0.54008907, 0.11347830, -1.11857927, -0.07138931, 0.27094021, -1.03536069, 0.03566995, 0.28643832, -0.01820170, -1.30658054, -0.35587457, 1.07831991, -0.71087885, 0.33277112, -0.69397062, -1.46332169, 0.38218611, -0.26642263, 0.38161847, -0.30982262, 0.59188545, -2.41609931, -0.06063775, -0.14709832, -1.54686201, -0.45909527, 0.68871468, -3.20218420, -0.00263703, -0.08615803, -0.80164891, -0.37972671, 0.63914013, -0.48371530, 0.04869393, -1.04353976, -1.36922479, -0.28270668, 0.92731398, -0.06650413, 0.19835603, 1.03497314, -0.58140677, 0.16971757, 0.30797139, -2.38380480, -0.11939999, -0.25467944, 2.22446370, -0.16585475, -0.23459597, -2.32636905, -0.05869660, 0.73164302, -0.12798111, 0.49834010, -0.97661722, 0.05460888, -0.31655544, -0.48884198, -0.14474343, -0.00170046, -1.51150239, -2.14186335, 0.21534175, -0.14715117, -1.22776210, -0.38173714, 0.26894844, -1.70709753, -0.40991110, 0.06110187, 1.90126169, 0.27285773, 0.34254047, -1.09885025, 0.32080188, -0.77577430, 2.08362746, -0.33562177, -0.07243811, -0.78010738, 0.18046767, 1.31793809, -1.67733896, 0.18722813, -0.68886340, -0.21242978, -0.40544111, 1.12389338, 2.23460340, -0.20946150, -0.05002061, -2.02687478, -0.41304237, 0.90459263, 2.19278288, -0.05734465, 1.06404555, -0.78351080, -0.10765639, -0.74260467, -0.48055598, 0.36948815, -0.45253131, -0.78233320, 0.25162879, -0.60354930, 0.53127539, -0.57684231, 1.25106180, -0.38619882, -0.38361818, 0.93712193, -0.63601464, 0.32441530, -1.14093626, 0.10763970, -0.03312013, 1.07741129, 2.08105302, -0.12674735, 0.23708418, 0.21460615, -0.06203329, -1.16501391, -0.02845056, -0.42877594, 0.25257316, -2.52960706, 0.23951936, -0.23740178, 0.24135020, -0.29544550, 1.27694762, -1.07800651, 0.24668524, -0.87448543, 0.45858172, 0.00636922, -0.24061154, -0.95088345, 0.00516134, 1.03250861, -0.00600263, -0.45831895, -0.86100322, -0.29578927, 0.31926152, 1.12541449, -1.55569398, -0.51203817, 0.60579908, 1.88271487, -0.15576361, 0.30514354, 0.14418335, 0.00037471, 1.08210278, 1.00655329, 0.34980512, -0.34141749, 0.55469573, -0.56295604, 1.07958508, 0.59376353, 0.55624741, 0.62120694, 1.49324775, -0.35062897, -0.11951840, 2.23363113, -0.16098559, -0.51190257, 0.56413752, -0.35538352, 1.14363253, 2.37380242, 0.06003816, 0.85962784, -0.94255102, -0.22080702, -0.91362131, 1.45498109, -0.20037994, -0.41874892, -0.03505104, 0.36347577, 0.76264590, -0.03423337, -0.42351007, -0.48896003, 1.64103019, -0.48739567, 0.98034912, 0.28581586, -0.12845664, -1.23820448, 0.04199472, -0.31839192, 0.64918977, 2.41616607, 0.00006154, 0.13159999, -2.22274923, -0.20644608, 0.24711078, 1.72986674, -0.04254761, -0.55160505, -0.16599189, -0.42852750, 0.96603155, 1.02339923, -0.51473659, -0.71916902, 0.53363001, 0.41637960, 1.01916063, 0.03747641, -0.21561010, -1.20299029, 2.32185555, 0.05892699, 0.47304624, 1.72649086, -0.28264496, 0.80505764, 0.03114354, -0.00819591, -1.32815230, 1.91652107, 0.38708809, -0.30889362, -0.34124401, -0.01948872, -1.38068843, -1.54369020, 0.24816225, 0.56918484, 1.68153310, 0.34543699, -0.89182252, 1.55529273, -0.08880979, 0.77970284, 0.78588980, -0.06794072, -1.01405716, 0.83632803, 0.48957744, 0.70969504, 1.54073691, 0.30667204, -0.28101024, 1.52313089, -0.00100773, -0.67738980, 0.50181025, 0.60916555, -0.55420274, -1.10208189, -0.54628938, -0.03892656, -2.52188015, -0.00118410, -0.44352755, -0.36286911, 0.45226404, 1.05675817, 1.64037931, 0.04317853, -1.04801095, 1.66657495, -0.04237509, -0.98371655, 2.28076053, -0.05839959, -0.31055900, 1.26420617, 0.31193128, 0.95329821, 1.49535763, -0.41853735, -0.81632882, 1.02865589, -0.15093090, -0.62273622, -0.19020249, 0.40318224, 1.04635060, 1.89625502, -0.03780979, 0.38662040, 2.09481525, -0.29301819, 0.35102603, 0.98691595, -0.19374552, 0.67847997, -0.14036632, -0.05676068, -0.95691234, -0.19612822, -0.02064406, -0.45451289, -0.05141636, 0.05583742, -1.23048949, -0.33895996, 0.55800629, -0.36162439, -1.16348100, -0.38477397, 0.93697017, -0.96652722, -0.31943136, 0.32182246, -0.83902901, 0.26722148, -0.79773104, 0.10343271, 0.12112423, 0.58008212, -0.19210334, 0.48364905, 1.09430015, -1.62146521, -0.04198895, -0.44918421, -0.64525348, -0.50273877, -0.38199368, 2.68211699, 0.06737093, 0.19081603, -2.65383291, -0.00054189, -0.87604994, -1.37051046, 0.19330354, 0.64315897, -0.07503891, 0.00562215, -1.24548697, 0.37723702, 0.37116691, 0.71844798, 0.03571638, -0.00075855, -1.66797888, 0.84902740, 0.50248861, -0.47941342, -1.19745004, 0.43917561, 0.66594297, 2.30184126, 0.05806247, 0.65049571, 1.84668601, 0.25739124, -0.29377607, 1.47723365, 0.56948495, -0.56942606, 0.13439417, -0.08965892, 0.74375468, 0.20158094, 0.08702899, 0.95246136, -0.30331317, 0.35968810, 1.59046125, 2.23171401, 0.00027748, 0.99426508, 1.72704864, 0.31773016, -0.30726656, 0.41021988, -0.02312835, -1.33170581, -1.50421810, 0.39558715, 0.11247996, 2.08569670, -0.05214595, 1.03929031, -0.79606789, 0.42617807, 0.78486264, -0.72825891, -0.54553616, 1.06493807, -2.87057352, 0.07298580, 0.47902584, 0.68678093, 0.46110439, -0.05779349, 0.46828675, -0.00796076, 0.82093781, -1.21612978, -0.03897314, 0.51574725, 1.41455674, -0.44652757, -0.36892694, 1.69106424, 0.45332831, 0.03776459
};

static const float net_0_bias[256] = {
  0.47873810, 0.07106950, 0.35115376, 0.32895666, -0.08784953, -0.04170990, -0.59293818, 0.23227723, -0.01138390, -0.77107894, -0.30548459, 0.34617814, 0.53595042, 0.26253876, 0.20454100, -0.41591063, -0.39653245, 0.62034559, -0.52485478, 0.01242855, -0.14257987, -0.48317394, 0.07225568, 0.59892648, -0.40699512, 0.26579231, -0.52692765, -0.31375018, 0.61199760, 0.17479782, -0.06489893, -0.24562174, -0.37425262, -0.28599235, 0.30555296, 0.15736642, -0.49332589, 0.21665558, 0.36451209, -0.46582717, -0.12060561, 0.47814119, -0.36217725, -0.59375864, -0.32403004, -0.38858610, -0.12493876, -0.14282542, -0.42445514, 0.77897924, 0.28572586, 0.24797839, -0.60941458, 0.64042044, -0.42951742, -0.15759157, 0.14230108, -0.36068717, -0.21266474, 0.17512450, -0.35052532, 0.03576792, 0.75497305, 0.59456772, -0.44341487, -0.71110106, -0.15855490, -0.65196764, -0.48454350, 0.54041493, -0.37293428, -0.44779202, -0.71388155, 0.60494059, -0.26473126, 0.13707767, 0.41194135, -0.19095257, 0.32090965, -0.23536234, 0.23635714, 0.13348077, 0.28997031, 0.66725141, -0.23474170, -0.27918881, 0.13930485, 0.46165067, 0.32767969, 0.33621168, -0.48335060, -0.05937250, 0.31301710, -0.25975421, -0.80823183, -0.66339338, -0.21661735, 0.66578358, -0.72115129, -0.10267700, -0.32699129, 0.35068598, -0.02490017, -0.13845703, -0.46102715, -0.24751113, 0.26224506, -0.50310993, -0.51726025, -0.49101499, 0.58079696, -0.68020272, -0.46997559, 0.21335442, 0.35618427, 0.35278535, 0.02229004, -0.24998878, -0.23282956, -0.66544515, -0.36251053, -0.19856533, -0.57253355, -0.68312436, 0.21799016, -0.05826056, -0.40781882, 0.10175923, -0.18147892, -0.16029614, -0.02648244, 0.12469815, 0.44528282, 0.19508833, 0.28220943, 0.30686203, 0.45428014, 0.34117725, -0.59119201, 0.39454359, -0.16500062, -0.58108968, -0.23411554, 0.06440902, 0.62396210, 0.21297744, 0.10523361, -0.17155489, -0.28159508, -0.22476017, 0.44023234, -0.45261136, 0.46313235, 0.21418294, -0.25024971, -0.06618463, 0.11184289, 0.53331888, 0.22154213, -0.41282904, -0.46346644, 0.19753926, 0.20272887, 0.10113882, -0.03193542, 0.48178735, 0.43199018, -0.03047971, -0.53329492, -0.21208820, 0.47810060, -0.54490888, -0.30920160, -0.39631569, 0.60690296, 0.15552893, 0.04687943, 0.35904187, -0.05216959, -0.44842470, -0.16549318, -0.71425414, -0.34161371, -0.28008950, -0.28072727, -0.04648601, 0.54671872, -0.22702378, -0.16666074, 0.61927712, -0.22886643, -0.10793773, 0.19865768, -0.06730033, -0.53215402, 0.44259462, -0.57189149, -0.11521462, 0.13458063, 0.54050320, -0.56813294, -0.47021124, -0.56039274, -0.34502560, -0.55948329, -0.53174144, -0.07545596, -0.09356471, -0.43589449, -0.41130847, -0.13057417, -0.07364313, -0.49753457, -0.46869981, -0.26229423, 0.30556548, -0.25842062, -0.00121964, -0.46740606, -0.14141507, -0.38409510, -0.28498301, -0.19790314, -0.20724802, 0.16073717, 0.05509948, -0.16742057, -0.18628034, 0.72106642, 0.08228237, -0.24971263, 0.00031648, -0.50068682, -0.24355866, -0.65089524, 0.69353855, -0.40731367, 0.27041683, -0.47313783, -0.56756377, 0.48505303, 0.57195884, 0.04207238, 0.50584531, -0.58163947, -0.54470176, -0.55257672, 0.43121448, -0.42549074, -0.19945976, 0.20002487, 0.03426720, 0.19638272, 0.33497876, 0.65613616, -0.66785938
};

static const float net_2_weight[65536] = {
  0.00672212, 0.01542412, 0.05486956, -0.00566909, -0.01105528, -0.05903725, 0.04661985, 0.00042413, 0.05478350, 0.02152997, 0.00150696, -0.03128858, 0.00278262, 0.05632691, 0.03447928, -0.03583244, -0.04940368, 0.02760203, 0.04179087, -0.01173675, -0.03508978, 0.02468528, -0.04417300, -0.04949428, -0.02511194, 0.00823388, -0.03425514, 0.01825715, -0.00738908, 0.04609318, 0.05356149, 0.01709219, -0.04850880, -0.04312871, -0.01607742, 0.02893302, -0.04648735, -0.03099361, 0.05560953, 0.01234183, 0.03623666, 0.00727558, 0.00291715, 0.01244062, -0.04379605, -0.01166069, -0.02510917, 0.03666812, 0.01171472, -0.02979781, 0.02062056, 0.00296019, 0.02013390, -0.02244737, 0.04378978, -0.05929084, -0.05755654, 0.05193135, 0.03006875, 0.00835506, -0.05615335, 0.02797634, -0.05216026, -0.04129663, 0.05427206, -0.02319941, 0.02464860, -0.02990424, -0.02987334, 0.05369766, 0.02685843, -0.06069695, 0.00489966, 0.05364797, -0.01111484, -0.05524481, -0.03619341, 0.01047941, 0.02456742, -0.05080411, -0.00313046, -0.05363083, 0.02860902, -0.03155609, -0.06090081, -0.03073679, 0.01144564, -0.01705328, -0.00871435, -0.06720543, -0.03209602, -0.03476498, -0.02942424, -0.05413721, 0.04299198, 0.00864068, -0.01057747, 0.04813156, -0.01312765, -0.01525238, 0.02444635, 0.03721893, -0.03408496, -0.01060945, -0.05141327, -0.06658950, 0.00504479, -0.05237105, 0.04028045, -0.01902983, -0.06588011, -0.04703698, -0.00753155, -0.05877180, -0.04570469, 0.05622821, 0.05767231, 0.00156852, -0.01656500, -0.06945125, -0.01184985, 0.04833129, -0.02123397, 0.01027675, -0.05218623, -0.01056687, -0.00597201, -0.04151851, 0.03208784, -0.04473459, 0.01364277, 0.02045080, -0.03627886, -0.03955625, -0.05043730, 0.02809510, -0.06489743, -0.03674727, 0.03035928, -0.03861054, -0.01231493, -0.00822694, 0.02888118, -0.04832038, 0.01209926, 0.05260906, -0.05370705, 0.03462621, 0.03549450, -0.01041042, 0.02115476, 0.04429612, -0.01382428, 0.01236850, -0.00545985, -0.06514803, -0.00614901, 0.05472004, -0.06242188, -0.05814966, 0.02632438, -0.05755008, 0.02535442, 0.02675370, -0.01504184, -0.00842046, -0.04336920, 0.04691546, -0.03227491, -0.01997712, -0.01225821, 0.05744540, -0.00060039, -0.04950497, 0.04639945, -0.00754522, 0.05086483, -0.05506879, -0.00265779, -0.02580366, -0.00862929, 0.01994387, -0.04582890, 0.03923798, -0.00405475, -0.01162426, 0.02402334, 0.05242331, -0.04614288, -0.06435983, -0.05306077, 0.04779822, 0.05235346, 0.02690479, -0.05496243, 0.02120938, 0.03507684, -0.02416318, 0.03878899, -0.04609720, 0.02600142, 0.04659804, -0.00722231, -0.06693636, 0.05065184, -0.04993685, 0.01867711, 0.04515502, -0.02364285, 0.00402733, -0.02119878, -0.02591216, 0.02087235, -0.00906182, -0.04667955, -0.02466007, 0.04896504, 0.02968989, 0.06101938, -0.04150583, 0.03357112, -0.00398665, -0.03933221, -0.04584562, -0.05151212, -0.04684801, -0.02374633, 0.04944250, -0.04352241, 0.02578136, 0.01207515, 0.05420874, -0.00443162, 0.00071454, -0.04591435, -0.00819470, -0.00845437, 0.04429933, -0.02541927, -0.06213730, 0.03927284, -0.06733052, 0.01751393, 0.00627584, -0.03871652, 0.01146403, 0.04110111, -0.04319249, 0.04482665, -0.06685385, -0.06529029, 0.03701016, -0.04610438, -0.01150555, -0.05750967, -0.03811786, 0.01272985, 0.00486209, 0.01734304, -0.01130302, 0.03548119, 0.02630618, -0.02939169, 0.02882047, -0.04722907, -0.01555722, -0.00302468, 0.01749174, -0.06632511, -0.02838165, 0.04818877, -0.05708358, -0.08453022, 0.02919109, -0.04239268, -0.06812485, -0.00974820, 0.00253720, -0.05802703, 0.05166088, -0.00933384, 0.02087804, -0.03114997, -0.00775769, 0.03476286, -0.03644148, -0.02541941, 0.04228958, -0.05130949, -0.06471595, -0.07163866, -0.05498862, 0.00052848, 0.01102028, 0.04151658, -0.02544565, -0.01614979, 0.02629169, -0.00999963, 0.05377043, 0.02965233, -0.00253691, 0.05531078, 0.04201324, -0.03420518, 0.04750253, -0.03385601, 0.02285128, -0.03779666, 0.01866987, 0.00081597, 0.03352198, -0.05755406, 0.00129166, -0.00370686, -0.06869527, -0.01869741, 0.03646257, -0.02241701, -0.05602848, -0.06245136, -0.05080160, 0.02464583, 0.03311271, 0.00134501, 0.01775712, 0.00188937, 0.02927101, -0.00899873, -0.01417684, -0.06386711, 0.05517782, -0.04207665, 0.00822966, -0.06529513, -0.00581614, -0.01500705, 0.04441264, -0.01045816, 0.01350346, -0.03326521, -0.06580085, 0.03225370, -0.04109772, -0.04558623, -0.04952912, 0.04232828, 0.05171584, -0.02508722, -0.00556302, -0.04622843, -0.00570768, -0.03663633, -0.02697467, 0.03120833, 0.00033441, -0.00816153, 0.00793684, -0.00590257, 0.00761186, 0.04720703, 0.03855181, -0.01540140, 0.02339131, 0.01999637, 0.03452490, -0.00136208, -0.01387425, 0.04222474, 0.03672690, -0.05729957, -0.01531304, 0.03447039, 0.04640682, -0.01294336, -0.03628894, 0.00517763, -0.03272783, 0.05132977, 0.01427031, -0.04107599, 0.01471249, 0.02314808, -0.02638062, -0.02681224, -0.00780141, -0.06045062, -0.04842342, 0.04359655, -0.02181092, -0.01127947, -0.01356599, -0.05877327, -0.02540584, -0.04660322, 0.00388535, 0.01325935, -0.01397475, 0.02754377, -0.07060748, -0.05880181, -0.00560852, -0.05743402, -0.05662866, -0.04616867, -0.03408585, -0.02983037, 0.02057052, -0.03200289, -0.00612826, 0.04663176, -0.03876358, 0.02084722, -0.01135977, 0.04168355, -0.02858068, 0.05186949, -0.00924853, 0.00241842, 0.03734909, -0.02243692, 0.01506029, 0.01270897, -0.04965688, -0.01761270, -0.06909894, 0.03969353, -0.01895940, -0.07332953, -0.00691164, 0.03785266, 0.01425063, -0.04105656, -0.05825400, -0.00711597, 0.05108033, -0.00797931, -0.03750744, -0.02957429, 0.02988539, -0.01568398, -0.03488237, -0.06678148, -0.04542723, -0.03949617, -0.02909078, -0.01831098, -0.05698562, 0.02931460, -0.02019236, -0.01970015, -0.00354466, -0.04423997, -0.02939708, -0.05012075, 0.04320617, -0.07488825, 0.00730818, 0.04447339, 0.02059394, -0.00307415, 0.02818492, -0.05789635, -0.06299410, -0.00122642, -0.01176708, -0.01584899, 0.02306516, 0.00798627, 0.02061789, -0.03112044, 0.03827616, -0.03940834, 0.04889144, -0.00642167, -0.01274898, -0.01294511, -0.05731786, -0.00609858, -0.05733386, -0.06755576, -0.06522441, -0.03630067, 0.01214560, 0.04693560, -0.00095207, -0.01545751, 0.02076276, 0.05125632, -0.00163967, 0.01970772, 0.01814530, 0.02876910, 0.01423066, 0.02838170, 0.05448438, -0.01443740, -0.01688351, -0.07207337, -0.00064863, -0.05539279, 0.01786919, -0.05308225, -0.01503395, -0.03124481, 0.01602927, -0.03734769, -0.04607309, -0.04742245, -0.05241304, -0.05517018, 0.02163334, 0.02302854, -0.00606013, 0.00310771, -0.03201100, -0.07088604, -0.07326326, -0.01186669, -0.02618370, -0.01942172, 0.03834836, 0.02494334, -0.00484026, 0.04824757, -0.06632798, 0.01124760, -0.06733678, -0.04343034, -0.00380709, 0.02248778, 0.04187036, -0.06579296, -0.07118998, -0.04438892, -0.04466778, 0.04775661, 0.02183174, -0.07271399, -0.06404790, -0.01185323, -0.03156181, 0.01408102, -0.00577988, -0.05178665, -0.06187941, -0.07142936, -0.04537826, -0.04035176, -0.06480112, 0.01242656, -0.01995752, -0.04208506, -0.06303269, -0.03712901, -0.06818553, -0.05574626, -0.08341195, 0.01162432, -0.04534877, 0.05017390, 0.05376416, -0.00310576, -0.05519675, -0.06123833, 0.04565252, 0.00724553, 0.04294486, -0.06809604, 0.05458059, -0.04475837, -0.02408680, -0.06028336, -0.05236978, 0.00705728, -0.04317939, -0.06803115, 0.00615242, -0.07713521, -0.07656141, -0.07193399, -0.01894005, -0.07224702, 0.02642325, 0.01637391, -0.07438140, -0.06004161, -0.05881094, -0.06674032, -0.06768934, -0.06356012, 0.01263949, 0.04186417, -0.01520887, -0.01152548, -0.07228494, -0.08614992, 0.05595608, -0.00721205, 0.04608999, -0.04031961, 0.01816054, -0.03117856, 0.01686842, -0.05527331, 0.03071108, 0.04388041, -0.00769509, 0.04208450, 0.04988239, 0.05172082, -0.05267343, -0.07802336, -0.03890067, -0.01968975, 0.02678451, 0.00612257, -0.02632341, -0.04246286, -0.00344983, -0.02452510, -0.15826333, 0.02090843, -0.07817166, 0.01834690, 0.02060308, 0.01361022, -0.07296207, -0.03967956, 0.00022037, -0.03672653, 0.01160529, -0.06902634, -0.00048934, -0.05118499, -0.06079942, -0.05335249, -0.07172196, -0.00938275, -0.00087195, 0.02360800, 0.01056934, 0.03996104, 0.04146549, -0.04832273, -0.05249993, -0.07193089, 0.00170351, 0.01585066, -0.00565465, -0.04308554, -0.04141774, -0.06034055, -0.03639659, -0.01918957, -0.00067421, 0.03951127, -0.09545847, -0.06605586, 0.03435683, 0.02145076, -0.04692036, -0.01746681, -0.01325813, 0.03090501, -0.06995273, -0.01824132, -0.05797381, -0.02728180, -0.06077977, -0.01301753, -0.02701497, -0.03034670, 0.00172580, -0.06964363, -0.03666835, 0.04457654, -0.05044920, 0.00461340, -0.06756856, -0.02307982, 0.03121442, -0.00659302, -0.01075992, -0.07268536, -0.05108031, -0.00752121, -0.00107471, -0.04406658, 0.00093242, -0.02813148, -0.00525406, -0.01067940, 0.02625191, 0.04988256, -0.01320597, -0.04505973, -0.05218418, 0.02273780, -0.07301566, -0.05032371, -0.07396349, -0.02987243, 0.00174968, 0.00995537, -0.00124695, 0.03682824, -0.01127960, -0.02391266, 0.01550225, 0.03287011, 0.01282273, -0.06929471, -0.07873955, -0.07979620, 0.00002162, -0.01375443, -0.01796842, -0.04253752, 0.04097557, -0.00606732, 0.03777340, -0.02195650, -0.04876376, -0.00770258, 0.00032064, 0.04102984, -0.04966982, -0.03208245, -0.07280496, -0.16790797, 0.00102117, -0.02102532, -0.05356478, 0.02148145, 0.00387845, 0.03038935, -0.06707343, -0.02468764, -0.00015964, -0.03968586, -0.07221320, 0.01270150, 0.00012990, 0.01219028, -0.02183095, -0.05128056, -0.00676024, -0.00063934, -0.07639933, -0.06943499, -0.06056316, 0.04571188, 0.00238239, -0.07967650, -0.01886276, -0.04489008, -0.00094982, -0.05524572, -0.04395529, -0.08767477, -0.04396645, 0.03849134, 0.04730594, -0.01311958, 0.04754396, 0.02244507, -0.00520842, -0.05608447, -0.04565346, -0.05305906, -0.00881104, -0.01158596, 0.00345620, -0.01631014, -0.03308220, -0.02435910, -0.00432950, 0.05768459, 0.04731160, 0.03519139, -0.06227259, -0.00908492, -0.03382041, -0.02450904, -0.05524014, 0.06233612, 0.01353424, -0.02970975, 0.00510275, -0.04762018, -0.00529305, -0.00718957, -0.05692168, -0.03515765, -0.00978574, -0.03704210, -0.03667483, -0.00528160, 0.02603672, 0.04246999, -0.03543216, -0.00585800, 0.03633384, 0.01998697, 0.00467611, 0.00453680, -0.01618425, 0.06244520, 0.01226028, 0.02854826, -0.01202916, 0.04548372, -0.05456818, 0.04250692, -0.05391058, 0.01985704, -0.05997160, 0.01722715, 0.04980212, -0.01020545, -0.03128622, -0.04675940, 0.02442486, -0.00249211, 0.04476958, -0.02301039, -0.02482376, 0.01903781, 0.00921534, 0.06185585, -0.03554066, 0.02369333, -0.01214104, 0.00888721, -0.05355229, -0.04959828, -0.00479943, 0.01051011, -0.03143293, -0.02525323, -0.03431129, -0.02367614, 0.02004771, -0.03288491, -0.03183296, -0.06092217, 0.00418106, -0.05196922, -0.05018281, -0.03333674, 0.02271818, 0.00374103, 0.01878579, 0.01804377, -0.03943741, 0.01981804, -0.01562133, 0.00964029, -0.01649435, 0.04955943, 0.05733302, -0.04594803, -0.03628904, 0.04069113, 0.00003169, 0.01861499, 0.05809683, -0.01761364, 0.01780718, 0.03245221, 0.01692749, -0.06006656, 0.05177998, -0.01307788, 0.04771731, 0.04124472, -0.04895374, -0.05055269, 0.02061342, -0.05675207, 0.05047133, 0.03252490, -0.00007013, -0.03930041, -0.02248359, -0.02417514, 0.00969213, 0.01277679, 0.01207659, -0.06053814, 0.03660920, -0.04883497, -0.05968489, -0.03406328, -0.03041963, -0.06088403, -0.04661841, -0.03682177, -0.04618063, 0.00361706, 0.03412974, -0.00866941, -0.00314000, -0.05105577, 0.02494460, 0.02761061, 0.02193452, -0.00679398, -0.02401001, 0.01835936, -0.04624105, -0.05892540, 0.02064227, 0.03010873, -0.02865438, 0.03502333, 0.01984484, -0.03980113, -0.02921258, -0.02345792, -0.02078754, 0.04525539, -0.05605426, -0.00084261, 0.02749571, 0.01731808, -0.05720691, -0.05876524, -0.02736622, -0.05919209, -0.05253319, 0.05538927, -0.01869298, 0.01082941, -0.00584633, 0.04102821, -0.05667293, -0.04619861, 0.05666755, 0.02525881, -0.01144823, -0.03020158, 0.04720423, 0.02038725, -0.05088723, 0.01793250, -0.06090750, -0.05449618, 0.05189823, 0.01756957, 0.01035134, 0.02899055, -0.05644666, 0.02310199, -0.03760727, 0.01804624, 0.03702872, -0.04460406, -0.05349824, 0.00237726, 0.02585594, -0.05431249, 0.03793404, 0.00494163, 0.05776246, 0.02506235, -0.05716626, 0.04806751, -0.02744886, 0.00428072, 0.05125551, -0.01165073, 0.03476255, -0.04743099, -0.04201653, 0.01654490, -0.02744849, -0.04010486, -0.02471980, 0.01054027, -0.04970168, -0.04984762, -0.03898646, 0.01203865, -0.01310798, 0.02952348, 0.02215220, -0.01090837, -0.02603921, 0.04588237, -0.01924881, 0.01455212, 0.05663144, -0.01341806, 0.04021899, -0.01339254, -0.00355443, 0.04551311, 0.04690558, -0.05603444, 0.02238809, 0.00625782, -0.03258026, 0.05704133, -0.02785333, -0.00707106, 0.05733532, 0.02388442, 0.00080984, 0.01272588, 0.03303828, -0.04774274, -0.00729083, -0.03811803, 0.02816869, -0.02659930, 0.05586831, 0.03768355, 0.04067998, 0.01433793, -0.01456415, -0.00409008, 0.00429399, 0.04552253, 0.04799219, -0.00902768, -0.01252802, -0.04371697, 0.00167600, -0.00452112, -0.05190988, -0.01428311, 0.06125615, 0.05528226, 0.03067969, 0.03441633, 0.01169285, 0.04515440, 0.01796024, -0.03721651, -0.05908750, 0.03875831, 0.01784889, 0.05685295, 0.01753540, -0.00257669, 0.01538702, 0.05045027, -0.00975366, -0.03026031, 0.03734561, -0.05904619, -0.02846963, 0.01147689, -0.05721308, 0.01952921, 0.06207588, -0.01660987, -0.00238893, 0.03932646, 0.00887188, 0.01115848, -0.04110599, 0.00800102, 0.04694539, 0.03196730, -0.05172404, -0.03734133, 0.02906521, 0.03202914, 0.05619823, -0.05347192, 0.04077573, -0.02642418, 0.01632923, 0.04983886, -0.04983576, 0.04830506, -0.05988728, -0.04981477, 0.04519774, -0.00637524, -0.05361091, 0.05536003, 0.03844843, -0.04532062, 0.04128094, -0.03019588, 0.03254161, -0.05653953, 0.01515190, 0.02614773, 0.00040398, -0.02621919, 0.01279038, 0.05513038, -0.03360125, -0.03781665, 0.05174795, -0.03495342, -0.05160600, -0.04061469, -0.05755014, -0.06173555, -0.05188371, 0.05265806, -0.04588242, -0.01616019, -0.04169723, 0.00105339, -0.02140779, 0.01662253, 0.02312286, -0.01351057, 0.02925310, -0.01231924, 0.00122744, -0.03582304, 0.00220375, 0.03242105, 0.04702697, 0.02265722, 0.05580632, -0.01334400, -0.05894990, -0.03080788, -0.00084057, -0.04071013, 0.03540894, 0.01056046, -0.05207944, -0.05522307, -0.03621336, -0.00218519, 0.00442794, 0.00671064, -0.05169313, -0.04410046, 0.03972963, -0.03398089, 0.00128022, -0.04903220, 0.05172037, 0.01125991, -0.03045411, -0.00776648, -0.05060556, 0.02255096, -0.02901339, 0.05481891, 0.00196400, -0.02328586, -0.02694219, 0.01081658, -0.01226388, -0.05556873, -0.00145138, -0.00561283, 0.02210787, -0.03782342, -0.03316768, 0.03796923, -0.01657571, -0.05547518, 0.04621095, -0.00418062, -0.02479725, -0.06236510, -0.03962836, -0.00747042, 0.00146640, 0.04722720, -0.03501914, -0.04922881, -0.02902608, -0.01427885, -0.06069283, -0.05597784, -0.00368325, -0.00839702, -0.01525386, -0.00999852, 0.04446431, 0.05874494, 0.04962593, -0.04093269, 0.02401382, -0.02460469, 0.02111761, -0.01907472, 0.04323585, 0.00367332, 0.01800797, 0.03248075, -0.02824932, -0.00073736, -0.01064721, 0.00031286, 0.04451691, 0.03223754, -0.00258775, 0.03348733, -0.04399808, -0.04575432, -0.00450014, -0.03161553, 0.03910733, -0.01811989, 0.04284986, 0.02339312, -0.01145183, -0.01906199, -0.01777732, -0.06095922, 0.04030740, 0.03334529, -0.04438389, 0.00934594, 0.02158189, 0.03917557, 0.01922120, -0.05522630, -0.04104559, -0.00644866, 0.03174887, -0.02251332, -0.04779027, -0.01287021, 0.03525556, 0.01176541, -0.02021196, -0.02276528, -0.05895609, -0.02881781, -0.05263826, 0.03106717, -0.04213545, -0.03284260, -0.03069150, 0.05487085, 0.04880628, -0.03485925, -0.01797316, -0.05639437, 0.03165463, 0.00397637, -0.05445667, -0.02646939, -0.05387651, -0.00958409, -0.04072777, -0.03284297, -0.01066945, 0.05005842, -0.02706163, 0.02879010, 0.03601298, -0.02558956, 0.05947913, 0.06088907, -0.00570305, -0.02064499, -0.05842862, -0.00472874, -0.05906104, -0.00760711, 0.02696913, 0.04176158, -0.01737819, -0.01801474, -0.01449428, 0.01187383, -0.04906670, -0.04311515, 0.00449330, -0.04086684, -0.00186577, -0.03680944, -0.06203449, 0.03312435, -0.00834940, -0.06364670, -0.03692354, 0.02744448, -0.00656566, -0.04327510, 0.00925304, -0.02564271, -0.03409257, -0.00043564, -0.01767040, -0.02612234, -0.01783877, 0.00338434, -0.02753262, 0.03502424, -0.03314429, 0.03142116, 0.01966585, -0.01723657, 0.04488065, 0.04086034, 0.03765073, 0.00332557, 0.00309411, -0.01024692, -0.02214593, -0.04633337, 0.00896266, -0.02570155, 0.05445023, -0.04567058, 0.00415216, -0.02629992, 0.00264871, 0.05359137, -0.02989363, -0.06259799, -0.03573456, -0.06417827, -0.00304190, -0.00144509, -0.01980686, -0.02694243, -0.05166961, -0.02308457, 0.03614653, -0.01585279, -0.01518031, 0.03703385, 0.02781960, -0.02239740, 0.00928715, -0.04065074, 0.01922996, 0.03509864, 0.04366987, 0.02163040, -0.02034876, 0.00426859, -0.02945641, 0.01423820, -0.04096130, -0.02537893, 0.04367562, 0.02762673, 0.04743960, -0.01390873, -0.03977253, -0.02206976, -0.05523733, 0.05623571, -0.01940239, 0.02369845, 0.02692452, 0.03599961, 0.03356145, 0.03221555, -0.00739632, 0.00785375, 0.05267748, -0.01840939, -0.04721463, 0.00019979, -0.00443980, 0.03157034, -0.05735012, -0.06138829, -0.01506068, 0.05335244, 0.02958103, -0.03143262, 0.03938244, -0.04647651, 0.02092868, -0.05330466, -0.02920070, -0.02427919, 0.05277136, -0.00522294, 0.00587922, -0.00077830, 0.04212543, -0.01653029, 0.02352616, -0.01334599, 0.02778265, -0.05450999, 0.03995426, 0.02820401, -0.04173529, 0.05283241, 0.04295947, -0.01723319, 0.00713353, -0.00288872, -0.01258085, -0.05705171, 0.00370353, -0.05767184, -0.00037340, -0.02897701, 0.04148933, 0.05510473, -0.03884419, 0.02014524, -0.04007045, -0.00252953, -0.01230468, -0.06503491, -0.03243900, 0.02054279, -0.04618632, -0.02562921, -0.01629264, 0.02733290, -0.02006782, 0.00723191, -0.02290110, 0.04650209, -0.06150525, -0.06672771, -0.00929902, 0.03492032, 0.01464003, 0.00526723, -0.04628018, -0.03390085, -0.05865037, -0.04124822, -0.05177814, -0.06356967, 0.05802667, -0.06219788, 0.01934200, -0.03595480, 0.00126151, 0.05180869, -0.05588880, -0.02621331, -0.01885095, 0.02673677, -0.03585648, -0.05265207, 0.00066026, -0.01051550, -0.03516077, -0.01786518, -0.00786357, 0.00292135, -0.01371934, -0.03151266, 0.04777501, 0.02007826, 0.00117672, -0.01386979, -0.01251652, -0.03336843, -0.01425116, -0.02618333, 0.03653619, 0.05208707, 0.04401579, 0.03344236, 0.01576293, 0.00169673, -0.02637649, -0.05771316, -0.04579017, 0.04344853, -0.04978403, 0.01719036, 0.01034108, -0.00394121, 0.01697638, -0.05300450, 0.03388772, -0.02522006, 0.00706300, -0.03098959, 0.03433388, 0.03626726, -0.03995262, -0.04203290, -0.03032203, 0.02295597, -0.00992939, -0.03223208, -0.02353568, -0.03121741, -0.00138962, -0.00158962, 0.04641594, -0.02905550, 0.02309848, -0.04030908, -0.01044132, 0.02400009, -0.00811317, 0.04588897, -0.02755078, -0.02009655, 0.00818349, 0.04774509, -0.05809720, -0.00512206, -0.03781728, 0.05996761, -0.02847683, 0.00570277, -0.02041378, -0.03484181, -0.06979462, 0.01851046, -0.05971995, -0.04224643, 0.04628058, -0.06147754, 0.04505674, -0.04712015, 0.04743584, -0.03338796, -0.06505192, 0.01245084, -0.01788455, -0.01848785, 0.02281525, -0.01498020, 0.01915347, -0.02421570, -0.05320713, -0.00716781, -0.05881482, 0.00642339, 0.03622205, 0.03192411, 0.01316623, -0.06220960, -0.00715035, 0.01625538, -0.03414278, 0.03981840, -0.02690499, 0.00118935, 0.00308277, -0.04805857, -0.05085301, -0.03977402, 0.02745298, -0.03565090, -0.06615533, -0.06442843, -0.01648442, 0.00127367, -0.02154348, 0.02308857, -0.03931954, 0.02499374, 0.01389404, -0.01544763, 0.03540019, 0.02326188, 0.01295463, -0.04806461, 0.00194333, 0.01964706, -0.01860150, 0.02140145, -0.00493006, -0.02822638, -0.04948037, 0.01739938, 0.03158553, -0.00825990, -0.04997779, 0.02559419, 0.03674911, 0.00258301, 0.03425452, 0.00998763, -0.00063269, -0.00050469, -0.00775901, 0.03954166, -0.02766234, 0.02938319, 0.02990743, -0.01598671, -0.05532344, -0.06622026, 0.05073537, -0.03637148, -0.00899947, -0.03255442, -0.05615185, -0.00429712, -0.02694621, 0.01664981, 0.04926255, -0.00555901, 0.03831298, 0.02322079, 0.01239656, -0.04009588, 0.03638345, -0.04653585, 0.05003749, -0.06882175, -0.02839666, -0.06557549, 0.00007763, 0.04121082, 0.04101214, -0.03991030, -0.05489764, 0.03460588, -0.00026348, 0.02563182, 0.03151989, 0.00152143, 0.00267812, -0.01759958, -0.02368555, -0.05840077, 0.04190933, 0.00513895, 0.02100453, -0.01287180, -0.03644998, -0.00229821, 0.00878618, 0.00042242, 0.04213315, 0.00136354, -0.00495426, 0.00108740, -0.00713763, -0.00925656, 0.01386909, 0.00283173, 0.04681417, -0.01076268, 0.04753556, -0.01731344, -0.00718549, -0.00261952, 0.00358040, 0.02632818, -0.02838032, -0.03033542, 0.03989442, 0.03619873, -0.01545647, -0.03902430, -0.03583647, -0.05462375, -0.00055221, -0.03522018, 0.04476811, 0.01712694, 0.01500217, -0.05773701, -0.06524005, -0.01861952, -0.03275000, -0.05987553, 0.04732470, -0.00750963, -0.06585594, -0.01762320, 0.03325662, -0.06210039, -0.06615263, 0.00078382, 0.00748527, 0.00108158, -0.04807853, -0.02239783, 0.04107897, -0.06779383, 0.03615265, -0.00664689, 0.00128752, -0.05659773, 0.04820147, -0.03976888, -0.02471473, 0.04041898, -0.00986521, 0.03991646, 0.03582660, 0.04882425, -0.06020744, 0.02704393, -0.06089135, -0.04972679, -0.03261337, 0.05427185, -0.05459271, -0.06478551, 0.00893552, 0.00429750, 0.01274521, -0.04438164, -0.04141071, -0.05607263, -0.01509595, -0.02703303, -0.06139011, 0.00275724, 0.02346392, -0.06133734, -0.02971228, -0.00217059, 0.00818255, -0.04968485, -0.07244174, -0.05945747, -0.06872977, 0.02634648, 0.00813065, 0.00385903, 0.04265983, -0.03598391, -0.02386440, 0.05575002, 0.02081869, 0.03414949, -0.01501756, 0.03290966, -0.05736091, -0.02466913, -0.00054227, 0.04001985, -0.01337447, -0.05797076, -0.02087322, 0.02999913, 0.05276400, -0.01706898, -0.06932998, 0.01166590, -0.03886810, 0.00851029, -0.06688691, -0.02338323, -0.01808765, -0.07052940, -0.03869211, -0.01608072, -0.04643638, 0.01473207, 0.01171567, -0.04916693, 0.01233726, 0.00169390, -0.03935625, -0.05515400, -0.01567275, 0.04706657, -0.04079343, 0.01610800, 0.05001716, 0.04002513, 0.00657570, -0.04080681, -0.04412624, -0.00126597, -0.01681813, -0.05504563, -0.00810692, 0.01433373, 0.01278646, -0.03240070, -0.06411527, 0.01797833, 0.01342720, -0.01783219, -0.04510826, -0.01991470, -0.02133017, -0.02843099, -0.06189581, 0.01960004, 0.03910230, -0.03814988, -0.04763777, -0.00959529, -0.02841995, 0.03469678, 0.03423002, -0.02751439, -0.04265324, 0.00246108, -0.03267103, 0.04721605, 0.02446525, -0.06532291, 0.01223670, -0.00492493, 0.02373885, -0.04697177, 0.02681093, 0.02557885, -0.06368870, 0.01328015, -0.00438364, 0.02352153, -0.04537868, -0.05770883, 0.04521861, -0.03019186, 0.02756084, 0.04623664, -0.03885939, 0.04353221, -0.01325582, 0.02091163, -0.06112349, 0.03642973, -0.04818108, -0.02978907, -0.03505188, -0.06217075, 0.04138661, -0.02516466, -0.01698267, 0.04910061, 0.03723172, 0.03597371, 0.02544034, 0.03489047, -0.05130043, -0.04485469, -0.03629487, -0.05278342, -0.04528281, -0.06075083, -0.07232060, 0.02246179, -0.04189630, 0.00710063, 0.02422559, -0.04745690, -0.01300338, -0.03190254, -0.01182602, 0.04819722, -0.06311305, 0.04257690, -0.00826431, 0.03871839, 0.04393394, -0.05975506, 0.04715292, 0.03284430, 0.05351114, 0.00828447, 0.01892862, 0.00376176, -0.00833261, -0.02213122, 0.04433129, 0.04533293, -0.03507577, -0.03487965, 0.05709588, -0.04810525, 0.00936683, 0.01541868, 0.02786602, -0.03325624, -0.01177803, 0.01644014, -0.03912848, 0.04847321, -0.04417596, -0.06255973, -0.03704969, -0.03185612, 0.02483730, -0.00045678, -0.04039677, -0.05356473, -0.01258504, -0.05722009, 0.04686444, 0.00968838, 0.04140204, 0.02952186, 0.01538537, -0.00614837, -0.04299004, -0.05547833, -0.03830788, -0.00310619, 0.01190425, -0.02837846, -0.06757849, 0.02909677, -0.00396020, -0.05240024, -0.03891777, -0.05894047, 0.02610262, -0.06578404, -0.01322647, -0.03263922, 0.04804301, -0.06735779, -0.02677375, 0.00927503, -0.04007110, -0.00920327, 0.03993594, 0.01077115, -0.03288550, -0.01998727, 0.03474294, -0.01162335, -0.05352816, 0.05445071, -0.04532398, 0.04090489, -0.03347238, 0.04190237, 0.04814403, 0.04262175, -0.01404986, 0.03241610, -0.02262082, -0.00289750, 0.01212111, 0.03267067, -0.01085414, -0.03016110, -0.03669457, -0.05846990, 0.00181150, 0.03960785, -0.04182865, -0.03436680, 0.02790824, -0.04620107, -0.04234281, 0.01917582, -0.02530409, -0.06424385, -0.05924807, -0.01388914, 0.02319315, 0.01696628, 0.02921055, -0.05032060, 0.02952419, -0.02223529, -0.02049819, -0.06219484, 0.03193154, 0.00936435, 0.02314140, -0.05420182, 0.00054682, -0.03841333, 0.01340274, 0.02420954, -0.06667788, -0.06280983, 0.00079846, -0.01990010, 0.00378944, 0.03164408, 0.00944381, -0.06799427, -0.02026749, -0.04794601, -0.06002261, -0.02226435, 0.04625373, -0.01636816, -0.05337059, -0.00370417, 0.00403439, -0.01344572, 0.05246805, 0.01165398, 0.03261624, 0.01916600, 0.00446404, 0.04695486, 0.00133113, -0.06727708, 0.04558584, -0.03058187, -0.03530408, 0.04022804, 0.00006343, -0.06050486, -0.00188103, 0.01380806, 0.04933247, -0.05970831, 0.02723350, 0.04871462, -0.01667062, -0.05046471, 0.01573991, -0.04912042, -0.06472294, -0.00066746, 0.02556546, -0.04609414, -0.01526278, -0.03934125, -0.00966216, 0.03223792, -0.05265394, 0.01042339, -0.02695465, -0.03307603, -0.00695696, -0.03891296, -0.04530860, -0.06725489, 0.04259820, 0.00862555, 0.01350970, -0.01282316, -0.01193725, -0.00758691, -0.01495976, 0.01848905, 0.00306513, -0.02421856, 0.04144881, -0.01015629, 0.03156085, -0.06533911, 0.02250622, 0.03880983, 0.02693604, 0.01347148, -0.03693463, 0.00238238, 0.04595004, -0.06773854, -0.00881283, -0.05494593, 0.05483008, -0.02969681, -0.06186296, 0.01898688, -0.04608235, -0.03962996, 0.02528108, -0.03445269, 0.05384842, 0.01379028, -0.05498273, -0.04409987, 0.00471834, 0.05509454, 0.02083815, 0.04163690, 0.01000458, -0.04625586, 0.01767960, -0.01921234, -0.05321832, -0.00794742, -0.03503721, -0.00249943, -0.05994542, 0.01355392, -0.03007926, 0.04782094, 0.01035604, -0.03992950, -0.06262092, -0.01613675, 0.02859096, -0.03376270, 0.01509823, 0.01079044, 0.01267173, 0.00651318, -0.00774319, -0.03591014, -0.03280900, -0.01996162, 0.05355363, -0.05855658, 0.00185523, -0.01279921, 0.00680601, -0.04121279, 0.01375767, -0.04671524, -0.02048490, -0.03376688, -0.04319497, -0.05813345, 0.01244892, 0.01061504, -0.05548675, -0.04444144, -0.00076637, -0.03168888, 0.04207920, 0.04688250, -0.00300406, -0.04128913, 0.00887799, 0.00177352, -0.06626733, 0.01465761, -0.01732369, 0.03821809, -0.05895464, 0.03893826, -0.02822196, 0.02127750, -0.02723175, -0.01777520, 0.04974177, -0.02949122, -0.02737486, -0.04156383, 0.01486414, -0.06450926, -0.06511557, -0.04604169, -0.04135416, -0.04931782, 0.03435365, -0.02715164, -0.02059413, 0.03538119, 0.00995835, -0.00515534, 0.05059854, -0.02080076, 0.00744476, -0.03520007, 0.01090470, 0.02161562, -0.03177660, -0.00467493, -0.00567806, 0.00063111, 0.00304101, 0.00552882, -0.01246096, 0.01595314, 0.06049550, -0.04698481, 0.00281727, 0.02161895, 0.03888578, -0.01461331, -0.05794538, -0.03330914, 0.01955302, 0.05645529, 0.03344153, 0.05236177, -0.06192317, 0.04975566, 0.05528262, -0.00917110, 0.05092927, -0.02978942, -0.03383418, 0.03704900, 0.00236874, 0.05480124, 0.01932504, 0.05192702, 0.00910544, 0.04678491, -0.00100040, -0.06272363, -0.05871554, 0.03939774, -0.04505448, -0.01353005, -0.05967025, -0.05074640, -0.00344613, 0.04194117, -0.04612710, -0.01860005, -0.05230721, 0.04905263, 0.04933756, -0.00569341, -0.00700439, 0.01941842, 0.03708161, -0.06817992, 0.00708542, 0.04439837, 0.02867642, -0.03023710, -0.00012882, 0.00702689, 0.00673360, -0.02704179, -0.04182954, 0.04816516, -0.05393536, -0.05851412, -0.00650399, -0.02683565, 0.04517781, -0.05452852, -0.04422117, -0.01716331, 0.04383373, 0.02380595, -0.02748954, 0.04052740, 0.02039463, 0.04493438, 0.01352500, -0.04966863, 0.03462626, -0.02240184, 0.03795297, -0.06061368, -0.03883547, 0.01715406, 0.05699370, -0.00475779, 0.01455635, -0.06374006, 0.04392840, -0.01233956, 0.03737825, -0.05293427, 0.04529224, 0.02664883, -0.02961089, 0.03006637, -0.04585007, 0.00085941, 0.05407665, -0.05989185, -0.01474608, -0.00377474, 0.01828774, -0.02316964, -0.03632848, 0.03088867, 0.00021480, -0.06342962, 0.01005328, -0.01133499, -0.05143883, -0.02085036, 0.03518219, -0.05208473, 0.05040771, -0.03035534, -0.01482958, 0.03146711, 0.04590422, -0.04256121, 0.04447110, -0.04075538, 0.01332145, -0.04895249, 0.05012600, 0.04240899, -0.01730324, -0.01161953, -0.01576793, -0.06449150, -0.02115458, 0.03445677, -0.01281131, -0.00429251, -0.00923167, -0.03327105, -0.00684701, -0.03254465, -0.01615380, -0.03688321, 0.04881092, -0.04545269, 0.01835585, 0.00154982, 0.04893092, -0.01821910, 0.02750008, -0.04884768, -0.01513700, -0.03230580, -0.01483830, 0.04832536, -0.06409071, -0.00713754, -0.04089383, -0.04170347, -0.39939669, 0.07413511, -0.08874550, -2.20772600, 0.24412400, 0.30648452, 0.01995276, 0.04754640, 0.10745944, 0.15087630, 0.01765648, -0.06292137, -0.06248119, 0.05592739, 0.22343172, -0.11719672, 0.20576054, -2.51373720, 0.09279110, -0.10365555, -0.06292463, 0.04582611, -0.05125155, 0.20400301, -0.90327001, 0.48013276, 0.62059742, 0.08539633, -0.57772511, 0.52812546, 0.18064949, 0.56977433, 0.23692800, -0.00679861, -0.00119955, 0.08118474, -0.01306175, 0.03276372, 0.70713443, 0.07737585, 0.18818423, 0.07238942, 0.05315103, -0.04472800, -1.18176246, -1.43162310, -0.00234820, -0.03694444, -0.00242502, -0.12258983, 0.06674211, 0.24967496, 0.02593436, 0.23362450, 0.01623465, -0.38515514, 0.06854609, -0.09557434, -0.19636962, 0.16914737, -0.00362718, 0.07647271, -0.02995681, 0.05007145, 0.10254705, 0.20889035, 0.99646354, 0.22105712, -0.02186133, 0.07586476, -0.00500260, 0.13714041, -0.18676506, 0.13159765, 0.03995935, 0.11403540, 0.15938610, 0.03343690, 0.27451968, -0.21051538, 0.06437835, -0.00223457, 0.18179487, -0.64346313, 0.15716884, 0.05399600, -0.03698277, -0.83516622, -0.10416443, 0.16772301, -0.29663327, 0.04142591, 0.12103243, 0.19104740, 0.56006616, 0.12864484, -0.10182790, 0.92931205, 0.15267375, 0.54097891, -0.06104909, 0.05280848, 0.11601679, -0.55374712, 0.23080845, 0.10360351, 0.54801935, 0.63394040, 0.22713643, 0.06998210, 0.15894356, 0.08794627, -0.15564190, 0.18753880, -0.14888066, -0.29020604, -0.17159735, -0.08212596, 0.07115825, 0.13947940, -2.10430431, 0.01175175, -0.01289588, 0.13000858, 0.12967259, 0.09626071, -0.40747374, 0.10121916, -0.11713978, -0.13582250, 0.11197518, 0.00152042, -0.06893830, 0.10963306, 0.05102769, 0.04661617, 0.03269202, -0.00776212, -0.05280259, 0.08864020, 0.69418335, 0.16313507, -0.01359847, 0.04509046, -0.10264127, -0.12956204, -0.04735255, 0.00512363, 0.14171810, -0.07313737, 0.87062126, -0.03603838, -0.11936263, 0.03097963, 0.12832618, -0.06061799, 0.08866774, 0.03045504, 0.29393116, 0.36463031, -0.17144024, 0.15219001, -0.01660241, 0.04574085, -0.04540535, 0.04027424, 0.12280831, 0.33611566, -0.05701667, 0.14758556, 0.06942800, 0.02749852, 0.23728845, 0.05762417, 0.04140037, 0.03709489, 0.19534858, 0.06966718, 0.06007211, 0.29233757, 0.30374190, -0.15119633, -0.00365329, -0.07071903, 0.06972978, -0.01097175, -0.11479472, 0.14822043, 0.02592147, 0.13106270, -0.07688797, 0.10405915, -0.13067059, -0.45237386, 0.03469733, -1.36300039, 0.03827555, 0.08708660, 0.02314368, 0.22524646, 0.21279734, 0.12893833, 0.16200966, 0.16599527, 0.09390417, -0.50715315, 0.47317904, 0.09173227, -0.17707060, -0.10341836, 0.24566570, 0.21230206, 0.19641156, -0.20219153, -0.01580570, -0.19711566, -0.07120570, 0.60380948, -0.17645518, -0.14066197, 0.08251274, 0.17119382, -0.00786924, -0.05123100, 0.13869703, 0.48034567, 0.15671457, -0.00302604, 0.16545877, -0.44884020, 0.16345285, 0.17824334, 0.22718827, -0.62603998, 0.00618694, 0.14012417, 0.23700513, 0.10389926, 0.22140473, 0.04444140, -0.03292165, -0.09420814, -0.01842510, 0.07756258, -0.21979702, 0.09614500, -0.20305815, -0.66244709, 0.13361931, -0.98900747, 0.18176246, -0.11691336, 0.01897365, 0.06763913, 0.14468087, -0.06186065, 0.03797939, 0.04185317, -0.00525237, -0.04503040, 0.03792015, -0.06169437, 0.04936150, -0.01813837, 0.06221887, 0.04250040, 0.03165985, -0.02895331, 0.04051034, -0.00452780, -0.06302708, 0.00023336, 0.02687702, 0.03949571, 0.04009276, -0.07120574, 0.01949650, -0.01107041, -0.02307259, -0.02491300, -0.02292996, -0.03392971, -0.04582191, -0.03501356, 0.05128076, -0.01104526, 0.04295465, 0.01705522, 0.03229962, -0.05789920, 0.00869415, 0.01906142, 0.00424257, 0.01821234, -0.06381942, 0.01326755, 0.02910845, -0.06100293, 0.04428298, -0.01669455, -0.04170890, 0.00423332, 0.04230355, 0.04200665, 0.01578790, -0.02995770, -0.01524124, -0.06483418, 0.00081664, -0.05137984, 0.01123083, -0.01030623, -0.06890566, 0.05678667, 0.05006280, -0.05221291, -0.06497638, -0.05097829, 0.04997036, -0.06682678, -0.04605328, -0.01302514, 0.06424097, -0.05050081, -0.05793306, -0.05783164, 0.00897724, -0.03138693, 0.01247382, 0.04875021, 0.04516380, -0.04585821, 0.00743304, -0.01695948, -0.03120921, -0.00786506, 0.01232160, 0.00606074, 0.04842290, -0.06150332, 0.00776531, 0.05473833, -0.04730458, -0.02975286, -0.02583061, -0.05137745, -0.05810135, -0.00808346, 0.04387743, -0.06112194, -0.03021136, -0.05198409, -0.02000024, -0.04257806, -0.04558037, 0.00956925, -0.05814836, 0.03254257, 0.00373915, -0.00980377, -0.03937802, -0.03309119, 0.04318595, -0.02764765, -0.05729401, 0.03004089, 0.01604394, -0.03983808, -0.01371067, -0.06027364, -0.01631349, -0.02847375, -0.05251847, 0.03768652, -0.01576886, -0.03627921, -0.03981801, 0.01565875, 0.04731853, 0.05136280, 0.04044072, 0.02834610, -0.07093185, 0.02323309, 0.02159144, -0.04714775, 0.03045875, 0.01679925, 0.04061193, -0.05272174, 0.01382127, -0.05936648, 0.02924525, -0.06466406, -0.06794048, -0.00287992, 0.02261579, 0.05826794, -0.04865025, -0.04681719, -0.00256157, 0.03537355, 0.03312215, -0.00276490, -0.01275509, 0.03051901, -0.05027915, -0.04370825, -0.00606037, 0.02275274, 0.01878238, -0.00019102, 0.01186442, 0.04572342, 0.06083236, -0.00871355, -0.05350608, -0.03321059, 0.03045982, -0.05320791, -0.02556621, -0.06319885, -0.02815798, 0.03589543, -0.01833502, -0.04719384, 0.00776800, -0.03668033, -0.05137815, -0.05661041, 0.04532368, -0.05493680, 0.05834864, -0.02290634, -0.00743144, -0.05571389, -0.05290437, -0.03599805, -0.00627178, 0.00280189, -0.04183497, -0.00141989, -0.02627213, -0.04097623, 0.01055127, -0.05178775, -0.05026421, 0.01928816, 0.04191579, -0.06217394, -0.01533999, 0.03146098, 0.01569375, 0.00478182, 0.00861512, 0.04106048, -0.04826913, 0.04834010, 0.03144282, 0.03924463, -0.04505078, -0.00835213, -0.00107121, -0.04794536, -0.01438025, 0.04386022, 0.00029262, -0.06061031, -0.00636857, 0.03462345, -0.02245909, -0.00198746, -0.00666449, -0.03825618, 0.00022202, -0.04548775, 0.05582424, 0.02277560, 0.04477631, 0.00982753, 0.04142849, 0.04770183, -0.06192417, -0.01258719, -0.01521780, 0.02798425, 0.03866360, 0.04374928, -0.06639116, -0.04368328, -0.06239466, 0.01325679, -0.00266221, -0.03553581, 0.01596191, -0.01578880, 0.01534342, -0.02165190, 0.05410173, 0.01569539, 0.02728894, -0.04152202, -0.05751030, 0.01948308, -0.01170398, -0.05624805, -0.03655013, -0.00376587, -0.02398985, 0.00433825, -0.04951688, 0.01488889, -0.02576388, 0.01326789, -0.06281805, -0.04951500, 0.00576184, -0.05810728, -0.01555578, -0.04574103, 0.05831484, -0.02173591, -0.09837227, 0.04055707, 0.00378090, -0.02808373, 0.01715710, -0.13493465, 0.02737654, -0.00614073, -0.06002322, -0.02720979, -0.06316055, -0.00316311, 0.05965902, -0.02298915, 0.03529930, -0.01026884, 0.05749046, -0.00280631, -0.05363708, 0.04758454, -0.06093068, 0.05232444, 0.04173605, 0.00145079, 0.01006555, -0.00628854, 0.03191071, 0.00561159, 0.04364892, 0.01216208, -0.02276638, -0.01471921, 0.03765379, 0.03598758, 0.01472654, 0.01978710, -0.04101937, -0.03820547, -0.02099574, -0.02890932, 0.06733454, -0.03438792, -0.06381559, 0.02210665, -0.03693067, 0.05478907, 0.04820664, -0.02097850, -0.01626994, -0.15296879, -0.06153761, -0.07379060, 0.00285384, -0.03080769, -0.02604922, 0.04112747, -0.01111435, -0.02192485, -0.01562327, 0.07247110, -0.12554221, 0.05309838, -0.01285920, 0.00574717, -0.04661603, -0.03965406, -0.03767850, -0.01712459, -0.03283222, -0.06726993, -0.05585871, 0.00897635, -0.06260161, -0.04670506, -0.05123749, -0.01184843, -0.01872862, -0.03212599, -0.02083364, -0.05598556, -0.03716382, -0.05567049, 0.05218365, -0.00693730, 0.11088119, -0.00857683, -0.08579534, -0.01024211, -0.02784481, 0.00216562, -0.08458154, -0.03055392, -0.06232147, 0.06912497, -0.03524968, -0.07712550, 0.03032702, 0.05354039, -0.08178053, -0.03230782, -0.08333754, -0.09944393, -0.04043823, 0.03608857, 0.10360494, -0.01710060, -0.07824059, -0.09025895, 0.00777503, -0.01134114, -0.02620357, -0.00483031, -0.03027100, -0.02137743, -0.05447738, 0.02204739, 0.03465620, 0.02613887, 0.02747451, 0.01791209, -0.01204192, 0.00984108, -0.04497953, -0.08192208, -0.04974521, -0.04413181, 0.04659807, -0.05334723, -0.06973264, -0.02068366, 0.00628307, -0.02873303, 0.03530559, -0.03531924, -0.04941347, -0.06926788, -0.06512361, -0.15236370, -0.04922873, -0.01882143, -0.01537294, 0.03976259, -0.01879147, -0.06006293, -0.02044782, -0.08452170, 0.01622179, -0.09369411, -0.09038166, 0.05008742, -0.06940873, 0.00615041, -0.02650098, 0.03415327, 0.00813956, 0.00996408, -0.01030123, 0.02774292, -0.14400838, 0.02199566, -0.04073551, -0.09376686, 0.01835150, -0.02310882, -0.08221684, 0.01978749, -0.04886993, -0.08367817, -0.13077338, -0.04289453, 0.05673420, -0.07411492, -0.08162521, -0.04022176, -0.06954335, 0.04381387, -0.07713006, -0.05785080, 0.01496696, 0.01755707, -0.02226948, -0.03460170, -0.05149458, -0.10300788, -0.00146984, -0.03395474, -0.03682825, -0.02518363, -0.06314535, -0.20894825, -0.06405472, 0.00988358, -0.15355846, 0.05239518, 0.00519621, -0.05351093, -0.00344401, -0.05806674, -0.10031204, -0.09217389, -0.06642631, -0.08962743, -0.17162816, 0.04473154, -0.01657982, -0.08021640, -0.07447633, -0.03093294, 0.03763361, -0.12125676, -0.02457205, 0.01321994, 0.07181917, -0.07861630, -0.05127363, -0.01714160, -0.04677044, 0.03561657, 0.00545025, 0.00191238, -0.03191131, -0.07457236, -0.03669488, -0.04920570, -0.00113365, 0.06057611, -0.04724856, -0.13143213, -0.02197077, -0.04628830, 0.02778773, 0.05521090, -0.05390720, -0.08745386, -0.15745464, 0.04679799, -0.11249015, 0.03141025, -0.04856316, 0.02790908, -0.05626572, -0.05595927, 0.01893389, 0.02503163, -0.07765805, 0.02253056, -0.01462987, -0.07453752, 0.01279936, -0.04249490, 0.03803373, 0.01334265, 0.00665514, -0.02279908, 0.00600133, 0.04539398, 0.02305524, -0.01354906, -0.07145617, 0.01299618, -0.02234754, -0.01417676, -0.00767151, 0.03752466, -0.03967080, 0.01677775, -0.02917715, -0.02565932, -0.04630967, -0.00649186, -0.00427148, 0.04454391, -0.02141025, -0.02337443, 0.02590216, -0.06019404, -0.02150548, -0.00501761, 0.04566242, -0.06313057, -0.01699989, 0.02605038, -0.04232447, 0.00157209, 0.00632075, -0.02031992, -0.00036245, 0.01950956, 0.01721688, -0.04716831, 0.00504862, 0.03018171, -0.01126985, -0.06657747, -0.02677191, 0.04187445, 0.00406720, 0.04671673, -0.03713851, 0.00507792, -0.03541175, -0.01382482, 0.02701436, 0.05562827, 0.03840935, 0.01960252, 0.02324742, -0.03658190, 0.04573968, -0.06101580, -0.03735603, 0.01647497, -0.03362485, -0.04506133, -0.06156138, -0.00168455, 0.00395039, 0.04429165, -0.03615899, 0.04503461, -0.01836996, -0.07771307, -0.06511166, 0.01109240, -0.05646231, 0.05279577, -0.06176761, -0.05161089, 0.03981384, -0.03523496, -0.04006899, -0.05938393, -0.01121241, 0.04186570, -0.06223251, -0.00547813, -0.04229609, 0.00106627, 0.02993100, 0.01674411, -0.03160138, -0.00557223, -0.05002977, 0.03979959, -0.03036967, -0.05590411, -0.06276625, -0.02609508, -0.01328258, -0.02490492, -0.02623966, 0.02549499, 0.02797048, 0.04122370, -0.04010759, -0.00375840, 0.00993423, -0.00391948, -0.02027328, -0.03303924, -0.05656112, -0.00482540, -0.06657339, -0.05499141, 0.02117539, -0.05548207, 0.03657087, -0.00600686, 0.01083518, 0.04187595, -0.02660098, 0.04014807, -0.05193035, -0.02111141, -0.07278721, -0.01447713, -0.06395754, 0.00703437, -0.03539011, 0.02783294, 0.00402706, -0.02219563, -0.05929195, 0.02119385, -0.02181260, -0.04907656, -0.03132726, 0.02181354, 0.00630649, 0.03736008, -0.08210795, -0.00578658, -0.06788043, -0.07256060, -0.00174287, -0.00290412, -0.05886297, -0.01951991, 0.04078208, -0.06643344, -0.00476825, 0.02606750, -0.06566033, -0.03694018, -0.05307021, -0.00749461, 0.00791406, 0.04536707, -0.03417976, 0.01979474, 0.01795392, 0.04872466, -0.02927634, 0.03070713, -0.04692855, -0.03175884, -0.04360910, -0.06856344, -0.04134417, -0.02721941, -0.04334263, -0.04844517, 0.03727082, -0.00505217, 0.04981291, -0.02897079, 0.04014823, -0.01431935, 0.02195557, -0.01894183, -0.06313084, -0.00114373, 0.02063769, -0.01487742, 0.03779477, 0.02287493, -0.02106436, -0.04125872, -0.05799882, 0.01690457, 0.00752539, -0.06243639, 0.01393461, 0.04434444, -0.04525672, 0.04956413, 0.00192524, 0.04606278, 0.02511940, -0.00537905, 0.04009395, 0.01677246, 0.04416020, -0.06697268, -0.03018556, -0.03487954, -0.04233120, -0.04522819, 0.02154609, -0.03205094, 0.00332943, -0.01810296, 0.00788328, 0.02688102, 0.01226658, -0.02494201, 0.02721732, 0.02296143, 0.03296060, 0.02124180, 0.05094946, -0.02766350, -0.01781608, 0.01970601, 0.03854712, 0.02986856, -0.06458835, -0.03208546, -0.03053158, -0.00302683, 0.00211967, 0.02963263, 0.02854909, 0.00139008, 0.00587735, -0.06819701, -0.00255832, 0.03429098, 0.03792473, -0.04929269, 0.05913381, -0.05531636, 0.04172243, -0.01148028, -0.02524887, -0.06479775, 0.04231443, 0.04532364, -0.05462992, 0.04260259, -0.05702484, 0.04639977, 0.03013752, -0.00588457, 0.01294081, 0.05222849, 0.04040301, 0.00487068, 0.02689928, 0.01593551, 0.04868551, 0.01531455, -0.06968356, -0.03049226, 0.01530477, 0.04340126, -0.06095855, 0.00143705, -0.01034796, -0.04924105, 0.02025409, -0.00065976, -0.00765005, 0.04436784, 0.01028072, -0.04093568, -0.05920547, -0.06898513, 0.05212158, 0.02384706, -0.05668826, -0.06081909, -0.04750436, -0.01855268, -0.03229589, -0.04301484, 0.03232750, 0.01984054, 0.01675460, -0.04950358, 0.01904798, 0.05167754, 0.02869584, -0.05180056, 0.02346290, 0.00778537, -0.04761096, -0.06302642, 0.01514767, 0.04346574, 0.04495470, 0.03713161, -0.05763030, 0.04185143, 0.01483224, -0.04162344, -0.01697964, -0.04598673, -0.00861327, -0.03482412, -0.02639792, 0.02861297, -0.06288818, -0.04937096, -0.04671495, -0.02304123, -0.06712023, 0.01563214, -0.02166792, -0.02042370, -0.04573639, 0.01000339, 0.02848661, -0.06776985, -0.02178119, 0.02508423, 0.01142206, 0.01759910, 0.00065669, -0.06388758, 0.01602294, 0.05091679, 0.02215297, -0.01847389, -0.03374058, -0.05736840, 0.00771063, -0.04326966, -0.00848168, 0.03796530, 0.01266121, -0.02910841, 0.03366598, -0.03290401, 0.00062553, 0.04564873, -0.01925426, 0.03078885, -0.01508797, 0.05598429, 0.03104459, 0.05830918, -0.00456297, -0.03728161, 0.04101554, 0.00909650, 0.04354723, 0.03937872, -0.04021743, -0.06363776, -0.03284620, -0.04789097, 0.01891035, -0.08183644, 0.04026401, 0.03997443, -0.05885931, -0.01414430, 0.03099202, -0.03860161, -0.00325857, -0.03770774, -0.03475424, -0.07111426, -0.05871145, -0.00100042, -0.00800433, 0.02029593, -0.01860185, 0.04719251, 0.00428028, 0.03956020, 0.00122614, -0.02954895, -0.04245719, -0.02788576, -0.05329159, 0.00276404, 0.02523124, -0.03998128, 0.01383307, -0.02812670, -0.02137304, 0.03656610, -0.05795341, -0.01439335, -0.02507530, 0.04671909, 0.05921295, -0.04634262, -0.00448092, -0.01041214, 0.04350429, -0.02205797, -0.00184867, -0.01131642, 0.00330220, 0.00900850, 0.01257105, -0.04950345, 0.00719093, -0.06002446, 0.01855655, -0.06146718, -0.05888055, 0.01511950, 0.01576618, 0.00200521, 0.04105100, -0.03611278, -0.03808069, 0.04109740, -0.01718485, 0.01869870, -0.04112542, 0.01552828, 0.00692537, -0.01089753, -0.04681839, -0.03968278, -0.05741355, 0.01778722, -0.00487469, 0.00371398, 0.04893224, 0.03079162, -0.01578405, 0.01559219, 0.04068735, -0.01699955, -0.06325486, 0.03468632, -0.03754099, 0.02523729, -0.04844555, 0.01790957, -0.07179988, -0.04448346, 0.06212249, 0.01082229, -0.06531841, 0.01479217, 0.01344993, -0.04460457, -0.03046569, -0.00841963, 0.02489189, 0.03824816, 0.04727809, -0.08528452, -0.05338769, -0.02303156, -0.00980367, 0.03139761, -0.03887174, 0.01568930, -0.05850474, -0.03854687, -0.05179066, -0.06990416, -0.04051064, -0.05396082, -0.01287113, -0.02874822, 0.00209925, -0.00233190, 0.00467425, 0.04631115, 0.03110596, 0.04418481, 0.01672903, -0.05010597, 0.03184830, 0.00125976, 0.05215757, -0.02504290, 0.04221924, -0.00280796, 0.03042190, 0.01503945, -0.04304319, 0.01731080, -0.01977911, -0.06927847, -0.04881585, -0.01934621, 0.00374384, 0.00537104, -0.03493389, 0.01844732, -0.03356580, 0.04400448, -0.01235160, 0.02420905, 0.03393496, 0.00049278, -0.04137370, 0.04818223, 0.04211909, 0.02205554, 0.00610995, -0.01148107, -0.02715548, 0.04730170, 0.00862208, -0.03347617, -0.05721214, 0.00953487, -0.06002404, -0.02788354, 0.04534365, -0.02497859, 0.01055648, -0.04314703, -0.06707253, -0.04833690, 0.04674235, -0.00936642, -0.01307582, -0.06289396, 0.04538062, -0.01556510, -0.02428396, -0.01289114, 0.04393877, -0.05636136, -0.04268521, 0.04825214, -0.03047276, -0.03282360, -0.00594215, -0.01650474, 0.00641831, -0.00903626, 0.05001136, 0.02657839, -0.04110797, -0.04461763, -0.04339978, -0.03403604, -0.05499165, -0.04709113, -0.03710997, 0.02721130, 0.02753374, -0.00609825, 0.04530530, 0.01865896, -0.05463717, -0.04174330, -0.03722207, -0.06920337, 0.03898766, -0.03272946, 0.01667605, 0.00165889, -0.01500831, -0.03251290, 0.05352689, -0.04133517, -0.05970874, 0.00846379, -0.03847804, -0.01345371, -0.02653252, 0.01523270, -0.04237719, -0.01058314, 0.00788222, 0.05418323, -0.00251341, -0.01073750, 0.02271508, -0.03714865, -0.05935907, -0.01973668, -0.00722744, -0.01318774, -0.01043971, -0.00753935, -0.01773029, 0.04685491, 0.02644946, -0.00609073, 0.02079958, -0.05470404, -0.03872529, -0.02463550, -0.01778143, -0.04715389, 0.01879821, 0.05635363, -0.04884615, -0.04013451, 0.00563935, -0.00134896, -0.01050131, -0.00998760, -0.03689576, 0.05135998, 0.00567882, -0.00195836, -0.01705750, 0.00160978, -0.03496389, -0.01107450, -0.03927523, 0.01066235, -0.05651584, -0.03730394, 0.01296832, -0.01681229, -0.01349474, -0.01134785, -0.05474674, -0.05624338, 0.02494208, 0.03959078, -0.01956012, 0.04888474, -0.02496920, 0.02165530, -0.06123888, 0.00478575, 0.05608621, -0.02068331, 0.01710712, -0.00505094, -0.02513720, -0.00388769, 0.04967480, 0.05104397, -0.04263172, 0.00322553, -0.03989330, 0.05531136, 0.00374599, 0.01855827, 0.00892743, 0.05016330, -0.04190459, -0.06227120, 0.01508997, -0.05802531, -0.01535996, -0.06371879, 0.03732436, -0.00027375, 0.01968597, -0.05963489, 0.02292284, -0.00287231, 0.00989741, -0.04650695, 0.00657068, -0.04575515, 0.03846742, -0.00170957, -0.04057175, 0.05490132, 0.00964228, 0.02381196, -0.05978704, -0.03310242, -0.06520023, 0.04791217, 0.03806809, 0.01743642, -0.03906340, -0.02140399, -0.02663317, -0.06737388, -0.03963888, -0.00664068, 0.05413158, -0.02902015, 0.03368790, -0.02533762, -0.05929854, -0.06552600, -0.04807931, 0.03629252, -0.01559230, 0.04978419, -0.00761926, 0.03031546, 0.03565996, -0.06511887, 0.01389464, -0.03190875, 0.04513765, 0.00653480, 0.02881554, 0.00371681, 0.01929306, 0.03990831, -0.00962454, 0.02788854, -0.05240866, -0.00552468, -0.03648941, 0.03585710, -0.03113660, -0.03012207, -0.06466318, -0.04816032, -0.03205421, -0.05782457, -0.06684715, 0.03997947, -0.02532077, -0.02308570, -0.04943563, 0.03886347, -0.05934086, -0.06005329, 0.03264081, -0.06766549, -0.02499725, 0.05101990, -0.01748894, 0.03507340, -0.00405321, -0.03830304, 0.02392210, 0.01454659, -0.03677442, 0.04894896, 0.05365449, -0.00172578, -0.05201834, 0.04093706, -0.04812597, 0.01705958, 0.03022925, 0.03102129, 0.01237140, -0.00922706, -0.01700047, -0.03989137, 0.00281592, -0.06861721, -0.05278546, 0.01723125, -0.02820261, 0.02631533, 0.00015862, 0.02174253, 0.01736872, -0.00562902, 0.04047012, 0.01688063, 0.02743140, 0.03053985, -0.05102728, -0.01099986, -0.06579797, -0.04865291, 0.00359376, 0.03320839, -0.01089964, -0.02882794, -0.05180632, -0.00175694, -0.00120288, -0.02090047, -0.03137479, -0.03061157, -0.02501396, -0.06464790, -0.02133840, 0.01121260, 0.05152580, -0.01372695, -0.04274822, 0.00419666, 0.05108183, -0.00287458, 0.02575121, 0.00673318, 0.02249731, -0.04957331, -0.01847325, 0.05250442, -0.04614430, -0.04917482, -0.03677928, -0.02701329, -0.04872165, -0.03369544, -0.02809651, -0.03362885, 0.04637719, 0.02609845, -0.02089995, 0.02723272, 0.05199976, 0.06074661, -0.02662816, -0.06560989, 0.04549022, -0.01075535, -0.04811404, 0.01495028, -0.06529537, -0.04437765, 0.04010365, -0.00642526, 0.04000902, -0.02079518, -0.01018390, -0.05439961, 0.02905688, -0.01846456, -0.04157560, 0.03342469, -0.02687294, -0.05236936, -0.00486562, -0.05619781, -0.02886665, -0.05815158, -0.04475592, 0.05020505, 0.04020082, 0.05395779, -0.00636311, 0.01751800, -0.04773781, -0.01879080, -0.01729744, 0.05087565, 0.05334754, -0.02494750, 0.03335680, -0.05334802, 0.02172046, 0.03665551, 0.01784001, 0.04811360, -0.06551888, 0.03995696, -0.07012928, 0.02066309, -0.03862267, 0.01939392, 0.00102633, -0.04811386, -0.02815187, -0.04679524, 0.02195427, 0.02673246, -0.02715770, 0.04756849, -0.02711350, -0.05395162, -0.03213193, -0.00178465, 0.00413774, -0.04711200, 0.03584422, 0.01404982, 0.04455234, -0.00726873, 0.04586203, -0.05253768, 0.02785309, -0.00105163, -0.04445219, 0.03403865, -0.02830724, 0.00407039, -0.06044538, 0.03026838, 0.02350055, -0.05023503, 0.04523480, 0.01440235, -0.00824068, 0.02916290, -0.00426526, -0.06943178, 0.01586447, 0.00145439, 0.02126490, -0.02243961, -0.02008062, 0.06113028, -0.02266798, 0.02129806, -0.03955446, 0.03352311, -0.04256030, 0.03857976, -0.03964458, -0.03230346, -0.00788170, 0.04056647, -0.01522316, 0.02275429, -0.04556279, -0.00859226, -0.04496251, -0.04027306, -0.04956456, 0.03360044, -0.04505586, -0.06617986, -0.00572166, -0.03793025, 0.03232048, -0.04977465, 0.01872519, 0.02869647, 0.05442202, -0.01571566, 0.05692194, 0.03022077, 0.01221814, 0.02101969, 0.02042643, 0.03953933, 0.02523902, 0.00342576, -0.00684669, -0.00440813, 0.00996838, -0.00175523, 0.05474253, -0.00734093, -0.06646214, 0.03003074, 0.02422419, 0.00201132, 0.00221464, -0.06132621, -0.02821986, -0.02840344, -0.01739398, -0.06760977, -0.00822781, -0.04402551, 0.02277139, 0.01196471, 0.00392450, 0.02590958, -0.01580835, -0.05563979, 0.04147610, -0.03798824, 0.03042341, -0.04182572, 0.03283020, -0.05096970, -0.05245139, 0.03162228, -0.01735155, 0.04156437, -0.00836629, -0.00669359, 0.01476280, 0.00748557, -0.03503781, -0.02235810, -0.03510838, -0.05416128, 0.04014491, 0.01785466, -0.02119925, -0.03686333, 0.01204427, -0.03510145, -0.06517868, 0.03655547, -0.06531976, -0.04913701, -0.03305966, -0.00207226, 0.03080146, -0.06553553, -0.05350931, -0.04405068, -0.05612916, -0.03692054, -0.06327705, -0.01199711, 0.01208570, 0.02862253, -0.03441685, -0.04037986, 0.02718500, 0.01431253, -0.04858292, -0.05372595, -0.03061507, -0.00872530, 0.05314739, 0.04627709, -0.07345054, 0.03429069, -0.03628772, -0.05324067, -0.00168399, 0.03637129, -0.05661678, -0.03784026, 0.04609362, -0.07244668, 0.05403240, -0.03945563, -0.06159465, -0.00502545, 0.05010705, -0.03677589, -0.03300448, 0.02093242, -0.04643030, -0.05828288, -0.05268206, -0.00895749, 0.04300074, 0.02104174, 0.04519531, 0.01527977, 0.05163172, 0.04837120, -0.00342832, 0.01109386, -0.04823653, 0.00170638, 0.01989559, -0.01218159, -0.05823370, 0.05391590, 0.01652130, 0.01366654, -0.00999689, 0.01489336, -0.06529931, 0.01784170, 0.00931811, -0.06320470, 0.01361409, 0.00068929, 0.05254094, -0.00510917, -0.02704117, -0.06804191, -0.01398594, -0.06357575, -0.05721313, -0.00809396, 0.03874932, 0.02153031, -0.04346076, 0.02497990, -0.04890816, 0.03145303, 0.01149984, -0.03863163, 0.00995988, 0.02370423, -0.02494556, 0.00608334, 0.01150874, -0.04979661, -0.03649835, -0.03349768, -0.03476866, -0.05569819, -0.03295119, 0.00278582, 0.03949844, -0.02266352, -0.01721553, 0.01542686, 0.03460517, 0.01615025, 0.01536093, -0.03057223, 0.03245502, -0.04421388, -0.06585699, -0.05691431, 0.02197530, -0.03620726, -0.00810485, -0.04947952, -0.01778296, -0.01358460, -0.04686397, -0.05978542, 0.03290475, 0.03887254, 0.02988007, 0.02227565, -0.02311261, -0.05351765, -0.01157536, -0.00977841, 0.04645761, -0.01216715, -0.06645755, -0.01741340, -0.02907583, 0.02069308, -0.00553876, -0.02949794, -0.06140545, 0.04951057, -0.02540035, 0.00139239, -0.01657471, 0.05349921, -0.05321258, 0.00182238, 0.06186809, 0.01241052, 0.03728182, -0.00884833, 0.00905240, -0.03370559, -0.02680393, 0.04198466, -0.01630971, -0.02259300, 0.04626316, -0.04378457, 0.01639086, 0.01963478, 0.00495834, 0.03464606, -0.00036138, 0.05609196, 0.03809882, -0.02381601, 0.00060539, -0.03567907, -0.00245697, 0.02730104, -0.03706462, -0.02672096, -0.02886995, -0.06198993, -0.01504832, -0.01284763, 0.03770703, -0.05921044, -0.02392175, 0.03393739, 0.05287138, -0.04278066, 0.02111405, -0.00291924, 0.02265083, 0.05651550, -0.01304408, -0.04445352, -0.02580284, -0.00555811, 0.00292031, -0.06821043, 0.03960078, 0.03681577, -0.05010663, -0.04291636, -0.02274369, -0.03151514, 0.04807602, 0.04466309, 0.03314584, 0.04634215, -0.01961428, 0.04113071, 0.01002781, -0.06661510, 0.00888212, -0.05617068, -0.05802017, 0.00018276, 0.03493222, -0.06340594, -0.04439657, -0.06673735, 0.03622091, 0.04870775, -0.00814539, 0.00493477, 0.00971355, -0.04820770, -0.02564035, -0.02972399, 0.00950599, -0.06369215, -0.06475937, -0.00935690, -0.04244668, -0.06654977, -0.05914945, 0.05242662, -0.05818676, -0.03337722, -0.02429530, 0.03958616, -0.02537939, 0.05419417, -0.06139514, -0.01260877, -0.05379150, -0.01041156, -0.02708169, 0.04363757, -0.00826281, 0.03019269, 0.04917766, -0.05160281, -0.02632836, 0.03626458, 0.00560066, -0.01540003, -0.05732890, 0.05277688, 0.04850239, 0.01075010, -0.06374747, -0.00925470, -0.01188144, -0.02903137, 0.02938291, -0.03551252, -0.04352692, 0.02095537, -0.00705940, -0.03210849, -0.04846288, -0.04861085, 0.05571300, -0.01229010, -0.01474795, 0.03101097, 0.04282271, 0.04148957, -0.00972913, -0.03610832, -0.03578965, -0.00911619, -0.04252531, 0.04406020, 0.01157226, 0.02937658, -0.02863566, 0.04489714, 0.05585184, -0.03925266, -0.04406641, 0.00043442, -0.01492346, -0.02899063, 0.00294292, -0.00469982, -0.06776335, 0.04691059, 0.01672837, -0.01411605, 0.00214193, 0.03572026, -0.03291915, 0.02134986, -0.03887949, -0.02021950, -0.07226092, -0.05582266, 0.02527795, 0.02982092, 0.03829116, 0.03275414, -0.06777793, 0.03741805, 0.03339559, -0.02676976, -0.02859783, 0.04874412, -0.05251108, -0.05072094, -0.06809001, -0.02730431, -0.06662077, -0.04188548, 0.03185301, 0.02313958, -0.04624961, -0.06479877, -0.02422418, 0.05445744, -0.01498052, -0.05772736, -0.00892456, 0.03218652, 0.03304745, 0.03243471, -0.06796238, -0.06401619, -0.05268351, 0.04752949, -0.05137617, -0.01031939, 0.00257899, -0.04014055, -0.02804814, -0.05953802, -0.00203291, 0.00578257, -0.05890469, -0.07006229, -0.03161392, 0.00048221, -0.03995788, -0.06122536, 0.03517812, -0.06025988, 0.00565599, -0.01256356, -0.03262749, -0.06652434, -0.03990370, -0.02512443, 0.04286394, 0.05293752, -0.02864648, -0.06070538, -0.03188876, 0.05503901, -0.05574334, -0.02489333, -0.01523598, 0.00774936, 0.03586005, -0.03882016, 0.01454912, -0.00175256, 0.06013938, -0.00395155, -0.06032811, -0.05842978, -0.03035149, -0.03336810, -0.00478755, -0.02818861, 0.04549563, -0.02030645, 0.03962539, 0.03468339, -0.02561027, -0.07270090, 0.00986678, 0.04342121, 0.00724185, -0.04733551, -0.04247482, 0.04895106, 0.02804278, 0.01274036, 0.05344088, -0.00583312, -0.01357765, -0.03300289, -0.06138949, -0.05906244, 0.01517116, -0.03626489, 0.00459295, -0.06589305, 0.02454733, -0.01200266, -0.04782913, 0.03759811, -0.04113264, 0.02871214, 0.03839662, 0.01461848, -0.01161747, 0.02397036, -0.04523509, 0.02515285, -0.01521260, 0.03902330, -0.02970201, -0.06136773, 0.00997441, 0.04157671, 0.00454281, -0.02882239, -0.05338124, -0.00091372, -0.04385176, 0.02703919, -0.04685428, 0.03635124, -0.03901165, -0.06766607, 0.02290398, 0.00257907, 0.01869863, -0.04168179, 0.01071483, -0.04565530, 0.01173362, 0.04279948, -0.04908217, 0.00916760, 0.03106059, 0.02641721, 0.05248331, -0.03600725, 0.01906843, -0.06766020, 0.00304677, -0.04788538, -0.06160862, -0.00896530, -0.06566997, -0.04294993, -0.00416123, 0.01427149, 0.03966212, -0.01105095, -0.05514441, -0.01878396, -0.00757663, -0.00167936, -0.00676752, -0.06196801, 0.00615066, 0.01848536, -0.05118740, -0.00284898, -0.05206506, 0.00925992, -0.01311760, -0.00562610, -0.04972234, -0.06476229, 0.03373193, 0.01311917, -0.04808708, -0.01291496, 0.06418413, 0.02535569, -0.02782245, 0.04401950, 0.03078421, 0.02165722, -0.04269672, -0.06185034, 0.01874331, 0.04720658, 0.01066146, 0.03437662, -0.02263086, -0.04611160, -0.02624006, -0.01762781, -0.01460393, 0.03325735, -0.02060778, -0.05949661, 0.01849560, -0.02485404, -0.00905608, 0.00958184, 0.04797244, -0.02812391, 0.00904465, 0.00872721, -0.06438637, -0.00274253, -0.05955372, 0.00364444, 0.03559570, 0.03608155, -0.04098911, 0.04368755, 0.01118473, -0.05897389, -0.04103211, -0.01430010, -0.01658516, 0.01127304, -0.03734345, 0.04270804, 0.02409767, -0.00183211, 0.01307351, 0.00391523, -0.01290207, 0.01220654, -0.01626018, -0.04150108, -0.03307589, 0.01859423, -0.04812432, 0.02817592, 0.01974378, -0.00803983, -0.05932621, -0.04648604, 0.03707680, -0.04536717, -0.00961428, 0.00469482, 0.03789090, -0.04504297, -0.05909403, -0.06875338, 0.04319351, 0.00895390, -0.06343882, 0.00700266, -0.02516932, -0.05050419, 0.01713254, -0.05995476, 0.05497314, 0.02157001, -0.04496229, -0.00652331, 0.00459044, 0.05130415, -0.01477169, 0.02710187, 0.00871037, -0.00843290, 0.02606088, 0.02935169, -0.00238456, -0.05626281, 0.02967881, -0.07663327, -0.06773686, 0.02464260, -0.01197786, -0.06316309, 0.03141078, -0.05108607, -0.04548034, 0.02563101, -0.00700959, -0.00623914, -0.06874672, 0.04635001, -0.04460849, -0.05846469, 0.03805796, -0.03086166, -0.06641528, -0.00534340, 0.00719964, 0.02205621, -0.02939123, -0.06765904, -0.03050130, -0.01958093, 0.01992090, -0.00018432, -0.04280914, 0.05018046, 0.04334239, -0.00662708, -0.07655941, -0.07249520, -0.02479809, -0.03432245, -0.02727064, -0.06651805, -0.03573130, -0.01142470, 0.00968146, 0.02432070, -0.05340248, -0.06621844, -0.04266983, 0.02268662, -0.01650973, -0.05839140, 0.02229227, 0.01524041, 0.02989875, -0.02490569, -0.03405409, 0.05476991, -0.06215705, -0.02986046, -0.00450084, 0.00803092, -0.05649580, 0.04666097, 0.03759066, 0.03038338, 0.04137791, -0.03804558, 0.02096497, 0.01459661, -0.05704788, 0.03784645, -0.02155755, 0.00127639, 0.01775277, 0.02088735, 0.02433454, 0.03137152, 0.03458740, 0.03573797, -0.02607816, -0.07325797, -0.05993219, 0.04349348, -0.00355173, 0.04043518, 0.01964958, -0.05896183, -0.03145735, 0.03731333, 0.01613051, -0.06804041, 0.03574052, 0.00314034, 0.05229660, 0.03865416, -0.03175439, -0.03046853, -0.09933370, 0.04076210, -0.00492775, 0.00769948, 0.03518095, 0.02722754, -0.00739656, 0.00210369, -0.05861535, -0.05677783, -0.04293740, 0.01834102, 0.00745276, -0.03334461, -0.05617845, -0.04420828, 0.01849308, 0.00464685, -0.02565234, 0.02219621, -0.04146696, -0.02815922, -0.02488567, -0.03773412, 0.05399026, -0.07239351, -0.01342561, 0.03090439, -0.06155478, -0.00000668, 0.07381667, -0.03692824, 0.05392168, 0.00355635, 0.01548884, 0.02929848, -0.04386473, -0.01488644, 0.04260473, -0.00169486, -0.00730092, -0.06910982, 0.03590731, -0.03620765, -0.03533615, -0.07127085, 0.04229635, 0.00030432, -0.04286369, 0.01032891, -0.01529596, 0.00934696, -0.05753965, 0.00396108, 0.01058064, -0.01671382, 0.01259982, -0.00251519, -0.06353185, -0.03382132, 0.02709370, -0.04343353, 0.03617803, -0.04562608, -0.04141594, 0.02874050, -0.04088211, -0.00299137, 0.03772504, -0.04531252, -0.04234292, 0.05381187, 0.05110060, -0.06946355, 0.00803380, 0.03700814, -0.06014393, 0.03619995, -0.01585857, 0.00832039, -0.05922387, -0.04250833, 0.05067867, 0.02725517, 0.02496635, 0.03955478, 0.03091742, 0.03094807, -0.03844797, -0.02587917, 0.04342552, -0.06000856, -0.04228406, -0.03964676, -0.05296626, -0.02896397, -0.01997008, 0.05051500, -0.03584520, -0.05163785, -0.02087473, -0.08040638, -0.03256404, -0.01230170, -0.03714864, 0.00230481, -0.02000167, -0.03137813, -0.00636099, -0.05408520, 0.05668078, -0.04784884, 0.00671431, -0.04694667, 0.04188145, -0.04639856, -0.06561068, -0.03952207, -0.00229910, -0.01307151, -0.06541456, -0.00601162, -0.03071643, 0.00426801, -0.03964296, -0.01287655, 0.03231606, 0.02812589, 0.03533414, -0.03259325, -0.00585905, 0.00709684, -0.00469116, 0.00138868, -0.08405169, 0.00412483, -0.00826162, -0.03991732, -0.07359352, 0.05893862, 0.01472691, -0.07367333, -0.03445202, 0.01525879, -0.02383843, -0.00085249, -0.02711668, -0.00743268, 0.00129580, -0.01486187, -0.03468866, -0.06010687, -0.04020450, -0.04175634, 0.04470651, -0.01975708, -0.06544127, -0.06902441, -0.02157430, 0.03338224, -0.02818367, -0.02340603, -0.04898597, -0.02854295, 0.03173207, -0.04620169, -0.07385076, -0.03392875, -0.06881879, 0.01432025, -0.01544713, 0.05342234, 0.04866693, -0.06159705, 0.02017066, 0.05683704, -0.04905622, 0.03285289, -0.00881775, -0.01763170, -0.04526004, 0.00843815, 0.00628856, -0.02264147, -0.00429742, -0.02697434, -0.02847631, -0.08206435, -0.05883725, 0.02996701, 0.04755516, 0.05354406, 0.05379825, -0.02816335, 0.03192759, -0.05191591, -0.02039591, -0.06281506, 0.01924524, -0.02812991, -0.05157014, 0.02022430, -0.06995738, 0.01312361, -0.04743459, 0.00156323, -0.07032219, -0.05469810, 0.04071950, -0.05997444, 0.00065394, 0.00583537, -0.03990340, -0.05054541, -0.06776436, -0.00686947, 0.04745588, 0.03111468, 0.04997794, -0.03756896, -0.04849970, 0.02021014, -0.03987127, 0.02913678, 0.00869760, -0.02627332, -0.01553989, -0.07371340, 0.01146025, 0.03243802, -0.01224210, 0.02132152, -0.04352652, 0.01788772, 0.05109162, 0.04194595, 0.03563748, -0.05817179, -0.02734373, 0.05036221, 0.04769591, -0.06356993, -0.01842933, -0.00794892, 0.03434207, -0.02306707, -0.01932437, -0.03555462, 0.03956078, -0.00533371, 0.00713592, -0.01331480, 0.01985761, 0.00437515, -0.02551131, -0.06698448, 0.03894202, 0.00610279, 0.03878040, -0.07897980, 0.04143795, -0.04146336, -0.03989922, -0.01928651, 0.03567193, -0.00598277, -0.07848176, -0.00398843, 0.02626246, -0.10564183, -0.09738830, 0.04510103, 0.02009202, -0.01162634, -0.05630048, -0.02347255, -0.00446876, -0.05346892, -0.04988022, 0.00605167, -0.04168241, -0.03911255, -0.05067199, 0.03306291, 0.02060641, -0.02741037, -0.06286807, -0.06196240, -0.03513138, -0.01633884, -0.04715812, 0.00307647, 0.04331394, -0.02610080, -0.01892971, -0.03673245, 0.01359673, 0.05101607, -0.03252227, 0.03632345, -0.01633564, -0.07036345, -0.00594870, 0.00060100, 0.03675118, -0.01920844, -0.05667506, -0.01417339, -0.06263801, -0.06565677, 0.00765886, -0.06368650, 0.03370305, -0.07174055, -0.04465080, 0.03451202, -0.05021555, -0.06262338, 0.01924028, 0.04810898, 0.05253593, 0.01523697, -0.04339379, -0.00776153, -0.03830387, 0.02855651, -0.02505524, -0.05691486, 0.05141344, 0.01064781, -0.01592687, 0.03058445, 0.02432692, -0.05485386, -0.08159068, 0.02242041, 0.03404763, 0.04023154, 0.03373500, -0.02598462, 0.01181159, -0.11355096, -0.07872591, 0.00720229, 0.04775538, -0.04958545, -0.03757123, -0.09348410, 0.01374972, -0.01134078, 0.00047203, -0.07072207, 0.04720153, -0.02122251, -0.00573533, -0.00707365, 0.03279111, 0.02426054, -0.03816684, -0.03700248, -0.03596029, -0.05116077, -0.05810799, -0.03652318, -0.03338681, -0.04266239, -0.07582857, -0.07876001, 0.03358789, -0.03769398, 0.04932218, 0.01344613, 0.03890780, -0.00683307, -0.00996965, -0.07333491, -0.07986251, -0.05008689, -0.04751980, -0.12957868, -0.02055040, -0.03154691, 0.04178198, -0.05263592, -0.00046103, -0.09262942, 0.01756337, 0.01940641, 0.00209984, 0.04747250, -0.04240059, -0.04244648, -0.08347499, 0.01218120, -0.01175816, -0.03123163, -0.03483203, -0.01231004, -0.06813802, -0.00144790, 0.03855100, -0.02119396, -0.02044101, 0.00020097, 0.03822654, -0.07292183, -0.05547831, -0.06955310, -0.05411876, -0.02954880, 0.03638812, -0.03670249, 0.04471383, 0.01596017, -0.02993309, -0.03530228, 0.04179200, 0.04071869, -0.02366560, -0.05944304, 0.01310671, 0.02199463, 0.03699494, 0.00853177, 0.04910331, -0.04968682, -0.05992407, -0.05776291, 0.04931435, 0.04418000, -0.02206696, 0.04698981, -0.03071436, -0.02407697, 0.03203120, 0.01621418, -0.03637248, -0.04185951, -0.03972005, 0.04202496, 0.01265714, -0.01785130, 0.02383423, -0.02097742, -0.00636795, -0.03520496, 0.00020097, 0.01911610, 0.01413954, 0.02080947, -0.03462645, -0.02913194, -0.06117792, -0.00058356, 0.00448965, -0.00286801, 0.00952871, -0.05599339, 0.03282654, -0.04646104, 0.01148110, -0.03612637, 0.01289501, -0.07556125, -0.07524952, -0.03170654, -0.04226742, -0.00914037, 0.00646859, 0.01782045, -0.00540915, -0.04694901, -0.01707213, -0.00688379, -0.02481560, -0.02902183, -0.06039632, 0.04284157, -0.04169803, 0.00837498, 0.03886385, -0.06958362, -0.01790654, 0.03353295, -0.02236549, -0.06034315, -0.03521270, -0.03622916, -0.02195456, -0.02327855, -0.01732286, 0.00259188, 0.00881909, 0.02810066, -0.04090182, -0.07184158, -0.01500730, -0.01369375, -0.05879269, -0.02702091, 0.01769391, -0.06152481, 0.01093830, -0.02748557, 0.02211632, -0.06521379, -0.05435437, -0.05617680, -0.06285946, 0.02446942, 0.04876910, -0.05337702, -0.02270646, -0.05159381, -0.05671878, -0.03819310, -0.06002711, -0.05188774, -0.03252897, -0.07950313, -0.04648138, 0.00299457, 0.02173272, 0.00745272, -0.02645281, 0.00010522, 0.00986303, 0.00012795, -0.09023277, -0.06494474, 0.00161190, -0.00538752, 0.03943355, -0.04902335, 0.01939599, -0.03311483, -0.00639430, -0.05044040, -0.06564972, -0.03848452, -0.01077150, -0.08737317, -0.02440490, 0.02449643, -0.05658839, 0.01019200, 0.00123994, -0.04380761, -0.06232613, -0.04478295, -0.01163627, 0.03187369, -0.05084356, 0.00417287, -0.03229290, 0.04348201, 0.03906498, 0.00619341, -0.00161151, -0.00777223, 0.00010838, -0.00606663, 0.03226319, -0.01474180, 0.03440250, -0.02547399, -0.04802454, -0.06619971, 0.02582943, -0.05589996, -0.06030451, 0.04087112, 0.00945356, 0.00457577, 0.02589523, 0.02460198, -0.06300382, -0.01933571, -0.07798877, -0.01803740, -0.02940689, -0.06776216, -0.03246009, -0.06362914, -0.04681992, 0.02745302, -0.02188484, -0.00317683, -0.05117207, -0.00535167, 0.04865773, 0.00303817, -0.05514129, -0.03399188, 0.00668153, -0.09471040, 0.01489576, 0.02822334, 0.03477556, -0.08605950, -0.00954759, 0.01539551, -0.08359797, -0.07022497, 0.00303011, 0.01308959, 0.04814238, -0.04376046, -0.00195824, -0.06938625, -0.04468203, -0.01321786, -0.03123192, -0.03107387, -0.06424667, -0.00968749, -0.02097515, 0.01399288, -0.03699565, -0.02277967, -0.03038972, 0.05178157, -0.04795007, -0.01185286, -0.06974362, 0.03464740, -0.00053178, 0.04558134, 0.01811927, 0.00656382, -0.05557302, -0.02509865, -0.03063407, -0.00419857, -0.00487337, -0.08734170, 0.00650424, -0.07303657, 0.01886583, -0.00566318, -0.06467295, 0.04934373, -0.07460728, -0.06383848, 0.04846465, -0.02511791, 0.01261025, 0.05689399, -0.00901819, 0.05138884, 0.02252677, -0.11260854, -0.00092995, -0.02619019, -0.00658970, -0.04658078, 0.03564066, -0.02450002, 0.02984084, -0.00642909, 0.03719729, 0.00564569, -0.03913931, -0.01817242, 0.04880836, -0.00491848, -0.03846568, -0.04887629, 0.01925389, -0.02765352, -0.02047507, -0.03370612, -0.05120693, -0.03282671, -0.00966593, 0.04899683, 0.03088957, -0.00115761, 0.01420330, -0.02201923, 0.03078542, 0.02489361, 0.04825518, -0.04463074, -0.04175631, -0.02870510, -0.01631353, 0.03444718, -0.04758019, 0.01537804, -0.04614491, -0.00751502, 0.02110924, -0.02189570, 0.04291963, 0.04452964, -0.05508426, -0.02849410, -0.06082288, 0.04460691, -0.00259970, -0.04324323, -0.03885773, 0.03555946, 0.03125117, 0.02910968, 0.00391732, 0.05073689, -0.02284239, 0.00558971, -0.03252709, -0.04813975, -0.04091667, 0.01620013, 0.02275229, -0.05825790, -0.02325354, 0.04027551, -0.06403246, 0.05460892, 0.04770169, -0.02102526, -0.04087143, -0.03952039, -0.04483015, 0.00060261, 0.03782380, -0.06141361, -0.05317819, 0.03913081, 0.03548790, -0.03937705, -0.01882392, -0.05745542, 0.01254576, -0.02103714, 0.03124919, -0.05719313, -0.01224033, -0.01712952, 0.04806497, -0.06293138, 0.05667591, 0.02305719, 0.04418112, 0.02345882, -0.02053186, 0.02689150, -0.03544306, -0.02731306, -0.05158725, -0.01849376, -0.05355698, -0.06815016, 0.04152998, 0.01370943, 0.03724704, 0.03459915, 0.04575604, 0.00697816, -0.04626554, -0.06019425, 0.04734715, -0.05556900, -0.06429116, -0.01400882, 0.05053300, 0.02257653, 0.03848138, 0.03494153, -0.01144852, -0.01641025, -0.04376083, -0.01186759, 0.00135168, 0.05123366, -0.02592956, -0.02680321, -0.03138000, 0.05267780, 0.02782593, -0.00635924, 0.01838957, -0.03317241, -0.00483208, 0.00709333, 0.03056963, -0.02574087, -0.01681919, 0.04406072, -0.04211052, -0.03810754, 0.00579728, 0.00900403, -0.01972223, 0.00039908, 0.04784635, -0.01186745, -0.05898222, -0.00427403, -0.06539997, 0.04277742, 0.00219630, -0.03155810, -0.06595755, 0.00296631, 0.02100977, -0.02357077, -0.02485398, 0.01212241, 0.01719989, 0.01936495, -0.06543322, 0.00293484, -0.03335712, -0.03329847, 0.02240585, -0.00247643, -0.05462421, 0.04365620, -0.04563330, 0.01854232, 0.04576551, -0.03448335, -0.02251023, -0.01823421, -0.04567089, -0.00764083, 0.02582534, -0.05482946, -0.04363072, -0.02220898, 0.04356523, -0.05954656, -0.01934228, -0.04728421, 0.01261740, -0.00731999, 0.00124552, 0.01392287, 0.05086575, 0.05710823, -0.01448904, -0.06635651, 0.02993880, 0.03019066, 0.05137505, -0.01707559, 0.05192344, -0.04574971, 0.05530918, -0.00434953, -0.02980702, 0.01973080, -0.06468407, 0.02034387, 0.03857249, -0.05926340, -0.05574615, 0.04786510, -0.05361109, 0.01815875, 0.03336627, -0.06469064, -0.00139932, -0.04185512, 0.01236812, 0.02518251, -0.03097741, -0.01206691, 0.04103346, -0.04062358, 0.03421894, 0.02754148, 0.02054926, -0.04981691, -0.02061205, 0.00520904, 0.05747318, 0.00074871, 0.05100698, -0.01730822, 0.01001094, 0.00799617, 0.03682613, -0.04546225, 0.03964165, 0.02897657, -0.00553011, 0.04117581, 0.00743354, -0.00159152, -0.03971909, -0.04777024, -0.00993016, 0.04763367, -0.01585042, 0.00960596, -0.06238124, -0.04026053, -0.00029500, -0.04922145, 0.04977395, 0.02433507, -0.06537634, 0.01167397, -0.01467831, 0.02857684, -0.05329286, -0.05840294, 0.00894317, 0.00364865, 0.02804168, 0.02486973, -0.04591861, 0.01407015, -0.08542520, -0.05883066, -0.05262798, 0.02916606, -0.05206056, -0.01130517, 0.02212522, -0.00694393, -0.01908095, 0.00044173, -0.04510709, 0.04838983, -0.06481005, 0.00942885, 0.02213346, -0.02925165, -0.03542906, -0.04986849, -0.00698127, 0.05119622, -0.02456387, 0.05656276, -0.00408178, -0.05343636, 0.01395721, 0.00479654, 0.01723005, 0.04704313, 0.01372728, -0.05544768, -0.04143016, -0.05854697, 0.04682413, -0.02082099, -0.01944415, -0.03167698, 0.04151868, 0.00309138, 0.03131448, -0.06999194, -0.01379040, -0.05358198, -0.00232031, 0.00889052, 0.00510025, -0.04280746, -0.02303545, -0.06495392, 0.00050180, -0.00862690, -0.06055129, -0.05143658, 0.02177834, -0.00038991, 0.00047835, -0.04827906, -0.06236239, 0.01654901, -0.07278506, -0.03965537, -0.06322044, -0.03396818, -0.05211373, -0.01539292, -0.06256859, 0.00288138, -0.02835241, 0.03479284, 0.04410926, -0.05800605, 0.02018144, -0.00582779, -0.03922164, 0.00182657, 0.01421013, -0.03070855, -0.02355803, -0.02452266, -0.06664407, 0.01564237, -0.03200066, -0.06726979, -0.05908165, -0.00234322, 0.04385788, 0.03529929, -0.08135418, -0.05159663, 0.01723551, 0.03680513, -0.04592511, -0.05883158, 0.03812280, 0.03387399, 0.03451682, 0.04252269, -0.05393766, 0.03550626, 0.03437946, -0.02025769, -0.02451486, 0.00361925, -0.05958750, 0.03966203, -0.03614042, -0.00047290, 0.04734624, -0.03967780, -0.01893552, 0.04416823, -0.02626757, 0.01827694, -0.03726813, -0.03688934, -0.01395667, -0.03636927, -0.03515204, 0.01475702, -0.02248839, -0.02834054, 0.04511926, -0.05674681, 0.03149600, -0.02935604, -0.00937619, -0.06607422, -0.06837767, 0.00466388, -0.06653909, 0.02260698, 0.00939047, -0.04104047, -0.07341823, 0.03486525, 0.02454675, -0.01845507, 0.04494458, -0.04539046, -0.05216226, -0.06906489, -0.02699041, -0.01997510, -0.04892785, -0.02309667, 0.01711976, 0.01409713, -0.06919274, -0.00162494, 0.01133227, 0.02683639, 0.02550784, -0.02474661, -0.03238517, -0.06892625, -0.04147514, 0.03644249, 0.00681259, -0.03647454, 0.03393957, -0.04139338, -0.05935225, -0.06337420, -0.03501032, -0.02963288, -0.05272700, 0.02335100, -0.05822009, -0.00280394, -0.00084569, -0.06345598, -0.06232868, 0.02065812, 0.04774075, -0.02165036, 0.03539532, 0.02219903, 0.04481093, 0.02187075, 0.04376296, -0.02337306, -0.04491716, -0.02722809, 0.00537938, 0.03170596, 0.02819034, -0.06975612, -0.05395623, -0.02306107, -0.01424896, -0.03514531, -0.06843270, 0.04316924, 0.05089766, -0.08986568, 0.04528140, -0.03402305, -0.07209549, 0.03349882, -0.01578720, -0.06026077, -0.02277625, 0.01640685, -0.01252791, -0.03114576, 0.02993436, 0.03005147, 0.02464025, -0.05203957, 0.00716274, -0.05218131, -0.02860381, -0.04457493, -0.04844383, 0.04580272, -0.04848129, 0.00636816, 0.04966709, 0.05392293, -0.02952520, -0.03213474, 0.02870317, 0.00637582, -0.00911649, 0.03763903, -0.00137463, -0.00619429, -0.01536331, -0.01189499, -0.00974435, -0.00170034, -0.02603255, 0.01242266, 0.00490415, -0.00884539, 0.01514193, 0.00225648, 0.02452095, -0.05372792, 0.04459956, 0.01294665, 0.04380910, -0.04344935, 0.00557836, 0.02537406, -0.03695120, 0.01334666, -0.03545820, 0.04300388, 0.01121959, -0.02915328, 0.04330122, -0.06209045, -0.06819715, -0.01208349, 0.03837088, 0.14246215, -0.59940648, 0.08689971, 0.02301983, 0.03338117, 0.51375765, 0.11543756, -0.15215921, 0.16940911, -0.00925600, 0.08108260, -0.03276314, 0.03872893, -1.01973355, -0.05575832, -1.34707642, -0.00105586, -0.18704912, -0.13345329, 0.05132322, 0.16499826, 0.13197887, 0.18866408, -0.03694680, -0.62075448, -0.78084159, 0.13465929, 0.30233109, -0.19923556, -0.17022462, 0.10247720, -0.04382705, 0.25215998, -0.90117157, -0.00863009, 0.12242866, -0.10369416, 0.21202105, -0.02175553, 0.24110092, -0.07089611, -0.18141292, -2.03708863, 0.00445391, -0.04768363, -0.01605839, -0.28857917, -0.82592136, -0.21057543, -0.45059982, 0.06418282, 0.24807627, -0.75368732, -0.03317976, -0.02006371, 0.11846302, -0.66381133, -1.28325248, -0.10491043, 0.01355714, 0.08764562, 0.16435364, -0.09086220, -1.85491097, -0.10590292, 0.08343644, 0.46686399, 0.34909776, 0.11290875, -0.17305318, -0.06049188, -0.25168562, 0.14795817, -2.90767336, 0.03987063, 0.15582421, -0.15198736, 0.30254841, 0.28915069, 0.26876041, -0.50726211, 0.17205729, 0.04551579, -0.31161225, 0.35313600, -1.33283174, -0.52377808, -0.66964209, -0.88965690, -0.07022160, 0.00332370, 0.12874435, 0.12128408, -0.71290529, 0.24196237, 0.25687358, -1.73513269, -3.91047955, 0.05996010, -0.32184762, 0.28679278, 0.06173327, -0.31647837, -2.35390091, 0.67348433, 0.21515273, 0.01077614, 0.18756181, -0.88595217, 0.71119237, -0.47156444, 0.13399817, 0.09219583, -0.29585347, 0.29209146, 0.20043962, 0.00669043, 0.30514285, 0.36408255, 0.31623226, 0.01356351, -0.04920537, 0.21279317, 0.04308408, 0.01599377, -0.33676064, -1.16807544, -0.61485577, -1.32469320, 0.17825328, -0.92859179, -2.77508092, 0.09178863, -0.05489861, 0.08598974, -0.49486953, 0.07916744, 0.22741809, 0.09775481, 0.01759029, -0.61416119, -0.42853585, -0.08742265, -0.01442414, 0.13667041, -1.30224156, 0.12815067, 0.31761044, 0.06052138, -0.95550644, -0.23769554, 0.34612289, 0.07195840, 0.17042305, -0.74536014, -1.33212984, 0.15259333, -2.76129532, -0.11551283, 0.37888581, 0.00522563, -0.01517104, -0.80604571, 0.19021066, 0.09786649, -1.57240236, 0.19651927, -1.90861285, -1.27989769, -0.05056567, -1.83122981, 0.14144033, -0.52452856, -0.00320589, 0.17717654, 0.20848170, -0.39366126, -0.14704648, 0.14436381, 0.21150859, 0.15967798, 0.21308245, -0.04221583, -0.02419255, 1.15436685, -0.09920876, -0.31192571, -0.05633622, -2.06162119, 0.21874636, -1.01209617, 0.15975033, -0.12120689, -0.12468006, -0.42431667, 0.06801584, -0.12015275, -0.87286913, 0.14659806, -0.20569669, 0.35552487, -0.08838208, 0.13162823, 0.01617189, 0.20140915, -0.14521800, -0.07743029, 0.18820812, 0.25786072, -0.00805736, -0.05662608, -0.36869532, 0.19159412, 0.21445090, -0.64279062, -0.14576337, -0.06750290, -0.14058913, 0.39872900, 0.10957418, 0.47532693, 0.11844406, -1.11078298, -0.97129232, 0.21456394, -1.00415277, 0.17143846, 0.23858334, 0.11285023, -0.04215688, 0.17186621, -1.21156037, -0.57312590, -0.09202655, -0.03651405, 0.04844301, -0.86484581, -0.12171196, 0.10387786, 0.11090154, -0.89913929, -0.16760144, -2.27978039, -0.14449149, 0.13642707, -0.03423318, -0.29948711, -0.23018199, -0.00027551, -1.73005605, -0.43308121, 0.01664690, -0.44063306, -0.82984632, 0.13177681, 0.12536830, 0.01552942, 0.03001992, 0.01925260, -0.03741935, 0.04191421, -0.04790504, 0.05064489, 0.02682279, -0.01747467, 0.02493159, -0.00154901, 0.02874606, -0.01547648, -0.05499695, 0.02469516, 0.01335716, -0.00113936, 0.02508735, 0.05339878, -0.05254553, 0.01899631, 0.02522000, -0.05875155, -0.06292021, -0.06447765, 0.01791938, 0.02642587, -0.06504543, 0.00069604, 0.01733657, 0.03311604, -0.00457534, -0.05684531, 0.00871791, -0.00620571, -0.00525099, -0.00565539, 0.03256602, -0.02114307, -0.01896542, 0.02302446, 0.03431328, -0.06482684, -0.01412133, 0.00064296, 0.04796074, 0.03860782, 0.02179520, -0.04576360, 0.05752420, -0.00204105, 0.05637971, 0.03544964, -0.00532714, 0.03528989, 0.04898835, -0.01247750, -0.05552253, 0.06056678, -0.01234918, -0.03951751, -0.06460019, -0.03919852, 0.00548243, -0.03054677, -0.02183503, -0.01088144, 0.04094352, -0.03194724, 0.04394289, -0.02490385, 0.00375566, -0.03365986, -0.04215674, 0.00222312, 0.01797864, -0.01965772, -0.02750995, 0.03108921, -0.06207720, 0.04361420, -0.06567367, 0.02886964, -0.00728925, -0.01931596, -0.03152787, -0.02535300, -0.06714988, 0.01085302, -0.06415621, -0.05008217, 0.05221381, 0.05523227, -0.00416294, -0.04127411, 0.00311881, 0.05455225, 0.02673239, -0.04006441, 0.04320089, 0.02810874, -0.04399963, -0.04322976, -0.03558216, -0.04872283, 0.03460575, 0.01834610, 0.02174340, 0.00332706, 0.03793641, 0.00972784, -0.00002806, -0.05978483, 0.04380862, -0.02643256, 0.03738095, -0.05984431, 0.00883150, -0.05026468, -0.00737244, -0.00250183, -0.02654806, 0.04564974, -0.01992216, -0.05573058, -0.03410304, -0.02315505, -0.05726392, -0.01842448, -0.04723363, 0.03791955, 0.00929146, -0.00350742, -0.06310142, 0.01216151, 0.00227702, -0.06354830, -0.03052066, 0.05207124, -0.04252109, -0.00932130, -0.05022556, -0.02985756, -0.05279606, -0.05568046, -0.02674170, -0.01819419, -0.04924483, 0.04938570, 0.05182213, 0.02940250, 0.03427806, 0.04518503, -0.05715268, -0.01554675, -0.04002445, -0.00091928, 0.00172182, 0.03734146, 0.04122352, -0.04231451, -0.05501487, -0.00641969, -0.04983385, 0.04817328, -0.05649379, -0.01636556, -0.05808666, -0.03506136, 0.02173418, 0.01648740, 0.05563077, 0.03242241, -0.03283425, -0.02827084, 0.02374116, -0.01705373, -0.05879042, -0.05316783, 0.03698484, -0.06331298, -0.00513525, -0.04326227, 0.03350664, -0.06492402, 0.05313687, -0.03692128, -0.00863172, -0.02794906, 0.02549153, -0.04044013, -0.04642942, -0.06109680, -0.06233792, -0.05918510, -0.05182337, 0.04755536, -0.04418780, -0.03925560, 0.00828328, -0.03430573, 0.04985076, -0.04656391, -0.00885072, 0.00097696, -0.03702940, -0.04402333, -0.06768898, -0.04635147, -0.01316286, -0.05398628, 0.00718504, 0.04369533, -0.02227969, -0.05554841, -0.03361003, 0.04355376, -0.01787793, 0.02101426, -0.03562483, -0.01983286, 0.01277241, -0.05276814, -0.02440546, -0.03128688, -0.05559480, -0.00107319, 0.03324292, -0.02770643, -0.03893857, -0.01201842, 0.03761404, 0.00924242, -0.03236996, 0.00444767, -0.04195293, 0.03926683, -0.05620785, -0.01528096, -0.06621117, 0.02715399, 0.05417254, 0.02020141, 0.00665312, -0.04620647, 0.03215351, -0.05816607, 0.02917643, -0.01361425, 0.00647994, -0.02015742, 0.01768308, 0.03123731, 0.03785539, -0.06010223, -0.03883426, -0.10464614, -0.02798923, 0.05948173, -0.09929565, -0.34902656, 0.04828105, 0.64747411, 0.09478072, 0.00154264, 0.25930980, 0.10656977, 0.09201284, 0.11014227, 0.05587588, 0.05372016, -0.07971139, 0.02139077, -0.03816057, -0.26055926, 0.28664196, -0.15369155, -0.04352147, 0.05899873, 0.05129644, 0.17151585, -0.17599991, 0.32196790, 0.06342034, 0.06093406, -0.06344459, -0.10068037, 0.06035931, 0.05509586, 0.23310781, -0.00999762, -0.08376026, 0.26260796, 0.01625281, 0.07109440, 0.11051303, -0.17268905, 0.10609163, -0.01057352, 0.24612157, 0.00891373, 0.02664842, -0.26515222, -0.16888508, 0.19786687, 0.08457446, -0.18182211, 0.05061498, -0.15070702, 0.06084302, 0.02555070, 0.75741744, 0.03127848, 0.15553772, -0.08898334, -0.03835375, 0.00501069, -0.04333035, 0.09776127, 0.07063595, 0.22101913, 0.08062468, -0.05157809, -0.45048937, 0.01576406, 0.05867872, 0.11959530, -0.15701814, 0.04498476, 0.01314828, 0.13043202, 0.09568034, 0.15305163, 0.05406379, 0.02574813, -0.32957327, 0.03151694, 0.00431777, 0.01944717, 0.00384195, -0.03167383, 0.21733131, 0.11120417, 0.14742686, -0.12407570, 0.00846098, -0.00337356, 0.00004551, -0.05757344, 0.18240854, 1.19366682, 0.17346290, 0.14493534, -0.07594502, -0.16966762, 0.05047321, -0.99904579, -0.20158872, 0.09936642, 0.22122651, -0.23226647, -0.01698919, 0.03894200, 0.28407025, 0.10805270, -3.12732530, 0.10352843, -0.09199770, 0.01546172, 0.06628828, 0.04803405, 0.01438048, -0.27449703, 0.01123759, -1.71084952, 0.43666413, 0.34404743, -0.43455672, -0.12480502, -0.01855737, -0.00356878, -0.07217367, 0.15524837, -0.02539657, 0.15927015, -0.01681698, 0.09448079, -0.09807708, 0.10655420, 0.10766829, -0.01541841, 0.10841453, -0.32448012, 0.02767823, -2.96535969, -0.07728969, 0.16326568, 0.20054904, 0.09289060, 0.57221878, 0.09874537, -0.17240205, -0.28741235, -0.14672078, -0.06246603, 0.10541756, 0.09053902, -0.86968017, -0.02581767, -0.12728941, 0.20354632, 0.17773704, -0.60448283, 0.16503577, -0.00466302, -0.11866884, 0.21656673, -0.11147206, 0.12117258, -0.49763077, -0.03887617, 0.02087441, 0.03502916, -0.08293657, 0.21472882, -0.08623375, 0.00878502, 0.04289481, 0.15054984, 0.02511452, 0.10506900, -0.08657178, 0.09616859, 0.00614777, -0.02882246, -0.15461586, 0.05484930, 0.27229884, 0.06407044, -0.18126197, -0.05564976, -0.01273478, 0.14935109, -0.24155623, 0.15972428, 0.01936942, -0.03530904, -0.11995702, -0.04262066, -0.01296827, -2.70245934, 0.09045827, -2.84033632, -0.08541261, 0.14150150, 0.09869125, -0.51488751, 0.01601933, 0.05577432, -0.00702800, 0.26004589, 0.24839540, -0.14390956, 0.02263626, -0.06311085, -0.48517630, -0.07627326, 0.00705282, -0.05174347, -0.42964742, -0.12974139, 0.04738843, -0.03541519, 0.05162682, -2.09956455, -0.00603132, -2.90905738, 0.38533625, 0.24812397, 0.17811994, -0.30216938, -0.11482757, -0.06794690, -0.25749576, -0.00393476, -0.00291276, -0.43399310, -0.13726641, -0.60335755, 0.03846189, -3.98757029, 0.05660721, -0.11751462, 0.00126673, 0.06803819, 0.22902298, 0.06709700, 0.09292894, -0.26830205, 0.03626241, 0.01600824, -1.71513963, 0.03059210, 0.02198662, -0.30300626, 0.14011109, -0.17739248, 0.17177349, -0.04418904, 0.18311428, 0.03971096, -0.04902977, -2.69566298, 0.47208264, -0.07754482, -4.19438124, -3.02226996, 0.14464162, 0.05622717, -0.01037396, -0.04402927, 0.38678059, 0.02073865, -0.04984669, -1.16072214, -0.23691925, 0.05688342, -0.05527423, -1.00823879, -3.18849540, -4.02359152, -0.11663633, -0.07710140, -0.78946805, 0.11504214, 0.08568502, 1.01486754, -5.07554531, 0.04643615, -0.05959228, -3.05353928, -4.20708895, 0.00199507, -0.04803198, -0.06367250, 0.93781412, 0.03908421, -1.48332036, 0.40254179, 0.18090579, -1.33014226, 0.01704205, 0.53040701, -0.07778722, -0.01503576, 0.38617095, -0.04989923, 0.01101088, -3.95338988, -0.07770028, 0.35217214, 0.02382484, 0.07144386, 0.09004246, -0.04063630, -3.42331862, 0.02883829, -0.04506740, 0.48342884, 0.98329329, 0.00388471, -3.92021346, 0.03740643, -1.51883078, -3.56884360, 0.19968618, 0.26709461, 0.32640567, 0.09425995, 0.78735942, 0.05125479, -1.30978966, 0.29202870, -2.64803195, 0.36134630, -0.52936983, 0.23721263, 0.19185160, 0.32897222, 0.17936604, 0.15723553, 0.49489823, 0.40442154, 0.07116859, 0.11211325, -3.71235585, -0.04203869, 0.53620857, 0.22991188, 0.20941430, -4.98185635, 0.19472915, 0.02294084, 0.08153829, -2.45878339, 0.85405225, -0.00383341, 0.55883878, 0.50746632, -3.13816619, 0.96844947, -0.01325579, 0.37785581, -0.03012843, 0.23565777, 0.36955443, 0.04713859, 0.08591361, -0.54531223, -0.03699814, 0.99712867, -1.82736409, -0.12465741, 0.25769478, 0.03044462, -1.19353271, 0.18278089, 0.13412942, -3.88825989, 0.14964069, -0.52260017, 0.04752825, -0.06134686, -6.69643593, -0.02326309, 0.01083156, 0.15470417, 0.57541436, 0.95163375, 0.43441150, 0.31909543, -0.00856156, 0.46060482, -0.03089154, -0.67025495, 0.26472768, -0.04926303, 0.44766673, -4.12337399, 0.16156471, -1.13255537, -0.01527782, 0.29092595, 1.01622248, 0.04323688, -1.55591452, 0.00383318, -0.08463769, 0.04999130, -0.23360085, -1.00659525, 0.88230383, -0.85648400, 0.46336815, -1.33838344, -0.35070863, 0.42754358, 0.29846862, -1.17349041, 0.06474175, -0.03356814, 0.16065504, 0.52503759, -4.12726974, 0.24563351, -0.51234502, -0.03215974, -0.21692114, 0.15190601, -0.07336426, 1.12428737, 0.16699560, -1.26879418, -0.03636410, 0.42672810, -0.05470547, 0.00198879, 0.06376947, 0.28465542, -0.23934202, 0.19803984, -0.82880622, -0.06986882, 0.44351271, -0.71654564, -0.02481713, -1.01816308, -0.52770567, 0.17304292, -1.37079358, 0.46942517, 0.06704210, -0.00893664, 0.15783580, -0.96322882, -0.95535040, -3.62332010, -1.39211571, -4.49682570, -0.10859703, -1.23807371, -0.09292359, -2.13061929, 0.00114766, 0.03501536, -0.35458776, -0.06839104, 0.37528619, 0.48869157, -0.02100902, -0.65571439, -1.55248260, -1.13839126, 0.01129661, 0.13133061, -0.90458304, 0.03465751, -0.17852877, -0.87459743, -0.57430059, -0.19140713, 0.11183466, -3.48683953, 0.04446899, 0.89485866, 0.37723482, -0.71419960, -0.03776466, -0.00922505, 0.46689272, 0.09929445, -0.54323643, 0.41709307, -0.04480892, -4.38864183, -0.02326328, -3.07956529, -3.68839312, 0.03753768, -0.55560452, -0.02027939, -0.06568293, 0.03131847, -2.58152437, 0.00824511, -1.42965972, 0.01857023, -1.65718341, 0.00547505, -1.13757408, -0.02247129, 0.40326840, -4.57653522, 0.02997538, -0.01361892, 0.14911610, 0.09724987, -0.02142289, -0.05741490, 