// Auto-generated field NN weights
// Architecture: [32, 32], activation=relu
// Parameters: 1283, FLOPs: 2496
// MAE: 10411.40 Gauss, p99: 61853.6 Gauss

#pragma once

static const float net_0_weight[96] = {
  1.49399412, 0.05614041, -0.44632107, 0.40727156, 0.13472703, -1.05737877, -3.00090647, 0.66575289, 1.04187703, 2.39890528, -0.19391222, 0.03827755, -0.38906327, -0.02802065, -1.62097943, -0.87340361, 0.21162727, 1.32916772, 4.08557796, -0.00048454, -0.06686158, -2.45506310, -0.00024340, 1.73973310, 1.80916953, -0.04590870, -0.69505197, -2.68530679, -0.06705292, 0.47715685, 4.77016544, -0.00031487, 0.23947555, -1.93864071, 0.35235593, -0.99100667, -2.94101834, 0.60882574, -0.41443643, 2.52979302, -0.46774471, -0.32032853, -2.08298779, 0.77345282, 0.31303489, -2.63306975, -0.55434352, 0.56424165, 0.62297815, -0.10227302, -0.96685332, -0.11805615, -0.02912712, 0.14256841, -1.64684308, -0.00033248, -1.18623316, -3.83518505, 0.17999403, -0.28552020, 0.04550436, 0.53050590, -1.73612583, 2.91634679, 0.20497121, -0.78753084, -3.27127862, -0.04910024, -0.26301435, -0.43265587, -0.41991684, -1.07032609, 0.88989872, -0.15086579, 1.30284560, -2.72652602, -0.41281122, -0.29445386, 1.06050038, -0.36965957, -0.41173208, 1.37707996, -0.06444943, 1.16743588, -0.05681943, 0.00661557, 1.26721835, -0.51735240, -0.50333327, -1.46075845, 2.27420950, 0.47414479, -0.71863961, -2.07920885, -0.86947030, 0.04719041
};

static const float net_0_bias[32] = {
  0.32322773, -0.61610359, 0.29052034, 0.53429765, -0.66365534, 0.16313900, 0.14679724, 0.61531645, -0.29022756, 0.19516298, 0.30655229, 0.27716130, -0.29670021, -0.79935479, -0.69827449, -0.58836704, -0.17492697, -0.49744239, -0.56776989, 0.34337562, 0.21046822, -0.10626484, 0.22239555, 0.31215739, 0.24782266, -0.69810247, 0.50709331, 0.67840391, 0.56582421, 0.20796801, -0.78361607, 0.21842796
};

static const float net_2_weight[1024] = {
  -0.20122612, 1.11182904, -0.00265437, 0.10775310, -1.19018018, 0.05121343, 0.23980418, -0.10139535, -0.32548758, 0.37381217, 0.02479461, -0.02618808, 0.03562004, -0.26482198, 0.09849644, 0.40183699, 0.08375251, -0.09275375, -0.64310890, -0.35978782, 0.08644927, 0.59180403, -0.20074661, 0.15588813, -0.07290599, 0.19283681, 0.11952669, 0.23842287, 0.28421310, -0.09344111, 0.42848444, 0.25535804, 0.01353990, -1.08757973, 0.64276117, 0.15618034, -0.13971069, 0.10624109, -0.97648549, -5.27729702, -0.57919496, 0.01120510, -1.29552186, 0.00129116, 0.86450946, -0.50139832, -0.89113289, 1.36244702, 0.06622470, -0.09518737, -6.24521494, 0.00090568, -0.26697379, -0.28938535, 0.20397112, 0.21209377, -2.05835295, 1.53846741, -0.02205602, -0.16940089, -1.91704953, 0.27678883, -2.60865951, 0.07622466, 0.26403925, -0.25375926, -0.07957231, 0.24529782, -0.86916322, 0.17631067, 0.48642397, -1.00635195, 0.43637717, -0.38441315, 0.38753039, -0.00946906, -0.35874021, 0.37764645, -2.14099479, -0.86778045, 0.09207255, -0.03364393, -0.62463069, -0.84651959, 0.37405083, 0.04712259, -0.15375254, 0.27976406, -0.18838072, -1.18246830, -0.12373859, 0.20952004, -0.27657199, 0.16118805, 0.21252467, -0.13249163, 0.29625627, -0.13601419, 0.17884974, 0.13531038, 0.20258774, -0.00083484, 0.09886672, 0.04058060, -0.16760011, -0.19908363, -0.01318475, -0.03753025, 0.02518164, -0.52355450, 0.04761789, 0.50400233, 0.17169866, -0.14206344, -1.01280510, -0.21811575, 0.19601437, 0.18905781, -0.19322880, 0.09532239, -0.00393030, 0.08319774, -0.05895799, 0.14942127, 0.19050506, 0.04673935, 0.06348179, 0.00926139, -0.03719252, 0.21907780, 0.12582681, -0.20252357, -0.04272306, -0.48669994, -0.26501074, -1.01495147, 0.99043286, -0.16121754, -0.83177060, 0.18618423, 0.19299074, 0.34401625, 0.31620467, 0.12889707, 0.66600299, 0.00299515, -0.15031072, 0.28048962, 0.20956002, -0.22451100, 0.19564889, 0.19826719, -0.19630016, 0.22683120, -0.06554331, -2.41204095, -2.55731487, -0.12839246, 0.27901742, 0.17686707, -0.00236321, -0.00896657, 0.02029035, -0.01511392, 0.09638543, -0.14018424, 0.00613517, 0.13634542, 0.00875402, 0.12290596, 0.03630019, 0.05518518, 0.00628213, 0.14298341, -0.11411636, -0.20456263, -0.06966233, 0.12653276, -0.01866212, -0.18315995, -0.10458973, -0.08593062, -0.19440249, -0.19658318, 0.10474741, -0.01230026, -0.12644519, -0.12270055, -0.03852323, -0.06523813, 0.02534722, 0.02538370, -0.04450058, -0.14700370, -0.15962267, -0.10642278, -0.16518809, 0.13324702, 0.02145848, 0.13064842, -0.11052097, -0.00462365, -0.09803494, -0.18847728, -0.03429310, 0.00368226, 0.04183934, 0.04283816, 0.08667911, -0.17878433, -0.00023141, 0.03055933, 0.00414468, 0.13291527, 0.01820595, 0.13553900, -0.05660599, -0.06436080, -0.05170754, -0.15630758, -0.18693636, 0.06884959, -0.00682227, -0.08843989, 0.08294643, -1.33313954, 0.48378950, -0.06229096, -3.28990388, -3.00393677, -0.62211800, -3.00001287, 0.66493648, -1.91839314, -0.67093480, 0.23067497, 0.51115763, 1.35215747, 0.71641010, -1.62931705, -0.14937495, 0.10384516, -3.70667601, 0.14016786, -0.24311912, -0.84254569, 0.30269548, 0.25020644, -3.23713899, -1.70048451, 0.18348311, -0.10068603, -1.61138856, 0.00687281, -0.08791044, 0.30983487, 0.16557874, -0.15287192, -0.16611381, 0.27426559, -1.68951678, 0.06577829, 0.45903617, -1.92658293, 0.89038992, -1.73242867, 0.40044442, -0.98185861, 0.05413726, 1.40076351, -0.04319605, -1.27119625, 0.28174037, 0.17464638, -0.50310111, -1.73676312, -5.97657919, -5.04240179, -0.16695544, 0.31826931, -8.28602505, -1.10418069, 0.37118503, -0.16076511, -3.86630177, 0.33425516, -0.05091913, 0.25515321, -0.09567198, -0.04668146, -0.00152636, 0.17010367, -0.17259830, -0.00710012, -0.02382110, -0.01688278, -0.40907589, 0.09406666, -0.00249454, -0.09235036, 0.02024979, -0.97573757, -0.01223201, -0.19952463, 0.41872722, 0.11680590, 0.03777838, 0.07944822, 0.05990985, -0.15727510, -0.02662659, 0.01142878, -0.45089811, -0.04799184, 0.09251002, 0.24499442, 0.07543096, -0.04268990, 0.01922273, 0.18434776, 0.12307368, -0.26244524, 0.10674920, -0.19143888, 0.43582246, -0.63530213, 0.12883386, -0.26264983, -0.04096264, -0.24626744, -0.07143005, 0.27574685, -0.02456454, 0.43545383, 0.07328799, -0.11070760, 0.83023238, -0.11514601, 0.18981889, -0.10937903, 0.39159137, 0.08248872, -0.27145436, 0.45528373, -0.11135302, 0.47469559, -0.11605819, -1.40723789, -5.94407463, -0.14415814, -0.07116228, -0.04257017, 0.19689570, 1.20327294, -0.10840974, -0.11570051, -0.44667894, 1.41404295, -0.18003479, -0.89460671, 0.63385856, -0.56734216, -0.09710287, 0.15764336, -0.00334777, 0.10682672, -0.27937439, -1.71019351, -0.16105345, 0.06575079, -0.81254995, -0.07522344, -0.04634998, -0.10023734, 0.39415169, 0.10142150, -0.14701128, -0.81889373, -0.12350598, -0.01809972, 0.03152078, 0.08606216, -0.17182367, 0.12291367, 0.16076073, 0.72396713, 0.08188160, -0.03662293, 0.29494882, -0.45864433, -0.24271408, -0.18262774, 0.24062446, -0.50980586, -0.20861162, 0.19580553, 0.08589882, 0.19528447, 0.16548355, -0.19723438, 0.23046067, 0.00890461, 0.10470536, 0.01787175, -0.31543192, -0.37164637, 0.14702187, -0.01706116, -3.17195559, -0.00854172, -0.05005027, -0.26712093, -4.28065777, 0.27025056, 0.16462749, 0.01982242, 0.05578763, -0.09250748, 0.22191195, -0.21906736, 1.07280779, -0.56372553, -0.23568775, -0.84456122, -0.12331483, -0.31721944, -0.12283903, 0.42366019, 0.26027203, 0.38506147, 0.26956618, 0.26949310, 0.10435195, -0.11151465, -0.21630043, 0.14961557, -0.03482199, 0.44251099, -0.02031834, -0.19521123, -0.43758163, 0.32701150, -0.09437634, 0.12447894, -2.56913590, 0.28572497, 0.09321179, 0.02244269, -0.07915676, 0.00237879, -0.05083069, 0.08000854, -0.00141809, 0.03822365, -0.20064646, -0.16485620, -0.17587623, -0.19138631, 0.04862696, -0.04190596, 0.03132649, -0.03182578, -0.14778909, -0.08073574, -0.10115457, -0.15172431, 0.04759995, -0.06039819, 0.09256107, -0.13723816, 0.02448938, -0.05904086, 0.12599462, -0.06151655, -0.08670007, -0.06700465, 0.09828829, -0.04237324, -0.08285775, -0.09577341, 0.22092839, -0.14680572, -0.14170209, 0.22071443, 0.38192162, -0.64536482, 0.39174950, -0.67734855, -0.20893258, 0.49320093, 0.47902775, 0.11856733, 0.04229310, -0.13127862, 0.01752439, 0.01446692, 0.23620789, 0.06369572, 0.37323108, -0.26918447, 0.11158007, 0.43929979, -1.13969517, -0.10389816, -0.06230208, 0.02174410, 0.16767098, 0.27534592, -0.24700883, -0.17296915, 0.25494501, -0.20269510, -0.20121658, -0.07873584, -1.66315758, 0.16274944, -0.25576288, -0.07173268, -1.53680027, -7.86362171, -1.40154958, 0.83905107, -1.94383109, -0.06421902, -0.44843170, -0.67743564, -0.05715924, 1.55770421, 0.00445807, 0.06862079, -6.11812258, 0.74171686, -8.09116554, -0.58639014, 0.24884567, 0.24012774, -2.93715739, 1.53098309, 0.21813762, -0.13206172, -1.55516112, 0.44550595, -0.15730341, 0.44329852, -0.06313045, 0.91089666, -0.16427436, 0.16727006, -1.89827931, 0.01519028, 0.19421534, -0.66093987, -0.14254007, 0.58353198, 0.06713728, 0.12782016, 0.01791563, -0.17373121, -0.50471139, 0.34984291, 0.01827098, 0.09684168, -0.92384404, 0.04143934, 0.13165168, 0.06931387, 0.12051611, 0.25237551, 0.01851842, -0.07923254, 0.17919661, -0.10516929, -0.00937682, -0.20846984, -0.07948163, -0.20994902, 0.19426244, 1.50229728, -0.12848853, 0.19036162, -3.61322856, -1.75334740, -0.25561970, -3.89298129, -2.63653731, 0.76456213, -0.21916728, 0.10472315, 0.36363280, -0.83111268, 0.11618678, 1.40151143, 0.29658663, -0.00650149, -3.73715472, -0.15999469, 0.04755742, 0.27787825, -0.19833289, 0.18259056, 2.01893997, 0.41369769, 0.09773197, 0.08488166, -1.80436039, -0.13184369, 1.01508772, 0.34295771, -0.02116464, -2.47441125, 0.79141080, -0.12193060, -1.38162470, -1.12832820, -0.28890383, -2.20243955, 0.67852497, -1.90165770, -0.30440617, -0.05598534, 0.43214497, 1.15205479, 0.79099435, -1.49163175, -0.10636187, -0.04645085, -4.65192747, 0.14410488, -0.26706287, -0.72556740, 0.19195016, 0.10935456, -4.57846117, -0.73832947, 0.04271505, 0.14664689, -1.68348014, 0.04589646, -0.00580956, 0.40130711, -0.00607728, 1.23118019, 0.07755822, -1.50523543, -2.58033848, -5.28073597, -1.10437036, -2.75524807, 5.81495619, -2.27830243, -1.55137718, 0.38762248, 0.62481087, 0.15019374, 0.78133148, -0.07701458, 0.35498661, 0.11516510, -2.97720647, 0.38563856, 0.34948507, -0.06464561, 1.02515078, 0.43176499, -0.00703227, -0.15091038, -1.01325250, -1.87954545, -8.56324959, -4.81089449, 0.30962604, 0.00356756, 0.36898029, 0.64972806, -0.49419302, -0.01422487, 0.59305573, -0.24696562, 0.10907944, -0.69875598, 0.04907566, -4.76840591, 0.17392904, 0.43875510, -0.54869276, -0.39034915, -2.28192711, -0.37057897, 0.18717010, -0.13789526, -1.71808755, -0.24788333, 0.31297362, 0.31163815, -0.94239002, 0.25027254, 0.02691610, 1.72374272, -0.14337325, -0.18992427, 0.51828849, -0.41626322, 0.20984237, -0.12169238, -0.19259766, 1.66143477, 0.22031216, 0.02673742, -0.35039234, -0.26455668, -0.54114759, -0.25221860, -1.50184512, -0.11439391, -0.35400465, 0.07568321, 0.06331255, -0.99846298, 0.15928133, 0.15400279, -0.20924148, 0.14672905, -0.34768867, 0.12864630, -0.30805856, -0.45590845, 0.13443044, -0.01801394, -0.36222264, -0.08608956, 0.15606967, 0.73651892, 0.71507317, -0.03145446, -1.03991532, 0.13525768, 0.20059104, -1.84056306, 0.15036334, 0.16949765, -1.89780998, -0.19411282, 0.52644813, 0.50491226, -0.38347372, 0.45436218, 0.55309844, 0.04566928, -0.02045845, 0.28561872, 0.22009626, 0.13132627, -0.12735246, 0.09702408, -0.38065928, -0.20447090, -0.05665844, 0.21552438, -0.79804426, -0.44558752, -0.26000369, -0.14758751, -0.00232007, 0.40129703, 0.21256763, -0.10750874, 0.21060349, 0.14771576, 0.21639657, 0.34218326, -0.11497732, 0.11176641, 0.71408850, 0.28058323, -0.02835796, -1.31654012, 0.01584349, -0.13054667, 0.14163674, 0.18653902, 0.21721673, 0.12490854, 0.16534060, 0.17128713, 0.40953121, 0.06452122, 0.01849889, -0.04331330, 0.43821767, 0.42733052, -0.24650149, 0.01098665, 0.44643804, 0.70990390, 0.23369899, 0.28565407, -0.99140650, 0.11694155, 0.08863737, -0.02421926, -0.07207403, -1.25830173, 0.11470166, -0.29319170, 0.09809225, 0.17255799, -0.00186794, -0.12080047, -0.43420768, -0.03953975, 0.23745464, 0.14244057, -0.10330331, -0.05663247, -0.01795714, -0.29122201, 0.11791394, 0.16541079, 0.59274954, 0.00948984, 0.16742539, 0.05078025, -0.25099394, -0.71542650, 0.43161070, 0.18666689, -0.32151532, 0.30163231, -0.71827602, 0.20653878, 0.07146797, 0.31264785, 0.11851273, -0.29586163, 0.30497089, 0.41730249, -2.40784192, 0.35383177, 0.45597109, 0.57333440, 0.07726803, -0.05691839, 0.54662842, -0.16130181, -0.42147136, -0.25693482, 0.26877090, -0.11071617, -0.28176665, -0.17772895, 0.68414462, -0.55129790, -0.29836068, 0.01609949, 0.08810022, -0.22768626, -0.01929226, -0.60383034, 0.12257958, 0.62827486, 0.58621210, -0.14124814, 0.12199599, 0.17100666, -0.07916994, 0.10766919, -0.32674167, 0.03870443, -2.85317922, -0.36413541, 0.35719398, 0.58371294, 0.47296560, -0.34964576, 0.45639646, -1.29173315, -0.04849751, 1.52897906, 0.09303151, 0.48019421, 0.18835542, -0.09715713, 0.24117517, -0.87236428, -6.58430672, -3.40585160, 0.01199702, 0.21303062, -5.89217520, -0.54145604, 0.26786020, 0.13204652, -0.09294681, 0.09745290, -0.01472078, 0.37511095, 0.09015286, -4.00209618, 0.07140511, 0.09636389, -1.59505510, -0.70847493, -0.45502993, 0.00358902, 1.35507882, -0.22957116, -0.29311177, 0.09207041, 0.18101546, -1.23514342, 0.27112889, 0.27877238, -1.69471335, 0.05501151, -0.89379412, 0.05954014, 0.10189777, -0.29755083, 0.13190381, 0.01100198, -0.11870712, 0.01018222, -0.07839476, 0.57373214, 0.60088569, -0.09790280, 0.11678145, 0.30035180, -0.07310856, -2.63621926, 0.73757726, -2.07769394, -6.54749489, -4.58487511, -1.63770080, -4.61473799, -0.42265257, -2.88953161, -2.10985970, 0.39340332, 0.65176690, 0.21655957, 1.12423790, -0.03425354, -1.52948284, -0.03439818, -1.90469873, 0.65487987, 0.27046224, -0.35965407, 1.10089362, -1.15189636, -0.06097497, -0.05014421, -2.61322045, -0.65124875, -1.98059297, -11.84466362, 0.10366579, -0.02940003, 0.00803130, 2.15407181, -0.29095533, 0.12183847, -2.35435390, 0.38282570, 0.09979734, 0.28674942, -0.14675072, 0.12060595, 0.07216901, -0.08680430, -0.28689590, -0.36271074, 0.08614516, 0.03696891, -0.29961920, -0.05853639, 1.07706451, 0.03153273, -0.34384382, -0.18612279, 0.07550521, 0.30974245, 0.09445781, -0.66203249, 0.29706529, 0.27034155, 0.52630901, -0.47976276, -0.38293940, -0.20485227, -0.09169830, -0.26943237, 0.52187914, 0.02720133, 0.42263535, 0.00734835, -0.06651276, 0.13010223, 0.39771149, -0.22340386, 0.13857697, -0.08398680, -0.14832236, 0.13367799, 0.06086226, -0.07591093, -0.37242666, -0.08165237, -0.24924804, -0.19208425, -0.05012276, -0.12765163, -0.11963291, -0.12988169, -0.06470712, 0.32706091, -0.14325355, 0.17154960, -0.40860108, 0.20633566, 0.10668126, 0.07872063
};

static const float net_2_bias[32] = {
  -0.11796019, 0.08291989, 0.29663318, 0.11427341, -0.17255460, -0.21490698, -0.16712943, 0.16113476, -0.05631505, 0.17856395, -0.20377837, 0.22158286, 0.10877929, 0.24116546, -0.00021717, 0.04012180, -0.09525584, 0.06900654, -0.05778417, 0.03884137, -0.13743322, 0.15159273, 0.28641975, 0.23273578, 0.19830011, 0.03863784, 0.21491890, -0.10331283, 0.07865678, 0.02230305, 0.14897901, 0.15612863
};

static const float net_4_weight[96] = {
  0.49704388, 2.19999838, -0.71867293, 0.32682729, -1.49766302, -0.00947187, -0.08331527, -3.37958932, -3.34056163, 0.34052181, -0.12471638, -1.57652223, -0.11871009, 0.65892160, -0.07805940, 0.64183509, 3.30604935, 0.13304844, 2.41142011, -2.73849058, -2.19923973, -0.88005954, 0.99659485, 0.72275966, 0.49877486, 0.87666249, -0.89829344, -1.76554978, -1.34156835, -2.93732643, 0.56015861, -0.10829943, 0.05577885, 0.35923639, -0.08855920, -0.00810166, -0.18633457, 0.06600886, 0.05675938, -0.13382007, 0.70156449, -0.09741008, -0.13825999, -0.36442739, 0.09169929, 0.08247806, 0.08078838, 0.08559479, 0.77664942, -0.12444159, 0.26322639, 0.23294848, 0.61376441, -0.05626944, 0.04893069, 0.08927666, 0.09692427, 0.14507627, -0.13992065, 0.99923456, -0.09004528, 0.89674383, 0.12917805, 0.06542423, -0.20602210, 0.62509769, -0.10087321, -0.06142871, -0.76966262, 0.03730624, -0.11600945, 0.26139960, -0.10461348, -0.11657467, -1.89107573, 0.22893743, 1.80571914, 0.66958404, 0.10076302, 0.14068882, -0.58621216, -1.10626078, -1.91436088, 1.67808878, -2.09353280, 0.35183969, -0.61137766, 0.18136853, 0.42692357, 0.37875417, -0.40510952, -1.96300781, 0.65249550, 0.93572366, 0.63169402, 0.59478736
};

static const float net_4_bias[3] = {
  -0.01357726, 0.06580598, 0.10647639
};

static const float input_mean[3] = {0.00000000, 0.00000000, 6749.99951172};
static const float input_std[3]  = {2338.09155273, 2338.09155273, 4214.56005859};
static const float output_mean[3] = {0.00000001, 0.12292606, -0.00000000};
static const float output_std[3]  = {22.14661598, 71.60929108, 22.14662170};
