// Auto-generated field NN weights
// Architecture: [64, 64], activation=silu
// Parameters: 4611, FLOPs: 9472
// MAE: 7333.42 Gauss, p99: 71051.8 Gauss

#pragma once

static const float net_0_weight[192] = {
  -2.17285776, 0.01861011, -2.81463122, 2.59259415, -0.20209002, 2.82761574, 0.03188768, -1.54859698, 0.45347679, -6.46848631, 0.41703334, 1.35021937, 5.61574125, 0.21017149, -0.68738425, 2.44692302, -0.77352053, -1.19610715, 4.88060522, -0.52046329, 1.33078563, 3.09623361, -0.09715934, -2.48911715, -0.60737127, 1.08637965, 0.19918552, -3.26137662, -0.39158264, 0.79467189, -0.15018816, -0.05142823, -0.85719198, 3.29088569, -0.69016522, 1.84612572, -0.68494076, -1.37859321, 0.18680936, 0.30044481, 1.04315925, -0.17981638, -8.39328289, -0.18928273, 0.25788119, 1.35447979, -0.16722488, -0.52178860, 0.04201852, 0.10517396, -3.16754794, -8.78959465, -0.16282801, 1.51782215, -1.03740442, -1.41033554, 0.96329534, 3.06090212, 0.83936161, -0.95361608, 3.85899520, -0.19784939, -2.30907321, -2.15902257, -0.05594214, 1.07311499, 6.41720915, 0.00092499, 3.56389594, -0.08689820, -0.00248229, 0.70800972, 4.53480291, 0.02139525, -1.54395604, -7.00327110, 0.72330093, 0.38509366, 4.12883902, -0.08296492, 1.46668720, -3.11918926, 0.72813404, -0.10325126, -1.16072345, -0.02004272, 0.76385802, 0.86290532, -0.02474474, -1.05089283, -1.83094192, -0.01545507, -0.08869454, -0.49113941, 0.00330314, 6.25164795, -2.20019054, -0.18777901, 0.09782587, 0.36298749, -0.03373805, 0.60567230, 2.90944600, -0.55458575, 0.65154445, -3.50089574, -0.04826062, 0.40675414, -2.24754715, -0.06211575, -2.21710300, 1.36666453, -1.25979757, 0.15149838, -0.18476790, -0.00299742, -0.24862626, 1.30215371, -0.01252624, -0.49775487, 2.01974773, -0.03076004, -0.24471261, 2.04164124, -0.70180142, -0.82645732, -4.86244678, 0.47346053, -0.03273265, -3.74432826, -0.05571383, 2.19121575, -1.85561085, -0.53782922, -0.81579846, -1.32963121, -0.22600448, 0.11662579, 1.80216563, 1.16314220, 0.38126308, 1.28516114, -0.02276095, 0.19172487, 2.97404099, 0.61166865, -0.82761437, 2.52914810, 0.04735363, -0.85576648, 2.79452133, 0.71888918, 1.29948592, 1.44980121, -0.07420167, 0.42024329, 0.02738050, 0.00225142, 0.09118745, -2.56810641, -0.65599382, 0.45332202, -1.86773705, -0.41983053, -0.28308961, -2.68341446, -0.44654143, 1.16314650, 6.81959724, 0.08138157, 2.14188623, 2.23979545, -0.19124219, -0.73924661, 3.87105465, -0.06420942, -0.72376275, -4.59738684, -0.80651146, 0.38191801, 3.11873770, 0.54207975, 1.55555975, 0.77554154, 0.00261946, 0.09740835, -0.35932976, -0.00761379, -0.57363790, -2.18133402, -0.30522603, -1.25034297
};

static const float net_0_bias[64] = {
  -0.48252639, 0.74968451, -0.46096474, 0.10965607, -0.18970153, -0.44301847, 0.27743870, -0.31268430, -0.18181898, -0.03833666, -0.03614490, 0.08893351, -0.44361788, -0.34433046, 0.07257432, 0.24711435, -0.66733319, 0.45796695, -0.14041634, -0.51524681, -0.40249121, 0.45691374, 1.12684858, 0.39772004, -0.13612294, -0.31087157, 0.54457211, -0.41885513, 0.40466845, -0.19186899, 0.07578342, 2.22170615, -0.18817271, 0.42585608, -0.27731588, 0.23501404, -0.26189312, -0.54749244, -0.09934293, -0.14247185, 0.06842420, -0.50783718, -0.35527056, 0.58512264, -0.44378927, -0.17307909, -0.35229442, 0.22647160, -0.43083239, -0.06250008, 0.15965462, 0.27895483, 0.04119243, -0.23890695, -0.48567110, -0.00904526, 0.60017931, 0.39583823, -0.01692701, -0.27907246, 0.19313434, 0.00226877, -0.17636785, -0.51231587
};

static const float net_2_weight[4096] = {
  -0.22090909, -0.22732154, 0.03101485, 0.05842547, -0.10673415, -0.00405311, -0.08263736, -0.05912521, -0.01220143, -0.00086907, -0.08516596, -0.17236181, 0.11972500, 0.06342570, -0.09363511, -0.00343574, -0.21411252, -0.05963092, 0.01882378, -0.16010617, -0.04854845, -0.02905822, -0.11947850, 0.05662042, 0.01257253, 0.00253356, 0.03803002, -0.05509498, -0.13074943, -0.03871923, -0.01289546, -0.43674636, -0.03358429, -0.05912107, -0.07485997, -0.06815410, -0.15475824, -0.09569917, -0.09865063, -0.02489144, 0.14106637, 0.08342605, 0.07055669, -0.13601896, 0.09471036, -0.09770532, -0.00538484, 0.14204046, -0.06295683, -0.05496264, 0.09958778, 0.10198765, -0.00043672, 0.04950644, -0.01069354, -0.24842067, 0.01795477, 0.07950979, -0.05250983, -0.08259024, 0.23465209, 0.13364348, -0.33885863, 0.12340535, -0.16976114, -0.60229349, 0.23028651, 0.36727110, -0.47349519, 0.40178540, 0.03749119, -0.06007302, -0.10268830, -0.46422073, 0.01721663, -0.05871770, 0.02533413, -0.02923877, -0.68250346, 0.00574484, -0.51548803, -0.91118997, 0.05340987, -0.32070655, -0.00082909, -0.42200896, -0.32508743, -0.20536080, -0.19595976, 0.50071704, -0.02939443, 0.29253191, -0.38463420, 0.07543083, -0.11110312, -1.38953483, -0.07719015, -0.02837638, 0.09992488, -0.32804579, -0.16711949, 0.14486504, 0.09965827, 0.02298372, -0.13816249, 0.33278579, 0.24718460, -0.63890970, 0.26326397, 0.06039252, 0.02841005, -0.09791601, -0.22170091, -0.20855479, 0.19683611, -0.06792077, 0.00016266, -0.11519515, 0.12473276, -0.36326557, -0.02769214, -0.01639054, -0.04412313, -0.20346123, 0.19486205, 0.08093510, 0.33639452, 0.05666095, -0.31437773, -0.29059932, -0.07582555, 0.26138288, -0.14900048, 0.16836321, 0.21468891, 0.03090394, -0.11874351, -0.17262845, 0.02203716, -0.19747123, -0.05280995, 0.01642203, -0.15519077, -0.12813547, -0.36379212, -0.15259676, -0.06635629, -0.15418148, 0.11841000, -0.11420333, -0.19472709, 0.19050044, 0.08545915, 0.38654879, 0.03323381, -0.04809947, -0.00131557, -0.14791027, -0.21542306, -0.62488198, -0.21501338, 0.21798855, 0.06758548, -0.09523454, -0.04859123, 0.11267645, -0.18766847, -0.28893268, -0.19280462, -0.01426755, 0.14140323, -0.05790171, -0.07761115, 0.04323073, -0.12583707, 0.04027371, -0.11999622, -0.16962944, 0.07794904, -0.11850629, 0.10273067, -0.19385080, -0.10444140, -0.11897995, -0.05368647, 0.05013780, 0.03339722, -0.11398577, -0.05489576, 0.07729696, -0.29456496, -0.11614587, -0.94034487, -0.81391335, 0.66952771, -1.40513313, -0.25737509, -0.32817319, -0.84129953, -1.17961073, 0.41109899, 0.37902898, -0.29117304, -0.04050689, 0.58497280, 0.51131290, -1.33825290, -0.34190422, -0.85686368, -1.63237786, 0.77071667, 0.84106052, -1.48395836, -0.42832318, -1.85132313, -0.00829939, -0.71710509, -1.90697742, -1.25354195, 0.00085798, -0.31640249, -0.41603768, -0.27759719, -2.97174191, 0.09711690, -0.08711150, -0.13194111, -0.53432977, -0.77122283, 0.47445646, -0.06076252, -0.31140947, -0.37086737, -0.18908523, -0.80721128, -0.90928364, 0.21249576, 0.23607004, 0.91844982, -0.14198606, 0.69949800, -0.32937559, 0.60725409, -0.16509904, 0.01241622, 0.63001251, 0.35007203, 0.39442500, -0.77045566, -0.47327176, -0.77448368, 1.11263955, 0.37782601, 0.03873946, -0.29330084, -0.04751913, -0.35638374, -0.11442887, 0.09475311, -0.04334801, -0.07603157, -0.14270814, 0.42932785, -0.46294680, 0.09010445, 0.00919235, -0.12914465, 0.73132592, 0.23927461, 0.11454941, -0.61535579, -0.04217663, -0.30938202, -0.37020028, 0.27105883, -0.00951782, -0.42762700, -0.05458509, -0.68482637, -0.07057541, -0.07245655, 0.47022846, -0.03157604, 0.21760516, -0.06594247, -0.17747669, -0.05629956, -1.67975926, -0.08712064, -0.02142226, 0.32015279, -0.09577636, -0.42020872, 0.12382059, -0.09404068, 0.02487717, -0.02359641, -0.04593384, 0.29223108, -0.34335095, -0.34164569, -0.07747766, -0.00396257, -0.06965122, 0.17951877, -0.13351963, -0.48351008, -0.05790794, 0.02095366, -0.04759889, -0.12043230, 0.16838907, -0.27957189, -0.06323896, -0.04820778, -0.25081882, -0.59536010, 0.07285377, -0.32474062, -0.45064563, -0.70467818, -0.78854203, 0.21738115, 0.25416559, -0.16313165, 0.39532018, -0.53487331, -0.32554111, 0.18613116, -0.17142455, -0.08304489, -0.98600185, 0.22927493, 0.07652066, -0.13480394, 0.15074222, -1.10929704, -0.52246851, 0.02139677, -0.18676381, -0.07687972, -0.21259753, -0.74810094, 0.11585194, -0.21857949, 0.11860346, -0.32915032, -0.13142723, -0.06006101, -0.15454860, -0.08585374, -1.78856575, -0.00827864, -0.04239433, -0.18906944, -0.09818971, -0.50515997, 0.13196319, -0.20298813, -0.20022371, -0.00778854, 0.33831757, -0.09330004, -0.55000341, 0.34077361, 0.03749664, 0.27651832, 0.05854047, -0.19659346, -0.24491563, 0.62192273, 0.05720701, 0.13556749, 0.08113448, 0.24507405, -0.37048194, 0.03608122, -0.00150381, -0.07178193, 0.10042355, 0.70471966, -0.06193487, -0.45600086, 0.25277579, -0.14137562, 0.01579316, 0.21794002, 0.18124464, -0.06209179, 0.18984964, 0.02794960, -0.10763683, 0.19878620, -0.03586638, -0.02806430, 0.22778581, 0.17481902, 0.20000593, -0.30714327, -0.01894861, -0.08441024, -0.14056908, 0.20872670, 0.31564352, -0.15983865, -0.06265172, -0.19421874, -0.13685323, -0.08819249, 0.21541396, -0.20799732, 0.37023389, -0.27177861, -0.04218759, -0.28235057, -0.34307697, 0.06158112, -0.16202417, 0.06061083, -0.14388917, -0.18756236, 0.43124032, -0.15055855, -0.12238814, -0.13753565, 0.26945680, 0.03516936, -0.10413089, -0.01917192, -0.10543626, 0.28692687, -0.23015623, 0.20025763, -0.03220606, 0.25488132, 0.02164783, 0.03673393, 0.16674592, 0.14340213, 0.07097112, -0.04081004, -0.13586837, -0.18871363, 0.27344638, 0.04459231, -0.08823322, -0.10378671, -0.02741075, 0.08350218, -0.20640321, -0.11929922, 0.06977794, -0.02581748, 0.05515873, -0.11959993, -0.11282972, -0.15878959, -0.17708702, -0.09428342, -0.27672002, 0.15900417, -0.06490228, 0.04197364, -0.15590924, -0.11842908, 0.00116265, 0.07322960, -0.15059415, 0.03348757, -0.22576925, 0.11553857, 0.15524961, -0.05207577, -0.05763319, 0.00079634, -0.21884470, -0.24379103, -0.06391290, 0.05405544, -0.34893954, -0.08609061, 0.13358611, 0.00339497, 0.06567842, 0.04633299, -0.15805754, -0.08972176, 0.01158286, 0.01666129, 0.11562129, -0.19879758, -0.17815842, 0.00476049, -0.05009798, 0.09974106, 0.08285244, 0.02450253, -0.03157503, 0.17666534, -0.06636836, 0.03382291, 0.07996982, 0.13024215, -0.19874598, 0.15058343, -0.06215999, -0.10742215, 0.16324909, 0.32028022, -0.14646468, 0.27069977, 0.14710216, -0.30007124, -0.09801467, 0.15874928, -0.63223630, 0.21029645, -0.30861664, -0.18273136, -0.35773262, -0.02011129, 0.16915281, -0.03825874, -0.03631487, 0.04270554, 0.20646225, -0.03273981, -0.05321262, -0.25928870, -0.02581483, 0.18611568, 0.17286977, -0.44176564, -0.21412326, -0.39370990, 0.01416702, -0.03304889, -0.47734809, -0.24795400, -0.08288229, 0.05822797, -0.09053859, -0.11781119, -1.52239633, -0.05155763, 0.07361469, 0.07975289, -0.11740454, -0.24731696, 0.18074398, -0.11389209, -0.05293499, -0.14677060, -0.27400786, -0.15383355, -0.21122569, 0.03104361, 0.03049287, 0.05777749, -0.03090678, 0.21876487, -0.01379557, 0.10067616, 0.01331317, -0.08373466, 0.21925370, 0.04209601, 0.22381011, -0.13970406, -0.06903395, -0.19085434, 0.23132344, -0.07666363, -0.11304582, -0.15156901, -0.28669044, -0.04807430, 0.09268448, 0.09976737, 0.04305870, -0.02026364, -0.11452080, 0.01647045, -0.08045631, -0.02968516, -0.03585366, 0.06367981, -0.01207623, -0.04821597, 0.04085653, -0.21754532, 0.05781399, 0.06530443, -0.08134755, -0.04871512, 0.05036030, 0.05296968, 0.08322722, -0.07042296, 0.05057846, 0.04129349, -0.09276656, -0.29323840, 0.01338773, 0.01521907, -0.00823495, -0.18698889, 0.21560481, 0.00681278, -0.20204999, -0.18821350, -0.01028557, -0.11842462, 0.08952124, -0.18769448, 0.04225047, 0.11200955, 0.09732807, -0.24025838, -0.13194583, -0.00325681, -0.06529474, 0.09392183, -0.09204540, 0.01666076, 0.05520613, 0.02276064, -0.05933042, 0.20998786, 0.14398885, 0.05333808, 0.10696980, -0.06247121, -0.02952600, -0.00445101, 0.09352214, -0.09657061, 0.03321413, -0.10749856, -0.00793693, 0.05483060, -0.04682194, -0.10863693, 0.07363616, -0.15518774, 0.10174206, 0.18618360, 0.01378269, -0.02972950, -0.16469887, 0.01668331, 0.01870471, -0.13275041, -0.22007795, 0.02596960, 0.14045586, -0.08252738, -0.05977599, -0.10742322, -0.13195613, -0.00591707, 0.06795752, 0.04155963, 0.36062026, 0.11499743, 0.19312762, 0.05785256, 0.16035761, 0.25124785, -0.19714923, 0.00046581, 0.08909495, -0.26864317, 0.19102205, -0.00059908, 0.04483325, 0.05557727, 0.05642514, 0.10899714, -0.24269819, -0.13738722, 0.20137192, 0.23140511, 0.07233921, -0.00256735, -0.20659429, -0.11903995, -0.01039280, -0.06979879, -0.07614617, -0.07326900, -0.04738693, 0.18643592, -0.08933758, -0.24176383, -0.35352331, 0.02490067, 0.11862612, -0.01450440, -0.04439306, -0.06004835, -0.10518739, 0.05534441, -0.11830926, -0.60402405, -0.24079646, 0.05733555, 0.26177177, -0.11598329, 0.25987989, -0.40104863, -0.32440165, 0.19022815, -0.09983747, -0.17484282, -0.42414930, 0.04840394, 0.17634256, -0.18962593, -0.14621320, -0.69462067, -0.18842892, -0.07167836, 0.04249704, -0.36545283, 0.04960055, -0.21089320, 0.37643620, -0.19823508, 0.00795793, -0.16146602, 0.07852917, 0.28601596, -0.27885112, -0.10995594, -0.86898619, 0.02753817, 0.08251216, -0.00265022, -0.01055789, -0.46226612, -0.00178535, -0.26081356, -0.26247069, -0.10288883, 0.21231835, 0.01043441, 0.03865637, 0.23698667, -0.06918749, 0.26152384, 0.12776372, -0.02818616, -0.15144560, 0.47045270, 0.03690605, 0.09042592, 0.12666945, 0.08601484, -0.15310341, 0.14845085, 0.00342495, 0.08141713, 0.15074600, 0.52222192, 0.18581112, -0.63208610, 0.05999846, -0.24638127, -0.22689198, 0.08599413, -0.15599331, -0.02111726, -0.03844442, -0.02215364, -0.18559928, -0.07303043, -0.16984800, -0.00698478, -0.18030345, 0.12240254, 0.01856361, -0.19503905, -0.01379918, -0.15135323, -0.27254412, -0.01015012, 0.04009117, -0.10771812, -0.11965915, -0.38867164, -0.17300923, -0.23840210, -0.22180662, -0.23995458, -0.05112651, -0.11479505, -0.13237567, -0.12069780, -0.45282799, -0.11009286, -0.04999961, -0.13288902, -0.29329205, -0.26574257, 0.02884926, -0.27477312, -0.00104400, -0.10015046, 0.10464571, -0.19105200, -0.08752050, 0.02553859, -0.03313715, 0.08907584, -0.01543373, 0.03283014, -0.23591942, -0.09401820, -0.07943173, -0.06728031, -0.08108588, -0.08287915, -0.07367219, -0.08597291, 0.01077079, -0.01467907, 0.07159790, -0.13334011, 0.09111769, -0.12999456, -0.15513870, -0.06926017, 0.14833711, -0.04230737, -0.01274630, -0.22838229, -0.00967385, 0.34691811, -0.24897751, 0.03321707, 0.07013932, -0.08011646, 0.67080188, 0.09008913, 0.11091749, -0.47715640, 0.06176015, -0.04600247, -0.19941790, 0.13968709, 0.12703419, -0.12828577, 0.09646322, -0.19026424, -0.00878078, 0.00132136, 0.41642568, 0.02957747, 0.07981889, 0.19868429, -0.16799423, -0.02571338, -0.85498983, -0.20499486, 0.04393126, 0.05601146, -0.04340646, -0.34093955, 0.12508616, 0.12196737, -0.06157620, 0.04306827, -0.15480369, 0.07564526, -0.19657220, -0.19266249, -0.12778781, -0.13657872, 0.01758304, 0.08278655, -0.12963392, -0.27647284, 0.01883024, -0.04860676, -0.02606211, -0.04917840, 0.07243665, -0.21737759, -0.09289671, -0.18415017, -0.05317813, -0.44825050, 0.17916359, -0.26788133, -0.37289119, -0.09236398, -0.19752981, -0.15733767, 0.27745610, -0.19437714, 0.25456873, -0.25967908, -0.07443125, -0.09440947, -0.27055866, -0.08616097, -0.44295788, -0.00555151, -0.09470043, -0.14108396, 0.06624720, -0.19738349, -0.22019459, 0.01448714, -0.27374738, 0.13407388, 0.09426866, -0.05862094, 0.24038546, 0.05377981, 0.33182025, 0.12346439, -0.05328583, 0.33575392, -0.09639627, 0.12357701, -0.23961768, 0.00843638, 0.29375014, -0.30066437, 0.25116435, -0.20691215, -0.10646299, 0.02847686, -0.19441441, -0.11001922, 0.11126539, -0.00233013, -0.11441293, 0.12447655, -0.17267969, 0.03063143, 0.20550412, -0.02929592, -0.07384322, 0.03304872, 0.12901360, 0.08631052, -0.04578936, 0.03286018, -0.24594904, -0.00784001, 0.03617787, -0.03188147, -0.15798375, 0.15167554, 0.00227731, -0.26905680, -0.01445305, -0.25932524, -0.27699214, 0.25565079, 0.07382036, -0.09940591, 0.22072603, -0.39735132, -0.31434751, 0.23804653, 0.09739190, -0.18823205, -0.49818367, 0.17728901, 0.14523098, -0.23438382, -0.06670370, -0.39486286, -0.38727021, 0.24781893, 0.15023077, -0.08956107, -0.05495527, -0.39232376, -0.11834023, -0.23195811, -0.12400393, -0.36387876, 0.02277872, -0.24289952, -0.14611346, -0.10391987, -0.72682971, -0.05816232, -0.03590076, -0.11707385, -0.08742391, -0.39267084, 0.30779088, 0.06933358, 0.07361659, 0.04772323, 0.28160718, -0.21169789, -0.29435390, 0.35234687, 0.15827954, 0.31966415, -0.16539055, 0.18273085, -0.10216639, 0.37506843, -0.10714600, -0.12112188, 0.15702094, 0.27452445, -0.01491921, -0.05723441, -0.04007175, -0.14831056, 0.31695879, 0.45952654, 0.07393614, 0.07192210, 0.22839822, 0.03638262, 0.03802536, -0.02572966, 0.13662124, -0.13735408, -0.00288052, 0.34119618, -0.03766851, -0.09095465, -0.06364792, 0.04802737, 0.30398801, -0.09631037, -0.09320541, -0.30471125, -0.00577481, -0.05028865, -0.21968745, -0.05931272, 0.00658367, -0.04123958, 0.10632601, 0.04917002, 0.26373541, -0.10380818, 0.36501995, 0.04698489, 0.03552137, 0.24196404, -0.22628155, 0.03300420, -0.42777759, -0.02051108, 0.16886090, 0.03240594, -0.05931292, -0.06077210, 0.11989781, -0.18486340, -0.18045288, -0.04757565, -0.11253884, 0.07702298, -0.01243587, -0.19297928, -0.03106554, -0.00400797, -0.06720506, -0.09288995, -0.18412621, -0.22178136, 0.11213661, 0.13570674, 0.00619069, -0.08363741, -0.17531426, -0.21098770, -0.02385957, -0.09377687, -0.05535355, -0.43637490, -0.00579416, -0.22709103, -0.24486896, -0.64644426, -0.48091999, 0.13255198, 0.35368684, -0.04745329, 0.24351239, -0.28983867, -0.34618995, -0.00966920, -0.27155274, -0.25104043, -0.57367587, 0.05557308, 0.04592536, -0.15012720, -0.06510339, -0.60368073, -0.34446076, -0.13179100, -0.23255198, -0.19880427, 0.02259630, -0.16721435, 0.09750003, -0.22945622, 0.24651927, 0.08895750, 0.17045854, 0.24157514, -0.35421288, -0.06431878, -1.02865553, -0.03749620, -0.02704834, 0.01640213, -0.05979050, -0.32164794, 0.15357849, -0.40187466, -0.16997108, -0.14826013, 0.13972695, 0.22355121, -0.25274241, 0.05908720, 0.05389008, 0.10829218, 0.09879055, -0.26449344, -0.02514689, 0.38631287, 0.02444774, 0.08544526, -0.14534275, -0.03838118, -0.31053287, 0.16854797, -0.10953042, -0.12600918, -0.23074825, 0.39680079, 0.25702515, -0.35992092, 0.04890939, -0.26276463, -0.07305233, -0.05317434, -0.23420091, 0.04521164, -0.24363929, 0.00547371, -0.05147999, 0.02651164, 0.19646184, 0.11405534, -0.03985777, -0.04674368, -0.00611216, 0.04733146, 0.00344320, -0.17879644, 0.25394604, 0.01456277, 0.28236887, -0.05511230, -0.01024047, -0.12284291, 0.20732398, -0.12482525, -0.38842607, -0.14618859, -0.19120239, 0.12200063, -0.05857072, -0.03646340, -0.77435064, -0.11353374, 0.11632454, -0.11776700, -0.13893859, -0.09393942, -0.00563917, -0.04391665, -0.06613073, -0.01754391, -0.25423768, -0.19327886, -0.07220421, -0.12826154, -0.07736518, -0.02324420, 0.08569080, 0.09936696, -0.17363322, 0.02981162, -0.00301015, 0.09305047, 0.16590771, -0.02377010, 0.15821004, 0.06441233, 0.05366238, -0.04928755, 0.25695223, -0.09822042, -0.02926691, -0.07899548, -0.09385563, -0.97099251, -0.53362173, 0.50196350, 0.42051864, -1.31777668, 0.29353985, 0.40082151, -0.66383392, 0.31651974, -0.41788295, -0.24479987, 0.56758815, 0.32547390, 0.21566810, -2.26643634, -0.12728333, -0.88462901, -2.01472425, 0.48341560, -0.07134741, -0.44722322, -0.36527014, -1.77444804, -0.08395143, -0.74932748, 1.17894340, -0.76262933, 0.73896796, -0.16130805, -0.31956184, -0.18760192, -2.57945299, -0.20754105, -0.06850886, 0.59484857, -0.52348477, -0.78363806, 0.73109370, -0.16357823, -0.13036367, -0.14032525, 0.45437557, 0.65564936, -0.55252045, -0.08028726, -0.03191329, 0.39199397, -0.19734144, -0.22922933, -0.47006452, -0.03904612, -0.09408561, -0.07546271, -0.04876807, 0.00459360, -0.16567437, -0.88939989, -0.14342181, -0.22648714, -0.24684061, -0.32207790, -0.05364600, -0.22246361, -0.40635854, -0.45643884, -0.28223065, 0.44345781, -0.02058934, -0.12084498, 0.35815638, 0.02156080, -0.29453537, 0.26274565, 0.09432936, -0.15038173, 0.42201850, 0.18595855, 0.26608643, -0.62385452, -0.19031318, -0.43340933, -0.49816817, 0.22093578, 0.33395761, -0.29851085, -0.33564249, -0.58800375, -0.22196014, -0.26347974, 0.55712020, -0.35936886, 0.48139128, -0.25000989, -0.07554132, -0.01017185, -0.85051411, 0.09148654, -0.22386058, 0.34657386, -0.12397089, -0.42097038, 0.37841782, 0.12785958, 0.03411604, -0.20636047, 0.33948955, 0.32211292, -0.18460844, 0.22232147, 0.16215694, 0.56565571, -0.16012257, 0.20530006, -0.22384384, 0.34349290, -0.15718131, -0.12311635, 0.27624154, 0.22751202, 0.19322675, -0.01977298, -0.05775280, -0.26890895, 0.42783707, 0.18344329, 0.02418041, 0.08782616, 0.03359269, -0.08415757, -0.08965480, 0.05930375, 0.11477856, -0.15775102, 0.15691248, -0.02581839, -0.03492551, 0.09612334, -0.25002685, 0.02962567, -0.13875417, -0.07369553, -0.01638699, -0.20948796, 0.03836351, -0.28653726, -0.46466425, -0.00858314, -0.22683969, 0.18518998, -0.03389684, -0.02398602, 0.01484077, -0.00004571, 0.32991162, 0.04849103, -0.04696713, 0.15666395, -0.00592307, 0.08201525, -0.18578768, -0.15720315, 0.10543552, 0.04987782, -0.03579707, 0.12625411, -0.08359163, -0.15105130, -0.03478967, -0.07449105, 0.22068709, 0.12715217, -0.06360079, 0.06050796, 0.08160704, -0.03135553, 0.13020676, -0.24615225, 0.13461418, 0.01124264, 0.03554919, -0.03580066, -0.04092506, 0.07423241, -0.28175250, 0.06339318, 0.04713416, -0.12362919, -0.11107089, 0.05275100, -0.05164448, -0.04877760, 0.02023960, -0.29990575, -0.07368369, 0.03471008, 0.21726742, -0.54126763, 0.32393265, 0.34409297, -0.21837176, -0.01298561, -0.22003077, 0.08929061, 0.28295347, 0.11007173, -0.04580336, -0.58481687, -0.02304115, -0.37602568, -0.42859817, 0.12707832, -0.08979715, -0.08949650, 0.26133338, -0.25563353, 0.14759192, -0.00335596, 0.51560289, -0.02722446, 0.30766493, 0.25257066, -0.14250001, 0.01361911, -0.51023483, -0.17176779, 0.00229948, 0.14247607, -0.15506472, -0.19620498, 0.22582138, -0.10277512, -0.01422353, -0.03559588, 0.05343984, 0.29038230, -0.04643296, 0.01001402, -0.10022993, 0.18439564, -0.09526549, -0.08511230, 0.01214696, 0.12993139, -0.11306088, -0.01462578, -0.03773177, -0.06048424, -0.13830298, -0.30723459, -0.08118726, -0.19105785, -0.31375855, -0.11473453, 0.12473258, -0.06678755, -0.11356261, -0.23773439, -0.17860322, 0.03046811, -0.02935217, 0.00255734, 0.18573290, -0.21427003, -0.03708645, -0.05943193, -0.10788165, -0.06797736, -0.53356969, 0.09372334, -0.06900809, -0.05974121, -0.03439365, -0.28456303, 0.00413295, -0.08783320, 0.03769753, -0.00971681, -0.15961993, 0.00331181, 0.04571860, -0.02021844, -0.20814063, -0.33984420, -0.18046880, 0.18728843, -0.00148112, -0.08327068, -0.23388268, -0.14858550, 0.10353927, -0.15748140, -0.20337997, 0.04106151, -0.00273870, -0.05385301, 0.01108081, 0.05581694, 0.15347902, -0.21153943, -0.07558318, -0.03118824, -0.18897612, 0.05117014, 0.09047690, 0.05623765, -0.05156640, 0.33274922, -0.06624922, 0.01240344, -0.11377069, 0.01335687, -0.09563987, 0.08897108, 0.03027874, 0.11021759, 0.23134218, 0.25813860, -0.05839367, -0.21744604, 0.07602242, -0.35415953, -0.06309411, 0.16178183, 0.10421606, -0.52740228, 0.06819770, 0.23551857, -0.26343444, 0.11687788, -0.26877216, -0.23451671, 0.12929825, 0.02024818, 0.01594997, -0.75879413, -0.18691245, -0.25031388, -0.65477765, 0.08903866, -0.23971647, -0.11724235, -0.02380036, -0.29357859, -0.00793894, -0.13192052, 0.32635081, -0.26670843, 0.08368407, -0.04873748, -0.07231017, -0.13794102, -0.60867041, -0.04407779, -0.09648058, -0.00040604, -0.20918256, -0.27135369, 0.17022201, -0.07023191, -0.22535998, -0.22270405, 0.01651777, 0.02473892, -0.12040991, 0.04833326, -0.05958247, 0.12475348, -0.20843768, -0.10302242, -0.24654843, -0.19014612, -0.18117271, -0.03627860, -0.18431711, 0.03600373, -0.01231817, -0.29330176, -0.00278291, -0.06337267, -0.17157750, -0.25705290, 0.07909504, -0.06938235, -0.10104875, -0.21746363, -0.38831815, -0.00746254, -0.05539787, -0.22301438, -0.02943680, -0.26310280, -0.14009549, 0.12528956, -0.08757959, -0.05803518, -0.25705883, 0.05980423, -0.05545912, -0.20289706, -0.00279818, -0.33435267, -0.17406633, 0.01003556, -0.00873339, 0.03270733, -0.24190243, -0.16355503, -0.20150389, -0.21352078, -0.08363919, -0.28645825, 0.02384754, -0.07389441, -0.27723357, 0.04269522, -0.45363122, 0.09202147, -0.06413479, -0.09770284, -0.04324925, -0.26036215, 0.16119224, 0.06012424, -0.20733936, -0.03822966, -0.02937461, -0.10742113, -0.25904906, 0.19798085, -0.00415810, -0.01558800, -0.02605874, -0.09249119, -0.05771769, 0.21189132, -0.05312434, -0.04643841, 0.12323447, 0.16062991, -0.13889405, -0.00190690, -0.04379755, -0.15658091, 0.11039726, 0.17152564, -0.12731297, -0.05931714, 0.19636659, -0.13474531, -0.06833218, 0.32923865, -0.10785218, -0.11511427, 0.19423535, -0.07543977, -0.19149981, 0.06921010, 0.13076070, 0.01645257, 0.14173412, 0.17703883, 0.22222224, -0.30723074, -0.20706524, -0.14030382, -0.28601402, 0.17012639, 0.31772450, 0.01788226, -0.18955204, -0.20792556, -0.17140441, -0.08592270, 0.16258016, -0.33426675, 0.18370278, -0.09225591, -0.03562921, -0.15065588, -0.16645722, 0.03576380, -0.06859335, 0.05950794, -0.28232300, -0.11646703, 0.18480113, 0.02384819, -0.11389665, -0.25251341, 0.24616067, -0.01924438, -0.12155056, 0.15750034, 0.04969855, 0.33399802, -0.07689166, 0.26231879, -0.25576311, 0.28408602, -0.05123367, 0.09747534, 0.17032820, 0.11985844, -0.03957968, -0.11380982, -0.10974403, -0.03274238, 0.28373238, 0.27032334, -0.19265734, 0.04940902, 0.22267254, -0.18582267, 0.05448881, 0.12368806, -0.38319096, 0.00691067, -0.34491003, 0.19242805, -0.17062117, 0.06932939, 0.05881837, 0.11762135, 0.56677556, -0.00101856, 0.03494526, -0.11456268, -0.09133522, 0.10866500, 0.12790832, 0.14144088, 0.34262249, -0.23214097, -0.15013975, -0.16196661, 0.08394726, 0.03044472, -0.12624118, -0.08984278, 0.06930261, 0.10095516, -0.05029393, -0.08402079, -0.52164847, 0.02033545, -0.00246135, 0.11117096, 0.04163763, -0.33790854, -0.04788311, -0.12664884, -0.12174013, -0.07388959, -0.26985154, -0.06962728, 0.00274167, -0.12179358, 0.00308170, -0.07970931, 0.04347157, 0.29143143, 0.03612379, -0.17647471, -0.07516084, 0.05472701, 0.17398898, -0.24287531, 0.06073588, -0.20476675, 0.04647410, -0.13832512, 0.05519961, -0.49565604, -0.00869776, -0.13977955, -0.22909531, -0.49595019, -0.26542997, 0.24950457, 0.38257724, -0.51735526, 0.32289281, -0.09045479, -0.30543140, 0.01292036, -0.36488149, -0.18605760, -0.02841550, 0.06187284, 0.03894339, -0.58681518, 0.06967739, -0.68322080, -0.66143209, -0.01640327, -0.01392973, -0.06997079, -0.18663533, -0.42361194, 0.10408600, -0.36378747, 0.70688790, -0.16985099, 0.19458278, -0.04072954, -0.18363823, -0.03408983, -1.25058854, -0.01526676, -0.10793638, 0.09375119, -0.10775849, -0.37752047, 0.31229287, -0.02758273, -0.04006134, -0.09880213, 0.27628538, 0.24088109, -0.24573401, 0.21277024, -0.03588210, 0.18453853, -0.07397575, -0.25481555, -0.20172557, 0.21664593, 0.07775573, -0.10753126, -0.16799000, 0.11462586, -0.27110451, -0.13663277, 0.08572877, -0.04020811, -0.25258946, 0.25196689, 0.22297117, -0.25183222, 0.04195877, -0.09651593, -0.23972860, -0.07880992, 0.12070873, -0.15112087, 0.17895322, -0.07098182, 0.03453956, 0.01469767, -0.16455257, -0.00047418, -0.43005279, -0.01429979, -0.11367113, -0.02446150, 0.11735545, -0.13805355, -0.18362555, -0.16223773, -0.15537104, -0.00144713, 0.06395962, -0.03210067, 0.37427804, -0.08907216, 0.03577232, -0.00400300, -0.07625540, 0.41242850, 0.00326407, 0.15479288, -0.04729418, -0.15884784, 0.10202876, -0.15083830, 0.20601694, 0.16462868, 0.04466948, -0.15535852, -0.03476672, 0.23360613, 0.15462705, -0.21787696, -0.13464563, 0.07357303, 0.10864219, 0.07598431, 0.17949694, -0.18548317, 0.01719665, 0.16131093, 0.14345957, -0.00320374, -0.00703893, 0.00851884, -0.27798080, -0.02261492, 0.06802295, -0.01132758, -0.16801126, 0.17644185, 0.04078273, -0.15639283, 0.18168513, -0.23902377, -0.27180722, 0.29904711, -0.06598938, -0.20708230, 0.19565827, 0.02756928, -0.31563982, 0.14340134, 0.09360678, 0.02181764, 0.16782939, 0.26610780, 0.28725985, -0.62842083, -0.20391417, -0.31937784, -0.74381930, 0.28870630, 0.26159859, -0.21338587, -0.36178786, -0.54929894, -0.32034007, -0.27580094, 0.35803995, -0.37108770, 0.31369963, -0.45544574, 0.06549804, -0.03306385, -0.74775344, 0.12257916, -0.09569801, 0.32821882, -0.37320638, -0.29269356, 0.28762326, 0.17994057, -0.00943768, -0.11593518, 0.24136743, 0.20162888, -0.21044812, 0.23088978, 0.19623147, 0.50789636, -0.04662618, 0.10123723, -0.20403737, 0.39134467, -0.06771782, 0.00499208, 0.20206480, 0.20982562, 0.13250121, -0.06939495, -0.23160540, -0.16472387, 0.34761947, 0.26273894, 0.05223867, 0.00985288, 0.19658177, 0.09992937, -0.02716465, -0.10001595, -0.43445909, 0.10161973, -0.20955944, 0.02054733, -0.09242278, -0.03360144, 0.15846005, -0.06794200, 0.01094071, -0.03660860, 0.03398862, 0.19928794, 0.06055189, 0.02943316, 0.21476084, 0.07958948, 0.22813347, 0.00660662, 0.00912008, -0.09724494, 0.28127268, -0.12214492, -0.35107958, -0.05331832, -0.06087767, 0.19393866, -0.07884584, -0.02229487, -0.23915428, 0.04884898, 0.24639301, -0.00489998, 0.00934592, -0.09671028, -0.10249434, -0.14399000, -0.26833719, 0.01653355, -0.11188552, -0.17051797, -0.03840724, -0.12506174, -0.02029778, -0.08714664, 0.18486798, 0.18996669, -0.11906026, -0.09702957, 0.16863948, 0.11874181, -0.03750795, -0.02494313, 0.19134440, 0.02545749, 0.04473671, 0.05138962, 0.16689153, 0.01413790, -0.23482414, -0.22478291, -0.00679875, -0.35990655, -0.23204447, 0.21865669, -0.51377177, 0.09752169, -0.07262044, -0.18499036, -0.31487677, 0.06922357, 0.28705621, -0.23562278, -0.11217795, 0.29703337, 0.25743955, -0.17330806, -0.15248729, -0.28552487, -0.32087725, 0.15039870, 0.39898273, -0.44385830, -0.23034948, -0.35165867, -0.05289812, -0.32064494, -0.54257834, -0.28019068, -0.08406470, -0.23357423, -0.18489246, -0.12460127, -1.54194653, 0.11648017, -0.24052696, -0.10738364, -0.36561102, -0.44530922, 0.05396967, -0.07105888, 0.02652280, -0.10687145, -0.01315003, -0.31738183, -0.31776214, 0.12012500, 0.04418492, 0.31092450, -0.02775606, 0.29873326, -0.21922562, 0.14764579, -0.12352374, -0.00358205, 0.25231224, 0.02191464, 0.14821617, -0.12591358, -0.30038756, -0.21105014, 0.51021326, 0.24995664, 0.03791933, 0.00257159, -0.10817573, -0.56370074, -0.15613371, 0.37490547, -0.47561249, 0.00904617, -0.49158332, 0.60768366, -0.45285642, 0.23882000, 0.18814979, -0.24112192, 0.90600830, 0.23718511, 0.38687891, -0.38696653, -0.12883139, -0.41121510, -0.32436538, 0.39552447, 0.49486533, -0.80271900, -0.12606005, -1.16556978, 0.05204002, -0.14983648, -0.03502842, -0.23307188, 0.24279775, -0.04503677, -0.25279304, -0.03814805, -2.23737574, -0.04997414, 0.04973236, 0.23942858, 0.03876198, -0.69053620, 0.14736447, -0.31740487, -0.28323138, -0.04753675, -0.31608430, 0.07126951, -0.54607993, -0.36286584, -0.03708433, -0.01320686, -0.00364247, 0.27397245, 0.09027820, -0.58626324, 0.04130213, 0.09873592, 0.19147684, -0.18392065, 0.39364320, -0.55115956, -0.00349156, -0.08327965, 0.11855325, -0.92870700, -0.09407198, -0.41324699, -0.78464389, 0.01988753, 0.02120318, 0.07815969, -0.38337073, 0.19978476, -0.28697360, 0.09367105, -0.06191697, -0.08820892, 0.17487331, -0.00866116, 0.19627534, -0.12032506, 0.18509729, -0.24173404, 0.02018870, 0.04477686, 0.12426565, 0.00494396, 0.35074556, -0.25726286, -0.09367689, -0.25035825, -0.26340434, -0.05008487, -0.16279688, -0.12090634, 0.04782514, -0.28589272, 0.06572074, 0.09011184, -0.53639710, -0.04299372, 0.00390037, 0.06092558, 0.06284926, -0.03843959, 0.08311468, 0.02921285, 0.04280278, 0.11071645, -0.17688274, -0.10676406, -0.08996174, -0.04986912, -0.00135966, 0.09543538, 0.11823568, 0.09151521, -0.12517114, -0.07874095, -0.02939597, -0.03209826, -0.03175846, -0.03101406, 0.11663934, -0.03923272, -0.00495484, -0.02621111, 0.10712077, -0.27944919, 0.02725262, -0.24247386, -0.10481745, -0.84455061, -0.91573519, 0.26454246, 0.48651323, -0.40773717, 0.41710567, -0.32717404, -0.26983166, 0.29804799, -0.47298667, -0.02778196, -0.62760729, 0.26688910, 0.04225973, -0.42975247, 0.17175291, -1.00089622, -0.83055389, -0.06872866, -0.40729558, -0.20039169, -0.28200668, -0.72817987, 0.06828702, -0.20672536, 0.44519120, -0.44883174, 0.02149438, -0.00230003, -0.22455269, -0.08317709, -1.77778208, -0.02878476, 0.09986623, -0.02516767, -0.15791374, -0.47200313, 0.21275267, -0.29960608, -0.25050816, -0.07154083, 0.42340910, 0.08470029, -0.59244853, 0.26197153, 0.06416866, 0.09899393, 0.04778783, -0.47625905, -0.20331666, 0.38146162, 0.00756217, 0.05156279, -0.15463270, 0.07403012, -0.47128978, -0.14575773, 0.10097457, 0.02423845, -0.26005694, 0.48079777, -0.11834973, -0.72071511, 0.04195368, -0.23569186, -0.06680221, 0.16603866, 0.32521465, -0.40759227, 0.21567173, -0.00584764, -0.18270025, 0.13982978, -0.16447146, -0.14435644, 0.23430325, 0.03466444, 0.05389288, -0.56718254, 0.07888157, -0.37082434, -0.42365864, -0.00827710, -0.02655766, -0.35339680, 0.23712395, -0.30252853, 0.37568742, -0.21928094, 0.43130127, -0.12420018, 0.25691804, 0.29805994, -0.31180188, -0.01195822, -0.32072827, -0.16050301, -0.02804979, 0.20296207, -0.02235052, -0.22804905, 0.29005653, -0.04879902, -0.20961307, -0.02989859, 0.08822248, 0.27631301, -0.13479519, 0.12951367, -0.09642893, 0.16733989, -0.11542013, -0.02213914, -0.19740905, 0.13016520, 0.10108777, -0.01539916, 0.11668755, 0.04516148, -0.10554697, -0.06132030, -0.04491871, -0.19555594, 0.10220823, 0.10472371, 0.06448354, -0.25243700, -0.22180399, -0.75909746, -0.35637629, 0.47837147, 0.42808437, -0.60671824, 0.39029416, 0.32065335, -0.67060965, 0.29546311, -0.23808326, -0.33782542, 0.58551908, 0.29070249, 0.20813534, -1.15729892, -0.18470523, -0.58763230, -1.20894170, 0.28251943, 0.01035981, -0.32702717, -0.48007339, -0.99258739, -0.29339910, -0.35249484, 1.07071054, -0.34909660, 0.52265781, -0.28324839, -0.16371287, -0.27832747, -1.87331927, 0.05803092, -0.22586465, 0.48055559, -0.19783279, -0.78986090, 0.60874951, -0.06678920, 0.06196498, -0.19883676, 0.36070707, 0.48159656, -0.30326834, -0.05464376, 0.04834397, 0.47256267, -0.22895028, 0.09870796, -0.34244126, -0.03755603, -0.17225032, 0.03692410, 0.18129249, 0.02039445, -0.01679555, -0.30205670, -0.10654183, -0.18023889, -0.08946972, 0.01508830, 0.04133323, -0.07600035, -0.13784659, -0.13755608, -0.36354077, 0.11166635, 0.05588835, 0.01023700, 0.22331008, -0.22866924, -0.08834235, -0.04805089, -0.20632002, -0.26670521, -0.45857117, 0.16415060, -0.04358913, 0.09884516, -0.14594540, -0.29951608, -0.05605303, -0.09791116, -0.04374725, 0.01048749, -0.09334015, -0.09975593, -0.01427698, -0.09322882, -0.02116058, -0.24497208, -0.02885466, -0.13071761, -0.14466447, 0.00437948, -0.37922314, -0.05566887, 0.01580708, -0.24549143, -0.02525663, -0.20519111, -0.01460798, -0.18799518, -0.20342915, -0.08063486, 0.14657323, -0.11681226, -0.17617242, 0.12331347, -0.14406438, 0.08263800, 0.02023041, -0.20500979, -0.19674022, 0.20208952, 0.04640338, -0.06237474, -0.07821217, 0.03962114, -0.25633571, 0.03012655, 0.09063818, -0.16679958, -0.02320140, 0.37051812, -0.02582151, -0.06215188, 0.08507871, -0.59015387, 0.15794975, 0.27867687, -0.42368916, -0.10349826, -0.22939819, 0.33748546, -0.48734215, -0.01130363, 0.29519579, 0.00004357, 0.56120414, 0.09130227, -0.08632728, -0.04931519, -0.11749554, -0.64177704, 0.05085864, 0.34440088, 0.18395773, -0.66084284, 0.27790284, -0.41532439, 0.29270500, -0.28770387, -0.26950687, 0.03611684, -0.18417196, 0.32353848, -0.24367310, -0.03104304, -1.73783255, 0.03854651, 0.15335532, 0.36476660, -0.00231089, -0.51521242, 0.12929164, -0.25336742, -0.29114726, 0.05110015, -0.21514496, -0.24955213, -0.11229327, -0.22956572, -0.02618309, -0.01354397, 0.18813317, 0.21958691, -0.27715707, -0.25535592, 0.27246541, 0.07989784, 0.12416478, 0.03876128, 0.26457500, -0.04402918, 0.01070034, -0.12645146, 0.22141884, -0.34838402, -0.07949294, -0.62804961, -0.43767652, -0.34899902, -0.27435684, 0.16207477, -0.44351441, 0.09039222, -0.06427018, -0.42755976, -0.31951973, 0.15062600, 0.14883929, -0.08436540, -0.13137905, 0.14643292, 0.19533075, -0.24653570, -0.08316141, -0.41192380, -0.29033911, 0.16799761, 0.25818175, -0.43558550, -0.24247402, -0.29819077, 0.04251468, -0.35758761, -0.57966757, -0.47685182, -0.02468556, -0.06759231, -0.23334721, -0.24343064, -1.24114430, 0.10426374, -0.13338885, 0.05182569, -0.27642119, -0.25636169, 0.23721547, 0.01391694, -0.06838212, -0.05333652, 0.02178818, -0.21425745, -0.20861128, 0.21433330, -0.04278904, 0.44149679, -0.08818801, 0.19829087, -0.14291026, 0.38482112, -0.01715385, -0.00264266, 0.33534980, 0.25289753, 0.24527499, -0.02846876, -0.18988515, -0.32689369, 0.49511191, 0.29672208, 0.07177538, -0.11992134, 0.14490946, -0.06402100, -0.14735869, 0.01648259, 0.26958665, -0.49951878, 0.21920337, 0.04608866, -0.22418711, -0.04083087, -0.22434156, -0.12453223, 0.11134857, 0.13014762, -0.02002149, -0.45762360, 0.05507783, -0.37396041, -0.56675839, -0.01931049, -0.16258244, -0.12431937, 0.07618054, -0.31943813, 0.17426559, -0.12728100, 0.36611912, -0.08758714, 0.22072659, 0.21663752, -0.16508578, 0.07849689, -0.62530798, -0.20401827, -0.04144862, 0.06458177, -0.14194255, -0.01714120, 0.15916082, -0.00157210, -0.18417113, -0.19331504, -0.02838301, 0.15425460, -0.09249751, -0.10019060, -0.13667735, 0.06400830, 0.00710102, -0.21524936, -0.20253232, 0.00875535, -0.04912912, 0.09270306, -0.05454534, 0.01426486, -0.18211344, -0.20095748, 0.05800850, -0.11943985, -0.33859515, -0.08190292, 0.04328118, -0.08488962, -0.11083088, -0.26355213, -0.02760387, 0.20225105, 0.19216332, -0.30504656, 0.09501187, 0.38943908, -0.05764981, 0.07525290, -0.17249613, -0.07489394, 0.52243382, 0.09335889, 0.11037921, -0.72624403, -0.08199000, -0.00528488, -0.36539158, 0.02425717, 0.09073228, -0.08015418, -0.07894639, -0.39227164, 0.01862154, -0.10608777, 0.46398190, -0.20872669, 0.25269434, -0.19465332, 0.06434515, -0.12944382, -0.86619073, -0.12025734, -0.20093690, 0.20753099, -0.08426321, -0.07356513, 0.07922948, -0.01993408, 0.05782954, 0.02214338, 0.22814287, 0.27516010, -0.26958221, -0.04288465, -0.01759446, 0.10866108, -0.11473924, 0.06245343, 0.06365535, -0.08063618, -0.12802242, 0.12045987, 0.03422611, -0.08351483, -0.11843376, -0.18032973, -0.16870746, 0.10036489, -0.14061035, -0.38761035, 0.09091187, 0.01919900, -0.08312267, -0.13914992, -0.18732682, -0.37724882, -0.56971741, -0.55042619, -0.12802063, 0.00232852, -0.26578599, -0.23330189, -0.33848065, 0.06990192, -0.39308959, -0.43128154, -0.34984624, -0.46446627, 0.47123843, -0.50607175, -0.36671570, -0.37098810, -0.37050307, -0.22542168, 0.37017402, -0.55521619, 1.12203026, -0.13758424, -0.19462019, 0.23546858, -0.26151514, 1.00500095, -0.45326924, 0.38995382, -1.33701897, -0.25479117, 0.71657819, -0.14916819, 0.21447605, -0.20167078, -0.18198161, -1.02214026, -0.68058461, 0.19109149, -0.05345215, -0.22316121, -0.30704108, -0.24888691, -0.18289714, -0.31304753, 0.42640078, -0.33536014, -0.15753071, -0.35023269, 0.49452522, 0.41342229, -0.24678670, -0.19905221, -0.39290187, -0.53583175, 0.19053477, -0.07861968, -0.34576285, -0.53031224, -0.16807005, -1.10785460, -0.30919692, -0.31965867, -0.00075977, 0.04324652, 0.06277389, -0.43861258, -0.05070485, 0.22302735, -0.15848427, 0.00107334, -0.25047117, 0.01698378, 0.29468703, 0.05371463, 0.13799703, -0.69628954, 0.00076005, -0.23611324, -0.76046050, 0.21786566, -0.04133133, -0.07451858, -0.10382530, -0.28246209, 0.03206189, -0.28452149, 0.54556918, -0.15559244, 0.15566300, 0.05825078, 0.00115486, -0.12791491, -0.78575838, -0.19287901, -0.02691906, 0.24446389, -0.16179954, -0.24712177, 0.18623984, -0.13879320, -0.02804585, -0.13543950, 0.07807160, 0.18946369, -0.09057162, -0.02458606, -0.06061353, -0.09274450, -0.08396140, -0.08923356, -0.17893147, -0.20414734, -0.10067976, 0.08370443, 0.01498322, -0.19179104, -0.12888736, -0.39429760, -0.02164961, -0.23102912, -0.21676926, -0.34802207, 0.02679132, 0.03075318, -0.18781869, -0.02587218, 0.20716038, -0.10531554, -0.19040988, 0.06936011, -0.17122625, 0.41841859, -0.11616343, -0.13985139, 0.15371203, -0.01495867, 0.52887213, -0.06462994, 0.02526277, -0.17888078, 0.12820476, -0.07077479, 0.05989822, 0.13465029, 0.03216201, -0.15519534, -0.09441988, -0.18174559, 0.26903531, 0.13398835, 0.17577471, 0.06086101, -0.04138469, 0.04808312, -0.12439931, -0.10421062, -0.28925896, -0.00036144, 0.00317731, -0.01074739, 0.08012018, -0.20686339, -0.12445343, -0.20604995, -0.19872120, 0.03291821, -0.08326116, -0.10067219, -0.05998170, -0.02809281, -0.01741556, 0.04329929, 0.17453726, 0.05969099, -0.07752912, -0.40892306, -0.05625934, -0.13336633, 0.08410681, -0.20951164, 0.13537277, -0.27822343, 0.13753556, -0.00276775, 0.01257017, -0.44244289, -0.03099681, -0.33397624, -0.30901411, 0.01953782, 0.02823998, -0.03942087, 0.12904866, 0.02742242, -0.01716593, 0.04525210, 0.05631845, -0.06704628, 0.06114044, -0.09593873, -0.10955700, 0.01026701, -0.10302122, 0.21475047, -0.05065628, 0.24509726, 0.22102457, -0.12595199, -0.02249717, 0.27601141, 0.03428211, 0.17237274, -0.31747550, 0.08015148, -0.11261572, 0.08226351, -0.10800797, -0.15632467, 0.02237800, -0.17148574, 0.20937461, -0.19387148, -0.05683531, 0.02246230, -0.07719091, 0.03759203, -0.36175960, -0.16589025, -0.22693032, -0.19468717, -0.14740893, -0.16950402, 0.08822605, -0.02167713, -0.12622137, -0.05196498, -0.11623906, -0.19248818, 0.02180570, -0.16762143, -0.04517354, -0.04569072, -0.11450489, -0.06680806, -0.05753601, 0.15959577, -0.11444243, 0.00797550, 0.03249027, 0.09409153, 0.07210270, 0.10394852, 0.18160546, -0.09976543, -0.41696343, -0.03081992, -0.19166256, 0.01410253, 0.17544268, -0.31323695, -0.13708524, 0.11849640, 0.04669768, 0.10969663, -0.23089534, 0.01899180, -0.11558764, 0.10202520, 0.02056761, -0.17573422, -0.05791776, 0.07627763, 0.01349573, -0.01778916, -0.01132103, -0.18094441, 0.01034266, -0.15274069, -0.30589402, -0.21986443, -0.12266192, -0.08371141, -0.21591960, 0.02750691, -0.87913126, -0.02273123, 0.01563761, -0.04551248, -0.01293809, 0.12911640, 0.09196682, 0.00191559, -0.07147092, -0.06230182, 0.11595780, -0.18016925, -0.23818961, 0.14353719, 0.03932204, 0.29261738, -0.05171217, 0.01680816, -0.06863467, 0.34648085, 0.03446330, -0.01906269, 0.09026156, 0.08110094, -0.06968486, 0.00970399, 0.14650744, -0.05887004, 0.18312109, 0.44175977, -0.12929861, 0.02783834, 0.05931875, -0.03909232, 0.05785117, -0.17642310, 0.10460725, -0.24882823, 0.07188927, 0.24742261, 0.04640783, -0.19710031, -0.06419727, -0.01651561, 0.16007836, -0.05790390, -0.12888888, -0.14720564, -0.07743719, 0.03458438, -0.12130324, -0.08386778, 0.04290304, -0.07674071, -0.08384467, -0.05371458, 0.15666227, -0.09078968, 0.28603670, -0.04990475, 0.13427080, 0.18240798, -0.14686857, -0.23607758, -0.15532190, -0.17434739, -0.08114064, 0.05028753, -0.07329641, 0.15347488, 0.12803899, -0.18611227, -0.17817914, -0.23976870, 0.05351938, 0.15208752, 0.05334575, -0.14538139, -0.01729288, 0.03958584, -0.22166389, 0.05125383, -0.08254478, -0.08178845, -0.12478469, 0.08141681, -0.20541686, -0.21374522, -0.03910871, 0.05537824, -0.01026916, -0.13891652, -0.08249938, -0.12255955, -0.19356734, -0.29669341, 0.01218177, -0.35180885, -0.20681483, 0.33332959, -0.76625478, 0.24079657, -0.26220286, 0.14919651, -0.58435684, 0.19629379, 0.27163908, -0.17287701, 0.50226045, 0.26653242, 0.23351701, -0.13182820, -0.11840161, -0.24376801, -0.21965186, 0.34481490, 0.49172196, -0.70630556, -0.23251373, -0.76500106, -0.00754676, -0.21375844, -0.32112005, -0.17831250, -0.02005178, -0.31745425, -0.09292329, -0.18057808, -1.97333741, 0.00251391, -0.02676004, 0.11800481, -0.30279762, -0.42560512, 0.12237231, 0.00312877, 0.06848595, -0.10760026, -0.35517672, -0.22238809, -0.38931662, -0.09224387, -0.07867109, 0.20232242, -0.16105433, 0.43284035, -0.01273065, -0.12281707, 0.03367738, 0.01661176, 0.17307574, 0.08844720, 0.35428968, -0.26820031, -0.23427360, -0.03638526, 0.30654076, -0.09114219, 0.10235381, -0.23729359, -0.39214289, 0.01771259, 0.07096667, -0.07079703, -0.02472196, -0.23243368, -0.10865084, 0.21623814, 0.10383966, 0.00200220, 0.00565991, 0.15699250, 0.30043796, -0.11120883, -0.06950280, -0.12300101, 0.13197950, 0.00307421, -0.11168032, -0.00826328, 0.01770218, -0.08678623, -0.05107822, -0.01750244, 0.13776937, 0.04578844, 0.29239002, 0.08659222, -0.01001152, 0.13493137, -0.00065960, 0.19426616, -0.12576261, -0.11882438, 0.09733476, 0.03896780, 0.13861465, -0.06452522, -0.03802696, -0.11139697, -0.19179346, 0.11632440, -0.03946432, 0.06247121, 0.00783980, -0.03968523, -0.09109130, -0.04093823, 0.02090882, 0.09792397, 0.04463651, -0.27585071, 0.11035179, 0.12686864, -0.02881327, -0.04192808, -0.06527141, -0.14208643, 0.13309462, -0.11415686, -0.21415271, -0.30959854, -0.06018592, -0.26794600, -0.21402694, -0.22296526, -0.15344273, 0.10463425, -0.09290227, -0.13562037, -0.14746220, -0.07435872, -0.25696045, -0.13122888, 0.03449940, -0.08669891, -0.08275241, 0.00110198, 0.09660961, -0.00562375, -0.05433053, -0.11056260, 0.01984129, 0.09212434, 0.09179240, -0.19699648, -0.23947941, -0.21806826, -0.27179804, -0.22456992, -0.20958708, -0.19510899, 0.04270797, -0.27627090, -0.05430088, 0.11080585, -0.79524440, -0.06294676, -0.18148525, 0.00043922, -0.02247140, -0.07754734, -0.01140390, 0.04369619, -0.25076875, -0.14481147, -0.03684054, -0.17301159, -0.03188936, 0.01362034, -0.12683073, -0.02118907, -0.13803449, -0.11562947, -0.15127185, -0.01106874, -0.06653173, 0.00754352, 0.02125325, -0.05814447, 0.08605706, -0.05202134, -0.05943174, -0.04666942, 0.21191123, 0.05012193, -0.10989062, 0.21354452, -0.11600873, 0.03935994, 0.09300846, -0.03790382, -0.15608276, -0.27138963, -0.15981175, 0.22654946, 0.01683846, -0.11816578, -0.01409741, 0.14514245, 0.20108424, -0.13123217, -0.04547061, -0.36051920, -0.12542139, 0.04912199, -0.25397727, 0.12120762, 0.16497651, -0.08502721, 0.07333484, -0.11411028, 0.11317005, -0.16311036, 0.09565824, -0.16669592, 0.15086889, 0.13758355, 0.04867598, -0.01228616, -0.07158574, -0.14644018, 0.04749025, 0.01242160, -0.01711986, 0.06155699, 0.09379469, -0.08529460, -0.16493455, -0.05264216, 0.01331692, -0.00134663, -0.11026213, -0.08713800, 0.03886476, 0.02059445, -0.04025787, -0.07422094, 0.02190330, -0.08538909, -0.09761062, -0.03277390, -0.06757399, 0.02721397, 0.07488456, -0.26653543, -0.03499647, -0.10897879, -0.08516036, -0.30851170, -0.05623182, -0.09639078, -0.20640606, -0.18938129, -0.16707569, 0.03654457, -0.06777383, 0.12259986, 0.02458887, -0.20282564, -0.09445988, -0.12808013, 0.03608550, 0.03575853, -0.42157906, -0.07809889, 0.03910093, 0.08062116, 0.02680427, -0.24293385, 0.09258129, -0.15760797, 0.07162344, -0.09374306, 0.02432332, 0.10953163, 0.39220625, -0.12387876, -0.15870060, -0.14094904, -0.07141256, 0.12880920, -0.04661420, -0.11734316, -0.22885679, -0.15473567, 0.23866567, -0.14537813, 0.07730663, 0.07495172, -0.00144417, -0.07336003, -0.35006380, -0.15609480, 0.14349334, -0.22045960, -0.06827938, 0.17903334, -0.00935849, 0.09770565, 0.13645366, -0.14499418, -0.12056764, 0.25483015, 0.15314421, 0.10027482, -0.01000305, 0.07241074, -0.03472089, 0.14771065, -0.04793904, -0.05064213, 0.19618969, 0.29303610, -0.19178322, -0.11950917, 0.10824005, -0.09508395, 0.12153321, -0.05151285, -0.18122599, -0.09287562, -0.27348641, 0.26274332, -0.16156052, -0.03300355, -0.06936330, 0.14773193, 0.53829706, -0.05095404, 0.10058672, -0.11349401, 0.08320337, 0.15717097, -0.07757393, 0.09560902, 0.21397839, -0.09234571, 0.07279704, -0.13095008, 0.00633328, 0.08688170, 0.18639341, 0.12170981, 0.10159020, 0.08331437, -0.04489110, -0.01750310, -0.79862899, -0.20559259, 0.19619755, 0.13285996, -0.12474702, -0.11530790, -0.12659562, -0.10833035, -0.23928818, -0.05044916, -0.07869492, 0.14360961, 0.00777369, -0.26851636, 0.08438116, -0.15233834, 0.06621550, -0.00292142, -0.12125136, -0.30015668, 0.07533456, 0.03177973, 0.12315992, -0.08593517, 0.17431797, -0.32324991, 0.07092577, -0.09682636, 0.05591731, -0.34459683, -0.04244503, -0.05216767, -0.44091600, -0.07458505, -0.08887652, -0.05937839, 0.12247336, -0.25517514, 0.03360971, 0.27672878, -0.24133061, 0.02764620, -0.17861727, 0.06335695, 0.31224352, 0.08666174, -0.03910903, -0.24537401, -0.09242519, 0.01527405, -0.33576721, 0.00379750, -0.08752426, -0.25039011, -0.09379487, -0.39593387, -0.03482854, -0.01812045, 0.41727594, -0.27604321, 0.20331447, -0.01714967, -0.14464019, 0.19109370, -0.91071534, -0.12727195, -0.00757638, -0.03099769, -0.05915266, -0.19334051, 0.11303119, 0.19958685, -0.20281340, -0.11642635, -0.08346105, 0.14507794, -0.18061051, -0.07197457, 0.10018620, -0.00829717, -0.14716448, -0.00561958, 0.07621103, -0.21104877, -0.08761331, -0.04468137, -0.21289128, -0.08137280, 0.01621419, -0.29670841, -0.10882138, -0.30238327, -0.23779593, -0.40247691, -0.01437955, 0.13340828, -0.21517923, 0.04363245, 0.08593839, -0.03276495, -0.04677567, -0.20451728, -0.01010389, 0.14232168, 0.02373726, -0.06673866, 0.09670679, 0.06309617, 0.39425790, -0.00710545, -0.08706220, -0.32583824, -0.17393053, 0.11169655, -0.07914075, 0.06215224, 0.07553768, 0.02630111, 0.23248953, 0.04117716, 0.06569619, -0.08130493, 0.21431974, -0.01858133, -0.00468024, 0.11098181, 0.16001768, 0.16778927, -0.43175024, 0.12145066, -0.07613188, 0.12937723, 0.06099202, -0.07777986, -0.06900486, -0.02426248, -0.02430091, -0.16644628, 0.01516253, 0.23778351, 0.05826102, -0.15993527, -0.05266871, 0.07153212, -0.01779742, 0.09759054, 0.07329904, -0.02412772, -0.18742491, -0.03394709, -0.02280897, -0.00926622, 0.06048834, -0.11693022, -0.12236849, 0.03105432, -0.07044753, -0.34579241, -0.03140559, -0.02775732, -0.20796703, -0.15165609, -0.33438599, 0.05553916, -0.14051174, 0.01132559, 0.15109426, -0.40171835, -0.03330811, 0.02451748, 0.01417907, -0.02461997, -0.52027953, 0.02458629, -0.03819920, -0.04107187, 0.03839826, -0.32243848, -0.19238435, 0.08127391, -0.09404646, 0.02714554, -0.10624099, 0.05917482, -0.03006493, -0.19675930, -0.25712559, -0.20432781, -0.04650989, -0.00522871, -0.24384367, -0.03761623, -0.74668765, -0.00926247, 0.12261065, -0.06298205, -0.21312734, -0.16222617, 0.05533908, -0.09755799, -0.17064041, 0.02487360, 0.17354549, -0.13962536, -0.20662253, 0.17324638, -0.16797276, 0.03614699, 0.14966774, -0.06466736, -0.08760872, 0.37803915, 0.00903562, -0.09129982, -0.00381182, -0.06607946, -0.17041343, -0.02120660, 0.00540138, -0.09519717, 0.17859270, 0.44718972, -0.11667016, -0.13892576, 0.16523647, -0.07965429, -0.09211002, 0.08022317, -0.28116235, 0.15461080, -0.19706799, -0.18699092, -0.06770931, 0.02642889, 0.15071820, -0.00413364, -0.17742626, 0.10234611, 0.07887700, -0.01382499, 0.10345782, -0.05461745, 0.09514894, 0.03461213, 0.24197632, -0.22872449, -0.05470100, -0.10178558, 0.22968312, -0.18663958, -0.51485294, -0.19716690, -0.01799486, 0.20351307, -0.01334388, -0.12980874, -0.48093182, -0.03001896, 0.20164704, -0.06835333, -0.02182306, -0.16489285, -0.08023380, 0.07481776, -0.03547807, -0.07967993, -0.00976582, -0.18755424, 0.05313739, 0.01455796, -0.04366862, 0.09569342, 0.00814303, 0.11697987, 0.00893887, 0.14145836, -0.05159203, 0.09861416, 0.05318153, -0.04997239, 0.19850370, -0.07453115, 0.04541700, -0.19139475, 0.34525174, 0.11971504, -0.21130723, -0.17807880, -0.04366752, 0.02548181, -0.10865421, -0.09095633, 0.15438272, -0.02086443, 0.20954823, -0.15933843, -0.03582792, 0.00474071, -0.22816092, -0.13485216, -0.24347770, -0.09813581, -0.05433001, 0.05549891, 0.10527161, -0.10186444, -0.07126481, 0.01118859, -0.19545698, 0.04266981, 0.13823973, 0.03002679, 0.02903805, 0.03189652, 0.12833197, 0.02133820, -0.03748804, 0.01196535, -0.16406077, 0.04986941, -0.01162735, -0.18031049, 0.23140581, -0.20304625, -0.09132610, -0.08878016, 0.06488921, 0.15491104, -0.31544501, -0.15201767, 0.13098589, -0.10214408, -0.05689371, 0.12418950, 0.03035512, -0.15626012, 0.01178748, -0.11362525, 0.05507850, 0.08771361, 0.04590034, -0.00262154, -0.01002519, -0.00981171, -0.17305659, 0.10227518, 0.01237725, 0.06012901, 0.01299803, 0.23441206, -0.00512019, -0.11963098, 0.03788609, -1.00248790, -0.69768405, 0.66276854, 0.21124728, -2.17593408, 0.53157699, 0.38144010, -0.89062691, 0.46459574, -0.51165885, -0.18230678, 0.46287778, 0.53440660, 0.43266788, -3.26430607, 0.05936723, -1.16641057, -2.87615037, 0.53834218, -0.20144325, -0.75700665, -0.42081666, -2.24233460, 0.13064225, -1.02645290, 1.26802850, -1.02747166, 0.73505151, -0.13234140, -0.44778168, -0.16508278, -2.78457737, -0.36947599, 0.02457848, 0.43287075, -0.52241999, -0.87040257, 0.71155667, -0.03644115, -0.42174384, -0.30751333, 0.51806766, 0.56953639, -0.88637960, -0.04581631, -0.06601989, 0.34418792, -0.04336908, -0.39492780, -0.68098897, -0.04350045, 0.03926531, 0.07179838, -0.11504181, -0.10698199, -0.37088802, -1.33413148, -0.08392584, -0.59671837, -0.66130286, -0.37515241, -0.03572347, -0.37731272, -0.41888753, -0.12523144, -0.03080832, -0.03478814, 0.11091679, -0.05068175, 0.04165157, 0.25062105, -0.08170021, -0.02202303, -0.14949609, -0.04256766, 0.06500232, -0.05038627, -0.03110736, -0.23893878, -0.06898553, 0.04658009, -0.19153121, 0.08130269, 0.04174966, 0.04570834, -0.08455013, -0.29699284, -0.17355409, -0.01658271, 0.20049103, 0.11110098, 0.02062657, -0.28133732, 0.13704607, -0.18858774, -0.47873202, -0.04675321, -0.12427668, 0.18205416, -0.07234976, -0.07743967, -0.07762118, -0.09763347, -0.01000416, 0.06401402, -0.03927486, 0.07189558, -0.24748024, -0.05027347, -0.05833838, -0.11319065, -0.02036140, -0.03830404, 0.10455053, -0.15191272, -0.06793655, -0.04522337, -0.11060289, 0.03332917, 0.03078667, -0.02450639, 0.03519696, 0.00131501, -0.02093956, -0.17546630, 0.24320526, -0.04113844, -0.15543096, 0.06838871, 0.21228875, -0.04098433, -0.19757128, -0.00113223, -0.27643859, 0.26423308, 0.00033345, -0.09850585, -0.02168127, 0.00885547, 0.28010088, -0.05578976, -0.11303359, -0.01958575, 0.10498207, 0.17730495, 0.12875836, -0.02219050, -0.09330494, -0.09315814, 0.10330173, -0.06463947, 0.04267431, 0.10473947, -0.01071111, 0.08963433, -0.05357423, 0.20895799, -0.06976335, -0.02906356, -0.18173347, -0.17360188, 0.08113842, -0.05376083, 0.10177185, -0.15558961, -0.03163823, -0.41371977, 0.00268969, -0.05654619, -0.25181118, 0.01553775, 0.07614107, 0.02474608, -0.03992694, -0.17808676, 0.07757117, 0.07642707, 0.08196863, -0.22425127, -0.06512979, -0.01303707, -0.11971027, -0.18325955, 0.17966074, -0.08272468, -0.01984937, 0.17754304, 0.08539096, -0.28209269, -0.05253046, -0.45711398, -0.18974425, -1.22211921, -1.15627682, 0.35565749, -0.37875569, -0.24279520, 0.29619023, -1.14288282, -0.50153035, 0.19053212, 0.15809456, -0.18081193, -1.35563970, 0.54914123, 0.31281608, -0.97873586, -0.17028320, -1.22965312, -1.10809731, 0.30233961, 0.20976736, -0.50907624, -0.42069104, -1.60099816, -0.08344565, -0.58745402, -0.82868820, -1.08404326, -0.14028366, -0.17832503, -0.30150267, -0.19192371, -2.06491518, 0.18644322, -0.08981704, -0.33366585, -0.19658308, -0.85368526, 0.37848508, -0.22430454, -0.18357119, -0.10767497, 0.42217717, -0.57831508, -0.80724108, 0.44668457, 0.09247683, 0.75343627, -0.19977030, 0.18154737, -0.31978410, 0.80754495, -0.24011774, 0.04254311, 0.43180642, 0.29649422, 0.00585102, -0.56774944, -0.20365778, -0.28414318, 0.69311064, 0.92191255, 0.02955139, -0.39152902, 0.20073861
};

static const float net_2_bias[64] = {
  0.01578045, -0.07246068, 0.19073647, -0.05496210, 0.05629069, 0.01727631, 0.01895197, 0.01204647, -0.14012814, -0.01279200, 0.18835862, -0.03125911, -0.14154927, 0.09011071, 0.16702202, -0.16586500, 0.25855300, 0.06255794, 0.09348771, -0.19510086, -0.04981917, 0.11573999, 0.07576937, 0.03907722, 0.00475922, -0.02936308, -0.04707693, 0.05195906, -0.08713382, 0.11230433, -0.05059707, 0.17140515, -0.08120804, 0.16490369, -0.05187660, 0.00174058, -0.07269915, -0.22009434, 0.03338480, -0.07883152, -0.07730760, 0.04819119, 0.02983193, 0.25162736, -0.03645203, 0.11148102, -0.08538730, -0.10533935, 0.14810574, -0.10650182, 0.15891226, -0.07489914, 0.07145103, 0.11485810, 0.06528772, 0.09235127, 0.09481165, -0.03412140, 0.05277206, 0.11318024, -0.07740073, 0.06645936, 0.20053621, -0.03179238
};

static const float net_4_weight[192] = {
  0.01351068, -0.53955859, -0.30345911, 3.76480651, -1.16932714, 0.81553626, 0.01056745, 0.05961099, 0.63912696, -0.02766467, -0.05656409, 0.19041020, 0.03041645, -0.54417795, -0.16552459, 0.29514608, -0.29351634, -0.24389310, 0.43572873, -2.56610727, -0.10747721, -0.22220853, -0.51784360, 0.27556962, -0.18290056, 0.04960422, 0.04064300, 0.15562414, -0.61427993, -0.01842621, 0.00037659, 0.38193190, 0.83013362, -0.69351161, 0.12224151, -0.45185047, -0.19074123, -1.17370665, 0.15590782, 0.39852199, 0.86749965, -0.27273825, -0.27988136, 0.12379866, -0.44203869, -0.17298661, 0.03770110, 0.30761293, -0.20176046, 0.85396296, -0.19918580, 0.08052961, -0.09255273, 0.17845963, -0.22069091, -0.28106591, -0.07661806, 0.37991232, 0.40790105, -0.07744993, -3.77089334, -0.05456713, -0.05952482, 2.53296781, -0.02736450, 0.05206752, -0.10556316, 0.89577496, -0.34602755, -0.14258175, 0.31026915, 0.00361088, -0.33555400, 0.03927022, -0.00330715, 0.09283008, -0.06370895, 0.02653758, 0.03292663, 0.22604102, 0.04846697, -0.20965889, -0.04576896, 0.72509831, 0.65595978, 0.02695328, 0.12082233, 0.03900762, -0.16427843, -0.06548883, 0.26347214, 0.03099192, -0.03423737, 0.07146171, 0.38012007, 0.10389878, 0.14077026, -0.08177586, 0.03240218, -0.43397272, 0.07487988, 0.85222387, -0.08630707, -0.00935753, 0.19558640, -0.02196007, 0.15599062, 0.41699898, -0.14449669, 0.03961934, -0.05001136, 0.08972444, -0.01067794, 0.26712874, 0.08715119, -0.09532958, 0.06470834, 0.04500911, -0.02079345, 0.04371270, 0.03218219, -0.03512933, 0.11724404, -0.04216096, 0.58673185, -0.01006939, -0.05106568, 0.47910175, 0.05424850, 0.49615258, 0.27730891, -0.83958268, -1.37377119, 3.00955510, -0.00558140, 0.12027973, -0.45584786, 0.00004901, 0.01112979, 0.52547342, -0.00664204, -0.57100046, 0.35973063, 0.33531183, -0.12200883, 0.53723061, -0.19715010, 0.10273435, 0.06271848, 0.15579312, 0.11303224, 0.26126364, 0.00236584, 0.06817378, 0.03217845, -0.83628762, 0.51097810, 0.32790819, 0.06285267, -0.26064864, -0.20424262, -3.42912173, -0.20573629, 1.90496325, 0.04212029, 0.05651482, 0.46249595, -1.01164556, 0.12881675, 0.12234268, -0.08139370, -0.01213959, -0.06568540, -0.45246294, -0.00596706, 0.20310809, 0.00158289, -1.39830339, -0.13280590, -0.00948546, -0.02326222, 0.21243806, -0.46180665, -0.04580046, -0.06888486, 0.50472808, -0.08415848, 0.16842134, 0.34883463, -0.00382915, -0.19956814, 1.73601794
};

static const float net_4_bias[3] = {
  -0.10522158, 0.33817276, 0.02604725
};

static const float input_mean[3] = {0.00000000, 0.00000000, 6749.99951172};
static const float input_std[3]  = {2338.09155273, 2338.09155273, 4214.56005859};
static const float output_mean[3] = {0.00000001, 0.12292606, -0.00000000};
static const float output_std[3]  = {22.14661598, 71.60929108, 22.14662170};
