// Auto-generated field NN weights
// Architecture: [512], activation=relu
// Parameters: 3587, FLOPs: 6656
// MAE: 9752.78 Gauss, p99: 56406.5 Gauss

#pragma once

static const float net_0_weight[1536] = {
  0.30139872, 0.40694091, 0.23611669, -0.22114821, -0.37404311, 0.40141314, -0.87115306, 0.05098995, 0.60988885, 0.78841996, -0.19740373, 0.12011911, 0.07977276, 0.04765088, -1.02391624, -0.71500152, -0.19473617, 0.11737186, 0.90605539, 0.28265002, -0.66459018, 0.57433915, -0.20863947, -0.63821155, 0.71053427, -0.08510229, -0.28635126, 0.21056224, -0.47103992, 0.21259922, 0.79061800, -0.07738595, -0.12080520, 0.63444775, 0.32812968, 0.21248910, -0.45858523, -0.32846111, 0.26817277, 0.17619555, 0.12352383, 0.00548499, -0.49015129, 0.10523867, -0.70923120, 0.38664308, -0.33741665, -0.13404889, -0.68619698, -0.12843226, -0.86123556, -0.14179562, -0.05870555, -0.42638290, 0.51233667, -0.19473214, -0.57837087, 0.00188071, -0.42707682, -0.00694543, -0.32668480, 0.16381872, -0.51113981, 0.86247361, 0.23379581, 0.03385851, -0.60226208, -0.24326973, -0.80116302, 0.10272957, -0.07023916, -0.37129065, 0.23993509, -0.20202161, 0.56243664, 0.16497774, -0.33156064, 0.22677617, -0.35208559, 0.46925703, -0.06518294, -0.16945693, -0.21201771, -0.53285390, 0.05842538, 0.37796372, 0.13538624, -0.03220377, -0.20417915, -0.01421869, -0.11750276, -0.04877781, -0.54202753, -0.09293044, 0.11391997, 0.41121241, -0.26888680, 0.16630244, 0.60301244, 0.65169734, 0.20688118, 0.37751219, 0.46357283, 0.35136008, 0.38662505, -0.53785437, -0.05442408, -1.00815558, 0.39544258, -0.35229811, 0.14785507, 0.12438400, -0.04162220, 0.06894881, 0.07167096, 0.31221873, -0.29888681, 0.19929278, 0.26703587, -0.80154818, 0.53906721, 0.25218716, -0.55839777, 0.64408386, 0.45627871, 0.60462302, 0.03340944, -0.03711709, 0.80721533, -1.15543783, -0.05961377, -0.45695329, 0.08450681, 0.11698027, -0.85904676, 0.77255434, -0.05693621, 0.92276853, -0.95349145, 0.12034826, -0.03816564, -0.16474269, 0.33332106, 0.57451171, 0.68738675, -0.18142363, 0.18069068, 0.37222272, 0.36117259, 0.67374527, 0.72648036, -0.32401583, 0.09466666, 0.03063039, 0.08405983, -0.43341359, -0.41562465, -0.21941641, 0.08432546, 1.13883376, 0.05843415, 0.07797835, 0.19686951, 0.35442117, -0.03713390, 0.51772076, 0.46757558, 0.60446262, 0.66512692, 0.40900424, 0.18202727, 0.07085793, 0.16809916, 0.62338221, 0.14451501, -0.10947716, 0.36236003, 0.05450380, 0.26827386, 0.13882940, -0.66340476, -0.38333088, 0.07718253, 0.70040935, 0.13721845, -0.78669512, 0.63661289, -0.27202386, -0.57733101, -0.22204430, -0.41127136, 0.16253869, -0.44281626, -0.08424100, -0.58103597, 0.67690551, -0.18414393, -0.28159186, 0.04215536, 0.01899865, -0.11594997, -0.33572811, -0.23435605, 0.19903412, -0.18031396, -0.07615542, -0.30151373, 0.54074550, -0.04772535, 0.89734751, 0.58614856, 0.36415252, 0.24276216, -0.68653911, -0.32665417, 0.03737447, -0.46287817, -0.27351680, -0.24508649, 0.27852342, -0.08540016, -0.30534196, -0.72013682, 0.12559375, -0.08429082, 0.43016157, 0.04996619, -0.97666150, -0.00078358, 0.53783786, 0.04092005, -0.54740691, 0.10746233, -0.26554957, 0.28944555, 0.19325934, 0.00073218, 0.36843646, -0.10966407, 0.09523644, -0.05789125, -0.17673986, 0.64775980, 0.63416272, -0.17726974, 0.34840026, 0.79412431, -0.32015100, 0.56995004, -0.68663257, -0.04564922, -0.70517838, 0.77170104, 0.11098081, 0.53411043, 0.24350241, -0.22671799, -0.20135716, -0.45812228, -0.34242392, 0.55051106, 0.69535613, 0.31846920, 0.14825635, -0.87312579, -0.42217916, 0.43667921, -0.58705437, 0.42675886, 0.42000592, -0.31568339, -0.00013330, -0.04336678, -0.19747257, 0.14189893, -0.45865569, -0.13330224, -0.41602778, -0.23398586, -0.03956425, 0.42859825, 0.46117201, -0.76794815, -0.09492663, 0.08283646, -0.01416023, 0.25365186, 0.43665829, -0.06842071, -0.00994064, 0.13398397, -0.65245908, -0.22225825, -0.48730463, -0.20190620, -0.39678535, 0.33189237, 0.96580708, 0.38724598, 0.60644591, 0.08436760, -0.22043724, 0.54564381, 0.80257958, -0.22475730, 0.27488390, 0.29021183, 0.25273919, -0.66876537, 0.54118663, 0.17305806, 0.42932430, 0.62264061, -0.43458447, 0.57103920, -0.66118938, 0.17570990, 0.21953692, -1.07360601, 0.06496558, -0.75008434, 0.59083557, -0.20228714, -0.53964645, 0.05854920, -0.22144595, 0.20424749, 0.69927770, -0.17167321, 0.39014208, 1.16595006, -0.05969472, -0.14023893, -0.88895100, 0.37089425, 0.50227588, -0.41978040, -0.20900561, 0.47532961, 0.18960291, 0.36544102, 0.08482005, -0.24334975, 0.34538457, 0.72674376, 0.19302909, -0.08910293, 0.68062508, 0.40975785, -0.27332500, -0.24527806, 0.04203802, 0.26512858, -0.04382718, 0.15769359, -0.04174760, -0.25656039, -0.27976358, 0.07265513, -0.13525784, 0.02525952, -0.00929068, 0.23823427, -0.79100347, -0.09968767, -0.37015209, -0.26147538, 0.28717247, 0.32252279, -0.76978010, 0.44896042, 0.30465835, -0.51725948, -0.20012164, -0.55074704, 0.00910668, 0.11019675, 0.18554741, 0.82800061, 0.08982171, -0.05194619, 0.47886491, -0.08079860, -0.46906006, -0.91519660, -0.04869353, 0.59758234, 0.35834941, -0.14668696, 0.43987107, -0.71434325, 0.30950114, 0.42864472, 0.34501806, -0.17966548, -0.57626909, -0.29523000, -0.40065408, 0.01376347, -0.19293793, -0.34679738, 0.06255281, -0.20308600, -0.19205840, 0.44373462, 0.74334455, -0.04031284, 0.40982279, -0.44072044, 0.12533100, -0.15228072, -0.01720227, 0.40986964, -0.12888676, -0.05227564, 0.30177423, 0.45669955, 0.83164561, 0.05575266, -0.89603424, 0.45707417, 0.16475512, 0.28251681, -1.15163314, -0.05840424, -0.28813004, 0.14357929, -0.21056126, -0.34707403, 0.71221626, -0.22192338, -0.61887205, 0.74561965, 0.23470932, 0.03274106, -0.59329420, -0.14977026, 0.21562184, -0.02239975, 0.09886537, 0.16765448, 0.42282987, -0.18023297, -0.58650225, 1.10955322, -0.05691063, 0.13096301, -0.68025142, 0.08529412, -0.25068641, 0.82088000, -0.24212818, -0.38678068, 0.62901443, 0.04906599, -0.91336644, 0.46305227, 0.11787330, -0.77899653, -0.86046797, 0.35212022, -0.03027984, 0.28825682, -0.17118201, 0.00047553, 0.26913753, -0.09105808, 0.39828926, 0.46676639, 0.36716512, -0.03221997, -0.55991799, 0.31804267, -0.28156257, 1.04368293, -0.05347027, -0.41111866, -0.08532009, 0.03228179, -0.11794566, -0.49354458, 0.22923511, 0.07644191, -0.20416370, 0.11275833, 0.81379020, -0.68466759, 0.17505395, 0.03678735, -0.92573893, -0.04785975, 0.38704774, -0.06861170, 0.19662900, -0.61008120, 0.66474360, 0.22767612, -0.53173023, -1.07004082, 0.05964288, 0.66431904, 0.06043394, -0.19875251, 0.12047864, 0.66548193, -0.16139528, -0.05564220, 0.86770642, 0.15324429, -0.33806565, 0.34299511, -0.09152010, -0.14732169, 0.28990433, 0.04804204, -0.96015960, 1.16396689, 0.05925963, -0.21751025, 0.64244515, -0.35055479, -0.59453773, 0.00000010, -0.00000142, 0.00000286, -0.30592695, 0.15751433, -0.30258998, -0.16822115, 0.22338182, -0.23763986, -0.60608530, 0.25130749, -0.60569823, 0.30537117, 0.21681374, 0.47449625, -0.26577219, 0.30576372, -0.72576159, 0.74551398, -0.25522262, -0.44433764, -0.03136242, -0.10055225, -0.70117807, 0.26030055, -0.38177216, 0.42591989, 0.50277728, 0.37853089, -0.37231630, -0.78155214, 0.24449337, -0.47213525, 0.45731890, 0.26312017, 0.14334255, 0.08517398, -0.22786133, 0.28439736, 0.96611214, -0.31287163, 0.03976057, -0.80339181, 0.15328163, 0.58660614, 1.02986073, 0.05246541, 0.15336472, 0.27148116, 0.09212578, 0.70705307, -0.88560116, 0.28946659, 0.06015570, -0.71790189, -0.32016009, 0.53112566, -0.42030615, 0.04664009, -0.86827421, -0.46769902, 0.45986831, 0.51353228, 0.71536219, -0.18387894, -0.09799768, -0.52007830, 0.12932765, 0.16932893, -0.45865032, -0.21768732, 0.29452839, 1.02330470, -0.19232316, 0.66165227, -0.00430490, -0.05075327, -1.09316742, 0.96300822, -0.24972108, -0.40067697, 0.51912993, 0.19466586, 0.23291028, -0.83035332, 0.21000369, 0.18341336, 0.02805640, 0.18738534, 0.74019539, 0.41617644, 0.33051500, 0.82660949, -0.43081114, -0.52571625, 0.62025350, -0.42973229, 0.00746296, -0.15618014, 0.14852880, 0.37253073, -0.53830934, 0.03970347, 0.40177512, -0.28093311, -0.36232057, -0.05233856, -1.03674233, 0.12243524, 0.43658742, 0.68041605, -0.48614031, -0.20055547, -0.73888057, -0.48884183, -0.15880087, 0.40952688, -0.51001012, -0.40457428, -0.06245423, -0.97555506, -0.04984082, 0.26864955, 0.72491461, -0.45132521, 0.71120548, -1.16257668, 0.05974118, -0.05850464, -0.85823554, 0.43054250, 0.28424433, 1.03545797, -0.05378946, -0.55130339, -0.00000600, 0.00001166, -0.00018099, -0.77703136, 0.33654320, -0.42651749, 0.00000002, 0.00000001, -0.00000012, -0.30998054, 0.20132266, -0.00998764, 0.61374402, 0.26801184, 0.73144686, 0.73478633, 0.11634327, 0.48973608, 0.15148526, -0.06891989, -0.56161946, -0.74509656, -0.22707702, -0.36237085, -0.06072479, 0.20891804, 0.69839746, -1.06062245, -0.39242709, 0.58806938, -0.71913964, -0.38734841, -0.41452870, -0.76386476, 0.37489361, 0.10908219, 0.50281394, 0.44210798, -0.01073438, -0.97086436, 0.17188907, 0.12922049, -0.79113263, -0.47679946, 0.87161529, 0.56965172, -0.13867113, -0.05982847, 0.77207553, 0.31280142, -0.49341601, -0.04474548, 0.11241444, -0.44414741, -0.11993115, -0.36200485, -0.49246895, 0.17338142, 0.30846989, -0.71862495, 0.12526315, -0.44211775, -0.16807291, 0.40659052, -0.24314743, 0.59305811, 0.03048005, -0.00190688, 0.27854586, 0.10388864, -0.09487464, 0.65835738, 0.69448411, -0.05319385, -0.96122110, 0.03223619, 0.03439139, -0.30030322, 0.45672059, -0.05413873, -0.33544192, 0.61965752, 0.25759122, -0.30814385, 0.52312022, 0.26485729, -0.84403884, -0.10032396, -0.41311717, -0.02904161, -0.78571194, 0.10915215, -0.40343142, 0.14549237, 0.08619885, -0.67035377, -0.60463196, 0.14054647, 0.07410637, -0.35813463, -0.20981419, -0.65968609, -0.43312046, 0.39885691, -0.02824406, 0.03151204, 0.06631671, -0.54466116, 0.00009824, 0.10752160, 0.00344920, -0.61706674, -0.16918892, -0.23298940, 0.53964418, 0.17220129, 0.33460703, 0.55197614, -0.19756657, 0.47780338, -0.39946377, -0.00871906, -0.56298548, 0.57612640, -0.12459523, 0.87232763, -0.53980231, -0.14911506, 0.19831835, -0.81430429, -0.21303734, 0.22610362, -0.44413209, 0.37165183, 0.02568819, 0.35326833, 0.16344748, -0.62487280, 0.37099040, 0.12753262, -0.83281469, -0.47535089, 0.35607225, 0.12822983, 0.26195866, 0.00892021, -0.17131075, -0.66240191, 0.16459092, 0.10503622, 0.05844798, 0.27925006, -0.39372322, 0.03220719, 0.07806340, 0.06242879, -0.22104150, 0.36077398, 0.45336735, 0.58883303, -0.34412524, 0.46194127, 0.45664617, -0.03624650, -0.30552849, -0.47081232, -0.24399722, -0.38400921, -0.52736425, -0.35574964, 0.51368284, -0.48658752, -0.15251984, 0.29742610, -0.93197483, -0.13266982, 0.29150775, 0.02038168, 0.29920956, -0.71116197, 1.05213511, -0.05395260, 0.39616331, -0.46064070, -0.25006700, -0.67174906, 0.73863280, 0.13779119, -0.52900368, -0.00000014, 0.00000009, 0.00000026, 0.86128807, -0.33380982, -0.02744576, 0.23405686, 0.23293598, 0.49820957, -0.24885666, 0.31797314, 0.19070420, -0.89011079, -0.12403981, -0.35335219, -0.62841868, -0.19556893, -0.28529119, 0.85897243, 0.24140665, -0.25284839, -0.16920257, 0.05815825, -1.15863395, 0.01529733, 0.16367924, 0.70726591, -0.62397039, 0.22190693, 0.23955090, -0.25598574, 0.34900415, 0.59494746, -0.59058642, 0.14070883, 0.84789056, -0.84541464, 0.36725298, 0.26973861, -0.06217660, -0.07705440, -0.28163588, -0.52013648, 0.03408181, -0.23330648, 0.85289425, -0.25535229, -0.51130801, -0.03375807, 0.42914823, 0.33880231, -0.21158756, 0.21159002, -0.44748873, -0.69164884, 0.39590895, -0.25495040, -0.06428353, -0.02526288, -0.19111815, 0.49701670, 0.33733121, 0.35133874, -0.13872154, -0.23100400, -0.18086807, 0.24740645, 0.19778994, -0.64644897, -0.31529310, -0.49372247, -0.02703527, 0.31303033, -0.39221552, -0.24838853, 0.19941306, -0.06966837, 0.51590365, -0.28970644, -0.18461479, -0.55970895, 0.92044228, 0.12191728, 0.15824760, -0.90832537, 0.05265693, 0.73203373, 0.35976550, 0.36970323, 0.33905968, -0.49701855, -0.05376665, -0.00976439, -1.03108060, 0.13556577, -0.17457694, 0.26303327, 0.11752269, 0.13881731, -0.44246125, -0.54150933, 0.77041644, -0.00626220, -0.47824416, 0.31441912, 0.73981684, -0.23768137, -0.45653400, -0.52901810, 0.18921156, -0.51158285, 0.10835668, -0.33563191, -0.54873216, -0.50053155, 0.16365984, 0.39601770, 0.47678697, 0.25901717, 0.11635914, 0.00006448, 0.00064461, -0.00084513, -0.27578986, 0.42239559, -0.66089785, 0.41973203, 0.25352734, -0.57718176, -0.19607447, -0.33127785, 0.42639783, -0.19602038, 0.19074209, 0.67307073, -0.50765932, -0.16495235, -0.55864131, -0.14231861, -0.08564024, -0.68291759, -0.37739298, 0.33057323, -0.55723125, -0.87161934, -0.36764687, -0.40700105, -0.08790445, 0.31078145, -0.20741062, 0.10970791, -0.22461589, 0.78265625, 0.03670262, 0.23349439, 0.56569797, 0.91453350, -0.04646114, -0.25573608, -0.64004606, -0.35437945, -0.01256059, -0.04811152, -0.50136733, -0.11492224, -0.52226651, -0.21173684, 0.22348443, 0.77819502, -0.17239176, 0.41100168, -0.99422377, 0.05125916, 0.03059557, -0.15957856, -0.12106580, -0.42743418, -0.63563704, -0.20023750, 0.32225144, 0.11352321, 0.23874696, 0.17119664, -0.64687091, -0.39549708, 0.30713782, -0.77512199, 0.29917663, -0.03301296, 0.90685189, -0.06033328, 0.92531997, -0.34956849, 0.04916824, -0.95002794, 1.34936512, 0.07420253, 0.79760605, -0.76255661, 0.36963981, -0.28172952, 0.77505147, 0.20996352, 0.07893358, -0.00087859, 0.25454757, 0.12040002, 0.14052244, -0.22920732, 0.38762328, 0.04588060, 0.21422802, 0.69493198, 0.00385332, 0.15898398, -0.00066054, 0.49219468, -0.25796345, -0.26495278, -0.18486126, 0.20765285, -0.61355054, 0.35589319, 0.34385958, -0.00221194, -0.19500022, 0.33031118, 0.62023389, 0.00000784, -0.21153420, 0.01129513, 0.01974763, -0.50374478, 0.62552166, 1.07963097, 0.06696438, -0.90537864, 0.75383908, 0.19307403, -0.32520315, 0.31569433, 0.24680392, -0.06798713, -0.27483061, -0.11944918, 0.37555689, -0.15877359, -0.04398707, -0.91416329, -0.90117151, -0.26364848, 0.28047031, 0.05437048, 0.06593021, 0.21578360, 0.07846541, 0.23034190, 0.81201428, 1.14442742, -0.05870701, 0.34795514, -0.01239113, -0.44879028, 0.21434978, -0.78129643, -0.20677587, -0.03161571, 0.18122357, 0.31688088, 0.38361558, -0.46060425, 0.15701090, -0.64022791, -0.46971118, 0.20512734, -0.55475271, -0.36354297, -0.12339946, 0.29229993, -0.06574482, 0.36658111, 0.31018984, 0.15108050, 0.27543902, -0.77705795, 0.80522323, 0.24365367, -0.43905297, -0.52624398, 0.42429927, 0.18207130, -0.28763160, 0.24784324, 0.77505165, -0.54543382, -0.12955390, -0.19863173, 0.71104670, -0.11343691, 0.49944657, -0.11426325, 0.04043149, 0.84964359, 0.05391163, -0.03456014, 0.20718083, 0.24679235, -0.14982276, 0.41996628, 0.17729306, -0.17109346, 0.59737468, 0.33068815, -0.05990614, -0.14526321, 1.06803107, -0.05664398, 0.50582010, -0.44120690, -0.10680506, -0.11305347, -0.31507766, 0.10126664, -0.26633328, -0.21468888, 0.24122012, -0.41558987, -0.00037269, 0.56474608, 0.47688782, 0.99205494, -0.16049334, -0.41912279, -0.54050887, -0.10842497, -0.57856840, -0.79310250, -0.36688328, -0.05531903, 0.22271621, -0.21915470, -0.76543522, -0.44921568, 0.34655210, -0.26027802, -0.32288903, 0.32647941, 0.30729637, -0.06548931, -0.01218793, -0.15169463, 0.37431300, -0.32526380, 0.23276606, 0.57940614, 0.08422223, 0.09551691, 0.53427857, -0.24850926, 0.76985109, -0.78481364, 0.29832128, -0.10321139, 0.13022898, 0.46162271, 0.59453875, 0.83452296, -0.27214387, -0.59240466, 0.10131758, -0.16527727, -0.35338476, 0.48500142, 0.17607507, -0.49494371, 0.60344064, 0.41705099, -0.08880634, -0.25465271, 0.07833253, -0.61064714, -0.32726184, 0.20088075, -0.66373086, 0.70673472, -0.08718358, 0.21252804, 0.02365483, -0.30827305, 0.20708489, -0.01981799, -0.27411735, -0.03653555, -0.47074893, -0.23869874, -0.69485319, 0.73038894, 0.16089815, -0.26835668, -0.75384623, -0.25298682, -0.17547439, 0.00239756, 0.25174409, -0.00397093, -0.99585277, -0.05091980, 0.35167810, 0.07223264, -0.11456653, -0.78107595, 1.00233328, -0.06491941, -1.00559735, -0.01962233, 0.36519125, -0.25778982, 0.59109753, -0.18111183, 0.38891599, -0.00523622, 0.28246093, -0.55052936, 0.64194673, -0.12670363, -0.78785223, 0.08822073, 0.26204845, 0.28602716, 0.01548589, -0.00500250, 0.15284899, 0.51595521, -0.17346574, 0.44863939, 0.74335766, 0.23214105, 0.50256246, -0.13619091, 0.03819865, 0.76926863, -0.00000021, -0.00000053, 0.00000346, -0.56675410, 0.21087423, -0.46947211, -0.65351313, -0.17685404, 0.18530238, -0.95143706, 0.24364473, -0.04319585, -0.43788120, 0.14742468, 0.59006333, 0.32007858, -0.08352895, -0.02089318, 0.74923205, -0.33454630, -0.35010877, 0.16464114, 0.03221167, 0.63749415, -0.27346402, 0.34181735, 0.33784902, -0.55828786, 0.22733508, 0.48078889, -0.21691543, 0.04035991, -0.79977006, 0.07135995, 0.26083669, -0.58737946, 0.32648426, 0.17704937, -0.14517376, 0.77890539, -0.04936297, 0.66254961, 0.15144870, -0.31491086, 0.08492198, -0.13721833, -0.25749341, 0.62107670, 1.10996115, 0.05767343, -0.58680719, -0.25665262, 0.38567489, 0.15099934, 0.09471416, -0.01038187, -0.02801935, -0.57488561, 0.15537983, -0.25811413, -0.52570850, 0.24882692, -0.52426589, 0.83340597, -0.25046691, 0.52406996, -0.48230100, -0.22827578, -0.61121029, -0.18169603, 0.35889810, -0.03227822, -0.50643128, 0.08339752, -0.53042740, -0.17346893, 0.21541432, -0.01404506, -0.29229546, 0.09573118, 0.38756219, 0.48639479, 0.28768253, -0.50698274, -0.01588494, 0.20051305, -0.72950274, -0.36820140, -0.30866367, -0.41343349, -0.85059094, -0.23233807, -0.23033540, 0.61262649, -0.16166645, 0.12587056, -0.47193342, -0.28906128, -0.23466055, -0.30758193, 0.39140242, 0.32214418, -1.07101607, -0.05481144, 0.10571367, 0.73927724, -0.09922772, -0.24689788, -0.21049134, 0.17248811, 0.20614162, -0.67590564, 0.08578888, 0.10742372, -1.13606000, 0.05802013, 0.23010565, 0.23079923, -0.25069940, 0.00788424, -1.25197911, 0.06399745, -0.26159459, 0.60001504, -0.18409476, -0.09104614, 0.69627714, -0.48359498, 0.27920496, 1.17460680, 0.07025770, 0.92366844, -0.60288227, -0.39108455, -0.46378386, 0.45657304, 0.13359310, -0.01174613, -0.34080684, -0.22317451, -0.42066041, 0.10612121, -0.09636685, 0.65389740, -0.66355377, 0.10113519, -0.62195170, -0.16327949, 0.15970100, -0.53550398, -0.46321604, 0.21895139, -0.48442385, 0.13425884, 0.38243788, -0.16874963, -0.56440639, -0.23562777, 0.69952685, -0.45499423, 0.37965447, -0.59030807, -0.08532901, 0.16675127, 0.62537962, -0.20813899, -0.00836392, -0.05553021, 0.00934757, 0.35632437, 0.21969734, -0.01136289, -0.11625304, 0.00981032, 0.58464277, -0.29709071, -0.86342472, -0.98793548, -0.25655904, 0.12413236, -0.93053758, -0.14036137, 0.60150528, -1.13937700, -0.05848373, 0.01041887, 0.95548898, -0.25395557, 0.16272132, 0.57639110, -0.48553905, 0.53507912, -0.57976991, -0.15579987, 0.05755566, 0.57905042, -0.31159028, -0.67729855, 0.57515013, -0.06109621, -1.09539068, -0.44097495, -0.04507005, 0.79321247, -0.54897767, -0.31409863, -0.62167859, -0.00002641, -0.12981573, 0.00258589, 0.57018310, 0.47301835, -0.11952374, -0.57206297, 0.21868753, -0.78884047, -0.13343571, -0.20264181, -0.10679976, 0.06577944, 0.08142143, -0.29313710, 0.46524334, -0.16572767, 0.44943184, -0.77600497, -0.25147572, 0.08259577, 0.88370955, 0.29614186, 0.00127956, 0.38274175, -0.00766496, -0.04488821, 0.76867861, -0.48312280, 0.34970677, -0.04898698, -0.37746146, 0.15039682, 0.39023378, -0.05345283, -1.07900965, -0.44728655, 0.23215573, -0.80627865, 0.42278206, 0.10636816, 0.67643470
};

static const float net_0_bias[512] = {
  -0.19178624, 0.20310503, 0.24956410, 0.30660987, -0.42436945, 0.04898750, -0.27522433, 0.14669827, 0.08554060, -0.60615098, 0.14325699, -0.50522244, -0.15855709, 0.28732482, -0.52880239, -0.20779015, -0.65379757, -0.04525725, -0.23161648, -0.67903513, -0.02609932, -0.44806531, 0.14556165, 0.20035291, -0.55035591, -0.48011702, -0.24128422, 0.06192537, -0.51149213, 0.03590973, 0.16016063, 0.16054806, 0.23648052, -0.10749675, -0.35117209, -0.41382006, -0.45418158, 0.36859289, -0.54147965, 0.16540740, -0.70220798, -0.56495237, 0.33345270, -0.18768677, -0.60939741, 0.37860826, 0.26392883, -0.22709347, 0.07459539, -0.21819638, -0.41448718, 0.39851797, -0.11635205, 0.03234533, -0.52731413, -0.41971055, -0.52034038, 0.45781374, 0.15037243, -0.40461680, -0.52729154, -0.01713906, -0.75184494, -0.23259374, -0.03965062, -0.11649621, 0.29300800, -0.07925440, 0.28771403, 0.36555207, -0.42860779, -0.58241951, -0.31306958, 0.32467163, -0.30605340, -0.40359432, -0.48806417, 0.23779242, -0.16365385, -0.10538203, 0.25743791, 0.13359293, 0.32048538, -0.28969455, 0.48444247, 0.23075125, -0.25460085, 0.50992733, -0.41757318, -0.13933755, 0.23145732, -0.00853989, -0.30278197, -0.55103654, 0.25630671, 0.02660040, 0.17511860, 0.22964543, -0.43244225, -0.28056100, 0.51404679, 0.11497991, 0.03622604, 0.17168352, -0.38499108, 0.08519555, -0.31224060, -0.22581947, 0.00546449, 0.51014268, -0.05858170, -0.30483806, 0.22595429, -0.21095364, -0.31240872, 0.48006755, -0.31385547, -0.25751540, 0.18630010, 0.26386610, 0.28203306, 0.08364616, 0.15232143, -0.52376509, -0.21688366, 0.04423093, 0.19483253, -0.00774883, 0.24773403, 0.16997461, 0.24729277, -0.23564024, -0.14213564, -0.57574356, -0.38347679, 0.16879909, 0.43238145, -0.37168133, -0.51616323, -0.36755541, -0.46877292, -0.11847731, -0.42472038, 0.02291874, -0.30611944, 0.28412685, -0.52944839, -0.23554564, 0.05457052, 0.09848129, 0.31351179, -0.37756583, -0.58759862, 0.48640969, -0.13918138, 0.27516878, 0.35533267, -0.57165802, -0.16943635, 0.08650444, -0.28997484, 0.09372597, 0.01748333, 0.15944713, -0.00753265, 0.22336084, 0.27030629, -0.23913069, 0.18241842, -0.46482399, -0.06210194, -0.39474851, -0.09092896, -0.73564446, -0.00000754, -0.34181443, -0.40018436, 0.22288550, -0.09787311, 0.10776396, 0.31089869, -0.50900608, 0.13496515, -0.68010962, -0.51412284, 0.26885089, 0.42066464, -0.58697593, -0.08834568, 0.06312229, 0.50470370, -0.36829600, -0.22255604, -0.35975429, -0.59363836, -0.04982226, 0.23528679, -0.18382122, -0.14087935, -0.45124939, -0.48638815, 0.36085474, 0.07808263, 0.52730888, -0.26180503, -0.49844399, 0.26140693, -0.48456916, -0.07310469, -0.42545253, -0.48054147, -0.70168585, 0.16697614, -0.30238432, 0.11149585, -0.52004516, -0.02453843, -0.50203568, -0.22774796, -0.00034169, 0.44492400, -0.00000028, -0.28645682, -0.04330604, -0.06016675, -0.39235142, -0.15960552, 0.27447143, -0.49994734, 0.37615389, -0.23351003, -0.66019768, -0.31452361, -0.50843072, 0.15453157, -0.62682700, 0.03162060, 0.30248022, -0.72152567, -0.33867547, -0.07547541, 0.32198864, 0.47625846, -0.39476985, -0.04455883, -0.00688114, 0.23015201, -0.33495989, -0.37353110, -0.41703251, -0.08317076, 0.20924614, -0.28174213, -0.00168879, -0.07424838, -0.19005844, -0.09065853, -0.19486640, 0.45819715, 0.29317397, 0.08046446, 0.08895501, 0.37376598, -0.18910500, -0.45913354, -0.06184364, -0.29552346, 0.18355559, -0.16937213, 0.32365233, -0.31898460, -0.28960383, -0.29203233, 0.29061607, -0.60675991, -0.29249144, 0.41988677, -0.17998201, 0.24234250, 0.16375229, -0.61320013, -0.51931781, -0.00000087, -0.48062304, -0.11733092, 0.01562089, -0.43093541, -0.50267750, -0.11784332, -0.47535479, 0.49288124, 0.52846253, -0.24056564, 0.04242550, -0.56486613, -0.11846758, 0.29458052, -0.22959915, -0.06216526, -0.56785840, -0.68410140, 0.07421799, -0.33316255, -0.06681369, -0.27199146, -0.71874285, -0.18724591, 0.36771512, -0.46810323, -0.21596839, 0.29725873, -0.39810416, 0.12585352, 0.24098948, -0.72974402, -0.63246858, -0.69483036, 0.11467574, -0.58325875, -0.66586459, 0.17433567, -0.32269993, -0.00298647, 0.47175223, -0.57996088, -0.29251772, 0.25927410, -0.43053606, -0.08725194, 0.22426993, -0.67763382, 0.36040547, 0.32041475, -0.45141777, -0.10553984, -0.51681238, 0.29549506, -0.20158499, 0.37991580, 0.01269911, -0.17563678, 0.39759329, -0.07436489, -0.17744736, 0.40931895, 0.38385567, -0.39226994, 0.32590485, -0.78919232, 0.03756768, -0.32765251, 0.04806099, 0.26909587, -0.28844303, 0.36240518, -0.27739981, -0.10695987, -0.20387653, -0.38137022, 0.26353210, -0.37454462, -0.38516906, -0.39523008, -0.25700411, -0.37911555, -0.23528850, 0.08844376, 0.32553199, 0.14443645, -0.57881790, -0.02992585, 0.17678609, -0.45114321, -0.49826086, -0.03970613, -0.39774367, -0.82125831, -0.19343190, 0.09225532, 0.37252033, -0.24292187, 0.46414444, 0.34843647, 0.27258474, -0.02188715, 0.24525560, 0.30424485, 0.20714958, 0.09053995, -0.11426635, -0.50599724, -0.61712450, -0.52948463, 0.00471555, 0.18488447, -0.04455056, 0.39463618, -0.34879825, 0.06368712, -0.17366418, 0.22984448, 0.30412623, 0.37450460, -0.41033766, 0.29115507, -0.44364089, -0.21041062, -0.77621967, -0.07195184, -0.28557521, 0.29342753, -0.11034083, 0.10142535, 0.01642884, 0.08765813, -0.41018733, -0.39990076, 0.14569989, -0.07978384, -0.41523793, -0.30404589, 0.16146885, 0.12899965, -0.61499268, 0.05767392, -0.29891595, 0.18578906, 0.21057718, 0.31575769, -0.00000723, 0.07915431, 0.08508766, -0.02422198, 0.42289129, 0.15793298, -0.59970653, 0.26325211, -0.35780135, -0.10595889, -0.32939965, -0.59674352, -0.57950884, 0.27509892, -0.18330041, -0.07842021, -0.24237916, -0.19272183, 0.14269462, -0.10344430, -0.54597753, -0.10821114, -0.55294681, -0.53025091, -0.41331699, 0.06622905, 0.27593625, -0.61450911, -0.54246682, -0.37242210, -0.08335464, 0.05418633, 0.42182013, -0.44223052, 0.04406313, 0.12627055, 0.32647771, 0.24526364, 0.09562379, 0.44223526, -0.10892928, -0.26571608, -0.58919609, 0.37835035, -0.74723190, 0.17377461, -0.48390147, 0.06380916, -0.01813287, -0.02104443, 0.20678546, -0.31509843, 0.28151438, 0.27912593, 0.46406373, -0.48939288, 0.24771464, -0.27833995, 0.02632933, -0.45527825, -0.07202449, 0.00440257, 0.07043190, -0.48235393, 0.01498883, -0.69771427, -0.45169294, 0.32918289, 0.32027519, -0.22661924, -0.75007600, 0.10675640, 0.02901490, -0.02419310, 0.17887031, -0.31350237, -0.41076672, 0.21263495, -0.71728367, -0.22186054, -0.44597802, 0.11774374, 0.04315183
};

static const float net_2_weight[1536] = {
  -0.08989478, -0.01157137, -0.38954574, -0.12452803, 0.15005250, -0.19348399, -0.18233043, 0.15927228, 0.22546226, -0.11880052, 0.20209731, -0.72981906, -0.09243177, 0.02618805, 0.68289852, 0.06432491, -0.69615978, -0.14603457, 0.14773251, 0.00701054, -0.03266110, -0.68992043, -0.16164167, -0.03737782, -0.09142365, 0.25484246, 0.02392641, 0.05700424, 0.00271133, -0.00329267, 0.01437847, 0.05129438, 0.05124639, 0.17224452, 0.30375081, 0.72292995, -0.32400173, 0.02638862, -0.00545256, -0.09057093, -0.94405341, -0.52835572, -0.02794064, 0.84097558, -0.14884299, -0.31622508, 0.27868584, -0.06451776, 0.16134180, 0.14485039, -0.26698408, -0.00188499, -0.13043588, 0.63335329, 0.03202470, 0.23013441, 0.28947517, 0.02862707, 0.06034136, -0.02629776, 0.41556486, -0.24440940, 0.88993323, -0.06699654, -0.25751999, 0.17065863, 0.01268845, -0.04389772, 0.02620674, -0.34370053, 0.29938471, -0.80740947, -0.09450534, -0.02228048, 0.52222079, 0.64749759, -0.02066343, 0.01534076, -0.14129539, -0.20901938, -0.04222301, 0.13186598, 0.10141361, 0.81860381, -0.19166785, -0.00292880, 0.21908051, 0.11927111, 0.33302039, 0.11022113, 0.02455378, -0.11181042, -0.01129988, 0.03070438, -0.21570833, -0.00012321, 0.01597964, -0.14566992, 0.14705820, 0.36073738, -0.03084738, 0.11162679, 0.04562928, -0.04562373, -0.27885342, 0.17740549, -0.70321304, 0.17249946, 0.01571406, 0.16338395, -0.64292192, -0.32791814, -0.05350912, -0.05026957, 0.22504646, 0.10044950, 0.14677370, -0.00784537, -0.02564361, -0.05218330, -0.00749924, -0.22542584, 0.03034408, -0.32120737, -0.13249613, 0.00776024, -0.26893061, 0.23816341, 0.48390394, 0.06440552, 0.07339433, 0.07380755, -0.01885624, -0.10400305, 0.17486861, -0.33801252, -0.04809498, -0.01238423, -0.04211824, 0.76225263, 0.15661962, 0.73012704, -0.17675988, -0.15450004, 0.39210382, 0.14163852, -0.02358321, 0.12093703, -0.50002742, 0.25729677, 0.15908834, 0.72805160, -0.62392867, -0.11167484, 0.11944551, -0.08398940, -0.04956535, -0.45694900, -0.71642202, -0.01189743, -0.22516149, 0.20943512, 0.16159816, 0.42477047, -0.02807838, -0.14425905, -0.48684791, -0.08642037, -0.16008648, -0.70494127, 0.16389771, 0.49068335, 0.68262935, -0.41805834, 0.00000029, -0.44628292, -0.11245597, 0.11770792, 0.21011312, -0.07611116, 0.12987168, -0.11900685, 0.02583253, 0.17842731, -0.43397453, -0.03656613, 0.00806465, 0.78890765, 0.38132736, 0.73950821, -0.10858841, -0.37599468, 0.31327477, -0.56767178, 0.43636760, 0.17907867, -0.12080139, 0.27910125, 0.47447902, -0.00233847, -0.38942191, 0.09717960, 0.10999348, -0.01007653, -0.28515497, 0.24686252, -0.01550005, -0.03532554, 0.00050844, 0.54288024, -0.14301907, -0.82034886, -0.08833149, -0.10033270, 0.58407784, 0.47377387, -0.62997872, -0.37052071, -0.66479605, -0.00000781, 0.10290987, -0.00000000, -0.17080887, 0.18971498, -0.38465071, 0.45957077, -0.18275209, 0.00931593, -0.55685419, 0.09618174, 0.10755577, 0.29556251, 0.56966501, -0.41670254, -0.15901166, 0.38755426, 0.02621499, 0.03500457, 0.26681793, -0.01462733, -0.20925336, -0.01030629, 0.06836927, -0.70323151, -0.02855748, 0.16758756, 0.13257317, -0.16019599, -0.01063218, 0.62185735, -0.10070089, -0.13274224, -0.12951322, -0.01826291, -0.04144807, 0.01303566, -0.18232942, -0.49525672, -0.07618368, 0.00127859, 0.32506728, -0.12934293, 0.10305995, 0.04032530, 0.35664234, -0.16627105, 0.12145276, 0.01047572, -0.32295102, -0.04027978, 0.00540193, -0.01485504, -0.24024482, 0.00996599, -1.07407820, 0.29446119, -0.13451692, -0.52252322, 0.01666873, -0.51596755, 0.26889217, -0.65857679, 0.00000000, -0.42611885, 0.20859040, -0.00698428, -0.72453219, -0.88449782, -0.12123924, -0.28286806, -0.01039002, 0.16942497, -0.14373361, 0.31017002, 0.66791052, -0.07217401, -0.02122658, 0.20498367, 0.00183443, 0.63736552, -0.53931093, 0.01503064, 0.13612418, -0.02779165, -0.14820872, 0.07093036, 0.01122468, 0.10894123, 0.33298802, -0.46850327, -0.45157954, 0.18466778, -0.21282789, 0.22992669, -0.35656410, -0.36933160, -0.02046879, -0.11523606, 0.82228547, -0.10541389, 0.12008066, 0.17245618, -0.00001021, 0.06322870, 0.35960346, 0.15494706, 0.06798967, 0.30845305, -0.08486887, -0.08882136, 0.48531047, -0.01091086, 0.04531936, 0.02529405, -0.69904208, 0.41095436, -0.02069723, 0.33665642, -0.14701633, -0.55047381, -0.11884494, 0.10355424, -0.04289365, -0.10459598, -0.09923027, -0.36873853, -0.48591551, 0.59827656, 0.91178864, -0.15671191, 0.00511288, 0.02986492, -0.00064617, -0.00399322, 0.09420428, 0.05407482, -0.04815071, -0.10934516, -0.01691302, 0.00911202, 0.74414843, 0.49258569, 0.26534083, 0.11524171, 0.35129237, 0.32131836, -0.04241698, -0.01662091, -0.53895068, 0.02885314, -0.18007833, -0.01237007, -0.30440998, -0.41082770, 0.19396210, -0.03098947, -0.34255463, -0.18180722, 0.00655944, 0.03661849, 0.16714478, 0.19294585, -0.14036809, -0.00066670, -0.16116180, 0.08928134, -0.01949980, -0.44008940, 0.09768749, 0.10897361, -0.39151427, 0.03646393, 0.74922961, -0.25533247, -0.13271469, -0.07093734, -0.05739723, -0.23234706, 0.00447892, 0.12473758, -0.13485885, 0.11581280, -0.11546275, 0.09407417, 0.13234003, 0.48357907, -0.12784100, -0.90386349, 0.14021258, 0.05577225, 0.21960215, 0.02386825, -0.01607116, 0.09388837, 0.12462902, 0.40324089, -0.03335258, 0.47167671, 0.02376636, -0.73051214, -0.01793697, 0.09445786, -0.01074636, 0.65565151, -0.01512874, 0.00519788, 0.08979698, -0.12363313, -0.15089709, 0.00000020, -0.15662324, -0.17283621, 0.16807657, -0.10330525, 0.10623174, -0.32027480, 0.16658475, -0.13238563, -0.25308964, -0.28025380, 0.05948690, 0.17419067, -0.42125085, 0.03724424, 0.13947354, 0.76956892, 0.04075900, -0.00187882, 0.12523578, -0.13029480, -0.29377034, 0.42678508, -0.01340506, 0.60842848, -0.02022134, -0.08903237, 0.43990374, -0.02360510, -0.09088468, -0.22075024, 0.18085495, -0.09048953, -0.17533219, 0.63066417, 0.21002348, -0.04742481, 0.21654530, -0.58822942, 0.03051943, -0.68966210, -0.07072763, -0.36759496, 0.54413933, 0.52457947, 0.10239794, 0.44725633, 0.17743295, 0.25698894, -0.07579578, 0.09169505, -0.00727416, -0.11280061, -0.06789752, -0.04257361, 0.01533218, 0.00205516, 0.02256609, -0.12299050, -0.61752748, -0.45439273, 0.52648753, 0.20464405, -0.22708121, -0.19444087, -0.42315304, -0.76222038, 0.33906388, -0.12646662, -0.00946106, 0.35320881, 0.14379838, -0.04822185, 0.04580098, 0.10390839, 0.42801368, 0.43035853, 0.00858929, 0.62642860, -0.01623465, -0.58564883, 0.14169843, -0.29432774, -0.09637318, -0.09576283, 0.01733110, 0.03874646, -0.06818040, 0.07015475, 0.09689913, -0.06781482, 0.00058621, 0.39046162, -0.00218265, -0.46700013, 0.00012763, -0.04189327, -0.13117753, -0.08276653, -0.09223348, -0.01392413, 0.10807408, 1.09627461, 0.09790888, -0.22170657, -0.07170477, 0.03542306, 0.17948352, -0.70417774, -0.10793801, 0.03581283, 0.61003703, -0.06300934, 0.06180584, 0.06184287, 0.12810002, 0.09370372, 0.20754884, -0.09729354, 0.33359528, -0.02279845, 0.25333181, -0.07462502, -0.55209148, -0.40689108, -0.07152098, -0.07273724, -0.18382874, -0.04882733, -0.05330026, 0.12474944, 0.08803667, 0.15090561, 0.16865160, 0.05347481, -0.00737046, -0.04012545, 0.38048172, 0.18020527, 0.21605057, 0.06256418, 0.04884735, -1.01361465, 0.26156664, -0.01313631, -0.37339011, -0.10854980, 0.00755923, 0.07350667, 0.01118346, -0.02710969, -0.00235468, -0.08993986, 0.19836475, -0.41845474, 0.02916699, 0.04205808, -0.10396921, -0.05459692, -0.22387619, -0.00372402, 0.01490275, 0.05866624, 0.13531002, 0.08813944, 0.00100568, -0.09070931, -0.01837235, 0.05426832, 0.15854685, 0.02362041, 0.15326218, -0.01509355, 0.02788254, 0.04022804, -0.12449650, -0.80940765, -0.03772429, -0.00592211, -0.00678248, -0.06010111, 0.28699103, 0.10099062, 0.04639515, 0.02501738, 0.08554024, 0.07274303, 0.15446998, 0.09338353, -0.03731943, 0.11285319, -0.08864537, -0.04264991, -0.02935869, 0.09513141, -0.02283966, -0.12228955, -0.34454527, -0.02643850, 0.03051247, -0.16820633, 0.03861400, 0.02303861, -0.01479289, -0.00901308, -0.06213860, 0.18045250, 0.16473408, -0.02476801, -0.06017122, -0.01798309, -0.09712536, 0.06294268, -0.03278281, 0.05179205, -0.13663590, -0.39651355, 0.11283908, -0.01855206, 0.02229142, -0.15937786, 0.08124741, -0.05300897, 0.05696237, -0.05128776, 0.33765277, 0.06851070, 0.10606755, 0.04600682, -0.04340034, 0.11986547, 0.01108495, -0.03026508, -0.06390725, -0.08833452, -0.16626777, 0.06940675, 0.01588747, 0.01615755, 0.05400833, 0.30804437, -0.08294665, 0.00941389, 0.12612934, -0.12324753, 0.06729524, 0.00893861, 0.08794372, -0.02910857, -0.02057598, 0.36746192, 0.05801575, -0.17323028, 0.07590628, -0.03765608, -0.04633675, 0.20937760, -0.00000007, 0.22283378, 0.30298957, -0.05785261, 0.09867590, 0.05108346, -0.04648803, -0.17948502, -0.10994469, 0.21575592, 0.11698529, 0.01594443, 0.06678943, -0.27743307, -0.07925612, -0.05313284, -0.02532507, 0.12018271, 0.07484685, -0.04755904, -0.52801007, 0.09922403, 0.02454814, 0.11966109, -0.09217332, -0.03363626, 0.11616881, 0.02080104, 0.10688972, 0.08184592, -0.26382998, 0.27910349, 0.04052822, -0.01011673, -0.11793378, -0.04913500, -0.45921433, -0.35511798, 0.02573168, -0.06668612, -0.06191050, -0.29077649, -0.08273534, 0.13199942, -0.04073109, 0.00002089, -0.08061789, -0.00000000, 0.19835469, 0.07596884, -0.07290902, -0.08756303, 0.05513293, 0.03163017, -0.23048973, 0.05633636, 0.04780202, 0.34909785, -0.11330879, -0.26289502, 0.01081138, 0.16923243, -0.08284470, 0.07437593, 0.28703165, -0.15354125, 0.09277925, 0.00790978, -0.07755949, -0.06599882, -0.01653239, -0.00775288, 0.05330599, 0.13872348, -0.20953850, -0.11053953, -0.02886296, 0.01268190, 0.08856232, -0.09493418, -0.01488979, 0.05500177, 0.11016383, -0.19317822, 0.02852549, 0.05899587, -0.04961661, 0.05424513, 0.03498279, -0.07585539, 0.19891520, -0.04249530, 0.05765600, 0.00572664, 0.07212745, -0.08595271, -0.03678604, 0.11446358, 0.11366752, 0.04275089, -0.57103032, 0.17868476, -0.09104542, -0.08662370, -0.08956354, -0.06310326, 0.12036072, -0.16552514, -0.00000001, 0.16754642, 0.11897165, -0.10772485, -0.11840063, -0.32576790, 0.04028980, -0.01578649, 0.02529487, -0.09498919, 0.14520559, -0.10306928, -0.31070289, 0.18734577, 0.02689735, 0.12423947, -0.11400349, -0.60880047, 0.28254256, 0.02921343, 0.16236649, -0.11159359, 0.14521240, 0.38457480, -0.08103866, -0.02715822, 0.23526074, -0.07793106, -0.08858303, 0.22600099, -0.01489647, -0.01805134, -0.26518574, -0.37478867, -0.91786873, 0.07218643, -0.37686768, 0.37550539, 0.04076716, 0.14399229, -0.00003958, -0.08232497, 0.23686008, 0.19802089, 0.09878118, 0.14440915, 0.02180273, 0.07031471, 0.19884631, 0.08337056, 0.11722161, 0.21175224, -0.08010822, 0.21677586, -0.09332787, 0.05512149, 0.03889902, 0.00698849, 0.18898104, 0.03588310, -0.09938847, 0.02574727, 0.00867120, -0.07217192, -0.00720655, -0.05184986, -0.47469071, 0.04294151, 0.31822699, -0.01974998, 0.01581264, 0.03799091, -0.04161963, 0.00536639, -0.11523601, 0.13139905, 0.21440439, -0.09073940, -0.02646838, 0.11789089, 0.20573623, 0.11516698, -0.05607608, 0.07850768, 0.03353867, 0.09707560, -0.01894455, 0.90757364, 0.12567709, -0.06542602, 0.15402438, 0.11265633, 0.05187458, 0.41288719, -0.60191953, 0.11652072, -0.08839694, 0.06149403, 0.09452058, -0.01944260, -0.06098359, -0.00348682, 0.06282648, 0.07801485, -0.00319676, -0.04938317, 0.02409442, 0.09334496, 0.45968503, 0.37749943, -0.15369274, -0.03484412, 0.00106530, 0.06782418, 0.07274612, 0.25934377, 0.01587133, -0.02404058, -0.04949196, 0.08618035, 0.02486794, 0.29529160, -0.04505812, -0.71123135, 0.07304742, -0.79839170, 0.00848777, 0.08174555, -0.02812326, -0.09215648, -0.07801066, 0.05658221, 0.05376315, 0.12269174, 0.84446722, -0.00322865, -0.04734189, -0.05967048, -0.12612689, 0.05347853, 0.06863417, -0.11407118, -0.08580928, -0.00109570, 0.04664549, 0.11021601, -0.00117737, -0.00000013, 0.04860673, 0.09512296, 0.09795693, 0.02761644, -0.04857505, 0.20004945, 0.00160835, 0.25700721, 0.07285678, 0.02335585, 0.35051519, -0.11434386, -0.04733803, -0.12940793, 0.10010271, -0.08902020, -0.11609841, -0.01135530, 0.13141498, 0.14099401, 0.05542537, 0.14639589, 0.41798171, -0.09451716, -0.07690491, 0.02735805, 0.32715791, 0.28852233, -0.02095033, 0.11843812, 0.04712727, -0.03271898, 0.23154427, -0.06761178, -0.04376928, 0.06152456, -0.05214736, -0.03488824, -0.07139871, -0.04986806, 0.09988384, 0.27643690, -0.05399577, 0.39028436, 0.03193823, 0.21902514, -0.08535451, -0.00153334, 0.05635499, -0.03434861, -0.11937819, 0.06948404, 0.05744900, 0.00639070, 0.01100922, -0.09200893, 0.03222997, 0.07612069, -0.18638802, -0.07951822, -0.06118186, 0.06791309, 0.17279729, 0.09442835, 0.21629062, -0.04177282, -0.01795764, -0.04470369, 0.14849623, 0.39595357, -0.04583520, -0.07994926, 0.06037331, 0.07272688, 0.11193758, 0.06762493, 0.01406226, -0.42644370, -0.15124261, -0.06339777, -0.07973733, -0.07915339, -0.04873911, -0.01272430, 0.13370371, -0.02582515, -1.02559829, 0.01222080, 0.09353662, -0.12062091, -0.05636936, -0.07720827, -0.02690196, -0.12225299, 0.04554083, -0.00012233, 0.58157772, 0.00412252, -0.47888890, -0.21868087, -0.12179077, 0.02076926, -0.03463400, -0.01405633, -0.13613935, 0.02554582, -0.07402731, 0.17789969, -0.02525626, 0.07637122, 0.04560738, -0.00379742, 0.01826607, -0.08274944, -0.04887137, 0.05208196, 0.12286071, 0.76981336, -0.09232311, -0.01024711, -0.04014422, 0.15619443, 0.53256232, -0.25369611, -0.53464550, 0.18555386, 0.95836729, -0.23555338, -0.01391484, 0.14000604, 0.02633469, 0.14472461, -0.00053418, -0.01564622, 0.02401224, 0.02194672, -0.00687624, 0.15114917, 0.03867349, 0.08615866, 0.08552682, -0.10779125, -0.04123020, 0.16019678, -0.44629741, 0.03176360, -0.18745740, -0.04581974, 0.00487295, 0.02851152, 0.01495852, -0.32164884, 0.08893955, 0.02911312, -0.02650375, 0.01822657, 0.05128482, -0.84771234, 0.00403102, -0.02362815, 0.00761621, -0.02510636, 0.14361371, 0.06579850, 0.05365459, 0.53399903, -0.08599766, 0.02853982, -0.16779567, 0.00166794, -0.09541365, -0.04766846, -0.02200617, -0.13701724, -0.00342679, -0.51894748, 0.00995888, -0.06083735, -0.01544581, -0.08826037, -0.11712645, 0.14400454, -0.11864994, 0.01269975, -0.05685078, -0.04283716, -0.12913507, -0.05707626, -0.30422866, -0.07133533, 0.01314808, 0.05091929, 0.07266564, 0.13218562, 0.03254085, -0.00714192, -0.41870719, 0.17482942, -0.03253407, 0.00937135, -0.00570691, -0.00659892, -0.01305886, -0.05227436, 0.00656045, 0.08740505, -0.11481638, -0.01169553, -0.00188283, -0.11587562, -0.18529788, 0.07517366, -0.01523502, -0.10109892, -0.00595473, -0.01123313, -0.12755363, -0.10427002, -0.05708046, -0.00359285, 0.27354494, -0.46979776, 0.06223569, 0.13779253, 0.31622162, 0.06491505, -0.00640632, -0.03112117, 0.02170250, -0.12174395, -0.01802112, 0.06948449, -0.05376631, -0.63323736, 0.57942843, -0.04966672, 0.00848492, -0.06863276, -0.00048265, -0.13266043, 0.17754544, -0.02125228, 0.01787058, -0.42186612, -0.00003172, -0.13932449, -0.14741589, 0.07845343, 0.17392311, -0.10016309, 0.00908804, 0.13283668, -0.04021354, -0.90146881, -0.09984066, 0.23509964, 0.00000008, -0.30553356, -0.11262473, 0.07586063, 0.22066860, -0.11611855, -0.05819829, -1.00725889, 0.00550207, -0.05524001, -0.15600468, -0.03890184, -0.04458649, 0.05007299, -0.16677400, 0.05969168, -0.18468596, 0.00619140, -0.13087167, -0.65453804, -0.29531708, -0.00446793, 0.00513857, -0.11917343, 0.18070018, 1.12921023, 0.09216098, -0.00207280, -0.00769880, 0.11568032, -0.33409348, -0.20113006, 0.01274679, 0.11888032, 0.02275546, 0.95480597, -0.44257879, -0.67604589, 0.03320394, 0.01030801, -0.08777697, 0.29653129, -0.02828217, 0.08376167, 0.22919083, 0.00000858, 0.03879702, -0.00000000, -0.02860655, 0.14131612, -0.14308022, -0.87199318, -0.03014789, -0.09332886, 0.19021760, -0.01020870, -0.01353854, -0.00224692, -0.05755986, 0.25892735, 0.03417943, -0.16657501, 0.14800359, 0.04584414, -0.56397462, -0.00055117, -0.16463424, -0.03744387, 0.15880336, 0.58935934, 0.17145222, -0.06637769, -0.05873128, 0.13708653, 0.00403671, 0.18819746, 0.33885053, 0.01092419, -0.12874821, -0.01787911, 0.33531842, 0.00550083, -0.02937776, -0.14305912, -0.06723941, -0.00587486, 0.33295295, 0.02952377, -0.02627179, 0.01015212, -0.31775334, 0.22226189, -0.04611048, 0.00460503, 0.04548891, 0.04058091, -0.01074996, 0.02453186, -0.12246111, 0.00267279, -0.45626292, -0.18292597, 0.05381931, 0.10836975, 0.10843139, -0.11917631, 0.20324109, 0.26264262, -0.00000000, 0.03514571, 0.27454734, 0.02424053, -0.14249790, -0.24114524, 0.03648371, -1.01844096, 0.14551967, -0.02733762, 0.15183356, -0.24689972, -0.10194656, -0.14326406, 0.00586602, -0.08555182, -0.01436150, 0.72957826, -0.11346093, 0.03853188, 0.05987057, 0.00134924, 0.18805020, 0.01964073, 0.02077139, 0.13654731, 0.34518716, -0.03998377, 0.22228725, 0.11857306, 0.00824400, 0.00077399, 0.02878921, 0.32593030, 0.16060792, 0.05261380, 0.47760743, 0.26564503, -0.06851703, 0.02761142, 0.00001411, 0.06191054, -0.27083382, -0.15857363, -0.10979839, 0.18205039, -0.25019541, -0.08053946, 0.16661273, -0.02868536, 0.13353497, 0.20437790, 0.13250259, 0.01771555, -0.02356678, -0.06322651, -0.02810171, -0.00207365, -0.16206294, -0.01750855, -0.03999119, 0.00927453, -0.03797370, -0.25190756, -0.78411758, 0.21314724, 0.20185982, -0.00930798, 0.04824640, 0.06501426, -0.10413246, -0.00420323, -0.04639066, 0.12729518, -0.00097414, 0.23327841, -0.00022756, 0.04848759, -0.34485659, -0.09725790, -0.01457703, -0.08044092, 1.14053702, -0.06387078, -0.09156095, -0.13802052, -0.12038253, -0.12832932, 0.01003556, -0.03236790, -0.18113288, -0.25293365, -0.09927600, 0.15323277, 0.91925883, 0.04995026, -0.01733781, -0.04657288, 0.04958236, 0.06877501, 0.50716728, -0.03575087, -0.17383203, 0.08554066, -0.01724536, -0.10919856, 0.00729142, 0.04964064, -0.43833071, 0.16356555, -0.15905511, -0.17637604, 0.01120829, 0.12051580, -0.05201283, 0.15526603, 0.00976736, 0.03280541, -0.02235351, 0.09938673, -0.00759662, 0.23495854, -0.06338824, -0.86877990, 0.06530878, 0.05935644, 0.18185724, 0.09831960, 0.00075779, 0.03764971, 0.00813168, 0.10161819, -0.01828269, 0.06893147, -0.01916197, -0.11205477, -0.30725446, 0.41631991, 0.00835858, 0.00073717, -0.05553000, -0.45242131, -0.01588706, 0.01479148, 0.04886107, -0.07146522, 0.45948932, 0.00000019, -0.07526285, 0.01940481, 0.00951242, 0.08175406, -0.01058260, 0.07366554, 0.30433980, 0.12459866, 0.15090734, -0.59055018, -0.45143759, -0.01290920, -0.22182429, -0.00413312, -0.28646207, -0.23603176, 0.00269602, -0.00032029, 0.04863128, -0.06941963, -0.13446885, 0.25511703, 0.00325236, 0.32046196, 0.00089828, 0.05015743, -0.26090616, -0.42149535, -0.06273404, -0.05624230, 0.02450853, -0.05405492, 0.10168075, -0.04442408, -0.04466775, 0.01702227, -0.00564537, 0.06735103, -0.01973373, -0.08596946, 0.02052714, -0.09140009, 0.27585927, 0.21163993, -0.00129540, 0.32709691, 0.44127616, 0.12510255, -0.12784877, 0.04748152, 0.00324067, 0.08813925, -0.02555985, 0.09876953, -0.03452731, 0.01280640, 0.01650691, 0.09729545, 0.03349225, 0.17357868, 0.00405907, 0.02564167, -0.14028518, 0.01147415, 0.26946992, 0.78656995, -0.34618491, -0.09556635, -0.01861900, -0.03368241, 0.12571983, 0.00646501, -0.11479820, 0.06998576, -0.03032358, 0.01493313, 0.00408525, 0.19177614, 0.00652541, 0.95110410, 0.15020192, -0.30038455
};

static const float net_2_bias[3] = {
  -0.00655979, -0.02148476, 0.01519297
};

static const float input_mean[3] = {0.00000000, 0.00000000, 6749.99951172};
static const float input_std[3]  = {2338.09155273, 2338.09155273, 4214.56005859};
static const float output_mean[3] = {0.00000001, 0.12292606, -0.00000000};
static const float output_std[3]  = {22.14661598, 71.60929108, 22.14662170};
