// Auto-generated field NN weights
// Architecture: [32], activation=relu
// Parameters: 227, FLOPs: 416
// MAE: 10150.86 Gauss, p99: 53049.5 Gauss

#pragma once

static const float net_0_weight[96] = {
  -0.75708503, -0.07432292, -0.79707795, 1.08361363, 0.12735778, 0.30442297, 0.00232257, -0.08480382, 0.07651622, 2.08583283, -0.12214480, -0.94172150, 0.06753973, 0.12230330, -0.08273365, -0.64677918, 0.38472268, -0.17881501, -1.46004152, -0.07710977, 0.66721135, -1.37682974, -0.27007806, -0.47043577, -0.41886914, 0.28779793, -0.51941651, 2.17592835, 0.10250009, -0.15979154, -1.57215655, 0.41231769, -0.94238561, 0.47534817, -0.15663312, -0.94121248, -0.48797727, 0.21695168, 0.93159091, 0.25469714, 0.28250656, -0.48040035, -0.88429570, 0.28585950, -0.04584293, -0.78275883, -0.06219411, -1.12161076, -0.05009140, 0.36275446, -0.03880955, 0.89382493, 0.19444932, 0.63347673, -0.69251972, 0.29509199, -0.52828008, -0.00013737, 0.47221401, -0.02237160, -1.21939445, -0.18866140, -0.69548953, 1.28046525, 0.46399629, -0.29706100, -0.69698519, -0.32413417, -0.89959466, 0.61493397, -0.13367437, 0.48266068, 0.28376272, -0.20995405, 0.40618765, -1.06934762, 0.38244981, 0.24415076, 1.30785084, -0.27382120, 0.41951841, -1.01447523, 0.18142688, 0.30622771, 1.80610049, -0.51978922, 0.63840377, -1.00242555, 0.07450329, -1.33085251, -1.97844231, 0.08071424, 0.14497367, -0.05282619, -0.20992824, 0.29616690
};

static const float net_0_bias[32] = {
  -0.34110886, -0.22969277, 0.26237014, -0.39670476, 0.31670478, 0.05557152, 0.26505902, 0.08949396, -0.15337563, -0.07732759, 0.47985950, -0.04626122, 0.14166136, 0.36188498, 0.35850498, -0.46513230, 0.47071820, 0.70125496, 0.15147780, -0.74987811, 0.22038059, -0.10322963, -0.34995958, 0.54809815, 0.33222049, 0.05941183, -0.37302345, 0.50542569, -0.42819574, -0.54800910, 0.07649532, 0.50201142
};

static const float net_2_weight[96] = {
  0.82664549, -0.82138002, -0.17962947, -0.91988862, 0.16713421, 0.22042559, 1.18269551, 0.49524507, 0.25087404, 1.56145024, 0.35775515, 0.30970773, -0.31219366, -0.08277389, -0.15764722, 0.98457247, 0.06515682, -0.34121874, -0.27082106, 0.07390553, -0.33276650, -0.42112046, -0.20502886, 0.22025178, -0.01040471, 0.54317385, 1.22514760, 0.25192654, -0.88714719, -1.13972139, -1.66020203, -0.10304917, -0.00116224, -0.06053325, 0.07696480, -0.01332161, -0.00642340, -0.12166764, -0.03407329, 0.08804408, 0.13833317, -0.04697712, -0.06249852, -0.00748899, 0.00698430, -0.08200282, 0.00348873, -0.04739149, 0.09482597, -0.05226195, 0.02122929, 1.12270355, -0.04904828, 0.11514051, 0.13279848, -0.08722392, 0.17153722, 0.11116645, -0.16819929, -0.00052542, 0.18752196, -0.05319749, -0.01900790, -0.17909405, 0.54805034, -0.15838146, -0.06565097, 0.25762820, -0.05376289, 0.02113840, -0.34576949, 0.13642006, 0.16906729, -0.12445743, 0.14456914, -0.34400499, 0.32188657, 0.09308808, -0.03618324, 0.87521195, -0.02965839, -0.12035669, -0.14563465, -0.05304686, -0.13886991, 0.06757436, -0.22278462, 0.10688552, 0.00325838, -0.09788852, 0.25291467, -0.04349159, -0.18200715, -0.93514156, 0.14520897, 0.14168274
};

static const float net_2_bias[3] = {
  -0.23183788, 0.08652476, 0.03152838
};

static const float input_mean[3] = {0.00000000, 0.00000000, 6749.99951172};
static const float input_std[3]  = {2338.09155273, 2338.09155273, 4214.56005859};
static const float output_mean[3] = {0.00000001, 0.12292606, -0.00000000};
static const float output_std[3]  = {22.14661598, 71.60929108, 22.14662170};
