// Auto-generated: [128, 128] relu
// Strategy: log_space
// Params: 17411, FLOPs: 34560
// MAE: 0.35 G, relMAE: 0.0985

#pragma once

static const float net_0_weight[384] = {
  -0.79384810, 0.24197768, -0.54063004, 0.33576316, -0.36042595, 0.28786084, 0.56537127, 0.34593728, 0.66416150, 0.38682905, -0.08146551, -0.23647030, -0.04110702, -0.00990681, 0.43065917, -0.38581800, 0.04688546, 0.30477396, -0.26757875, -0.04695306, -0.64822030, 0.44825467, -0.08026467, 0.18249138, 0.45367438, -0.21708217, 0.13902572, -0.73517984, -0.17103510, 0.02147784, -0.20113082, 0.19217823, 0.67645842, 0.20112389, 0.02952437, 0.18666086, -0.21114452, 0.26622158, -0.19789994, -0.31633201, -0.12965928, -0.01074574, 0.16805786, 0.04405030, 0.49958327, -0.03461445, 0.01834266, -0.15930022, -0.01597938, -0.29261428, -0.12132663, -0.60909873, 0.02204189, -0.30518386, 0.03881591, -0.47691435, -0.27307141, 0.44168681, -0.39723679, -0.05983602, 0.10065255, -0.27738979, -0.50898772, 0.37981057, 0.27466410, -0.07161524, -0.42585745, -0.50984240, 0.32163647, -0.36110687, -0.19039993, -0.39327568, 0.31659678, -0.46961433, 0.62324357, 0.24330699, 0.02131949, 0.59371543, 0.04473306, 0.05113075, -0.51161838, 0.25071838, 0.03704235, 0.64294392, -0.25698784, -0.53559983, 0.44617674, -0.34211257, -0.52403384, -0.06782868, -0.38620791, -0.25348511, -0.32753780, -0.15873109, -0.41863596, -0.11698610, -0.19409002, 0.52458829, 0.15179594, -0.14554232, -0.50809783, 0.45244360, -0.23866537, 0.36810100, 0.46697482, -0.09369624, 0.19495183, 0.09592941, -0.38393196, -0.49138513, -0.06783117, 0.46480742, 0.22655629, 0.13852151, -0.00058199, 0.11492036, 0.71045005, -0.38163343, 0.16440761, 0.13354696, 0.57146686, -0.21247965, -0.24968906, 0.31494030, -0.47344354, -0.10947683, 0.38937813, -0.30110413, -0.01852353, 0.25511953, -0.51592481, 0.60231268, -0.58181673, -0.33080587, 0.25210652, 0.48428351, -0.20783958, 0.32407472, -0.43938461, -0.03836848, 0.25555667, 0.45128286, 0.17768368, -0.08844673, 0.01732810, 0.08642672, -0.74052197, -0.33578095, 0.03437820, 0.25869974, 0.01821500, -0.74313283, 0.50370198, -0.09242770, 0.10410766, 0.49912882, -0.48905775, 0.22569433, -0.37059096, 0.40460017, 0.11628114, -0.50006139, -0.03051240, 0.03565343, -0.57138669, -0.02403107, 0.51059669, -0.37065482, -0.32133195, 0.04240740, 0.27602482, -0.32242441, 0.01174758, -0.33563384, -0.13570037, 0.34528154, 0.41053128, 0.38132906, -0.30911264, 0.05791444, 0.63901097, 0.29394647, -0.03108112, 0.23976421, -0.45271006, 0.00323175, 0.36779216, 0.28856492, -0.20386896, 0.03427137, -0.57751203, 0.59253347, -0.59901381, 0.12501073, 0.75439012, -0.33498272, -0.39938778, -0.41353220, 0.70020574, 0.04207085, -0.18212779, 0.13397712, 0.20019200, -0.33964300, -0.37621799, 0.15854602, -0.59171647, -0.65522480, -0.11514933, 0.19263031, -0.50809067, -0.09194918, 0.74341297, -0.23024939, -0.28870997, 0.03106722, 0.61220664, 0.00876291, 0.13479517, -0.31583223, 0.09229260, -0.02920561, 0.32299894, -0.16357408, -0.44001243, -0.48766845, -0.29794580, -0.10419852, 0.37414020, -0.12131779, 0.60222745, 0.35654622, -0.03854404, -0.28280950, -0.12348980, -0.26145580, 0.47073352, 0.20454520, 0.05970452, 0.75453252, 0.56154281, -0.20757569, -0.02909496, -0.09112579, -0.20760189, 0.26319063, -0.20954615, 0.05595739, -0.38505885, 0.06314027, -0.17860916, 0.68917555, 0.16208145, -0.18245433, -0.30265221, -0.17494680, -0.03305278, 0.62555176, -0.03135926, 0.41676465, 0.59685957, -0.62228900, 0.13918489, 0.53546828, -0.24353427, 0.24571006, 0.25754938, 0.43079293, 0.73953927, 0.51343066, 0.12714362, -0.01384694, 0.90266263, 0.12381459, 0.29013270, 0.09575605, 0.31932479, 0.00639018, 0.44747421, 0.14249668, 0.20722647, 0.03022831, -0.36895767, -0.05817655, 0.48386687, 0.48465896, 0.07472154, -0.54953581, 0.05740235, -0.28800657, -0.40845910, -0.17524411, 0.62632704, 0.55223888, -0.33102643, 0.43687207, 0.03794139, -0.03865108, -0.07652990, -0.72891533, 0.57043749, -0.02245370, -0.22278549, 0.14541319, 0.22800742, 0.49461102, 0.00493859, -0.44437268, 0.75864881, 0.22881703, 0.35222188, -0.44233224, -0.11071654, -0.00050178, -0.38558584, 0.15454686, -0.14030743, -0.37219778, -0.32170489, -0.02701455, 0.57386577, -0.14831856, 0.68542904, -0.36729717, 0.59065038, 0.07464533, 0.10691497, -0.51102060, 0.14061117, -0.17836903, -0.50356984, -0.03294912, -0.53629953, 0.14173298, 0.01134237, -0.45360658, -0.21569023, 0.00087978, 0.13679180, 0.23833911, 0.19971851, -0.70704156, -0.13819085, 0.25416526, -0.20805815, -0.12010248, -0.16528891, -0.41451550, -0.69602984, 0.38172933, -0.02356750, -0.24953754, 0.03873013, 0.70672470, -0.20774566, 0.01415387, 0.67144763, 0.04124406, 0.60450959, 0.32779351, -0.02943105, -0.09049745, -0.29016078, -0.59990638, -0.22398719, -0.08468363, -0.65082633, 0.11037516, -0.04912873, 0.19243084, -0.09880695, 0.69797873, -0.01342143, 0.16825716, -0.72783393, 0.15144645, -0.30416599, -0.44555426, -0.46984869, 0.31122020, 0.51898074, -0.37746790, -0.11605675, -0.24989259
};

static const float net_0_bias[128] = {
  -0.64231580, -0.35245755, 0.09764014, 0.32462412, 0.33793843, 0.22051734, -0.25348604, -0.05969797, 0.04538202, -0.30019891, -0.04122570, 0.23649517, 0.08378197, 0.28880531, 0.12905775, 0.40335178, 0.36993819, -0.28432646, -0.85595495, -0.69695044, -0.60092491, 0.13880105, -0.56046635, -0.22044434, -0.62771994, 0.49887338, -0.11867243, 0.27248913, -0.74827564, -0.76528692, 0.11275799, -0.69702613, -0.72071135, -0.55779332, -0.24404819, 0.41153532, -0.44781536, 0.07298569, 0.48234445, 0.34120306, -0.28682491, -0.70473009, -0.30447835, -0.60079491, -0.47432300, -0.13522428, 0.05097268, -0.04438625, -0.37355497, 0.33121860, -0.71081549, 0.39531150, 0.08696873, -0.29227778, -0.31613693, -0.91052347, 0.25320262, 0.08814618, 0.38513491, 0.21639518, -0.52385592, -0.77791846, -0.18770705, -0.62192762, 0.15352060, -0.72988993, -0.11583724, 0.18854852, -0.40428227, -0.00633760, 0.44325519, 0.12456243, 0.06800231, 0.36933494, 0.15113279, 0.04040452, 0.11002640, 0.13020775, -0.23708691, 0.40038395, -0.37705478, 0.22796750, 0.00194627, 0.21892814, 0.20518720, 0.23813073, -0.48286963, -0.32667267, 0.51307225, -0.72715300, 0.39592585, 0.26844341, 0.02439140, -0.33235103, 0.44285437, -0.46288750, 0.30284402, -0.23169611, -0.82732064, -0.41429663, -0.12865527, -0.18157725, -0.10508461, 0.26680326, -0.03154850, -0.33616287, 0.26842421, -0.89948952, -0.10421486, -0.14793311, -0.15653683, -0.21499263, 0.03155340, -0.37177259, 0.29322606, -0.44132060, -0.52576804, 0.28178430, 0.48840556, -0.78395057, -0.10082371, -0.36840767, 0.12746841, 0.19479860, -0.55821168, -0.48722917, 0.04951920, 0.00057818
};

static const float net_2_weight[16384] = {
  -0.00918513, -0.07899074, 0.21551274, 0.06966587, 0.05340926, 0.02004188, 0.06074413, 0.08246942, 0.06965720, 0.17018789, -0.59080088, -0.03160024, 0.03990574, -0.02451656, -0.21136411, 0.00162072, -0.03784171, -0.17355089, 0.06529465, -0.08288235, 0.07391010, 0.07813957, -0.10345481, 0.16080986, 0.41179278, -0.00959876, 0.08831740, -0.10832334, 1.08132792, 0.03016226, -0.04357626, 0.00012396, -0.30468211, -1.19516778, 0.36223394, 0.03806608, 0.03633908, 0.12409882, -0.06141991, 0.02393202, 0.00234732, 0.05799613, -0.00242681, -0.26830176, 0.11788113, -0.04671523, -0.33171767, 0.06089999, -0.02674746, -0.07472274, -0.14741038, -0.16984022, 0.03498977, 0.00616164, 0.09169513, -0.12211531, -0.04724486, 0.09729694, 0.07173050, 0.06846917, 0.01468072, 0.03796365, 0.07093333, -0.25768000, 0.18131182, -0.06091413, -0.09890331, -0.04869593, 0.03754314, -0.13709065, -0.13779183, 0.11729608, -0.06164946, 0.04703638, -0.02915981, 0.12383433, -0.00891095, -0.00201801, -5.10712671, 0.13956714, 0.02231312, 0.06589003, -0.01316416, 0.31986129, 0.05100140, -0.27389419, -4.23496056, -0.08530911, 0.03870756, 0.03242387, -0.40227640, -0.02401976, -0.05983327, 0.14960957, -0.03014302, 0.06949777, 0.01220605, 0.14860354, -0.22012500, -0.05564654, -0.06129847, -0.77123821, -0.13688150, -0.07884923, -0.01642512, 0.08767982, -0.34085971, 0.09502416, -0.08203029, 0.11530021, -0.10814923, -0.06086475, -0.47567967, -0.01220304, -0.05862787, -0.05255721, -0.03315817, 0.17609169, -0.00509756, -0.27198741, 0.10598620, -0.02957543, 0.06778409, -0.17782465, -0.10832096, 0.00777229, 0.13108248, -0.01498356, 0.00214526, -0.05536665, -0.03583190, -0.04124174, -0.07829320, -0.08152978, 0.03927109, -0.06923293, 0.05080848, 0.04323322, 0.07617595, -0.04423724, -0.03465103, -0.06322718, 0.06151919, 0.00615034, -0.09246454, 0.01055514, -0.06964681, 0.06942101, -0.07648572, -0.03689374, -0.07165470, -0.02663834, 0.01402669, -0.06382362, -0.00666314, 0.02223292, 0.01837697, 0.08713477, -0.07169954, 0.07650110, -0.02316894, 0.05394809, 0.06795438, 0.06146073, -0.00880913, 0.01292602, -0.07058191, -0.05940789, -0.03558046, -0.06444448, 0.03531382, 0.05152461, 0.06407747, 0.00558110, 0.01797844, -0.09653129, -0.01516388, -0.04088076, 0.06738254, 0.07303964, -0.05338499, -0.08917489, 0.04009712, 0.01557455, -0.03556092, -0.09293037, -0.10932013, -0.01825612, -0.03856876, 0.05222293, 0.04859597, 0.04821092, -0.03562986, 0.06800687, -0.03981907, -0.02047028, -0.04484859, 0.08095487, -0.02208168, 0.01414246, 0.01657823, -0.07959372, 0.00045455, 0.08592565, 0.03345378, 0.04110418, 0.06958647, -0.04359011, 0.02701569, -0.08601907, -0.06013898, 0.08046184, -0.04846347, 0.03704647, 0.06794421, 0.08079334, -0.05761161, 0.03270111, -0.07782140, -0.04948824, -0.03520756, -0.02287595, -0.06700586, 0.01074734, -0.10043542, -0.05715553, -0.08534530, -0.08334286, -0.06565610, -0.06254097, 0.01904654, -0.03805219, 0.05283783, 0.04509807, -0.06739751, -0.01478428, -0.11119422, 0.03823874, -0.02236859, -0.01072768, 0.06830113, 0.04220296, -0.03023797, -0.07629558, -0.03351217, -0.04424820, -0.00325218, 0.05949203, 0.02793949, -0.04759616, -0.02282309, -0.00160634, -0.06336747, -0.08189914, 0.05283545, 0.03977947, 0.04850103, 0.00603558, -0.03801288, 0.01405108, -0.00615665, -0.09919003, -0.06461003, -0.01633061, 0.13678436, 0.02629966, -0.07336296, 0.05093560, 0.10549965, -0.06864201, -0.02550502, -0.02277310, 0.04117295, -0.14265816, -0.17576097, 0.02711982, 0.81210726, 0.01999236, 0.00664580, 0.03034787, -0.05681805, -0.06771092, -0.25881091, 0.03484145, -0.10306511, 0.09486319, -0.05043593, 0.12001060, -0.05620675, 0.02241927, 0.02746512, 0.04940542, 0.09571543, 0.01631810, 0.00431635, 0.00658516, 0.07129767, -0.00602610, -0.01611679, 0.03758266, -0.10315377, 0.01962315, 0.06530692, 0.08160298, -0.59074938, 0.06874989, 0.07665004, -0.04808992, -0.01514138, 0.04999674, -0.32780826, 1.16937935, -0.01491904, 0.02120941, 0.03877139, 0.00742309, 0.05392630, -0.08670826, 0.06268410, 0.08387481, 0.02898777, 0.48715371, -0.06307480, 0.02010385, -0.06777214, 0.05794206, 0.01146130, 0.07475302, -0.12167343, -0.00958063, -0.10161503, 0.03051350, -0.00000542, 0.03893616, -0.07873569, 0.01738515, -0.02332008, -0.01132403, 0.01156796, 0.06582072, -0.10166001, 0.01611743, -0.10971648, 0.06261259, -0.05998651, 0.06127701, 0.05159954, 0.06404500, -0.08225644, -0.17892346, 0.01542974, -0.27785435, 0.01161737, 0.06709938, -0.17314792, -1.48857439, -0.08604299, -0.09277728, -0.02526483, -0.08825609, -0.23469883, -0.01989464, -0.00806624, 0.29620877, -0.05895923, 0.02711744, -0.02098655, -0.02968059, 0.05225067, 0.54997259, -0.02488521, -1.01664019, 0.09687558, -0.03138117, 0.00912747, -0.05307125, 0.40289411, 0.05231961, -0.00179260, 0.01009290, 0.02929780, 0.38757885, 0.05497928, 0.00968544, -0.03826303, -0.06696962, -0.02678050, 0.03176362, 0.05239934, -0.03521702, 0.02818575, 0.01590759, 0.03438332, 0.04832486, 0.01984365, 0.08347549, 0.03780030, -0.03934282, -0.05765049, -0.03742083, -0.08397327, -0.20406300, 0.09563544, 0.03548973, -0.06192818, 0.05384321, 0.30045733, 0.07613917, -0.03524559, 0.08052003, 0.00505424, 0.02173780, -0.95691067, 0.12786035, 0.04314680, -0.23317252, -0.14494972, -0.05594216, -0.04835559, 0.05245802, 0.18699753, 0.01856871, 0.00210263, 0.06862963, -0.00488108, -0.00064208, 0.03265658, 0.03428405, -0.31825069, -0.00518686, 0.07412814, 0.04789308, 0.00973904, 0.05078953, 0.15542321, 0.06802096, -0.08011146, 0.05369726, -0.03807965, 0.06493688, 0.02229436, 0.03726113, 0.08273052, -0.05800043, -0.05160624, 0.10320333, -0.00651204, -0.03089838, -0.10039342, 0.03982015, 0.04668535, 0.03751761, -0.10526847, -0.02442872, 0.05651756, 0.02413855, 0.00486280, -0.06431601, 0.03341279, 0.03100958, -0.10870596, 0.07292303, -0.17503765, 0.02911014, 0.07281943, -0.09282202, 0.00160954, 0.00516133, 0.02556232, 0.06431170, -0.00907083, 0.04498519, -0.01224851, 0.02049187, -0.09482995, 0.09767625, -0.01880306, 0.04444304, -0.08985527, -0.13827258, 0.01465356, -0.02004219, -0.83790421, 0.02962608, 0.01116748, 0.01530832, 0.00958264, -0.05728633, -0.03991018, 0.04686041, 0.01748053, -0.07217428, -0.09293815, -0.21568251, 0.03166373, 0.05586879, -0.11525477, 0.03947948, 0.01018512, -0.19201829, -0.08917831, -0.02573914, 0.00028337, 0.00903622, -0.03498036, 0.13526832, -0.11075316, -0.07216740, 0.04204686, -0.08086961, -0.04495420, 0.06684528, 0.10191408, 0.14073896, -0.05822206, 0.07442575, -0.18245554, -0.14885297, -0.06234561, -0.08145558, -0.01376777, -0.01659354, -0.14327918, -0.06587283, -0.03109317, 0.05287321, 1.02714133, 0.04679898, -0.00839685, 0.02535310, 0.26167560, 0.15256365, -0.02503832, 0.01932929, 0.19943675, -0.02489289, -1.37160408, -0.18017884, 0.04389346, -0.52194953, -1.10602319, 0.09143162, 0.02731280, 0.20847198, 0.13390037, 1.41198432, -0.17161861, 0.08348408, -0.10798909, -0.06912813, 0.04737296, -0.05104160, -0.10168999, 0.03699432, -0.02408740, 0.98368144, -0.14182536, -0.03285937, 0.13494629, -0.00981567, 0.08422763, -0.05442197, 0.40404820, 0.07843069, 0.07620795, 0.09780563, 0.01796918, 0.20521770, -0.13040307, -0.02630326, -0.12029438, -0.08510814, 0.10773992, 0.00913213, 0.00203978, 2.82380414, -0.07411782, 0.08391008, 0.05360542, 0.09824244, 0.11504614, 0.09494316, 0.06204889, -0.00613929, 0.04827537, -0.05784797, 0.04969418, -0.05654990, 0.23949195, 0.05837366, -0.40321308, -0.29065746, 0.09181526, -0.03673129, -0.01655107, -1.13276935, -0.04901839, 0.36773255, 0.86781710, -0.21127512, -0.01488660, 0.12138465, -0.56371522, 0.03421822, -0.54595351, 0.51769215, -0.17461257, -0.00151332, 0.07496348, 0.03533915, -0.26923707, 0.01172882, 0.03693201, -0.13434388, -0.71492302, 0.03590922, 0.04920056, -0.00222796, 0.20947538, 0.18829791, -0.12869063, -0.02491430, 0.05148934, 0.01898438, 0.02678207, -0.06968925, 0.03408942, 0.17119968, 0.14216715, -0.11822436, -0.50967854, 0.83166176, 0.05038432, -0.01230082, 0.04869912, 0.16791211, 0.01553676, 0.02678661, -0.05342886, -0.03834667, -0.06376243, 0.02052841, -0.02170557, 0.06160678, 0.03398897, -0.04249645, -0.01886623, 0.01212549, 0.01798856, 0.00210031, 0.11472154, -0.03509952, 0.07531123, 0.00969613, 0.01783880, 0.00403081, 0.01061193, -0.13800505, -0.14244661, 0.03647378, -0.04635096, 0.05089143, -0.02035848, 0.13472702, 0.02763269, -0.05293316, -0.09768517, -0.14295679, -0.13706221, -0.41968089, 0.02709003, -2.69630790, -0.25813079, -0.11505277, -0.02193009, 0.06223376, 0.06339902, 0.02581852, -0.06365918, -0.03597838, 0.05968896, -0.00490505, 0.03097432, 0.12261729, -0.09972253, 0.07602017, -0.00980373, -0.00936296, 0.02692295, 0.04722103, 0.03068762, -0.09996645, -0.07658689, -0.00938577, -0.10140486, 0.00787283, -0.07419561, 0.01776056, -0.03262502, 0.04310026, 0.06579176, -0.01469623, -0.06059533, 0.04703218, 0.00476111, -0.08671471, -0.03134352, 0.05770138, 0.02146829, -0.09260798, 0.08824732, 0.00895084, -0.08826403, 0.08763989, -0.05990932, 0.06461687, -0.05541980, 0.06311177, -0.00756648, -0.04904455, -0.04655526, -0.02287311, -0.02725094, 0.04049665, -0.02165595, -0.10551068, -0.41525275, 0.10313582, 0.05720349, -0.10661774, 0.00739775, 0.07206987, 0.00990571, 0.19686823, 0.13184279, 0.09798510, 0.00751513, -0.04917771, 0.78889412, -0.09631452, 0.07061188, 0.11612353, 0.06272583, 0.01459998, 0.04285678, -0.13273185, -0.02268011, -0.02244435, -0.02535036, 0.02003140, -0.05494856, -0.04462109, -0.08644261, 0.06694002, 0.03382777, -0.12695162, -0.06040198, -0.06747410, 0.02522388, 0.01156804, 0.15074027, -0.11725209, -0.03229358, 0.01974892, -0.01142336, -0.09015124, 0.08977646, 0.03403075, -0.13306268, -0.03179020, -0.04168383, 0.03453423, 0.03256098, -0.06027193, -0.03376471, 0.06187637, 0.01545784, -0.04581130, -0.06659137, 0.01369041, 0.11557178, -0.04523569, 0.02810711, -0.09372069, 0.07147329, -0.13997969, 0.03755390, -0.06539381, 0.00556673, 0.05474334, 0.05038529, -0.06151950, -0.00062364, -0.09746176, -0.03517052, 0.04718563, 0.01785764, 0.17260453, 0.01302711, 0.34164897, -1.04914165, 0.02736402, -0.22912410, 0.05898072, -0.07438253, 0.04169204, 0.00667271, 0.03107473, 0.02628554, -0.06059214, 0.06276900, -0.00103503, 0.06155753, 0.06741768, -0.01132122, -0.03162687, 0.08427513, -0.05907457, 0.09215789, 0.02377065, 0.14819437, 0.01348350, 0.12152522, -0.68551642, -0.00526169, -0.01269193, -0.08314818, 0.02776208, 0.08568246, -0.01239886, 0.08721755, 0.05870659, -0.06821398, 0.15892988, -0.02618839, -0.00412150, -0.68356729, 0.08615599, 0.03964483, 0.05906523, 0.05457295, -0.03945472, -0.05781793, 0.00941210, -0.06095143, -0.05264093, 0.05682007, -0.02633354, 0.02304958, -0.06500827, 0.08388937, -0.00937572, 0.02963107, 0.04785385, 0.06922278, -0.12307557, 0.02112133, 0.10300207, 0.02732233, -0.09241291, -0.04256966, 0.05516858, -0.11296538, -0.01016473, 0.02347665, 0.00059082, -0.19572620, -0.00637890, 0.07114621, -0.04731224, 0.07567073, -0.02119789, -0.01356902, -0.05838171, 0.00140575, -0.56828558, -0.04494121, -0.23313028, 0.06578603, -0.03043381, 0.02191002, 0.03744617, 0.05903383, 0.17389433, -0.14879663, 0.01295788, -0.05859632, -0.02791539, -0.04216591, 0.00786300, -0.02768414, -0.03345519, 0.00257724, 0.04785522, -0.03713336, -0.10506283, 0.00910774, 0.05009042, 0.03357281, -0.01496193, -0.06843530, -0.04197773, -2.10421157, -0.05669143, 0.04169041, 0.00518869, 0.29838622, -0.08912650, 0.00622031, -0.33322912, -0.29084769, -0.01953045, -0.38897967, -1.01865888, -0.00230791, -0.06784291, -0.03906587, 0.01999585, -0.32215294, 0.11527666, -0.03151285, -0.04419465, 0.03096599, -0.23240781, 0.01770272, -0.17166090, 0.87721175, -0.10020644, 0.23857304, -0.00891745, 0.08292300, 0.04690683, 0.07794448, 0.08466169, 0.00573562, 0.07139927, 0.05730727, -0.01531083, 0.01039477, -0.00654691, 0.04277064, 0.01350824, -1.44385135, 0.09492684, 0.32375702, 0.05193633, -0.00838080, 0.00078858, 0.06110701, -0.05382616, -3.58923292, 2.72105837, 0.02756914, -0.07017120, 0.02227109, 0.01194928, -0.06218827, 0.11059780, 0.06509346, 0.02900234, -0.03658477, -0.07118668, -0.02863241, -0.05426436, -0.23106429, -0.53540969, -0.18344645, -0.04610067, -0.08003459, -0.02908642, -0.22960222, -0.02301176, -0.01253619, -0.12258218, 0.11806972, -0.05342944, -0.10046506, 0.02168871, 0.13627304, -0.00238433, -0.28368449, -1.18253255, -0.28442234, -0.48182511, 0.05859681, 0.17942882, -0.32372555, 0.06112538, -1.98746741, -1.54354560, -0.18619552, -2.21406937, -0.10486506, 0.08274836, -0.92773521, -1.12049556, -0.17021467, 0.23174472, 0.02745865, -0.06902210, -0.04585192, -0.05662837, -0.22385462, 0.27570847, -0.02509138, 0.07571098, -0.03566799, 0.07191177, -0.62343055, 0.18798989, 0.05771955, -0.20729269, 0.21872559, -0.11900173, -0.06303702, 0.43209085, 0.17531691, 0.16617249, 0.01164193, -0.08024369, 0.27651092, -0.17044374, 0.01977036, -0.14666392, -0.08671100, 0.30166450, -0.02171089, 0.03245696, 0.04870284, 0.09097684, -0.05143077, 0.00453632, -0.13393505, 0.08894578, -0.01464371, 0.10142338, -0.04217101, 0.07954131, -0.02991365, 0.07837014, -0.00185561, -0.03654729, -0.22753748, -0.22984973, 0.24698456, -0.08893894, -0.00449663, 0.04264560, -0.24420919, -0.05782377, -0.00803402, -0.06647255, -0.11689959, -0.02344244, -0.09712860, 0.01835817, -0.11553629, 0.05602642, 0.06751770, -0.01946704, -0.06375191, 0.04456502, 0.07878846, 0.06208781, 0.03521286, 0.26802102, 0.02386864, -0.12164678, 0.04049413, 0.10684840, -0.01205525, -0.09156571, -0.15654972, 0.04372102, 0.04336557, 0.05399316, 0.04775890, -0.31900835, -0.04965765, 0.37723944, -0.05400266, -0.04504616, 0.01287310, 0.06229260, 0.16279148, -0.73249626, 0.05875851, 0.13368534, 0.06125758, 0.13762304, -0.00707298, 0.05618267, 0.03254111, 0.03092823, -0.07606164, -0.02113798, -0.01154308, 0.04060180, -0.10957181, 0.03708690, 0.05951092, -0.00010200, -0.04578065, 0.00326484, -0.13715214, 0.12730752, 0.06154956, -0.00886555, 0.02558226, -0.06178814, -0.03140170, -0.08959263, -0.03579314, -0.00097537, -0.07160417, -0.08569435, 0.01438580, 0.04828233, -0.09496766, -0.08789912, 0.07510892, 0.06573125, 0.18075484, -0.05840115, -0.00111189, 0.09772830, -0.02229572, 0.06730015, -0.01271683, 0.18216760, -0.07327552, 0.30725083, -0.08813478, -0.07696209, -0.10867104, -0.09144846, 0.04067083, -0.07222798, 0.07709406, 0.00775552, 0.05033885, -0.00780193, 0.00024117, -0.07223233, 0.00498076, 0.03525240, -0.08143514, 0.00441398, -0.05317833, 0.07640518, 0.04051530, -0.01137635, 0.05034199, 0.05454759, -0.09349103, -0.00691106, -0.02399904, -0.01228104, -0.00217611, -0.02150983, -0.08426678, 0.06123424, 0.06703379, -0.07717977, -0.00500613, -0.00189783, -0.07841841, -0.07447932, -0.00232104, -0.08389331, -0.01099716, 0.02050811, 0.07177246, 0.00099252, -0.04780889, 0.02777672, 0.02106498, 0.04816829, -0.03747995, -0.00534468, 0.00529240, -0.04468504, -0.07280524, -0.01819259, 0.01397680, -0.02691399, -0.02461360, 0.07117178, 0.02366270, -0.01437777, -0.01997691, -0.03662124, 0.07091082, -0.08314655, 0.06251691, -0.01700518, 0.04557717, 0.06090253, 0.05222553, 0.07968186, 0.01494545, -0.00309305, -0.02998831, 0.08156431, -0.01785071, 0.02374231, -0.00136945, -0.03606099, 0.06587195, -0.08517654, -0.05340450, 0.03215108, -0.08415418, -0.03757573, 0.02220249, -0.00838287, 0.04918460, 0.07326835, 0.04163471, -0.04889345, 0.03425024, 0.05332227, -0.05543058, -0.00482589, 0.04134081, 0.03670749, -0.00619020, -0.09007704, 0.00746697, -0.04024178, 0.07651611, -0.08550826, -0.07288793, -0.08874676, -0.00583774, 0.07112882, -0.01515936, 0.00028863, -0.06498654, -0.04784970, -0.08292646, -0.07890580, -0.05647691, -0.01438005, 0.02240779, -0.00435038, 0.07378750, 0.03106504, -0.00369906, 0.03400957, 0.03436296, -0.08553053, -0.00314491, 0.02920358, -0.08605691, -0.02941622, -0.06322555, -0.06603115, 0.06771539, 0.05058384, -0.03958206, -0.08514488, 0.03134365, 0.05444910, -0.09220155, -0.05380521, -0.08124656, 0.05772525, -0.06631010, -0.00231816, 0.03116113, -0.01673646, -0.02536575, -0.08274863, -0.08816116, -0.02929436, -0.05145184, -0.03336572, -0.08708226, 0.04801895, -1.04220736, -0.01825912, -0.03362684, 0.00700091, -0.00340632, -0.36007184, -0.00791888, 0.02986418, -0.07042833, 0.69389397, 0.02693424, 0.06155406, -0.02093635, 0.00507427, 0.11692826, 0.00933601, 0.00432651, 0.09444904, -0.42979762, -0.38466498, -0.35414773, 0.08116703, 0.17913653, 0.55454677, -0.39889508, -0.00301314, -0.21707167, -0.00365338, -0.83487421, -0.43318322, -0.01195266, -2.88670611, 0.54935127, -0.07728418, 0.01346263, 0.04415755, 0.30086038, 0.11144906, -0.03440033, -0.02105424, 0.00447846, 0.14584137, 0.02274756, -0.41276813, -0.33157560, -0.04767460, -0.27899247, 0.07810241, -0.03168088, 0.00251964, 0.37301117, -0.00007598, 0.12781346, 0.07169203, 0.18733929, 0.00009926, -0.10205711, 0.01380041, -0.08397832, -0.01961903, -0.00324597, -0.00889588, -0.03248661, -0.16410741, 0.09294980, -1.08148003, -0.05121707, -0.10459261, -0.04454120, -0.33254561, -0.10219618, -0.00735243, -0.06493273, -0.01213165, -0.02036882, 0.12969948, -0.02325243, -0.07847732, -0.79226857, -0.05366462, -0.04682320, -0.04268223, -0.31483525, 0.03183328, 0.02725381, 0.12411412, -0.08744299, 0.34960499, -0.12630667, 0.00843419, 0.04037554, 0.03233719, -0.02769759, -0.06490538, 0.09748147, 0.02554246, 0.05858221, 0.06655214, 0.29361933, -0.08530767, -0.04751993, 0.03191912, 0.19177248, 0.04796124, -0.05888129, -0.10705244, -0.10588266, 0.02181575, 0.04884545, -0.21039224, -0.95524234, 0.00589506, -0.34506688, 0.00055911, 0.05626068, -1.03970325, 0.25359306, -0.25416917, -0.04875797, 0.00554018, 0.18981780, -0.46694425, 0.24405856, 0.03125190, 0.03942382, 0.12303397, 0.00971823, 0.38130131, 0.14694509, -0.05878739, 0.08516635, 0.01116156, -0.03390188, -0.00798501, -0.07847005, 0.03683738, -0.06430168, -0.13650317, 0.06739916, 0.02308179, -0.06406438, 0.04903701, 0.01269461, -0.02493276, 0.07203868, -0.17389068, 0.13939549, 0.04128585, -0.05167845, -0.04941930, -0.25410756, -0.03333628, 0.00553585, 0.04544711, 0.06087244, -0.08404928, -0.57545745, 0.01402069, 0.06328870, 0.05630950, -0.50687051, 0.04256500, 0.10946717, 0.00351670, -0.00239080, 0.06338392, 0.04695023, -0.06063542, 0.06481074, 0.02743246, 0.02820009, -0.08633541, -0.36911669, -0.01038911, -0.09188623, 0.03765625, -0.10379992, -0.03265765, 0.06769609, -0.08163987, 0.04185411, -0.03918266, -0.02616796, 0.05181086, 0.00500286, 0.00100353, 0.06407151, -0.03319016, 0.01882369, -0.09558874, -0.05766154, -0.08439062, -0.13826351, -0.09373647, 0.00012248, 0.05223059, 0.04480612, -0.12617251, 0.02406660, 0.11837055, 0.04871756, -0.03101338, -0.00022368, 0.09392691, 0.05148177, -0.05213940, 0.06821374, -0.00856412, -0.03163082, 0.08659051, -0.04598309, -0.03268236, -0.01878754, 0.05795175, -0.10128420, -0.19033284, -0.05630049, -0.04103294, -0.04015930, 0.03789395, -0.04009932, 0.02787410, -0.04586991, -0.10925183, -0.03890130, 0.09238832, -0.50529778, -0.00338201, 0.04753370, -0.08313218, 0.01073124, 0.02520068, -0.04389288, 0.05197737, -0.03912678, 0.08135248, -0.02879038, 0.06875775, -0.11381403, 0.01756118, -0.17390782, 0.05646692, 0.07135784, 0.09624787, 0.12641099, -0.07850986, -0.05443821, -0.10512416, 0.06297781, 0.02141429, 0.08287631, 0.06328112, 0.08130454, 0.07033407, 0.13910361, -0.01257187, 0.01207966, 0.06445506, 0.04618232, -0.06259358, 0.00192076, 0.00529208, 0.01805659, -0.00618569, -0.03132765, -0.00449054, -0.09865526, -0.07723010, 0.14405508, -0.07594136, -0.00053512, -0.04318264, 0.05345209, -0.06812472, -0.39850444, 0.02665707, -0.10948462, 0.11953563, 0.03198743, 0.04498720, 0.04682652, 0.04115243, 0.10578886, 0.13079566, 0.04833937, 0.05597980, 0.00352767, -0.13352545, 0.07233782, -0.02544553, 0.01572451, 0.06514668, 0.04274831, -0.03244257, 0.03038486, -0.02559381, -0.01042628, -0.03087055, -0.04276869, 0.09005328, 0.00380341, -0.02421941, 0.02235593, -0.04200821, 0.04472739, 0.04292798, -0.07733979, -0.04690270, 0.00381927, -0.04765235, 0.05887093, -0.24286331, -0.00303566, -0.07364830, 0.03766220, -0.03339977, -0.14022455, -0.00861099, 0.07762472, -0.01683572, -0.07027118, 0.10818970, 0.05836073, 0.02428415, 0.02019606, 0.01819956, 0.01563237, 0.10617255, -0.08300406, -0.00529653, 0.08613697, 0.00667191, -0.09489847, 0.09502910, 0.09580089, 0.01556366, 0.02803512, 0.00234737, 0.08242968, 0.07076252, 0.08727935, -0.06186084, -0.03688948, 0.00697281, -0.09621017, 0.00615720, 0.07673672, 0.08869532, 0.00615933, -0.61293387, 0.06443668, -0.12670793, -0.02483074, -0.00468068, -0.14165941, -0.13676529, -0.07320807, -0.08095327, -0.09880458, -0.06661586, -0.01430400, -0.25251803, 0.01944374, 0.01070745, -0.01973545, -0.10492540, 0.04917337, 0.04815659, -0.10149911, -0.01173833, -0.01698541, -0.08905418, 0.13146788, -0.11838752, 0.00702687, -0.32108936, 0.00894833, 0.02127329, -0.01971244, -0.03001375, -0.10772131, -0.12023412, 0.06014404, 0.00060850, -0.03359789, 0.02042917, -0.03978746, -0.08768604, 0.08559335, 0.05740158, 0.02308258, 0.08169965, 0.06302439, -0.06684390, -0.11453132, -0.04361049, -0.00611281, -0.00704878, -0.10315010, 0.07467414, -0.03260537, 0.02527544, 0.17586735, 0.07853232, 0.04330217, -0.01314475, 0.16386287, -0.10420205, 0.09990179, -0.03979322, 0.00030810, 0.02184554, -0.05774881, 0.06557720, 0.06309231, 0.19813232, -0.08202903, 0.13162777, 0.03038757, -0.09099717, 0.08661091, 0.07160237, 0.04534999, -0.07833141, -0.20052494, -0.17603666, -0.00729115, 0.05253540, 0.00053189, 0.03057045, 0.00043255, -0.00990307, 0.02472020, 0.05637259, -0.09651923, -0.05611005, 0.06067522, 0.05068170, 0.10615245, -0.17126685, 0.05493035, 0.01126572, 0.01462570, 0.01135413, 0.07651587, -0.03343976, -0.10069177, -0.00702937, 0.00636362, 0.00944032, 0.00144312, 0.04779822, 0.04773748, 0.13970388, 0.01474342, -0.03932962, -0.03763173, 0.05040930, -0.09306010, 0.04701756, -0.05445274, -0.01876118, 0.08270019, 0.06138399, 0.02927607, -0.07246589, -0.00558874, 0.05801827, 0.03532457, -0.07540637, 0.04981127, -0.08691479, 0.03645599, -0.05219096, -0.03179441, 0.01219004, 0.02399344, 0.17654148, 0.04475398, 0.06447676, 0.01196136, -0.06753248, 0.11209290, 0.05911958, 0.01704606, -0.07468108, -0.03895899, -0.01656034, 0.02416602, -0.14025462, 0.02229177, -0.13966279, 0.10016447, 0.06502096, -0.11172218, 0.00954718, -0.00547208, 0.05248641, 0.07387079, -0.07626865, 0.00417662, 0.04198391, 0.05297603, 0.02978435, -0.13006073, 0.00450885, -0.07693932, -0.01486931, -0.07431993, -0.19277968, 0.01627343, -0.05352888, 0.05174337, -0.36585063, 0.15658586, 0.07957520, -0.09610863, 0.00285144, 0.02218364, 0.03246715, -0.04733501, 0.13169000, -0.52814728, -0.02026390, -0.13146827, 0.05523703, -0.61999857, 0.00135792, -0.00509614, -0.13908295, 0.20010836, 0.08532764, -0.07545183, -0.00275002, 0.16553183, 0.10327696, -0.37383157, 0.18574917, -0.05841985, -0.17704950, -0.89355904, 0.10168710, -0.07536677, 0.04765210, -0.00952310, 0.70676291, 0.51121783, 0.04253193, -0.04622446, 0.06099353, -0.11383586, -0.01333165, -0.02898719, 0.25945020, -0.04134760, 0.95709974, -0.04722040, -0.04793672, -0.18829632, 0.02266396, -0.09023111, -0.00935967, 0.04438692, 0.02806449, 0.04937669, -0.14552739, 0.06410624, -0.00495271, -0.03395025, 0.08287453, -0.06243241, 0.05092578, 0.12945276, -0.26986834, -0.01755283, 0.94426978, -0.24422304, -0.04297172, 0.04820194, 0.04105379, -0.02812522, 0.03566823, -0.12646006, -0.02291191, -0.19827946, 0.08036535, -0.14178953, 0.10286427, -0.10824014, -0.11237044, 0.28188509, 0.06356222, 0.13713309, -0.06313787, -0.04007776, -0.32311180, -0.08435184, 0.06678772, -1.89542735, -0.26024988, -0.00042006, 0.00616581, -0.27038807, -0.01351919, 0.15168718, 0.56577194, -0.04732796, 0.04795345, 0.02089664, 0.14652744, 0.00540754, 0.05553123, 0.03087702, -0.26775083, -0.16817072, 0.07476454, 0.06912754, -0.17708567, 0.11548229, 0.02745825, 0.04951814, 0.00187747, 0.02368612, 0.03472164, -0.27524588, -0.00511327, 0.06955063, 0.02402763, 0.13540727, -0.22306825, -0.06244818, 0.51585215, 0.09430730, 0.07334336, 0.04602493, 0.00369412, -0.05563139, 0.01827910, 0.11461134, 0.03157854, -0.02769428, 0.01305294, -0.07207184, -0.05150047, 0.08449700, 0.04405535, 0.07145824, 0.18124570, 0.05550883, -0.03569852, -0.08016533, -0.10561702, -0.00787504, -0.00312188, 0.45218679, -0.01109808, 0.01857661, 0.00702229, -0.21761765, -0.37306824, -0.12514649, 0.01519518, -0.11792369, 0.02980305, 0.30620888, 0.22684152, 0.01341797, 0.27986303, 0.02492537, -0.09513643, 0.09565595, -0.06398643, -0.42809686, -0.00434415, 0.01985007, 0.03073727, -0.12391115, -0.03021368, -0.01087229, 0.04161210, 0.05216844, -0.26261571, -0.09243952, 0.09918779, 0.04199834, -0.12457395, -0.05875203, 0.25608858, -0.03870476, -0.03317528, -0.05944640, -0.06684934, 0.05430025, -0.14277282, 0.09286786, -0.25258917, -0.02314278, 0.04316606, -0.00419657, 0.07286551, -2.08627939, -0.47538605, 0.05149306, -0.34682909, -0.02303352, -0.01742983, -0.09043349, -0.06234329, 0.01198939, -0.04818065, -0.00572353, 0.07197292, -0.12280710, -0.01653598, 0.04392039, -0.00182156, -0.14262204, 0.04479880, 0.27043059, 0.26365471, 0.06889020, 0.11489824, -0.00063790, 0.16446534, -0.02607466, -0.18020152, -2.49689960, -0.04987674, -0.05833758, 1.44435191, -0.25477964, -0.07608440, -0.05910752, -4.52454615, -0.09508476, -0.23195359, 0.06409355, 0.18048108, 0.20548402, 0.10935196, -0.06679153, -1.86070490, -0.03849459, 0.03308837, 0.07424721, 0.04095884, -0.00902343, -0.01724148, -0.17415887, -0.00678446, 0.02103912, -0.16160241, 0.03065667, -0.01442207, 0.03562153, -0.14403446, 0.01318544, 0.09386555, 0.00788313, -0.04196172, -0.05661916, 0.02009476, 0.02997626, -0.55598897, -0.02703352, -0.00358099, -0.03144054, 0.08522274, -0.06665409, 0.13572074, 0.04910164, 0.03486151, 0.05753735, -0.02781604, 0.01605467, 0.09732490, -0.05776424, 0.11719361, 0.00887841, -0.09682754, 0.07270921, 0.03291630, -0.04438400, 0.05846467, 0.03649715, 0.04837894, -0.40049151, -0.14389616, -0.12592997, 0.00503887, -0.13451692, 0.05561613, -0.02208513, -0.05143663, 0.05559073, 0.01277035, 0.11981677, 0.05836965, 0.03815614, 0.06680473, -0.06471521, -0.24211265, 0.06882975, -0.02366431, 0.03566503, 0.05112475, -0.03670462, -0.07605755, 0.08049700, -0.05234702, 0.13407266, -0.10954402, 0.27311662, -0.00811653, -0.16229945, 0.05978478, -0.16953900, 0.03359234, 0.05621032, 0.03437866, 0.00045464, -0.06196395, -0.06092748, -0.67769498, -0.04908354, 0.04566573, -0.02329966, -0.06937292, 0.01238108, -0.64475489, -0.04625224, 0.05216410, -0.00591757, 0.03023656, -0.08339413, -0.03959780, -0.08668802, -0.12868103, 0.01091650, -0.05860729, 0.06247400, 0.06049328, -0.01374809, -0.00294084, 0.05645798, 0.05384794, 0.01049674, 0.01907795, 0.05528123, -0.06122515, -0.06782585, -0.05325487, 0.03991672, -0.05233853, 0.06768237, -0.05850501, -0.00883619, -0.04756106, -0.07077911, 0.05106463, -0.02599056, 0.17015070, -0.05646291, 0.03721078, -0.03175627, 0.00852988, -0.67811859, -0.05402099, -0.07114632, 0.02602107, 0.01801610, 0.08897232, 0.02337840, -0.01243792, -0.05589083, -0.12168224, 0.10274501, 0.04626885, -0.05430239, -0.11161605, 0.07148556, -0.05709404, 0.04166754, 0.00409071, 0.09010468, -0.01451461, 0.03388877, -0.04734827, 0.03610286, -0.05511793, 0.09625275, 0.04175236, -0.02280701, 0.08009294, 0.03564350, -0.01711131, 0.05604541, -0.16959259, -0.04682940, -0.00759456, -0.66791445, -0.23278728, 0.05155303, -0.20095356, 0.14061667, -0.12534986, 0.11784627, 0.03449595, 0.22785689, 0.05757636, -0.29825705, -0.00002893, -0.05465525, -0.03506307, 0.01730599, -0.04153763, 0.01058312, -0.00075775, -0.01604034, 0.01196488, 0.14387085, 0.05831057, -0.06225377, 0.21735977, -0.02754489, 0.09096964, 0.07130050, -0.07143997, -0.07525938, -0.50091422, -0.05334636, 0.02158650, 0.15712175, 0.06431736, -4.43897724, -0.16305029, 0.09239037, 0.13066667, 0.08650177, -0.95745021, -0.24262542, -0.03358196, -0.16372469, 0.05831408, 0.07648803, 0.15707992, 0.46147579, -1.87614632, -0.07549408, 0.00699527, -0.16251695, -0.15926111, -0.20860614, -0.04149098, -0.08175419, -0.05026903, -0.16371670, -0.02265153, -0.11469225, -1.09526610, -0.08986332, -0.04507879, -0.02240325, -0.15159222, 0.08398077, -0.10592969, 0.47009531, 0.03673439, -0.20966335, 0.09488469, 0.02144592, 0.05087906, -0.52270931, 0.04428089, -1.96717489, -0.27788275, -0.05680528, -0.03269623, -0.02065488, 0.67016345, -0.01949828, -1.03440440, 0.01585240, -0.15816349, -0.06305644, -0.29466307, -3.72163415, 0.18949126, 0.57469451, 1.05335045, 0.10871084, 0.08522020, 0.01094023, 0.30015358, -0.03853061, -0.10267007, 0.04825393, 0.04560757, 0.74185449, -0.09314091, 0.08654912, 0.13064538, -0.45966586, 0.01776224, 0.27202824, 0.33887765, -0.08217429, 0.02817477, 0.03657053, 0.08933273, -0.14783569, -0.25642094, -1.19954908, 0.56908202, 0.48839870, -0.01815647, 0.09591265, -0.09888007, -0.22341795, -0.85101110, 0.00680870, 0.02806205, -0.37403584, 0.13962321, -0.00152150, 0.10818798, 0.01332958, -0.06452293, -0.09359027, 0.02898500, 0.02028206, -0.00114295, 0.02125557, -0.01505356, -0.03171224, -0.04742891, 0.04691168, 0.05123631, 0.02952813, -0.09231690, -0.05404796, -0.07783227, 0.13042109, 0.03885710, 0.00592455, -0.03971432, 0.06434212, -0.00623650, 0.03305229, 0.02051896, 0.01462523, 0.04656187, 0.04881861, 0.08497951, 0.00738550, 0.12784001, -0.52872300, 0.01060942, -0.01389521, 0.00350666, 0.02405094, 0.04290525, 0.06669907, -0.00013061, -0.02663278, 0.15093972, 0.12875664, -0.04089418, 0.05925198, 0.09210832, -0.00796047, 0.04625646, -0.01358759, -0.09075963, 0.13045382, -0.02465725, 0.06829815, 0.03447383, -0.02212896, -0.09612904, 0.01116106, 0.08698264, 0.00350656, 0.00592872, -0.00652135, -0.05109807, -0.03696202, 0.02916739, 0.03036059, 0.07017700, -0.11664232, 0.05527890, -0.06366873, -0.00417026, -0.08491716, 0.00139691, -0.06903627, 0.06365977, 0.02656122, 0.01437362, 0.03808486, 0.00749115, -0.06226469, 0.06669834, 0.06102483, -0.03415639, 0.05517597, 0.04639769, 0.02842372, 0.03197848, -0.05374810, -0.05379963, 0.01484749, -0.00998791, -0.03870912, -0.06883412, 0.03232542, 0.15015969, -0.05231251, 0.07259987, 0.00865393, 0.01115997, -0.29715896, 0.03841575, 0.05421138, -0.06244042, -0.08708514, 0.01024095, -0.01057313, 0.03565323, 0.07267868, -0.07998801, 0.05756612, 0.01340118, 0.00152836, 0.02263269, -0.09906051, 0.04900663, 0.08035997, 0.09288830, -0.18504705, 0.02532458, 0.05850441, -0.03918207, 0.01267947, 0.03819929, 0.05191646, 0.03520608, 0.01233162, -0.06626354, 0.01107371, -0.04756951, 0.02140029, -0.16191757, 0.01471270, -0.04865831, -0.04773884, 0.01576593, -0.17016843, 0.06837803, -0.09307870, -0.06000588, 0.06386352, 0.01317444, -0.04871156, 0.03902996, 0.05168155, 0.03225725, 0.06902392, -0.00788558, 0.09741737, -0.04075809, -0.09777644, 0.06244567, -0.05921715, -0.03425728, 0.07151706, -0.00098330, -0.06723077, -0.02556570, -0.15896644, -0.06191456, 0.00671701, -0.31754005, 0.03591725, -0.12451492, 0.03461890, 0.04237266, 0.26464972, -0.00684116, 0.05976042, 0.05397025, 0.07501755, -0.08745921, -0.01295298, -0.11410543, -0.01760454, -0.09815308, -0.07824088, 0.00151417, 0.04962369, 0.08147527, -0.06345481, 0.01523887, -0.01596587, 0.06755240, -0.09692127, 0.07448488, -0.05991312, 0.06965065, -0.05808780, 0.07847488, 0.10088436, 0.28836480, -0.01885014, 0.03131806, -0.00559167, -0.06498509, 0.09889129, 0.02335127, -0.11375565, -0.14475265, 0.01509253, 0.08248571, -0.04313804, -0.05137472, -0.02502761, 0.04814180, 0.01154444, 0.04772547, -0.03753012, -0.05200299, 0.01292969, -0.00017490, 0.01036421, -0.03652803, 0.01708500, 0.06027468, 0.00928468, 0.00154871, -0.01708694, -0.05794925, 0.04339455, 0.04236227, 0.03173659, 0.03665289, -0.08457192, -0.05633336, -0.00423191, 0.05576191, -0.13646549, -0.13633828, -0.08348498, -0.02757905, 0.03048659, 0.05731343, 0.02400571, -0.07622954, 0.00942594, 0.13820434, -0.04001838, -0.03209983, -0.05423063, -0.06632025, -0.03146999, -0.07478725, -0.05418658, -0.23185365, 0.13096853, -0.07458716, -0.01607588, 0.01315715, -0.06228465, -0.00223035, 0.07586494, -0.09869745, 0.08497139, 0.01315457, 0.00110428, 0.02344577, 0.02516972, 0.08113154, 0.09322534, -0.08241314, -0.08984940, -0.17329983, -0.03179324, -0.01535703, 0.03211966, -0.06972325, 0.92503190, -0.06872972, -0.02185793, -0.15836003, -0.09296264, 0.01659832, -0.04392143, -0.09349288, -0.31991121, 0.41158500, -0.10792860, 0.11014850, 0.17205310, 0.02795206, -1.16319978, -0.09209342, 0.01383182, -0.20610452, -1.19838715, 0.26635221, 0.01806208, -0.08477249, 0.61364126, 0.17900673, 0.09525597, -0.01234171, 0.12405644, 0.02406556, 0.16641402, 0.05308921, -0.03466397, 0.10401440, -0.31945199, -0.58288997, -0.15545678, 0.06051863, 0.10956603, 0.03138937, -0.01815008, -0.02290439, 0.53031468, 0.08749748, -0.08379055, -0.01867153, -0.02908993, 0.01804976, -0.00184735, 0.09710772, -0.00515982, 0.13446742, -0.09319539, -0.55395120, 0.04257520, 0.82493442, -0.18098903, -0.00924055, 0.06685015, 0.06677120, 0.04792955, 0.05265673, 0.02280420, 0.06827046, -0.11100284, -0.01557502, 0.05850956, 0.09759989, 0.08886472, 0.01849634, -1.10592687, 0.14424951, 0.07503460, 0.08824047, 0.06214897, 0.09064422, -0.08874968, -0.07428651, -0.66653752, -0.49184141, -0.02680712, 0.14557736, -0.10283558, -0.04717675, -0.02113093, -0.48239952, -0.09131536, -0.05154600, 0.05251900, 0.15180983, -0.33214870, 0.08505400, -0.10159339, -0.16941155, 0.31896865, 0.02418762, -0.03534891, -0.07852846, 0.04876985, 0.13209675, -0.03764668, 0.01329303, -0.05479122, -0.00725599, -0.26582482, 0.09789264, -0.02454106, -0.00796104, 0.11410759, -0.68278438, -0.28846297, 0.28123936, 0.05922539, -0.07909263, 0.00884544, -0.08042116, -0.06418220, -0.02240325, 0.06188315, -0.04264078, -0.09560885, 0.13176717, 0.01707118, 0.08011327, -0.02661063, 0.05182001, 0.08690505, -0.03476213, -0.01849569, -0.00325038, -0.07891341, 0.09716979, -0.04066302, -0.04784567, -0.11427928, -0.06403965, -0.01555218, 0.09063527, 0.47553411, 0.05289013, 0.08538149, -0.03236300, -0.02378334, 0.09213273, -0.03967375, -0.03579401, -0.49775958, 0.07960551, -0.01114130, -0.12705716, -0.00912470, 0.15200612, -0.02244025, -0.00014097, 0.03876049, 0.01916084, -0.05417940, 0.08748166, 0.09214260, 0.07568313, 0.09150624, 0.17910616, -0.01916925, 0.06367443, -0.06767822, -0.03173694, 0.00123294, -0.08237752, -0.84462357, -0.01047014, 0.10745011, -0.07060257, -0.00897920, -0.02642275, 0.93900764, -0.49151090, 0.03421730, -0.08256423, 0.06156093, 0.03800440, -0.00340100, -0.00734731, 0.09077930, -0.03667752, -0.04812171, -0.13012998, -0.04841913, 0.07029776, -0.19739817, 0.00903996, -0.07830923, 0.05419927, -0.00128234, 0.01952231, -0.06323455, 0.07267226, 0.03277744, -0.06903586, -0.06381167, 0.08735890, 0.13003615, 0.08443236, -0.00426358, -0.05783658, -0.02596394, 0.00165393, -0.01387300, -0.02636814, -0.06714621, 0.01157629, 0.03644009, 0.04137224, 0.00634130, -0.07463793, 0.09586138, 0.06546152, -0.06142401, 0.00580133, -0.19002415, 0.15338811, -0.03143844, -0.08950254, 0.03394855, -0.04690830, -0.19077376, 0.13243568, 0.04639900, 0.34685305, -0.08561882, 0.00411704, 0.03633511, -0.29175615, -0.04680488, 0.19661790, 0.06891354, 0.43805236, -0.02547123, 0.01906903, 0.08010094, 0.00163771, -0.28078207, -0.01722836, 0.05488960, 0.08966678, -6.20661831, -0.14406520, 0.02709908, -0.03020548, 0.06057303, 0.03670044, 0.03531775, -0.01033076, 0.03798836, 0.07334179, -0.15444082, -0.00668215, 0.04614320, -0.10646243, -0.01944524, -0.04037266, 0.08218754, 0.06635867, 0.01209394, -0.01688309, 0.04733682, 0.02248072, -0.07189430, -0.08343985, -3.88893294, 0.01199540, -0.04776715, 0.01222514, -0.08511796, 0.06046870, -0.79060262, -0.04804549, -0.03455130, -0.13387896, -0.03368736, -0.36548433, 0.00912153, 0.00768203, 0.07868350, -0.04107799, 0.05917899, -0.02783266, -0.07558936, -0.04634854, -0.12559590, -0.05991631, 0.00688071, 0.03416263, -0.04752645, -0.10232640, -0.03426906, 0.01651605, -1.48706675, 0.08112719, 0.09545972, 0.04950393, -0.02929869, -0.33233628, 0.30156967, -0.00008518, 0.10747603, -0.04245681, -0.03778126, 0.05001419, 0.08627450, -0.00444806, 0.05798176, 0.01705807, 0.08982822, -0.40033454, -0.00075767, -0.00382946, -0.10533942, -0.01078053, 0.06231490, -0.04688623, -0.02090245, 0.05178190, -0.00241483, 0.12029269, -0.01478388, 0.04477829, -0.17935118, 0.06585805, -0.00689362, 0.03148898, -0.07579800, -0.03578997, 0.05270066, 0.08474194, -0.11373513, 0.01487286, 0.06522436, -0.02314929, 0.03505785, 0.02981526, -0.01236586, -0.00627706, 0.03677038, 0.23721069, 0.13361025, -0.04489594, 0.01719378, 0.06260688, -0.17881855, 0.04696984, 0.05324876, 0.05256909, -0.04713461, -1.29683328, 0.00625420, -0.31061360, -0.00238512, 0.01033529, -0.08816154, 0.09419112, 0.00439460, -0.26193586, -0.00756516, -0.12045812, 0.14157800, -0.01873090, 0.02070515, 0.02063663, -0.04212696, -0.10185971, -0.00387672, -0.04554438, -0.09515533, -0.08866382, -0.01302372, 0.09679245, -0.08529226, 0.01978535, -0.02470449, -0.06415860, 0.02812418, -0.07300495, -0.73613548, -0.00677098, 0.08302508, 0.09603558, 0.04647910, 0.02320090, 0.03716896, 0.06149871, 0.06061798, 0.02418074, -0.01785439, -0.22542085, 1.00406039, -0.03375889, -0.12734871, 0.20992479, 0.13235497, 0.19077450, -0.33344355, -0.00086380, 0.78445506, 0.00878109, -0.54038060, 0.39215684, 0.01875293, 1.08543122, -0.05742154, 0.00827947, 0.12725422, 0.02786305, 0.10635824, 0.26828042, 0.00333470, 0.21821608, 0.02596658, 0.10413133, 0.00826036, -0.05930195, -0.42261821, -0.02496165, -0.07463276, -0.07860811, -0.09539121, 0.02810118, 0.11856017, -0.04991531, -0.07933639, -0.14658532, -0.08709344, -0.04640820, -0.20872006, -0.48233962, -0.16131456, 0.07844834, -0.15707636, -0.31351471, -0.33639991, -0.06951626, -0.16326262, 0.84170705, -0.10068713, -0.02953705, -0.08724544, -0.18900166, 0.05056059, 0.03720462, 0.03753446, -0.05833682, -0.00402728, 0.00673174, 0.01573792, -0.11304589, -0.12927012, -0.06092306, 0.04081599, -0.04556274, -0.12633619, -0.01015255, 0.02743061, 0.01125005, 0.08079918, -0.14354427, 0.19196601, -0.15955023, 0.05791413, -0.35804564, -0.25294691, -0.12694879, -0.07069177, -0.60332638, 0.03628551, -0.09108247, -0.04082514, -2.25994468, -0.05254205, 0.13162227, -0.01888629, -0.03859060, -2.40860367, -0.00236892, -0.14183205, -0.02712166, -0.10526173, -0.02080320, 0.02436317, -0.63664341, -0.68313271, 0.02728523, -0.31976610, -0.34772229, -0.07776041, -0.19680473, 0.06820595, 0.00509079, 0.03207405, -0.15847069, 0.62154770, 0.03198958, -0.08394361, 0.07084899, -0.03681676, 0.20458931, 0.02110434, 0.00226964, -0.02690020, -0.05129822, 0.05628963, 0.02870755, 0.00863616, -0.03426094, -0.05624084, -0.08665355, 0.07367392, -0.06215416, 0.10695113, -0.07445196, 0.05508589, -0.02299013, 0.08433558, 0.08591257, 0.14316389, -0.12849435, -0.02296189, 0.08445384, 0.08452073, 0.05712354, -0.01256169, -0.04136661, 0.09103014, 0.06184842, 0.03350962, 0.10711493, 0.04273219, 0.05391150, 0.09459791, 0.01983390, 0.00803221, 0.04676779, -0.06898815, 0.03824350, 0.07926293, 0.06200422, -0.03030448, -0.02516704, -0.05646564, -0.03879465, -0.00102196, -0.06869259, 0.04055305, 0.01397851, -0.06108470, 0.00274059, 0.02082976, 0.04698712, 0.08386787, -0.01288812, -0.06721459, 0.07998899, 0.04880705, 0.04846687, 0.00614469, 0.00356211, -0.05753998, 0.19138086, 0.01138825, -0.00906790, -0.07042671, -0.01077471, -0.01105166, 0.08508701, 0.06030890, -0.01490422, -0.03349103, 0.02021857, -0.00097988, -0.06057369, 0.01513047, 0.00540618, -0.04890419, -0.00558486, 0.01777048, -0.00961399, -0.02402194, -0.05770685, -0.02434618, -0.04340506, -0.05827911, 0.03899387, -0.05036506, -0.02520139, 0.02390203, 0.07156271, 0.03928976, 0.09530135, 0.08559269, 0.05579028, 0.03353131, 0.04554836, -0.02232230, -0.01967766, -0.03382741, -0.00894944, 0.02798636, -0.05025679, -0.03817003, 0.10562718, -0.06941888, 0.02480719, -0.08518326, 0.04886297, 0.03768727, -0.02397953, 0.03550218, -0.09547722, -0.05417028, 0.09287795, 0.05953937, -0.01202393, -0.03798312, 0.02632720, -0.05815145, 0.05499652, 0.07210912, 0.02220022, 0.07123367, 0.00708493, -0.05263233, -0.04380617, 0.07374693, 0.08042734, -0.04359720, 0.08374376, -0.02086328, 0.04835161, 0.06602202, 0.04922946, -0.07501293, 0.05258967, -0.03652787, 0.04350575, 0.05598761, 0.11684211, -0.08285492, 0.02751395, 0.01784045, -0.05368872, -0.01799496, -0.00009035, -0.11142893, -0.20693858, -0.02794256, 0.05177384, -0.09300147, -0.06495236, -0.02200216, 0.10105449, -0.07766016, -0.10175212, -0.06546485, -0.06573521, -0.06912671, 0.12207069, 0.09752007, 0.03364367, 0.00698948, 0.05494718, 0.01920029, -0.04202357, -0.07462134, -0.03837533, -0.00500198, -0.01156447, 0.06747259, 0.08558693, -0.10188212, 0.02432695, 0.05730977, 0.10980419, 0.02882629, 0.04346775, -0.07613425, 0.04227235, 0.10365747, -0.16025150, 0.06747528, -0.35515624, -0.08212423, 0.07185376, 0.07052234, 0.00581629, 0.00717009, -0.08024390, 0.08331999, -0.00474333, 0.02545385, -0.11389633, -0.06034632, 0.06407662, 0.08389198, 0.04811944, 0.03452073, -0.09264045, -0.05904686, -0.00327922, 0.03025460, -0.03716470, 0.05068939, 0.10424409, 0.03415709, -0.08031762, 0.00835950, 0.00756185, -0.01864767, -0.03612018, 0.03633858, 0.05815972, 0.02774837, 0.02525959, -0.02611810, -0.07961315, -0.06204085, -0.02692274, -0.03339451, -0.01472521, 0.05889972, -0.18490231, 0.05763130, -0.03880989, 0.12088933, 0.08589545, 0.03792822, -0.04044552, -0.03129482, -0.06331583, -0.03414190, -0.10904691, -0.05753708, -0.16913803, -0.08405387, 0.05811238, -0.03409199, -0.02526450, -0.09187179, -0.14312765, 0.07582989, 0.09822282, 0.03507796, 0.06491762, -0.01558275, -0.03899167, -0.01608332, 0.03583027, 0.08063315, 0.06418964, 0.02333239, -0.02362460, -0.07536712, 0.02936584, -0.05369338, 0.02529981, -0.06404033, 0.01296515, 0.00788574, -0.03176694, -0.04236136, -0.04135775, 0.00614175, 0.13964580, -0.02322657, 0.03772275, 0.08810241, -0.03147319, 0.02871128, 0.00808570, -0.06397954, 0.01079154, -0.13094491, -0.08446041, 0.01800042, -0.04472527, -0.01126072, 0.03729041, -0.06048767, 0.01413561, -0.08008087, 0.02980966, 0.11003199, -0.01426292, 0.07011273, -0.01610730, -0.22088271, 0.02679335, -0.04532770, 0.05830504, -0.01459465, -0.08490991, 0.03448749, 0.01105138, 0.05672813, 0.02505577, -0.03484326, 0.01207375, -0.16026340, 0.01195708, -0.10649248, -0.03285968, -0.03403921, 0.01582242, 0.05664172, -0.09616242, 0.05221527, 0.05185931, -0.02176742, -0.11890247, 0.02101999, 0.04307733, 0.05581221, 0.02388480, -0.03920308, -0.14285177, -0.06183147, -0.11981870, -0.06944925, 0.06077936, 0.03956838, 0.01896369, 0.06656873, -0.09681725, -0.10100972, 0.05668934, -0.00615825, 0.00960916, -0.01424768, 0.00210896, -0.06807042, 0.03817253, -0.04121344, -0.03264734, 0.01567143, -0.01277648, -0.03276373, -0.02178250, 0.06754205, -0.01563225, 0.05114242, 0.00112167, -0.08397679, 0.06219390, 0.06478961, 0.00929257, 0.10429225, 0.11964049, 0.07543561, 0.03598428, -0.05105424, -0.05159638, -1.02845347, 0.07492627, 0.02268570, 0.08969395, 0.07994874, -0.05417796, 0.00472413, 0.03443930, -0.01398242, 0.00373227, 0.06181242, 0.08890209, -0.07284851, 0.02424635, -0.12627447, -0.00610564, 0.05449645, 0.02670624, 0.02312398, -0.01120974, -0.05072343, -0.14306389, 0.04977494, 0.06338669, -0.00693206, 0.10684478, -0.02214789, 0.06236263, 0.05587032, -0.06714965, -0.02245068, 0.80105853, 0.06737420, -0.09380960, -0.02163859, -0.00039315, -0.10704782, 0.70369244, -0.02525776, 0.37085074, 0.04548535, -0.01816266, 0.07559704, -0.00153454, -0.40159142, -0.10941133, -0.00160604, -0.85374737, 0.62207484, 0.20513049, -0.48859754, -0.03076077, 0.08849566, 0.10683373, -5.41170311, -0.17164156, -0.23890319, -3.41363072, -2.71676254, 0.07252765, 0.08514233, -0.06541605, -0.03392754, 0.34218943, -0.00851194, -0.20679009, 0.10549865, -0.07522047, -0.20802015, -0.12089879, 0.14107780, 0.85120457, 0.25762692, 0.35482946, 0.00998277, 0.44858056, 0.05880531, -0.36014113, 0.46038356, -0.08568709, 0.27815700, -0.08005156, -0.32273054, 0.34684893, -1.26900911, -0.19447188, -0.14052063, 0.08378559, -0.02741222, 0.02413251, -0.02945242, -4.80733013, -0.16425693, 0.67897600, 0.01816672, -0.05460561, -2.96179891, -0.07399074, -0.09482074, -0.02496405, -0.01399304, 0.00600147, 0.63121700, 0.03890534, -0.07660381, -0.05504090, 0.14327133, -0.06987888, 0.08353174, -0.57590467, -0.05422758, 0.01588979, -0.05716579, 0.16917351, -0.00238874, 0.05593245, -0.11526480, 0.04026525, -0.34497839, -0.01604899, -0.39996856, -0.01834667, -0.13300431, 0.07560433, 0.03680398, -1.67622912, -0.00155144, -0.01406544, 0.01212541, 0.10691871, -0.13472587, 0.03340007, 0.26455131, -0.32264367, 0.00894335, -0.20584860, -0.05379173, -0.06116810, -0.05092195, -0.11498182, -0.13455121, -0.88087523, -0.05537999, 0.02032202, 0.52813357, -0.27671260, -0.03376028, -0.79609925, -0.04935974, -0.00526575, 0.01492896, 0.00259769, 0.17217457, -0.22844854, -0.00316985, 0.04698716, -0.00477270, 0.01264315, -0.00873829, -0.06369743, 0.04026147, 0.05972834, 0.03932118, 0.03834805, 0.24522975, -0.01972976, -0.05165591, 0.05898301, 0.00228695, 0.05527505, 0.00837507, -0.05308743, -0.07591300, -0.06041106, -0.02005451, 0.07126040, 1.06073999, 0.06024136, 0.49506384, 0.02141249, 0.08271521, 0.04900256, 0.00694088, 0.08147082, -0.41629443, -0.00024917, -0.05470902, 0.08885307, 0.06915011, 0.52268708, 0.09371559, 0.12192792, -0.08181822, 0.07574415, 0.00795085, 0.09130020, 0.04062705, -0.00227500, -0.01980736, 0.14656062, -0.05158165, 0.10206871, 0.03197045, 0.05498527, -0.05777524, 0.02545281, -0.54123396, -0.06922445, -0.00914109, -0.04656645, -0.06883945, -0.16169488, -0.40568128, 1.27576828, 0.01119718, -0.12447556, 0.07698634, 0.07167456, -0.02183295, 0.07317866, 0.00928925, 0.09525069, 0.07769410, 0.15655933, 0.06291114, -0.01010227, -0.33458439, 0.01883697, -0.00858714, -0.02397606, -0.01608751, -0.01440147, -0.14848323, -0.00440635, 0.00890989, -0.09505606, 0.09637533, 0.08330922, 0.01688813, -0.02680265, 0.04145285, -0.04901838, -0.10506693, -0.06740804, 0.06910939, -0.05052918, -0.04013464, 0.09989838, 0.05172586, -0.06113749, -0.01270171, 0.01819976, -0.05182416, 0.10417126, -0.08661803, 0.01610574, -0.21972834, -1.24744058, 0.11745331, -0.04800020, 0.05067237, -0.05730880, -0.60582966, 0.31128252, 0.08239085, 0.32051724, 0.10101880, -0.12386958, 0.27639082, -0.03278862, -0.02319520, -0.17363821, -0.00622630, -0.44330683, -0.01675501, 0.03991189, -0.03417152, -0.01122450, -0.38698965, 0.10309271, -0.04467712, -0.06472008, 1.08660710, 0.15118368, 0.05255572, 0.05487774, 0.04746444, -0.04013139, -0.02983272, -0.04768955, -0.07617104, -0.07920948, -0.01106002, 0.02111684, -0.09635394, -0.13860817, 0.09113791, -0.08737192, 0.00505140, -0.06703942, 0.04524609, -0.01756790, 0.12946312, 0.01376760, 0.19432847, 0.20544864, 0.20029227, -0.03569654, -0.00577653, -0.00079708, 0.01420041, 0.06105641, -0.03930534, 0.09396916, 0.01755875, -0.10633475, 0.01606874, -0.10716689, 0.02291418, -0.05029839, 0.04638149, 0.01603915, 0.09972935, 0.03397164, 0.03086555, -0.03344662, -0.11614785, -0.03052981, 0.02186172, 0.01004009, 0.01147228, 0.04870829, -0.01593089, -0.00892369, -0.11058528, 0.02587217, 0.06926113, 0.09706914, -0.05993381, 0.16311295, 0.11346176, 0.16621131, -0.09938126, -0.08319513, -0.00305992, 0.04343753, -0.05273307, -0.10420577, -0.10799975, -0.02883835, 0.08013965, 0.03443145, -0.01671742, 0.03712283, -0.21850926, 0.07382516, -0.01278347, 0.01075938, 0.07244755, -0.05688580, 0.01070577, 0.07470439, 0.03146900, -0.07508465, -0.07655619, 0.05124499, -0.06478000, -0.03164955, -0.09215583, -0.06476519, 0.04253310, -0.07702026, -0.01306752, -0.04101836, -0.07508072, 0.04395306, -0.04826660, 0.04566552, -0.05381904, 0.06267131, -0.02372446, 0.02149270, -0.06929281, 0.03868017, 0.10264295, -0.01396676, 0.03284110, -0.06934176, 0.00093776, -0.01557272, -0.10206218, 0.05464134, 0.06168051, 0.44253165, 0.01393894, -0.15494098, 0.13270947, 0.02153775, 0.01871848, 0.02469365, 0.08662641, 0.22375734, 0.13244820, 0.04411747, 0.00940914, 0.10264494, -0.02353247, -0.04686370, -0.00603602, -0.07529634, -0.12556641, 0.11533803, 0.04439401, 0.08647895, 0.04472870, 0.01405169, 0.02066311, 0.06394754, 0.02485304, 0.01792648, -0.04249133, -0.05644920, -0.05045244, 0.13762745, -0.11500447, -0.09813739, 0.01677675, -0.05468937, 0.01818197, -0.00728018, -0.03750005, 0.04168656, 0.64377403, 0.04288845, -0.03882181, -0.03739325, -0.24914385, 0.05350270, -0.03319132, -0.00711273, -0.00023954, 0.07991808, 0.01224644, -0.05440154, -0.05012435, -0.21444723, -0.00633462, 0.12053330, 0.04151613, 0.05766404, -0.03593236, 0.05012583, -0.09057651, 0.01926408, -0.09618502, -0.43061808, -0.04131753, -0.02531158, 0.06408031, -0.00133023, -0.05323832, -0.06513930, -0.00886251, 0.06747311, 0.12187380, 0.04930283, 0.02636062, 0.02490248, -0.09633961, 0.16581538, 0.01735581, -0.00625875, -0.03602251, -0.04874041, -0.11060709, 0.28285876, 0.00229684, 0.05261707, -0.15504089, -0.09602040, 0.00279946, -0.04578794, 0.08665530, 0.01217316, -0.03016564, -0.08989724, 0.04026353, -0.00709064, -0.01462078, -0.00104030, -0.01331063, 0.02091727, -0.01288924, -0.02764475, 0.12451076, -0.04333280, 0.00099131, 0.05458767, -0.02602679, 0.02206844, -0.14869446, -0.01260760, 0.02350431, 0.03894776, -0.04176955, -0.00298912, -0.00252156, 0.12614848, -0.03539971, 0.01487941, 0.03805282, 0.08806692, -0.13815987, 0.17665254, -0.06787159, 0.01096849, 0.02880439, -0.03805175, 0.04539640, 0.09785632, 0.08321612, -0.05604827, 0.12465777, 0.07667545, 0.02825759, -0.08567648, -0.05289880, -0.04008053, -0.00256062, -0.06070508, -0.00853722, 0.05560681, 0.02009489, 0.04669622, 0.04185104, 0.03451236, 0.01313761, -0.03572557, 0.11637866, -0.08820620, 0.02852721, -0.03162063, -0.06916340, 0.01541678, 0.01576557, -0.08718014, 0.01754836, -0.07910398, -0.07177334, -0.04424880, 0.01086439, 0.00029379, 0.01846757, -0.08524338, 0.06141218, 0.06782778, -0.07861815, 0.05627866, -0.05651861, 0.01432443, -0.07465685, -0.04527450, 0.06993507, 0.04347351, -0.06950524, 0.01443611, -0.07755660, -0.07901847, -0.03840386, -0.08922724, 0.07376825, -0.02270560, -0.08636339, 0.07074481, 0.04007785, 0.05624637, -0.04916447, 0.05854002, -0.04708270, 0.07436110, -0.02356582, -0.01366609, 0.02131933, -0.00980734, 0.07179568, -0.04431803, -0.01934141, -0.07709569, 0.04365715, 0.07904709, -0.03677041, 0.01643669, 0.03786243, -0.04776187, -0.07923554, 0.07519859, 0.04139231, -0.08378256, 0.06699325, 0.02926773, -0.06753158, 0.00877576, 0.00558795, 0.00485959, -0.08848912, -0.00226171, 0.07513151, -0.07961109, 0.04302112, -0.00692871, 0.02672038, 0.00518639, -0.02105757, 0.01549448, -0.06660151, 0.01170245, 0.06501338, -0.05419205, -0.01414688, -0.07838209, -0.02353321, 0.04767429, 0.00573652, 0.05011824, -0.02119361, -0.08450081, 0.05609443, 0.02721717, -0.07447089, -0.02842207, 0.03308447, -0.07235009, 0.07138719, -0.02752847, 0.06306732, -0.00530751, -0.08702827, 0.04492143, -0.07609449, 0.02692082, -0.02045071, 0.07690729, 0.00392629, 0.02853488, -0.04938221, 0.01657097, -0.07456949, 0.02118080, -0.07252088, -0.03901923, 0.07751898, 0.02969308, 0.05328259, 0.05593942, 0.06651319, -0.09152492, -0.00151957, -0.01091890, -0.06034221, 0.04198044, 0.05620593, -0.04076425, 0.03959285, -0.06054832, 0.02379521, -0.06389084, -0.07968845, -0.07771625, -0.04554294, 0.07286722, 0.36494079, 0.02547691, -0.04942863, -0.02586391, 0.13304524, 0.06919461, -0.01602998, 0.05915000, 0.00187320, -0.54785275, -2.03119421, 0.03499556, -0.04110345, 0.03653506, -0.06822753, 0.06640477, -0.04510816, -0.46385738, -0.05535497, -0.05054314, 0.10489271, -0.04310684, 1.20930994, -0.21721441, -0.16531408, -0.09150320, -0.02603827, 0.02577646, -1.02247858, -0.12220459, 0.07255559, 0.16820902, 0.12513010, 0.39341763, 0.73055840, -0.08831973, 0.05421311, -0.03858518, -0.10131533, -0.12002036, -0.07789014, 0.10261483, 0.05165014, -0.02270931, -0.23225603, -0.00683699, 0.17732474, 0.05731204, -0.01244075, -0.21468042, 0.16569073, -0.10548526, -0.01718565, 0.02905756, 0.00916266, 0.37109962, -0.17600186, -0.01042647, -0.05200509, -0.07387128, 0.07084533, -0.09993268, -0.02584270, 0.20684052, 0.90112221, 0.04485750, -0.07095825, 0.06246749, 0.08954608, 0.05208103, -0.55765384, -0.03906594, 0.07072902, -0.01196635, 0.08253413, 0.09377576, -0.08123700, 0.05547438, -0.34526816, 0.06683347, 0.00787540, 0.04102100, -0.05216958, -0.00209648, 0.09145135, -0.41242796, -1.63571870, -0.52352166, 0.00036573, 0.01016793, 0.07788625, 0.03342887, -0.04884326, 1.37893498, -0.16244608, 0.04614844, 0.07410344, -0.23381113, -0.44336963, -0.04775738, 0.09525936, -0.24984406, 0.07552262, -0.05480218, -0.07809980, -0.02133369, -0.40500107, 0.29812008, 0.02796260, 0.28990316, -0.00926057, -0.08810208, 0.51770663, -0.01879370, -0.00369597, -0.05966169, 0.04207943, -0.86092037, -0.46251163, 0.69716442, -0.04034675, -0.02379400, -0.04133211, -0.11074299, 0.05057874, -0.02381985, -0.11562956, -0.11335503, -0.03357010, 0.04239850, -0.01787736, -0.06722332, -0.04323879, 0.03259876, -0.09186930, -0.02473146, -0.04688514, 0.07116840, 0.05302151, -0.01344239, -0.05503608, 0.00201084, -0.08872396, -0.07078375, -0.01714562, -0.05076258, -0.00253112, -0.03187450, -0.00779396, -0.05349685, -0.00175219, -0.05457950, -0.00634807, -0.01847254, 0.04370694, -0.08787823, 0.01162712, -0.02715313, -0.08064783, 0.02981916, -0.04852590, 0.03580328, 0.03381823, 0.06206945, 0.07164717, -0.02502031, 0.07294079, -0.04021368, -0.04157276, -0.05199436, 0.03946100, -0.04683455, 0.00861987, 0.02394872, 0.00904932, 0.07225883, -0.05192446, 0.05397903, 0.01705202, -0.03256228, -0.00564422, -0.04012685, 0.01169117, -0.02516958, -0.08088494, -0.05459111, -0.01383038, -0.05649953, 0.08620865, -0.01319524, 0.00445744, -0.02047973, -0.08977770, -0.09062920, 0.07769363, 0.02143360, -0.01795282, -0.07233707, 0.03921344, -0.01230524, 0.07518271, 0.05237347, -0.06734376, 0.03091550, 0.02894920, -0.03398854, 0.01086863, 0.00324690, -0.04493379, -0.07837048, -0.06932871, -0.06187060, -0.06879073, 0.07184001, -0.06034024, -0.08440097, -0.04626085, 0.08457518, -0.06883346, -0.05352432, -0.04582841, -0.08813544, -0.07426668, -0.00600083, 0.04112833, -0.02045953, -0.03130734, -0.01981747, -0.06567868, -0.09459186, 0.06582639, -0.03568604, 0.07248805, 0.02934700, 0.07600520, -0.01221839, -0.07904270, 0.00348580, -0.01393735, -0.03463047, -0.05890632, 0.05703583, 0.05646989, -0.02502766, 0.03399441, -0.04598333, -0.09286418, -0.06961425, -0.05328957, 0.07691801, 0.00954050, 0.00385132, -0.00917086, -0.05134075, 0.05802433, 0.06338403, -0.07677718, 0.43453103, 0.24544632, 0.00837490, -0.02517476, 0.10275957, 0.03396334, 0.03698584, 0.06971973, 0.10507436, 0.13515027, 0.05349117, 0.07145348, 0.00883154, -0.36824343, -0.00406409, 0.05913777, -0.08143265, -0.00401230, -0.22856234, -0.13313411, -0.00938789, -0.16335286, 0.05653102, 0.27562895, -0.13131957, 0.07338510, 0.05055847, 1.47455192, -0.03669806, -0.00127178, 0.04725669, -0.15769587, -1.22435915, 0.29523927, 0.04236463, -0.02099948, 0.14605206, -0.17481972, 0.01925769, -0.00620559, 0.00756219, 0.06759739, -0.30818757, 0.07826599, -0.10637301, 0.00678288, 0.00879166, 0.06772421, 0.00025310, -0.74159604, -0.02604668, 0.04524186, -0.07110821, 0.14791560, -0.26892805, 0.04660874, 0.02961987, -0.10368577, -0.11122981, -0.17553940, -0.30583274, 0.06597469, -0.08551816, -0.23394628, 0.01643603, -0.03673279, 0.06627020, -0.09176434, -0.03684077, -0.05666035, 0.11195731, -0.05233981, -0.02231203, -0.08953975, -0.02938944, 0.17500709, -0.05727779, -0.20461690, 0.14445807, 0.25765011, 0.00276797, -0.00176385, -0.22272356, 0.01867884, -0.03726207, -0.48653543, 0.10352435, 0.03920324, 0.01564477, 0.01296723, -0.04556662, -0.60446060, -0.67109507, -0.00013697, 0.13220744, -0.04634938, 0.10900265, 0.30361870, -0.09531681, 0.08841050, -0.05375099, -0.09584469, -0.02014536, 0.09403861, -0.16273497, -0.02559984, -0.00372597, -0.24209106, 0.00099344, -0.09163110, 0.08713302, -0.14131291, 0.12170457, -0.01047314, 0.04682254, -0.03613796, 0.03188410, 0.04831549, -0.39221776, -0.07288846, 0.06307599, -0.01497394, 0.26384342, -0.12394319, -0.02296243, -0.00833947, 0.03369198, 0.04463865, 0.00232372, 0.02218481, -0.07616269, -0.04339737, -0.01747345, 0.07019508, -0.04531175, -0.00097919, -0.05535046, -0.01063639, 0.02763626, -0.08132230, 0.07851416, -0.05627106, -0.08133753, -0.02951612, -0.05284155, -0.03365142, -0.00763342, 0.08585356, -0.01691622, 0.06252907, -0.00420757, -0.05971543, 0.01291087, 0.01146231, 0.06307571, -0.01736786, -0.07937749, 0.05705241, -0.06610379, -0.05951342, -0.03054119, -0.02732483, -0.04979344, -0.07099886, -0.05004614, -0.02715489, -0.08229344, 0.04530778, 0.01109838, -0.07788271, -0.06439523, 0.06750721, 0.01029886, -0.06252345, 0.00363898, -0.04193588, 0.01656912, -0.02908879, 0.07613163, 0.05284040, -0.08715664, 0.00690561, 0.07697128, 0.01108038, 0.01683411, -0.08940434, 0.00601762, -0.05719546, -0.08161666, 0.07433870, -0.07517424, 0.05306062, 0.01452885, -0.00149336, 0.03039371, -0.00504872, -0.01307208, 0.02898180, -0.00719217, 0.02270831, -0.02447150, 0.02556987, -0.01246616, -0.04251990, 0.00514136, -0.08325618, 0.07821770, 0.00504249, 0.00387146, 0.06037407, -0.08675657, -0.03041711, -0.02959058, -0.08028731, -0.02233496, -0.08444539, 0.02547444, 0.03626075, -0.00212648, 0.02416596, -0.01714883, -0.08131988, 0.01050849, -0.07899196, -0.08644759, 0.04225811, 0.02176922, 0.03008002, -0.02503477, -0.00183125, -0.02074979, -0.06501994, -0.06410473, 0.02952052, 0.06249993, 0.02289722, 0.07025857, 0.03494933, 0.00407389, -0.06708174, -0.01074741, -0.00464812, -0.04232257, 0.00871441, -0.05496218, 0.01158838, 0.03655110, -0.04790546, 0.01450785, 0.01834168, -0.02240270, -0.09310780, -0.08193035, -0.06526162, -0.08092596, 0.20516476, 0.02822015, -0.00263288, 0.06545804, -0.16014434, -0.07914475, 0.11315388, 0.00205535, 0.01691741, -0.00702143, -0.06264200, 0.05724136, -0.00560443, -0.07078547, 0.09010651, 0.04235197, 0.07321136, -0.16289219, 0.14222613, -0.00300197, 0.01426614, -0.00738371, 0.16167066, 0.04707228, 0.18331480, 0.04614125, 0.15576576, -0.06514654, -0.11107485, 0.06806859, -0.03256957, 0.06698720, -0.47118509, 0.03420253, -0.38960022, 0.04125883, -0.09187452, 0.07915904, 0.04878302, -0.07494872, -0.04435386, -0.05126745, -0.02243401, 0.02624876, 0.09224594, 0.07555786, -0.00897404, -0.03050629, 0.06280925, -0.04226024, -0.13720867, -0.02873868, -0.02951453, 0.01417396, -0.06770984, 0.20938009, -0.09264793, 0.07127449, -0.02962975, -0.01103980, 0.02078099, -0.01438337, 0.00873041, 0.10706215, -0.10643788, 0.03757394, -0.05852931, 0.08600336, 0.06448303, -0.09529023, 0.00912610, 0.04553915, -0.11282858, 0.06319680, -0.00408786, -0.01668978, 0.12392796, 0.03678520, 0.24998538, -0.08518977, -0.03876824, 0.04530293, 0.04446110, 0.01392767, -0.03930525, 0.05685131, 0.17637905, -0.26607886, 0.06319833, -0.12325738, -0.05332180, -0.02566521, 0.10658553, 0.33089742, -0.04138748, -0.06452684, 0.01186756, -0.07002063, 0.31633574, 0.06887283, -0.03783926, -0.07035819, -0.06891302, 0.06721928, 0.13186307, 0.01217574, -0.01050150, 0.29483998, -0.06604666, -0.00749317, 0.06458794, 0.10440622, 0.21928434, 0.02744980, 0.03605856, -0.01879662, 0.09905656, 0.01571712, -0.17270300, -0.03794267, 0.01779847, 0.02574644, 0.01682840, -0.01752103, 0.02561036, -0.05192344, -0.08895185, -0.11043305, 0.09111255, -0.15034163, -0.05259430, 0.03487338, -0.02426338, -0.14019127, -0.03989255, 0.00124034, 0.02012239, -0.05270850, -2.44110298, -0.05967268, 0.09324235, -0.01747707, -0.04465600, 0.02219805, -0.05989207, -0.09208640, -0.01008786, 0.00958618, -0.05473190, 0.06029660, 0.02653190, 0.03390931, -0.14975408, -0.14071229, 0.03349221, -0.34626684, -0.44855618, 0.01270252, 0.03490633, -0.08485243, 0.08297475, -1.34343815, -0.44796672, -0.02221161, 0.15882695, 0.00265603, -0.01743042, -0.01450941, -0.03811606, 0.11673944, 0.11318740, -0.64804316, -1.95521700, -0.08113189, 0.11692172, -0.04694218, 0.01921154, 0.06323805, 0.20420004, -0.24349137, 0.08054306, 0.08937795, -0.10027529, 0.10318334, -0.20615453, 0.02972005, 0.13136733, 0.04529532, 0.02707250, -0.05368511, 0.07322577, -1.61373961, 0.10014768, -0.07012196, -0.08970578, 0.05666101, 0.01485970, -0.05879121, -0.01463015, 0.02911659, -0.09410930, -0.06420815, 0.04095188, 0.00486970, -0.18074830, 0.03818392, -3.47569156, -0.14111409, 0.02721660, 0.02721124, 0.00447997, 0.99858654, 0.06394011, -3.25740695, -0.05577229, 0.06254391, -0.00330734, -0.28742111, -2.58602500, 0.06274900, 0.37391144, 0.47697696, -0.09538276, -0.06676225, 0.00289112, -0.01972254, 0.09719173, -0.13546735, 0.06174425, -0.25952831, 0.99335545, -0.06181151, -0.00056999, -0.04670843, -0.10987353, -0.00138713, -0.09463358, 0.06739806, -0.07186482, 0.09325995, 0.76103449, 0.01377690, 0.04541643, -0.20855851, -0.03922558, 0.00301611, 0.19661020, 1.76477182, 0.00650398, 0.05996957, -0.10333192, -0.70263922, 0.10846563, 0.10048651, -0.19718955, -0.00163898, -0.11306334, 0.06075536, 0.00254490, 0.03325110, -0.01612241, 0.13753298, -0.05718132, -0.05805428, 0.00281622, -0.58812517, 0.01498372, -0.03507547, -0.11315273, 0.04239099, 0.08397893, 0.06731658, 0.09609158, 0.12397547, 0.00901097, -0.05215406, 0.08120010, -0.04696742, 0.33079001, -0.00596534, 0.08660889, -0.09061741, 0.01998083, 0.07887432, -0.26397344, -0.82931834, -0.04711154, 0.25261998, 0.00099849, -0.07234266, 0.06715721, 0.02443857, 0.05200013, 0.06092492, -0.01465323, -0.06469571, 0.02258434, -0.01410687, 0.03010255, -0.05155952, 0.03759834, 0.06509830, 0.08810857, -0.03572161, 0.06707240, 0.06942929, -0.18939650, 0.05869459, -0.02352423, -0.04574601, 0.08712055, 0.27832472, -0.02152199, 0.07038362, 0.01620311, -0.02843264, 0.03662076, -0.10288382, -0.04291913, 0.09081862, -0.12454789, -0.19171467, -0.00302312, -0.08280377, -0.17115833, -0.49396747, -0.05531930, -0.01046788, 0.08205699, 0.05512942, 0.04266969, -0.16739130, 0.08713274, -0.00175548, 0.08344586, 0.05605967, -0.13626778, 0.00318683, 0.04740185, -0.05929228, -0.07140782, -0.06843397, 0.03093821, -0.84472871, -0.01885099, -0.01637687, 0.01450947, 0.04896215, 0.03479267, -0.02214655, 0.01789485, -0.07069309, -0.04070044, -0.01725118, -0.53762537, -0.02997078, 0.04305170, -0.01414999, -0.06152963, 0.02393923, 0.10467473, 0.06681312, -0.10015283, 0.18412267, -0.02509822, -0.16320406, 0.08395470, 0.04437706, -0.06930293, -0.05066981, 0.03498388, -0.06617386, 0.03500343, -0.06843504, -0.01626334, 0.12713724, -0.01483934, -0.84523064, 0.03032764, -0.06594045, 0.03627758, -0.06128347, -0.11977290, 0.02536184, 0.04839820, 0.05533819, -0.06683133, -0.06579870, -0.09148324, -0.01108657, -0.00801414, 0.08680725, -0.08230243, -0.00948381, -0.03953834, 0.01270912, -0.10683533, 0.04870374, -0.00112282, 0.00864725, 0.03232312, 0.01566151, -0.07624724, 0.01198372, 0.05909953, 0.04861145, -0.06222023, -0.04648931, 0.07136755, -0.05546587, -0.00362761, 0.03223139, 0.01126388, -0.00187897, -0.03141340, -0.06005077, -0.10233058, 0.08079952, -0.04434175, -0.07811583, 0.05732051, -0.03260016, -0.06660575, -0.07247604, 0.05279997, 0.07958265, -0.07119705, -0.06382302, -0.07685038, 0.06180965, 0.02205637, 0.06710615, 0.01103387, -0.07459030, -0.03460661, 0.00907535, -0.01630180, -0.03463874, -0.05310490, -0.08429658, -0.09428510, -0.07234515, -0.07062723, 0.01682053, -0.03023419, -0.03572646, 0.01853830, 0.01590619, -0.07262266, -0.05529493, -0.06129301, -0.07422328, -0.02323303, 0.03510208, 0.00553432, -0.05376505, 0.05047294, -0.11619296, -0.06665868, -0.09253474, 0.06395226, -0.06786574, -0.06694529, -0.06179993, 0.01629495, -0.05234740, -0.11093396, -0.08244901, -0.04278001, 0.05198361, -0.07649329, 0.03976991, 0.00914494, 0.06790846, 0.00701920, 0.01404409, 0.07287706, 0.00871189, -0.11747489, -0.04971985, -0.02687629, 0.00142476, -0.04757487, -0.01266127, -0.01432253, -0.04185870, 0.03860153, -0.05998145, -0.00573314, 0.07040003, -0.10618678, 0.01231897, -0.06097418, -0.03406098, 0.02735205, -0.07472762, 0.05929140, 0.01506385, 0.02253103, 0.01868348, 0.05780891, 0.02951730, -0.03310790, -0.01388618, -0.04353501, -0.01095080, -0.07126302, -0.02121359, -0.03475536, 0.06992114, 0.05619934, -0.06770849, 0.06994592, -0.06774779, 0.00461040, -0.09460177, -0.09472010, -0.01716896, -0.08843070, -0.01129976, -0.04354712, 0.00170846, 0.01557206, -0.02475051, 0.01728385, 0.01411337, -0.00356681, -0.02267731, 0.04162091, 0.01587938, -0.08385298, 0.06240025, -0.08471545, -0.05112686, -0.00429940, 0.00836246, 0.02815582, 0.03085126, -0.05949562, 0.00309620, -0.04523702, -0.03503835, 0.01684953, 0.01185877, -0.01970094, -0.06210785, -0.00091759, -0.03264309, -0.04888847, -0.00011858, -0.01582156, 0.03830766, -0.11738468, -0.05208515, 0.03845710, 0.05353732, -0.09025282, 0.00342039, -0.00523740, -0.03310694, -0.01910797, -0.07569982, 0.07225857, 0.03001706, -0.08189011, -0.10465836, 0.01375165, -0.05192689, -0.10714350, 0.00706814, -0.09118677, -0.02197155, -0.08460116, 0.01229806, 0.03228784, -0.08751112, -0.05211673, -0.08197561, -0.05282009, 0.00305782, -0.06335748, 0.07297505, -0.03906320, 0.04715931, -0.04120696, -0.02577566, -0.04473875, -0.10243524, -0.05178183, -0.02110575, 0.08493880, -0.00974918, -0.09085309, -0.04747646, -0.02299624, 0.00254763, -0.05359489, -0.10313739, 0.01132296, 0.02166552, -0.06169066, -0.01805122, 0.07265657, -0.01112585, -0.01754866, 0.06226848, -0.09107953, -0.08099232, 0.04915845, -0.04085720, -0.00045913, -0.08076152, -0.06303594, 0.00075130, -0.07727814, 0.01464446, -0.09036653, -0.04944580, -0.03533225, 0.07257757, 0.04756435, 0.01949100, -0.03396951, -0.09752113, -0.00144592, 0.02590229, 0.02456312, -0.00033161, 0.03598643, 0.00933669, 0.01679233, -0.06520157, -0.03439311, 0.02137420, -0.10349855, -0.00770777, -0.05835228, -0.07045859, -0.04684301, 0.03953388, -0.04564973, 0.26418921, 0.10897891, -0.04696361, -0.02633604, -0.02896429, -0.02734933, 0.09809685, 0.16543636, 0.03315126, 0.18088779, 0.09816712, 0.06222201, 0.03772596, -0.05437000, -0.01379972, -0.17119646, 0.07821778, -0.20031214, 0.10412450, 0.05586262, 0.00016536, -0.02942402, -0.00596620, 0.05053051, 0.11165086, 0.06310752, 0.01293828, -1.51150751, 0.04652343, 0.01853034, 0.07259927, -0.74390632, 0.37805057, -0.46786442, -0.05862278, 0.07545310, 0.06938597, -0.14020558, 0.09949305, 0.09653822, -1.00852919, 0.00287624, -0.01447265, 0.01958269, -0.04751386, 0.00668889, -0.03908069, 0.07511098, 0.05417064, -0.00887183, -0.16957653, 0.01589869, 0.07427859, -0.01408350, -0.05135340, 0.02201752, 0.09477142, 0.10075757, 0.03105758, -0.07230237, 0.05300281, 0.03490616, 0.07283285, -0.23859297, -0.00395104, -0.09629604, 0.03627022, 0.03725781, -0.09349999, -0.06854233, 0.11143648, -0.13339728, -0.01547322, 0.03256717, 0.04815514, 0.04110614, 0.02501478, 0.05408095, -0.01545573, 0.07284383, 0.02044073, 0.05724487, 1.04425669, -0.00557421, -0.31200305, -0.05082729, 0.35636634, 0.05049318, -0.04306059, -0.51061869, 0.03087478, -0.19173469, -0.34178588, -0.00593671, -0.02792601, -0.08898978, 0.35996297, 0.12177452, -0.00277194, -0.07326585, -1.80894184, -0.92513227, 0.00497762, -0.01513439, 0.05174826, -0.25603572, 0.00359187, -0.23902848, 0.01276138, -0.07982495, -0.01050904, 0.14880830, 0.08460902, -0.04451796, -0.35577208, -0.19684993, -0.13691650, 0.07143186, -2.66757536, 0.01922599, 0.01983484, 0.05233847, -2.33748484, -0.04884366, 0.02650649, -0.00608216, -0.01565110, 0.13690372, 0.02759979, -0.04962194, -0.05130164, 0.04162037, -0.00112288, 0.13239457, -0.05236748, 0.03922807, 0.01573406, 0.07073364, -0.02062242, 0.12552948, -0.04924607, 0.02359753, -0.01549638, 0.03282144, -0.11634923, -0.11603351, 0.03872697, -0.07591015, -0.02470131, -0.15223658, 0.12750626, 0.02982493, 0.00466209, -0.04903827, 0.04939889, -0.06509575, 0.00778862, -0.01621429, -0.17894439, 0.25835726, -0.01472924, -0.02716176, -0.00620561, 0.13564551, 0.10073377, -0.00730202, -0.05122507, -0.00487464, 0.17349052, 0.07861629, -0.04485598, -0.07106641, 0.00857094, -0.07145235, 0.10547413, -0.02555449, 0.02131361, 0.06061145, -0.09073238, 0.11991355, 0.08885187, -0.34319156, 0.05771495, 0.01895211, -0.13872214, 0.12589893, -0.06713438, -0.05009624, -0.00608758, 0.01115925, -0.05839467, -0.09266160, 0.26578707, 0.09591144, -0.07416724, -0.30969244, 0.09815267, 0.07019058, 0.12872392, -0.05604498, -0.03470613, -0.05748520, 0.07917727, 0.01804498, 0.02342773, -0.09651579, 0.04875766, -0.01949476, 0.08783189, 0.00667092, 0.05834061, 0.05003566, 0.01762137, -0.18799701, 0.09373046, -0.01424873, -0.06507159, 0.02527216, 0.04042684, -0.10168441, 0.10131178, 0.02785190, -0.01014590, -0.02083151, 0.03285030, 0.25196224, -0.25383586, -0.02537384, -0.05387394, 0.06783882, 0.07864422, -0.24799517, 0.13668598, -0.09453785, 0.35830021, 0.00771015, -0.39341110, 0.11790207, -0.05327245, -0.06912984, 0.09417362, -0.04145867, -0.51179588, -0.02141930, -0.09793990, -0.02101568, 0.03239190, 0.18954097, 0.04291627, -0.11078362, -0.09350066, 0.04130643, -0.10643569, 0.00950038, 0.08586334, -0.02574942, -0.02368557, 0.05514872, 0.05527675, -0.04911238, -0.01734312, 0.03913474, -0.00918168, -0.07460636, -0.15121420, 0.34923241, -0.01268460, -0.08311665, 0.03749314, -0.09397484, 0.04759641, -0.04640018, -0.00097878, 0.04822608, -0.09936886, -0.01822245, 0.04731822, -0.01034331, 0.05244109, -1.11744583, 0.01061069, 0.08062533, -0.07332022, -2.20865369, -0.02627400, 0.02623202, 0.07971776, -0.03925829, 0.94948840, 0.25207573, -0.00324495, 0.02613542, -0.08931287, -0.04869361, 0.03378041, 0.06464557, 0.04076896, 0.04976599, -1.23228407, -0.01555348, -0.00165366, 0.02409452, 0.03087400, 0.00831586, 0.03288003, 0.74717182, -0.10533278, 0.02501246, 0.04944889, -0.03814068, 0.04748267, 0.06920755, -0.03043622, -0.05559604, -0.08387643, -0.05759245, -0.39379609, 0.05872424, 1.66937339, 0.00498575, 0.06310381, 0.02403312, 0.08508942, 0.03487485, 0.08828086, -0.09580673, 0.02359439, 0.03285548, 0.08739994, 0.03120226, 0.00884759, -0.10528082, -0.00906280, -1.02931643, -0.04577149, -0.02882148, -0.07098410, 0.05979454, 0.10821041, -0.07263330, -0.06784727, -0.15194005, 0.04581412, -0.00659874, 0.11041191, 0.14350863, -0.00539316, -0.11039673, -0.33511665, -0.04060768, 0.00043375, 0.04657797, 0.00625697, -0.54534072, 0.02993196, -0.02915213, 0.22045876, 0.20191471, -0.01491513, -0.04992659, -0.04139964, -0.14183548, 0.09945909, 0.06257673, -0.04012231, -0.04006295, 0.00391370, -0.19109808, 0.01860159, 0.07846484, -0.02227037, 0.06041148, -0.36346287, -0.01130359, 0.28246877, -0.06689349, 0.00500759, -0.02417908, -0.45202848, 0.01025115, 0.07658047, -0.02792912, 0.03520367, 0.11869879, 0.20365472, 0.04795421, -0.20303901, -0.00433919, -0.00274885, -0.04343914, -0.08829653, -0.02601296, 0.00129324, -0.07285994, -0.08469436, -0.02354563, -0.04384773, 0.07906655, -0.07049742, 0.02431119, 0.02917380, -0.58527803, -0.05425095, -0.31278521, 0.03785123, -0.00454004, -0.09304098, -0.01710642, -0.11982433, -0.12956211, 0.00606270, -0.02270145, -0.02194599, -0.04045995, 0.45179409, 0.20969373, 0.00762627, -0.00497514, -0.03524650, -0.07504818, -0.04474538, -0.01080041, 0.03443169, 0.09652042, -0.08236221, 0.17852418, -0.09947426, -0.01798836, -0.01578085, -0.02739965, -0.10323390, 0.03891267, -0.01268561, 0.09768399, 0.03609247, -0.04041991, 0.48695758, 0.19627388, 0.12576222, 0.06573168, -0.04679782, 0.03314087, 0.04314105, 0.11828206, -0.12052938, 0.08818030, 0.02187265, 0.00132735, 0.15976420, 0.00681147, -0.03530254, 0.02691859, 0.00098307, 0.02307039, 0.01884072, 0.02054311, -0.07820924, -0.04114807, 0.06122088, 0.03600196, -0.56542468, 0.05051766, -0.05314738, 0.10542497, 0.04854459, -0.03849134, -0.06883362, 0.03343847, -0.07029583, 0.00851656, -0.02300994, 0.04151915, 0.05057113, 0.09285302, 0.04205126, -0.13894211, -0.20549044, 0.03112651, -0.00496396, 0.02377831, 0.05203119, -0.15825847, -0.67833138, 0.07836360, 0.06739884, -0.05489551, -0.04282637, -0.15445125, -0.61862063, -0.06706460, 0.40188098, 0.02416103, 0.06024836, 0.00377232, 0.21836068, 0.08019655, -0.10853544, -0.03981427, -0.25141010, 0.03597771, 0.01057477, 0.04878918, 0.01959433, -0.28588814, 0.06492276, 0.08120389, -0.00320657, 0.26523113, 1.40809834, -0.05110047, -0.05867461, -0.01275520, 0.01410503, 0.00288352, 0.02546041, 0.05206776, 0.03059023, -0.65965819, -0.01073539, 0.12413868, 0.02432932, 0.04031389, -0.08363336, -0.05934918, -0.05630280, 0.01254521, -0.03841847, -0.06210239, -0.10257023, -3.49012637, -1.18968511, -0.48894930, 0.06265566, -0.10126809, 0.07087927, -0.01049491, -0.07005145, -0.35328016, -0.09381290, -0.03187076, -0.08486027, -0.06721631, -0.56064099, -0.07176105, -0.07488226, -0.01345829, 0.01138866, 0.05499584, -0.01613229, -0.01080677, 0.00790671, 0.18979694, -0.23242065, -0.03786613, 0.00754689, 0.06465076, -0.06087170, -0.03897950, 0.00231360, 0.69312817, 0.07898728, 0.08278997, 0.04453383, -0.01777721, 0.06458394, -0.29431793, -1.39167845, 0.03336744, 0.06931585, -0.06668036, 0.00735330, 0.04434826, -1.35029078, 0.06347363, -0.02062503, -0.02685756, -0.48292217, -0.16045845, 0.04617734, 0.25170305, 0.00858806, 0.04969754, 0.08465224, 0.02187189, -0.05246020, 0.04289478, 0.01444641, -0.05739862, 0.04872641, -0.04335582, 0.01296648, 0.02274551, -0.01486492, 0.05076669, 0.07147434, -0.02123231, -0.05626311, -0.01831096, 0.04695468, 0.04655987, 0.02828960, 0.03497933, 0.03049300, -0.06645318, -0.07115773, 0.02170857, -0.34970957, -0.05870226, 0.05723424, -0.06222122, -1.27089930, -0.09669701, 0.09930982, 0.02147437, 0.04293992, 0.11469655, -1.59406245, -0.05300817, 0.32265913, 0.03185161, 0.01078042, -0.09891798, -0.24586405, -0.04216135, 0.00180042, -0.07413137, -7.87261343, -0.01423353, -0.00130810, 0.04789421, 0.03534119, 1.14341211, -0.03724725, -0.03403404, -0.02615720, 0.46616217, 1.37279141, -0.05447599, 0.01884218, -0.01757158, -0.02404069, -0.03787066, -0.06118050, 0.03404846, 0.01452090, -0.08184537, -0.09609604, 0.09266242, -0.02662837, 0.07530592, -0.00193605, -0.01955556, 0.06139978, 0.02723622, 0.02245487, -0.02533418, 0.00686668, 0.24677821, 0.01490852, -0.06378501, -0.01277214, -0.03725008, -0.09562337, -0.06310244, 0.07539861, -0.08241901, 0.05560160, -0.06944787, 0.08622923, -0.05655855, 0.26183039, 0.04197677, 0.00179594, 0.03163779, -0.04715891, 0.05046724, 0.03097312, 0.02063097, -0.07657640, -0.05835062, 0.00359753, 0.05819901, 0.06627817, 0.00875981, 0.03016912, -0.09523676, -0.01411095, 0.10152196, 0.02669850, 0.14405088, -0.00722716, 0.06032962, 0.08424997, 0.03572784, -0.22405478, -0.06841239, 0.06222697, 0.06441319, -0.01662447, -0.07631567, -0.00535620, 0.04258647, -0.04414751, 0.00477576, 0.06977473, 0.02720180, 0.05237031, 0.09785634, 0.07370417, 0.04755646, -0.08612370, 0.06352361, 0.07089622, -0.07035834, -0.06211700, 0.02087788, -0.05803492, -0.03098390, 0.03886990, -0.01321965, 0.00338095, -0.08691388, -0.04395473, 0.02257245, 0.01278566, -0.06562051, 0.02525965, 0.01731088, 0.00537630, -0.08508309, 0.00263941, -0.12236392, -0.05214812, -0.00252391, -0.01814645, 0.05909350, -0.03567188, -0.01349485, -0.12296395, 0.00387023, 0.00623680, 0.02395634, 0.02965402, -0.02053855, 0.14896764, -0.03288809, -0.14992319, -0.07058915, 0.08327425, 0.10833260, 0.05564305, -0.03938291, 0.01537892, -0.09554858, -0.17001081, 0.05889364, -0.04883920, -0.02559002, 0.08548442, -0.05512248, -0.00907245, -0.04630300, 0.02011416, 0.01995815, -0.05349491, -0.03974148, 0.00167030, 0.17283531, -0.02577451, -0.02645062, -0.04652394, -0.23671211, -0.11227343, -0.10851828, -0.00445704, -0.04981662, -0.05130769, 0.62412679, 0.00983790, 0.07006980, -0.00724261, 0.20316222, 0.00396101, 0.26601392, 0.20301366, 0.00190370, -0.11736055, 0.10411442, 0.06699912, 0.04270527, 0.12103772, -0.11475341, -0.18324652, -0.11233051, 0.08473267, -0.08515598, -0.01239077, -0.35308868, 0.08185355, 0.53227311, -0.05620358, 0.26719129, -0.06640084, -0.07287618, 0.05832671, 0.04777056, 0.01677247, 0.00029204, -0.06126739, -0.58328807, -0.12017258, -0.13736449, 0.02739338, 0.13395150, -0.02550573, -0.12711562, -0.15192828, 0.00450955, -0.01890769, -0.03321675, -0.01807045, 0.14033517, 0.21748838, -0.16242431, -0.11372061, 0.07956935, -0.06287576, 0.01760459, -0.10966697, -0.00092585, 0.02182989, 0.01266223, -0.09627134, -0.05319718, 0.06035365, 0.20979854, -0.27812597, -0.00434952, -0.09693056, -0.08518310, -0.02295052, 0.05691839, 0.24135904, 0.02140519, 0.05985027, 0.02441623, -0.10552316, -0.02708581, -0.19284223, -0.06669620, 0.06017614, 0.03738543, -0.05201675, -0.67320478, -0.56853002, 0.00401148, 0.10513587, 0.01291010, -0.00148915, 0.09609492, -0.05418217, -0.05553807, 0.01672211, 0.05917602, -0.04605046, -0.86247420, -0.51085228, -0.01776551, -0.11928901, -0.09898569, -0.00126279, -0.08263148, 0.38812971, -0.10192900, 0.02743684, 0.08189931, -0.01356047, 0.17747784, -0.08604153, 0.10679752, -0.05008784, -0.00335325, -0.05683266, 0.24831839, 0.00639770, -0.08469242, 0.21424027, 0.14048418, 0.04132714, -0.05446181, -0.02931116, -0.05753728, -0.21603782, -0.02786599, -0.15500651, 0.01365260, -0.06817473, -0.08203132, 0.02672870, 0.07137404, -0.08208779, -0.06959218, -0.06563092, 0.06161715, 0.05888409, -0.07982807, 0.06695971, -0.05512698, -0.03750513, 0.01177465, -0.08527824, -0.07534820, -0.08275342, 0.07816947, -0.01554216, -0.01566507, -0.05111203, 0.08444425, 0.03070079, 0.06852701, 0.03813969, -0.05629062, -0.06714268, -0.06211312, -0.04370533, 0.01848577, 0.02045968, -0.04360368, -0.02624603, 0.07391147, 0.02004977, -0.01669933, 0.02433664, -0.06063499, 0.00693590, -0.06663418, -0.03518090, -0.08446890, -0.05979956, -0.03930485, 0.07793862, 0.04489588, 0.00996073, -0.08269728, 0.02265343, 0.04818635, -0.07518519, -0.06056514, -0.08250594, 0.06063911, 0.06253802, -0.08033325, -0.04252012, -0.06864697, -0.05420248, 0.03659857, -0.08825359, 0.01580447, 0.04523165, 0.01337519, 0.03410717, -0.01670199, -0.03461621, 0.05626372, -0.03109591, -0.06440484, -0.04488706, 0.01316839, -0.05295373, 0.01296045, 0.01735985, 0.02361147, -0.05832573, -0.08101124, 0.05329498, -0.04307031, -0.05323502, -0.05837752, -0.07874905, 0.01523574, -0.01253206, 0.00232842, -0.01673472, -0.05895431, -0.07072787, -0.03155088, -0.04872047, 0.05897788, 0.01938578, -0.04827875, 0.08729512, -0.07895207, -0.08400850, 0.01391840, -0.03069107, 0.07227612, 0.06287243, -0.04309546, -0.04850458, 0.03499996, -0.04382526, 0.00531672, 0.03049905, 0.03290415, -0.04169821, -0.01453688, 0.06115799, -0.04743107, 0.03112849, -0.03976563, -0.04525831, -0.00649101, -0.04923703, -0.00672734, 0.05878155, -0.01288632, -0.02199867, 0.02314407, -0.00104936, -0.07927315, 0.00646299, 0.01899849, -0.04033761, -0.13180888, 0.06052923, -0.00957554, 0.00667631, -0.03385297, 0.05523581, -0.48252863, -0.03634394, 0.07961517, -0.02786258, 0.03600353, 0.06876455, -0.10404891, 0.11469767, 0.01767870, 0.05119153, -0.10071763, -0.75140065, 0.16244169, 0.09143386, 0.13671787, -0.00360162, 0.04701748, 0.37588295, 0.01189821, -0.06659551, 0.21969861, 0.03739608, -0.15898755, 0.26183349, -0.21374011, 0.76130337, -0.12044581, 0.03662441, -0.00368911, 0.01598653, -0.08576807, 0.06401600, 0.07154121, 0.01097380, -0.05196978, 0.03868598, -0.05198617, 0.05330117, 0.06983557, 0.06549868, 0.04058616, -0.05979786, -0.05110680, 0.04582186, -0.02455124, -0.08104566, -0.10088417, -0.00350785, -0.65769815, -1.98133171, 0.03456028, 0.02211319, 0.02959902, 0.02425254, -0.02493722, 0.01183041, 0.06653528, 0.04537882, -0.09629633, 0.82835597, 0.03735283, 0.01216202, 0.83882445, -0.09105200, -0.02088114, 0.07700942, 0.04233634, 0.00362199, -0.03983229, 0.08703839, -0.01943503, -0.12260241, -0.03659757, 0.02342945, 0.04041521, -0.02278092, 0.13671927, -0.08298769, -0.03744901, 0.02853381, 0.01971432, -0.11235309, 0.03816316, 0.00560907, -0.08567012, -0.04367936, 0.08795739, -0.06315004, 0.01453778, 0.05458329, 0.00496304, 0.08358896, -0.38744456, -0.32779244, -0.03494873, 0.03630947, 0.04114575, 0.01009477, 0.15612954, 0.01947617, -0.07680517, 0.29023615, -0.00554334, 0.04970505, 0.09678521, -0.03277374, 0.02777234, 0.05586027, -0.03069670, -0.40099397, -0.05531048, -0.07103894, -0.01618194, -0.00628679, -0.12800264, 0.03422038, 0.10660531, 0.09358196, -0.53849381, 0.05831346, 0.01471459, -0.55804092, 0.03293827, 0.17106158, 0.06021894, 0.01521478, -0.05141914, 0.04249474, 0.09459785, -0.14523099, -0.00378452, 0.06047726, 0.07848959, -0.03615529, 0.00548027, -0.05578261, 0.07815308, -0.07675690, -0.00802010, 0.11165521, 0.38271186, -0.15378258, 0.01550456, -0.07663829, 0.07582734, 0.00567249, -0.02441666, -0.05454699, -0.00419576, 0.12619850, -0.03017311, 0.19060421, 0.02933827, 0.14064264, 0.13393612, 0.08536140, -0.01229712, -0.06990198, -0.01416621, -0.03081294, 0.09448126, -0.04053938, -0.05372085, 0.14584838, 0.09501141, 0.06351336, 0.01198896, -0.04164056, 0.09500084, 0.00353742, 0.03978228, -0.08754190, 0.12112845, 0.05419674, 0.04695807, 0.10910089, 0.13638924, 0.40682116, 0.03007379, -0.09951150, -0.06398199, -0.06501188, 0.01886620, -0.34966785, 0.07324894, 0.04012886, 0.05666622, 0.05828226, 0.10047172, -0.00520102, -0.08948592, 0.00372065, 0.02517541, 0.05013845, 0.01907580, 0.07105091, 0.01478553, 0.01265654, -0.08515465, -0.04749516, -0.05926777, -0.04519197, -0.18306527, -0.01531356, -0.08428781, -0.03480593, -0.02833708, -0.00472967, -0.09331644, -0.03264647, -0.07484636, 0.12377560, 0.12390744, -0.00257543, -0.12202878, -0.03082520, 0.06014732, -0.04556761, -0.05259639, -0.02821929, -0.01846680, 0.05306746, 0.01243792, -0.10377457, -0.04873965, 0.08074462, 0.00653001, 0.05243992, 0.01488012, 0.22207005, 0.01534038, -0.02136037, 0.11018231, 0.04763137, -0.00145338, -0.07830589, 0.00954037, 0.10075819, 0.01522045, 0.02980473, -0.00384708, 0.08400736, 0.00047242, 0.00359331, -0.02253240, -0.08717448, 0.03532691, 0.00293155, -0.03577099, 0.07514920, 0.07123758, -0.66147697, 0.01291791, 0.06747614, 0.00539973, -0.10862443, -0.06593185, -0.10744563, 0.08766611, -0.09620693, 0.02204126, -0.07866772, 0.08677955, -0.00312893, 0.02816992, -0.06302767, -0.01266649, -0.08455025, -2.01851058, -0.23196986, -0.09229714, 0.03188944, 1.13422871, 0.02790762, 0.68499303, 0.02990757, -0.09466786, -0.17081416, -1.59644532, 0.08388706, 0.08621168, -1.07806301, -0.13645169, 0.25475234, -0.08293560, 0.04276589, 0.14939153, 0.09264906, -0.14518631, 0.03416411, -0.01741217, -2.07659602, -0.03661483, -1.32284844, -1.18814504, 0.01010764, 0.00636405, 0.09936327, 0.06461922, -0.02415733, 0.98586464, -0.06074144, -0.03001436, 0.05943772, -0.13574062, -0.07640224, -0.00211471, 0.04067935, 0.08261146, 0.01683263, -0.04616659, 0.60839522, 0.03029415, 0.18198064, -0.03636654, -0.24908257, 0.13254739, -0.09191878, 0.05549167, 0.26737058, 0.02158740, 0.00813317, -0.05879148, -0.01089700, 0.01997731, -0.04663333, 0.05065218, 0.00938654, -3.22254801, -0.14722057, -0.00319230, -0.04161377, -0.01151108, 0.12353819, 0.04767622, 0.23671935, -0.16470937, -0.12828934, 0.04642201, 0.02576665, 0.00755176, -0.04080118, 0.03857729, -0.23876114, -0.02455050, -0.13660301, -0.04051947, 0.08766901, -0.07806347, -0.03672806, -0.18435149, -0.02759194, 0.34201866, 0.04514681, -0.01791495, -0.13014002, -0.02695398, 0.02331198, 0.00757251, -0.05304125, -0.07324535, 0.07992154, -0.46255898, 0.08608938, 0.01081500, -0.03356430, -0.03269707, -0.80914372, 0.08260179, -0.10992958, 0.09616809, 0.13768873, -0.01129676, 0.16434720, 0.08584046, 0.14277439, 0.02668663, 0.08948995, 0.02791595, 0.00762690, -0.03769289, -0.05301794, 0.05576792, -0.03112312, -0.04300844, 0.04949454, -0.00141193, 0.04342553, -0.12259051, -0.08339377, 0.07562895, -0.06081601, -0.18382196, -0.01235190, 0.00268330, 0.08039225, 0.12594838, 0.11295899, -0.05401219, -0.04923195, 0.15845606, 0.08531044, 0.00158841, 0.04162152, 0.02542380, 0.03917674, -0.27898100, 0.02336289, -0.05604865, 0.02356519, -0.03998479, 0.14702554, -0.10929056, 0.05456334, 0.02195915, 0.05250733, -0.02266153, 0.05669113, 0.02487727, 0.03938091, 0.11990555, 0.02594853, 0.01798511, 0.05255825, -0.03627428, 0.05427413, -0.06834903, -0.00335593, 0.09647942, 0.01056146, 0.01794839, -0.17881617, 0.00283137, -0.35198101, 0.10859813, 0.06220136, 0.02116241, -0.06253456, -0.09290045, 0.13281836, 0.06743255, 0.07216824, -0.13370660, 0.04633402, -0.05103580, 0.03521398, 0.01954132, -0.01750871, 0.03237765, 0.05696464, -0.04160711, -0.02984239, -0.03463783, 0.04208475, 0.02317084, 0.02999793, 0.03208880, 0.09917350, 0.04147761, -0.01529975, 0.04164617, 0.07577486, -0.00648902, 0.02199723, 0.03183023, -0.08544131, -0.00650362, -0.19009610, -0.03099805, 0.04157532, -0.01685533, -6.37668514, -0.07849345, -0.13079338, -0.03631977, 0.10603029, 0.18279909, 0.13531296, -0.00461282, -0.14072582, -0.08149345, 0.02708330, 0.03463636, 0.15976210, -0.02384566, 0.04352815, 0.08561424, 0.10475258, -0.03714671, -0.07859576, -0.00843685, 0.01636186, 0.07693191, 0.11240575, -0.02034325, -0.06893784, 0.00079493, -0.63883859, 0.09530284, 0.01473574, -0.04034845, -0.01489399, -0.17238869, -0.00759330, -0.02187448, -0.00267957, -0.09932438, 0.02785666, 0.04821238, 0.01781612, 0.00401757, -0.00855776, 0.03089504, 0.02112773, 0.01090854, 0.00430310, 0.00361500, 0.03322509, -0.00088428, 0.05217435, -0.09888636, 0.07784014, -0.06704625, -0.10815948, 0.00256789, -0.08161190, -0.07603752, -0.05377242, -0.06084948, -0.01990387, 0.05015147, 0.01588555, -0.08376203, 0.01732225, 0.02892006, -0.04532215, 0.02416823, 0.04265304, 0.07794173, 0.06878477, -0.02498457, 0.04602306, -0.04809403, -0.01908134, -0.02283874, 0.06609425, 0.02386556, -0.02307903, 0.09437576, 0.02109115, 0.05801348, 0.00891613, 0.01148078, -0.03825483, 0.04016084, 0.02281576, -0.07016402, 0.01201830, 0.04026980, 0.02485135, 0.00830127, 0.09446643, -0.03853218, 0.03811359, 0.06420689, -0.05547974, -0.00027333, 0.01117291, 0.07886805, 0.00474630, -0.08754372, 0.01643077, -0.02877354, 0.03487518, 0.01101775, 0.06052798, 0.03732745, 0.03811473, 0.05692619, 0.00807332, -0.06529138, -0.07153241, 0.00526720, -0.06119977, 0.00200349, -0.02412943, -0.00828931, -0.06367790, 0.05604156, 0.03046581, 0.05422388, -0.07608741, -0.00476504, 0.04475419, -0.09033993, 0.04500967, 0.03290331, 0.01440043, -0.06844129, -0.10749948, 0.06880917, 0.02172099, 0.06481494, -0.06347013, 0.03794532, 0.02268934, -0.06102115, -0.04743677, 0.06848636, 0.04179648, -0.11692946, -0.05082549, -0.06033288, -0.03985351, -0.06308061, -0.03857127, 0.04652574, 0.04822165, -0.08645327, -0.01992254, -0.05107027, 0.06123475, 0.05949891, -0.08920180, 0.02912770, 0.05529428, 0.03056070, -0.02063036, -0.04457353, 0.02106499, 0.05501105, 0.10340545, 0.07500346, -0.08939015, 0.17930821, -0.01830105, -0.01267986, 0.01007252, 0.10490870, -0.01976139, 0.00659279, 0.03473767, 0.00130740, -0.15502881, -0.04225442, -0.04125639, 0.01658749, 0.03077140, 0.03351628, -0.06289590, 0.04297672, -0.23531502, 0.00219949, -0.08073583, -0.04821047, -0.03011295, -0.46183616, 0.15748720, 0.01482618, 0.05205783, -0.00804861, -0.01900638, 0.19256148, -0.12769111, -0.04566051, -0.36896324, -0.05486357, -0.98179013, -0.01999116, 0.01563801, 0.28573635, 0.01805496, -0.03138063, -0.10763780, 0.04022005, -0.11159374, 0.04031750, -0.14243335, 0.01448214, -0.02392177, -0.16619538, 0.07838158, -0.10725474, 0.05059500, -0.10691289, -0.06148466, -0.09508964, 0.08758507, -0.07116941, -0.33280894, 0.04372046, 0.02634147, 0.05397500, 0.04423432, 0.00515023, -0.07259995, 0.10243934, -0.60452318, 0.07608488, -0.18599258, -0.04362058, -0.00378440, 0.03393951, -0.02427370, -0.04089161, 0.02899358, -0.09123962, 0.03553383, 0.07602865, 0.10401539, -0.10525344, 0.07815398, -0.06215132, -0.04694131, -0.04243478, 0.14229974, 0.06399596, -0.00994313, -0.04215018, -0.09646082, 0.09666536, 0.01418023, 0.05358894, -0.07036565, -0.01296106, 0.03160838, 0.10961212, 0.07614573, 0.12823044, 0.02430847, -0.02967260, 0.07304887, 0.05692898, 0.00566116, 0.06407278, 0.08746311, -0.03909934, -0.01775509, 0.00032966, 0.04444116, -0.07159745, -0.09821010, -0.07581599, 0.13146091, -0.10371991, 0.06640422, -0.16249087, 0.03577631, 0.03079728, -0.05211518, -0.01160421, -0.00925897, 0.01315031, 0.02263889, 0.08126886, -0.24649146, 0.01022593, 0.01368073, -0.04679085, 0.06834260, -0.02017606, 0.03972141, -3.45758247, 0.03676705, 0.05101028, 0.08328352, 0.06579276, -0.26232734, -0.25107506, 0.06341436, 0.08466461, -2.69261861, -0.15891878, -0.01168948, -0.23332109, -0.04552892, -0.04130945, -0.07798178, -0.05704644, 0.31819394, 0.15014796, -0.02864471, 0.03869529, -0.14064264, 0.29280901, -0.00688205, -0.17793359, 0.00144359, 0.10141604, 0.06558945, -0.22852844, 1.16923618, -0.00528687, 1.35145509, -1.41205609, 0.00940643, 0.77101505, -0.10685990, 0.09363592, -0.07207876, -0.00930331, 0.03329625, -0.02378238, -0.03792170, -0.06163831, 0.11789386, -0.74441051, 0.01151950, -1.62946999, -0.16230445, -0.08074798, 0.02230111, 0.06580296, 0.04423054, 0.24584410, 0.05934637, -0.16644876, -1.62892663, -0.06391957, -0.19612637, -0.01997848, 0.09061257, 0.02535410, -0.16581252, 0.04867112, -0.01380445, -0.66526920, -0.11428172, -0.07694563, 0.09245615, -0.96098387, -0.38877508, -0.04107084, -0.03328775, -0.00525565, -0.02874420, -0.03528026, -0.08864059, -0.01214614, 0.04911680, 0.02154655, -0.00309126, 0.09131277, 0.02251278, 0.18726523, 0.01944838, -0.03743169, -0.09890314, -0.61265016, -0.10127515, 0.06659193, -0.13278224, -0.09830779, 0.03956760, -0.09989379, -2.03546405, -0.04838317, -0.07759479, 0.00609128, 0.49459898, -0.07615986, 0.09553761, 0.03455497, -0.11449497, 0.06650959, 0.11364602, -0.15486999, 0.09260347, -0.07853084, 0.54895008, -0.00539281, -0.04810963, -0.64898849, -0.09316749, -3.32864594, -0.02281603, 0.16847230, -0.00032564, -0.65933377, 0.01048098, -0.04280376, -0.61646962, 0.14837484, -0.30587992, 0.38834497, 0.09754390, -0.02543186, 0.05628131, -0.35440785, 0.03967589, 0.11190150, 0.03637903, -0.26206610, 0.04074981, -0.17831044, 0.02132413, -0.07100942, -0.13376807, -0.05279620, 0.07232369, -0.09785941, -0.06192451, -0.02112566, -0.04142676, -0.09878439, 0.05909618, 0.10912517, -0.01566153, 0.28918785, 0.13899463, 0.07353770, -0.05234736, -0.05781656, -0.09398133, 0.19269864, -0.19866364, 0.06254642, 0.14411323, 0.06931382, -0.01084172, -0.06004686, 0.08434828, 0.17863980, 0.08955066, 0.14970838, -0.06329849, -0.04899302, -0.17113429, -0.06158165, -0.07531403, 0.09137640, 0.07201279, 0.03577019, -0.27003273, 0.22967835, -0.04501522, 0.07450272, -0.01899681, -0.06234351, 0.04560390, -0.19516620, -0.08460602, 0.03823170, -0.05749476, -0.01206679, 0.21390238, -0.03624897, -0.04043315, 0.04055863, 0.00815761, 0.42683280, -0.24609450, 0.03495097, 0.09150752, 0.19220473, 0.00558652, -0.04712946, 0.00316581, 0.08526938, -0.16084906, -0.10735792, -0.03920918, -0.01708841, 0.07771333, 0.00716709, 0.00911698, -0.36506572, 0.00643991, 0.55311155, -0.06053966, -0.10152240, -0.01845800, 0.06029380, 0.04912629, 0.08088262, -0.16265272, -0.24104673, -0.24904369, -0.03007871, 0.33212623, 0.18012401, 0.02403726, 0.20210269, 0.02650953, 0.08096680, -0.03437113, 0.05642915, -0.04055005, -0.39264983, 0.03777128, 0.04705282, 0.31118497, -0.38077700, 0.00304548, 0.09860647, 0.08467978, 0.02096787, 0.03869599, 0.15500738, -0.00906504, 0.00650479, -0.20570487, 0.05210560, -0.12700163, -0.00767005, 0.07296409, 0.01922507, 0.20002572, -0.16543664, 0.07380158, 0.00353675, -0.12473074, 0.02679526, -0.24512434, 0.03451652, 0.00034053, 0.17921063, 0.06158599, 0.03463329, 0.00762989, -0.03329567, 0.06661253, 0.01871066, 0.06938400, -0.07120830, 0.02301657, -0.06139111, -0.03507768, -0.01927323, -0.08986473, -0.04090051, -0.06527155, -0.02718655, -0.04561149, 0.03486166, 0.02495662, -0.03124231, -0.00501558, 0.08806000, -0.08905503, -0.05709668, -0.05716247, 0.00876542, 0.01818633, -0.00331688, -0.04495723, 0.05645312, 0.07374091, -0.05703654, -0.05434344, -0.09209759, 0.06153444, -0.01705549, -0.01192048, -0.00875263, -0.05124599, 0.04414082, 0.01265197, 0.00029391, 0.03937732, -0.02495259, -0.06420912, -0.07382698, -0.00355539, -0.04812312, 0.04853099, 0.02104769, 0.03628904, 0.04034986, 0.00836563, -0.01297567, -0.07512181, -0.01406968, -0.03912509, 0.06274217, 0.01714502, -0.06517269, -0.00990763, -0.00221646, -0.02890055, 0.05852513, 0.08416785, 0.05591543, -0.01006377, -0.00611364, -0.00120068, 0.07408965, 0.08237159, -0.05165499, 0.01865550, 0.01975914, -0.06108968, -0.08365467, 0.08196620, -0.04284782, 0.01472857, 0.02743706, 0.06425487, -0.07121997, -0.02231078, 0.02253393, -0.02822752, 0.05327307, -0.05997100, 0.05931058, -0.06442366, -0.07685275, 0.02772847, 0.01876265, -0.09245934, -0.08836426, 0.05024781, -0.01980806, 0.02687857, 0.02020395, -0.00536661, 0.04071556, -0.08951297, 0.00263803, -0.05628122, -0.07977224, -0.02025297, 0.07496241, 0.01849682, -0.03972850, -0.01855006, -0.05456159, -0.01451655, -0.06333797, -0.01006918, 0.01894855, 0.02625808, 0.06427098, -0.03727040, -0.03291733, -0.02796064, 0.03987209, 0.05567579, 0.04938703, -0.08673224, -0.08166483, -0.00868357, -0.04155673, 0.01830331, 0.07601213, 0.06611516, -0.27170342, 0.06259066, -0.03097042, 0.05758860, -0.07266201, 0.05472860, -0.00317175, -0.09735110, 0.07553491, 0.06151002, 0.02352805, 0.01829462, -0.04303752, -0.07620192, 0.05098281, 0.05656936, 0.05918639, -0.19125450, 0.05037154, -0.00614632, 0.00186160, -0.00977831, 0.24455591, -0.06405010, -0.04132071, 0.01190691, -0.05577430, 0.04416502, -0.07408579, 0.31005451, 0.05572902, 0.13180678, -0.13935953, 0.04913333, -0.15426400, 0.02147301, 