// Auto-generated field NN weights
// Architecture: [512, 512], activation=relu
// Parameters: 266243, FLOPs: 531456
// MAE: 6012.50 Gauss, p99: 51967.2 Gauss

#pragma once

static const float net_0_weight[1536] = {
  1.88710630, -0.04923558, 0.38681430, 0.33370224, -0.31874049, 1.10466182, 2.88694835, -0.07425865, -0.33243331, -1.22618043, -0.44126230, 0.72280818, 1.66715920, 0.42517737, 0.05796285, -1.25963020, 0.27407965, -0.75634730, -0.13601671, 0.40519014, 0.87170863, 0.30845746, -0.29697219, 1.01623809, -2.05159497, 0.48353890, 0.19069767, -1.01119781, 0.02659624, -0.34909442, 0.74986696, -0.32099235, -0.61811656, 0.48605698, -0.41936439, 1.29697561, 1.44701838, -0.37934330, -0.10668126, 1.96396327, -0.18443370, -0.19906875, 0.23351453, -0.29124308, -0.22469687, -0.52212894, 0.30796742, 0.55581057, -2.47683954, -0.00047292, 0.19937985, 1.96144092, -0.03224480, 0.10197337, -0.65219462, -0.47505882, 0.51250058, 0.34207663, -0.04307752, -0.00516408, 0.25808862, -0.48225605, -0.00276557, -0.02873702, -0.23811148, 0.55590183, 1.94513488, 0.40672329, 0.35043147, 0.93322837, 0.19562592, 1.49983299, -1.90307379, -0.29841614, 0.07290856, 2.10495257, 0.00021632, -0.96245313, -1.99592948, 0.41602826, -0.62761343, 0.19695924, -0.00192112, 1.10344338, -1.94284868, 0.18687637, -0.10730410, -1.00813472, -0.38935351, 1.42120218, -1.30572987, -0.12392104, -0.78725225, 0.00982519, 0.18734737, 1.09632790, -0.00569647, 0.13397534, 0.89861155, -0.84741002, -0.25683808, -0.42079464, -1.57619250, 0.08943094, -0.57330358, -0.98412174, -0.41483587, 0.65984672, -0.36064532, 0.34283021, 0.79657704, -0.37615377, -0.55748606, 0.14398326, -0.20876697, -0.40537909, -0.39146942, -1.22833610, 0.03721251, 0.51976126, -2.99804378, -0.07739135, -0.90676194, 0.82224417, -0.00549194, 1.01285887, -1.08877981, -0.07929192, -0.25337592, 0.99193954, 0.27480236, 0.84830165, -1.81295550, -0.09733041, 0.53314656, -0.93473041, -0.32804000, 1.02316749, 0.62863243, 0.26462027, -1.04408550, -2.52408743, -0.06476632, -0.69587141, 0.63676625, -0.46777287, -0.21321744, 1.19836807, 0.31476626, 0.68076754, -0.11216178, 0.73412073, 0.36612013, 1.74389517, -0.39442706, 0.28782511, 1.02228844, 0.45197257, 0.65818894, -1.06489325, 0.47933972, -0.38180065, 0.86360490, 0.47687927, -0.28589857, -1.83518684, 0.47935861, 0.24764368, -0.34552208, 0.41253150, 0.43486604, -0.56111312, 0.47937766, 0.60096782, -2.91832447, -0.00007196, -0.14006630, 0.14747846, -0.09485897, -0.93679637, 0.01727780, 0.34897664, -0.04798679, 1.93570495, -0.29422811, 0.25117287, 1.07615542, -0.49700424, 0.88806444, 2.69777489, -0.06955136, -0.22026111, 2.95909429, 0.07577530, -0.66372287, 0.05744102, -0.50211459, 0.07976338, 0.09838372, -0.24747708, 0.55037922, 2.39383459, 0.45230868, 0.23076023, 1.96383572, 0.49666482, 0.41918251, -1.36693752, 0.00090996, -0.36654580, 0.71388680, -0.47352663, 0.74669969, 0.28870010, -0.28434375, 0.98702741, 1.28486419, 0.20173290, -0.62313008, 3.02124286, -0.00032023, -0.20259365, 1.17063689, -0.39442971, -0.21908262, -0.81047148, 0.26245126, -0.83804405, 2.48378587, -0.00069468, 0.59514469, 2.78218555, 0.07206710, 0.69920820, 0.02455221, 0.19146614, 1.06946695, -1.37825072, -0.28669783, 1.17385268, -2.11230206, -0.00000375, -0.07092782, 1.42633259, -0.13338195, -0.79532814, 2.55752778, -0.06515977, -0.57344562, -0.53886002, -0.39051744, 1.32116902, -1.98574996, -0.00015609, 1.00539410, 1.77701855, 0.23205544, 0.00391304, -0.34924364, -0.52760696, 0.12763380, 1.85305989, -0.44075188, 0.53229856, 1.52700830, 0.31523100, -0.53960544, 2.36371422, -0.06313816, 0.36463809, -1.07893503, 0.30387747, -0.26398647, -2.26194692, 0.45016766, 0.47383609, 0.13273449, 0.36071301, -0.99452543, 0.96875638, 0.48209050, 1.53043771, 0.04681464, -0.11455579, -0.76126564, 2.35359907, -0.06076767, 0.70766658, -0.03628647, 0.66959876, -0.34992427, 0.63757706, -0.13471508, -0.55676776, 1.78185260, -0.25246578, -0.23784751, -2.60379529, -0.06645173, -0.48750475, -0.10179061, -0.27608207, -1.04207850, -0.06524137, 0.00070917, -1.37193465, -1.73874390, -0.48245731, 0.81121296, 2.03473353, 0.44736239, 0.46682227, 1.53319550, -0.19720994, -0.57079667, 1.12830603, -0.38870296, 0.26295429, -0.29652211, 0.54673845, 0.07280066, -0.92859739, -0.09490593, 1.28675473, 1.40871811, 0.26277655, 0.98654461, 0.20316197, 0.44651130, -0.90246058, -0.14835191, 0.52233708, 0.20482698, 0.50690573, 0.34778577, -0.68992752, 0.68002558, 0.61143935, 0.50294667, -0.98570824, -0.48484704, -0.74348027, -0.22948328, 0.59934342, 1.48432517, -1.81841099, 0.49667647, 0.60042936, 1.58559299, -0.22001645, 0.89591008, 1.60817623, 0.20037842, -0.37494680, 0.15730518, 0.01948712, -1.35670817, -0.17990460, 0.39060444, -0.83321524, 0.23088627, -0.43102905, -0.85995823, 1.98280644, -0.07352058, -0.12524985, -0.04184484, -0.19944686, -1.03778327, 0.11712745, -0.28154823, 1.11843681, 0.12711434, -0.43976089, -0.79408175, 0.04886761, 0.04821844, -0.75430638, 2.12381506, 0.00105640, 0.61451137, 1.30600214, -0.31991732, 0.20515840, 0.46738365, -0.48063961, -0.59734136, 0.85306096, -0.31244436, -0.00155539, -0.19982158, -0.34937963, -0.65182894, -1.24693549, -0.43796185, 0.91529244, -1.85552156, -0.15063493, 0.87413341, 0.02295242, 0.00036551, -1.07721925, -1.34220886, -0.20131859, 0.72454619, 1.60954010, -0.07426303, 0.50387055, -1.63680422, 0.16243809, -0.18282035, -1.30030632, 0.05838130, -0.42715925, 2.32764244, 0.05998235, -0.72815615, 0.40146041, -0.32864183, 0.78582186, 1.95598757, 0.34380639, -0.16971231, 0.29413792, 0.00029971, -0.97334886, 2.24018455, 0.00013321, -0.43160340, 0.01887099, 0.00040019, -1.22593236, -0.09354441, -0.19273409, 0.24027301, 0.00199365, 0.23991153, 1.06342793, -0.19573131, -0.31254128, 1.15995324, 1.53781235, -0.38092613, 0.83245099, 1.62120199, -0.22600709, 0.35046583, -1.40716720, -0.41524470, 0.48470673, 1.78296912, 0.08258013, 0.18203780, 1.58666301, 0.30745944, 0.41816875, 0.92682070, -0.00023658, 0.51425356, -0.11154158, -0.51935959, -0.36083379, 0.66166788, 0.36291903, 0.34824592, -2.61315823, 0.00121262, -0.16391909, 1.70123267, -0.29913211, 0.01868128, -0.75669843, 0.64374930, -0.24334148, 0.08859703, 0.18678887, 1.01731360, 0.00742581, -0.00025887, 1.22164118, -0.30619887, -0.40353346, -0.22100773, 0.92451346, -0.10505270, 1.07398939, -0.14149603, 0.36639172, 0.47061771, -2.51950693, 0.37242526, 0.11564596, 0.02347326, -0.05200291, 1.23176455, 0.58509374, 0.42110729, -0.40032029, 2.15539861, 0.00140476, 0.67282093, 0.00182724, -0.23562843, 0.90987623, -1.05678928, 0.28148150, 0.53120935, 1.03834414, 0.15535972, -0.57719934, -0.00558524, -0.00807850, -1.22786641, 0.52917379, 0.58456624, -0.32963842, -0.03733081, -0.18213214, 1.05595839, -0.77585280, -0.04476573, 0.63311893, 2.64751577, -0.06809382, -0.84708381, -1.71444035, 0.29340836, 0.00346325, -1.75336266, -0.26594028, 0.53908795, 1.52845299, -0.00072179, 0.71981728, -0.09851323, -0.55376011, -0.32440868, 1.00421059, 0.57396305, 0.78510076, -0.41899335, -0.35321239, -0.43315399, -0.56879222, 0.40663105, 0.59041405, -2.45856953, -0.06260324, -0.84632796, 0.20415325, 0.36026371, 1.07822764, -0.85055012, 0.26283440, 0.14285743, 0.70018667, -0.50516522, -0.36876735, -1.60786211, 0.32179594, 0.73489374, -2.41585183, 0.17582339, 0.24250820, 0.47346261, 0.00055385, -0.81751931, 0.75426948, -0.05286096, 0.87016940, -0.19312441, 0.09467857, 0.05248836, 0.70722979, -0.44184333, -0.75439078, -2.35471630, 0.25541013, 0.22641565, -0.17647859, -0.00421797, -0.00060140, 0.08962447, 0.49242347, 0.16869758, 0.85171354, 0.37316146, -0.12617421, 0.10177226, -0.57779831, -0.27219814, 1.03917110, -0.13592552, -0.17966402, -0.26522654, 0.49924403, 1.87915707, -2.56394887, 0.24404076, 0.06150376, -1.63206649, 0.22655536, -0.60252720, 1.10835660, 0.34421927, -0.22466260, -0.01474716, -0.25780347, -0.79877275, 0.01510153, 0.00076882, -1.40647876, -2.56673408, 0.06567020, 0.30146632, 0.10208239, 0.47292271, 0.94323415, -0.55425268, -0.45724151, 0.01176958, -0.38888034, -0.38005698, -0.51165771, -0.38480380, -0.36191759, 0.16630024, 2.00509572, -0.34673905, 0.24534595, -1.01306677, 0.09785590, -0.71179932, 0.20040254, 0.68377709, 0.12269762, 2.08220696, 0.10197704, -0.49853218, 0.00826099, 0.12249668, 0.98656476, -0.58974653, 0.36256683, 0.42870316, 1.68735802, -0.19260378, -0.56022102, 0.02778777, -0.22873355, -0.27443472, -0.23068385, -0.25469550, 1.06071520, -0.09326732, -0.37073585, 0.57432723, -1.02616549, -0.17588902, 0.25067785, 0.30398664, 0.15494925, -0.91370463, -2.41585755, -0.06128053, -0.30292618, -0.39403740, -0.52976304, 0.36703008, -2.60150456, -0.06702920, -0.83925110, -2.88512325, -0.07382691, 0.75593573, 2.37186646, 0.06175098, 0.60037816, -0.09346358, -0.00158529, 0.66065097, -0.05715645, -0.24780594, 1.08680737, 1.20406771, 0.00085292, -0.76860529, 1.14231968, 0.36044434, 1.09064674, -0.11413633, 0.51830566, 0.53570431, -0.18292382, -0.40714321, -0.83058912, 0.35877356, -0.00460961, -1.20961702, -0.58033550, 0.35742238, 0.82619172, 0.72244179, 0.35308143, 0.59942561, -1.06504190, -0.41276625, -0.43462327, -0.95852703, -0.31942847, -0.21179366, 2.16488791, 0.50972098, 0.85587025, 0.75892550, -0.34224430, 0.46965280, 0.07633895, 0.00035274, -1.18822694, 1.37532306, 0.31156793, -0.04465649, 2.66702127, 0.06734096, -0.39213872, -0.00483595, -0.00096667, 1.79027069, 0.68679190, -0.41530600, 0.53989142, 0.61325991, -0.04022569, 0.75667977, 2.00225115, -0.00080069, -0.05496143, 0.40303680, -0.38211888, 1.74080884, 1.42003703, -0.35219261, 0.59261018, 2.41570711, 0.06194041, -0.28484663, 0.79343963, 0.00029268, -0.77693981, -0.79473662, 0.21649207, 0.05381593, -2.64613271, 0.06639998, 0.65764964, -0.17104955, 0.38724390, 1.01805341, 0.94257200, 0.61232001, 0.24610437, 0.01087333, 0.00067704, -1.09648144, -2.79546738, 0.07138018, -0.04003548, 0.47097114, -0.35704780, 0.91766459, 0.91738760, 0.41778243, 0.21877179, -1.62182379, 0.15549211, 0.36345235, -0.63675886, 0.41683128, 0.48753268, -0.10071748, 0.31383032, 0.19162099, -0.34660763, -0.61360544, -0.14260986, 0.19319096, 0.01377895, 1.50282252, 0.03869232, -0.02036222, -1.45677733, 0.16336308, -0.61043745, -0.26757267, 0.03389288, -0.43202117, -0.82617301, -0.03117629, 0.00049492, -1.21354401, -0.00342961, 0.00082856, -1.22970879, 0.53078032, 0.51290184, 0.21772960, -1.37132347, -0.41039860, 0.93950170, -0.45480859, 0.45678782, -0.18702567, 0.46582147, -0.48654991, 0.59164363, 0.19310883, 0.11658882, -0.52804196, 0.69854248, -0.49495250, 1.47675443, 1.95708513, 0.23517361, 0.48440754, -1.12761354, 0.46449602, 0.85520089, 1.01113153, -0.46090478, 0.31140912, 0.80842566, 0.34236544, 0.09165610, 0.01256218, -0.00101039, 1.22861874, 1.32201684, 0.48190176, 0.58448488, 0.47484046, -0.38748065, 0.87013155, 0.99844557, -0.49007985, 0.52312768, -0.89885914, 0.39981136, 0.20763147, -0.07885849, -0.03527538, 1.11485255, -1.49658263, -0.22430447, -0.74063683, 0.19717810, -0.40482679, 1.91296017, -1.51803815, 0.27561572, -0.35908458, 1.31220150, -0.37347347, -0.25683394, 1.23546219, -0.51958472, 0.10174238, 1.52948749, -0.34953541, 0.15493472, 0.84221983, 0.52268648, 0.51502752, 0.33869097, -0.50475937, 0.04594481, 0.06517940, -0.17894407, 1.11043966, 2.39811802, -0.10165260, 0.21905223, 2.34710383, 0.21937861, -0.46673298, 1.25023532, -0.14604168, 0.42799348, -0.01904916, -0.37656757, 0.11776605, 1.89750361, 0.23687920, -0.80682915, -1.41080081, 0.17065735, -0.79647690, 1.94941008, 0.38183025, 0.37020645, 0.04907954, -0.32363039, 0.13137682, 0.37371755, 0.53900796, 1.00356638, 0.97259140, 0.12508170, 0.60136384, -1.37128985, 0.00038167, 0.34905198, 1.06577075, 0.01167338, -0.18231443, 1.85602951, 0.19649018, 0.10927590, 0.13121332, 0.18858656, -0.68117929, -0.59134161, 0.28385133, 1.68938351, -2.45544076, 0.26214787, 0.36220753, -1.87224579, -0.19566625, -0.25470790, 1.48645604, 0.08623921, 0.76048052, 0.04608080, 0.38968694, -0.98220676, 0.52677047, -0.44435516, -0.35695332, -1.56273711, -0.27733967, -0.49075696, -1.94083309, -0.25951022, -0.71890754, -2.15976620, -0.17330140, 0.70004600, -0.01934908, -0.47353980, 1.65483880, -0.14719106, -0.22990496, -0.53003061, -0.19446355, -0.30999520, -0.95027649, 0.37498510, -0.46063581, 1.60951388, -0.00980856, 0.00043054, -1.35864472, 1.72196853, 0.31014037, -0.61169374, 1.82249629, -0.45360747, 0.10360128, 2.12221003, -0.18431734, 0.33055228, 0.07252457, -0.42100248, -0.54291958, 1.18909609, 0.63377243, 0.78303611, 1.74287641, 0.20684612, 0.03301038, -2.02982306, -0.05214411, -0.69261283, 2.43654346, 0.40864736, 0.11699836, -0.29190493, -0.20077975, -0.94477463, 1.99857247, 0.28589773, -0.39303952, -1.80517256, 0.00052476, -0.06173386, 2.20725560, 0.35323498, -0.00692900, -0.97618359, 0.02627529, -0.20063949, 1.13427246, 0.24186610, -0.62506807, -1.99930847, -0.37845695, 0.07934349, -0.52660251, -0.41398910, -0.61972594, -0.27693638, 0.04161895, 0.03027660, 0.03176181, 0.39457330, 1.66633403, 1.03415203, -0.16578752, -0.88351643, 2.51915169, -0.00050093, 1.10347784, 1.64123595, 0.14980733, -0.69202203, -0.93091398, 0.26455063, -0.27185771, 0.34533376, -0.36703384, 0.79646778, 0.54868931, -0.36266780, 1.33323669, 1.35221529, 0.27115503, 0.17157175, -1.01502156, 0.20491208, 0.64152515, -1.83318233, -0.12520793, -0.62572473, 0.00712900, 0.24382019, 0.96921098, 0.35427448, 0.13356185, 0.41791132, -2.58509707, 0.06597251, -0.96794730, 2.21413970, -0.13422623, 0.53819072, 0.04142535, -0.00134897, 0.88832778, -0.08601667, 0.46264252, 0.59861457, 0.07388838, 0.44992658, -0.72828722, 0.16505599, -0.43901348, 1.26091754, -1.28135169, -0.25339133, -0.12802300, -2.02560806, 0.43024167, 0.31683868, 2.03299499, -0.37609038, -0.15816247, -0.09320158, -0.00012141, -1.34302354, 0.02351550, 0.17932063, 1.46688664, 1.81855834, 0.13121442, -0.41968772, -0.11325321, 0.40384421, 1.74851298, 1.77950358, 0.16266149, -0.25304782, 1.62865472, -0.14479224, -0.19704764, -1.93420660, -0.18928131, 0.79982096, 0.98383129, 0.26536885, -0.04695728, 0.46384817, -0.29521596, 0.39157188, -1.33055532, 0.11052439, 1.31636131, -1.68734646, 0.49083120, 0.51790690, -0.41547725, -0.59165752, 0.31947610, 0.01534978, -0.00074024, 0.74842888, 1.93095589, -0.20486502, -0.09279621, -0.08509547, -0.37345451, -0.12958394, -1.19134045, -0.11122963, 0.30853203, 0.02333313, -0.00080974, 1.24140036, 0.05719108, -0.39271459, -0.97194624, -0.55321532, 0.24578223, 0.35940385, -1.80270851, -0.47854728, 0.34906766, -1.51537108, -0.00096994, -1.17014813, -2.58727717, 0.06638327, 0.36235711, 1.10092139, 0.47719410, 0.80734003, -0.28106645, 0.43372175, 0.87327194, -0.20384070, 0.20948857, -0.82375157, 0.88595223, 0.46941996, 0.47645161, 2.53320479, 0.06533033, -0.60933810, 2.70124459, -0.00051927, -0.82958776, 2.71983981, 0.07027497, 0.37415591, -0.01000851, 0.35394493, 0.02104731, 0.21429048, 0.28745061, 0.84092599, -1.22429442, 0.38484064, -0.12637471, -1.25830841, 0.25070435, 0.26972350, -0.72779095, -0.15691459, -0.62163770, -0.84312284, -0.00018011, 0.29819098, 0.27013129, -0.44093624, 0.86251217, 0.16976948, -0.50774920, 0.57842457, 2.04329109, 0.25461483, 0.36225685, 1.60122490, 0.24253522, -0.36864686, 1.38857520, 0.34021193, -0.76757252, -0.55962813, 0.41526359, -0.44263870, 0.86354429, 0.59284234, 0.05633442, 1.12873209, 0.29526931, 0.24068145, -0.58839470, -0.39562711, 1.07627606, -2.01956892, 0.21203424, -0.52729946, 0.69888771, -0.00035110, -1.37035215, 0.01821974, -0.27420050, 0.13618918, -2.31133509, -0.33929726, 0.37505990, -1.84062326, 0.19734833, -0.48569408, 2.25505424, -0.14770040, 0.15955625, 0.95848465, -0.10723649, -0.79293019, -1.53461957, -0.20940790, 0.66329598, -0.81847316, -0.57807994, 0.71157610, -0.63990372, 0.00031411, -0.49553704, 0.06446299, 0.13836011, 0.03262454, 0.06370407, -0.02353798, 0.71958369, 2.02970743, 0.38501316, 0.21773078, 0.36539760, -0.41944745, 0.06134837, -0.08408707, -0.64291126, 0.35596311, -1.87518322, -0.34710521, -0.32147738, -0.49872380, -0.54695368, 0.80734503, 1.17578530, -0.31165317, 0.44779655, 0.03276047, 0.10896422, 1.33594775, 1.31545019, -0.21415432, -0.48299915, 1.81901562, 0.33940232, -0.10973093, 2.41019940, -0.06117347, -0.95239592, -1.38995123, 0.08457670, -0.30929020, -1.94070518, 0.22785595, -0.43650585, -0.04562313, -0.25782290, 0.78957146, -1.45490134, 0.44857404, 0.50279957, -0.12019565, 0.34858677, 0.36363727, -0.18403402, 0.59318531, -0.36570099, 0.62587541, -0.58698541, 0.92693174, -1.59804451, -0.00109631, 0.95391065, -0.56158698, 0.34990337, 0.53666562, -0.32104576, -0.59039789, -0.53984833, -2.14055324, -0.00078712, -0.67952609, -2.46153045, -0.00037984, 0.12865935, 0.05705531, -0.30888250, -0.70724767, -1.79821968, -0.04553684, 1.00458169, -1.78249609, -0.41711491, 0.33431953, -2.80588627, -0.07039727, -0.36047381, -1.53494430, -0.37615064, 0.01493142, 2.00674248, -0.16344507, 0.14078121, -0.81002033, 0.45817721, -0.74847007, -0.10026314, 0.00254476, 0.16690293, 0.02981521, -0.37568352, 0.23939161, -1.41711056, -0.29706550, -0.65922523, 1.48811603, -0.52352840, -0.10940207, 0.65569526, -0.43568504, 0.66605181, -0.53587776, 0.24374789, -0.56420499, -0.03445034, -0.27592978, 1.23598289, -0.42125618, 0.15822600, 1.58687961, -0.58081079, -0.42207280, -0.77174681, -1.03628659, 0.14319092, -0.73578131, 0.25126591, -0.19266258, 0.37949097, 2.58345222, -0.00044780, 0.57163739, 0.89092392, -0.00095457, -1.18290555, 0.03270424, 0.49838835, 0.84172708, 1.84371161, 0.00026415, -1.19857752, 2.69551992, 0.07044358, 0.85085624, 0.51848286, -0.36738250, 1.03214896, -1.02423251, 0.42423466, 0.08904562, -0.35032600, 0.49923399, 0.72268677, 2.81917858, -0.07285570, -0.70815891, -0.00282966, 0.00068050, -1.31603265, 0.47083607, 0.50344950, -0.27441600, -2.37689281, 0.47015619, 0.10194895, -0.06976686, 0.42446968, 0.12155057, 2.53783512, -0.06534583, 0.82764697, -0.48909417, 0.22797716, 0.82861090, -0.13852759, 0.23724592, -0.94989407, -0.56578994, 0.52403373, 1.12367129, -0.30544719, 0.44091636, 0.07074919, 1.96321714, -0.37687990, 0.45394519, -0.44838351, -0.52636987, -0.41400552, -0.55005592, -0.59730762, -0.03569008, -1.26810527, -0.03228532, -0.78018034, 0.76560712, 0.51053292, 0.51754385, -0.48622277, -0.21448410, 0.27379507, 0.54369628, 0.43042713, -0.01570265, -2.87203622, 0.07229373, 0.45149028, -0.91134793, -0.30020550, 0.23763621, 2.01669025, 0.39994535, 0.28259581, -0.85942352, 0.51138437, -0.34014440, -2.04057503, 0.38588563, 0.14923550, 0.37484959, 0.40052110, 1.36070573, 1.21483052, -0.63740033, 0.45321262, 0.02942649, 0.00030634, -1.45432484, -0.82147539, -0.10797836, -0.29521817, -1.43477011, -0.18868150, -0.44963518, -2.18253636, 0.27728993, -0.58664328, 2.00491333, -0.00040372, 1.27800620, 0.11459954, -0.00080078, 0.87403953, 2.51614642, -0.06483367, 0.18724430, -0.04101188, -0.44177738, 0.81326240, -2.35282016, 0.11808126, -0.50323796, -2.24007154, 0.05670772, 0.06078900, -0.05153405, 0.61999202, -0.01380360, -0.30400676, -0.39489725, -0.22685568, 1.66447270, 0.34210908, 0.73321491, -2.90111661, 0.07278909, 0.00575261, 2.26907444, 0.25802872, 0.36836889, 0.08958077, -0.27180281, -0.36934596, -1.17990148, -0.34823754, 0.44491419, -0.29936484, -0.33137617, 0.97435802, -0.17704289, -0.34558550, 0.68907464, 0.00786605, 0.00092980, -1.07196808, -1.45709896, 0.17356941, 0.53713125, 0.60183895, -0.00228801, -1.33218288, 0.35997730, 0.38483873, -0.05393529, 0.19359617, -0.38019925, -0.01662774, 2.57094502, -0.06533533, 0.36873695
};

static const float net_0_bias[512] = {
  0.16010492, 0.07958480, -0.13782178, -0.48733193, 0.65987992, -0.71691382, -0.28546980, 0.06616922, -0.64298475, -0.14565134, -0.53015900, 0.02401320, -0.61421400, -0.30773261, -0.43701416, 0.77580202, 0.18768960, 0.18043925, -0.21944712, 0.03328844, -0.23325109, 0.64021981, -0.45226139, 0.25400850, -0.39130518, -0.30907050, 0.35025248, 0.48873204, 0.18470439, -0.09818073, -0.48072118, 0.79672867, 0.62131476, 0.30217442, -0.02075632, -0.36247808, -0.27043703, -0.35763040, -0.37919569, 0.33092666, -0.37749887, 0.46677381, 0.07925365, 0.03784999, 0.46308038, -0.06880715, 0.04808586, -0.29059112, -0.32901832, -0.29851946, -0.66930461, -0.46420151, -0.52713621, -0.64304113, -0.58579046, -0.62055933, -0.34216076, -0.22777215, 0.06595267, -0.52240372, -0.64609569, -0.30075419, -0.28078085, -0.09176628, -0.27434173, -0.42423534, -0.10895228, -0.55799162, -0.57254976, -0.09265254, -0.35005978, 0.07167151, 0.13576791, 0.04366216, -0.55092132, 0.13020074, 0.35586897, 0.28988293, 0.79120898, -0.04949748, 0.06025522, -0.04556283, -0.23731408, -0.13432054, 0.50152868, -0.31234714, -0.48909363, -0.43282986, 0.37118343, 0.35998943, -0.40890208, -0.46302709, 0.21592067, -0.21757290, -0.48808062, 0.29471168, -0.83969325, 0.02281304, -0.44494697, -0.20241822, 0.05378440, -0.53578061, -0.39679214, -0.46873549, -0.50253820, -0.39912009, -0.60509878, 0.65603012, 0.03048884, 0.39778796, -0.50272709, 0.32925498, -0.48553056, 0.56127769, -0.41754377, -0.50458109, 0.07460310, -0.42129982, -0.56078833, 0.33181489, 0.39140975, 0.15891966, -0.07076270, 0.02610525, 0.42853886, -0.24969320, 0.16315413, -0.50937873, 0.58834231, -0.39422479, -0.61588246, -0.29660535, 0.18894090, -0.42025009, 0.58344615, 0.01481710, 0.26778188, -0.26410267, -0.30167085, -0.11307919, -0.55779493, -0.37975895, -0.27657321, -0.47813022, 0.42792556, 0.86841488, -0.05527192, -0.22269750, -0.15886073, -0.43441728, 0.29273194, 0.62697214, 0.25458679, -0.61081219, -0.27698722, 0.04397776, -0.41628516, -0.76319623, 0.13526525, 0.53632349, -0.44877699, 0.66681510, -0.26182994, -0.46724918, 0.62687063, 0.57104659, 0.18706720, 0.79184699, -0.20770444, 0.06435844, -0.49420518, -0.76352960, 0.16205205, 0.30789688, -0.35315096, -0.41618973, -0.15026826, 0.36667249, -0.60322654, -0.33576214, -0.42650747, -0.08727232, -0.35095984, -0.10298076, 0.53746706, -0.61010420, -0.30182597, -0.09440535, -0.31720871, 0.48526177, -0.14644827, 0.46706066, -0.23446666, -0.38967142, -0.48312348, -0.49608114, -0.45161983, 0.20077932, -0.08376765, -0.27357757, 0.05975982, 0.53252935, 0.12051661, -0.54917479, 0.12413982, 0.11949027, 0.79788506, -0.58250225, -0.23374946, -0.38949358, -0.09116752, -0.65091360, 0.05522976, 0.63705260, -0.45130992, -0.48264253, -0.35873842, 0.05010887, -0.09264377, -0.14958587, -0.66227168, -0.12519979, -0.22465228, -0.34887072, 0.31384322, 0.24829428, 0.29147243, 0.06605843, -0.37208059, 0.03923957, -0.05943199, 0.36175850, -0.52269679, -0.16884421, -0.20337211, 0.56523263, -0.65987498, -0.40403900, -0.18815209, -0.46394631, -0.37915063, -0.16277555, 0.78580678, -0.07859818, 0.41230184, 0.06399965, 0.04796200, -0.15064105, -0.11828050, -0.28785855, -0.24753262, 0.27490100, -0.18158033, -0.33622298, -0.42748749, -0.01660767, -0.08530284, -0.64706594, 0.33972597, -0.23353744, -0.33370855, -0.54984826, 0.63771266, -0.60514086, -0.55031669, 0.40204749, -0.47331792, -0.48045295, -0.45290774, -0.23866881, -0.61900485, -0.45711318, -0.00853175, -0.24853690, -0.11056016, -0.37035105, -0.11728121, 0.64735144, 0.53945160, -0.33152381, -0.16108735, -0.46204484, -0.39642513, 0.54958355, -0.62073135, 0.09509423, 0.24750361, -0.48639831, -0.64492542, -0.45378563, -0.31078067, -0.54574764, 0.19197336, 0.36507905, -0.46112007, -0.01250019, -0.32488906, -0.64873654, -0.36181310, -0.40319952, -0.40489918, -0.28358114, 0.42073092, 0.20409276, -0.00961104, -0.20526619, -0.32603881, 0.19199124, -0.18340312, -0.35301635, 0.52805489, 0.26893333, -0.26749527, -0.60322547, 0.22159509, 0.08911406, -0.14291647, -0.48664826, 0.14974009, -0.13879266, -0.53000861, 0.33871508, -0.63483751, 0.35644603, -0.57762438, -0.33600280, 0.43550688, -0.28857157, -0.52690625, -0.06584603, 0.40206173, 0.05001729, -0.50022650, -0.08520231, 0.19678088, -0.51755321, 0.46946639, -0.56357598, 0.03328015, -0.04341483, 0.56716508, 0.03343056, 0.37300280, -0.17026910, -0.08639064, -0.32126498, 0.56958765, 0.03362323, 0.01891691, 0.41902179, -0.40149581, 0.35148582, 0.39073393, -0.32921287, 0.47035074, -0.03312257, -0.42294466, -0.50379020, -0.60605067, -0.52546060, 0.34471959, 0.12521315, 0.02593268, -0.29965058, -0.25427079, 0.09698167, 0.46698713, -0.35585579, 0.30614555, -0.53295732, -0.45365706, 0.32914123, 0.22283185, -0.37269098, 0.36828098, 0.54580158, 0.27886888, 0.58775157, -0.58037436, -0.55151767, 0.14968862, -0.09559443, -0.25997946, 0.03144461, -0.16945894, -0.25265044, -0.22977528, 0.15552907, -0.43895242, -0.07723573, 0.64302927, 0.58458441, 0.03967899, 0.16013595, -0.25493082, -0.29192275, -0.19096977, 0.18503509, 0.31107730, 0.54287457, -0.66888213, -0.26156434, -0.24020809, 0.22197367, -0.60245055, -0.33646008, -0.31727251, -0.45358467, 0.40871421, -0.10789708, -0.00949766, -0.52898687, -0.17787126, -0.35833555, 0.35692888, -0.46289185, -0.16782820, -0.54007828, -0.63543856, -0.42638439, -0.28240210, 0.40522137, -0.50338465, -0.53183365, -0.39401177, 0.07261322, -0.47721153, 0.77724212, -0.48100451, -0.30577883, -0.74182999, -0.44905177, 0.46418324, -0.38652468, -0.69048184, -0.37393239, 0.15856677, 0.24308477, 0.41790652, -0.48525560, -0.14834078, -0.55783772, 0.13004030, 0.50574160, -0.42156765, -0.37460068, -0.71168882, -0.70080870, -0.33260480, 0.19984971, 0.08065219, 0.37702534, 0.42435825, -0.02277782, -0.11034530, 0.35023907, -0.52944088, -0.18424392, -0.41789258, 0.35161838, -0.13789855, -0.42678523, -0.16491103, -0.29363582, -0.51321733, -0.64904386, -0.64434206, -0.45909199, 0.34377149, -0.00629385, 0.02800753, -0.45393056, -0.19179964, -0.35606873, -0.61745101, -0.36295927, -0.32385653, 0.02649775, -0.26592121, -0.17850970, 0.18933354, -0.18551961, -0.46564728, -0.67220950, -0.49865729, -0.13424528, -0.70195514, -0.56791776, 0.09748759, -0.44383410, 0.12612997, 0.44465584, 0.38618332, 0.07744246, -0.27978256, 0.08843888, 0.02417651, -0.57619238, -0.44791767, -0.19399336, 0.00449237, -0.18114829, -0.41868204, 0.73112094, -0.01018839, -0.18677567, -0.41830298, -0.00728152, -0.58460832, -0.42701495, -0.35242331, 0.15421435
};

static const float net_2_weight[262144] = {
  -0.01581828, 0.02968283, 0.00655115, 0.00727142, 0.00143096, 0.02435249, -0.01892748, -0.00674497, -0.00091660, -0.00376202, -0.03360891, -0.01322985, 0.01235782, -0.01800807, 0.00324327, 0.03042506, -0.03565152, 0.00410559, -0.03184420, 0.02742039, 0.00575736, -0.03012045, -0.04205703, 0.03678747, 0.03521700, 0.02855691, -0.01955100, 0.04069266, -0.01783728, -0.01454724, 0.00696677, -0.02380232, -0.01112217, -0.03586368, -0.01119426, -0.00887114, 0.01251482, -0.00814428, 0.01635707, -0.01561553, 0.01214913, 0.01562719, -0.04348800, 0.03658914, -0.01363104, -0.01210544, 0.02282769, -0.04296394, -0.03166393, -0.01373205, -0.02923202, 0.03080653, -0.03057182, -0.01901500, 0.01715330, -0.03602848, -0.02220174, 0.01389981, -0.04314433, 0.03332050, 0.03875531, 0.01977895, 0.02571670, -0.02989406, -0.00227984, 0.02650082, 0.02709533, -0.02749703, 0.02750643, 0.01836871, 0.00127344, -0.01414203, 0.00493548, 0.01208973, 0.01601641, -0.00664461, -0.00414919, -0.04122493, -0.04072583, -0.00469907, 0.04369472, -0.01988299, 0.03488517, -0.03136103, -0.01669244, -0.04144402, -0.03994650, -0.02324644, -0.02958255, 0.00228452, -0.04188832, 0.02812871, -0.00983572, 0.00694912, 0.00084521, -0.03558769, -0.01231065, 0.04132611, -0.01180007, -0.01581472, 0.00971236, 0.00192529, 0.00991641, -0.01799698, -0.03315330, -0.01938505, 0.01768003, 0.04080127, 0.01074123, 0.04014995, 0.02024812, 0.00854940, 0.01384585, -0.02532490, 0.00769570, -0.02231426, -0.01284927, -0.03241939, -0.03852012, 0.03265221, 0.01033129, -0.00559110, -0.03035955, 0.01374440, 0.03764148, -0.02829449, 0.02753806, -0.04330077, 0.02069204, 0.00246569, -0.01581851, -0.04293697, 0.01793766, 0.04130388, -0.01442438, 0.01757294, 0.02493088, -0.02657451, 0.00442411, 0.02303284, -0.02053993, -0.00698827, -0.03468474, -0.01609353, -0.03721166, 0.01123813, -0.03728119, 0.00344847, -0.03704231, -0.03457627, -0.01377336, -0.03668188, -0.00632254, -0.02376343, -0.02250010, -0.03917177, 0.00484525, -0.01674968, -0.00337108, -0.00910403, 0.04081887, 0.00729352, -0.01349653, -0.01672973, -0.00701446, -0.03465246, -0.00647548, -0.00665452, 0.01099516, 0.04236724, 0.03471310, 0.03451650, 0.03804030, 0.04148695, -0.02303501, 0.00767739, -0.02087260, -0.03338061, -0.03013483, -0.02333716, -0.01214940, 0.02381650, 0.01758222, 0.02581185, -0.02975400, -0.02279721, 0.02647148, 0.02765571, -0.03988501, -0.01228063, 0.00563156, 0.01305281, 0.02457866, -0.02336952, -0.04374291, 0.01780751, -0.00520721, -0.04033208, -0.01330923, -0.01814801, 0.00281936, -0.00744427, 0.01562489, -0.03136773, -0.00497975, 0.04100325, -0.03832144, -0.04265358, -0.01764976, -0.04298437, 0.03635151, -0.04357323, -0.03869406, -0.02698102, 0.00845756, 0.03666018, -0.01085060, -0.00817615, 0.03229129, -0.00626071, -0.02750650, 0.00262629, -0.02543944, -0.03622856, -0.02551758, 0.03351894, -0.03106602, -0.03530310, 0.03883395, -0.02395320, -0.03375348, -0.01220452, 0.03743757, -0.01715678, 0.00543662, 0.00846066, -0.00416220, 0.03922031, 0.01186819, 0.00713546, -0.00449997, -0.01918996, 0.03548289, 0.03370377, -0.04156513, 0.04414747, -0.00128193, 0.00042084, -0.00557021, 0.02426405, -0.02397646, -0.01903963, -0.02486598, -0.01003266, -0.03728552, 0.04046774, -0.00687252, 0.00303288, -0.02889482, -0.00207184, -0.01336865, -0.02970165, 0.02354619, -0.00708939, 0.04072801, 0.00092262, 0.04063702, -0.01846837, 0.02336546, 0.01822614, 0.00531584, 0.01037714, 0.02275861, -0.04227193, 0.03672322, 0.04158341, -0.01521177, 0.02822616, -0.04266509, -0.01268453, 0.01291337, -0.04360611, 0.03483021, -0.03881392, 0.00379090, -0.02906270, 0.00763133, -0.00008306, -0.00144178, -0.00193615, -0.04319065, -0.02562062, 0.02867929, 0.03888429, 0.03804521, -0.02320349, 0.01661085, -0.00256771, -0.03443480, -0.00419926, -0.00831545, -0.01678441, 0.02772674, -0.04138582, 0.00603089, -0.01527157, -0.03123107, 0.01305864, -0.02518981, 0.00849051, -0.02652762, 0.00394323, 0.00526653, 0.04360706, -0.01114022, -0.00871323, 0.00972119, 0.00134580, -0.02731166, -0.00781562, 0.01530679, 0.02001360, 0.00199805, -0.02715615, 0.03121832, -0.04230056, -0.01551525, -0.00505931, -0.03591525, 0.02521914, -0.00124901, 0.03736474, 0.02865832, 0.02754627, -0.01573093, -0.01372810, 0.03851646, -0.02525369, -0.02227067, -0.03975771, -0.00309955, 0.01841413, 0.02031449, -0.01431374, -0.02764840, 0.02552357, -0.00218698, 0.01192121, 0.02794624, 0.02945323, -0.04013027, -0.02780576, -0.02291192, -0.02980079, -0.00304044, 0.01859621, -0.03584598, 0.02397351, 0.04073906, -0.03833227, -0.01251190, 0.00056996, 0.04169243, 0.00657689, 0.00904450, -0.02601863, -0.00746661, -0.03980441, -0.03214869, 0.02913355, 0.00816459, 0.03043480, -0.00547655, -0.00176022, -0.03509817, 0.01461579, -0.01072963, 0.03605575, 0.03340222, -0.03912162, 0.03467645, -0.02272699, -0.04197033, 0.03873273, -0.01902440, -0.02698903, -0.03304956, -0.01215872, 0.01728974, -0.01244117, -0.01500563, 0.02897782, 0.01420042, 0.02059970, 0.03391124, 0.03108210, -0.02959651, -0.03497404, -0.02330821, -0.02961350, -0.01561886, -0.02990235, -0.03359900, 0.03772672, -0.02468668, 0.01712404, -0.01355502, 0.00935960, -0.01334241, 0.00874556, 0.04362421, -0.03658996, 0.00229200, 0.03186365, 0.00980814, 0.02848249, 0.02499216, -0.03227509, 0.01746966, -0.00110954, 0.02169407, -0.01824374, 0.00651511, 0.00296064, -0.00430816, -0.00818312, 0.01196834, 0.03170016, -0.01576807, -0.01208790, 0.02545664, 0.00636026, 0.01109697, -0.03145980, 0.03406907, -0.04074283, 0.02395066, -0.02423939, -0.02411941, 0.02800117, -0.02609503, 0.01887935, 0.00620304, 0.03475521, -0.03998373, -0.01500616, -0.01865052, -0.02986700, -0.01813726, 0.04360935, -0.03709525, -0.00922937, -0.03746445, -0.00621576, -0.00884089, -0.03289588, 0.01549559, 0.01162597, -0.00223842, 0.02568536, -0.00387618, -0.03767284, -0.02806636, -0.03486535, 0.01297252, -0.02723057, 0.00142778, 0.00450302, -0.01508934, -0.04321682, -0.01827775, 0.01061232, -0.01688640, -0.00166017, 0.01458964, -0.03180718, 0.03382272, -0.03833063, -0.00829446, 0.02791740, -0.02889412, -0.01368496, -0.01148340, -0.01289272, 0.00153239, -0.00836481, -0.02230575, -0.03278414, 0.03322005, -0.00393143, 0.00293214, 0.03855623, 0.02878664, -0.03637595, -0.01238718, -0.00427144, -0.00766726, 0.04198904, 0.04289580, -0.01433825, -0.00785874, 0.02822519, -0.03614104, -0.03073607, -0.01041104, -0.01725866, 0.03084030, 0.02012467, -0.03609263, 0.02718586, 0.00859659, 0.00174386, -0.03022593, -0.03949622, -0.02318170, -0.01757027, -0.02694643, -0.02999749, -0.02771274, 0.00476984, -0.01997237, -0.00135629, -0.01551574, 0.02188903, -0.01175212, 0.03423164, 0.03948898, -0.00403609, -0.02686180, 0.01527583, -0.03175725, 0.02706959, -0.00584882, 0.01058216, 0.00653500, -0.04559650, 0.01037768, -0.04304292, 0.00662053, 0.01086733, -0.02587820, -0.02765574, -0.04283842, 0.03551512, -0.02241326, 0.00462037, 0.01280825, 0.02061059, 0.01135706, -0.03687957, 0.01578004, 0.01428459, -0.03567749, 0.02752057, -0.04605995, 0.01420602, -0.01538054, -0.03758130, -0.00217313, 0.03531787, -0.04040223, -0.03364439, 0.03529708, 0.00675875, -0.00888736, 0.03502426, 0.00835484, 0.02855500, 0.02205353, 0.01486751, -0.03831476, 0.00491990, -0.01086982, -0.03212394, 0.01039372, -0.00854359, 0.00941131, 0.01894119, -0.00622546, 0.00759330, 0.01468187, 0.03932464, 0.02332317, -0.03154187, 0.01436790, -0.02232408, -0.02300634, 0.01546709, -0.02191419, -0.04359665, -0.01792485, -0.03879220, 0.03044990, 0.04054679, -0.03208592, -0.04120123, 0.03599133, -0.03632082, 0.03487612, 0.00440754, 0.03537833, 0.00379614, -0.01627163, 0.03597116, -0.00487749, -0.00380350, 0.00764113, -0.00781036, 0.01431002, -0.01430081, 0.00912854, -0.01796349, -0.04332390, 0.00462652, -0.00234362, -0.01018326, -0.01967249, -0.04069306, -0.01808318, 0.03568596, -0.00515975, -0.02629934, -0.02641967, 0.01850095, 0.03642789, -0.00132663, -0.00240998, -0.01504346, 0.02820886, 0.03147810, -0.00106472, 0.00199578, -0.01568114, 0.00659481, 0.04237561, 0.02540170, -0.02507235, 0.00525885, -0.03051419, -0.00339620, -0.01783247, 0.03688590, -0.02308443, 0.02220963, -0.02121742, -0.02583566, 0.01119984, 0.02560125, 0.00901058, 0.00938741, 0.03641645, 0.00329488, -0.03126221, 0.03990627, -0.04040565, -0.03955322, 0.00031662, 0.02774974, -0.01772677, -0.03964296, -0.00606002, 0.03602291, -0.04105665, -0.03188822, -0.03752298, 0.00369079, -0.00194473, -0.00742792, 0.01114470, -0.01493154, -0.01593317, 0.00661390, 0.01703164, -0.03629537, -0.01686926, -0.03064247, 0.02752237, 0.00173672, -0.04923522, -0.04271139, -0.03925058, -0.00546011, 0.03770155, 0.03437129, -0.00187951, 0.02714962, 0.01986036, -0.02491729, -0.02367327, -0.03154808, 0.02143401, 0.01499690, -0.04272623, 0.01024387, 0.02581641, -0.04066161, 0.00552127, -0.04123052, -0.02438947, 0.02276239, 0.02610228, -0.03104487, 0.02710570, 0.02025429, -0.02984954, -0.00157432, -0.00416644, -0.00553434, -0.03395438, -0.04322563, 0.04075240, 0.00696825, 0.02124709, 0.04024338, -0.01944766, 0.03620782, 0.02603948, 0.01923844, -0.01555657, 0.01919901, -0.03017928, -0.01466353, -0.00313242, -0.00181573, -0.03518576, 0.01234438, 0.03047905, -0.03311113, 0.01967198, 0.01702200, -0.01984898, 0.04090101, 0.02208234, 0.01452248, 0.01611277, 0.00635513, -0.01392705, -0.01912821, 0.03016723, 0.00954456, 0.00176799, 0.01750351, -0.00160555, -0.04016056, -0.00888763, -0.00461765, 0.01868930, -0.01921807, -0.01822155, 0.02453455, 0.04029052, 0.03485318, 0.02214396, 0.03485828, 0.03720853, -0.00758598, 0.00782943, 0.02029167, -0.02894635, 0.00580422, 0.00279403, -0.02203756, -0.01835353, -0.04378745, 0.00256566, -0.02457930, 0.03650004, 0.00478937, -0.01436384, 0.02883652, 0.01398527, -0.02231576, -0.04040347, 0.00214685, 0.00884920, -0.02863293, -0.02293014, -0.00089841, -0.04373449, 0.03330233, -0.03002491, 0.02216079, -0.02572857, -0.02565687, 0.02846648, 0.02912624, -0.03806793, -0.02399619, -0.00144935, -0.03875722, 0.02798550, -0.02034998, 0.04006673, -0.02267384, -0.03535926, -0.04063109, 0.03202735, -0.04464692, 0.02771373, 0.01683204, 0.02364123, 0.01683046, 0.02658614, 0.04142761, -0.04339059, 0.02336057, 0.00410938, 0.00487038, -0.01389589, -0.03101758, -0.00460968, 0.03428940, 0.02897410, 0.02560812, -0.02439879, -0.00008600, 0.02926437, 0.00913427, 0.02400692, -0.00318313, 0.03292863, 0.00425058, -0.01925129, 0.00574817, 0.04216812, 0.04087213, 0.02314052, 0.00307641, 0.00743361, -0.04256576, -0.02837439, -0.01202565, 0.01797144, -0.03920393, 0.02120736, 0.01712649, 0.03224822, -0.02318193, -0.02418882, 0.00830051, -0.00556916, -0.02479462, 0.02129607, -0.03307028, 0.01267619, 0.03705756, 0.03333281, -0.02865315, -0.03269221, 0.02822307, 0.02980112, 0.03747851, -0.02773726, -0.04350660, -0.02831016, 0.03518230, 0.00827189, -0.01430549, 0.00236300, -0.02795606, -0.03091911, 0.01536717, -0.03910626, 0.02413337, -0.01890886, -0.03380452, -0.03255521, 0.01041295, 0.00211521, 0.01795472, 0.00595009, 0.00202685, -0.02113057, 0.01667437, -0.02928461, -0.01241186, -0.03091429, -0.00916521, -0.02164764, -0.02676958, 0.01094872, -0.01558356, -0.03059236, -0.00085403, 0.02443733, -0.00590295, 0.02973319, -0.01127057, -0.03901356, -0.04353393, 0.03376602, -0.03435417, -0.00955874, 0.00994210, -0.00408996, -0.01608965, 0.01705022, -0.00166296, 0.00693554, 0.01636820, -0.04496145, 0.00353890, 0.02142896, -0.04068250, 0.03070615, 0.00702255, 0.03645140, 0.00262695, -0.03004864, -0.00574022, -0.00510685, -0.00683023, 0.03382521, -0.00068356, -0.00040179, 0.01344969, -0.01004829, -0.01346497, 0.01006855, 0.00623165, -0.02044086, 0.02969888, -0.01336086, -0.03003197, 0.02957990, -0.02620298, 0.01094043, 0.02631796, -0.02622087, -0.01109999, -0.00361633, 0.03503029, 0.03874693, -0.02731902, 0.01738979, 0.01970569, 0.04087741, -0.01926226, 0.03591490, -0.02490728, -0.00750373, -0.02100699, 0.03183890, -0.01328048, -0.02491073, 0.02671915, -0.00508427, -0.02744398, -0.02216734, 0.04232853, 0.02887331, 0.00019820, -0.04733750, -0.02052936, -0.03623464, -0.02371057, 0.01156740, 0.03121375, -0.00418816, -0.03193163, -0.03274033, -0.01756704, -0.00782276, 0.00641614, 0.00625671, -0.02343176, 0.00594338, 0.00503276, -0.01756561, 0.00881623, -0.02602308, -0.02583881, -0.03262218, -0.01660259, 0.02328769, 0.02166213, -0.04147513, 0.01877457, -0.01654976, -0.03527946, 0.00411598, 0.00909539, 0.00239752, 0.03113664, -0.02113615, -0.00380030, 0.02617361, 0.01570158, 0.01653061, -0.02546578, -0.01031076, -0.00062416, -0.01635512, -0.04262483, 0.02481257, -0.02683967, -0.04407750, 0.01901375, -0.01272727, 0.02017614, 0.00362822, -0.03956687, 0.00806299, -0.00509009, 0.03285049, 0.00362414, 0.01986054, -0.02848142, -0.04048593, 0.03320208, -0.00089894, -0.00043224, -0.01976695, -0.04396326, 0.02589618, 0.00008510, 0.03404140, -0.00738008, -0.00996179, 0.00610139, 0.02814866, 0.03406601, 0.01787625, 0.02968846, -0.02785815, -0.02545670, 0.01481163, -0.02439172, -0.01648191, 0.03245921, 0.00205616, -0.00905897, -0.01468811, -0.02003762, -0.00432942, -0.01758177, 0.00564118, 0.02384527, 0.01921512, 0.01460624, -0.03939680, -0.01823801, -0.00700298, 0.01331789, 0.00522812, -0.03876373, -0.01431238, 0.02290813, -0.01052593, 0.02401058, 0.03023737, -0.04278090, 0.01356795, -0.03927532, 0.02378439, 0.02524627, -0.03067124, -0.01680581, -0.04157528, 0.03714465, 0.02466973, 0.03934117, -0.04722050, -0.02560491, -0.04089725, 0.01373988, 0.01148021, -0.01390474, 0.03088460, -0.02197230, 0.02685254, 0.00715732, -0.01449668, 0.04414060, 0.02703722, -0.01022817, 0.04448041, 0.01680295, 0.02144386, -0.05202311, 0.01255109, -0.03561413, 0.04663385, -0.03906803, -0.03711241, 0.03660271, -0.03796135, 0.00250975, -0.00506523, 0.00068993, -0.02013754, -0.02183449, -0.01465367, 0.00141281, 0.03330611, -0.00684394, 0.03304370, -0.02642346, -0.01125976, -0.04599901, -0.00587646, -0.02912988, -0.03367739, -0.02967971, 0.02384457, 0.03052197, 0.00475889, -0.00314588, 0.00898362, 0.01330377, 0.02875705, 0.01574312, -0.01465505, -0.01881908, 0.00383712, 0.00276241, -0.03738377, 0.04399791, 0.03589519, -0.02849085, -0.03991117, 0.01433964, 0.02613984, 0.02645073, 0.04071343, -0.01883070, 0.00835729, -0.00618982, -0.02736228, -0.04476728, 0.03013789, 0.00353923, -0.00593285, 0.02330171, 0.00303797, -0.03594406, 0.01550821, 0.00027082, 0.04326290, -0.01357187, -0.00377132, -0.00539654, -0.00578036, 0.02863496, -0.03245530, -0.00149047, -0.00093748, 0.03810453, 0.01373428, -0.03058532, -0.04457282, 0.02113375, -0.00345074, -0.02336995, -0.00788887, 0.03934338, 0.01837699, -0.00782925, -0.03165231, 0.02973464, -0.00147819, 0.00278971, 0.01788214, -0.00994003, -0.02435167, -0.02832948, -0.03039091, -0.02213676, 0.01611328, 0.02595350, 0.02816791, 0.01251432, -0.00622270, 0.00738018, -0.01028068, -0.03623972, -0.00946754, 0.02461008, 0.01862676, -0.00677197, 0.00844765, -0.02812685, 0.01195050, -0.00785211, 0.02603202, 0.01544417, -0.01180994, -0.01279561, -0.02013395, -0.05285593, -0.01191180, -0.01516277, 0.00015193, -0.04905434, -0.01664003, -0.04212270, -0.01519483, 0.00619753, 0.01959876, 0.00971209, 0.00860704, -0.02898974, -0.03989332, 0.00628657, -0.03391647, -0.01896730, -0.04052941, -0.02537239, 0.02212042, -0.01856795, 0.01480442, -0.00952767, -0.00710286, -0.03281005, 0.02032905, 0.04086158, 0.04493026, -0.01940200, 0.01734253, 0.01427660, 0.02893837, 0.00162195, -0.03949169, 0.04092570, -0.00136087, 0.02583106, 0.02533804, 0.00660737, -0.01631642, 0.02072510, -0.04185482, -0.04335670, 0.01921535, -0.00882613, -0.00047931, 0.02697944, -0.02159397, 0.02805069, -0.01783445, 0.01335330, -0.02266551, 0.01692533, 0.01545467, -0.00079670, -0.00763954, 0.01462882, 0.00324213, 0.04089004, -0.03721461, -0.00588395, -0.05054935, 0.02109622, 0.00513094, -0.03216435, -0.02504471, 0.00145570, 0.03732296, 0.00059686, -0.00880773, 0.00578766, -0.02280482, -0.00736380, 0.02489219, -0.03193861, -0.01181191, 0.01508723, -0.03381609, 0.02699604, 0.02514260, 0.02421727, -0.02512869, 0.02833177, -0.01978046, 0.02264580, 0.02267027, -0.04212720, -0.02365814, -0.02295718, -0.04575425, 0.02891400, -0.00578998, -0.00096209, -0.00862381, -0.04306226, -0.00723731, -0.02542790, 0.03216740, 0.03980028, -0.02125952, 0.00562324, 0.01505478, 0.01761231, -0.03566155, -0.02087831, -0.01935252, -0.01394723, -0.04112189, -0.01218753, -0.00519681, 0.02376546, 0.00203477, -0.05630707, 0.01853979, -0.00244044, 0.03853310, 0.02026375, -0.03254285, 0.01025138, 0.02391497, -0.04177130, 0.02919013, 0.03047891, 0.01709894, 0.03616273, -0.04886516, -0.01821470, 0.00689896, 0.01071605, 0.00848407, -0.03666453, -0.04156571, -0.02196647, -0.00035031, 0.01183100, -0.02922592, 0.01673011, 0.01523006, -0.00467567, -0.03476428, 0.02001912, 0.02064003, 0.02091644, 0.01658230, -0.03027698, -0.00972978, 0.03038125, -0.03056589, 0.00238719, 0.02658188, 0.00939486, -0.02195845, -0.02032349, 0.00513089, 0.01580432, 0.04303075, -0.01338442, -0.03042040, -0.03930806, 0.03213018, -0.00273527, -0.03488403, 0.04324389, 0.00649895, -0.01190504, -0.01877547, -0.03078645, 0.01634285, -0.00811507, 0.03097718, -0.03311462, 0.00312077, -0.00304329, 0.04035882, -0.03153658, 0.01310738, -0.04102974, -0.04875009, 0.03465635, -0.03821425, 0.00584020, -0.02685344, -0.02635272, 0.02250803, 0.02530206, -0.00619990, 0.04081718, -0.04442215, -0.02928295, -0.03883632, 0.00562618, -0.00003377, 0.01898234, 0.02819223, -0.03256534, -0.01564946, -0.02505535, 0.01616311, 0.02677937, -0.03820488, -0.03051552, -0.02013619, 0.01806226, -0.00115362, -0.03352657, 0.01673131, -0.04436746, -0.03235193, -0.02486775, 0.03688143, 0.00982842, 0.03692354, 0.03025938, -0.03522150, 0.03502573, -0.02648716, 0.00355783, -0.03558914, -0.01021641, -0.01996342, 0.00978613, 0.00329470, -0.00629291, -0.03937630, -0.00313633, -0.00167698, -0.04480375, -0.01591728, 0.03526638, -0.03744922, -0.00005155, -0.02488866, -0.01634380, -0.02668518, -0.01717564, 0.01692503, -0.02885120, -0.04252492, 0.02786571, 0.01740086, -0.02576789, -0.02443060, 0.00188867, -0.03462086, 0.01754263, 0.04100761, 0.02584167, -0.02464272, 0.00574256, -0.04748737, -0.03333459, -0.01723837, 0.00326363, -0.03939194, -0.00026626, -0.02306693, 0.02041371, 0.01655130, -0.01285454, -0.00528754, -0.03064938, 0.01081641, 0.01199819, -0.01262054, -0.03282033, -0.01480747, -0.00617649, -0.02417773, 0.02154887, 0.00972279, -0.03778723, -0.02208404, -0.00200791, 0.01873535, -0.02870973, 0.00062621, 0.00936445, 0.00356251, -0.04266721, -0.04355780, 0.01522989, -0.00109618, 0.03098802, 0.04135913, -0.05048012, 0.00754841, -0.03910816, -0.00926033, -0.01029903, 0.01213807, -0.00677054, 0.01999330, -0.01453799, 0.00044263, 0.03420564, -0.01023480, 0.01720618, 0.03503400, 0.00580260, -0.01115588, 0.03274370, -0.02171741, -0.00753055, -0.01747339, 0.02940132, 0.01679704, 0.00387011, -0.01591048, -0.01374131, -0.01629375, 0.01321197, 0.00583114, 0.02184548, -0.02093676, 0.02948912, 0.02194275, -0.01021049, -0.04276289, -0.01492626, -0.01789486, 0.00209206, -0.03556825, 0.02984402, 0.00551279, -0.04892405, -0.02790527, -0.03988082, -0.04053231, -0.04171208, 0.02023514, 0.01710132, -0.00772609, -0.02937702, 0.01228642, 0.02924527, -0.01222539, -0.02308232, -0.04280283, 0.00974766, 0.00777158, 0.01097958, -0.00533281, -0.02006825, -0.02465061, -0.03642423, -0.00900132, -0.03771270, -0.02036959, -0.00925746, -0.00209536, 0.05105651, -0.00545082, -0.03482446, -0.02652477, -0.03612532, 0.01546242, -0.02836688, -0.03802380, -0.03894965, -0.03593514, 0.00948065, -0.03867652, 0.03660842, 0.00931379, -0.03854062, -0.01161407, 0.02801321, 0.00586301, 0.02182593, -0.02296978, 0.00884865, 0.02994022, -0.00936276, 0.01168237, -0.04347295, 0.01472332, 0.02072322, -0.01586384, -0.02111879, -0.03549746, 0.01906852, 0.01267710, -0.02747417, -0.04384362, 0.00903128, -0.00869858, -0.03625413, 0.01467101, 0.02819150, 0.00211463, 0.02072270, 0.00928856, -0.01065894, 0.01398662, -0.02737036, -0.03043393, -0.01760729, -0.01273537, -0.02487544, -0.01796400, -0.01660208, 0.02003878, -0.03338100, -0.02509848, -0.01225362, -0.02560609, -0.03421920, -0.01819455, 0.03321689, -0.01471311, -0.01027791, -0.01799778, -0.02102237, 0.00962558, -0.00019638, 0.03094187, -0.03822365, -0.00917171, -0.04965071, -0.02852084, -0.00113779, 0.02220154, -0.00982480, -0.02854943, 0.01491002, 0.01378917, 0.03968432, -0.04033381, -0.03711478, -0.03336600, -0.00246606, -0.01491088, 0.01177515, 0.01867710, -0.02752805, 0.01755714, -0.02999870, 0.00510405, -0.02546305, 0.01554552, 0.03283452, 0.04057249, 0.01383058, 0.01009561, 0.01545713, 0.02655392, -0.05752694, -0.01336153, 0.02217758, 0.00725506, -0.04302255, -0.06050786, -0.00663842, -0.00043334, -0.03726743, -0.02613376, -0.03571105, 0.02203425, -0.01380035, -0.04261952, 0.01623818, -0.03011736, 0.03057106, 0.00185613, -0.01502677, -0.04452354, -0.03052683, 0.03614863, 0.02535783, -0.03870120, -0.02247091, 0.03698445, 0.02157293, -0.03268945, -0.04087587, 0.02995684, -0.04797850, -0.01207745, 0.03338075, -0.02584114, -0.02093292, -0.04989208, 0.02204213, -0.02598987, -0.03398801, 0.00387758, -0.03953045, 0.00565954, 0.01741798, -0.03310172, 0.02660651, 0.02767590, -0.02896012, 0.02035796, -0.04988442, -0.00967946, 0.04634244, 0.02923452, -0.04728168, 0.03472338, 0.01286622, -0.02532475, -0.01295130, 0.00956086, 0.01219676, -0.00290428, 0.00203941, -0.01977693, 0.02656603, 0.00201289, -0.03413802, 0.00254863, -0.03105643, -0.03215499, 0.00125456, 0.00767863, -0.04325739, 0.01668003, -0.00652395, 0.00291462, -0.00654500, 0.01996460, 0.02392032, 0.01845964, 0.03515172, 0.03447412, 0.02981154, 0.03202831, 0.01335882, -0.02529030, 0.02185999, -0.02083160, -0.00823728, 0.01442980, 0.00800688, -0.05740933, -0.01117453, -0.03405286, -0.03924356, -0.02002662, -0.04308679, 0.02811586, 0.02454818, -0.03458364, -0.03972678, -0.00464362, 0.04006760, -0.04079312, 0.01208906, 0.00110027, -0.03279812, 0.04064380, -0.02382417, 0.02080464, 0.03208207, 0.02362617, -0.00500637, -0.03872125, -0.02915478, -0.01705202, 0.00538659, 0.02932670, 0.02106697, 0.03188230, 0.02046170, -0.03703690, -0.02792894, -0.02903288, 0.01219287, 0.02167730, -0.03606325, 0.00981938, -0.01340189, -0.03771985, -0.04956724, 0.01310363, 0.01784414, -0.00574135, 0.02755570, 0.05343933, 0.02058276, -0.01043145, 0.00747116, -0.01643598, -0.00096176, 0.01727805, -0.02631249, -0.02155365, 0.01758205, 0.03118736, 0.01978224, -0.00082028, 0.02460806, -0.03300996, 0.03536352, -0.00055289, 0.03206535, 0.03208436, 0.01315684, 0.01836739, 0.02625885, 0.00412953, 0.00629186, 0.02008197, 0.04323444, 0.00939130, -0.03210334, 0.03060861, -0.02747517, 0.00534572, 0.01305336, -0.04794669, -0.01871208, 0.07623442, 0.02433554, -0.01597793, 0.01599197, 0.02236984, -0.00958893, 0.00765156, -0.06128755, -0.03780578, -0.02173164, -0.02359936, 0.01349176, -0.00029628, 0.01295606, -0.03181064, 0.00920996, -0.03340355, 0.03006210, -0.00250376, 0.00099268, 0.00582044, -0.00453963, -0.04668182, 0.02873151, 0.02196665, 0.03304511, 0.01686581, 0.02724378, -0.04109182, -0.00230636, -0.00859392, 0.00678793, 0.03375253, -0.00850935, -0.04700590, -0.01198044, -0.00713774, -0.01831798, -0.01709751, 0.01533827, -0.00411636, -0.01244334, -0.04244113, -0.01468607, -0.00963221, -0.04905023, 0.00640474, -0.02891712, -0.03433714, -0.01901416, -0.01685945, 0.01336981, 0.00101817, -0.04750545, -0.03627349, -0.04130551, -0.03565232, 0.02116608, -0.01493643, -0.03958890, -0.00837814, -0.05134388, -0.00541198, -0.05098456, -0.03835593, 0.01943037, 0.02086364, 0.02292828, 0.03707104, 0.01384690, -0.03239096, 0.00286213, -0.02618081, -0.01957052, -0.02597006, 0.00470539, -0.01086313, -0.02824174, -0.04128234, 0.03284225, 0.00965718, -0.02044542, 0.02412203, -0.04660506, 0.03381111, -0.00694853, -0.00004282, 0.00562847, 0.03059124, 0.02775919, -0.04160229, -0.03987433, -0.01827591, 0.04057804, 0.00308515, 0.01970481, -0.04367639, 0.02302724, -0.03291870, -0.00265151, 0.03701550, -0.02931496, -0.01006871, 0.00566116, -0.04861898, 0.02636757, -0.01016142, 0.02134645, 0.01051069, 0.03361544, 0.00794802, -0.02510544, -0.03695394, 0.03310225, 0.03713146, -0.00192457, 0.00169949, 0.02237932, -0.01957963, -0.06172507, -0.01237615, -0.00924077, 0.02626360, 0.01320284, -0.00004790, -0.02172886, -0.02404324, 0.02770348, 0.00807589, -0.01031888, -0.02599169, 0.00263265, -0.01910711, -0.02263185, -0.00954196, -0.01330530, 0.00596280, -0.02238471, -0.02871589, 0.00831008, 0.01975602, -0.04274908, 0.02573909, 0.00702465, -0.03416104, -0.03719197, -0.02326061, -0.01565104, -0.03072248, 0.03127198, -0.04547743, 0.02248294, -0.01256189, -0.04722701, 0.01409836, -0.03860968, -0.04916866, 0.01044859, -0.02766261, 0.03498365, -0.02301913, 0.02101636, -0.00007576, -0.03892783, -0.03693979, -0.04640589, -0.00048326, -0.01669439, -0.03464222, 0.03485909, 0.02593290, -0.04819252, -0.03452960, -0.04483663, -0.02045396, -0.04343375, -0.00374137, -0.01361938, -0.00152011, -0.01312103, -0.05062187, -0.04859842, 0.01159540, -0.02969831, -0.02649256, 0.00816764, -0.00606574, 0.00443044, -0.03415659, 0.03758284, -0.01751841, -0.04014091, -0.02318112, -0.05062370, 0.03159567, -0.02228964, -0.03816492, 0.03660135, 0.01734101, -0.04983136, 0.00696672, -0.02593429, -0.00060235, -0.02202839, 0.00456738, -0.00874539, 0.02436921, -0.03013634, -0.00139287, 0.02817818, -0.05404648, 0.02608447, -0.01503636, -0.00235161, -0.04078319, -0.03819835, 0.01477299, -0.03994493, -0.00278350, -0.00341403, 0.02753907, -0.01598922, 0.00928678, 0.03411002, 0.03519908, -0.02040926, 0.01525214, 0.01356730, -0.05318360, -0.00551156, -0.03601964, 0.01546853, -0.03755406, -0.04355763, -0.03629335, 0.02229097, 0.01577245, -0.00206258, -0.03732977, 0.00336928, -0.00250987, 0.00538907, -0.07427789, 0.01681422, 0.00319767, -0.03510397, -0.00833666, 0.03111892, -0.02640293, -0.04521073, -0.02017342, 0.03194297, -0.01989583, 0.00566855, 0.01140913, 0.02739721, 0.01461748, 0.03414831, -0.05024894, 0.01333033, -0.00718527, -0.03570617, -0.03385116, 0.02925684, 0.03882113, -0.01197718, 0.00750665, 0.03057945, 0.02999344, -0.03138659, -0.02037090, 0.02469308, -0.03791000, -0.01446004, -0.02304200, -0.01306542, -0.00440163, 0.03589266, 0.00761744, 0.03733139, -0.00540415, -0.02780783, 0.01923603, 0.01086447, -0.01816871, -0.04316083, -0.01828372, 0.02782659, 0.02663342, -0.04784328, -0.00258839, -0.03389623, -0.03367868, 0.02603219, 0.01523430, 0.02027135, -0.01432053, 0.01830640, 0.02382587, 0.03386833, -0.03149405, -0.02638965, 0.02295804, 0.01281892, -0.03877493, -0.05809280, -0.01941260, -0.01426042, 0.02075744, 0.03888956, 0.00509175, 0.02286405, -0.02919879, -0.02833803, 0.03510660, 0.02534694, 0.03043011, -0.01588297, -0.02332942, -0.04208972, 0.02441761, -0.04137822, 0.00395197, -0.00346707, -0.01508612, 0.00838331, 0.00093222, -0.00214616, 0.03194242, 0.00181435, -0.03187150, -0.03991934, 0.03792593, -0.03474819, -0.01175119, 0.02550239, 0.03513926, 0.02600979, -0.02016006, -0.00637230, -0.04026272, 0.01212521, 0.03199998, -0.00542809, 0.01750810, -0.02114581, -0.01315627, -0.00115451, 0.03275093, -0.03051382, 0.02594782, 0.01371875, 0.02184175, -0.01303234, 0.03349352, 0.00829857, -0.04015266, -0.03325764, 0.01997529, -0.02896836, -0.00288062, -0.04728410, -0.00102412, 0.01316799, -0.04458199, -0.00769039, 0.02491073, 0.02501773, -0.03697001, -0.02755891, -0.01815388, 0.01511074, -0.00672756, 0.02800489, 0.03119567, 0.03812407, 0.03321319, 0.02767142, -0.01713627, -0.04393405, -0.03270649, 0.01597985, -0.04072795, 0.02072243, -0.02561689, -0.00522886, -0.01221325, 0.01202967, -0.00323120, -0.01763720, -0.00880833, 0.00783835, -0.01614245, -0.01412643, -0.03785264, 0.02207530, 0.00586268, 0.00746657, -0.00524984, -0.00040876, -0.01329699, 0.01190363, 0.02868766, -0.04854071, -0.00381019, 0.01642424, -0.03780302, 0.00460048, -0.03967102, 0.01413804, -0.03794440, 0.03240405, -0.00726354, -0.04075370, -0.00061421, 0.03668422, 0.02667599, 0.01798789, -0.00799601, 0.00724460, -0.01183722, -0.02069510, -0.03470564, 0.01666916, -0.01401501, -0.01891699, -0.03706357, 0.03591931, -0.03838046, -0.00253652, -0.03242738, 0.01554247, 0.02542362, 0.03758016, -0.00278340, -0.03693775, -0.00633165, 0.01121467, -0.00700476, -0.01144259, 0.03666410, -0.00522729, 0.01414853, 0.01215689, -0.00159212, 0.00549291, -0.02878320, -0.04631091, -0.02324489, 0.02157093, -0.04677271, -0.00249205, -0.04328469, -0.00888343, 0.02786837, -0.02620645, -0.00354737, -0.03505393, 0.03435195, 0.02391868, -0.02013696, -0.02023954, -0.01252532, -0.02686294, -0.02824123, 0.00773060, -0.00800424, 0.01068212, 0.02134755, -0.05720928, -0.02336997, -0.01144595, 0.00208000, -0.03007568, -0.03263714, -0.02533834, 0.03832747, -0.01269699, 0.02997560, -0.01033993, -0.00865983, -0.02027324, 0.00876192, -0.03721435, 0.03853394, -0.03138471, -0.00566433, 0.00856075, 0.03514783, 0.01620132, 0.03204602, -0.00144394, 0.02416799, -0.02879727, -0.03013356, -0.00427805, -0.03345783, 0.00874257, 0.01947668, 0.00969223, 0.01355837, -0.02982190, -0.00109988, 0.02374751, -0.01070388, 0.01397966, -0.02146828, 0.02854998, 0.00123442, 0.03516309, -0.03973449, -0.01767961, -0.04551110, -0.00752129, -0.01769538, -0.00013829, 0.01075317, 0.01105367, -0.04567702, 0.02275164, -0.03860280, 0.01293605, -0.01051851, -0.01001803, -0.03009488, 0.02057633, -0.03498813, -0.00498588, -0.03653427, -0.03945769, 0.01042302, -0.01977085, -0.05052017, -0.02553280, -0.04076217, 0.03167294, 0.03740673, 0.03185314, -0.01768899, 0.02890896, 0.02993401, -0.01770359, -0.01345047, 0.02092823, 0.00460512, -0.04551653, 0.00013259, 0.03611802, -0.00243024, -0.03773151, -0.00847617, 0.00257551, 0.02620330, -0.04376853, -0.01408392, -0.01597014, -0.02194631, -0.04030935, 0.04091957, -0.01644975, 0.02136915, 0.02561694, -0.02820938, -0.00209377, 0.01755378, -0.00018783, -0.03582672, 0.00217026, 0.02941240, 0.03566586, 0.01524653, 0.03269609, 0.00315176, 0.00393861, 0.02467171, 0.01379835, -0.01041472, -0.00987355, -0.01942435, 0.00758062, -0.03699309, 0.00376622, -0.03279972, -0.02601531, 0.03885249, 0.01092784, 0.03176102, 0.02544796, -0.01831275, 0.02426245, 0.02115399, 0.03897917, -0.02822605, -0.03313240, -0.04580718, 0.00086137, -0.03167602, -0.03969887, 0.03566631, 0.03707305, 0.03396995, -0.00674801, -0.04527581, 0.01489064, 0.04142162, 0.03023216, -0.02044489, -0.04196177, 0.03268790, -0.00194071, 0.03430846, 0.00523865, -0.00589118, -0.03363398, 0.01160650, -0.02705983, -0.02651429, -0.00203180, -0.01757266, 0.03952777, -0.01171934, 0.02048427, -0.02956445, 0.03493543, -0.02118819, -0.04570952, -0.00292009, -0.01215442, -0.04458774, -0.03572809, 0.02433223, 0.01222571, -0.00433071, 0.00119222, -0.01942698, -0.01214210, 0.03482811, 0.03371901, -0.03120145, 0.03405487, -0.00216076, -0.01882662, 0.03661930, 0.02401834, -0.04267221, -0.01557317, 0.03011973, -0.02769708, 0.03720085, -0.04566245, -0.02865635, 0.03372403, 0.00848946, -0.01998794, -0.03551748, 0.00023154, -0.00568008, -0.05348207, -0.02936467, -0.00734455, -0.04531810, -0.01896112, 0.01645616, 0.00121860, -0.00948527, -0.04907534, 0.00063069, -0.00657216, 0.00642996, -0.03771858, 0.02160351, -0.00480204, 0.01162171, -0.04891869, 0.03919755, -0.02851059, -0.01220760, -0.00985922, -0.03005948, 0.01238510, 0.02398317, -0.05447733, 0.02035080, 0.00311957, -0.01805476, -0.03053298, 0.03166490, -0.03953740, -0.02862708, 0.00715945, 0.00464484, 0.02388942, -0.00929927, 0.00460822, -0.01909937, -0.01379349, -0.02549816, -0.00741408, 0.00286483, -0.01778021, -0.04126929, -0.02772521, -0.02903870, -0.03124628, -0.02143803, -0.03997095, -0.02866901, 0.01096935, 0.03950312, -0.00281123, 0.03188555, 0.02784491, 0.02396095, 0.01175014, 0.01746145, -0.00984638, -0.02778079, 0.03775315, -0.01252201, -0.01140374, 0.00006426, -0.00637882, 0.00940637, 0.03845160, 0.03494370, -0.03289820, -0.03917105, -0.04389319, 0.00350405, -0.03744895, -0.03304669, -0.04596883, -0.02480764, -0.02893735, -0.02715529, -0.02611645, -0.03308566, 0.00424039, -0.00742932, 0.00657031, 0.00259751, -0.02347508, 0.01569766, -0.03527109, -0.02162061, 0.01731187, -0.04368441, 0.03233916, -0.03620341, 0.03693670, -0.03594849, -0.03176946, 0.00146546, -0.00014976, -0.01122210, -0.04586313, -0.04474402, -0.02847798, -0.02342851, 0.00417701, -0.01301577, -0.04718382, -0.02966704, 0.02964885, 0.01118052, 0.00655756, -0.02467760, 0.02030724, 0.00306776, 0.00767851, 0.00066090, 0.01276816, 0.03924826, -0.02047715, -0.02308753, -0.02049513, -0.02246695, -0.03898792, -0.01050759, -0.03408331, 0.01574261, -0.00142053, 0.01244460, -0.01091678, 0.03433555, -0.00583131, -0.04208917, -0.03208180, -0.02138279, 0.01732599, 0.00096806, 0.01789597, 0.01436025, 0.00849269, 0.03450892, 0.01183079, 0.02061399, -0.00835187, -0.04089882, 0.00644448, -0.00924924, -0.01040210, 0.03810171, -0.02769152, 0.03068745, -0.03641171, -0.03259556, 0.03564320, -0.02690324, -0.03102999, 0.00137831, -0.04266370, -0.03867370, -0.02147415, -0.00278541, -0.01517420, -0.00637044, -0.00717326, 0.04230837, -0.01525402, 0.02424549, -0.04568824, -0.03921918, -0.03186461, -0.02666572, -0.00176076, -0.02745081, -0.04508469, -0.03782598, 0.02497716, 0.03687977, -0.00554121, -0.01838787, 0.01732370, -0.02195791, -0.01574070, -0.04963048, -0.03974816, -0.02516691, -0.00363451, -0.02734316, -0.02008423, 0.02769091, -0.02926258, 0.00981899, 0.03369737, 0.00085849, -0.00665786, -0.01580965, -0.02445216, 0.01591633, 0.03432192, -0.03005843, -0.00018921, -0.03524522, -0.00985918, -0.02392642, 0.02022070, 0.01744408, 0.01403392, 0.03182316, 0.00749391, -0.00090163, 0.02247114, 0.00414674, -0.01755304, -0.00783784, 0.02894079, -0.04119532, -0.03797318, -0.00424520, 0.00977263, 0.02727421, 0.02663085, -0.04410529, -0.04411243, 0.01868264, -0.02796906, 0.01869250, 0.02681917, 0.02649332, -0.04403025, 0.02919007, 0.02400309, -0.00765874, -0.00032458, -0.00170503, -0.04030831, -0.04633899, -0.02165443, -0.03728320, -0.03174409, 0.03291181, 0.02254129, 0.03528443, 0.00138838, 0.00751463, -0.03372984, 0.03524266, 0.02615890, 0.01894851, -0.01580141, 0.03047903, 0.03439240, -0.00023474, -0.00634000, -0.02627777, -0.00684503, 0.01796491, -0.01378606, -0.01581260, -0.01949268, -0.03488691, -0.03711439, -0.00038393, -0.00851139, 0.01724317, -0.02543519, -0.03755098, -0.01055594, -0.03008641, -0.01473271, 0.00887099, 0.03757668, 0.01768191, 0.01027894, 0.01737637, -0.03267986, -0.02291812, 0.00536265, -0.00247192, 0.02217657, -0.00173382, -0.04752500, 0.01785677, 0.02716630, -0.03557855, 0.01736557, 0.01503617, -0.03859917, -0.01280966, 0.02788317, -0.04307922, -0.00286441, 0.02171420, 0.00105752, 0.00447693, 0.01288452, 0.02879531, -0.04139070, 0.02711451, -0.02922398, -0.00989584, 0.00836810, -0.04281237, -0.04183639, -0.00049525, -0.04380098, 0.02759945, -0.03162133, 0.00214574, -0.00531503, 0.00776418, -0.04004296, -0.02281638, -0.02323672, 0.01154131, -0.02517268, 0.01352710, -0.00390933, -0.05181335, 0.01805899, -0.04686139, -0.01176799, 0.02770115, -0.00250656, 0.03520772, 0.00149989, 0.00354974, 0.02853741, 0.02884678, -0.02947535, 0.03010907, -0.04406838, -0.03648776, -0.03374299, -0.01527658, 0.03808307, -0.01034694, 0.03053633, -0.02511283, 0.01231037, 0.00252053, 0.01555631, -0.03551548, 0.00200423, -0.01509679, 0.03445931, -0.03052022, -0.02258617, 0.02085542, -0.02465612, -0.00724533, 0.00121133, -0.04711352, 0.02341275, -0.00661879, -0.04473470, -0.03470564, -0.02779495, 0.01579947, -0.02171949, -0.01021898, 0.01622942, 0.00448456, -0.00754292, -0.01579929, -0.02081842, -0.01726650, -0.02248403, 0.02338628, 0.02082882, -0.00283703, 0.03680092, -0.01510133, 0.01108101, 0.01728677, -0.00520640, -0.03663813, 0.01964538, -0.01607084, -0.04282786, 0.02138171, -0.04670401, -0.01145210, 0.00392179, -0.03689231, 0.02735529, -0.01945611, 0.01446615, -0.03263469, -0.02257415, -0.03278547, -0.03576919, 0.00802812, 0.03105405, 0.03685617, 0.02591372, -0.01578761, -0.01951316, 0.00798023, 0.00154090, -0.01069564, -0.04134506, 0.00727035, -0.02045125, -0.03849553, 0.00206370, 0.01070016, 0.01307608, -0.03921378, 0.00687678, -0.04576320, -0.04813730, -0.02192614, -0.02581960, -0.03283716, -0.00520060, -0.02438931, 0.00314507, 0.01317871, -0.01752166, -0.03882749, 0.03522572, -0.02925714, -0.03842671, -0.01708503, -0.01798010, 0.01829007, 0.00111336, 0.01450422, -0.03226365, -0.00880714, -0.00485180, 0.01252360, 0.02557008, -0.04968952, -0.04135296, 0.00105827, 0.00816312, -0.03025418, 0.00365282, -0.00715463, 0.00057016, 0.03271925, -0.03191423, -0.00316467, 0.03245333, -0.00864754, -0.00925793, 0.01967257, 0.03037767, -0.04673176, -0.03029550, -0.03752739, 0.02410367, 0.00867061, -0.03380088, 0.01136736, 0.02895804, -0.01229824, -0.04361142, -0.02510417, 0.02140675, 0.02163083, -0.02923205, -0.02309920, -0.03059465, 0.02199703, -0.03937892, -0.03255168, 0.00194864, -0.04880387, -0.04359666, -0.00724213, 0.03351574, -0.00089220, -0.02734088, 0.02737891, 0.00316016, -0.03071372, 0.00339668, -0.01705323, 0.01393035, -0.00742909, -0.04672899, -0.02015956, -0.01433768, -0.03646678, -0.04755558, 0.02714558, -0.01447089, -0.01597601, 0.00338281, -0.01082663, -0.03115526, -0.03315582, 0.03213818, 0.01707577, -0.01223917, -0.03456178, 0.02414424, -0.02462067, 0.03758068, -0.04102080, -0.01645076, -0.03039336, -0.01621227, 0.03126902, 0.03366514, -0.00507680, -0.02267768, -0.00463080, 0.01144662, 0.03143943, 0.03141300, -0.04193956, -0.02493719, 0.01306919, 0.00478691, 0.03350447, 0.01265709, -0.00745076, -0.03747263, 0.02833642, -0.00301411, 0.01986869, 0.02696972, -0.01119421, -0.04175489, 0.00085375, 0.01767472, -0.01572284, -0.01155527, 0.03381631, 0.01169370, 0.00998647, 0.02498295, -0.03519339, -0.00528440, -0.00113057, -0.01658226, -0.04498250, 0.00592755, -0.00057755, 0.01823154, 0.01404681, 0.00179468, -0.02394697, 0.01278129, -0.04130048, 0.01881420, 0.02007801, 0.01197987, 0.01059172, -0.01736638, -0.02887699, 0.00522379, 0.01285414, -0.02940866, 0.01353086, -0.02229712, -0.01142454, 0.01226555, 0.02944708, 0.01198074, -0.01347707, 0.00493884, 0.01492415, -0.04605420, -0.04981510, 0.00257399, -0.01186144, -0.01187483, -0.03859136, -0.01284174, 0.01653031, -0.01666275, -0.01781281, -0.00111948, -0.03556184, -0.02625019, 0.02735024, -0.02975244, 0.03834209, -0.04813261, -0.03997349, -0.02438429, 0.02859055, -0.00210409, -0.02023671, 0.03477839, -0.04492845, 0.02024356, 0.01861241, -0.01595484, 0.03493783, -0.04762860, -0.01392772, -0.01850240, 0.00218658, -0.04749767, 0.02538248, 0.00435732, 0.00194349, -0.00299264, 0.00772668, -0.03658398, -0.03400857, -0.00316938, -0.04388812, -0.01192350, 0.03560082, -0.04525260, -0.02799521, 0.01388545, 0.03332453, -0.05279442, -0.01300316, -0.01713729, 0.01552807, 0.01523034, 0.02330099, -0.03685756, 0.00319008, -0.02330907, 0.00933892, -0.02678097, 0.00018610, -0.00592845, 0.02534610, 0.03728351, -0.01994625, -0.03663021, 0.00310759, 0.00243844, -0.03470279, 0.02320180, -0.00979831, -0.03030697, 0.01730929, 0.00486436, -0.04630552, -0.04680939, 0.02772724, 0.01817076, -0.00665480, 0.02433577, -0.01117092, -0.00450021, 0.00934532, -0.01294017, -0.04185421, -0.02012358, -0.03840275, -0.04540016, 0.03020844, -0.00206560, 0.01552524, -0.01582604, 0.01373258, -0.01363909, 0.02711474, -0.01707529, 0.00472726, -0.04013287, -0.04303571, 0.03869772, 0.02652418, 0.00440771, -0.01053746, -0.02632125, 0.02832786, -0.04613993, 0.01861720, -0.02400152, -0.04600934, -0.01757978, -0.00198039, 0.03517375, 0.01773435, -0.01803196, -0.01007160, 0.00729443, 0.03568267, -0.00053184, 0.03316950, -0.01512411, 0.00618745, 0.02330686, -0.00370484, -0.03344842, -0.00512771, -0.02562727, -0.01837824, 0.03498112, -0.01299813, -0.04700657, -0.01009176, 0.03641877, 0.03164921, 0.03683091, 0.02523207, 0.00486090, 0.03565383, 0.02355293, 0.00336077, -0.03150390, -0.03048855, -0.01414232, -0.04201221, 0.00630710, -0.04954186, -0.00993160, 0.02937461, -0.04913944, 0.02433499, 0.03286926, 0.02935040, 0.03611036, -0.02763071, 0.02017443, -0.03997283, -0.02160115, -0.03178708, -0.04126713, 0.02720659, 0.01226986, -0.00605537, -0.04554325, -0.04177044, 0.00729527, -0.01081195, 0.01086570, -0.04218756, 0.02383230, -0.00699393, 0.00421360, -0.04356866, -0.02512794, -0.04458946, 0.01026732, -0.04768280, 0.00303855, -0.01550837, -0.03838824, 0.03166891, 0.00662556, 0.02602276, -0.03624257, 0.00180327, 0.01959305, -0.01836698, -0.03694251, -0.00902225, -0.00551116, -0.03143795, 0.01035876, -0.00449176, 0.02694049, -0.01892337, -0.02370557, 0.01214247, -0.00560590, -0.02049155, 0.00692026, -0.00541789, 0.00854917, -0.03128218, 0.02488655, 0.03139397, -0.03169692, 0.01971035, -0.02416342, 0.02482098, -0.02665675, 0.02645903, -0.02473783, 0.02298821, 0.00700264, 0.03952517, -0.03880493, -0.01404091, 0.00986861, -0.00706309, 0.02608464, -0.01044591, -0.04584788, 0.03284995, -0.04140264, -0.04243961, -0.03615185, 0.03194133, -0.03632718, 0.03629411, 0.00317918, -0.01153849, -0.04590703, 0.02472973, -0.02960069, -0.02911390, -0.04667367, 0.04154500, -0.01480994, -0.00762247, 0.03466547, -0.05182434, 0.02641330, -0.02835158, 0.01980710, -0.03095708, -0.03632935, -0.04991538, -0.03065718, -0.02870752, 0.02934650, -0.00595934, -0.03549834, 0.03014217, -0.01930429, -0.01439963, -0.00850417, 0.02639712, -0.03279350, -0.04398151, -0.04241028, 0.02450748, 0.03308139, 0.01643210, -0.01027300, 0.02994246, 0.00979915, -0.03993085, 0.03673685, -0.00229713, 0.02602495, -0.02676501, -0.00055476, 0.03498206, -0.02661880, -0.04313154, 0.03821218, 0.02095634, -0.02205894, -0.01472215, 0.01877982, -0.04775627, 0.01147665, -0.02578699, -0.03620498, -0.01131226, -0.03048141, 0.02652547, -0.04183226, -0.01391920, -0.04327515, 0.02518428, 0.03241646, 0.02824561, 0.03364142, -0.02643243, -0.01700293, 0.01505783, -0.02589918, -0.01093446, -0.03640479, -0.05117503, 0.02492409, -0.04999298, 0.01201880, 0.02036197, 0.03323523, 0.02254058, -0.04508249, 0.02722745, 0.03008871, 0.01896808, -0.01907515, -0.04061149, 0.01784250, -0.01780342, 0.03100430, -0.02581671, 0.01984530, -0.04582160, -0.03742265, -0.03505952, -0.01093704, -0.04640900, -0.03588310, 0.00922790, 0.01897907, -0.00222140, -0.01420935, -0.01410223, 0.03245617, 0.02298594, -0.04276074, -0.04867975, -0.03713968, -0.03794606, 0.01416522, -0.02687182, 0.01092215, 0.01263713, -0.00734973, 0.01524968, -0.01523008, 0.01143688, 0.01926965, 0.02727526, -0.04105846, 0.01272350, -0.01596772, -0.01148409, 0.02058459, 0.00586712, -0.00889486, 0.00992537, 0.03928164, -0.04158234, 0.01538660, -0.01404512, 0.01959230, -0.00089027, -0.01579400, -0.04404478, -0.03044743, -0.01210710, -0.02506887, -0.00906814, 0.03472506, -0.00665534, -0.02682272, -0.03031055, -0.02076706, -0.03413699, -0.02699860, -0.04784998, 0.02898451, -0.01386929, -0.01342208, 0.00334535, -0.02984992, 0.03428812, 0.01932869, -0.01892783, -0.02300944, -0.03613267, 0.01917115, 0.02209694, 0.03617179, -0.02477948, -0.02926520, -0.04377626, 0.02273415, -0.02028817, -0.03881267, -0.01479656, -0.00318767, 0.01175266, -0.00990249, -0.02336236, 0.00684432, -0.04934978, -0.01487758, 0.00602374, 0.02953731, -0.02880245, -0.02435850, -0.00830346, 0.02333591, -0.02725538, 0.01919770, 0.00596991, 0.00816077, -0.02416534, 0.00816048, 0.02265980, 0.00382381, -0.01979029, -0.03093059, 0.01240157, 0.00354236, 0.01410948, 0.02318890, -0.02018835, -0.01263439, 0.02887098, 0.01599674, 0.03827682, -0.03354749, -0.04891952, 0.01121279, 0.01350450, -0.03906553, -0.03962833, 0.02911197, 0.02379027, -0.03139588, -0.02785938, 0.03190658, -0.00663939, -0.04021319, 0.03548441, 0.02913502, -0.00140231, 0.02319898, -0.03077055, -0.00721441, 0.03162842, 0.03773981, 0.03493879, 0.00847782, 0.00024773, 0.00605719, 0.02245754, 0.01977832, 0.02944098, -0.03633315, -0.04674683, 0.01693526, 0.03578135, -0.02505008, 0.02425930, -0.01592206, 0.02728386, -0.01676841, -0.04034752, 0.02857502, -0.02128511, 0.00468590, -0.04325195, 0.03506577, 0.01169480, -0.02033431, -0.01142583, 0.00245138, -0.00256925, -0.00142496, 0.00546467, 0.03240842, -0.01212440, -0.02491172, 0.00623788, 0.03868474, -0.02869687, 0.01634419, -0.01415454, 0.02731451, -0.02820127, 0.01678649, -0.03859605, -0.04765697, -0.02298694, -0.03658367, 0.01551497, -0.00091557, 0.01898624, -0.03061190, 0.01977537, -0.01178082, 0.03078211, -0.03128068, -0.00921477, -0.01071841, 0.00518811, -0.02602969, -0.00973733, -0.04096454, 0.02912405, -0.04318948, 0.02971436, 0.02654795, -0.00010599, -0.04380387, 0.00931712, -0.01372453, -0.03978983, 0.03015265, -0.00002374, -0.01517198, 0.03687720, 0.01846329, 0.04122060, -0.03567391, 0.03402790, 0.01609598, 0.01710899, 0.02608216, 0.03359015, -0.01804364, 0.02387783, -0.02585571, 0.01029490, -0.02134227, 0.00826072, 0.02498869, -0.02350432, 0.00939031, -0.01197844, -0.00641319, 0.03300868, 0.01880612, -0.03852077, -0.01808574, -0.04170197, 0.01006046, -0.02358017, 0.03988378, 0.01570151, -0.00686233, -0.02915050, -0.03427726, -0.01691665, -0.03252866, -0.04023882, -0.01183790, 0.02649750, 0.02688809, -0.03892468, -0.04198005, 0.01802434, -0.02575571, -0.00888771, 0.01557603, 0.04059887, -0.02839148, -0.02001461, -0.00839032, -0.00696777, -0.00780890, -0.02298686, 0.02663942, -0.04751630, -0.05754581, -0.04435166, -0.02745222, 0.01828470, -0.00300705, -0.04749734, -0.01177771, -0.05068807, -0.01936359, 0.02020586, 0.00964613, 0.00018187, 0.00833715, 0.01655600, 0.00566606, -0.03704857, 0.02224695, -0.04172217, -0.00581445, -0.02847202, -0.04024971, -0.00748556, 0.00228353, -0.02814837, -0.01882345, -0.03596878, -0.02053880, 0.00541551, -0.00050474, -0.00256137, 0.00368886, -0.03419770, -0.00023458, -0.02305219, -0.00176622, -0.04006881, -0.04022023, 0.01066519, -0.02325903, -0.02828718, -0.02068070, -0.04541308, -0.03352297, -0.04711998, -0.04759747, -0.02763579, -0.03659914, 0.02489831, -0.00176954, 0.00540782, 0.01562166, 0.00778422, -0.03314456, 0.01693686, -0.04165725, -0.04709842, -0.07667386, -0.02599946, 0.01406897, 0.01511066, 0.02835452, 0.02625774, -0.00213465, 0.00364677, -0.03709543, -0.03503792, -0.00675401, -0.04588028, 0.01123442, 0.03941367, 0.02600097, 0.03986950, -0.02775535, 0.02156904, -0.02299101, 0.00914985, 0.01607855, 0.01840080, -0.02212214, 0.00159989, -0.05970202, -0.05969728, -0.04468318, 0.03343851, 0.02173139, -0.03564042, 0.00520642, 0.02293856, -0.01098325, -0.01320492, -0.00358427, -0.01003062, 0.03127792, -0.03478816, 0.02872496, 0.00217076, -0.01924522, -0.00022944, 0.00490670, 0.01878316, -0.02096704, -0.04416302, 0.03927170, -0.03625187, -0.01090017, 0.00204397, -0.04018882, 0.03061461, 0.03280378, -0.00189731, 0.01812885, 0.01273648, -0.00774322, -0.00710260, -0.00923292, -0.01578155, -0.03722391, 0.00299606, -0.03598159, 0.00442061, -0.02412490, -0.01404857, -0.05458628, -0.02790831, 0.02427719, -0.04567859, -0.01421550, 0.02320067, -0.00667618, -0.01774371, -0.05537745, -0.01094103, 0.00991603, 0.01914439, -0.03353100, -0.03356849, 0.02560398, -0.03238375, -0.00097997, 0.03230266, -0.04652940, -0.01825198, 0.01169144, -0.02818064, 0.01449886, -0.00993459, 0.01894201, -0.02516381, -0.00694431, 0.02334204, -0.01797581, -0.01419468, -0.04208631, -0.04942694, -0.05345550, -0.02282171, -0.05326158, 0.01097271, -0.03155340, -0.04899707, 0.01008247, 0.00986453, -0.00095552, 0.03464900, 0.00734283, -0.05394502, 0.02337601, -0.06837502, -0.00840547, -0.01118046, -0.05517667, -0.01991229, 0.00134647, -0.01590342, -0.02074924, 0.00874072, 0.01734043, -0.01591577, -0.02939953, -0.03186959, 0.00175685, -0.02942996, 0.00421994, -0.02487798, -0.06202016, -0.02362641, 0.02183973, -0.02898736, -0.01352673, -0.04399555, -0.03106171, 0.02279335, -0.01886782, 0.01964267, -0.04735510, -0.02943355, -0.03401133, 0.01604914, -0.02381101, -0.05968706, -0.03693550, -0.03393728, 0.00798689, 0.00588681, -0.04732458, -0.00965889, -0.02254443, -0.04738928, -0.03954351, -0.04251179, -0.01857556, 0.00147537, -0.02767553, 0.03577627, 0.01007614, -0.04201125, -0.02151050, 0.02039957, -0.05408161, -0.01512906, -0.04463248, -0.00241573, -0.02251348, 0.01606733, 0.02355346, -0.02033232, 0.03103487, 0.00559185, -0.03040211, -0.03326759, 0.02839470, 0.00104017, -0.01572769, -0.02069228, -0.04063416, 0.02483132, -0.01224498, -0.00644627, -0.01906436, -0.04475758, 0.02249715, 0.01563428, -0.03977120, -0.01048699, 0.01666135, 0.02200697, -0.02812670, -0.00236624, -0.03552549, 0.01767025, -0.04555083, -0.01562654, -0.02914990, -0.04430157, 0.00602334, -0.00399506, -0.02547146, -0.00070954, -0.03849294, 0.01092682, -0.08947858, 0.03028709, -0.02991976, 0.01107382, 0.00936080, -0.04380468, 0.01815418, -0.00702175, -0.01880407, -0.05480544, 0.02956375, 0.03317932, -0.01846586, -0.04260171, -0.02025021, -0.01347515, 0.00662321, 0.02331237, -0.02890773, -0.05858305, 0.01231057, -0.02423672, -0.02993811, -0.05672672, -0.00170739, -0.01867831, 0.02360065, -0.01566753, 0.03293535, -0.00034958, 0.03491061, -0.02064622, -0.03394941, -0.01640378, -0.02835619, 0.00971232, 0.01651414, 0.00558402, 0.01087786, 0.01658389, 0.00649947, -0.03905506, -0.00691782, 0.03293939, 0.02199623, 0.01905083, 0.01441342, 0.00048450, -0.01025199, -0.04877128, 0.01840103, 0.01026794, 0.00226115, -0.04411244, -0.01186017, 0.01841390, -0.00354744, -0.01891999, -0.03448389, -0.04364158, 0.01868358, -0.00385227, -0.04609137, -0.00506545, -0.03011352, 0.02895077, -0.01924247, -0.04032396, -0.04038694, -0.00735613, -0.05891075, 0.00876810, -0.00524612, -0.00652198, -0.00476525, -0.00363432, 0.02746779, 0.00388399, -0.01852512, 0.00955642, 0.03742648, -0.01459273, 0.04014143, -0.03342397, 0.01242547, -0.02732464, 0.00516444, -0.03621326, -0.04177303, 0.00762264, 0.01728997, -0.01773211, -0.02118422, 0.00172967, -0.04068691, -0.04210218, -0.02374757, -0.00712540, 0.02165951, 0.00115318, 0.01567467, -0.00557254, -0.03684972, -0.03289792, -0.00547362, -0.00679783, -0.04803826, -0.02686335, -0.01633038, 0.02287638, -0.04845109, -0.02448571, 0.00077345, 0.00607301, -0.04552891, 0.01906516, -0.05728071, -0.04905513, -0.02294118, 0.00510299, -0.05294316, 0.00427060, 0.03405276, 0.03762571, -0.04156993, -0.00998134, -0.04121169, -0.00211991, -0.00086352, 0.00876701, -0.04483083, -0.04004611, -0.00144348, -0.02541410, 0.01633813, 0.00200799, -0.02362228, -0.02285622, 0.00371702, -0.02964125, -0.02616814, -0.05200348, -0.03700664, 0.01655941, -0.02012239, -0.01536890, -0.01784289, -0.02347524, -0.04795464, -0.01460641, -0.04589666, -0.03222621, -0.00131410, 0.01752977, 0.02198450, -0.04349349, 0.00650958, 0.03909754, -0.01308967, 0.02228751, -0.04433027, 0.03386239, 0.00425609, -0.01733917, -0.04358736, -0.04993126, 0.02351027, -0.01913990, -0.03025096, -0.02097160, -0.03957113, -0.03873748, -0.01292329, 0.01562989, -0.04842484, 0.00783386, 0.01190858, -0.01391005, 0.00303729, -0.04301549, -0.02278478, 0.00713174, 0.02109144, -0.06337627, -0.03389077, 0.02761374, 0.02042260, -0.04134384, -0.01256996, 0.00307474, -0.03280492, 0.00753655, -0.04355564, -0.03048052, 0.03681113, -0.05972940, -0.00979880, -0.02124031, -0.04909057, -0.01972878, -0.03403080, -0.02592244, -0.04451583, -0.00980314, -0.00111134, 0.02980772, 0.01539513, -0.02821415, 0.02542358, 0.00556288, -0.03934672, -0.01287780, -0.04147032, 0.00300193, -0.02691367, -0.05203794, 0.01762122, -0.01276302, -0.05345596, -0.01395153, -0.05760189, -0.04814365, 0.00563025, 0.00590031, 0.00012099, -0.00519158, -0.02287347, -0.00987470, 0.03741926, 0.00884467, 0.01756808, -0.00806038, -0.06400899, -0.01436503, -0.00281794, -0.05484829, -0.00316671, 0.01085757, 0.02011551, -0.04363810, -0.05378021, 0.03794156, 0.03925889, -0.02308596, -0.04660008, -0.02005941, 0.00952653, -0.04797762, 0.02912293, 0.00048898, -0.00085914, 0.03626764, 0.01782739, 0.04092551, -0.02321823, -0.04533875, -0.02502773, 0.00676161, -0.01216541, -0.03518022, 0.01222789, -0.04343836, 0.03488897, 0.00727317, 0.01697486, -0.00306816, -0.00890638, 0.02591501, -0.05017067, -0.03112293, 0.00239854, 0.03691626, -0.01606462, -0.04213743, 0.01760676, -0.01367662, 0.01274070, -0.03519576, 0.00761388, 0.03460092, -0.00990369, 0.03405508, -0.00886983, 0.03092010, -0.04510019, -0.00538482, 0.00363067, -0.00638323, -0.00053915, 0.02294961, 0.02431259, -0.04635210, 0.01277015, 0.03490059, 0.02543216, 0.02263528, -0.02908260, 0.01962410, 0.00755520, 0.03020023, 0.01264902, 0.01087519, 0.00592723, -0.03116282, 0.04029388, 0.04077739, -0.00161620, -0.01355360, 0.01742588, 0.00057377, -0.03744097, 0.01998842, -0.02831974, -0.01066500, 0.01040591, -0.02554583, -0.03596647, -0.03702651, -0.02000498, -0.03285234, -0.02244451, 0.00358117, 0.00740165, -0.02756552, -0.02487988, -0.03893835, -0.03718467, 0.01999327, 0.03658949, -0.04740809, 0.01182558, -0.03213003, 0.03629269, -0.04374233, 0.00858574, 0.02229927, -0.01703685, -0.04674225, 0.00758541, -0.00745367, -0.04476824, -0.02711345, -0.00394642, 0.03006810, 0.03988095, 0.00341860, -0.04068248, 0.02473938, -0.04296825, 0.01502331, -0.02260632, 0.00455945, 0.01661287, 0.00656194, 0.00739863, -0.01867882, 0.00049652, -0.04266636, -0.02533552, -0.01116187, -0.01191737, -0.02062607, 0.00786725, 0.04057061, -0.00099346, 0.01460967, -0.02624542, -0.01916560, -0.02115800, 0.00352737, 0.02944665, 0.02920335, -0.02791247, 0.01154393, -0.00440102, 0.01997538, -0.00918739, 0.00787143, -0.01955482, -0.03986387, -0.00520151, 0.00083879, -0.04944376, -0.03222048, 0.02017805, -0.00894799, 0.03875891, -0.03554125, -0.00092411, 0.00503370, 0.02688249, -0.02366390, 0.00965823, 0.02937751, -0.03097343, 0.01946685, 0.01483613, -0.02703131, -0.03554844, -0.04573701, -0.01164371, 0.01119060, -0.04471649, -0.03513066, -0.04948410, -0.00839100, 0.02597320, 0.00182659, 0.01772617, -0.01061010, -0.02195497, -0.04128631, -0.02285323, -0.04158322, -0.00722813, -0.03273641, 0.02719403, 0.03080668, -0.04784595, -0.03697997, -0.03168147, -0.03634789, -0.03525594, -0.02413930, -0.01001295, -0.02013935, 0.01412145, -0.00472936, 0.01665051, -0.00465462, 0.03992214, -0.01900185, -0.02944982, 0.01630236, -0.04717259, 0.00470463, -0.03879928, 0.04409287, 0.00795022, -0.04228801, -0.04746651, -0.00127636, -0.03707203, -0.02175765, 0.01022787, -0.01141784, -0.00657856, 0.02178495, 0.00443036, 0.00357254, -0.04116711, 0.02649018, -0.03479630, -0.01635283, -0.01874526, 0.00077490, -0.01718313, 0.02063720, -0.00327503, 0.00522433, 0.02930742, -0.03702587, 0.02583247, -0.01587143, -0.01728814, 0.01374850, -0.01349720, -0.02255250, 0.00783862, 0.03088160, 0.00138118, -0.01070198, -0.05076873, -0.02861036, 0.01247374, -0.02530678, 0.01736499, -0.00154540, 0.02794024, -0.00361412, -0.00830439, -0.02025734, 0.01183494, -0.02266824, -0.01160146, 0.02812576, 0.00338822, -0.00745439, -0.02273572, -0.02898634, -0.03338160, 0.01320627, 0.00423364, 0.01906699, -0.02322815, 0.03892882, 0.00195065, -0.04333161, -0.03317115, 0.03567658, -0.00688002, -0.02825010, 0.00747470, 0.02749861, -0.03290477, 0.02270889, -0.01898308, -0.02241692, 0.04179960, 0.01537910, -0.01659252, 0.00590939, 0.01247483, -0.03191731, -0.04173288, -0.04771019, -0.03663161, 0.01999306, 0.03137129, -0.00158389, 0.00944368, 0.02154896, -0.04429754, 0.03772277, 0.03441891, 0.00712685, 0.02027597, 0.03881023, -0.04189011, 0.01227454, -0.00145623, 0.01521770, -0.00429866, -0.03006345, -0.02838650, -0.02901873, 0.02890147, -0.04716524, 0.03715404, 0.01372079, -0.01943541, 0.04153106, -0.03987475, -0.04669175, -0.03980882, -0.04315827, 0.02853660, 0.01790580, -0.00961339, 0.03079688, 0.01386166, -0.00773713, -0.01228466, 0.02494836, -0.03560188, 0.01319674, -0.04236442, 0.00812854, 0.03036321, -0.01788563, 0.00999694, -0.04386857, -0.04415475, -0.03028646, 0.00470757, -0.02581130, -0.00128257, 0.01206102, 0.03223599, -0.01915388, -0.04295864, -0.00503165, -0.02422714, -0.01675726, -0.02565348, 0.00223164, -0.00835076, -0.02857056, 0.02889044, -0.03768407, 0.01145199, 0.02054271, 0.01884306, 0.03771057, 0.03106511, -0.00019855, -0.02478365, 0.04125528, 0.00303609, 0.03865450, -0.01259966, -0.03900989, -0.04062108, -0.03141895, 0.00800993, 0.02598700, -0.01974540, 0.04069307, 0.02926073, -0.00055283, 0.01368792, -0.04451071, 0.00403685, -0.01953534, -0.01878479, -0.03658972, 0.00582426, -0.00090211, -0.03317728, -0.00583933, -0.04298099, -0.02923331, -0.04419128, -0.01595137, -0.00689509, -0.00762713, -0.00824250, -0.00137182, -0.03324785, 0.01438721, -0.03601191, 0.03314458, -0.02713020, -0.04563699, -0.02943623, 0.03570573, 0.00511352, 0.01316119, -0.02510262, -0.02993752, -0.01521991, -0.00649547, 0.00768854, -0.00021768, -0.00284434, -0.04591421, -0.01742454, 0.02541312, 0.01617734, -0.03963384, 0.01376451, -0.00205720, -0.00068925, -0.00741846, -0.03879460, 0.00696527, 0.01672809, 0.03488329, 0.01337897, 0.03560993, -0.02336354, 0.00080174, -0.00569414, 0.02004154, 0.01800002, -0.04499744, 0.03690573, -0.02402775, 0.02609239, -0.03064605, 0.02778217, -0.02149442, 0.01195381, -0.02072431, -0.02951330, 0.00869580, -0.00405225, 0.00707564, -0.01431983, 0.01061222, -0.00212212, 0.02088258, 0.01646606, -0.00244164, -0.03902877, -0.01313762, -0.04431590, -0.01679288, 0.03839039, 0.03661703, -0.03209708, -0.00957139, 0.01079015, 0.03008230, -0.00931336, -0.02890942, -0.01088646, 0.02065816, -0.03259576, -0.00021492, -0.03164708, -0.03704910, -0.01981997, 0.02378688, 0.03607209, -0.02819912, 0.01708317, -0.01425409, 0.01681130, 0.03434185, 0.02636402, -0.00235195, 0.03517008, -0.00503265, 0.01795798, 0.02480720, 0.03897951, 0.02968626, 0.02097236, -0.03953214, -0.03098211, 0.03016571, -0.01914023, -0.02475640, 0.02050716, -0.01873005, -0.00479722, -0.01754215, 0.01335541, 0.00761294, 0.00386597, -0.01743605, -0.04206797, 0.03244322, -0.00553126, 0.03095891, -0.04423725, 0.00244243, -0.03292741, -0.00864686, -0.00998521, -0.04238236, 0.03004745, 0.04205611, -0.03790512, -0.04310862, -0.01253585, 0.00071055, 0.01376007, 0.01389223, 0.03244415, -0.03671335, -0.03317281, -0.04432205, -0.00088996, 0.00925612, -0.02109225, 0.00408942, 0.01160802, 0.00098896, 0.03203586, -0.04191502, 0.01257090, -0.02458960, 0.03179116, 0.00115455, -0.02633995, -0.00346966, 0.04120727, -0.00507568, -0.03672731, -0.02361258, -0.06153600, -0.04372842, 0.03471558, 0.02439395, -0.03262248, -0.05679494, -0.04017917, -0.02342293, 0.02965937, -0.03346165, -0.05530123, 0.02628439, 0.00686650, 0.03226976, 0.02283784, -0.09438045, -0.03241803, 0.03360380, -0.03507473, -0.03738993, -0.02421973, 0.02189089, -0.00815854, -0.02565039, -0.02830763, -0.01571500, -0.01265147, 0.00842068, -0.00251887, -0.03035617, 0.03193996, -0.03211132, -0.05420923, -0.05787493, 0.02029511, -0.04932542, -0.01826718, -0.00411058, -0.01602727, -0.03477644, 0.01596156, -0.00377281, 0.04011672, -0.05427124, -0.01770754, 0.00227401, 0.00745844, -0.01053441, -0.00527483, -0.04629219, -0.02980669, -0.06488523, 0.03062191, -0.00021517, -0.04035309, 0.03168499, -0.02750361, -0.08722517, -0.03669916, -0.04474298, 0.02575301, 0.00569438, -0.02327880, -0.02566783, 0.00159804, -0.03432585, 0.01098260, 0.02190559, -0.04931621, 0.02684881, -0.04894336, 0.02196071, -0.02204995, 0.03036008, -0.02378999, -0.00856675, -0.00505525, -0.02398698, -0.00336292, -0.03543805, -0.04328222, -0.06780183, 0.03994034, -0.02121055, 0.02461066, -0.03398875, -0.03297485, 0.03112811, -0.01079639, -0.02390495, -0.06752098, -0.03268299, -0.02502846, 0.02118721, -0.05044692, 0.02707803, -0.03129092, 0.01331371, 0.01553822, 0.00273379, -0.02648552, 0.01718511, -0.02402977, -0.03514161, 0.02755702, -0.00412073, -0.00852382, -0.01972530, 0.03348035, -0.00222199, 0.01735788, 0.02045238, -0.05478193, 0.00460210, -0.00549274, -0.06316911, 0.00016962, -0.04782922, 0.00748452, -0.02239851, 0.03258610, 0.01545769, -0.00914990, -0.04041564, -0.02476880, -0.05463839, 0.00237207, 0.02105308, -0.05558372, -0.01397221, -0.04218558, -0.04342311, 0.03011601, 0.01786357, -0.06246020, 0.00129231, 0.00744436, -0.02525492, -0.00153693, -0.01973742, -0.07537834, -0.08018037, 0.01896370, 0.00576365, -0.02226937, -0.03876427, -0.02277061, 0.01666939, 0.04546502, 0.02978945, 0.01954529, 0.01660217, 0.01705167, -0.03432780, -0.08239663, 0.03191287, -0.05028882, -0.03134043, -0.05035517, 0.00437519, -0.05024986, 0.01458190, -0.06910188, -0.01408326, 0.03267376, -0.05301410, 0.02140961, 0.00588598, 0.01455886, -0.00932524, -0.01160782, 0.01843661, 0.02410961, -0.04453272, -0.05592638, -0.03820588, 0.00375424, 0.03381485, 0.00007340, 0.03424922, -0.04478812, 0.01918729, 0.02545780, -0.02119004, -0.00012777, -0.01114247, -0.05868299, -0.03116230, -0.02285333, 0.03025915, -0.00340003, -0.14185460, -0.00455870, 0.02211997, 0.01615653, -0.04292940, -0.03419588, -0.00953863, -0.10867152, 0.02984334, 0.03345154, -0.00928129, -0.03597860, -0.07513556, -0.04812584, 0.00788100, 0.01469203, 0.01292383, -0.02577920, -0.05565444, 0.01099785, 0.00395671, -0.03292539, -0.01320761, 0.01208569, 0.00136359, 0.03458319, -0.01567069, -0.03304521, -0.06433444, -0.02161780, 0.01914990, -0.05064246, -0.02209046, 0.04203779, -0.03193779, 0.01923806, -0.03307353, 0.03484378, -0.01834803, -0.01861799, -0.07366272, -0.04953197, -0.00671197, -0.06364107, -0.00676132, -0.00996490, -0.01490401, -0.06036915, -0.01267888, -0.01620149, -0.01254843, -0.01222406, -0.00723705, -0.00759744, -0.02018176, -0.02438151, 0.00534880, -0.02613840, 0.01331275, -0.03486523, -0.01529379, 0.03277496, -0.03178734, -0.01227352, -0.02583856, -0.03009113, -0.03375595, 0.03285813, -0.02408001, -0.03896323, 0.01324300, -0.02600130, 0.03255966, -0.00588803, -0.11307415, -0.05048662, 0.00427279, 0.00015342, -0.03330198, -0.00729432, 0.03669735, 0.00092436, -0.00808998, -0.02791486, 0.00498042, -0.03575121, 0.01764540, -0.01692913, 0.02765421, 0.01485990, -0.03542920, -0.02414792, -0.00262805, -0.01373270, -0.02297141, -0.02618506, -0.01444949, -0.03816682, 0.03120555, -0.01240088, -0.05420629, 0.00420583, -0.01480527, -0.00406704, -0.00242212, -0.05123051, -0.01114486, -0.00257717, 0.00379164, 0.01558490, 0.03756867, -0.06757408, 0.03087602, 0.00871699, 0.02342458, -0.04660606, -0.04471800, -0.04146371, -0.02628530, 0.03310679, -0.03413589, 0.02757576, -0.03907568, -0.04189557, 0.02820767, -0.03159950, 0.02444515, 0.03120305, -0.09310357, 0.02421189, -0.03888958, -0.05120160, 0.02752972, -0.04135836, -0.04380931, -0.04278510, 0.01547639, -0.01733606, 0.01139962, -0.05973440, -0.02880352, 0.01323416, 0.00747214, -0.03552118, 0.01212272, 0.03347456, -0.06280592, -0.01761702, 0.01839016, 0.01123755, -0.01550541, -0.03985573, 0.02740338, 0.02669102, -0.03230835, -0.02053448, -0.02569641, 0.00564507, -0.12805595, -0.02487037, 0.02926371, -0.02989927, 0.00548324, -0.00672753, 0.01315899, -0.06156957, -0.04681201, -0.04478371, -0.05229174, -0.05015884, -0.03107510, -0.01277762, -0.00387409, -0.04611904, -0.02395627, -0.04675783, 0.00770605, -0.03264003, -0.04035252, 0.00254007, -0.03985894, -0.02394937, -0.06136268, -0.02348360, -0.04658769, -0.02310017, -0.01426806, -0.02774800, -0.08252111, -0.00025918, 0.02891309, 0.02418326, 0.02866540, -0.00421906, -0.01001791, 0.03862033, 0.01736912, -0.02237833, -0.00452442, -0.02880953, -0.02638859, 0.01025878, 0.02667954, 0.03659466, -0.02650664, 0.00508285, 0.00810984, -0.00507055, 0.01755061, -0.01114960, 0.02052255, -0.02484371, -0.02487053, -0.03040982, -0.01269074, -0.05396365, 0.01198875, -0.05314827, -0.03927148, 0.02000604, -0.04364374, 0.02954054, -0.04796966, -0.03311104, 0.00526620, -0.00657257, -0.03757966, 0.03388168, 0.00867162, -0.04727541, 0.02459949, 0.04047934, 0.00333631, -0.05029280, -0.08974763, -0.00691463, -0.03900168, -0.00258763, -0.01815726, -0.04621442, -0.04340987, -0.01902716, 0.01778827, -0.02851876, -0.03267575, -0.04983690, -0.04036268, -0.01566446, 0.00668271, 0.01153565, -0.01611015, 0.02432298, -0.03651243, 0.01660814, 0.00122717, 0.00335149, -0.00267396, -0.01610114, -0.00056185, -0.00520133, -0.04166228, 0.01840745, -0.02824438, 0.01049499, -0.00011594, -0.00891242, -0.03394723, 0.01725586, -0.03160959, -0.03898147, 0.02357755, -0.06752995, -0.05902723, 0.03289312, -0.08972819, 0.02818958, -0.03969133, -0.02500051, 0.01549575, -0.02595901, -0.00195384, -0.04195298, 0.03083571, -0.03974957, 0.00141748, 0.03700204, -0.04539173, -0.01371110, -0.03242551, 0.02980584, -0.00017633, -0.01684100, -0.08406474, -0.01689782, 0.03300785, -0.01029515, -0.00103777, 0.00195703, -0.01507881, -0.02379694, -0.03016272, 0.00288766, 0.03088452, 0.01476453, 0.00558501, 0.01295879, -0.03985276, -0.03332789, -0.05167258, 0.01177043, -0.00484169, -0.03265458, 0.02244481, -0.04163882, -0.03869348, 0.00436204, -0.00522566, 0.01893997, -0.00815712, -0.04199989, 0.01104092, -0.01277366, 0.00855744, 0.00869517, -0.03584160, 0.00448514, 0.02783551, 0.00033573, -0.00395866, -0.02769954, 0.02255464, 0.03390905, -0.02052815, 0.00944394, -0.01569480, -0.02987259, 0.03465480, -0.03565707, 0.02566175, -0.01229670, -0.04736719, -0.04829038, 0.00432347, -0.01737223, 0.02742264, -0.03455725, -0.02172959, 0.01983219, -0.01316691, 0.01783614, -0.00811361, -0.05137943, 0.00373361, -0.02778455, -0.04826376, -0.03701308, -0.00454888, -0.04277292, -0.02718926, 0.01403804, 0.02490614, -0.04012979, -0.04780510, -0.03840553, -0.01112052, -0.01678737, 0.02081410, 0.03083022, -0.03964863, -0.00661939, 0.03101074, 0.03603805, -0.00391208, 0.02370456, 0.01334015, -0.02750131, 0.01451308, -0.03235904, -0.00531965, -0.08639299, 0.02452871, -0.04979715, 0.00753955, -0.02920462, -0.01998455, -0.03009107, -0.03726586, -0.02116641, -0.05596902, -0.04168407, -0.01918091, 0.03572139, -0.04114277, -0.02298301, 0.02340216, -0.01391480, 0.03035470, 0.00059368, 0.01445788, -0.00687591, 0.03515140, 0.03732382, -0.02596932, 0.02546123, -0.00653383, 0.02898339, 0.02373965, -0.01753703, 0.01480265, -0.02889903, -0.01528428, -0.02553887, 0.01638662, -0.00790763, -0.01611693, 0.00318322, 0.03809322, -0.02975129, -0.04740556, 0.03501283, 0.01299800, -0.04854922, -0.03848317, -0.03795487, 0.00363838, -0.04162588, -0.04699008, 0.02263287, -0.03801338, 0.01225623, 0.02665228, -0.04958994, 0.03396209, 0.02459541, -0.05120871, -0.01049881, 0.02687528, 0.04096816, 0.03748073, -0.04448974, -0.02717333, 0.02304820, 0.03886855, -0.01334394, 0.03849800, 0.01907337, -0.01066160, -0.03231023, -0.00016567, -0.01858883, -0.01441427, -0.01332129, 0.03434183, 0.00753121, 0.02781189, -0.00360166, 0.01491642, 0.02062635, 0.01562162, -0.00484763, -0.03705674, 0.00893225, -0.04744859, -0.01998187, 0.02943575, -0.01892117, 0.00023321, -0.01178029, -0.02166739, 0.00035473, -0.00299744, -0.02328760, 0.01594150, -0.00037455, -0.00846621, -0.02958667, -0.02384790, -0.01375992, 0.01363544, 0.00553996, -0.05123359, 0.01471056, 0.01951912, -0.02137963, 0.01561928, 0.03232707, -0.05167940, 0.01550264, -0.02510705, -0.00869254, 0.03701631, 0.03747210, -0.02822822, -0.02015564, -0.01910363, 0.06152848, 0.01630482, 0.00167931, 0.02506086, 0.01180072, -0.03336165, -0.04482455, 0.03775579, 0.00344023, 0.01708183, 0.00342263, -0.00090888, -0.00087528, -0.01355592, -0.01177940, 0.00762714, -0.02351015, -0.04843965, -0.01563414, -0.02895097, 0.02140653, -0.03111525, 0.00782316, -0.00363069, 0.03324197, 0.02736650, -0.02563988, 0.00843044, 0.04230638, -0.00651951, -0.05309817, -0.03305995, -0.05108333, -0.04539286, -0.04179703, 0.03229778, -0.01801416, 0.00295942, -0.01064589, -0.02310385, -0.04523863, -0.04478132, 0.02949055, -0.03515130, 0.00275800, -0.02656422, -0.00918683, -0.00033568, -0.02752301, -0.03034100, 0.00850903, 0.00281640, -0.02994245, -0.02504596, -0.05666566, 0.00853395, -0.00548714, 0.01067543, -0.04944602, -0.05052058, -0.03326466, -0.00955281, 0.01425748, -0.04847671, 0.04700754, -0.00995686, 0.03581037, 0.02775282, -0.00631118, 0.02301688, -0.01221768, -0.05014132, -0.04966086, -0.00674199, -0.03783666, 0.01733230, 0.01166179, -0.00937693, 0.02857777, 0.02473904, 0.02023633, 0.00353383, -0.03948903, 0.01869973, 0.02249034, -0.00138922, 0.03628047, 0.01365245, -0.03635512, -0.01634282, -0.00530970, -0.00753578, 0.04842888, 0.03468062, -0.00407017, -0.03199264, -0.02278700, -0.04854953, 0.03038422, -0.05224040, -0.01095238, 0.02707520, -0.03211519, -0.02877941, -0.03991362, 0.03588879, -0.02588245, 0.03293319, -0.03568653, -0.05132894, 0.01124820, 0.01314640, -0.01814650, -0.04328330, -0.02988611, 0.02237107, -0.04869944, -0.01409252, -0.04492664, 0.03834290, 0.03770962, 0.01247510, 0.05172276, 0.02609728, -0.01476735, 0.00442146, -0.05454090, -0.05214335, 0.02642785, -0.04806492, 0.00824815, -0.01904877, -0.03810356, -0.04063580, -0.04604511, 0.00788105, 0.03243892, 0.03517160, -0.00184700, -0.04176035, -0.03376598, -0.03400479, 0.02546082, 0.03519891, -0.04129146, 0.02948881, -0.00670199, 0.01778229, -0.00708195, -0.01441406, -0.05720299, -0.00891925, -0.01602480, -0.01937448, -0.01534917, 0.00377273, 0.03325372, 0.00389361, -0.04638940, -0.01397714, -0.02189549, -0.03334613, -0.02586751, 0.01497902, -0.02391296, -0.00674162, -0.03792452, -0.02062450, 0.00468494, 0.01747624, 0.00327424, -0.02535952, -0.03623081, -0.04926578, 0.02801052, 0.02656050, 0.00372936, 0.00594687, -0.01462576, -0.00321751, 0.03436510, -0.04631609, -0.02058105, -0.02305530, -0.03336266, 0.00181934, -0.03868675, 0.02143199, -0.02414242, -0.00790468, 0.00468342, -0.05090910, -0.00595733, -0.03152107, -0.04910623, 0.02106145, -0.00358707, -0.00343580, 0.01650501, 0.02776135, 0.01232382, -0.02851897, 0.01300605, -0.00163774, -0.00494239, 0.00713026, -0.00686487, -0.03117898, 0.03902480, -0.02361949, 0.02955623, -0.04335552, -0.01970529, -0.03401301, -0.03781345, -0.02793452, 0.00016266, 0.01020526, 0.02533881, 0.01771741, 0.00055332, 0.02137051, -0.02196096, 0.02964533, -0.02149425, 0.03781214, 0.02997113, -0.02384083, -0.00610160, -0.00145680, -0.04247941, 0.03857449, 0.04041085, 0.00379430, -0.04845335, -0.02868917, 0.02285667, -0.03387832, -0.01432254, -0.02232009, -0.03980204, 0.00676214, 0.01070046, -0.02499185, 0.01437949, 0.00490505, -0.00410980, 0.03742300, -0.02609302, 0.03469225, -0.04189939, 0.05592254, 0.00349911, -0.01002315, 0.01543732, 0.01807131, -0.01435198, -0.02121765, 0.01244875, -0.00562062, -0.05265785, 0.03425449, 0.03548204, 0.00279109, 0.00821267, 0.03627836, -0.04586985, -0.04398745, 0.00295207, -0.00912653, -0.01161849, 0.02333977, 0.01653047, -0.01687404, -0.00218095, 0.03142433, 0.02017818, -0.01959530, 0.02961291, 0.02155746, 0.00649031, 0.03075058, -0.03118367, -0.02198003, 0.02364395, -0.03584279, -0.04695089, 0.02847612, -0.01646967, 0.04449061, -0.04210222, -0.03891782, 0.03228939, 0.01609925, 0.01066314, -0.00232394, -0.03540992, -0.04231998, -0.01202515, -0.02693881, -0.01820869, -0.03279330, -0.01776880, -0.02955823, 0.01442300, -0.00215632, -0.02269126, 0.01437726, 0.03490308, 0.04677350, -0.01607345, 0.02093883, -0.02556343, 0.02290379, 0.00803465, 0.02975168, 0.03272148, -0.00997425, -0.03198471, -0.03964801, -0.03445835, 0.00335433, 0.00100342, -0.03430089, -0.02099803, 0.00704565, -0.00949689, -0.04126209, -0.00677365, -0.02896232, -0.00886990, -0.01677394, -0.04168025, -0.02396032, -0.02624753, 0.03342479, 0.02761080, -0.63224202, -0.03367725, -0.93091142, 0.01901587, 0.08524244, -0.05059253, -1.55893326, -0.02711173, -0.54162937, 0.02712129, -0.08783346, 0.00031529, -0.07759703, -0.06733885, -0.00950904, 0.04710312, -0.31798878, -0.07239208, -0.02011481, -0.10001251, 0.02557465, -3.03808475, 0.15272282, -3.12549448, 0.04577284, 0.18822648, 0.05119796, -1.58751976, 0.04681140, -0.01223078, -0.09982558, 0.01339205, -0.04517420, -0.47771707, 0.03181661, 0.02053250, -0.97440952, -0.03743028, -0.00352343, -0.03450405, 0.77966207, -0.62342882, -0.10031702, 0.00733360, -0.55618256, -0.00108185, 0.10816446, 0.78716362, 0.00514744, -1.35353327, 0.02873996, -0.02615072, -1.94352639, 0.11123048, 0.10771696, -0.53559250, 0.09935183, 0.10557292, -0.22000551, 0.02888277, -0.08807520, -0.06302663, 0.00464079, -0.81186032, 0.22252706, 0.01082765, -0.02823103, 0.12032316, 0.09678850, -0.10972752, -0.01273571, -0.03251977, 0.07741105, 0.06000422, -0.05139887, 0.12024573, -0.07536628, -0.03094243, -0.04892309, -0.07930821, -0.08972314, 0.04111457, -1.21160746, -0.01236035, -0.81688374, 0.12386800, -0.04054663, -0.05905926, 0.08295200, -0.07115705, 0.11257242, -0.64747518, 0.04964055, -3.32749844, -0.09520005, -1.19582343, 0.06755807, -0.10398503, -0.04996080, 0.79490495, -0.07838324, 0.20547311, -0.02138394, 0.07204761, -0.01857353, -0.04929068, 0.11646401, -1.18351269, -0.14857738, 0.10333630, 0.14466372, 0.06546953, 0.10228150, -0.36561397, -1.93115211, -0.73983115, -0.05324693, 0.23259136, 0.29787719, 0.04380535, -0.28595045, 0.00085341, 0.05972073, -0.00978243, -0.34715298, 0.12006283, -0.95862985, -0.02860520, -0.44401869, 0.00442020, -0.06830933, 0.03409223, -0.08430580, 0.43222487, -0.78802890, -0.06304534, 0.04685423, 0.07401681, 0.23337173, 0.02140483, 0.19061212, 0.34374803, -1.06272089, 0.37804472, -1.72115958, 0.01550795, -0.04800023, -0.04263067, -0.06032440, -0.02710300, 0.08120640, 0.08058641, -0.08790654, 0.01128639, 0.13447593, -0.20888831, -0.11189960, 0.09588324, -1.36581278, -2.74912643, 0.00684982, -0.75479025, 0.07521703, -0.40159136, -2.52866483, 0.06574864, -1.03630674, -2.94609928, -0.76644158, 0.13195413, -1.61838686, 0.13388152, -0.08262737, -0.90390944, -1.55365026, -0.47025523, -0.01527099, -0.20153567, -0.00193989, 0.06281084, 0.01281728, 0.12209322, 0.48544848, -0.42429629, 0.03700007, -0.06818580, -0.56002635, -0.37512216, 0.25614443, -0.61744034, -0.03453562, -0.20592500, -0.39475295, 0.00055616, 0.15362142, 0.12482639, -0.00401123, -0.10499710, -2.11630559, -0.32507908, 0.08867557, 0.08190243, -0.21239483, 0.40485409, -0.40314847, 0.02052875, -1.47111654, -0.00083403, -0.00939087, -0.02738858, 0.12029571, 0.05831746, 0.05624671, -0.04118564, -0.36642045, -0.04994710, 0.00199521, -0.03891147, -0.01486602, -0.03673365, -4.41666985, 0.69461566, 0.00881781, 0.57995880, -0.41450864, -0.01413755, -1.61066079, -0.05413819, -2.94877648, 0.00141056, 0.05147461, -0.43313566, -4.04529619, -0.23695636, 0.07159941, -0.44248587, 0.00297393, 0.02116880, 0.02816188, 0.43406680, 0.12701602, 0.16545233, -2.97542095, -0.03103831, -0.53173280, -0.00218094, -0.07459179, 0.00259151, 0.17186119, 0.18686926, 0.11042746, -0.53024954, -0.90835512, 0.09394754, 0.44201785, -0.31471330, -0.01238671, -1.64087939, 0.05664589, 0.06620108, 0.12010515, 