// Auto-generated field NN weights
// Architecture: [256], activation=relu
// Parameters: 1795, FLOPs: 3328
// MAE: 11128.99 Gauss, p99: 57990.7 Gauss

#pragma once

static const float net_0_weight[768] = {
  -0.81936240, -0.27365857, -0.62927461, 0.09785132, -0.27050608, 0.64493614, -0.77280152, -0.21238282, -0.42407525, 0.91969424, 0.11244281, -0.46786857, 1.06250989, -0.07301643, -1.14490819, -0.35658425, -0.48298603, 0.28806627, -0.83007264, 0.39667052, 0.37831581, 0.22385189, 0.26805303, -0.76039159, 0.24487168, -0.45016780, -0.18054627, 0.55330521, 0.08901572, -0.30673420, 0.45535800, -0.44262728, -0.03740798, -0.45658347, -0.25762010, 1.12102485, 0.53719103, 0.04704235, 0.15954445, -1.10198188, 0.34527686, -0.60348004, -0.32290152, 0.11234012, -0.83854985, 0.05295103, 0.36210638, 0.70468819, 0.86646277, 0.08888011, -0.20113721, 0.09845504, 0.06325984, 0.54047251, 0.16734509, 0.04527936, -0.91200501, 0.09997140, 0.24638961, 0.81959796, 0.20126972, 0.16753180, -0.53921175, 0.35843307, 0.20254120, -0.83694828, -0.99410909, 0.38556191, 0.14057042, 0.10900298, -0.41693282, -0.35413012, -1.17000377, 0.06527478, -0.83239543, 0.13677457, -0.29763481, -0.46301329, -0.64307463, 0.21376412, -0.72399914, -1.71249735, -0.08793216, -0.07280949, -0.23848784, 0.38975275, 0.39640242, 0.40709445, 0.21538568, 0.02245703, 0.91877621, 0.13877364, 0.02271588, -0.39055324, -0.51142544, -0.10721422, -1.14354920, -0.29473299, 0.15909155, 0.86189097, 0.28466246, 0.36839035, 0.07585382, 0.03984684, -0.02493588, 0.48689368, -0.15823373, -1.01073003, -0.18483035, -0.40319869, -0.37007540, 0.05948914, 0.16505297, 0.17523865, 0.13134307, 0.41670129, -0.15736356, -0.90453851, 0.41870555, -0.34028104, -0.70699918, 0.27742457, -0.24871181, 0.90856218, -0.13664816, -0.59694284, -0.31270537, -0.04667368, -0.36136350, -0.94371736, -0.25461796, -0.19802985, 0.10202109, 0.15607312, 0.57343286, 0.15046656, -0.22868986, 1.14883912, -0.65437829, 0.13326401, -0.75446731, 0.92560446, -0.48093426, 0.61478490, -0.08274364, -0.21119665, -0.42556298, -0.46430868, 0.14884207, 1.12657094, 0.59422028, 0.23663470, 0.66329288, -0.01304701, -0.06314279, 1.19716728, -0.89375371, -0.43540972, 0.12426095, 1.05656147, 0.29684290, 0.44928527, 0.69913715, -0.38981441, 0.38715160, -0.25832790, 0.39210409, 0.54785806, 0.18764567, -0.10463548, -0.46588543, 0.29093990, 0.32683945, -0.45414591, 0.08246978, 0.10569675, 0.73235989, 0.45491871, -0.13660046, 1.00896943, 0.58961910, -0.17974800, 0.48739323, 0.39945239, -0.29217198, 0.25810304, -0.40180656, 0.20256703, 0.57479715, -0.34955522, 0.52916205, 0.84859669, -0.43341309, 0.34505802, 0.59142727, 0.21955796, -0.06555781, -1.25123644, -0.82221419, 0.38284704, -0.02454519, -0.87845361, 0.39710617, 0.47649190, 0.56936747, -0.20788305, -0.54801702, -1.57189000, 0.07779954, 0.34692374, -0.89096332, -0.30860817, 0.64483249, -0.98289412, -0.25984874, -0.24236228, -1.67347622, -0.08474621, 0.28589335, -0.15984873, 0.04046677, -0.14945744, -0.06053866, -0.44660634, 0.03544823, 0.12889683, 0.30294973, 0.24427868, 0.12469234, 0.45307302, -0.43012631, -0.51366758, 0.08981102, 0.34665462, 0.72698164, -0.11100341, 0.77674383, -0.35141465, 0.02486105, 0.18056613, 0.22892357, -0.35270420, 0.28215909, 1.61124194, -0.08235691, -0.64209759, -1.20892668, 0.32761303, -0.14566636, -0.42168906, -0.49894249, 0.78593266, 1.53537059, 0.07840513, 0.26146838, 0.12575503, -0.20367347, -0.71036023, 0.83660114, -0.36651424, 0.82125515, 0.55392349, 0.33516297, -0.22740656, 1.26768255, -0.07633782, 1.15031481, 0.51545614, 0.21043304, 0.68994278, 0.44312918, 0.26425785, -0.09974360, 1.14851117, 0.07408889, -1.07437766, 0.12861739, 0.40353507, 0.78991020, -0.32299918, -0.04982220, -0.97059911, -0.30111891, -0.06027754, 0.54397357, -0.15484124, 0.11270464, -0.02418317, 0.38957092, -0.19695528, 0.86698711, 0.69944310, -0.42601913, 0.86771506, 1.10837162, -0.06723523, -0.89170885, -0.98166424, -0.18579225, -0.54501617, -0.18621628, 0.11962567, -0.51514477, 0.57787311, -0.03621559, -0.16409291, 0.19483456, -0.45743716, -0.17764744, -1.09075212, 0.14109674, -0.45056403, 0.86219418, -0.34841010, -0.24739553, 0.78949428, 0.17681551, 1.02134943, 0.51593482, -0.11506988, -0.76292020, -0.37815982, -0.16148229, -0.64090085, -1.41016316, -0.07242128, -0.57992804, 0.10687302, 0.11096226, 0.05541050, -0.64508057, 0.52251112, 0.09798336, -1.02653158, -0.05607186, -0.74659538, -1.13367641, 0.05819307, 0.02080178, -0.01394222, 0.23430564, -0.70215839, -0.93888319, 0.09061537, 0.07820953, -0.97642654, 0.28137973, 0.47641224, -1.36761427, -0.08087116, 0.92980129, -0.30835724, 0.32666442, -0.84803367, 0.31665125, -0.16135097, 0.54815680, -0.67737907, -0.09256792, 0.70144773, -0.82069623, 0.32185209, 0.28825083, 0.57039434, 0.44445726, 0.42559358, -0.25770697, 0.14390808, -0.02783889, 0.36437958, 0.27784464, -0.91705918, 0.11735156, -0.02571755, 0.01100823, 0.84554076, 0.43697906, -0.38392422, -0.94091195, -0.40625688, 0.15348724, 0.66343540, 0.18299562, 0.12622479, -0.12149291, -0.23470616, -0.54229087, -0.15408337, -0.02424731, -0.03786605, -0.76254588, -0.04971619, 0.84498310, 0.28867722, 0.35727865, 0.08185060, 0.01157689, 0.01308363, 0.07020348, -0.37822500, -0.10791159, 0.95744014, -0.46919888, -0.12157816, -0.80719000, -0.00928716, 0.44641688, -0.01677090, -0.81604749, -0.20467681, 0.37809324, -0.00616368, -0.10541553, -0.34288555, 0.20395890, 0.28991833, -0.07791173, 0.29677039, -0.04813024, 1.00562966, -0.53646106, -0.26395178, 0.74201077, 0.98556250, 0.10052771, -0.15770149, -0.11765303, -0.14216183, -0.21110667, -0.30247176, -0.10159880, -0.38565409, -0.09527910, 0.01262293, -0.10867820, 0.71196598, 0.30610386, 0.37023571, -0.49365386, -0.28383920, -0.31734070, 1.08016634, 0.11710041, -0.08278555, -0.57026368, -0.20012978, 0.58087063, 0.14847390, -0.32550764, 0.31664920, 0.19570239, -0.31973734, 0.25683394, 0.69340360, 0.21347514, 0.47293350, -0.10646059, 0.30332246, 0.15256874, 0.34944490, 0.09945343, -0.49811909, 0.28463942, -0.15593244, -0.43594104, 0.24770674, -0.12617981, 0.51749384, 0.84573543, -0.41211188, -0.25677326, -0.18688023, 0.25457707, -0.57092047, 0.60050744, 0.29756764, -0.37942180, 0.88170677, -0.21917999, -0.52016085, 0.01144410, -0.03586050, 0.05586374, 0.93056387, 0.26465422, -0.51541764, 0.18029457, 0.47836864, 1.09516180, 0.51667100, 0.18375006, -0.49929896, -1.11233699, -0.27513081, 0.17425905, 0.31204382, -0.09598764, 0.12608689, -0.14796372, 0.22904329, -0.63675684, -0.40246111, -0.12691167, 0.53689373, -0.94336873, -0.20926961, 0.00469315, 0.70517546, 0.16235442, -0.22226959, -1.26546252, -0.08281705, -1.15042329, -1.19135010, -0.29918295, -0.10604398, -0.78376269, 0.36649412, 0.11504368, 0.88059121, 0.12207843, 0.49276283, 0.60108000, 0.33219671, -0.30594647, 0.70080197, 0.29242310, -0.36617079, -0.90339428, -0.19142538, 0.70564133, 0.11537507, -0.25965074, 0.89539337, -1.32474256, 0.06704026, -0.38212788, -0.61142671, 0.05385991, -0.94069707, 0.69995236, 0.18270114, 0.09621704, -0.63442832, -0.57439321, 1.00815356, 0.90950805, 0.23646161, 0.02906235, -0.68252873, -0.45285261, 0.02697081, -1.20185411, 0.06076479, -0.56489348, 0.80424589, 0.22735798, 0.48000771, -0.63236386, -0.13117683, 0.10194927, 0.20334898, 0.12904052, 0.18277670, 0.13179219, -0.49207512, 0.35934374, -0.08117075, 0.29157966, -0.05514085, 0.76745766, 0.30724585, 0.27865919, -0.95450419, 0.41602936, 0.06942520, -0.74469382, 0.47259414, 0.91808951, -0.21851657, 0.11141617, -0.21766314, 1.05837512, 0.11781743, -0.58603281, 0.74787861, 0.06564487, -1.05895126, -0.32889846, -0.02854098, 0.33971342, -0.34881112, -0.09006385, -0.72155970, 1.06626379, -0.14042516, -0.15410130, -0.38624731, 0.17367245, 0.41381779, 1.21458864, 0.06436613, 0.72464794, 0.79969966, 0.28850487, 0.35795382, 0.62137723, -0.21356884, -0.50819701, -0.26122713, -0.06077487, -0.01727547, 0.89365202, -0.10737784, 0.41599986, 1.09711921, -0.27559161, -0.20002991, -0.12466170, -0.30168113, -0.53143257, 0.28891751, 0.02257289, -0.08123607, -0.01189285, -0.38973111, 0.34671706, -0.03024705, -0.40343541, 0.25364649, 0.38178888, -0.34613425, 0.80647463, -0.09843659, 0.28501624, -0.53646839, -0.21711880, -0.27153090, -0.48963869, 0.06262548, 0.30001420, 0.02953001, 0.84560353, 0.45375490, -0.30454317, 1.05368865, -0.32664147, 0.05964441, 1.53135991, 0.07751125, 0.43024424, -1.02317870, -0.37282377, 0.57123840, 0.51126212, 0.35654816, 0.99008888, -0.88857728, 0.50248963, 0.47853452, 0.79340112, 0.06361115, 1.13434231, -0.60787708, 0.38132939, 0.60862350, 0.59338301, -0.40421781, 0.68235600, 0.90751350, -0.10289136, -0.28346777, 0.32640466, -0.16197754, -0.64264125, 0.40275568, 0.06509089, -0.25730556, -0.10999580, -0.14625438, -0.98390400, 0.88403791, -0.24711330, 0.31089926, -0.79401076, 0.06614555, 1.18117344, 0.21447317, -0.33935732, 0.02766679, 0.45975780, -0.20490845, -0.33157405, 0.09917527, 0.48238307, -0.01390179, 0.00778567, 0.05342807, 1.07612610, -0.27565530, 0.23823407, 0.57977635, -0.41974422, -0.06118651, 0.31632200, -0.52903169, -0.49903879, 0.74554408, -0.42873082, 0.33184659, -0.54054379, -0.90867227, -0.09902851, 0.31872046, 0.64558035, -0.15329133, -0.05509496, 0.79028398, -0.20375678, -0.49065262, 0.49739954, 0.27724886, 0.97030789, 0.38800278, 0.14850977, -0.95894057, -0.18726638, 0.36142749, 0.50831145, 0.80462295, 0.34435269, -0.22503805, 0.68893421, 0.39349806, 0.22390312, -0.27823529, -0.01272058, 0.63328862, 0.75645614, -0.47928190, 0.54554337, -1.53713214, 0.07784227, -0.14238150, 0.67979652, 0.20197795, -0.49645329, 0.37354541, 0.22149752, 0.68655378, 0.78737634, 0.26755035, -0.66063511, 1.58208084, 0.08064438, -0.59812957, -0.06776567, -0.40668622, 0.30209839, -1.15501451, 0.15159041, 0.68783003, -1.39524269, 0.07086121, -0.25850296, 0.21611948, 0.36810440, 0.72575158
};

static const float net_0_bias[256] = {
  -0.27146226, 0.61562163, -0.45621184, -0.46049717, -0.47010592, 0.00686660, -0.40756920, 0.03415623, 0.08847917, 0.26004061, -0.02065811, -0.05147364, 0.19064280, -0.23690471, -0.60372108, -0.20323962, -0.30585656, 0.36555842, -0.37584934, 0.33409530, -0.00441190, -0.59442890, -0.65959430, -0.22286335, -0.34390181, -0.55088842, -0.57010567, -0.03003330, -0.39574564, 0.40275943, -0.29954648, -0.20238173, 0.06235753, -0.39213583, 0.10132476, -0.76700264, -0.19998582, -0.14804751, -0.36722630, -0.74601924, -0.61464572, -0.56684607, 0.31739148, -0.06639116, -0.26637229, 0.02377757, -0.60631657, -0.61488712, -0.47131845, 0.12556669, 0.26952377, 0.48354182, -0.58221966, 0.17954360, -0.40323606, -0.34020710, -0.06585074, 0.27756470, 0.52790117, 0.10893680, -0.48173472, 0.46048811, 0.23360673, -0.57578969, -0.25368625, -0.51420707, 0.16921932, -0.53394192, -0.22188531, 0.13979061, 0.25364456, -0.11015423, 0.11764660, 0.14658454, -0.29244974, 0.08719022, -0.08583368, -0.45455781, 0.04609500, -0.31078136, 0.07819885, -0.25952357, -0.06725853, -0.39184892, 0.10803426, -0.30363500, 0.31917858, 0.36298630, 0.46945682, 0.01381732, -0.25025260, -0.44657800, -0.23888946, -0.39845559, 0.37237650, 0.34700999, 0.59140587, -0.42140538, -0.36658391, -0.61989373, -0.07355834, 0.31996685, -0.23402227, 0.15596966, -0.75079060, 0.02264817, -0.05303376, -0.46600610, -0.23852056, 0.38331789, -0.27696431, -0.30659392, 0.00791931, -0.29950780, -0.19695871, 0.20895451, 0.38974997, 0.25166312, -0.35508251, 0.52864581, -0.01637408, 0.09036162, -0.09102138, -0.02573505, -0.54766500, 0.12593526, -0.68067181, 0.29346824, -0.64230454, 0.29351363, 0.35227957, -0.07253274, 0.15904097, 0.13954890, -0.61330956, -0.71183795, 0.15999067, -0.14600970, -0.42790306, 0.41345271, 0.28832376, 0.18375655, 0.43639421, -0.03372006, -0.01218352, -0.27806357, 0.07887812, 0.25074944, 0.22607876, -0.43287766, -0.35065943, -0.08504221, -0.13059723, 0.30495471, 0.02736167, 0.36168507, -0.69924271, -0.58062685, -0.57229233, 0.05766311, -0.44654000, 0.31594241, -0.39588088, -0.18778329, 0.42863640, -0.56841820, -0.68089288, -0.30397493, 0.27042559, 0.11559252, -0.47298974, 0.35306007, -0.48527297, -0.07545601, -0.60220373, -0.69755626, -0.12033163, 0.04267523, -0.15863231, -0.38371137, 0.02943444, -0.59376943, 0.00397268, -0.62845910, -0.23324586, 0.20952293, 0.31641147, 0.31548694, -0.56205022, 0.17568114, -0.31573793, -0.56974137, -0.47188416, 0.05956077, 0.05593594, -0.44316003, -0.53170806, -0.09130430, -0.38943031, 0.15618864, 0.29973549, 0.08807781, -0.19998114, 0.48237216, 0.42827073, -0.11058334, -0.64414436, 0.02856647, -0.53040344, -0.48650330, -0.13144581, -0.60422647, -0.56387073, 0.04913326, -0.45560777, -0.40854231, 0.17697892, -0.26730874, -0.06323422, -0.53055787, 0.46785635, -0.29339167, -0.29059556, 0.13138573, -0.46409476, 0.21620923, -0.09464532, 0.12628265, 0.48833799, -0.12609249, -0.40831053, -0.36525992, 0.44590068, -0.44526264, 0.27422699, -0.41664064, 0.23232244, -0.11931838, -0.03417796, -0.45915794, -0.12888132, -0.71631634, -0.30853391, -0.56843323, -0.22514006, -0.12334259, -0.47799867, -0.06076360, 0.05404587, 0.24371484, 0.07994218, -0.24895020, -0.45072696, -0.08048097, -0.10846718, -0.19550608
};

static const float net_2_weight[768] = {
  -0.18478145, -0.04383240, 0.72453922, -0.74379098, -1.14538872, -0.04187536, -0.45401525, 0.06954807, 0.01516309, -0.04763356, -0.00792992, -0.37167585, -0.22783563, 0.32744217, 0.68653399, 0.03142878, -0.70626283, -0.16141646, 0.54894340, -0.02293409, 0.16232823, 0.48079440, 0.94960213, 0.02299540, -1.12468159, -0.05430565, -0.47885028, 1.08082259, -0.17423798, -0.05819651, -0.76040024, -0.04319049, -0.18487860, -0.80663824, -0.01695353, 0.85200459, 0.00366494, 0.03035653, 0.03336397, -0.73375380, 1.01720738, 0.97026199, 0.03442848, -0.17608681, 0.04376761, 0.16613261, 0.93134958, 0.73903608, 0.20863973, 0.37278575, -0.13951723, 0.01034726, 0.75551432, -0.19946548, -0.38198850, -0.24211119, -0.14303398, 0.07445838, -0.00243532, 0.36308196, -0.14761803, -0.01963336, 0.17403953, 0.42184478, -0.36157674, -0.50139695, 0.14319979, 0.84744495, 0.16651741, -0.83038408, -0.15937991, -0.14072295, 0.94748831, -0.03105476, -0.02463875, -0.02386595, -0.01605839, -0.15871094, 0.49026477, -0.13278738, 0.04086632, -1.04780614, 0.29289111, 0.25106317, 0.87946147, -0.01940004, 0.18111761, 0.05455973, -0.74447525, 0.34594241, -0.17586744, 0.82936543, 0.07238434, 0.71228164, -0.20448156, 0.00199470, -0.18959349, 0.49089131, -0.92392486, -0.90091038, -0.09772269, -0.08580976, -0.01897286, 0.32486150, 1.06302583, -0.54027104, 0.21681501, 0.58489788, 0.84576023, 0.00230153, 0.15623002, 0.75860286, -0.88572979, 0.02127924, 0.79104984, 0.15873013, 0.71211344, 0.09873696, -0.10567527, -0.18823068, 0.11089756, -0.04640265, 0.14512883, 0.13952696, -0.00570174, -0.11066259, -0.85342789, 0.18304233, -0.46810633, 0.04236933, 0.57215846, -0.01640030, -0.01068246, -0.30014300, -1.05072868, 0.02935723, -0.03840575, 0.01544666, 0.02395561, -0.49938238, -0.19133775, -0.29181811, 0.01702112, 0.12447651, 0.04320375, 0.43749949, -0.05636947, -0.32592824, -0.13942018, 0.29322493, -0.26145801, 0.37455371, 0.09109179, 0.03515257, -0.13373967, -0.12316366, -0.82511133, -0.28431785, 0.78077096, -0.22815162, 0.04660787, -0.23460908, -0.16912456, -0.15687495, 0.22894335, -0.25407901, 0.35509521, 0.14751801, 0.22080795, 0.17847168, 0.99539393, 0.22633922, -0.55710930, -0.62690455, 0.43933842, -1.30084538, -0.52474928, -0.10615439, -1.07802975, -1.07760751, -0.22952993, -0.50907415, -0.21195875, 0.15365274, -0.96699136, -0.19969574, -0.11878996, -0.05002829, -0.10439037, 0.06071131, 0.51966888, -0.51449496, 0.49850902, -0.04494310, -0.35154489, 1.00352669, 0.09152049, -0.26312852, 0.90903455, 0.17809944, 0.47071627, -0.15916292, 0.15070321, 0.04205605, 0.26015800, 0.22715507, 0.13644809, -0.08189040, -0.00146642, 0.05308206, -0.20881163, -0.11697193, 0.20396656, 0.01427897, -0.13864528, -0.42045197, 0.82052153, 0.44811082, 0.28704256, -0.40594640, 0.59532779, -0.43637553, -0.45405161, 0.24002737, -0.61131561, -0.04241570, -0.07574240, 0.23596179, -0.57590300, 0.08548222, -0.28700814, -0.01431633, 0.07474436, -0.17670952, -0.15795542, 0.32267183, -0.06340388, -0.60941333, 0.22325681, -0.59697002, -0.35987648, -0.73436016, -0.16135450, 0.51588190, -0.12741029, 0.04901371, -0.42190513, -1.00942862, 0.18403073, -0.09078351, 0.20143008, 0.98556173, 0.00792562, 0.63637072, -0.73960310, 0.11738014, 0.09685076, 0.13180754, 0.21297778, -0.10740293, -0.03568988, -0.10077567, 0.19003460, 0.05760241, -0.12485315, 0.01325306, -0.14991507, -0.25189093, -0.03246350, 0.11667351, -0.14358632, 0.25479662, -0.03532308, -0.05578383, -0.04295765, 0.13741331, 0.04703942, 0.33900523, -0.42183897, -0.12455137, -0.05568372, 0.33996579, 0.26946476, -0.06180071, 0.25861886, -0.09282015, -0.18180448, -0.15355383, 0.14527991, -0.31571487, -0.01553301, -0.26163426, -0.10561270, 0.20339659, -0.08261439, 0.37825358, -0.45841771, -0.12638846, 0.00295007, 0.06279975, 0.17012200, -0.19205879, -0.24550526, -0.40107796, 0.40733033, -0.06253821, 0.13270500, 0.01606751, 0.34036618, 0.06897039, 0.25585321, 0.30127364, 0.03339421, 0.08671791, -0.07148796, -0.00847128, 0.13118099, 0.09047934, 0.11868031, -0.57769233, 0.19661529, -0.05284584, -0.04443824, -0.39890581, 0.13886614, -0.04570281, 0.06575741, 0.08831970, -0.05703367, 0.00865733, -0.18141136, -0.11291390, -0.12281953, 0.05263298, 0.03072072, -0.01125788, -0.09932544, -0.06814312, 0.10481276, 0.20681079, -0.00728818, 0.25495380, 0.08565763, 0.08432017, -0.04223054, 0.07830432, 0.05748035, 0.00591240, 0.24782741, -0.12003911, -0.09146032, -0.01791191, 0.09322754, -0.39445707, -0.04797120, -0.20881815, 0.08064330, -0.00080717, -0.13506018, -0.05361907, -0.45563668, -0.05369195, -0.04531064, 0.31659552, -0.06040606, -0.03478114, -0.10961962, 0.01162203, -0.07096183, 0.19472580, -0.04752677, 0.13855816, -0.08487780, -0.08179650, 0.13119169, -0.01971959, 0.03947325, -0.07803326, -0.11583778, 0.10589388, 0.05092210, 0.05539741, -0.44991007, 0.04943870, -0.94939828, 0.00777123, -0.03749166, -0.12303427, -0.00075930, 0.03543340, -0.19117072, 1.02479947, 0.11790565, 0.05835962, 0.38296375, -0.08810924, 0.10245838, -0.03386256, -0.05811185, 0.05710680, 0.00444693, 0.14070706, 0.04115026, -0.05565543, 0.13727748, -0.81603009, 0.47801518, 0.04797603, -0.17773229, -0.00067877, 0.02574128, 0.08478893, 0.44705522, 0.33961937, 0.39486921, 0.03701834, -0.04456138, -0.06453677, -0.45555073, 0.05232365, 0.07157763, 0.12294987, -0.70024747, 0.09317722, 0.06495191, 0.02282330, -0.05033758, 0.05339766, 0.32755691, -0.08272944, 0.34275585, -0.68834406, -0.12877654, 0.19780275, -0.00397873, -0.08629835, 0.06381641, -0.40958059, 0.05982808, 0.28012118, -0.05438523, 0.09821279, -0.07968052, -0.00611784, 0.60952163, -0.14198874, 0.20091121, 0.19110724, -0.31540108, 0.04047320, 0.00082544, -0.05349328, 0.07880145, -0.00705289, -0.13208649, 0.00244227, -0.06798968, -0.03946209, 0.07964846, -0.05317811, -0.04971051, 0.14256726, 0.47902492, -0.00310500, -0.88348514, 0.53276163, 0.07521501, 0.39106989, 0.28493068, -0.13073976, 0.01381031, 0.10886026, -0.07533698, 0.06706508, 0.16488825, 0.28467953, -0.04750100, 0.26615790, 0.27878982, -0.06391811, 0.28334138, -0.00726868, -0.06023952, 0.12138700, -0.05260353, -0.13845287, 0.16370325, -0.17485070, -0.12539472, 0.21771224, -0.03480221, 0.26944661, 0.10006639, -0.04031854, 0.08372196, 0.12946464, -0.20583563, -0.24838153, 0.30528188, 0.10668974, 0.02941511, 0.18449964, 0.25316513, -0.03088055, 0.07492136, 0.13381472, 0.02572144, -0.05335766, 0.30402458, -0.05248415, 0.01170912, 0.16245823, -0.12132931, -0.15305613, 0.20052245, 0.17990425, 0.67785174, 0.01017066, 0.12407862, -0.14458437, -0.06601561, 0.03667774, -0.01255584, 0.45963597, -0.01279861, 0.11904562, 0.91455019, 0.33340737, 0.10535991, -0.33297092, -1.68993378, -0.18335225, -0.19098763, -0.63883758, -0.11801994, -0.03421535, -0.48438776, 0.18371144, -0.36005068, 0.02966344, 0.12471133, 0.00997416, -0.04238101, -0.02145590, -0.00962143, -0.19008985, 0.02625104, -0.94343501, -0.05776420, 0.06778758, -0.02981164, -0.15995431, 0.18708734, -0.40675053, 0.01465367, -0.05072769, 0.25695243, 0.59901619, 0.60278648, 0.29597738, 0.60916924, -0.50083703, -0.05118091, -0.78924155, -0.10919610, -0.07237305, -0.13107181, 0.34119731, 0.13140464, 0.00650884, -0.29681820, 0.46709976, -0.09723111, 0.04487846, -0.05277806, -0.57265252, 0.28564483, 1.44977391, 0.02534637, -0.29250613, -0.10597477, 0.12865017, 0.03101397, -0.02835234, -0.06872690, 0.05391731, -0.00155689, 0.03410179, 0.06101996, 0.09920663, 0.24738850, 0.04217020, 0.02482071, 0.25300288, 0.03133342, -0.27894273, 0.09764650, -0.15299979, 0.13092527, 0.04674928, -0.37197992, 0.24083723, 0.04172063, -0.46148169, 0.36791676, 0.98029780, 0.17940602, 0.07253585, -0.16120794, 0.38527295, 0.40498826, -0.28109246, -0.10781071, 0.01700366, 0.00427253, 0.08552983, -0.15990341, -0.34083357, -0.16295688, 0.58844501, 0.22447293, 0.08677137, -0.00633026, 0.29117191, 0.02121465, 0.30966607, -0.05173498, -0.01236311, -0.23315172, 0.18088360, -0.14455920, 0.14549677, -0.00559005, 0.00099030, 0.02324405, -0.16427951, 0.03983590, 0.05646481, 0.09836499, 0.01846040, -1.38238168, 0.02935205, -0.29556328, 0.02232279, 0.03136376, 0.46091560, -1.01235747, -0.02211721, 0.04283008, -0.12653424, 0.01955622, -0.71415299, 0.12408023, 0.01198286, 0.04067104, 0.09790140, 0.03294057, 0.14339386, -0.02772972, 0.04405273, 0.10179713, 0.37548375, -0.21516417, 0.15514621, -0.02613878, 0.02706881, 0.07676478, -0.12510407, 0.14390314, -0.58023983, -0.24954720, 0.04767177, 0.05410030, 0.10980559, -0.69035268, 0.10087473, -0.03795194, -0.05720928, 1.06097174, -0.14669351, 0.00928552, -0.02690884, 0.52611297, 0.04818764, 0.05630416, -0.22143319, -0.12807314, 0.34882072, 0.21985926, -0.42702806, -0.20155369, -0.96449238, -0.03159447, 0.41446877, 0.00827836, -0.01833580, -0.31262475, -0.03808755, 0.05187537, 0.01244592, -0.19488712, 0.05618714, 0.07268330, 0.03620379, -0.33272320, -0.01114828, 0.14090483, -0.92030400, -0.04859198, -0.29891214, -0.07430231, -0.06481099, 0.18652047, -0.02535319, -0.11436505, 0.05228872, 0.09164123, -0.05475120, 0.44747037, 0.01231960, 0.30472004, -0.15254080, -0.28303415, -0.38653412, 0.37961057, -0.00047953, 0.02006841, -0.01781281, 0.17744213, -0.22717439, 0.39332595, 0.13821092, 0.49128082, 0.25744426, -0.35520628, -0.06590579, 0.58218342, -0.00224157, -0.37603861, 0.05833425, 0.59079617, 0.01471936, 0.10228910, -0.00280707, 0.76382250, 0.19140585, 0.13481995, -0.26250333, 0.00577119, 0.09662674, -0.04022533, 0.20117512, -0.50664675, 1.03978801, 0.27907783, -0.10415939, -0.02003284, -0.08928882, -0.18446775, -0.05395553, -0.04432042, -0.09463389, -0.06658158, -0.27003855, -0.10893499, -0.21549450, -0.11213848, 0.22063591
};

static const float net_2_bias[3] = {
  -0.05041870, -0.07411819, -0.01993178
};

static const float input_mean[3] = {0.00000000, 0.00000000, 6749.99951172};
static const float input_std[3]  = {2338.09155273, 2338.09155273, 4214.56005859};
static const float output_mean[3] = {0.00000001, 0.12292606, -0.00000000};
static const float output_std[3]  = {22.14661598, 71.60929108, 22.14662170};
