// Auto-generated field NN weights
// Architecture: [256], activation=silu
// Parameters: 1795, FLOPs: 4096
// MAE: 7377.38 Gauss, p99: 51195.9 Gauss

#pragma once

static const float net_0_weight[768] = {
  -0.20705526, 0.28185928, -0.41097504, 0.50718302, 0.11118413, 0.36873358, 0.20464303, 0.46330979, -0.52876449, 0.01774298, -0.31040111, 0.34493461, 0.34485459, -0.18646087, 0.08407626, -0.49194589, 0.26418835, 0.45679894, 0.39013380, -0.01316118, -0.32411972, -0.23181559, -0.38448396, -0.26012713, 0.34545401, -0.25135070, 0.53162628, -0.05331063, 0.03306636, -0.26100299, -0.22843488, 0.22778855, -0.39282507, 0.25036722, 0.23881647, -0.42527473, -0.40139988, -0.37231213, 0.53960305, -0.17816436, 0.22944407, 0.13076097, -0.42982006, -0.05070410, -0.06053226, -0.00869371, 0.47879964, 0.21010889, 0.26662362, -0.26440409, -0.09119094, -0.55397153, 0.24453391, -0.62204206, -0.24205589, -0.33837447, 0.08182583, -0.46147761, 0.20050487, -0.07876664, 0.02131762, 0.33082059, 0.44260013, -0.50191611, -0.17971909, 0.15375923, 0.33023015, -0.25540820, 0.19099441, 0.56323081, -0.40361583, -0.26874617, 0.00878621, -0.02428853, -0.23948985, 0.21793851, -0.10624817, 0.32255784, -0.46659914, 0.35352927, 0.25608861, 0.12464382, 0.26035655, 0.55078787, 0.43251890, 0.45780289, 0.09699661, -0.35457534, -0.05224312, 0.25652492, -0.05894408, -0.34484509, 0.12847754, -0.19988726, -0.08150022, -0.13246284, 0.57367051, -0.31030124, 0.05090668, 0.54882497, 0.08964113, 0.16518661, -0.21616216, -0.01406118, 0.31146711, 0.20214219, -0.10470543, -0.12134469, -0.30601564, -0.19685601, -0.45057309, -0.44044980, -0.27446648, -0.14426079, -0.25654012, 0.00485105, 0.10610007, -0.10553795, 0.04461832, 0.16367191, 0.23163909, 0.38642710, 0.02415889, -0.10197343, -0.26692212, 0.29879469, 0.18006520, 0.15316911, 0.14231576, -0.01908564, 0.32362893, 0.20302013, -0.07364248, -0.44045338, -0.32194632, 0.29114717, -0.38101739, -0.40329507, -0.53006160, 0.11940563, 0.22047284, 0.34757745, 0.13094880, -0.27218020, 0.30679730, -0.48961747, 0.33001134, -0.21256039, -0.27597514, 0.27980176, -0.69040257, 0.53386855, -0.12454350, -0.10891950, 0.15108524, 0.20052227, 0.19129254, -0.36117828, 0.06661424, 0.29712993, 0.45727417, -0.44203097, 0.43351433, 0.21067116, 0.16204454, -0.28015110, -0.44098550, 0.13069056, 0.54765624, -0.14947414, 0.21827009, 0.11946488, -0.04838591, 0.34798554, 0.45912582, -0.21434738, -0.33649886, 0.44291943, 0.14743939, 0.51831907, 0.06539874, 0.34586012, -0.28692603, -0.21126078, -0.08978042, 0.17717847, -0.13347468, -0.07315515, 0.27161142, -0.03796936, -0.35070139, 0.28494292, 0.14011686, 0.04384725, -0.01479279, -0.71772856, -0.52429402, -0.60502744, 0.41107604, -0.12568331, 0.41730246, 0.24986045, -0.35089061, -0.33961934, 0.03187671, 0.09227247, 0.13979726, -0.32935491, -0.00878672, 0.07015555, -0.39299214, 0.23929919, -0.26583803, -0.25850210, -0.39505318, -0.34338528, -0.48916414, -0.16604084, 0.55408454, 0.14424175, 0.38545582, 0.12643547, 0.06927526, 0.36752549, 0.25966674, 0.41806164, 0.00308355, -0.08109707, 0.45605341, 0.04622577, -0.31120190, -0.24561444, -0.18968034, 0.41694796, 0.00251140, -0.01162997, -0.40106875, 0.49547717, -0.34972402, -0.21967404, -0.20791022, 0.31101173, 0.30078450, 0.33471498, 0.11594652, -0.30119500, 0.55739629, -0.16964416, 0.25330171, -0.30638510, 0.05922893, 0.39735121, 0.26811078, 0.20427778, -0.05575721, -0.33905032, -0.34797800, 0.25501242, 0.09277277, 0.05023921, -0.15267399, 0.41561344, -0.03977335, -0.26465970, -0.55465722, -0.30197200, 0.09973746, -0.09931067, 0.20125979, 0.04500098, 0.13459468, 0.07298459, 0.13431491, -0.46579733, 0.46048197, -0.08390306, -0.40736914, -0.50883913, -0.31828994, 0.22737074, -0.22659388, 0.07919465, 0.50258571, -0.14659706, -0.28733957, -0.26395184, -0.19829799, -0.51328230, 0.23714523, 0.46866783, 0.39566314, 0.01791198, -0.00319843, -0.10064147, 0.31417415, 0.43029848, -0.43950307, -0.13882816, -0.32512856, -0.01464452, 0.37235758, 0.13242097, 0.23176600, 0.76996177, 0.43031538, 0.68674445, -0.07076596, -0.34080285, -0.20253463, 0.08019264, 0.16401276, 0.44704610, -0.55217379, -0.51071298, 0.07351013, 0.54993200, 0.23577571, 0.51529539, 0.72638786, -0.45331946, -0.63209230, -0.05262461, 0.24373727, 0.11938768, -0.07839699, -0.35339415, -0.14276247, -0.37255496, 0.47689483, 0.44016412, -0.01377718, -0.33195987, 0.52087545, -0.34252667, 0.24235959, 0.43703371, 0.07318164, -0.48376712, -0.38436314, 0.42021272, -0.18892331, -0.18994398, -0.17923006, -0.35046041, -0.33377764, -0.14576359, -0.17250556, 0.58386070, -0.20157304, 0.15892808, -0.48382309, -0.05525076, -0.38950050, 0.18004549, -0.08482055, -0.19436669, 0.36856949, 0.27567765, -0.46595070, 0.19230203, 0.25184965, -0.28699616, -0.19000375, 0.06404976, -0.22982706, 0.15132880, -0.13220504, -0.11188775, -0.46091542, -0.15501718, -0.00609124, 0.13357893, -0.29659194, -0.50000930, -0.13200825, -0.18086225, -0.00475657, -0.20381106, 0.35282424, 0.19146763, 0.43175006, 0.36950311, -0.28871298, -0.05032195, -0.43664587, 0.17610513, 0.36144057, -0.16567536, 0.10802134, -0.09832188, 0.21580902, 0.33483371, 0.01337484, 0.38510561, -0.32405561, 0.59354037, 0.39178088, 0.46941009, -0.34486130, 0.34474254, -0.48013547, -0.55140132, 0.33979625, 0.37283942, 0.16744965, -0.59190243, 0.48483148, -0.09824839, 0.54040241, 0.03916582, -0.16784905, 0.05179814, -0.08798834, -0.50973511, 0.11573332, -0.05920712, -0.40045536, -0.49846828, 0.39571056, 0.12594247, -0.55525720, -0.43933859, 0.21054259, -0.01504608, 0.13906962, -0.25782865, -0.01958349, 0.11455925, -0.03405261, -0.29657507, -0.43386528, 0.39107233, 0.54501510, 0.16741174, -0.00245460, 0.07816201, 0.07468219, -0.43350253, 0.10781216, 0.50121504, -0.13474435, -0.35740235, -0.33660647, -0.31982458, 0.27107495, 0.37188336, -0.42179590, 0.30653876, -0.12396447, 0.36293575, -0.31827629, 0.22051780, 0.55068517, -0.17344573, -0.00619389, -0.09800522, -0.07277372, 0.15666215, -0.06297445, -0.19660456, -0.41035861, 0.49354044, -0.22250056, -0.35825825, -0.16042463, 0.05511091, -0.09085233, 0.15858100, 0.32744437, -0.35280740, 0.35208359, -0.33973444, -0.13374953, 0.44531596, -0.35583508, -0.16497126, -0.14659272, -0.22325017, -0.10661079, -0.40708691, 0.18559399, 0.01006179, 0.42221189, 0.24973491, -0.02541815, 0.30799803, -0.16678409, -0.04450998, -0.33863458, -0.00924833, -0.17042334, -0.34528971, -0.09444021, -0.06663465, -0.26158383, 0.38744828, -0.33323559, -0.48299989, -0.40777323, 0.02672283, -0.35988912, 0.50465888, 0.41535750, 0.09145182, -0.37323669, -0.17342359, -0.44964439, -0.01722266, -0.29459655, -0.28348768, 0.45189711, -0.13558924, 0.57495886, -0.28562433, 0.09809730, 0.28650901, 0.10302955, 0.02965415, 0.26130512, 0.15371603, 0.00861005, 0.42214209, 0.08214766, 0.45911419, -0.44872215, -0.13788432, -0.10425748, 0.35424033, 0.30158141, 0.40820742, 0.50609773, 0.09578253, 0.44846103, -0.38807625, 0.00220956, 0.17383088, 0.23403683, 0.47694299, 0.23209973, 0.41659796, 0.19575405, -0.17891639, 0.25484273, 0.23751234, 0.44170386, -0.41893980, -0.06051841, 0.09114420, -0.21537794, -0.51316279, 0.34299505, 0.63029939, -0.02542044, 0.01217153, -0.21041952, -0.24854991, -0.27835020, -0.10799075, 0.11291444, -0.42147261, 0.27638021, -0.50754124, 0.28730717, -0.42564106, -0.36772686, 0.19736734, 0.33989072, -0.29666796, 0.48787028, 0.31344202, 0.36265489, -0.21008427, -0.21727495, 0.48820677, -0.12797159, 0.07411404, -0.27605337, 0.39466318, 0.24826862, 0.38818306, -0.43321374, -0.50724018, 0.40220290, -0.22700290, 0.10220651, 0.38194168, -0.02627793, -0.09186096, -0.24679463, -0.03122351, -0.23270278, -0.31472790, -0.34341824, 0.37460014, 0.24785155, 0.29037520, -0.27436030, -0.39178410, 0.28211984, 0.26785883, 0.13382024, 0.25788388, 0.06928931, -0.08950971, 0.37369809, 0.31582460, 0.05010966, 0.00781534, 0.02389931, -0.10042099, 0.13233796, 0.01857417, 0.22137566, 0.11814547, 0.48186049, 0.33143443, 0.09325334, -0.13514392, 0.44857866, 0.14618821, 0.08232402, 0.32721189, -0.20165832, -0.20668793, 0.08827592, -0.16528842, -0.12911537, 0.48818856, -0.32379723, 0.08368698, 0.64685434, -0.41118416, -0.11623388, -0.23978551, -0.28277078, -0.36694410, -0.34926030, 0.35701203, -0.27627614, -0.43751633, 0.11732408, -0.40957388, 0.42986196, -0.13520221, 0.38412681, 0.44624749, 0.23731513, 0.02620174, 0.44606355, -0.18964694, -0.36721966, 0.28943688, 0.06868979, -0.21876420, 0.30398071, 0.39004704, 0.06940353, 0.05162413, -0.22205338, 0.39300910, -0.42679003, 0.38435248, 0.31631264, -0.12406974, 0.40156314, -0.24252503, -0.00373720, -0.00400012, -0.46797752, 0.35234752, 0.24632262, -0.52225786, -0.13504845, 0.01022671, -0.26431406, 0.34034309, -0.03126453, -0.25737199, 0.29037675, 0.37695217, 0.25090200, 0.12780140, 0.36000323, 0.02762508, 0.03222327, 0.11521593, 0.30125189, -0.13528085, -0.01232106, -0.02003151, 0.04243161, -0.43890432, -0.00922479, 0.55407107, -0.02849286, 0.03495384, -0.14922847, -0.06319387, -0.33223024, 0.48214301, 0.25112408, -0.37580293, -0.06677356, 0.49739236, 0.20274583, 0.09765489, -0.00291814, 0.02951992, 0.34480038, -0.36192563, 0.01480183, 0.31051195, 0.05996262, 0.12603748, 0.18606380, -0.44251177, 0.07327843, -0.36029103, 0.00324833, 0.38723645, 0.21703151, -0.42945856, 0.29401606, 0.50517142, -0.11853386, -0.06196785, -0.19220833, -0.05923068, 0.34049922, -0.25015202, -0.22027919, -0.23424055, -0.19421007, 0.31784493, 0.51335770, -0.53859615, 0.29012331, 0.07835116, -0.10867289, -0.01812987, -0.07503588, 0.05174108, 0.17719005, -0.15742630, -0.11840484, 0.35890180, -0.31882134, -0.32404554, 0.02169009, 0.05430841, 0.35316765, -0.11173913, -0.28218567, -0.20518023, 0.41014791, -0.22210611, 0.32368600, 0.03113396, 0.32606304, -0.02017190, 0.06294693, 0.34004024, 0.42267090, 0.24903703, -0.21948172, -0.06532779, -0.15909012, 0.55151272
};

static const float net_0_bias[256] = {
  0.39859721, -0.21933503, -0.61808574, -0.34570754, -0.07340097, -0.30176517, 0.21668896, 0.43834457, -0.50811857, -0.26384994, 0.48428258, -0.57292652, 0.31660774, -0.29258057, -0.38835490, -0.49300036, -0.07415086, -0.50522310, -0.07739192, -0.49182421, -0.17774205, -0.52299976, 0.45745724, 0.15414314, 0.21721698, 0.52632290, 0.02296622, 0.17079988, -0.09724000, 0.41457766, 0.16095996, -0.46913126, -0.32802320, 0.41218862, -0.14638332, 0.07014411, -0.02693625, -0.20931467, 0.02199067, -0.20465881, 0.05117361, 0.47052661, -0.50591785, -0.20440087, 0.36877719, -0.54020363, -0.06401820, -0.00204463, 0.14926834, 0.39524698, 0.09860726, 0.25773743, -0.09303878, -0.45398781, 0.02060157, 0.42636082, -0.33056474, 0.13833265, -0.33173347, -0.45558923, -0.19354685, 0.01615288, 0.10674413, 0.23417985, 0.23426844, -0.33936146, 0.03621548, 0.12959380, -0.01874304, 0.07257555, -0.32801279, -0.34784958, 0.16057815, 0.10897265, 0.34010473, 0.39602906, -0.29291406, 0.38422492, 0.17596492, -0.06767159, -0.14075348, -0.03379076, -0.20963325, -0.01792683, -0.29340038, -0.12642463, -0.00011016, 0.10709857, -0.35999325, -0.34192702, 0.14335681, -0.55846924, -0.25984907, 0.16575992, -0.43367293, -0.29866555, -0.11787048, 0.08101127, 0.49011829, -0.32535559, -0.38487411, 0.02179345, 0.00678499, -0.18577965, -0.56999326, 0.48238978, -0.19509353, -0.24055350, 0.33043307, 0.45992923, -0.00470089, -0.31823489, -0.03729713, -0.22037753, -0.39413202, 0.26729223, 0.49234372, -0.16975896, 0.19050018, 0.42790052, -0.55053711, -0.40441620, -0.27714124, 0.03294535, -0.48334372, -0.17840087, 0.32134697, -0.45784497, -0.19174878, -0.39930755, 0.48357758, 0.12259942, 0.14614251, -0.17869577, -0.00604118, -0.11724494, 0.43641219, -0.41351855, 0.43143758, -0.56252688, -0.41011116, -0.24019986, 0.01159748, 0.52119148, 0.19602028, -0.25158504, -0.26887447, -0.45785138, 0.22936870, -0.15592703, -0.17069890, 0.09942067, -0.51686847, -0.31255397, -0.47871915, 0.39215919, 0.20605625, 0.32282403, 0.23846655, -0.08876866, 0.39608660, 0.14929333, -0.21803001, -0.30705449, 0.25789571, -0.51863456, -0.44666263, -0.37831584, -0.29985830, -0.28586677, -0.20202522, 0.35266080, 0.37385717, 0.14481121, 0.21434578, 0.18715328, 0.41711089, -0.20123483, -0.21569864, -0.41531935, 0.05483026, 0.51077431, 0.31647879, 0.24460271, 0.35840821, -0.31975266, 0.07691218, -0.15194240, -0.46185356, 0.09155305, 0.45869622, 0.31825241, -0.03211101, 0.04227212, 0.16103777, 0.05577978, -0.17439644, 0.22000910, 0.16521905, -0.42748687, -0.34872445, -0.02789769, 0.10002004, -0.15449977, 0.10310943, -0.44787285, 0.22479498, -0.14696485, -0.08348849, -0.01821209, -0.17616703, 0.36722559, -0.13038112, -0.48223597, 0.25741336, -0.36713898, -0.34455198, 0.14766079, 0.33725014, 0.18334129, 0.00502291, -0.08453784, -0.35883331, -0.41604409, -0.35646427, -0.22871904, 0.13985327, 0.24404630, 0.46021110, -0.12467714, 0.11922694, -0.21135080, -0.13635938, 0.24856830, 0.46065480, 0.12259483, 0.45478454, -0.22021689, -0.09886871, 0.04602288, -0.61047208, 0.12386693, 0.22354330, 0.36948106, -0.13788244, -0.34942356, -0.08251700, -0.29291126, -0.44178671, -0.04663480, -0.04909538, 0.31962818, -0.40198562, 0.53279728, 0.15838934, 0.51686919
};

static const float net_2_weight[768] = {
  0.00373043, -0.00165818, -0.00876739, -0.01444606, -0.04316358, -0.01187117, -0.02027844, -0.02476353, -0.00842463, 0.00182136, 0.02238468, -0.00002110, 0.00544891, 0.04850874, 0.03256352, 0.02084508, 0.01660403, -0.04001490, -0.03444384, 0.00646767, 0.00948544, 0.02309643, -0.03410544, 0.01570888, 0.00200580, 0.01966235, -0.02145919, 0.05795095, 0.04127796, -0.02830373, -0.05866556, -0.03250334, 0.00966426, -0.02075710, -0.02805159, 0.04363634, -0.02904882, -0.00943320, -0.00303515, -0.04531319, -0.03898032, 0.00308001, 0.00069596, 0.03983303, -0.03905109, 0.04289581, -0.01179877, -0.00184040, 0.02938135, 0.00118222, -0.04953716, 0.05237343, -0.01807250, 0.04251902, -0.01651728, 0.03315284, 0.03966895, -0.00542018, -0.04004661, -0.03534465, 0.06140858, 0.00945688, 0.00071104, -0.05642195, -0.01006050, 0.05860930, 0.00249864, -0.02228275, 0.04894554, 0.01425170, -0.05369205, -0.05499000, 0.05258711, 0.02387426, -0.00685955, -0.02069967, 0.05956246, 0.02420726, 0.03062298, -0.00478390, 0.03319163, -0.02314204, -0.02609008, -0.00826794, -0.02284754, -0.04388194, 0.00615514, 0.03781552, 0.01401781, 0.02118880, -0.04085554, 0.02023691, -0.03416562, 0.04717543, 0.01662271, 0.02512459, -0.00188512, 0.00237801, -0.00717871, -0.05959107, -0.05139232, 0.07240751, 0.03976189, 0.02035532, 0.02815324, 0.03624258, -0.05607592, -0.03659729, -0.03882993, -0.03783612, -0.02388234, 0.00663455, 0.05026762, 0.02270546, -0.00711995, 0.04770534, 0.03358731, -0.03686563, -0.00414743, -0.00226566, 0.05366502, -0.05684584, -0.03439658, 0.00081897, -0.05649163, -0.01705287, -0.04771449, 0.04188232, 0.01136683, -0.01801002, -0.05280299, -0.00256453, 0.01937850, 0.00848495, -0.04259627, -0.04685142, 0.04081975, -0.01522662, -0.03104317, 0.02710663, 0.01498260, 0.01148906, -0.01852445, 0.04271881, 0.03053039, 0.02235250, -0.04753068, 0.03772061, -0.03722296, 0.00670117, -0.05212117, -0.01767134, -0.00158097, 0.05440477, -0.05941809, -0.02890931, 0.01873098, -0.00533091, -0.05597241, 0.03859126, -0.01081932, 0.00190679, -0.01728809, -0.01241636, 0.04465690, -0.02647813, -0.05235338, -0.01596460, 0.03700859, -0.00338038, -0.04704484, -0.02586497, 0.03752361, -0.02866462, -0.00195869, 0.01053278, -0.03135365, -0.04072044, -0.03826638, -0.01882703, 0.03488554, -0.02190773, 0.02337744, -0.02584435, 0.04586583, -0.03304343, 0.04704175, -0.02975653, -0.03226778, 0.05670607, 0.03384222, -0.04641945, 0.03808859, -0.00627174, -0.05171592, 0.03879342, -0.01229146, -0.01508983, -0.03829052, 0.03592967, -0.01303379, 0.01483554, 0.00952259, 0.05757390, -0.01349554, -0.00119307, -0.00427680, 0.02687274, -0.01562657, 0.01175645, -0.01456136, 0.02311572, 0.04622742, 0.02186978, -0.03273883, 0.00147671, -0.03492650, -0.02139171, -0.03040053, 0.01716092, 0.02860408, 0.03629496, 0.00589515, 0.01238271, -0.03636017, 0.01765172, -0.00369609, 0.05854609, -0.04096641, 0.00473161, 0.03548812, 0.03890037, -0.05165784, -0.02306814, -0.02142482, 0.00205013, -0.01002495, 0.05708929, 0.01461031, -0.01347963, 0.03149001, 0.00607458, -0.02498814, 0.01831072, -0.00284860, 0.00722921, -0.00480097, 0.05399286, 0.04242377, 0.01683548, -0.00039183, 0.01679320, 0.01169979, -0.00262059, -0.03718424, -0.04120761, -0.00073863, -0.02403469, 0.02728280, -0.04692848, -0.01091393, -0.01115900, -0.00261127, -0.00002700, 0.03708369, -0.02280455, 0.06140061, 0.00426403, -0.02615095, 0.03083128, -0.00166667, 0.03562064, 0.00712481, -0.01501807, 0.00776374, 0.02083713, 0.03114971, 0.03003885, 0.01624553, 0.05840431, -0.00651899, 0.04955658, -0.01148511, 0.00228143, 0.01146630, -0.03884741, 0.04666217, -0.00680901, 0.02331957, -0.04987981, -0.04674022, -0.03393656, -0.04061408, 0.00938749, 0.00139684, -0.00465895, -0.00802179, 0.02181114, -0.04192385, -0.03326084, -0.00751472, -0.02605356, -0.02281152, 0.03512682, -0.00783722, -0.01155798, 0.06110625, 0.02220268, -0.06558698, -0.01363220, -0.04520457, -0.02991829, -0.04570197, 0.01040192, -0.04240441, 0.00107779, 0.00540578, -0.00158905, -0.01881354, -0.03298436, 0.00712057, 0.05314552, 0.01290366, 0.04197039, -0.04017593, -0.03490644, 0.05613101, 0.05403258, 0.02772509, 0.05749923, -0.04816496, -0.01425397, -0.03122432, -0.01461387, -0.03970767, -0.03884049, 0.04203538, 0.01348086, -0.03396754, -0.01702365, 0.04038395, 0.03312112, 0.00454394, -0.00039416, 0.02691053, -0.00696131, -0.03391038, -0.01828036, 0.00007346, -0.02531210, -0.05627181, -0.03881576, 0.01533201, -0.00377090, -0.01828866, -0.05736738, -0.06096958, 0.01707701, -0.04959748, 0.00787711, -0.02250660, -0.00677312, -0.00748588, 0.05327278, -0.02380896, 0.00453497, 0.04375425, -0.01752019, 0.01030807, -0.01025690, 0.01281191, -0.03749084, -0.04584806, -0.01172773, -0.00772633, -0.02907567, -0.01221271, 0.04723726, 0.00506224, -0.00152557, -0.03112315, -0.02907558, -0.03544510, -0.04753265, -0.02788462, -0.05802344, 0.01269685, 0.02992732, -0.02696536, 0.02151575, 0.01560759, -0.00084786, -0.04521687, -0.05628445, -0.00833525, 0.00010981, 0.02413846, 0.02372612, 0.04536124, 0.00973643, -0.00778878, 0.01828306, -0.03726211, 0.01928485, -0.02413728, 0.00008605, 0.02904414, -0.02721166, -0.05022507, 0.05173875, 0.00616620, 0.03127941, 0.02784261, 0.03573436, 0.00881375, 0.02002540, -0.01684221, 0.01962694, 0.00193514, -0.05303727, 0.04771147, 0.03523611, -0.00384296, 0.00778988, -0.02315073, 0.02261699, 0.00458110, -0.04913043, 0.01039012, -0.01133188, 0.01442408, -0.02248032, -0.02201608, -0.03333849, 0.02910069, 0.00326360, 0.01559702, -0.04490411, 0.02337647, 0.00515548, -0.01230833, 0.00810529, 0.04509328, -0.00364779, -0.03244663, 0.05582254, -0.05121322, 0.03026764, -0.03657380, 0.06092704, 0.04683145, 0.01245530, -0.03091235, -0.01028109, -0.01408081, -0.03515451, 0.03047622, -0.02066307, 0.00990856, -0.00771380, -0.02754117, -0.04381920, 0.02236027, 0.00720347, -0.05985997, 0.06471689, 0.03976111, -0.01669929, -0.03255158, -0.03162992, -0.01292115, 0.05245027, 0.05820819, 0.03267444, -0.00506815, 0.03416581, -0.01980617, 0.05587180, 0.00945684, 0.04237170, -0.02207269, -0.00794181, 0.01774725, 0.02275317, -0.04653894, 0.00108262, -0.01142046, -0.04486088, 0.01923722, 0.06665889, 0.03405548, -0.00609995, -0.02307972, 0.02904406, -0.06382893, -0.04536372, -0.05778296, -0.03925371, 0.01964184, -0.00504143, -0.03373310, 0.02573308, -0.00602304, -0.02158087, 0.01886879, -0.00465478, -0.02572070, -0.05258700, -0.03543624, 0.01037054, 0.05128994, 0.02202015, 0.01765515, 0.01749438, -0.00674530, -0.02722902, -0.03299601, 0.00263693, -0.03756043, 0.05441587, 0.01570251, 0.01637927, 0.00993921, 0.00046245, -0.03796691, -0.04305078, 0.00080220, -0.05271468, 0.00536469, -0.04671382, -0.04798557, -0.05748979, -0.04187936, -0.02382289, 0.05247447, 0.00934414, 0.00593999, 0.05604973, 0.02174325, 0.02461491, 0.02152492, 0.02366927, 0.03643484, -0.04798886, -0.05201317, -0.05208761, -0.00525398, -0.02929850, -0.00776628, 0.03928018, 0.01546523, -0.02903711, 0.02486637, -0.01828501, -0.00657471, -0.02675092, -0.05309852, 0.03157668, 0.03609750, 0.00356272, 0.03772501, 0.00640746, 0.00588294, -0.03455962, 0.05061393, -0.01553004, 0.01427581, -0.02492353, -0.05705924, 0.01653937, -0.03414406, -0.01917416, -0.02063622, -0.03464458, 0.03962443, -0.00480804, -0.02560718, 0.01954528, -0.01062333, -0.05075986, -0.01023460, -0.01140790, 0.02313588, -0.02209994, -0.05342058, 0.00517613, -0.03031748, 0.00635246, -0.01000014, 0.03902091, 0.03645381, -0.06157959, -0.03894241, 0.00077341, 0.02738998, 0.00794988, 0.03527427, 0.02743025, -0.00697941, 0.01662392, -0.03323726, -0.03666760, -0.02074181, 0.03853170, -0.04447467, 0.00931487, 0.02681818, 0.04597649, -0.03850100, 0.00105004, 0.02994480, -0.02686332, 0.03149500, 0.04947546, 0.01729463, -0.00627019, 0.00981190, 0.05647045, 0.03505140, 0.03751845, 0.00104773, 0.00864048, 0.05451927, 0.00206707, 0.03710746, 0.00949955, -0.00982473, -0.03920092, -0.04285005, 0.03662706, 0.04164844, -0.04689376, 0.04074775, 0.02887812, -0.01509368, -0.00100104, 0.01021822, -0.00814157, -0.03378430, 0.04392575, -0.01174865, -0.05508595, -0.03776938, -0.01630906, -0.04315441, 0.02220565, -0.01780867, 0.02366907, 0.01527030, 0.04261532, -0.03477963, 0.01888786, 0.03021077, -0.01320056, -0.02307804, 0.03825568, 0.00400261, 0.00784588, -0.02903280, 0.03658003, 0.02013538, -0.00299953, -0.01947935, -0.03070574, -0.01355188, -0.03541726, 0.04538646, -0.00877712, -0.00519985, 0.03671555, 0.00885473, -0.02719192, -0.00372182, -0.04102322, 0.00291820, -0.02729562, -0.03579331, -0.02892173, -0.01167051, 0.02364122, -0.00008618, 0.01345161, 0.00634222, -0.04653797, -0.03783106, 0.01148877, 0.02344714, 0.00869614, 0.01683142, 0.05067864, -0.01243218, 0.00238470, 0.01606117, 0.02289790, 0.05013669, 0.03971834, -0.02086977, 0.03039384, -0.04440828, -0.01449370, -0.03860302, -0.03176312, 0.03479685, -0.04698529, 0.00146071, 0.02395722, 0.03180499, 0.02170259, -0.04540393, 0.00365623, 0.04357959, -0.01216717, 0.01698573, -0.02944623, -0.02077372, 0.03664672, -0.00863864, -0.04954870, 0.00815972, 0.03587214, -0.02230987, -0.05175174, 0.03659331, -0.01840102, 0.01795887, -0.05521984, -0.01643109, -0.02197279, -0.01250174, 0.01396179, 0.05723931, 0.02530806, 0.03837344, 0.00363408, -0.00576988, -0.03758356, -0.01038898, 0.00170886, -0.02456979, -0.04896466, -0.03140001, -0.00447771, -0.03039521, -0.04158952, 0.03882051, -0.03002760, -0.02968914, -0.01027262, -0.02462672, 0.04049450, 0.01463947, -0.00175259, -0.01672384, 0.00621215, 0.02910866, -0.03987095, 0.01004287, 0.01993611, -0.00897084, -0.00707892, 0.01902550, -0.00144816, -0.01247896, 0.02376832, -0.00596216, 0.05480873, -0.04017052, -0.04979493
};

static const float net_2_bias[3] = {
  0.04629438, -0.01653686, -0.04580297
};

static const float input_mean[3] = {0.00000000, 0.00000000, 6749.99951172};
static const float input_std[3]  = {2338.09155273, 2338.09155273, 4214.56005859};
static const float output_mean[3] = {0.00000001, 0.12292606, -0.00000000};
static const float output_std[3]  = {22.14661598, 71.60929108, 22.14662170};
