// Auto-generated field NN weights
// Architecture: [32], activation=silu
// Parameters: 227, FLOPs: 512
// MAE: 8216.58 Gauss, p99: 47571.6 Gauss

#pragma once

static const float net_0_weight[96] = {
  -0.00157523, -0.18819059, 0.13571766, -1.54485238, 0.02940107, 0.80894291, -0.07754420, -0.22320649, -0.75530428, -0.17276299, -0.28168646, 0.68978155, -1.00616872, -0.40226021, -0.15345256, -0.69016999, -0.21329750, -0.42435941, 2.25245929, 0.23504053, 0.92999905, -1.56917655, -0.27517092, 0.50672746, -0.04576589, 0.44121534, 0.49631163, 2.38688326, -0.20596780, -0.00402999, 1.11927974, 0.41138002, 0.15617962, -0.47234017, -0.12096988, -0.16632940, 0.47487622, 0.32482892, -0.34691209, -0.29748204, -0.16732140, 0.19841664, 2.46764970, -0.37783632, 1.23419404, 1.22748935, 0.43257284, 0.46611470, 0.49520782, 0.11949196, -0.00797454, 0.39301726, -0.00561757, 0.31671837, 2.24238014, 0.59968567, -1.16629648, -2.10900784, -0.44905588, -0.59923369, -0.46636021, -0.07347442, -0.21272692, 0.42075226, 0.13787714, -0.43948302, -0.04092371, -0.36144140, 0.38668990, -1.15290427, 0.44754434, 0.52135861, -0.27535141, 0.22225912, 0.32499856, 0.38948879, 0.33906838, -0.32495055, -0.52266681, 0.04036628, -0.26509842, 0.07130080, -0.17394230, 0.16077642, -0.66839331, 0.09559802, -0.07964328, -0.29709348, 0.03272816, -0.33763811, -0.80699497, 0.03142269, 0.11213484, 1.11141062, -0.36239475, 0.33377045
};

static const float net_0_bias[32] = {
  -0.33411834, 0.28901935, -0.45820415, -0.10345375, -0.27818167, -0.50505817, 0.16325417, 0.01276506, -0.70624828, 0.21556291, -0.14681989, -0.26753920, 0.26549134, 0.37271503, 0.29376125, -0.39842463, -0.38938102, 0.26748592, -0.37370676, -0.34924355, -0.12141559, -0.07131634, -0.68598014, 0.16291131, -0.25234890, 0.13959099, -0.25624883, -0.02345456, 0.12731341, -0.19939376, -0.06273442, 0.20838597
};

static const float net_2_weight[96] = {
  -0.10443431, -0.24364442, 0.06105873, 0.05059765, -0.22453244, -0.06410217, 0.21733849, 0.13114177, 0.05993621, -0.11942679, -0.14295836, -0.09535947, -0.07736357, 0.00825697, -0.18506688, -0.05212881, -0.04685281, 0.02252742, 0.13431332, 0.10265969, -0.06846322, -0.22385781, 0.07362311, 0.02904066, 0.05598532, -0.06788410, -0.08657587, 0.03005876, 0.09529892, -0.05779989, 0.19285843, 0.24460208, 0.04141101, -0.18204990, -0.03560810, 0.15278086, 0.11158616, 0.00328861, -0.09642997, -0.06279019, -0.08930077, -0.03203230, 0.06153930, -0.06857384, -0.02371440, 0.12768325, 0.02083600, 0.05602192, -0.03584949, -0.02240026, 0.06998275, 0.06091066, -0.08606617, -0.05103182, -0.15981618, 0.20907734, 0.07828251, -0.04863440, -0.09502555, 0.04213137, 0.06166595, -0.04703270, -0.09359299, 0.05991052, 0.15647532, 0.02751115, 0.11031415, -0.10701159, 0.02078524, -0.00235464, 0.10284691, 0.02254601, -0.10264362, -0.01349697, 0.04355901, 0.03246211, -0.02264309, 0.04830720, -0.05208083, -0.06769858, 0.01501328, -0.03499568, -0.02992058, -0.05472887, -0.02830044, -0.04622525, 0.10234312, 0.04034130, -0.04838242, 0.06549101, 0.08728649, -0.06617846, -0.15751518, 0.06315171, 0.04062913, 0.03241806
};

static const float net_2_bias[3] = {
  0.01036266, -0.05953063, 0.02863724
};

static const float input_mean[3] = {0.00000000, 0.00000000, 6749.99951172};
static const float input_std[3]  = {2338.09155273, 2338.09155273, 4214.56005859};
static const float output_mean[3] = {0.00000001, 0.12292606, -0.00000000};
static const float output_std[3]  = {22.14661598, 71.60929108, 22.14662170};
