// Auto-generated: [128, 128] silu
// Strategy: curriculum_lin
// Params: 17411, FLOPs: 35328
// MAE: 0.70 G, relMAE: 0.7509

#pragma once

static const float net_0_weight[384] = {
  2.67725229, 0.73912525, 0.18613873, 1.36088777, 0.00057474, 0.22275576, 0.78598690, 0.00262635, 0.33075330, -1.61486506, -0.59642065, -0.19706932, -3.19828773, -0.25234616, -0.61281753, -0.22001317, -0.00287283, -0.77842516, 4.60609818, -0.52938670, 0.60902345, -1.55865300, 0.11813279, 1.33345950, -0.52969062, -1.33287084, 0.35193631, 1.86177421, -0.00210603, -0.81028843, -1.24500871, 0.00724534, 0.56642425, -1.93028474, 0.04278982, -1.19170558, -0.74358851, 0.95980585, 0.64161682, -3.51802802, -0.73862290, 0.32620525, 1.25023389, 0.00287419, -1.06354845, 1.81908154, 0.01812770, 0.76223749, 2.59841895, 0.35009351, -1.13505244, -3.21286249, -0.01153618, 2.41565299, 0.49780786, 0.00607747, -0.82800895, -1.71498656, -0.12778816, -1.69974172, 1.02140963, 0.00089405, -0.46709880, 3.58856130, 0.01836511, 0.41983500, 1.35054517, -0.00096336, 2.48796320, -0.02889472, 0.00273081, 0.34441221, 1.93502331, -0.01174521, -1.28800678, 4.21243477, -0.46881998, 1.20287144, -3.25196266, -0.12159739, -1.10194492, 8.98027039, 0.15112641, 0.95073968, 2.69573760, 0.62402290, 1.44865096, -2.72730851, -0.18483338, 1.41940343, -1.52688420, -0.85518539, 0.94552398, 5.37735176, 0.64177519, 1.19125092, -4.87657118, 0.59001553, 1.09889400, -1.21300614, -0.12316526, 4.03798771, -3.43220377, -0.67048311, -0.61604178, -0.74057770, 1.11753356, -0.18846188, -2.58801436, 0.01267414, -1.36341953, 0.00126078, 0.00114845, 0.20398934, 2.75400066, 0.50820625, 1.37256157, -0.06372215, -0.04329278, -0.70717788, -3.69059277, -0.25965029, -1.76891422, 0.72952068, 0.01769755, 0.86107969, -4.11075020, 0.02661084, 5.62538815, -4.86293793, -0.16828871, -1.88090491, -1.83949625, -0.52617705, 0.96039933, -0.07565876, 0.00890027, 0.50670409, 2.25765729, -0.16837592, -2.30295658, 0.37190455, 0.01177508, -0.96240091, -3.70608115, -0.42420265, -0.74960840, -0.19012266, 0.00515738, 0.42095718, 0.90099752, -0.28884384, -0.96543682, 1.10917091, -1.49503267, 0.20687789, -4.88984346, -0.05603018, -0.56979561, -2.46685934, -0.32759652, 1.22863817, -3.46191502, 0.85278672, 0.75998563, -0.18343459, 0.00045615, 0.07600702, 0.00983421, 1.27297091, -0.25334501, -0.00251353, 0.00275142, 0.35324889, 6.76377201, 0.24446684, 1.27748227, -4.33423471, -0.01728830, 0.14978753, -0.19587992, 0.01057510, 0.54936665, -1.82568669, 0.90907347, 0.02985493, 1.51401687, -0.04334613, 6.02038670, 0.00614582, 0.00854461, 0.55280697, -0.51727593, -0.57467800, 0.58338815, -1.57227528, -0.58064204, 1.42890942, 5.01554680, 0.00373558, -0.98346710, -0.42840591, 0.00203324, -0.60422683, -2.73011732, 0.00003815, -0.35311362, 2.19302058, 0.86802554, 0.30367652, -1.92242897, -0.16463791, -1.95066416, 3.48123741, -0.13952482, -2.16528225, -8.47745609, -0.06457234, 2.43820858, -4.38342953, -0.08411465, 0.84838378, 1.92788088, 0.01419650, 0.79442507, 2.62014008, 0.97577375, -1.02950418, 1.24614120, -0.69797015, 0.70912355, -0.95808131, 1.33278739, 0.50394177, -0.92881495, 0.78662544, 1.13043547, 6.57114410, -0.07596846, 0.82600451, -4.54133034, 0.23602098, -2.67321253, 1.72179270, -0.48891762, -0.38151282, -2.41369915, 0.51230836, 1.24864078, -1.96587813, -0.12468729, -0.12785628, 5.22623014, -0.50495464, -1.11571789, -6.63511229, 0.16995290, 1.72970319, -7.98826075, 0.27692580, 2.43257761, -0.73343468, 0.00113404, -0.10179099, 5.71521425, 0.19485353, 3.16833448, -1.75112212, 0.44063973, -0.59572971, 6.21214390, -0.12158091, 3.87926435, -1.88697994, -0.03170495, -1.51204681, 4.92310333, -0.02207221, 2.29946136, 7.56665516, 0.08094223, -0.30288267, 0.70291090, -1.13377035, 0.75622469, -2.02751017, -0.71117806, -0.02580238, 1.44913840, 0.64107883, -0.00452049, -1.92076588, 0.39159364, -0.74130070, 1.89372444, -0.46543834, 0.24689938, -1.09606516, -0.02843015, -0.50314349, -2.64625454, 0.70477742, 2.10214162, 0.26731119, 0.01036850, -2.00135303, -3.89686608, 0.17656030, -2.43746781, -2.48462319, -0.01948887, -0.72471470, -3.46082354, -0.94940335, 0.38463506, 0.82902789, -1.34840262, 0.77763414, 3.30325961, -0.69224679, 0.29543743, -1.62316620, 0.06009312, -0.36989012, 0.29800552, 0.00626771, -0.83329743, -0.01065135, 0.00212540, 0.30149814, 0.41346878, 0.00087380, -0.58515394, -0.84100467, 0.00860768, 0.52521926, 1.64310491, 0.02546993, -1.48800921, 3.31782150, -0.04304464, -2.58713818, 2.99383998, -0.94307828, 0.83627498, 0.08605220, -0.45512712, -0.50837260, 2.03891349, -0.92702222, 0.36790416, -4.65906668, 0.70186740, 1.22381926, 6.88445044, -0.24900500, 0.47331327, 0.75113046, 0.90580416, 0.31740463, -4.47371864, 0.27272058, 0.78306067, 4.45038652, 0.54132444, 0.58548915, -1.84504735, 0.01110212, -0.77982110, 0.22708495, 1.13071370, 0.37143511, -0.03241672, 0.00324014, 0.33877924, -3.07457352, -0.01018717, -0.23454896, 1.99909282, -0.07250179, -0.78347337, 3.94915152, 0.74677145, 0.59549022
};

static const float net_0_bias[128] = {
  -0.41425169, 0.20034409, 0.19636869, -0.01132933, -0.22972533, -0.08962251, -0.14870910, 0.49351409, -0.33521077, -0.07752731, 0.42903242, -0.08303627, -0.05224418, -0.43212828, -0.21222825, 0.51290721, -0.42827389, 0.64751315, -0.27761289, -0.16039301, -0.19117123, 0.23347704, 0.60971385, 0.18307334, 0.05180251, 0.16611232, -0.18621837, 0.29568881, 0.10949992, 0.36077398, -0.02454485, -0.11262174, -0.10907945, 1.06974554, -0.40656397, -0.33395389, -0.03201212, 0.09353180, 0.00986098, -0.05467601, -0.32281581, 0.56867516, 1.94064581, -0.35658517, 0.10498484, 0.35911700, -0.33514985, -0.24560329, -0.52591300, 0.23965213, 0.17956932, -0.51478159, 0.13009423, 0.29248345, -0.35837030, 0.02957717, -0.41852212, 0.19244933, 0.14382248, 0.24330157, 0.40348279, -0.45028791, 2.09732008, 0.37543768, -0.28318635, 0.11359324, -0.13988553, -0.25171766, -0.07723731, -0.35533378, -0.31432369, -0.24325420, 0.80845189, 0.42975989, 0.50832784, -0.67827183, -0.10789552, -0.37343541, -0.25690487, 0.31369931, -0.52250248, -0.25748584, 0.11157293, 0.11019234, -0.43639210, 0.55105680, 0.58382231, -0.05761160, 0.88421941, -0.51804054, 1.16176140, -0.12696539, 0.69952196, 0.03270844, -0.28624740, -0.13054289, -0.31828964, -0.17965570, -0.41191700, 0.18703410, 0.04163025, -0.14704391, -0.37595940, 0.06446470, -0.39540637, -0.27529231, -0.38936117, -0.13126461, -0.29843274, 0.15115730, -0.23921248, 0.37066513, -0.19790512, -0.25653765, -0.33107358, -0.25814122, -0.49043909, -0.26249215, 0.06826802, -0.43853024, 0.22810844, -0.29824674, -0.08507802, -0.26331648, 0.17958508, -0.05872477, -0.06872866, -0.39380521
};

static const float net_2_weight[16384] = {
  -0.18255769, -0.02645601, -0.09189516, -0.10759933, -0.05488850, -0.24388155, -0.04376609, 0.13086112, 0.03123586, -0.08740679, 0.05574806, 0.00946921, 0.00071166, -0.11767486, -0.11132704, 0.19722725, 0.05857471, -0.04161676, -0.45243052, 0.05260743, -0.35265991, -0.08030478, 0.02139428, -0.05363351, 0.15257314, -0.08690671, 0.05650742, 0.32579878, -0.15911494, -0.01732512, -0.04327993, -0.09101579, -0.19976570, 0.20161134, -0.17370437, -0.08561778, 0.05736664, -0.03620470, -0.25723043, -0.08302227, 0.09647501, 0.06846289, 0.18794720, 0.09537802, -0.07576506, -0.19816795, 0.11304944, -0.40667549, -0.11569335, 0.04021195, 0.00532650, -0.03116011, 0.26166737, -0.05645723, -0.25882646, -0.10982997, 0.02896670, -0.10290928, -0.02825943, 0.04298031, -0.06879406, -0.12629165, 0.16484395, -0.21484290, -0.25126100, -0.22831756, 0.02023002, -0.26159886, -0.07837993, -0.31450486, 0.13998072, 0.13237271, 0.20751084, 0.13116628, 0.20697606, -0.06129101, -0.16122273, -0.09921267, -0.20742281, 0.23028491, 0.19463310, -0.07748821, -0.00288501, -0.12980598, -0.00769465, 0.13531384, 0.08004459, -0.27806064, -0.02818619, -0.04370391, 0.00048214, 0.09788928, 0.07021608, 0.19363093, -0.26315680, -0.12663917, -0.17124568, -0.00329861, -0.24312449, 0.07152487, -0.44753695, -0.11910542, 0.16695002, -0.06686682, -0.16731191, -0.13847947, -0.05066462, -0.25392404, -0.51505589, 0.00315025, -0.34761721, 0.01112715, 0.15653883, 0.07058609, -0.24611309, -0.15391915, -0.21623133, -0.16264373, 0.11183626, -0.21383055, 0.10151762, -0.10322168, -0.12856767, 0.04769449, 0.01013669, 0.00303604, 0.03020100, -0.22198500, -0.05018275, 0.08459019, -0.05260455, 0.00465125, -0.28588772, 0.03415813, 0.38404757, -0.21055983, 0.10466708, -0.09819934, -0.03128988, -0.07882443, 0.07416261, -0.23221195, -0.06073495, -0.06661887, -0.06357410, -0.45699903, -0.05156531, -0.26262653, 0.08832178, -0.07729828, -0.49832448, -0.28972521, -0.02832839, 0.31637406, -0.24082264, -0.81567091, -0.34590229, -0.21822627, 0.05105404, -0.58711821, 0.51691848, -0.51370841, -0.28604931, 0.08345892, -0.13264488, -0.20191984, -0.38967168, -0.05779320, -0.33401746, -0.18000513, -1.29639053, -0.40251386, -0.10665075, 0.06238482, -0.32364517, -0.10770976, -0.44864118, -0.34646788, -0.01434317, 0.12515710, -0.18584588, -0.20656252, 0.36802611, -0.04353786, 0.08447964, -0.29422569, -0.62629282, -0.15196979, 0.02196377, 0.21093391, -1.43943012, -0.06998165, 0.01863486, -0.01692552, -0.11882728, 0.01873242, -0.13818394, 0.02908233, -0.34165609, -0.05806045, -0.29754719, -0.21899040, -0.27416998, 0.02812576, 0.11443848, 0.07385451, -0.11266129, -0.13928346, 0.05757890, -0.02404683, 0.10531694, -0.09983581, 0.28837800, 0.06887791, 0.24637680, -0.04658119, -0.76549804, 0.01521086, -0.10305037, -0.11327213, -0.34564859, -0.37549946, 0.12713929, -0.03717399, 0.10668714, 0.04552332, 0.07107850, -0.07922342, -0.09484310, -0.14030164, 0.09572317, -0.08433697, -0.16585800, 0.19630806, 0.23134398, -0.01317686, 0.11021466, -0.22447743, 0.19244410, 0.02571989, -0.22194967, -0.08770815, 0.30442283, -0.08706132, 0.14716674, 0.44205788, 0.11197874, 0.00372546, 0.19746619, -0.34933916, -0.13357459, 0.02273493, -0.33603302, -0.09832652, -0.17261483, -0.19209073, -0.11074188, 0.05460609, 0.16905153, -0.02496354, -0.14562704, -0.14875546, 0.40840018, -0.08486241, 0.15500581, -0.18266042, 0.08170860, -0.32334569, 0.14219378, -0.19245687, -0.33434391, 0.03900066, -0.62570453, -0.55043089, -0.46339029, -0.11265744, -0.06912608, -0.01622122, -0.43580392, 0.19311483, -0.25218898, 0.09031378, -0.13319156, -0.90536433, 0.07153059, -0.47064266, -0.01645595, -0.27761379, 0.76474994, -0.91713113, 0.05899698, 0.00670087, -0.35870466, 0.11589807, 0.04719615, -0.02987065, -0.26762849, 0.22016306, -1.87070942, -0.43129402, -0.23620217, 0.08969574, -0.27152598, -0.40617239, -0.04626797, 0.20045948, -0.01809986, 0.37814486, -0.41090715, -0.39811587, 0.72969162, 0.02551239, 0.06262293, 0.11622528, -0.30949828, -0.25310114, 0.07939979, 0.21978980, -2.09274769, 0.10982178, 0.03410329, -0.20336191, -0.36443737, -0.49056858, -0.05304176, 0.05447983, -0.15146264, -0.18666869, -1.22613478, -0.54953957, 0.06066851, -0.31491131, 0.07954106, 0.30620715, 0.39310268, -0.11047422, -0.64774960, 0.09718581, 0.34069410, -0.05739247, 0.42557397, -0.15938129, 0.21816012, 0.10043334, -0.41903245, -0.08698665, -0.63062191, -0.24674003, -0.49300107, -0.67762679, 0.17039599, -0.00552204, -0.14645262, -0.14115949, 0.19226773, -0.10998491, 0.79901266, -0.27031121, -0.57311970, -0.18148836, -0.12205350, 0.16763447, 0.41782153, -0.18622130, -0.55512351, 0.13434145, -0.44492087, 0.01323242, -0.41682437, -0.34867224, 0.27232581, 0.13710479, 0.34358844, 0.81998503, 0.03771071, 0.13904068, 0.12037936, -0.23624769, -0.21042193, 0.20446455, 0.25703141, -0.16564725, -0.09368522, -0.10513550, 0.01168010, 0.09653398, 0.05688775, -0.02001112, -0.03573686, 0.03267865, 0.03644270, -0.13873561, -0.03191951, -0.05310748, 0.09481261, 0.02256104, -0.11780894, -0.07238292, -0.17276803, 0.11000801, -0.17424035, -0.26280260, -0.32842290, 0.01754785, -0.24645682, 0.12913571, -0.10246012, 0.30907249, 0.03596206, -0.08915005, 0.10362588, -0.16823024, 0.09507092, -0.18382068, 0.00524344, 0.01349301, -0.01126394, -0.15576309, 0.05426605, -0.03386274, 0.05344003, -0.04895743, -0.00997371, -0.07807443, 0.03422487, 0.15476814, -0.27781874, -0.00400015, -0.07516588, 0.18250673, -0.08600497, -0.12828059, 0.06744513, 0.33314437, 0.08808246, -0.04290837, -0.04293619, -0.14080822, 0.04503294, 0.03647412, 0.04494198, 0.27453566, 0.04450985, -0.02104453, 0.27245629, -0.09980257, -0.03896375, 0.17265989, -0.11163276, -0.18666761, -0.17850465, -0.19031689, 0.11834081, -0.07798513, -0.02553327, -0.08413437, -0.22778051, -0.07484186, 0.18752530, -0.16330387, -0.06597853, -0.06285935, -0.04227454, 0.10807004, 0.04642941, -0.07124525, 0.04291992, 0.13788725, -0.00373609, -0.11090452, -0.04787428, 0.06767362, 0.04313729, -0.12423377, 0.09513283, 0.02350417, 0.08411314, -0.22633888, -0.07979418, 0.03517012, -0.05277061, -0.07565914, -0.15553382, 0.10702264, -0.04709817, -0.06127263, 0.08404242, 0.13195367, -0.11689148, -0.06674385, 0.06499774, -0.04585049, -0.31643063, 0.21833019, -0.47099736, 0.26061839, -0.09823482, -0.03221520, -0.05627594, -0.05111210, 0.02189185, 0.02475062, -0.04199167, 0.04725822, -0.04371222, -0.10464621, 0.06461399, 0.04840051, 0.17456622, 0.12561953, -0.06209741, -0.04766401, 0.18534182, 0.22223274, 0.29109684, 0.09180666, -0.00049350, -0.00457595, -0.37293410, -0.09046590, -0.00013230, 0.05875332, 0.30311406, -0.03141091, 0.06907203, 0.24967094, 0.03994032, 0.18714672, 0.12093811, -0.03958478, -0.28648558, -0.17107563, 0.08332685, -0.07899432, -0.19910796, 0.13833965, 0.02161854, -0.16717897, -0.21902357, 0.12002195, -0.00517610, 0.20342597, 0.16907674, 0.13310249, -0.50610983, -0.08910591, 0.01641404, 0.02709312, -0.03010934, 0.04023442, -0.22740106, 0.03397270, -0.08691187, 0.17588045, -0.26179892, -0.26021942, 0.28855702, 0.36724773, -0.25163150, -0.11741523, -0.05327111, -0.03730938, -0.01707446, -0.01539367, -0.02025258, 0.21895249, -0.38454926, -0.00918689, 0.02705086, 0.10358493, -0.09746431, 0.03384747, 0.33098304, 0.00881365, -0.86660910, 0.37422076, 0.00810143, 0.24811353, -0.14547536, -0.24369732, -0.20040317, 0.16362216, -0.25007832, -0.24439816, 0.16384800, 0.22929989, 0.18702292, 0.34111574, 0.07252486, 0.01306418, -0.38707328, -0.30609348, -0.12197029, -0.00361761, -0.31045496, 0.00248346, -0.46871895, -0.37878633, -0.66564626, -0.19471852, -0.35657856, -0.13193093, -0.44408277, -0.13325785, -0.21852161, 0.05375848, 0.06427895, 0.00147950, 0.08848795, 0.08742486, -0.06895893, 0.10986286, -0.92741334, -0.09116080, -0.13782761, -0.04701918, 0.29077315, 0.03960243, -0.20430134, -0.05109307, -0.44663399, 0.27504361, -0.08755898, 0.19060110, -0.10493023, -0.04434169, -0.09239878, -0.13974354, -0.05468384, -0.69752586, -0.48306045, 0.03253663, -0.28458685, 0.07760425, -0.16567586, 0.04567200, 0.15671474, -0.25582966, 0.10806607, 0.24247360, 0.13440427, -0.08517089, -0.12080701, -0.08404251, -0.09273001, 0.00024907, -0.01270303, -0.29878396, 0.02315791, 0.01601185, -0.22133763, -0.20391412, -0.01745224, 0.02022655, -0.01683911, 0.04595342, 0.15474442, -0.20178415, 0.06046501, -0.04544326, 0.23736387, 0.12965041, -0.22750263, -0.20785737, 0.06579792, 0.02718956, -0.12353599, -0.15050758, -0.24165891, -0.12510444, 0.00018822, -0.04879097, -0.11965761, -0.12916334, -0.17261100, 0.01020363, -0.03516086, -0.12694226, -0.17976323, -0.00545114, -0.24579872, -0.25328597, -0.67239934, -0.31492215, 0.04223992, -0.26387671, -0.01154400, -0.02534050, -0.17334132, -0.39537051, -0.00893322, -0.01321468, -0.18148541, 0.06432623, -0.04032442, -0.11398576, -0.05182687, -0.32053873, -0.16363916, -0.17620519, -0.34405518, -0.07054476, -0.67265671, -0.29612169, -0.01249954, 0.09049782, 0.18173324, -0.11514118, -0.12041491, 0.08225462, -0.16914797, -0.10852034, -0.36600050, -0.15316077, -0.11739378, 0.09347704, -0.03587095, 0.05433548, -0.13008308, -0.02642210, -0.01755823, -0.11184168, -0.18188921, -0.00691787, -0.08265087, -0.35686886, -0.29299662, 0.05397797, -0.44607219, -0.06067650, -0.08312853, -0.17416175, -0.28208539, 0.06454400, 0.01182366, -0.11481889, 0.08849234, 0.05803824, -0.09796818, -0.08721514, -0.45570248, -0.03896773, -0.11815308, -0.12673517, -0.04372324, 0.01603356, 0.06288327, -0.12569721, 0.14035697, -0.16478845, 0.16764626, -0.37250379, -0.05498411, -0.12768486, 0.08880506, -0.12084723, 0.04843199, -0.07987636, 0.00425508, -0.02559104, -0.13685806, 0.06240163, -0.24301331, 0.05233884, -0.17885268, -0.16235818, 0.07169236, -0.00340145, -0.04823412, 0.19699822, 0.07075685, -0.13044900, -0.16248704, 0.13343510, -0.29700425, -0.00449594, -0.02276173, -0.04267489, -0.08275168, 0.05756180, 0.04024487, 0.27596122, -0.06015871, 0.10995699, 0.00742832, 0.03635329, -0.04358210, -0.00506958, -0.16379562, -0.15312269, 0.07517612, 0.26151747, 0.00718498, -0.02140571, -0.16860044, 0.30390421, -0.16421191, 0.07168660, 0.07160659, 0.17266522, -0.30329892, -0.00062881, 0.10755111, 0.01852849, -0.08631314, 0.11299091, -0.19585769, 0.09184791, -0.16245008, 0.37175149, -0.14483425, -0.02445895, 0.10261536, 0.35909665, -0.12603524, -0.07768527, 0.01390957, -0.10657135, 0.04474629, -0.13301145, -0.07063548, 0.15104370, -0.14585526, -0.02197828, 0.05399511, 0.23388600, -0.06259844, -0.16514499, 0.30670938, -0.00565427, -0.18774407, 0.38846955, -0.14130025, 0.13736558, 0.10507887, 0.08925471, -0.32267508, -0.11051987, -0.21499570, 0.07240430, 0.16921604, -0.01001490, 0.14408219, 0.21286729, 0.13086806, 0.03697620, -0.26409245, -0.08123025, 0.04339210, -0.13675959, -0.15795527, -0.09630633, -0.23708338, -0.01144256, -0.18977486, -0.23542942, -0.13075499, 0.02300606, -0.03754245, -0.06729581, -0.13413095, 0.24836355, -0.01017148, -0.10821605, -0.04805200, 0.08798569, -0.15173571, 0.13402079, -0.34960219, -0.02371333, 0.05846678, -0.12036400, 0.22344261, 0.08961348, -0.12960656, 0.13935113, -0.14744748, 0.26655129, -0.00467527, -0.18824936, -0.02580264, 0.01047552, 0.09072121, -0.02678769, -0.09668573, -0.35311985, -0.30669752, -0.14357014, -0.07103073, 0.03939302, -0.16353163, 0.00915049, 0.07562006, -0.25559738, 0.00560371, 0.13287306, 0.24269840, 0.04538282, 0.03500750, 0.00055937, 0.01664746, -0.08236735, -0.30390581, -0.05047406, 0.11142004, -0.10068480, 0.08246005, -0.21715060, -0.04896091, 0.45039475, -0.18513617, -0.15700375, 0.19477530, -0.05759411, -0.06729931, -0.31590766, 0.04279419, -0.20623888, -0.34836963, -0.09566137, -0.13105941, -0.29995811, -0.18300247, 0.06527572, 0.15782502, 0.25294110, 0.29817626, 0.46511641, -0.46430513, -0.35049373, 0.28852168, 0.10364031, -0.16384371, 0.02321006, 0.04865773, -0.06918108, -0.08792178, 0.14883761, -1.10848463, -0.10831434, 0.21533667, -0.04564326, -0.50942111, -0.04046382, 0.22757652, 0.18820840, -0.12797393, 0.18301643, -0.10677361, 0.28469306, -0.19152656, -0.00259156, 0.04295881, -0.03533662, 0.07551832, -0.05605292, -0.06425226, -0.00843601, -1.67081034, -0.07335774, 0.08280141, 0.22577941, -0.22508226, -0.28892726, -0.12832366, 0.28102714, -0.16777627, -0.36813921, 0.00272425, 0.07730307, -0.01187121, 0.41925073, 0.08865570, 0.03528834, 0.05689687, -0.65084350, -0.57815439, -0.08282379, -0.21004115, -0.03675551, -0.62544692, -0.46714321, -0.59553260, -0.10529461, -0.47358185, -0.04403243, -0.70560366, -0.21410371, -0.59625459, -0.18131648, 0.13361612, 0.14714925, 0.05124183, -0.13956864, 0.02136183, -0.08843621, -0.48682737, -0.23780836, -0.47828022, -0.05405557, 0.45637289, 0.08650694, -0.20317075, -0.00181010, -0.18778364, -0.13264659, -0.03996662, 0.02238206, -0.22372542, -0.42646724, 0.02303827, 0.01945953, -0.00236446, -0.47602820, -0.78660613, 0.17332129, -0.29976666, 0.39310089, -0.14928454, 0.09018534, -0.09562834, -0.08302040, -0.20985305, 0.53786373, 0.06693662, -0.32148150, -0.39893976, 0.05701189, 0.03114481, -0.09007063, -0.19700934, -0.22160490, 0.00248466, -0.13538300, -0.42279387, -0.01617924, -0.11925374, 0.26538563, 0.02016104, -0.59354746, -0.01674222, -0.35731068, 0.51794040, 0.05228307, 0.30273280, -0.51652145, -0.21325548, -0.74269068, -0.21620153, -0.20908481, 0.03809245, -0.48716521, 0.01187680, -0.06591068, 0.06978130, 0.06478459, -0.17704646, -0.28855065, 0.23735072, -0.04038903, -0.04368081, -0.38290524, 0.07086069, -0.02668354, 0.07270071, -0.73786199, -0.95495248, 0.07660272, -0.00239792, -0.72319382, 0.01901328, 0.26046926, 0.14013119, -0.67981070, -0.08657343, 0.03504053, -0.24484242, -0.12429037, -0.08927720, -0.11605266, -0.04230291, -0.65067405, -0.05839984, -0.15043171, -0.76173759, -0.07950550, -1.07841432, -0.76320618, 0.11112326, 0.06707329, -0.24375589, 0.36293444, -0.05429821, -0.00966718, -0.00675557, -0.03872794, -0.48450762, -0.23027867, -0.62075037, -0.08009345, 0.07494237, -0.01619681, 0.11479811, -0.76800364, -0.32342583, 0.09654710, -0.01345957, -0.07684389, -0.04012899, -0.36281854, -0.34231853, 0.11881659, -0.28814235, 0.02916930, -0.60363126, -0.12471064, -0.68635225, -0.53041291, -0.02428089, 0.09607057, -0.05756992, -0.04156061, 0.23889863, -0.20758106, 0.06158812, -0.10935526, -0.22759865, -0.09803847, 0.13636176, 0.09175862, 0.11975457, 0.05412702, 0.75881761, -0.69507891, 0.80427986, -0.57919103, -0.00644020, -0.10845952, -0.02453770, -0.00484080, 0.11483407, 0.01962172, -0.44753373, 0.05006744, -0.17032208, 0.13031119, 0.00044709, -0.07840004, -0.61823988, 0.04814855, -0.00565111, 0.02876496, 0.11001220, -0.07172512, -0.01166757, 0.00129605, -0.00204235, -0.05691907, 0.02665060, -0.22827941, 0.00701792, -0.04008571, -0.00677205, -0.03092266, -0.04913362, -0.00077815, 0.09836347, -0.07881347, 0.09377812, -0.22740030, 0.11445961, 0.06220410, 0.04936138, 0.14148386, -0.03448416, -0.09685007, -0.07661530, -0.07543799, 0.08026258, -0.18380724, 0.01807749, -0.14441629, 0.07194380, -0.06817525, 0.05267522, -0.23574686, -0.02369273, 0.06842827, 0.03024339, -0.05470781, -0.00736999, -0.03190824, -0.11332406, -0.19170251, -0.26881137, -0.14090997, 0.06140477, -0.14184369, -0.06961153, 0.08235896, 0.05616615, -0.10671001, 0.04881288, -0.06272487, -0.04411878, -0.10868927, 0.02591613, 0.07636435, 0.05626176, -0.13217854, 0.05426313, -0.15021807, -0.10492078, -0.03936134, -0.37512341, -0.14539234, -0.04237299, -0.07490128, 0.06891808, 0.02497740, 0.10384201, -0.00467470, 0.08115053, 0.01398098, -0.21876359, -0.05947521, -0.07133732, 0.00165026, -0.05250362, -0.05138721, -0.09218658, -0.10692597, -0.08791219, -0.10477257, -0.06016099, 0.08132447, 0.16378689, -0.15871586, 0.02900023, -0.00732182, -0.15508445, -0.04277366, -0.13613369, -0.04742700, -0.14366432, -0.17743792, 0.03112453, 0.06512745, 0.01550446, -0.05047888, 0.01993491, -0.09709536, 0.03720085, 0.01734962, -0.09885532, -0.03381890, -0.01230494, 0.01365655, 0.06423440, 0.04710335, 0.13947867, 0.05062737, 0.11249992, -0.08769583, -0.04052603, 0.01842920, 0.07047599, -0.03501549, 0.01049717, 0.18224593, -0.07717828, 0.03961796, 0.01428206, 0.07224812, -0.05959991, -0.04717967, -0.08973238, 0.08574567, -0.06401578, 0.00140090, -0.10434256, 0.15615812, 0.06687675, 0.08527379, -0.20174675, -0.17673677, 0.32821843, -0.19123569, -0.00818199, -0.09323121, 0.07060418, -0.45480010, 0.01342372, -0.10521068, -0.25416315, 0.17220305, -0.16111501, -0.09244606, -0.42370015, -0.20263731, -0.05822527, 0.11525247, -0.15335050, 0.14533377, -0.12507357, 0.33914229, -0.24462022, -0.65944725, -0.15093163, 0.27592364, 0.09278415, -0.39942825, 0.06638923, -0.52136791, -0.08504362, 0.01551050, -0.37506729, -0.05694461, -0.24779382, -0.11134003, -0.27459922, 0.21868409, -0.76596421, -0.56271386, 0.15101695, 0.29332098, -0.23976582, -0.39610478, -0.31993675, 0.03222144, 0.00538844, 0.08537109, -0.36828551, 0.20519303, 0.20277232, -0.02444194, 0.03760096, 0.03384708, -0.34973386, -0.37541255, 0.35567281, 0.11990891, -1.17170179, 0.29061142, 0.15948005, 0.21295489, -0.10187688, -0.47579813, -0.41730645, -0.12889688, -0.22464313, -0.11151051, -0.17493431, -0.10444739, 0.14330846, -0.04111703, 0.04579832, 0.04656460, -0.14772308, 0.07236750, -1.10478354, -0.01030950, 0.03155052, 0.00315416, 0.23178183, -0.17444195, -0.04336502, -0.02930393, -0.43498665, -0.00457069, -0.07314862, -0.35987523, 0.04730191, -0.19471124, 0.13182531, 0.13477656, -0.04876758, -0.13743943, 0.12423637, -0.02894395, -0.11142662, -0.29735449, -0.79532027, -0.27635452, 0.01632230, 0.12903374, 0.19280028, -0.38588837, -0.81185502, 0.17747341, -0.30728063, 0.09589989, -0.24345459, -0.21414565, 0.37148291, 0.04955987, 0.16845921, 0.16776778, 0.23448710, -0.03732067, -0.04906349, -0.21429893, -0.56550103, -0.02509494, 0.01844954, -0.36250165, -0.04848592, -0.21863063, -0.02535298, 0.17746885, 0.20526038, 0.08342040, 0.01803714, -0.03600776, -0.13391450, 0.01309958, -0.11451221, -0.04320929, 0.10832626, 0.00407138, -0.00696739, -0.10833587, 0.02475797, 0.25937819, -0.14601327, -0.25691611, -0.17596439, 0.11032964, -0.17597604, 0.13057013, 0.13321137, 0.17149827, 0.01332666, -0.10419755, 0.02355657, -0.22321427, 0.04397696, -0.27646348, -0.14914855, -0.14623840, 0.00910818, -0.14628252, -0.01806740, -0.01327844, 0.04580904, 0.10488469, -0.02336988, -0.02263906, 0.02327841, 0.17472462, -0.16346908, -0.06396563, -0.02998142, 0.15989240, -0.09409855, 0.07548499, -0.12209177, 0.07272980, -0.01460103, 0.02411503, -0.02925601, -0.16152810, -0.02198966, -0.02902869, -0.07563619, 0.24168220, -0.08412083, -0.12019949, 0.19563715, -0.08717183, 0.13816343, 0.28087342, -0.06706573, -0.22173788, -0.22277427, -0.05326032, -0.06552776, -0.00745909, 0.09796043, 0.00909526, -0.48809737, -0.19773343, 0.20418639, -0.13438846, -0.07125959, -0.10165445, -0.13585795, -0.20008612, -0.01582185, 0.05890661, 0.04124928, -0.04880046, -0.03641471, -0.21580495, -0.28465474, -0.02225783, 0.17731467, -0.00026826, 0.12400255, 0.09520358, 0.20618464, -0.24685964, -0.02263125, 0.00092035, -0.10684117, -0.06139957, -0.07302664, -0.02516934, -0.05673337, 0.09856492, -0.00003674, 0.07267804, -0.09674024, -0.04148657, -0.04926735, 0.02221751, -0.24107023, 0.21269648, -0.15222692, 0.18759456, 0.01619586, 0.01566638, -0.04207559, -0.03072690, -0.12794824, -0.07250638, -0.11893786, -0.04765790, -0.05572419, -0.06624779, 0.13122846, -0.00627535, 0.12726843, -0.16332380, -0.03827256, -0.05858549, 0.41782728, -0.16837679, -0.15992787, 0.19261093, 0.18603940, -0.25443694, 0.11794812, -0.21857613, 0.25326964, -0.20871682, -0.37105983, -0.25643426, 0.17628720, 0.51444191, -0.20773418, -0.48708847, 0.03333454, -0.36124313, -0.04020097, -0.21492778, 0.05733427, -0.32426578, -0.29139924, -0.21203266, -0.36725229, -0.06368566, -0.11398128, -0.36741176, 0.57527930, -0.10607173, 0.29764578, 0.67795235, 0.32545823, -0.43850082, 0.44113347, 0.18015568, -0.30399600, -0.06110425, 0.46265760, -0.12763585, 0.02445691, -0.69610763, -1.38935292, -0.14757504, 0.11571816, -0.29958516, -0.22875418, -0.15591095, 0.50578564, -0.25476739, 0.01202742, 0.47558916, -0.50217539, 0.13900764, 0.60682434, -0.00552194, 0.16193186, -0.17829438, 0.14649302, -0.37880331, -0.38408574, 0.44319636, -1.63892663, -0.33722436, 0.40515411, 0.27780077, -0.26110205, 0.27346700, -0.12249397, 0.49549666, -0.17074081, -0.29462388, -0.64018452, -0.31758261, -0.53229159, 0.31434664, 0.32652882, 0.48852143, 0.54673612, -0.55861038, -0.75359678, 0.29759386, 0.37524128, -0.00997309, 0.16870180, -0.46305120, -0.06269991, 0.07507540, -0.23442081, 0.16962981, -0.61891836, -0.40991411, -0.66385001, -0.71140629, 0.35758996, 0.33721063, 0.14970595, -0.07800828, 0.44482711, -0.28630733, 0.73821831, -0.41573799, -0.61323690, -0.23762652, 0.55756557, 0.45981175, 0.39835256, -0.05412347, 0.18197158, -0.14879726, 0.29661030, -0.35434708, -0.41015682, -0.60767412, 0.36948714, 0.20210409, 0.42710111, 0.54589248, -0.31418559, 0.32587802, -0.00343779, 0.52731591, -0.23434773, 0.33231136, -0.13557659, 0.02044584, -0.14892182, 0.60426044, -0.01579802, -0.01976013, -0.04568411, 0.15224126, -0.08306947, 0.01366247, 0.19464622, -0.46935016, 0.15173335, -0.13179089, -0.50025284, -0.11670802, 0.00080268, -0.11634923, -0.30920628, 0.09251799, -0.59188938, -0.68210119, -0.24266355, 0.09006985, -0.23254414, -0.05252586, -0.15530175, -0.24650602, -0.12403736, 0.00810578, -0.00256225, -0.49748495, 0.10631594, -0.86046803, -0.10093934, -0.03960501, 0.59739530, -0.74689198, 0.06721370, -0.00484158, -0.12817538, -0.07511745, 0.10410030, 0.00535766, -0.05164334, -0.00942245, -0.98284799, -0.16430317, -0.12286597, -0.16529025, -0.08717331, -0.22502372, -0.07065394, -0.26996613, 0.08227574, 0.13519286, -0.33501866, -0.35514879, 0.39828971, 0.03563460, -0.07057726, -0.09255648, -0.26864171, -0.71741700, -0.17587224, 0.01236867, -1.58608568, -0.15677631, 0.06330266, -0.25586185, -0.27963400, -0.00895080, -0.17859738, -0.01123021, -0.01940346, -0.03478898, -0.87641901, -0.90352380, -0.06920964, -0.33943084, 0.07977062, 0.03443642, 0.24419074, -0.04180206, -0.45046172, 0.15688822, 0.05862395, 0.05379175, 0.42434859, -0.15393789, 0.18404199, -0.02271770, -0.01647280, -0.04284482, -0.13830484, 0.02300735, -0.08723838, -0.36037406, 0.07332540, 0.09844816, -0.11666372, -0.11443523, 0.05907163, 0.05995216, 0.60936266, -0.07546417, -0.38291711, -0.13296913, -0.09637921, 0.02013130, 0.25289407, -0.08376238, -0.29583719, -0.15776703, -0.09677804, -0.50811267, -0.25827721, -0.05468029, 0.18092929, 0.01326960, -0.01121312, 0.54852074, 0.15556121, 0.08467294, -0.00184553, -0.17930143, -0.08361495, -0.02757163, -0.25165126, -0.29910794, -0.18292293, -0.01539939, -0.20076886, 0.02023399, -0.01027199, -0.09520414, -0.18191810, -0.00891126, -0.15733367, 0.07482611, -0.38116553, -0.11937179, 0.16116996, -0.01852974, -0.01842947, -0.30866107, -0.16877000, 0.05423155, 0.04455251, -0.30810639, -0.32129660, -0.08343432, -0.24362691, -0.15790951, -0.16234660, -0.05531610, -0.08333963, -0.11049552, -0.13428116, -0.24765038, -0.16332856, -0.18692601, -0.23665227, -0.25105420, -0.34545073, -0.16497269, -0.28841403, -0.03669923, -0.01660112, 0.08389384, -0.31720513, -0.06202655, -0.24817523, -0.08293236, -0.54304051, -0.19677356, -0.11688743, 0.17686217, -0.29644740, -0.18187509, -0.35455659, -0.07147666, -0.12158268, -0.37897223, -0.09658210, -0.09867027, -0.11654932, 0.06581526, -0.08049917, 0.00503282, -0.27805975, -0.11421260, 0.27041882, -0.00321693, -0.33992609, 0.07381970, -0.24856609, -0.10315657, -0.19435860, -0.30520147, -0.03122340, -0.09512877, -0.15494332, -0.30155718, -0.39813828, -0.03920171, 0.04646202, 0.01783391, -0.13048597, -0.00963250, -0.30526406, -0.21983175, -0.04261565, -0.19816877, -0.15969875, 0.00212251, -0.31778228, -0.31078669, -0.35605261, 0.12700541, -0.36935049, -0.09924956, -0.10226297, -0.08780191, -0.20008899, -0.24667118, -0.29536477, -0.24558420, -0.08402882, -0.02388193, -0.12288465, 0.10251394, -0.46538398, -0.01145836, -0.04840459, 0.04082081, -0.37300593, -0.38903767, -0.11393816, 0.00007480, -0.22319151, -0.08683290, -0.31544378, 0.03491486, -0.11936130, -0.09230732, -0.26691231, -0.05618853, -0.30198818, -0.34842589, -0.13206825, -0.16082039, -0.09411830, -0.24958773, -0.01007575, -0.00100287, -0.12265498, -0.13092878, -0.07352202, -0.17699113, -0.01439184, -0.04104718, -0.14639717, -0.03138897, -0.02606818, 0.02678455, -0.12858436, -0.28158766, -0.06695448, -0.02535451, -0.14638148, 0.00349926, 0.01348952, -0.03692017, -0.02235178, -0.07030006, -0.12696899, -0.39622831, -0.22793257, -0.06365634, -0.19945382, 0.05195519, -0.18373585, -0.09081116, -0.02949405, -0.16423328, -0.05736771, -0.29668850, -0.08222203, -0.21659483, -0.05580053, -0.15484223, -0.00369832, -0.22061157, 0.00523127, -0.03034354, -0.01314653, 0.00403374, 0.03865796, -0.03873960, 0.02026010, -0.31849274, -0.47982004, -0.11885286, -0.12894142, -0.12858412, -0.09387650, -0.16218126, -0.11374845, -0.17267796, 0.04323638, 0.06193299, -0.02500804, -0.11847093, 0.00035893, -0.02582378, 0.04763729, 0.01987705, -0.01016978, -0.12688871, -0.17994201, -0.02382812, -0.46797025, -0.22913082, -0.07807586, -0.10949437, -0.12416001, -0.26344550, 0.05676522, 0.03141333, -0.07173885, -0.08330218, -0.45098630, -0.28857955, -0.20334245, -0.02226144, -0.04977838, -0.03319212, -0.07676363, -0.09843637, -0.11846745, 0.01502553, -0.10276483, 0.08441346, 0.13321787, -0.21819460, -0.27812013, 0.05208785, -0.25841978, -0.12644272, -0.30981201, 0.04509839, -0.39697349, -0.09819385, -0.04249348, 0.08436356, 0.01589398, -0.06912646, -0.08389010, -0.07012714, -0.09538425, -0.09760354, -0.01418757, -0.06323412, -0.03893948, 0.02847529, -0.09750487, -0.11187790, -0.13961416, 0.12808202, -0.26038754, -0.21433067, -0.15286675, -0.08484870, 0.02718914, -0.05308143, -0.05448880, -0.09955192, -0.13024633, 0.02043946, -0.10245150, -0.02881948, 0.07703499, 0.02098471, -0.04902543, -0.01451937, -0.02967315, -0.12822056, 0.01395189, 0.04939865, -0.01055326, 0.04582857, 0.03208953, 0.01878485, -0.06451875, 0.06996570, 0.03145098, 0.00507071, 0.15112595, 0.09643665, -0.08586819, -0.05803723, 0.11327046, 0.03760222, 0.05102503, 0.00526831, 0.04557139, 0.11719538, -0.07056381, -0.05024078, 0.06859866, 0.11046077, 0.07373673, 0.00342502, 0.00275630, -0.29904661, 0.01469159, -0.09404790, -0.12518001, -0.08018607, -0.08668397, -0.00275772, -0.06968766, 0.04342560, -0.01817737, 0.01772460, -0.08550612, 0.00342173, 0.07907873, 0.13932887, -0.01697562, -0.07829370, -0.11570785, 0.16851310, 0.04142958, 0.13486683, -0.09201653, 0.10434006, 0.04493127, -0.00380976, -0.14013706, -0.14535138, 0.05586611, -0.04951947, -0.11072825, 0.19424459, -0.12715898, -0.00261980, 0.22380292, -0.10880060, 0.06033468, 0.18671227, -0.05637061, -0.06103235, -0.01906729, 0.14827786, 0.05749866, -0.04494196, 0.11833540, 0.05664258, -0.46951914, -0.07707069, 0.05288852, -0.10990931, -0.12953594, -0.09388158, -0.02949557, -0.10792002, -0.00354896, 0.02433097, 0.08414584, 0.02223077, -0.03763233, -0.13225214, -0.17023857, 0.06315313, -0.03487200, -0.08147227, 0.05671359, -0.02610954, -0.02489409, -0.19667292, -0.02724840, -0.08316076, -0.04604402, 0.01509358, -0.04400598, -0.04090533, 0.00077954, 0.06906311, -0.00125242, -0.07303555, -0.08503225, -0.04038757, -0.00596984, 0.04167477, 0.09158015, 0.11915012, 0.11151442, 0.16663568, 0.04474703, 0.01448917, -0.04381100, -0.06174560, -0.11513540, 0.07536577, -0.06132386, -0.10614128, -0.00883574, -0.05450694, 0.00169291, -0.05320584, 0.11520918, -0.00657734, 0.06897744, 0.02585639, 0.12068825, -0.15749156, -0.20200722, 0.02796194, -0.00462100, -0.09211656, -0.06654379, -0.13267881, 0.10025833, -0.23658228, -0.17035834, -0.22682503, 0.13006580, -0.04892128, -0.22709318, -0.22804745, -0.10241178, -0.27926156, -0.06160606, -0.22743283, -0.18784903, -0.34764004, -0.08940531, -0.00133175, -0.14077865, -0.17408805, -0.10725029, -0.54533392, 0.09316479, -0.18795685, 0.02985704, 0.05102292, -0.14627175, -0.17292808, 0.08592340, 0.01218830, -0.21602069, 0.27135175, 0.13211583, -0.06769791, -0.12315262, -0.23759581, -0.64309943, -0.22639821, -0.01829237, -0.23602886, -0.29070872, -0.26278666, 0.07026496, -0.11650677, -0.09265792, 0.17246801, -0.23867732, -0.12096654, -0.00314344, -0.20174621, 0.07277018, -0.07926498, -0.19154111, -0.27746609, -0.19689059, 0.13243590, -0.29840839, -0.34684938, 0.02909315, -0.09365884, -0.46723902, 0.03403254, -0.24789229, 0.06720471, -0.12907729, -0.26221091, -0.75787550, -0.30906871, -0.14309780, 0.01192060, 0.06975509, 0.08567258, 0.19810291, -0.53542376, -0.37180057, 0.06785545, -0.05196980, -0.12240901, -0.24349684, -0.53532439, -0.42071530, -0.09023615, -0.20081121, -0.06820606, -0.25531080, -0.26997334, -0.26041260, -0.61872953, 0.06422609, -0.02280558, -0.04472797, -0.05258888, 0.11082523, -0.18226512, -0.04282425, -0.33130983, -0.28427067, -0.15480484, 0.02087046, 0.12783974, 0.04096147, -0.00330272, -0.01149810, 0.07777034, 0.00979344, -0.37563646, -0.20835353, -0.25910914, -0.00102286, -0.05662645, 0.16631518, 0.00858225, -0.22040598, 0.03913464, -0.16750732, 0.05612344, -0.23597059, 0.12803841, -0.07887743, -0.14296751, -0.11998740, 0.06105080, -0.05106879, -0.06511843, -0.18885162, -0.06105335, -0.09648102, -0.02787677, -0.12631732, -0.07933566, 0.04152713, -0.01724383, -0.16859655, -0.19250353, 0.00003099, -0.09688083, 0.02350440, -0.23537488, 0.13610077, -0.23761435, 0.01091223, -0.10140438, -0.03518601, -0.06886988, -0.21623380, -0.12375298, 0.06810687, -0.04465948, -0.05117154, -0.16576138, -0.10272390, 0.00015948, 0.03830578, -0.19733958, -0.12359753, -0.26111284, -0.02238594, 0.05982358, -0.13014907, 0.10263024, -0.18159972, 0.04741522, -0.17876218, -0.37270227, -0.40573582, -0.14469114, 0.04957940, -0.15151228, -0.03220822, 0.02581859, -0.05614275, 0.02242605, 0.03614078, -0.00996345, -0.15709095, -0.09341337, -0.01998289, -0.07937243, 0.01967189, -0.17792119, -0.17248011, -0.01504741, -0.21720275, 0.05199280, -0.61524707, -0.29648623, -0.11658302, -0.03048319, 0.18352671, -0.19963449, -0.04366865, 0.05356055, -0.13300152, -0.03197157, -0.18608083, -0.01062458, -0.23110647, 0.09158967, -0.09626928, 0.01363667, -0.03608597, -0.09710704, -0.21212669, -0.01096952, -0.15412283, -0.02828088, -0.02992002, -0.14186187, -0.01726617, 0.14703047, -0.41494429, -0.07051704, -0.22498380, -0.02613589, -0.51911360, 0.05695337, -0.05012157, -0.03992842, 0.06982025, -0.00856445, -0.01165292, -0.06994507, -0.25201419, 0.00881628, -0.16585512, -0.16165163, 0.05347744, -0.01986396, 0.02697347, -0.08591581, 0.12012809, -0.03774501, 0.09174284, -0.07685997, 0.05008150, -0.02849460, 0.07280455, 0.05163714, 0.03138109, 0.00881957, -0.10207756, -0.00315298, -0.00050157, -0.12958957, -0.11315267, -0.04933378, 0.01631942, -0.14645602, -0.06423251, -0.12695694, 0.02870241, -0.02518917, -0.00163616, 0.00934456, -0.05629301, 0.01207243, 0.00172045, -0.19147158, 0.03137666, 0.03428097, -0.18568754, -0.04793860, -0.04939089, -0.00518013, 0.08555268, -0.21804345, 0.01837547, -0.18595396, 0.18703225, -0.01713022, 0.00163850, -0.15681139, -0.27300069, -0.08602306, -0.04771935, -0.07475318, 0.01779187, -0.40795785, -0.10166702, -0.20974584, 0.05782424, -0.08000677, 0.08688842, -0.17765696, -0.06878667, 0.00918226, -0.01947904, 0.29044214, -0.00100995, -0.01606823, -0.14068529, -0.40837866, -0.49041829, -0.15849513, -0.02013129, -0.36759588, 0.00828286, 0.07558646, -0.05106376, -0.21102084, 0.02834098, 0.06000364, -0.28238410, -0.17539367, 0.08796728, 0.08746071, -0.02402602, -0.19887772, -0.11972331, -0.23713015, -0.27908137, 0.02920995, -0.61306286, -0.39554939, 0.06272302, 0.02157051, 0.00559849, 0.02388526, -0.03644533, 0.09378257, 0.04293410, -0.01179560, -0.45043498, -0.13461810, -0.26360175, 0.03530908, -0.07548016, -0.05720374, 0.06310061, -0.30666712, 0.02596492, -0.06691047, -0.13244705, -0.10008839, -0.00952457, -0.28172722, -0.24305071, -0.06177133, -0.34269840, 0.09345490, -0.25990674, 0.03732365, -0.40819919, -0.12874208, 0.00381868, 0.07300285, 0.00244577, 0.06552476, -0.08514077, -0.04831018, -0.12943603, 0.02124587, -0.15994154, -0.09047824, -0.07537099, 0.04386685, 0.00930311, -0.03936447, 0.35691994, 0.08234998, 0.22708151, -0.25838116, -0.07759058, -0.05781149, 0.05875270, 0.01880854, -0.01486572, 0.09699381, -0.05517077, 0.09767696, -0.10026439, -0.09087995, -0.03205811, -0.05960894, -0.02954239, 0.02811482, -0.11031204, 0.00993267, 0.03649948, -0.07728382, -0.21896099, 0.06630325, -0.22981787, -0.15551227, 0.15191104, -0.13974512, 0.22169772, -0.14968675, -0.23668127, -0.28690800, 0.01015356, -0.13152532, -0.18404450, -0.09345503, -0.15344495, -0.17579198, -0.08686225, -0.24001625, -0.11669401, -0.13171114, -0.31843984, -0.38924932, -0.20652600, 0.11364694, -0.26239491, -1.01796889, -0.20933133, -0.15769476, -0.00006436, -0.35890639, 0.11190165, -0.22889030, -0.08314806, 0.05509036, -0.26770160, -0.14051843, -0.17396981, -0.18265328, -0.28101695, -0.34434688, -0.53649163, -0.52633518, 0.04967334, -0.34241551, -0.19165745, -0.26770541, -0.18643716, -0.41596344, 0.02524551, 0.11439133, -0.35687676, -0.11843905, 0.15420140, -0.08734918, 0.06017254, -0.49779868, -0.38204706, -0.25560966, -0.33579528, 0.21796371, -0.79643470, -0.40037718, 0.06167355, -0.10037833, -0.21845582, -0.00938501, -0.14581133, 0.11383905, -0.29729992, -0.27190194, -0.64018238, -0.38476774, -0.24607342, 0.02907787, 0.16521634, 0.14990823, 0.12880042, -0.29918379, -0.24146046, -0.02317394, 0.11512122, -0.14554785, 0.07760353, -0.22244386, -0.06566932, 0.09804990, -0.68020874, 0.08009513, -0.45194930, -0.33141357, -0.54740572, -0.49140689, 0.10271186, 0.02765707, 0.03717154, 0.01513833, 0.05420028, -0.10218550, 0.08585741, -0.16999273, -0.36910492, -0.14775573, -0.09576563, 0.12927185, 0.09961890, -0.13979024, 0.06230918, -0.29515064, 0.06913955, -0.31146893, -0.23790909, -0.24432407, 0.25569415, 0.03925438, 0.21943639, 0.24369003, -0.02051434, 0.17738949, 0.09282155, -0.33716613, -0.35865659, 0.17756081, -0.21728402, -0.11293087, -0.09807860, -0.15986934, -0.03759475, -0.10591450, -0.15171534, -0.02263936, -0.10141911, -0.08960402, 0.01919122, -0.22837402, 0.00582696, -0.00871114, -0.21774270, -0.03632034, -0.07585896, -0.02351059, 0.21227093, -0.27535444, 0.07073352, -0.22089656, 0.21457158, -0.05501046, 0.18855047, -0.07747959, -0.23593342, -0.07000963, 0.03508377, -0.05023052, -0.09598789, -0.32797986, -0.09311847, -0.07186926, -0.00013807, -0.06971612, 0.04018006, -0.25678864, 0.04234901, 0.04725946, -0.09638699, -0.05959537, -0.03441151, -0.05914209, -0.09088162, -0.32023811, -0.33442464, -0.07351709, -0.02046762, -0.25849828, 0.08695117, 0.17810312, -0.10406105, -0.07465348, 0.02439462, -0.03644694, -0.20695302, -0.07407871, 0.09295349, -0.16271588, 0.02168577, -0.09053980, -0.17839867, -0.24723490, -0.29283831, 0.06040039, -0.50288081, -0.16755126, 0.05721900, -0.02668837, 0.19073120, -0.01417294, -0.16223460, 0.04906772, -0.01395429, 0.03132086, -0.47485581, -0.35565063, -0.31912854, -0.03830718, 0.03206209, -0.07483801, 0.15256453, -0.33840877, -0.22817583, -0.01482523, 0.11478160, -0.13220689, 0.23242728, -0.12527452, -0.04794028, -0.07235371, -0.32210067, -0.03352094, -0.31628424, -0.02452032, -0.45701990, -0.05023865, 0.05471896, -0.07908422, -0.08743693, 0.00951603, 0.04135332, -0.06134489, 0.12884544, 0.07077492, -0.20135219, -0.20011728, -0.13050376, 0.05804040, 0.05607956, -0.11484278, 0.17062463, 0.03463125, 0.22123364, -0.16982798, 0.10334276, -0.01684666, 0.06117086, 0.04111494, 0.01341644, 0.16419880, -0.04880737, -0.06894977, -0.11743190, -0.11765682, -0.07336351, -0.02948515, -0.14795193, -0.15381886, 0.12344397, -0.17692852, 0.73492050, -0.08253523, 0.01581634, 0.36370203, 0.22730482, -0.25600454, -0.95226020, -0.12375873, 0.58131975, -0.29818591, -0.10219789, -0.54187131, 0.21047471, 0.81156796, -0.35212281, -0.14111683, -0.13282301, -0.71283036, -0.50861770, -0.33619419, -0.12384866, -0.35195538, -0.80521995, 0.08999208, -0.34452239, -0.93204296, -0.23315080, -1.35692537, 0.81430304, -0.14839570, 0.48618877, 1.01239324, -0.55129910, -0.88635862, 0.71775126, 0.23141620, -0.72822064, 0.04042884, 0.59841359, -0.11176901, -0.07419256, -0.01745970, -2.72461128, -0.51742405, 0.26858324, 0.09980323, -0.61032623, -0.47298339, 0.37866399, 0.12744790, -0.03670289, 0.55473822, -0.75815070, 0.03176745, 0.15624700, -0.03195951, 0.25761425, 0.07890037, -0.18512255, -0.55869055, 0.09895406, 0.18345425, -2.80110908, 0.09301302, 0.33560240, 0.12366994, -0.76308119, -0.46517268, -0.32798418, 0.60623229, -0.27621570, -0.70853513, -1.63164103, -0.50014722, -0.30903202, 0.51588720, 0.08631467, 0.59613407, 0.55587578, -1.95007157, -2.09346199, 0.17257142, 0.06328601, 0.03133040, -0.60775560, -1.86056054, -1.32869935, 0.03928792, -0.86507195, -0.27451643, -1.68272007, -0.50260901, -1.60181105, -1.26037645, 0.44833106, 0.44388887, 0.36095700, -0.27501005, 0.03563418, -0.15411592, 0.42649046, -0.50885648, -1.76333106, -0.32944140, 1.00370991, 0.45621756, -0.25442159, -0.30963352, -0.60831082, 0.06803928, -0.36146393, 0.02584176, -0.48762316, -0.89994711, -0.12657046, 0.31866014, 0.23370643, -0.25172538, -2.07597542, 0.49371791, -0.65675145, 0.75908339, -0.52100641, 0.41189677, 0.06136623, -0.32213819, -0.26691848, 0.99811858, -0.09298483, 0.21971194, 0.28512567, -0.04427617, -0.18195163, 0.00437325, -0.00042526, 0.10262133, -0.00159693, -0.01297706, 0.30872074, -0.09288770, 0.03033541, -0.27927250, -0.08814631, 0.32532579, -0.00018246, -0.04489493, -0.57994819, 0.01149795, -0.19734436, -0.00969700, -0.09062187, 0.20555238, 0.15414344, 0.03898953, -0.13153836, -0.57810742, -0.15965565, 0.03295473, 0.01038690, -0.35161775, -0.04483878, -0.04881290, -0.20868643, -0.01477201, -0.10180353, 0.02870156, -0.23040916, 0.12901372, -0.22251350, 0.49642822, 0.09779663, -0.35249481, 0.01782452, 0.55452538, -0.05715747, -0.24099067, -0.33131143, 0.21022007, 0.15027417, 0.01741098, -0.23429886, 0.09847227, -0.03392279, 0.04230867, 0.11185012, 0.35504270, -0.31636703, -0.12644017, 0.48842043, -0.06476981, -0.00677912, 0.53219664, -0.04701241, 0.04153269, -0.32263246, -0.46651557, -0.25287491, -0.02632117, -0.07775806, -0.11950217, -0.15283309, 0.01570653, 0.32242307, 0.06734815, -0.06500252, -0.09961637, -0.25626928, -0.26556855, -0.12019929, -0.03349837, -0.09606852, 0.08131256, -0.07777619, -0.16600290, -0.27734020, -0.00966039, -0.29260400, -0.08643598, -0.29066145, -0.04738690, -0.20845224, -0.40992293, -0.09718376, -0.06624173, -0.00015629, 0.02328985, -0.19241792, 0.12110348, -0.26454780, -0.07731001, -0.19887352, 0.04135621, -0.03404976, -0.03547402, -0.01282740, -0.19220874, -0.70683980, 0.34579656, -0.52977538, 0.32092801, -0.13201308, 0.05085045, 0.07005219, -0.02367452, -0.11714622, -0.14324497, -0.15635982, 0.00215905, -0.00035516, -0.40174854, -0.06592010, 0.01167423, 0.18278511, -0.23191942, 0.02197573, -0.19126055, -0.02336953, -0.08296819, -0.32469830, -0.01435980, -0.05608293, -0.08774034, 0.08539680, -0.25472513, -0.12997025, -0.02296623, -0.12992647, -0.06898616, -0.03398855, -0.18086517, -0.07043366, -0.12748435, 0.06343086, -0.26130509, 0.03070516, -0.13279109, -0.03048093, -0.12836839, -0.23092990, -0.41180563, -0.00800664, 0.08563794, -0.01984855, -0.32699436, -0.20551330, -0.06728542, -0.09553689, -0.28617752, 0.09547819, -0.19195488, -0.12505597, 0.06047218, 0.14229585, -0.18028393, -0.30887029, -0.08891221, -0.20029137, -0.14886662, -0.58845705, -0.09418465, 0.00051132, -0.10970439, -0.04269461, 0.03925703, -0.12670641, -0.28438127, -0.07391738, -0.12968004, -0.04726721, -0.00404590, 0.03936765, -0.01944148, 0.07734948, -0.36768019, -0.19037618, 0.10129184, -0.14030114, -0.03956163, -0.63144439, -0.26560917, -0.01718001, 0.05523635, -0.04588036, -0.02681966, 0.08135391, -0.11233630, -0.09715457, -0.18991832, -0.18242407, -0.08802437, -0.36188111, 0.04750503, -0.05913628, -0.09647536, -0.07638291, -0.02804212, 0.12434665, -0.15370269, -0.01138624, 0.05053810, -0.06509591, -0.08271349, -0.07776470, 0.20500524, -0.43896502, 0.07977533, -0.05795167, -0.00695899, -0.22639707, -0.17146234, -0.12035667, -0.16039643, 0.04063388, 0.04327258, -0.16795927, 0.06940167, -0.31977895, -0.05079272, 0.11830210, 0.06424195, -0.06712411, -0.00084716, -0.06028040, -0.13001761, 0.05830113, -0.28972223, -0.05405644, -0.09452514, -0.06899839, -0.05238605, 0.03011612, -0.16672075, -0.03489859, -0.01368516, -0.02208620, -0.02186494, 0.06067268, -0.08655799, 0.08131757, -0.02118248, -0.28821364, 0.04605895, -0.12905551, -0.19224322, 0.56012452, -0.30197972, -0.30324098, 0.10225436, 0.15948737, -0.26796421, 0.30118662, -0.22090001, 0.35358232, -0.29849488, -0.47121423, -0.36551607, 0.15529320, 0.52313286, -0.26805866, -0.52583885, -0.03136133, -0.29878336, 0.06611172, -0.22972257, 0.22813354, -0.27591288, -0.36337942, -0.27175882, -0.39384377, 0.25601462, -0.13941544, -0.69356835, 0.31673247, -0.05590354, 0.32287422, 0.55696940, 0.56247157, -0.29820052, 0.32805324, 0.28794071, -0.49701208, -0.08961146, 0.47964987, -0.27273163, -0.17070046, -0.75778961, -1.53121305, -0.29661527, 0.19451532, -0.46646616, -0.41809833, -0.19949442, 0.36922425, -0.34309369, -0.08332034, 0.63528937, -0.67628330, -0.00684545, 0.73696733, 0.01464659, 0.30736467, -0.27107510, -0.00372409, -0.37736595, -0.55094695, 0.39917442, -1.57280874, -0.51043200, 0.34745783, 0.24869300, -0.39171591, 0.41939682, -0.02399728, 0.48860124, -0.13774662, -0.50247216, -0.76647079, -0.48994520, -0.56655645, 0.37026778, 0.33632261, 0.44569060, 0.67615527, -0.56087250, -0.49950543, 0.32185295, 0.37786478, -0.09980524, 0.35613909, -0.37023172, -0.08008625, 0.12301936, -0.44558865, 0.30247214, -0.46063393, -0.35357863, -0.59953421, -0.84346533, 0.52644134, 0.25664547, 0.31310049, 0.02674544, 0.46723109, -0.22458187, 0.78602272, -0.41954857, -0.59658581, -0.39670980, 0.59554905, 0.50187683, 0.48100659, -0.02604168, 0.19878839, -0.20776330, 0.28782207, -0.35249206, -0.25936317, -0.54058188, 0.57627767, 0.27993661, 0.68169349, 0.75777996, -0.04228304, 0.53531605, 0.07189149, 0.42740232, -0.29382432, 0.29804799, -0.32732451, 0.09457806, -0.13289446, 0.64020067, 0.12293352, -0.03525285, -0.07089151, 0.01416341, -0.05421748, -0.02495517, -0.33074293, -0.12632078, 0.08005185, -0.14030172, -0.06140679, -0.11559052, -0.08616430, 0.13813539, -0.05626325, -0.10127343, 0.14126372, -0.13040163, 0.14124490, -0.13281460, 0.21048294, -0.24390291, -0.16502154, -0.44831154, -0.05210298, -0.14010422, -0.14158785, -0.00645348, 0.09808713, 0.07677852, 0.07664203, 0.28366765, -0.32173169, -0.15126844, 0.15201041, 0.08143926, -0.21784230, -0.23982024, 0.09924369, -0.13954577, -0.04018561, -0.05712898, -0.60262930, -0.08202442, -0.02197065, -0.18685849, -0.17298990, 0.05195968, -0.01943241, -0.29886845, -0.14598209, -0.03051111, -0.21808918, -0.01630223, -0.18515526, -0.17094144, 0.06069710, -0.49047354, -0.01496563, -0.08930879, -0.19372018, 0.09528968, -0.87886751, -0.29602593, 0.04004154, 0.15474260, -0.09977489, -0.04748160, -0.22991280, 0.01965473, -0.21396199, -0.21936966, -0.32757697, -0.20065795, 0.02625596, 0.19515654, 0.05420889, 0.07473004, -0.09457260, -0.37675187, -0.28191432, -0.05884945, -0.04116819, -0.06643292, -0.38263893, -0.53448588, -0.47822160, 0.05465298, -0.06945062, 0.02613564, -0.33908483, -0.11775059, -0.37635365, -0.19268070, 0.04057371, -0.07414322, -0.00097516, -0.06819451, 0.04108618, -0.15548998, -0.32471636, -0.15271191, -0.32130831, -0.20072462, 0.28152007, 0.11751332, -0.20574798, -0.05425741, 0.11372543, -0.43028274, 0.23617439, -0.13443354, -0.17518389, -0.17996331, -0.03432075, -0.05690524, 0.05406851, -0.35530138, -0.41996610, 0.06087769, -0.19485982, 0.22077739, -0.16033886, -0.09325716, -0.26250058, -0.22187783, -0.12735111, 0.27230704, 0.07399657, -0.05529078, -0.17015497, -0.03174698, -0.09018947, 0.00782879, -0.20335872, -0.07480060, 0.05361060, -0.07705733, -0.00140135, 0.01445595, -0.03889844, 0.20249727, -0.17994308, -0.11962546, 0.11341168, -0.17053856, -0.10098276, -0.09809075, -0.22075678, -0.35752410, -0.20966281, -0.18472107, -0.18809222, 0.03641975, -0.12687169, -0.10700442, -0.21426669, 0.14968330, 0.03232348, -0.04907959, -0.31327659, -0.07713333, 0.03626384, 0.06542432, 0.01398193, -0.03775513, -0.25558984, -0.12482594, -0.10792013, -0.16577235, -0.80240589, -0.15193968, 0.05680691, -0.21257122, -0.34112278, -0.04159680, -0.13081034, 0.05443375, -0.07311028, 0.03783342, -0.05125878, 0.17849554, -0.13736929, -0.08194281, 0.02921098, -0.28673884, -0.08097976, -0.00215200, -0.14690067, -0.00949144, -0.52503902, -0.10630840, 0.00834607, 0.24775876, -0.27169079, -0.12141440, 0.06282938, 0.04070923, -0.11058663, -0.35381150, -0.15867981, -0.00600241, -0.13533792, 0.15773499, 0.09114419, 0.06545014, -0.12371185, -0.38975176, 0.08227897, -0.16022159, -0.23285067, -0.03918631, -0.36828303, -0.30297083, -0.51528537, 0.00865805, -0.39394629, 0.16727197, -0.16368261, -0.08324096, -0.31227309, -0.32913089, 0.03913261, -0.08773807, -0.00865057, 0.02390749, -0.10267017, 0.02602051, -0.62666559, -0.16944504, 0.02698105, 0.06612370, 0.18451011, 0.07120989, -0.13681497, 0.04719671, -0.15858129, -0.07084496, -0.17298862, -0.05474459, -0.21249679, -0.19139925, -0.02607930, -0.11405109, 0.08531421, -0.30760592, -0.26423472, -0.03555154, -0.01290643, -0.01644709, -0.02238589, 0.05105620, -0.07883155, 0.01424942, -0.08088145, 0.00464682, -0.06248279, 0.05531107, -0.00600638, 0.01898886, -0.24396066, 0.06305272, 0.19340120, -0.21829924, 0.04582001, -0.11045869, -0.23339088, -0.11864747, -0.11811667, -0.11125895, -0.08965470, 0.20733544, -0.09610105, -0.12859954, 0.00493823, 0.09225797, 0.02204823, -0.09855606, 0.08251479, -0.05795438, 0.05213019, 0.23310786, -0.18537702, -0.52684224, -0.07542976, -0.18863361, -0.01254833, -0.34902310, 0.08169344, -0.53371954, -0.14154784, -0.07461208, -0.12859902, 0.06600509, -0.12897792, 0.03348534, -0.07283491, 0.30453992, -0.32505602, -0.35560322, -0.01861266, 0.21772376, 0.06163176, -0.03549216, -0.27876210, -0.03114606, -0.00843036, 0.07691010, -0.58318627, -0.10605815, -0.05277709, 0.08354139, -0.04518354, 0.12695152, -0.33950594, -0.68958753, 0.27278805, -0.09911355, -0.47959852, 0.35020575, 0.03113553, -0.09488483, 0.04610499, -0.09419239, -0.56073821, -0.00139100, -0.09432442, 0.03110189, -0.10148441, -0.46779945, 0.24665463, -0.03725202, -0.06250347, -0.16356158, -0.12478549, -0.15188685, -0.09160691, 0.05420567, -0.11082038, 0.00485134, 0.21949871, -0.20369829, 0.04403060, -0.07306072, 0.08363710, -0.04560511, 0.21204172, -0.02193213, 0.15103288, -0.10929678, 0.01262507, 0.05363300, -0.04283315, -0.16428363, -0.20931171, 0.03145995, 0.09204884, 0.00539819, -0.09738146, -0.17302427, -0.09069200, 0.05026463, 0.02594303, -0.38586062, -0.07073462, 0.14182225, 0.05295919, -0.14223990, -0.00645661, 0.02730681, 0.12276530, -0.06388468, -0.01743183, 0.15910254, 0.02010464, -0.04875531, -0.20806883, -0.26103872, -0.26535502, -0.08350056, -0.05892906, -0.58019346, -0.06509503, -0.20279084, 0.07853688, 0.21047288, 0.33364698, 0.01443470, 0.07646833, -0.06595952, -0.14500755, 0.20700210, -0.01834027, -0.29731899, 0.24108385, 0.03975632, 0.05635345, -0.18695439, -0.50648022, 0.54407668, -0.19031997, -0.25730398, -0.39689615, -0.13562159, -0.19700435, 0.30100039, 0.08570755, 0.14587229, -0.22417255, -0.03591240, 0.03637559, -0.21857411, 0.32412988, -0.21476214, -0.05314222, 0.11441621, 0.19739875, -0.22234355, 0.01034433, -0.02563965, 0.07060445, -0.09785064, 0.21529296, -0.02586652, -0.07576770, 0.99124902, -0.53650141, -0.18561330, -0.15230586, 0.42884156, -0.75753933, -0.36917329, -0.05614175, 0.29491153, -0.02246385, -0.04459342, 0.03333526, -0.09207318, 0.18346475, 0.08224967, -0.04416626, 0.28812709, 0.09597121, 0.07622286, 0.46001020, -0.06668522, -0.93721282, 0.54202431, -0.15377060, -0.19998462, -0.68825519, -0.22855254, 0.14674708, 0.03938051, -0.19668327, -0.79186797, -0.29366377, -0.02936922, 0.66670156, -0.13879551, -0.11309901, -0.04341361, -0.08947012, -0.10220995, -0.11272795, -0.08664770, 0.14609775, 0.26660466, -0.03512204, -0.00011038, -0.04954897, 0.07057672, 0.01294614, -0.13992780, -0.24915007, -0.08050599, 0.14416754, -0.59310144, -0.20423982, 0.13638595, 0.11886755, -0.05492610, -0.14402479, 0.12392417, 0.29812855, -0.10245039, -0.15094191, 0.09026923, -0.07272607, -0.11330209, -0.04035535, 0.00160334, -0.50832474, 0.01327640, -0.33678034, 0.37239775, -0.43997768, -0.41569471, -0.08462707, -0.09742561, -0.10876234, 0.25487182, -0.26275507, 0.00195137, 0.13833740, -0.08958552, 0.17349277, 0.00337728, 0.06561956, 0.14650238, -0.54083377, 0.02737649, 0.06945474, 0.27726349, 0.29325497, 0.16592561, -0.10487717, -0.12992908, -0.19339183, 0.01703973, 0.12301830, 0.03382597, 0.31831959, -0.22976834, 0.14358298, -0.04255982, -0.19919641, 0.25404122, -0.11336410, -0.19113633, -0.80790782, -0.16094434, 0.30483842, 0.05276394, -0.04884465, -0.36842299, -0.01987606, -0.10763673, -0.06944998, -0.02713260, -0.03654636, 0.05065741, 0.00896401, 0.02253144, -0.17374606, -0.20011233, -0.06521041, 0.01110138, -0.24253303, -0.31992105, 0.00008033, -0.07607596, -0.08884333, 0.17664304, -0.22386000, -0.11338863, -0.03201981, 0.13806780, -0.20574641, -0.54928088, -0.11250195, -0.26314002, 0.00748211, 0.15271559, -0.03639355, -0.03838789, 0.03337158, -0.04832499, 0.00912804, -0.06654648, 0.02375669, 0.02535185, 0.32843035, -0.05246989, -0.03852008, 0.26893118, -0.04649595, -0.23239763, -0.18370439, -0.20448278, -0.08397640, 0.10639903, -0.15068997, -0.04059339, -0.19855340, 0.24712157, 0.37924361, -0.04070455, -0.04706498, 0.08361523, 0.03445232, -0.02390820, -0.28574383, 0.09239034, 0.04155722, 0.05910221, 0.00850731, 0.02748929, -0.14270921, 0.23252691, 0.12135394, -0.16131732, 0.04410665, -0.24562353, 0.14318521, -0.25989768, -0.07922109, 0.07747271, 0.05751750, -0.05597743, -0.11096942, -0.01760353, 0.15846464, -0.24161503, -0.18956096, -0.03760233, 0.09002716, 0.10767539, -0.18996696, 0.05535553, -0.87833560, -0.27613556, -0.30750814, 0.24841155, -0.16066988, -0.26393560, -0.12517841, 0.01285013, 0.00969797, -0.15310796, -0.08198418, 0.11059013, -0.00062936, -0.00065097, -0.17026944, 0.13938826, -0.19092415, -0.09646768, 0.09299810, 0.07734378, 0.04258220, -0.07575151, 0.02010655, 0.01626870, -0.31931442, -0.21837050, 0.22883506, -0.36264059, 0.21479215, -0.10843851, 0.05235871, -0.23160627, 0.09271447, 0.03593201, -0.42282587, 0.09409010, 0.21318595, -0.45202652, -0.76837838, -0.43966255, -0.30946612, -0.10387252, -0.57836318, 0.02173563, -0.22883245, 0.29515436, -0.47469184, -0.77161646, -0.53236443, 0.10973737, 0.16822273, -0.66215438, -0.25065768, -0.50246245, -0.31964830, 0.25205055, -0.31944880, 0.02194961, -0.50111330, -0.09094450, -0.64125532, 0.03621034, -1.77106130, -0.72398508, 0.28006804, 0.11461942, -0.57095045, -0.55351806, -0.41786054, 0.04713146, -0.18432546, 0.07472943, -0.13670456, 0.15208507, 0.06865899, 0.00902704, 0.39919227, -0.00823945, -0.52371931, 0.01317448, 0.14636773, 0.21464445, -1.66346288, 0.05575802, 0.13408743, 0.42556626, -0.37745810, -0.39181674, -0.20620055, 0.14657535, -0.57754338, -0.43513399, -0.28391385, 0.02692904, -0.03833044, 0.40778357, 0.19748874, 0.25611141, -0.21334556, -0.24550676, -0.26831105, -0.04291540, -0.28340122, -0.08567035, -0.38120526, -0.57987320, -0.63003278, -0.04912393, -1.40111935, 0.13460369, -0.54632413, -0.35600507, -0.77569366, -0.48206645, 0.24810520, -0.09357487, 0.03896746, 0.25453979, 0.04935082, -0.12194292, -0.89254516, -0.40838876, -0.28105605, -0.16341799, 0.14392594, 0.29760960, 0.17179929, 0.01760421, -0.60371077, -0.08728008, -0.42477649, 0.08794266, -0.36324993, -0.46014473, 0.30956176, -0.17881587, 0.28329971, -0.20494601, 0.08838060, 0.21278755, -0.17111367, -0.22368295, -0.37363833, 0.21231242, -0.09645376, -0.18472882, -0.12679018, -0.23811010, -0.06228112, 0.22130401, 0.29089382, -0.04507064, -0.11589386, -0.09017897, -0.18027729, 0.58746779, 0.01443200, 0.11898179, 0.52305150, -0.19458061, 0.14357175, -0.14891317, -0.04819749, 0.23333117, -0.05776719, 0.05543577, -0.32590404, -0.33961132, 0.02102421, 0.14137718, -0.04982676, 0.22130680, 0.01078628, -0.24660823, -0.61718303, 0.05396365, 0.28108069, 0.09702753, -0.09523770, 0.11897681, -0.07532179, -0.40275946, -0.02390289, -0.01766861, -0.22946431, -0.01065473, 0.17104566, -0.06542963, -0.48242590, 0.45609045, -0.44037119, -0.74527192, -0.08002188, 0.55380219, -0.24006009, -0.29948243, -0.00353601, 0.39426866, 0.14082079, 0.08659326, -0.36244267, 0.02301335, 0.05894591, 0.15100776, -0.05419220, 0.32804337, -0.00625446, -0.20026703, 0.59288567, -0.04525954, -1.02941859, 0.50609875, -0.09319208, -0.18257868, 0.01918887, -0.39464405, -0.40445510, 0.07662554, -0.52542412, -0.14718273, -0.14336880, 0.18848312, 0.27719563, -0.18294400, -0.11053482, 0.02920126, 0.04895922, 0.05309001, -0.40919673, 0.02653948, 0.23584767, -0.03796374, -0.10810814, 0.20776902, 0.06996665, -0.16005385, -0.03340250, -0.11612232, -0.32435432, -0.45005295, -0.03317880, 0.00647125, -0.09037292, -0.03087684, -0.00962237, 0.01218042, -0.13907792, 0.01201734, 0.35893539, -0.11074238, -0.41688436, -0.21315250, -0.17280236, 0.02516562, -0.26658228, -0.08342014, -0.51004893, 0.24293044, -0.21166509, 0.39460573, -0.10474174, -0.09987581, -0.21305411, 0.06585740, -0.16284846, -0.01697281, -0.12580907, -0.09989673, 0.15888508, -0.01573353, -0.25080103, 0.04254737, 0.22751488, -0.40179643, -0.01678677, 0.09814764, -0.05613608, -0.02033405, -0.09440342, -0.04148967, -0.11633158, 0.05666805, -0.05469796, -0.13381943, -0.14637032, -0.04710490, -0.10525750, -0.07852102, -0.01577621, 0.14730108, -0.09833471, -0.22883362, -0.04070244, -0.25150010, -0.11040056, -0.03234869, -0.02805018, 0.00661094, -0.17673714, 0.12581573, -0.00577339, -0.22569548, -0.12647325, 0.15717928, -0.02128617, -0.08695594, -0.03191629, 0.31545761, -0.12204829, -0.58282810, 0.09823802, 0.05649437, -0.12945887, -0.06611720, -0.14258677, 0.07275494, 0.01808570, -0.03535626, -0.55403316, -0.06054449, -0.08962840, 0.17853913, -0.14732774, -0.13278088, -0.02877075, -0.07937978, -0.02240611, 0.00203396, -0.02851386, -0.10032790, -0.24171038, -0.01006945, -0.10073321, 0.09030274, 0.07253619, 0.08624907, 0.03001898, 0.03623377, -0.47966731, 0.17760567, -0.13199922, -0.21177000, 0.17149866, -0.15203455, -0.18762872, -0.02473111, -0.12231954, -0.03694910, 0.35888726, 0.09396002, -0.07580623, -0.06710944, -0.03681492, 0.07921833, -0.11514917, -0.04495923, -0.21533856, 0.02179280, -0.16437411, -0.13740894, 0.01075849, 0.25090045, 0.17348966, -0.08946771, -0.00534892, -0.11512870, -0.18647923, -0.15752880, -0.10152446, 0.13200703, -0.07750160, -0.10546026, -0.15753391, -0.04504942, 0.09581689, 0.01734635, -0.47468027, -0.13914178, -0.17043908, 0.03062235, 0.25844166, 0.04156513, 0.04102834, 0.14698038, -0.09117314, 0.03727599, -0.00825363, -0.02800481, -0.16339146, 0.10547386, -0.05509308, -0.06131800, 0.04782161, -0.26517117, -0.21131858, -0.09202907, 0.08811947, 0.17746012, -0.12518165, -0.02235604, 0.15070242, -0.21396406, -0.02646783, 0.17053713, 0.37948275, 0.14027493, 0.07990439, -0.01200498, 0.05107093, -0.20068307, -0.44725913, -0.07275931, 0.09731295, -0.15279950, 0.21252012, -0.24841245, 0.02858710, 0.53621322, -0.16974156, 0.02447633, 0.07131886, -0.26162919, -0.18806931, -0.30325800, 0.06288410, -0.05902339, -0.39712784, -0.05727866, -0.14025064, -0.33781359, -0.20705965, 0.08449813, 0.12388105, 0.16927671, 0.25633147, 0.48060945, -0.57304478, -0.50061780, 0.27958497, 0.08714272, -0.26843080, -0.04537772, 0.17104690, -0.10783167, -0.23358235, 0.16819143, -1.70071507, -0.18734579, 0.24287269, 0.10211412, -0.65160024, -0.19351840, 0.16820705, 0.02546821, -0.06512178, 0.16080351, -0.14544789, 0.29520470, -0.28044522, 0.03298896, 0.13242823, -0.02274686, 0.13673986, 0.06936377, 0.19543818, 0.08392754, -1.89132476, 0.03805256, 0.10456702, 0.40136066, -0.20022509, -0.31106260, -0.17414697, 0.27316386, -0.36209518, -0.62131625, -0.20169109, 0.07455914, 0.03971756, 0.38706976, 0.11211562, 0.14837553, -0.03782083, -0.39547676, -0.57892632, -0.13635808, -0.21633360, 0.02191229, -0.69856948, -0.57521820, -0.83578068, -0.13658066, -0.58289301, -0.03006175, -0.80356038, -0.42591208, -0.59419978, -0.17272042, 0.22631745, 0.13692263, 0.22665983, -0.08822637, -0.02201957, -0.12182107, -0.63984311, -0.28729582, -0.54440588, -0.17660432, 0.59120679, 0.27459753, -0.12649152, -0.10618557, -0.42281121, -0.07452362, -0.16803336, 0.09804329, -0.23768863, -0.45851383, -0.04209507, -0.08299198, 0.07457853, -0.63180834, -0.68315047, 0.13125893, -0.26354945, 0.47536862, -0.09742305, 0.11836529, -0.12809552, -0.14617147, -0.21019569, 0.44101962, 0.00420510, -0.10410962, -0.16357373, 0.08771610, -0.23632279, -0.12570770, 0.00736951, -0.10892156, 0.04914462, -0.14984499, -0.24687764, -0.25943047, 0.04527299, -0.05745269, -0.16498217, -0.09860727, -0.09937752, -0.25250775, -0.26424217, -0.20463710, -0.00333403, -0.31332242, -0.22836424, -0.31401387, -0.01481083, -0.00570181, -0.26808611, -0.99570423, -0.04981549, -0.11765312, 0.09268663, -0.29918113, 0.12186450, -0.23449345, -0.12025464, 0.15809897, -0.29101181, -0.05085713, -0.11488912, -0.03464916, -0.24891406, -0.25912216, -0.62479860, -0.53455794, 0.02851109, -0.22244467, -0.23203504, -0.22919101, -0.13155770, -0.32811740, -0.00687749, 0.10988660, -0.46122482, -0.02334131, 0.21742196, -0.14215554, 0.11713366, -0.13144372, -0.47116244, -0.52528805, -0.11027721, 0.09378600, -0.67729151, -0.20981961, 0.05316634, -0.05034359, -0.35883942, -0.10744318, -0.14895587, 0.11261742, -0.26616049, -0.14530852, -0.64087301, -0.44836491, -0.23024872, 0.03892385, 0.01236877, 0.11864039, 0.17883548, -0.45179987, -0.26507577, 0.16055778, 0.07248715, -0.04717799, 0.05650625, -0.33841172, -0.25150871, 0.19247945, -0.62081987, -0.10078730, -0.40450162, -0.35798648, -0.54295224, -0.76968098, 0.16566329, -0.01861125, 0.08226734, -0.05813572, 0.12519798, -0.02311763, 0.12036084, -0.25786296, -0.35900879, -0.25620151, -0.05509638, 0.10637801, 0.21349333, 0.00751425, -0.24115163, -0.03782979, -0.06624229, -0.22521506, -0.08975601, -0.22706814, 0.07383911, 0.11281071, 0.18086925, 0.22070988, -0.16397978, 0.01627544, 0.02136055, -0.23568283, -0.25886786, 0.06145038, -0.14582869, -0.11415272, -0.03869072, -0.19501084, 0.22408503, 0.10847928, 0.26262918, 0.15240172, 0.02478032, -0.31883848, 0.25358665, 0.03505568, 0.15822448, -0.52012748, 0.59515864, -0.66170377, 0.00713329, 0.59061372, -0.68880045, 0.45670322, -0.33915600, -0.29065120, -1.65015805, -0.31928506, -0.64370155, 0.11079007, -0.21974361, 0.34069380, -0.47464380, 0.12335401, -0.07424086, -0.06818532, -0.03551899, 0.14490788, 0.20857006, 0.15618823, -0.03807781, -0.94185603, 0.26718628, 0.18374328, -0.36974058, 0.16321450, 0.00262530, -0.15090930, -0.25297582, 0.61699826, -2.15327168, -0.26973942, 0.23639667, 0.63760048, -0.67049658, -1.27657068, 0.31209379, 0.44766921, -0.08494762, 0.33036569, -0.02881571, 0.25748983, 0.11921377, -0.05032210, 0.28531215, 0.39797243, -0.03757764, 0.55849940, 0.78795934, 0.18735732, -2.36917758, 0.56109208, 0.18761182, 0.19980787, -0.73409063, -0.91146803, 0.31542644, 0.19805317, -0.23031282, -0.61121124, -0.33293891, 0.41100159, 0.56094670, 0.23652390, 0.13440149, 0.40564793, 0.14520112, 0.12531641, -2.24178720, 0.11067478, -0.05849942, -0.00678137, -0.27547166, -0.17670262, -0.34702078, 0.07056662, -0.38190109, -0.07526469, -0.61839861, -0.38364273, -0.10109928, -0.52244985, 0.37685671, 0.22190778, -0.04815293, -0.24406736, 0.33323622, -0.10199784, -0.09729836, -0.74002522, -1.74037409, -0.10192467, 0.40782651, 0.33831099, 0.21873221, -0.15363559, -1.66919339, 0.29570714, -1.12292361, 0.60760254, -1.23146486, -0.93762493, 0.45179218, 0.01222178, 0.49057934, -0.00204206, 0.11637401, 0.14910899, -0.08279513, 0.07650224, -0.32168132, 0.08855981, 0.42310825, 0.45836958, -0.12597597, 0.17867020, -0.02431331, -0.01253596, -0.13279426, -0.08276144, -0.17208692, -0.10805198, 0.10011680, -0.04424604, -0.00717026, -0.06275323, -0.04968404, -0.06667226, -0.12356826, -0.14433955, -0.33242181, 0.19429085, -0.00522961, -0.23063308, -0.63848627, -0.11036275, -0.22389270, 0.14511739, -0.25790465, -0.23762907, 0.00112115, 0.12643398, -0.04506590, 0.01628904, -0.12067773, -0.09250724, -0.09796742, -0.18963389, 0.10916538, -0.45631951, -0.04275236, 0.04548591, -0.05045005, -0.01274401, -0.27359802, -0.01514302, -0.24603073, -0.29319575, -0.70044351, -0.18115354, 0.00133063, -0.19499363, -0.24710773, -0.39416686, -0.19834957, -0.06069994, -0.05402178, 0.03173402, -0.00028038, 0.04001326, 0.04137216, -0.11252532, -0.05236015, -0.25137386, -0.11585736, 0.13175303, -0.23731214, -0.00864619, -1.03022075, -0.32192019, -0.02749831, 0.00187611, -0.05724084, -0.24923669, 0.12910785, -0.05879040, -0.20347437, -0.18391979, 0.11764872, 0.07733058, 0.12231450, 0.04194297, 0.03916989, -0.02250289, -0.09436163, 0.13688706, -0.05586910, -0.16359824, -0.05816363, 0.06602750, -0.06613355, 0.13271984, 0.22875001, 0.29259026, -0.22006312, -0.03539131, 0.09029597, -0.18415454, 0.02329250, -0.09188624, 0.03439316, -0.07549759, -0.08466114, 0.05811824, -0.02501471, -0.09515490, -0.09556395, -0.14333317, -0.10337818, -0.06511874, 0.01934460, 0.00328516, 0.04285799, -0.10321725, -0.78004402, -0.06554352, -0.45624003, 0.03564366, -0.07294068, -0.07075203, 0.12646094, -0.17178056, -0.04727627, 0.06948826, 0.18716224, -0.05197283, 0.04182546, -0.24970557, -0.07445176, -0.12009320, -0.21661815, 0.08414421, -0.11488428, -0.14477664, -0.01762114, -0.11579034, -0.07396699, 0.00595295, -0.01724588, 0.04143144, 0.17757696, -0.16297713, 0.06963306, -0.05022820, 0.00088990, -0.12609592, -0.03002665, -0.25793064, -0.18070617, -0.17861073, -0.33405146, -0.24324551, 0.03212240, -0.03999287, -0.17294243, -0.34681588, -0.28325650, -0.20078106, -0.13562888, -0.06515537, -0.03296001, -0.57864183, 0.00443729, -0.27080545, -0.04890001, -0.18758790, 0.43928111, -0.48671114, -0.01566230, 0.01525566, -0.14499189, -0.16564670, -0.02007691, 0.05287480, 0.04593798, -0.23572774, -0.48409769, -0.15341234, -0.19944617, -0.14015053, 0.09806600, -0.11093604, -0.06195373, -0.16438331, -0.04403716, 0.17081967, -0.28161463, -0.34894925, 0.27215502, -0.08457698, -0.00432271, -0.10669694, -0.14506735, -0.12993628, -0.00056353, 0.13006304, -1.44832730, -0.16242237, -0.07861388, -0.22244950, -0.29618385, -0.18656319, -0.10377167, -0.07224014, -0.03657195, -0.03543238, -0.16411085, -0.22119492, -0.22544621, -0.11657519, 0.04489523, 0.07540081, 0.02535070, -0.29115051, -0.18626948, 0.00183122, 0.12750864, -0.08013330, 0.36607489, 0.10355344, 0.33812281, -0.14187220, -0.23198564, -0.09062997, -0.29133448, -0.18002474, -0.27515939, -0.49268129, 0.08998350, -0.02594374, -0.05681691, -0.10537337, 0.03410074, -0.10932985, 0.46889797, -0.11583588, -0.23105495, -0.12457076, -0.14012441, 0.02955791, 0.16161169, -0.03909110, -0.10608603, -0.20279384, -0.08463505, -0.06196325, -0.09174167, -0.07002093, 0.14000665, 0.09146102, 0.15710214, 0.44670194, -0.09156912, 0.01997550, 0.03541739, -0.24285087, -0.11030680, 0.04556525, -0.22000532, -0.16497949, -0.16429950, -0.14135183, -0.00841482, -0.08161711, -0.10533736, 0.02858241, -0.26527715, -0.10000817, 0.04834023, -0.07767841, 0.08016226, -0.15699646, -0.24632764, -0.18281870, 0.17267139, -0.08158570, -0.23952541, -0.13142286, -0.25348371, -0.30656812, -0.24408473, -0.16724668, -0.09517431, -0.13799530, -0.13164777, -0.32294178, -0.11927146, 0.08196622, -0.31629944, -0.98071867, 0.02071596, -0.27728251, 0.07291646, -0.31623247, 0.26013169, -0.35973290, -0.08659823, 0.06028157, -0.33348212, -0.25819701, -0.13117389, -0.07845155, -0.31360742, -0.17640321, -0.77594489, -0.47708291, -0.06714399, -0.30278495, -0.24563380, -0.22631715, -0.29800987, -0.29522258, 0.08827337, 0.25868386, -0.38363025, -0.20138402, 0.28546384, -0.13631892, 0.04278174, -0.38568446, -0.47370943, -0.42683455, -0.22901627, 0.17587613, -0.83699137, -0.32496575, 0.10200331, -0.05745698, -0.37515688, -0.03449289, -0.21317916, -0.02640573, -0.26097342, -0.07478805, -0.67545027, -0.41182774, -0.13948168, -0.03976283, 0.05876696, 0.09581363, 0.19337423, -0.31093860, -0.24865398, 0.05005062, 0.11483060, 0.03683858, 0.15763046, -0.09762834, -0.11734944, 0.11615346, -0.45417833, 0.06991510, -0.50230861, -0.23193806, -0.36691862, -0.61862510, 0.07636918, 0.09658202, -0.01933904, -0.01396566, 0.05534296, -0.06822152, 0.19276480, -0.22920898, -0.32840750, -0.15845090, -0.00020772, 0.09902299, 0.21920951, 0.01231552, -0.16896217, -0.16400440, -0.01224880, -0.15003496, -0.25557363, -0.26608005, 0.17037286, -0.02016744, 0.13472669, 0.29834715, -0.05608534, 0.14541604, -0.00560278, -0.22211823, -0.30783230, 0.09786098, -0.25823301, -0.10948639, -0.14448023, -0.17551847, 0.00124929, 0.14062949, 0.14012748, 0.32128826, 0.11835292, -0.17259780, -0.03351972, 0.23493968, 0.30162492, -0.24473700, 0.23094985, -0.34600335, 0.22467366, -0.04671803, -0.43969318, 0.21284004, -0.78917009, -0.70192379, -0.99478149, -0.02063718, -0.47688138, -0.01024613, -0.73454267, 0.23476505, -0.20582175, -0.36901417, -0.07487896, -0.28902438, 0.64670128, -0.62068820, -0.09365767, 0.55355966, 0.60452855, -1.30100179, 0.39089382, -0.02305045, -0.28691730, 0.11467135, 0.44457859, -0.00665065, 0.12896279, -0.02532804, -2.24602032, -0.18683277, -0.10245970, 0.29815561, -0.17784163, -0.69397694, 0.26556006, 0.20945622, 0.27563938, 0.34129342, -0.05013928, -0.40977544, 0.55833948, 0.08339592, 0.07342099, 0.26846439, 0.10641082, -0.07249574, 0.21159938, 0.07389552, -2.63767672, 0.23263603, -0.04403186, -0.54846197, -0.42136395, -0.62080270, -0.06618381, 0.17854644, -0.04980768, -0.35154697, -1.28887689, -0.35216865, 0.14927669, -0.56920063, 0.15715861, 0.32461771, 0.59587198, -0.24237499, -1.23056507, 0.23312734, 0.51092124, 0.15819921, 0.39690116, -0.03684743, 0.02149155, -0.07861293, -0.17353341, -0.32674766, -1.08544409, -0.33427250, -0.73658472, -0.56464183, 0.03280335, 0.33285770, -0.01695987, -0.35031411, 0.00717141, 0.08174246, 1.12622702, -0.52779627, -0.96161193, -0.00738037, 0.01769146, 0.12676081, 0.09546667, -0.20170027, -1.04319155, 0.21012029, -0.84108931, 0.23260525, -0.53692937, -0.58106804, -0.11984934, 0.34994957, 0.14118974, 0.89077586, -0.22062914, 0.13652110, 0.20812081, 0.08311826, -0.15572378, 0.15230899, 0.20457268, -0.06963675, 0.05921581, 0.34719625, -0.01174357, -0.16603202, -0.30715418, -0.07960543, -0.03312050, 0.02505507, -0.33814973, 0.10960680, 0.01644970, -0.20669907, 0.03208176, -0.02821783, -0.05457647, 0.19147331, -0.24566326, -0.55905914, -0.08530157, 0.04051028, -0.01914042, 0.04404065, -0.20113422, -0.63651365, -0.10947856, -0.22584313, -0.09969124, -0.13853228, -0.09803200, -0.52662498, -0.14324357, 0.04889823, 0.00303379, 0.07690562, -0.17756373, -0.34403998, 0.04649204, -0.08895306, 0.00385217, -0.03518275, -0.19068289, 0.10341045, 0.10610555, -0.18275335, 0.00042929, 0.10182944, 0.04131632, 0.00409428, -0.06659006, 0.10420517, 0.05843168, -0.06944298, 0.02172378, -0.00967389, 0.05774091, 0.01337152, -0.01082014, 0.05461740, -0.13214201, -0.24259646, -0.28158119, -0.00333378, 0.07718060, 0.13600801, -0.68023390, -0.02691002, -0.09767868, -0.04044749, -0.50751573, 0.08072728, -0.18576081, -0.10987075, 0.02620210, -0.14705153, 0.01817244, 0.15108331, -0.38077900, -0.02053867, 0.04218337, -0.14424574, 0.02396258, -0.87029803, -0.07972689, 0.00265419, -0.06533916, 0.03606806, -0.17373946, -0.08106729, -0.18407419, -0.08323741, -0.17202476, 0.08271074, -0.27953818, -0.06728708, -0.39314726, -0.76379895, 0.05533972, 0.00898157, -0.12981634, -0.06173897, 0.21546938, 0.04801605, 0.01055849, -0.12708594, -0.04745271, 0.06417827, 0.21631682, 0.06697133, -0.03631726, -0.02477792, 0.00900320, -0.22285187, 0.07307102, 0.03547771, -0.27643287, -0.10531194, 0.04764676, -0.04154990, 0.13180244, -0.20252298, -0.64245188, -0.22152169, -0.23242138, 0.05254238, 0.08846726, -0.21897563, -0.17827539, -0.21639121, -0.04302483, 0.10129417, -0.04576191, 0.26496011, 0.30280194, -0.01664014, -0.05179435, -0.00471787, -0.07066096, 0.20724127, 0.11564471, -0.10167436, 0.39462280, -0.17002881, 0.15293479, -0.10444722, -0.17875300, 0.28309590, -0.25326520, -0.17215531, -0.84859359, -0.10614657, -0.21336479, 0.01085266, -0.17663571, 0.26483166, 0.02089095, 0.05743736, -0.15664986, -0.30750635, -0.07330965, -0.23110783, 0.04771966, -0.11002762, -0.09483025, -0.25056911, 0.01406675, 0.10905442, -0.23429589, -0.06548625, -0.15496953, 0.06918587, -0.10663392, 0.43494573, -0.11684227, -0.29704130, 0.01748928, 0.53785515, -0.21398409, -0.60652953, -0.17569214, 0.36958158, -0.00675513, 0.08048293, -0.17715584, -0.01612382, 0.02709474, 0.10650767, 0.11282887, 0.29956719, -0.23002873, -0.07712547, 0.62386554, -0.04841112, -0.12339453, 0.59912848, -0.09935717, -0.17875029, -0.25807965, -0.31867611, -0.32257557, 0.02285247, -0.25643873, -0.18554521, -0.35958165, -0.02861601, 0.45754394, 0.01102829, -0.02177092, 0.03301100, -0.02481030, -0.02424369, -0.23359253, 0.02398320, -0.04422402, -0.01735561, -0.06782944, -0.25052801, -0.22043449, -0.13088115, -0.29552683, -0.16490804, -0.16128001, -0.16890368, -0.03686963, -0.32477447, 0.04198480, 0.09912556, -0.04356077, -0.07457995, -0.11160053, 0.01959225, -0.02958988, -0.15656637, -0.17549440, -0.07617644, -0.09752425, 0.13824347, -0.09535319, -0.12396014, -0.91518956, 0.24889691, -0.53102368, 0.46677935, -0.27791953, -0.20916584, -0.05892118, -0.03551815, 0.08194844, -0.18864004, -0.16574581, 0.07023250, -0.04018429, -0.10103646, -0.10715020, 0.06135973, 0.31858429, -0.23808046, 0.02761428, -0.14207715, 0.03344214, -0.54601961, -0.69364387, 0.00078823, -0.00795992, -0.11368480, -0.01055436, -0.10772923, 0.06791058, -0.13509358, -0.12682249, -0.09779117, -0.05862679, 0.03165972, -0.20772760, -0.63673896, -0.12805508, -0.02019489, 0.07510789, -0.02193798, -0.39288327, -0.14245324, 0.07040418, -0.01023985, -0.06718427, -0.00070477, 0.02012309, -0.27145362, 0.01713784, -0.09489157, -0.01981660, -0.03289205, 0.12288088, -0.03385540, 0.12652928, 0.08830120, -0.10909757, 0.09699680, 0.16060817, 0.00694646, 0.09465341, -0.64826810, -0.29014704, -0.05304384, -0.01605754, -0.20463820, -0.00490922, -0.01314073, 0.16175112, 0.01533349, -0.02856290, 0.03334792, -0.02292038, -0.04437764, -0.07752778, -0.19286568, 0.11558211, 0.04586876, 0.02108910, 0.12781903, -0.21100019, 0.03487132, -0.13626011, -0.17951253, 0.24143206, 0.05904039, 0.03854188, -0.21761359, 0.11959326, 0.05388067, 0.06569638, 0.02676784, 0.01588517, 0.12530057, -0.54879159, 0.02702936, 0.05769026, 0.12077458, 0.02482781, -0.10683481, -0.04471145, -0.03922778, 0.03371138, -0.11385853, 0.05405104, 0.07945420, 0.03228830, -0.36231363, 0.06224648, -0.15027025, -0.09070504, 0.05344671, -0.17342189, -0.08642456, 0.09188611, -0.01415018, 0.02387586, -0.06056403, 0.04860152, -0.05273525, 0.26173681, 0.00721832, -0.07684939, -0.08249017, 0.05881142, 0.15428911, 0.11505929, -0.16710311, 0.36526746, 0.21226895, 0.17472722, -0.12247099, -0.09860207, -0.05368544, 0.05558342, 0.09183151, -0.00421573, 0.17245054, 0.01546361, 0.15234624, -0.08010334, 0.11099720, -0.03249768, 0.09811134, 0.15266962, 0.06791268, -0.06287336, 0.02437445, 0.20034862, -0.18295220, -0.05372094, 0.03349686, 0.01879476, -0.22992736, 0.54117626, -0.16479385, 0.32410413, -0.21412525, -0.30278262, -0.28264156, 0.18717998, 0.26164240, -0.17875634, -0.28328001, -0.07286310, -0.45024863, 0.18825950, -0.35167453, 0.08791456, -0.19908099, -0.18081161, -0.24582411, -0.35664880, 0.45592630, -0.25481507, -0.77415925, 0.06043961, -0.19173346, 0.21936578, -0.04365809, 0.57906806, -0.42146257, 0.08052918, 0.24616779, -0.35635254, -0.07629488, 0.08072285, -0.18965843, -0.34377950, -0.19677746, -1.56854010, -0.47874528, 0.08424681, -0.26040480, -0.38615787, -0.03117224, -0.01956048, -0.16461188, -0.13837858, 0.44681823, -0.41047075, -0.14025383, 0.66836405, 0.09064107, 0.23785169, -0.20435579, -0.19064823, -0.33662772, -0.15421569, 0.43036094, -1.45347333, -0.30222711, 0.30563936, 0.24612239, -0.38750446, 0.25326255, 0.04692795, 0.33209532, -0.34113404, -0.39093634, -0.78959590, -0.50156677, -0.35134450, 0.17764756, 0.21936750, 0.34256980, 0.41604525, -0.13889600, -0.18271112, 0.10435742, 0.33549500, -0.13095018, 0.42174116, -0.19414900, 0.04481727, 0.12096100, -0.45683703, 0.29423103, -0.18725175, -0.27465683, -0.33742058, -0.56464887, 0.31014776, 0.04868151, 0.24031699, 0.12634958, 0.41094497, -0.26503530, 0.65310150, -0.39462322, -0.29272118, -0.23912221, 0.29038063, 0.36419368, 0.63644969, 0.08919082, 0.12157362, -0.11915635, 0.27733332, -0.18685688, -0.32245988, -0.37593526, 0.59461594, 0.13499933, 0.55226785, 0.82218266, 0.23255208, 0.31462699, 0.09060978, -0.04576168, -0.20752598, 0.14056657, -0.10510246, 0.03617907, -0.25698438, 0.09435435, 0.02543409, -0.08776155, -0.17085646, 0.08400591, -0.17064555, -0.05329363, 0.06880412, 0.01668309, 0.05149052, -0.08476695, -0.27555418, -0.23829415, 0.14174572, -0.10081071, -0.11927969, -0.21775869, -0.26168495, -0.28868994, -0.28216758, -0.21083219, -0.20630027, -0.34424600, -0.22988492, -0.14226687, -0.17638527, 0.08004712, -0.29073006, -1.06384444, -0.11835352, -0.16776611, 0.06754449, -0.32637355, 0.08962842, -0.23289160, -0.09015825, 0.14376175, -0.20626274, -0.05649522, -0.19540003, -0.13685663, -0.22333136, -0.20168470, -0.68266428, -0.47113493, -0.04651721, -0.25519586, -0.12938038, -0.14759152, -0.17668597, -0.31968769, -0.04457540, 0.10946076, -0.49382800, -0.06438722, 0.22574860, -0.14489844, 0.05446024, -0.28170130, -0.44719532, -0.43948066, -0.22026403, 0.07062471, -0.68951589, -0.32746878, 0.00750703, -0.06714474, -0.24802089, -0.14007197, -0.22417934, -0.01208911, -0.23756941, -0.12130808, -0.78756392, -0.38794670, -0.13097849, -0.01129154, 0.07989284, 0.19561777, 0.18319604, -0.36608079, -0.33340934, 0.07326943, 0.06471069, 0.01982376, 0.01234492, -0.42222324, -0.09955969, 0.17797196, -0.59857625, 0.06315009, -0.47728077, -0.32202452, -0.56384271, -0.71281409, 0.18082677, -0.05086657, -0.08209752, -0.00520974, 0.01556767, -0.01835534, 0.19258657, -0.23762295, -0.38952300, -0.24755912, -0.05076521, 0.17754045, 0.12074705, -0.13788947, -0.13426669, -0.06662556, -0.20055984, -0.23137935, -0.12755369, -0.30918792, 0.16776960, 0.08830900, 0.19781286, 0.19331641, -0.15480597, 0.15765658, 0.04168324, -0.29529250, -0.26805216, 0.19529605, -0.18610923, -0.22944321, 0.00512583, -0.13873395, 0.06937875, 0.00712898, -0.10195148, -0.05346390, -0.01926729, -0.00169803, -0.03609604, -0.18192433, 0.05723877, -0.00932929, -0.13771904, -0.04680833, -0.10023449, -0.04382535, -0.03138935, -0.06307931, 0.03189313, -0.20372105, -0.05181155, 0.00328118, -0.02820961, -0.00705296, -0.31021419, -0.10211154, 0.00827473, -0.06655857, -0.01626937, -0.19277860, -0.16899537, -0.00164905, -0.06499830, -0.04188622, -0.12643452, -0.24187596, -0.09835663, 0.07948376, -0.11361837, 0.32382029, -0.11974179, -0.05055154, -0.16430536, -0.37238288, -0.58392060, -0.18941490, 0.08207773, -0.15373608, -0.12127946, -0.01556778, -0.16319230, -0.09799837, -0.03377680, -0.01133987, -0.08660600, -0.05618057, 0.02701942, 0.00440258, -0.01364496, -0.01636740, -0.11345575, -0.12113080, -0.32539612, 0.03046989, -0.55244571, -0.12544970, 0.05615203, 0.01631423, 0.05878931, -0.41740596, 0.02311912, -0.03789415, -0.03414311, -0.09486467, -0.15902163, 0.01912771, -0.10204113, -0.04996070, -0.08274095, 0.03784840, -0.02272173, 0.01082027, -0.03414077, 0.03999018, -0.02453217, 0.00799740, 0.00085842, -0.19535165, -0.22616704, 0.02735527, -0.48956621, -0.11271721, -0.31441391, -0.13478860, -0.42388967, -0.02785012, 0.07803585, 0.03796221, 0.04611148, -0.00857301, -0.04804598, -0.06711660, -0.16843945, -0.10105168, -0.04158320, 0.00659970, -0.04183026, -0.03935030, -0.05669105, -0.02731364, -0.02368134, 0.02811828, -0.13761424, -0.13903230, -0.05607050, -0.09942130, -0.05518865, -0.04465959, -0.06314731, -0.15116514, -0.00705107, -0.00138461, -0.05394402, -0.11306576, -0.04293360, 0.06870568, 0.05539160, -0.09240974, 0.00721520, -0.14816305, 0.00937822, 0.02685349, -0.07629362, -0.02232156, -0.14450465, -0.03479934, -0.11010306, 0.03993380, -0.06618220, -0.07219804, -0.11256296, -0.04819887, 0.05813600, 0.15068875, -0.19996932, -0.01102325, 0.02421714, 0.15133028, -0.39992094, 0.00375948, -0.16339187, -0.03192133, -0.08346400, -0.03939482, 0.03832784, -0.15345332, -0.08738883, 0.04069819, -0.00076205, 0.01356571, 0.04881312, 0.10455474, -0.13281292, -0.23183878, 0.00105620, -0.09019808, -0.06963140, -0.09787790, -0.12921351, 0.03229327, -0.03311046, 0.26616719, -0.03207740, -0.03045143, -0.08947916, 0.00031275, -0.00716281, -0.28064683, -0.00488575, -0.14744183, 0.02745567, 0.07342684, -0.09748840, 0.02112177, 0.02062756, -0.12169994, 0.02449167, 0.06834135, 0.05155981, 0.10866884, 0.15716633, 0.00480815, -0.50074250, 0.12382538, -0.08161773, 0.03699618, 0.06400251, -0.10676311, -0.30267078, 0.00386040, -0.14654432, -0.09179857, 0.32232842, 0.17919338, 0.10637662, 0.06460349, 0.11255027, -0.03809386, -0.00814612, -0.14601143, -0.16146724, 0.07782711, -0.08914427, -0.09006413, -0.09183487, 0.15655489, -0.03772612, -0.21074039, -0.17822321, 0.01565800, -0.25101551, -0.08024498, -0.18021357, 0.06856821, 0.00758494, -0.09569570, -0.01977650, 0.01817360, -0.08447275, -0.05583298, -0.24506049, -0.00711259, -0.09964129, -0.05489329, 0.08990419, -0.03627228, -0.07860199, -0.08126035, -0.36371875, 0.07353656, -0.34354788, -0.08006001, -0.05728385, 0.02179868, -0.09044755, -0.05755667, -0.01202152, -0.15261625, -0.13016595, -0.15681089, 0.01479019, 0.10123456, -0.20300807, -0.10127134, -0.06564774, -0.23078862, 0.12729463, 0.12862819, -0.08976435, 0.05391624, -0.02009824, -0.14177549, -0.38699773, -0.24544053, 0.59882790, -0.28726307, 0.24761564, -0.17571634, 0.06340205, -0.25909379, 0.10232708, -0.23226205, -0.33200499, -0.06228700, -0.04140390, -0.56565034, -0.44168526, -0.56360209, -0.04425798, -0.06938556, -0.73995775, 0.11776178, -0.20795247, 0.49431100, -0.60443139, -1.23238754, -0.53826672, -0.07082117, 0.18857478, -0.80321962, 0.36662388, -0.64218575, -0.42013398, 0.27457356, -0.22096218, -0.01836892, -0.58605760, -0.11013476, -0.75811589, 0.00942370, -2.17251754, -1.05130994, 0.07119340, 0.03871941, -0.74726129, -0.33137926, -0.60123819, 0.05404656, -0.25484499, 0.36064994, -0.33421475, -0.06749376, 0.50058186, 0.01880856, 0.16549702, 0.04514926, -0.81618345, -0.02645167, 0.18675555, 0.44101784, -2.00905967, 0.05343241, 0.15801406, 0.13005631, -0.08478649, -0.41075829, -0.00573051, -0.00509968, -0.64849305, -0.54166299, -0.63227439, -0.20477448, -0.03132663, 0.19600746, 0.25338769, 0.34496540, 0.01747094, -0.25359806, -0.07753367, 0.05709616, 0.15199038, -0.04944650, 0.14703764, -0.13157097, -0.15614150, 0.04019472, -1.58025897, 0.33312014, -0.56055897, -0.44222346, -0.71408165, -0.55247867, 0.41411227, -0.15849516, 0.07690288, 0.18604778, 0.26157850, -0.21989106, -0.29527768, -0.32630995, -0.24877740, -0.20151196, -0.04080490, 0.32282928, 0.53755754, -0.06278227, -0.47686049, 0.03433336, -0.46909100, 0.19146858, -0.28377953, -0.55822670, 0.69098467, -0.12180337, 0.42731759, 0.47889572, 0.28857315, 0.11791216, 0.24095912, -0.48924369, -0.21073930, 0.21830718, 0.08629269, 0.02300696, -0.16698097, -0.41504055, 0.03159457, 0.03983137, 0.10297770, -0.05584563, -0.18570639, -0.09901562, 0.07648536, 0.06161999, 0.00190807, -0.03749850, 0.23007591, -0.17406470, 0.07521458, -0.00157785, -0.14890413, 0.26584956, 0.03114288, -0.09072302, -0.60081673, -0.18621396, -0.37621742, -0.14731222, -0.03157276, 0.30369738, 0.01977370, 0.00348691, -0.22519614, -0.45664772, -0.11958802, -0.01584321, 0.16456988, -0.26217803, -0.25325802, -0.06009307, -0.09937736, 0.14036573, -0.20699036, -0.00017472, -0.27103901, 0.05704094, -0.24155584, 0.48415434, -0.24561493, -0.35767573, 0.04381375, 0.45867187, -0.28541869, -0.33377075, -0.25265947, 0.38946337, -0.02522862, 0.06427826, -0.23879720, 0.08129273, -0.06010401, 0.03516156, 0.17092183, 0.40155610, -0.34387451, -0.23027381, 0.34267122, 0.05053852, -0.21943030, 0.37458423, 0.04225221, 0.01559113, -0.29177490, -0.51152015, -0.33472741, -0.05193647, -0.24648835, -0.22739226, -0.43947080, -0.07399835, 0.27008593, 0.15890773, 0.13720568, 0.02359916, -0.13097243, -0.35732502, -0.08097649, 0.06328335, -0.03548603, 0.09855250, -0.12913273, -0.31429452, -0.32591590, -0.10510875, -0.35295895, 0.03034582, -0.09703055, -0.14637619, -0.06802427, -0.36509535, 0.10354208, 0.06874323, -0.02285822, 0.01396522, -0.11937196, 0.14790343, -0.29472238, -0.09477396, -0.12735961, -0.07781508, 0.02591826, 0.07700478, 0.00808407, -0.08471196, -0.96600670, 0.16224995, -0.61134779, 0.19254403, -0.25101092, -0.10555740, 0.06727912, 0.00373312, 0.01285821, -0.26051840, -0.19548461, 0.07300806, -0.00742790, -0.20056097, -0.24095310, 0.12406698, 0.32556784, -0.34334996, 0.02165719, -0.16285032, 0.15166108, -0.01330367, 0.00839925, -0.01543863, 0.11143054, -0.06575225, -0.36839965, -0.06553263, 0.10325570, -0.11252956, 0.13905205, -0.12053525, 0.06739756, 0.28717738, -0.28210571, -0.04450806, -0.01241503, -0.32443601, -0.19981289, -0.14241385, -0.04139983, -0.21515614, -0.19506873, -0.17362627, -0.24463156, -0.39775294, -0.16204153, -0.27843332, 0.21231814, -0.08326402, 0.14865591, 0.38246453, -0.44124901, -0.34776974, 0.25446057, 0.00101406, -0.19849561, -0.17580567, 0.22535273, -0.10321244, -0.12452625, 0.22548622, -1.19017053, -0.18994261, 0.13625108, -0.08920883, -0.36452475, -0.20218053, 0.22550002, 0.03275075, -0.11009082, 0.11395787, -0.27047178, 0.08322574, -0.10990344, -0.11185244, 0.14965491, -0.12274516, -0.08867409, -0.15818146, 0.07781500, 0.04276401, -1.46230793, -0.02966680, 0.16159855, 0.14272770, -0.43209884, -0.21699770, -0.16963042, 0.24049146, -0.18603119, -0.37785047, -0.57459980, -0.19347320, 0.09556060, 0.10187028, 0.08532710, 0.11578380, 0.17173381, -0.79038489, -0.68910158, 0.05116775, -0.03620220, 0.04383612, -0.48865554, -0.92175251, -0.76539129, -0.00472509, -0.22508803, -0.11639309, -0.86365825, -0.26835719, -0.57803386, -0.34297958, 0.18848322, 0.16317296, 0.06979296, -0.16680329, 0.00549759, 0.01043493, -0.11102409, -0.32186818, -0.59605432, -0.16735317, 0.32060534, 0.13135980, -0.03547276, -0.14683627, -0.38788527, -0.25382659, -0.14297985, 0.11334350, -0.23127763, -0.40821022, -0.02744018, 0.04942821, 0.02690800, -0.22432268, -1.01362324, 0.13216011, -0.32659695, 0.28944173, -0.16028814, 0.09543841, -0.18867889, -0.07939482, -0.08289116, 0.35776418, 0.09163370, -0.00302954, 0.07893540, 0.00486700, -0.04840323, -0.12449662, -0.04526652, 0.20056301, 0.24102686, -0.67130136, 0.42423353, -0.07628863, 0.14265215, -0.16972698, -0.96558213, 0.40408915, -0.34486389, -0.50082916, -1.54985952, -0.37736180, -0.78952652, -0.20567752, -0.16249104, 0.34151438, -0.33144915, -0.10531706, -0.29769561, -0.87002617, 0.27802554, -0.13002050, -0.05283146, 0.10657962, 0.33991119, -0.66881275, -0.04916336, 0.15469448, -0.12896566, 0.16781700, 0.46547422, -0.27930328, -0.58024490, 0.92712569, -2.14299369, -0.47812450, -0.15848602, 0.62805283, -1.58995032, -0.86848265, -0.09992018, 0.53614753, -0.46038750, 0.24596335, -0.01625114, -0.22447297, 0.30648330, 0.05501300, 0.06829374, 0.38619378, -0.19029839, 0.12829967, 0.72279507, 0.17854317, -1.41963661, 0.62737960, 0.00037400, -0.17327774, -1.35452628, -0.68798846, 0.16843322, 0.16504736, -0.77882344, -1.34223950, -0.56151092, 0.08511397, 0.42424992, -0.09979968, -0.11837843, 0.30402654, 0.24366544, -0.39398855, -0.20159611, -0.18556425, 0.23515725, 0.15608761, -0.10241654, 0.06354623, -0.28300610, 0.03436898, -0.28239393, -0.09188500, -0.20189440, -0.29945046, -0.27052292, -1.10224712, 0.16223446, 0.00303328, 0.10252693, 0.01498529, -0.18234164, 0.05787449, 0.13136113, -0.37143874, -0.31863305, 0.04673523, 0.00903719, 0.28784752, 0.09823585, 0.00023422, -1.67747307, 0.28668150, -1.15767682, 0.63262242, -0.59949750, -0.88537663, 0.17008941, -0.14381050, -0.01707400, 0.22383210, -0.24275362, 0.14218096, 0.25860447, 0.04880203, -0.06754117, 0.25566036, 0.32284197, 0.14210321, -1.17824674, 0.17661250, -0.11913195, -0.03166772, -0.14226773, -0.00157081, -0.18009797, -0.13742891, 0.03310249, -0.11355396, 0.09621394, 0.00126386, -0.15110041, -0.30364051, -0.06955224, -0.10371460, -0.01592069, -0.06507847, 0.05099621, -0.29388463, -0.06200934, -0.17043015, 0.03381080, 0.04014162, -0.23611635, -0.36474171, -0.05778084, -0.01559086, -0.17032024, -0.18329339, -0.19935203, -0.06690554, 0.00430843, -0.18100859, -0.01538866, -0.20106769, -0.19466186, 0.01948548, -0.26912755, -0.05065264, -0.11769171, -0.00722752, -0.27746251, -0.20984243, -0.48999774, -0.35394350, 0.03746377, -0.30224642, -0.07783188, -0.21477431, -0.22667968, -0.38483581, 0.01880264, 0.08779810, -0.27873674, 0.02608625, 0.04258184, -0.20561123, -0.03647032, -0.32433784, -0.20201503, -0.48369488, -0.29542100, 0.03624712, -0.61397558, -0.24653997, -0.03145964, -0.01681467, 0.03745361, -0.22893110, -0.32910299, -0.00692516, -0.14784525, -0.12966640, -0.40101823, -0.39839521, -0.10450713, -0.01844628, 0.03010781, 0.05587139, 0.03392461, 0.01618206, -0.24167226, -0.04639352, -0.02400957, 0.03291050, -0.00491903, -0.28574258, -0.17712070, 0.12551802, -0.47517750, -0.08046900, -0.21488671, -0.09469985, -0.24565721, -0.05418522, 0.07156313, 0.03715084, 0.03475282, -0.11744592, -0.04570772, -0.05326047, -0.12624389, -0.13341515, -0.18346311, -0.19222777, -0.01602665, 0.08876822, 0.01145517, -0.25996903, -0.06299470, -0.19268718, -0.05528441, -0.26456547, -0.03549708, -0.17528495, 0.04133825, -0.05677647, 0.02581085, -0.00066195, 0.03021061, -0.08995352, -0.18382315, -0.13919848, -0.20810160, 0.04745344, -0.29672414, -0.30608362, -0.07325176, -0.22236148, 0.18139119, 0.17294468, 0.39282152, 0.00501856, -0.34854117, -0.18739550, -0.03607040, 0.22414215, 0.32764879, -0.14908066, 0.18789154, -0.31035084, 0.20604037, -0.01999797, -0.24244304, 0.24598841, -0.02927159, -0.14964733, -0.83388418, -0.69369894, 0.06103988, 0.24128062, -0.24060673, 0.33302113, -0.21458669, 0.03015247, -1.11649442, -0.18647584, 0.14670199, -0.07344878, 0.06570231, 0.12099954, 0.04569164, -0.42460394, -0.17212580, 0.19052032, -0.51451403, 0.28090069, 0.04010294, -0.36107403, -1.04450631, 0.56940198, -1.11386490, -1.48469424, 0.00070011, 0.27377278, -0.63084859, -0.48665562, -0.22182311, 0.27746308, -0.12292821, 0.46603203, -0.66789097, -0.12865439, 0.09137173, -0.14389528, 0.22200623, 0.31929055, -0.13810439, -0.41531733, 0.41022375, 0.18452957, -1.38630879, 0.26575243, 0.01807291, -0.03656644, -0.11666483, -0.96791095, -0.68649244, 0.21729860, -1.09841037, -0.38243765, -0.51830846, -0.28299797, 0.51946777, 0.13633792, -0.01352167, 0.16468406, 0.19328803, -0.01717621, -0.55290550, -0.08896898, 0.17258082, -0.23836902, -0.18143931, -0.28536174, -0.25015014, -0.12492523, -0.63094699, 0.11741698, -0.52065146, -0.62875891, -0.24777402, -0.16291681, 0.32637087, 0.03147765, 0.09853940, 0.03645902, 0.02152180, -0.11415597, 0.06809193, -0.29944283, -0.50116920, -0.39403009, 0.14038156, 0.41003418, 0.05759967, -0.05037267, -1.09320903, 0.20124556, -0.77105576, 0.30539075, -0.35981750, -0.42389128, 0.13518785, -0.03060651, 0.09150899, 0.02795004, -0.09558019, 0.15690911, -0.00304151, -0.02856758, -0.50205493, 0.15866469, 0.38675424, -0.40866414, -0.12628333, 0.15728481, -0.06964204, 0.04824744, 0.02205012, 0.02288357, -0.04448101, 0.06062571, -0.16389251, -0.21854973, -0.11429116, 0.04026949, -0.04862052, 0.01281376, 0.03698735, -0.07428864, -0.02629039, 0.09513865, -0.07429932, -0.29877895, -0.29768300, 0.05347301, -0.21177045, 0.02070467, -0.32886925, 0.12053967, 0.04424044, -0.16621728, -0.09948855, -0.40679091, 0.04146396, -0.30434856, -0.01901295, -0.19603808, -0.07512430, -0.24733950, -0.00229732, 0.03271356, -0.11101732, -0.12447829, -0.03978766, 0.04150989, -0.00955890, -0.11098766, -0.29200488, -0.16580021, -0.12397026, 0.15528689, 0.06353933, -0.02461806, -0.07386777, 0.05174306, 0.05708115, 0.02166236, -0.27552387, -0.23700278, -0.04871867, 0.00296198, -0.10986774, 0.28249571, -0.12370262, -0.15901491, 0.13702168, -0.14459935, -0.54338682, 0.22771491, -0.11030960, -0.25112379, -0.09653696, -0.46200356, -0.17231396, -0.07236032, -0.01010194, -0.05701220, -0.44247016, -0.23386937, 0.10978106, -0.04658823, -0.09783410, -0.00493088, -0.09139043, -0.28712547, -0.15318498, -0.01978438, 0.00167077, 0.09414976, 0.04544378, -0.30663192, -0.20600572, -0.02193320, -0.33419117, -0.05599358, -0.33982560, -0.01531958, -0.35048088, -0.31733915, -0.06060259, -0.02050380, -0.08224028, -0.07717963, -0.06976300, -0.01257427, -0.03957554, 0.07338939, -0.15241089, -0.08604810, -0.06702311, -0.10199417, -0.02555146, -0.06832582, -0.41202405, 0.17226191, -0.57494467, 0.09086013, -0.02007177, -0.03804644, -0.15706173, -0.00599364, 0.01171723, -0.07476681, -0.13116577, -0.11248305, -0.11599573, -0.20673943, -0.11206396, -0.06570884, 0.11628894, -0.09109096, 0.04397336, -0.01013629, 0.05666692, -0.04460388, -0.07178552, -0.01736948, -0.25016379, 0.02572759, -0.01425990, -0.15189019, 0.09655298, -0.02782086, -0.28126892, -0.04780967, 0.02227391, -0.07224096, 0.01426474, -0.10343100, 0.02814734, -0.32422632, 0.08823480, -0.08971910, 0.06062172, -0.02301461, -0.35086644, -0.31484666, -0.07865037, -0.10678169, -0.14510772, -0.29238802, -0.14183296, -0.15309638, 0.01925893, -0.21918698, -0.20482247, -0.24242146, -0.04408598, -0.02752992, -0.20988290, -0.04437146, -0.24617837, -0.05190451, -0.29871196, -0.17064135, -0.69101030, -0.41066769, -0.04209317, -0.33732533, -0.12047038, -0.11260247, -0.25651479, -0.35930684, -0.07047580, -0.07311573, -0.22517678, 0.05406415, -0.06181709, -0.09965453, 0.10904679, -0.36894929, -0.23030446, -0.34132111, -0.21776016, 0.08829542, -0.56948227, -0.28382060, 0.02738417, 0.08230880, 0.11212558, -0.09343517, -0.33188501, -0.01221683, -0.18032485, -0.05115754, -0.39916661, -0.29164496, -0.07304927, 0.20190902, -0.06087519, -0.01374592, -0.07898080, -0.16752562, -0.14659747, -0.07471029, -0.16236249, -0.07716338, -0.18303326, -0.44634157, -0.32738647, -0.01502203, -0.64431363, -0.08313140, -0.42046469, -0.09329230, -0.56424356, -0.17170298, 0.10394699, 0.00553959, 0.00920967, 0.03295701, -0.05410369, -0.07094553, -0.42501336, -0.09686700, -0.14562508, -0.05107011, 0.00057030, 0.09105220, 0.00158302, -0.19735467, 0.28100100, -0.35671484, 0.25252739, -0.35676989, 0.02983585, -0.08191197, -0.08576226, 0.00704451, -0.04134510, -0.29526669, -0.08701622, -0.04565464, -0.10343941, -0.15968667, -0.28241283, 0.07439024, -0.31374827, -0.25239465, 0.08551507, -0.08421268, 0.16561012, 0.07602765, 0.05037751, -0.11484236, -0.19169222, -0.24138446, 0.20379518, -0.42372668, 0.13136609, -0.17788319, 0.08789755, -0.12790875, 0.10509086, 0.33922029, -0.40208581, -0.06298652, 0.21621050, -0.59607553, -0.78556788, -0.52287477, -0.39359918, -0.15316407, -0.57734936, 0.21209992, -0.30183193, 0.42758298, -0.29784107, 0.11621208, -0.52296913, 0.16801523, 0.35743499, -0.36107075, -0.37872684, -0.54654145, -0.09393556, 0.35356635, -0.30775300, 0.12136266, -0.41235593, -0.23480724, -0.66149789, -0.27310744, -2.34764457, -0.54787898, 0.35615915, 0.16825931, -1.03796256, -0.57086170, -0.31975019, 0.20776670, -0.26679918, 0.11563224, 0.13134141, 0.29430363, -0.11405615, 0.13325641, 0.26496330, 0.24670540, -0.32875165, 0.26299292, 0.03461374, 0.21238744, -1.81060517, 0.08540455, 0.13381660, 0.53622991, -0.23353091, -0.49355972, 0.02852254, 0.23259361, -0.61678743, -0.78583086, -0.16467890, 0.24786063, -0.16399693, 0.51449800, 0.13352895, 0.21505332, -0.33341414, 0.05131703, 0.07504997, -0.15835328, -0.26854569, -0.04809011, -0.61190224, -0.53622842, -0.90367937, -0.01405615, -1.44501722, 0.35904154, -0.42729467, -0.47751328, -0.56875581, 0.13590933, 0.30024269, 0.10218027, 0.24504936, 0.21621057, 0.01112877, 0.03645013, -1.35117245, -0.38562560, -0.05105114, -0.05501936, 0.39297780, 0.30351487, 0.10649624, 0.08672769, -0.81140417, 0.26565242, -0.75139856, 0.19555189, -0.38495362, -0.55384880, 0.48038021, -0.15871122, 0.20078598, -0.47521925, 0.10204212, 0.16023692, 0.00492350, -0.05235602, -0.09056535, 0.23433577, 0.18279514, 0.04530165, -0.25559190, 0.02873914, -0.18707079, -0.01818583, -0.21629755, 0.02301785, 0.02746965, -0.05370228, -0.10180291, 0.09663523, -0.01157984, -0.08585683, 0.14383103, -0.06924929, 0.01335733, -0.19474953, -0.24380171, 0.02698304, -0.27873349, -0.00846923, -0.20382038, 0.08186168, -0.14496243, -0.07637445, -0.06637118, 0.12033632, 0.02991935, -0.29073507, 0.10677680, 0.11094029, 0.22030759, -0.17980790, -0.08455469, -0.01747790, -0.00864749, -0.20805241, 0.07469274, -0.12434104, 0.03229724, 0.00280995, 0.12101965, 0.09426727, 0.05251727, 0.19444858, -0.20761499, 0.03634742, -0.12004811, 0.25561243, -0.05543857, -0.03564848, 0.06351425, 0.08455999, 0.07570332, 0.03540078, 0.04748203, -0.18555316, -0.08716046, 0.16906281, -0.01814227, 0.19284831, -0.02516400, -0.01076942, 0.19125155, -0.22645159, -0.26388049, 0.21167570, 0.00475938, -0.22759984, 0.08363361, -0.08763393, -0.09277891, -0.12494448, 0.15821046, 0.14775836, 0.08520718, 0.01733176, 0.08461697, -0.23935975, -0.21608333, 0.02756432, -0.06014423, 0.12315786, -0.12053388, 0.06076711, 0.17268170, 0.14912474, 0.23295809, 0.12461985, 0.07411180, 0.02811657, 0.31648815, -0.41716787, 