// Auto-generated field NN weights
// Architecture: [32, 32, 32], activation=relu
// Parameters: 2339, FLOPs: 4576
// MAE: 10569.81 Gauss, p99: 66463.5 Gauss

#pragma once

static const float net_0_weight[96] = {
  -3.26714492, 0.42358083, -1.10581982, -1.84094262, -0.32645988, -0.60878730, -2.06232619, 0.03863995, -1.00508738, 1.74638116, -0.46273512, 0.23868114, 1.43416309, 0.47811425, 1.02330542, 0.08180621, -0.01018214, 0.07944602, -1.30073059, 0.48113346, 1.53072274, 2.33513641, 0.53073889, 0.53661442, 1.94945025, -0.65809560, 0.09232137, 0.02582286, -0.00022419, 1.01557446, 3.56785846, 0.04361068, 0.09736796, 1.78535259, -0.04676044, -0.58787328, 0.01359799, -0.11714751, -0.89074808, 0.11631969, 0.00037721, 1.27017713, 3.01709795, 0.00471910, -0.62717378, 2.44280696, 0.11905495, -0.30051348, 0.08227798, -0.47845846, 0.77093303, -0.01060694, -0.40172610, 1.13704216, 3.24947524, -0.00024324, -0.73411566, 3.03066468, -0.20631360, 0.06965902, -0.00175899, 0.39653498, 0.93450314, -0.86251301, -0.31955138, 0.61216253, -2.15762854, -0.26133984, -0.88369775, 1.03013504, 0.71340775, 1.01429999, 0.83539611, 0.47048464, -0.41440979, 2.53419328, 0.23496464, 0.36010513, 1.85198295, 0.08036897, -0.95492154, -0.00865598, 0.20435135, 0.03302627, -1.10377514, 0.03917638, 0.87290466, 1.20599735, -0.43909925, 0.68815476, -0.97001272, -0.55270392, 0.15598084, 0.25542322, 0.42173678, -0.56417763
};

static const float net_0_bias[32] = {
  0.40497616, 0.51456827, 0.28555831, -0.47190589, 0.11895173, 0.00742115, 0.19502904, -0.55837846, -0.62520391, 0.44578364, 0.11839625, -0.24250753, -0.54251844, 0.55825377, 0.13295321, 0.18129314, -0.09169327, -0.19691478, -0.16588399, 0.50203937, -0.25325003, 0.13172105, -0.58518863, -0.43431124, 0.64968926, -0.13736264, -0.34043148, -0.46688130, 0.50014257, -0.16233160, 0.26156211, 0.48403540
};

static const float net_2_weight[1024] = {
  -0.57679141, 0.16858418, -0.02567256, 0.16147515, -0.31899759, 0.11414564, -0.87905890, 0.07176110, 0.36947599, 1.00465250, 0.61919695, 1.55953622, 0.61542946, 1.60909665, 0.47575864, 0.66997039, -0.13739842, -1.53692436, 1.41236329, 0.41516921, 1.28305721, -0.17185298, -0.35937867, -0.50996143, 0.04599830, 0.24529600, 0.25903580, -0.11746946, -0.33169460, 0.02169055, -0.18283334, 0.02066329, 0.45998266, 0.25921023, 0.32982689, -0.34576464, -0.70195162, -0.01337008, 0.06124733, 0.40493977, 0.05471904, -1.88019049, -0.98606104, -0.70788109, -0.00166978, -2.09627056, -0.17786448, -0.84619379, 0.20563489, -1.89803839, -0.63787311, 0.03966547, -0.88349837, -0.02058040, 0.12515266, -1.64656854, -0.04354944, 1.28163886, 1.59823978, 0.14937174, -0.06532707, -0.07844952, 0.23255654, -0.01424940, -0.70111746, -0.13130997, -0.18679813, 0.28256005, 0.17339437, -0.05365075, 0.86925316, 0.43640965, 0.07464816, 2.66831183, 0.60014421, 0.40066046, -1.34149098, 2.71564722, -0.06775489, 0.39641872, 0.19694763, 0.60904849, 0.25726950, 0.24814063, 1.63709819, -0.05987814, -0.44967762, 0.26142168, -0.01475778, 0.26063403, -0.49942774, 0.10039710, 0.52832592, 0.20174074, 0.08044505, -0.15192826, 0.23872018, 0.17233257, 0.08212390, -0.68252760, -0.10213687, 0.19568205, 0.29813370, -1.16921520, -0.60884726, 3.30724478, -0.43287644, 1.52802742, 1.68591309, 3.40796185, -0.46133128, 0.02492955, -0.25353110, 3.15932274, -1.05375111, -0.30599731, 0.12755160, 0.14683145, 0.16501965, -0.17461120, 0.06697665, -0.52434224, -0.68509406, -0.08172537, 0.37948084, -0.41356167, -0.03541008, 0.23310201, -0.15178318, -0.09896185, -0.07301079, -0.07894000, -0.00367481, 0.13297603, -0.16330270, -0.12330471, -0.15415362, -0.09474508, -0.03982697, -0.13839693, -0.14306879, -0.17473800, 0.11933721, 0.00383310, 0.10456116, 0.14410959, 0.11210329, -0.17375283, -0.13848428, 0.12623966, -0.12020886, 0.00453137, -0.01256296, -0.11929263, 0.09865668, -0.03196718, -0.10685195, -0.06881718, -0.12026144, -0.03277500, 0.30950719, 0.34567896, 0.13592063, -0.08887979, -0.31621310, 0.18410259, -0.03760657, -0.00288519, -0.03080540, 0.37140980, -0.91139925, -0.97409111, -1.45500243, 0.30467132, -0.35440779, -1.03795600, 0.12891373, -0.23964536, -1.24633193, 0.10243740, 0.15416694, 0.28667718, 0.17483984, -0.97237468, -0.20528670, -0.64924163, -0.58618712, 0.05377213, 0.37223485, 0.20087531, 0.14032663, 0.26882720, -1.82904601, 0.14985159, -0.08152613, 1.14314282, -0.04930515, -0.23146032, 0.18124726, 0.03221299, 0.71162188, -2.42722845, 0.08414042, -0.09427426, -1.95473170, -3.83741689, 0.06187538, -0.06888747, 0.48022535, -4.43262148, -0.21097119, 0.35959339, 0.21943262, 0.33072010, -0.06733504, -0.11333466, -2.74447393, -1.93013823, -3.99022651, -0.03722667, -0.38049224, 0.78710347, 0.39754784, -4.23633051, -0.15801467, 0.19813903, -0.16064364, -0.11750492, 0.14623792, -0.02610715, 0.31019500, -0.23164865, -0.28522286, 2.21651435, -0.13572887, 0.50984114, -2.71155834, 1.91085398, -0.04381707, -0.07000433, -0.14121333, 0.60932857, -0.38857365, 0.27562776, 1.10274172, 0.15113027, -0.95422870, -0.05022558, 0.07375074, -0.08394040, -0.65579748, -0.00897209, 0.35966682, -0.08722390, 0.02141492, 0.06786139, 0.05580436, 0.05303033, 0.17951478, 0.06152567, 0.18970563, 0.01924338, 0.24081331, 0.41469482, 0.41504160, -4.53451920, -0.26080838, -0.90462750, 0.56726754, -5.21145439, 0.03005475, 0.17081560, -0.06898963, -3.41979384, -0.34635407, -0.24758326, -1.54831696, 0.05354521, 0.31348628, 0.50395393, -0.00931385, -0.25641355, 0.21455055, -0.08261311, 0.00667167, 0.14823058, 0.27365342, 0.18363281, -0.03420296, 0.22875498, 0.14923051, 1.08361530, 0.74817312, 0.21064396, 1.02786779, 0.06076380, 0.83910918, -1.88844860, -0.20121142, -0.36895761, -2.00787354, -2.88578224, 0.00162169, -0.03111915, 0.57826287, -2.58639336, -0.80252939, 0.08448860, -1.18637598, 0.44566709, 0.00599045, 1.29909754, 0.08128660, -0.80847836, -0.75833988, -0.12707779, -0.00794411, 0.98920190, 0.26134020, -0.00795288, -0.05259466, -0.09892344, -0.26841474, -0.03710015, 0.22132696, 0.00567447, -0.26027223, 0.69273055, -0.01984071, 0.60474646, 0.69473892, 0.12696342, 1.50767446, -0.01313804, 0.30247205, 0.38718775, -0.54653120, 1.49356627, 0.76592284, 0.43230337, -0.38760740, -0.35279143, -0.20958611, -0.03853252, 0.03565167, 0.37120879, 0.38413829, 0.09174933, -0.08511737, -0.23695126, -0.17528689, 0.09843093, -0.02273592, 0.20135744, 0.06310194, 0.06240260, -0.59495556, 0.08610883, -0.81724596, -0.77449650, -0.18822859, -0.51494348, 0.63214958, 1.69786882, 0.73423392, -1.94970000, 0.49110645, 0.57732570, -0.25788847, -2.45804071, 1.23929334, 0.20454739, 0.26301858, 0.07006460, -0.16102292, -0.94349498, -0.00492714, -0.56130356, 0.47836068, -0.17083050, -0.47999361, -0.28198019, -0.13925257, 0.01918287, -1.26684904, 0.00747173, 0.07794244, 0.78588706, -0.04498878, -0.10157920, -0.34465024, -0.18259132, 0.43199983, -0.32312381, -0.09423550, -0.27919212, -3.02025652, -3.24605322, 0.09113722, -0.37778506, 0.39456990, -3.20515037, -0.64983577, 0.25385261, 0.13537578, 0.35717362, -0.24080521, 0.08053273, -2.63960266, -0.10909302, -3.16879058, 0.06332823, 0.11171293, 0.74769205, 0.40925461, -4.63890219, -0.45853367, -0.00801157, -0.16260675, 0.33532685, 0.34236640, 0.14988147, 0.44513935, -0.19752750, -0.09774973, 2.00891256, 0.75930095, -0.77746111, -4.37515402, 1.82127333, -0.22667806, -0.19397673, 0.30084819, 0.11325847, -0.19749586, 0.13053669, 0.91352957, 0.16854058, -0.77562469, -0.56904811, 0.08289792, 0.29601130, -1.19616747, 0.13100189, 0.94477677, 0.43954909, 0.10581487, 0.06844659, 0.27837360, -0.24175592, 0.01264440, -0.35340539, 0.46187669, 0.16246973, 0.08527354, 0.63818532, -0.07677867, -0.54397964, 0.27799964, -0.09276021, 1.66556907, -0.43933579, 0.39019018, 0.53629279, -0.27316356, 0.74641281, 0.32859686, 0.04652478, -0.67026097, -0.34685591, 0.21461475, 0.44176778, 0.52881938, 0.15980582, 0.65641230, -0.13216126, -0.01084616, -0.17107747, -0.01237939, 0.40151787, -0.29431388, -0.09125783, -0.18567577, 0.70086241, 0.76325059, 0.11690965, 0.62353128, 0.18785860, 0.58534247, -3.72228575, -0.34375957, -0.78555214, -1.79882717, -2.81444240, -0.08914965, 0.26193497, 0.61254877, -1.46076953, -0.83095616, -0.09194174, -1.47282124, 0.18985279, -0.30425456, 1.33355296, 0.23482510, -0.40777132, -0.35085049, 0.10867889, 0.02283240, 0.62915325, 0.31270587, 0.21232256, -0.34560418, 0.03493882, -0.02936806, 0.98979974, 0.40975353, 0.18462013, 0.52396327, 0.49091101, 0.74229038, -0.87708956, 0.20490815, -0.30000821, -2.02186680, -0.61525017, 0.02669030, 0.07108072, 0.63777602, -1.91176212, -0.19014136, 0.21985443, 0.55846691, 0.21063100, -0.35565105, 0.74544758, 0.23159049, 0.26424548, 0.14981630, 0.10018674, 0.21352029, 0.79579365, 0.26608774, 0.16020548, -0.12293217, -0.17234477, -0.08492935, 0.60765135, 0.57254910, 0.00601637, 0.80564988, 0.15014312, 0.74980253, 0.46744657, -0.31010145, 0.51720357, 0.23223020, 0.81736916, -0.28766504, 0.06849129, 0.44263375, 0.14998490, -0.88084644, 0.14651142, 1.11874998, 0.12147990, 0.50704366, 0.81683350, 0.03932761, -0.11968749, -0.83933586, 0.17345808, 0.25531223, 0.18333937, 0.23730652, -0.06295030, -0.00825775, -0.23528084, 0.05271705, -0.51025939, 0.13566875, 0.04448359, 0.10538203, 0.62738425, -0.44722271, 3.09660578, 0.44812778, -0.11118829, 1.37203789, 1.80081284, 0.42861933, 0.24712525, -0.34807482, 5.28089476, 0.60258442, 0.19264315, -0.38276231, 0.08264903, -0.71770418, 0.37545779, 0.32519460, 0.64392555, 0.75204194, 0.16775611, 0.44981205, -0.06840867, -0.24656804, 0.38015842, 0.31824693, -0.08392715, 0.26100883, -0.11714371, 0.25680134, 0.06276415, 0.89045995, 0.36998349, 0.20202158, -1.08922684, -0.30963138, 0.73883474, 3.07011795, -0.38487834, 0.17993021, 0.25540885, -0.30453995, -0.54557359, 0.22390331, 0.00098316, 0.48314947, -0.04496533, 0.43304422, 0.67970151, 0.17800280, 0.10631972, -0.53050941, 0.06908621, -0.06113391, -0.25043121, -0.01824420, 0.34696513, -0.12806800, 0.04696799, 0.15125445, 0.64662808, 0.21122101, 0.23379536, 0.15302128, -1.33469379, 0.26586771, -5.08267117, -0.18937635, 0.43335840, 0.44379264, -5.38887358, 0.39615932, 0.51518410, 0.01370227, -4.20559978, 0.36662593, 0.02230488, -4.55388021, -0.08339299, -0.43344533, 0.01468767, 0.09040375, -1.01609373, 0.11808825, 0.17531458, -0.14858934, 0.31946215, -0.11785844, 0.26615518, 0.50547314, 0.15407169, 0.34675002, -0.56074268, -0.98601228, 0.11135413, -0.81537306, -0.79069358, 0.01670801, -4.05201149, -0.91909689, -0.37097785, 1.63245285, -5.44709444, 0.08005995, -0.23646371, -0.09972216, -4.67685032, -0.45245111, 0.05613705, -1.56303251, -0.01601392, 0.40300256, -2.80944824, 0.05519092, -0.68393600, 0.32792112, -0.06209617, -0.25307286, -0.01550684, 0.20237653, 0.39934209, 0.40031165, -0.02373381, 0.44174492, -0.11651643, 0.29634699, 0.19024538, 0.32360014, -0.01512776, 0.26039317, -1.71515381, -0.80225056, -0.26720288, 1.57743120, -1.80471671, 0.15619193, -0.10847032, -0.13609996, -1.62915206, -0.66411406, -0.04150423, -1.38982880, -0.14619431, 0.29127732, 0.92297536, 0.29820618, -0.93267512, 0.19248812, -0.10179652, -0.21762173, -0.37249976, 0.11754756, 0.36150920, 0.01690469, -0.27912238, -0.23248667, 0.08820103, -0.07423903, 0.13698910, 0.05999485, 0.83454084, 0.24123530, -3.33523059, 0.39623633, -0.45898217, 0.40928057, -3.20369220, 0.34773651, 0.34433934, -0.37996441, 0.75094265, 0.61584657, 0.43651107, -1.87479472, -0.42749739, 0.19955426, 0.44908097, 0.20326696, 0.58834976, 0.29664138, -0.01821330, -0.17964906, -0.26418287, 0.12124118, 0.20459771, 0.48380041, 0.53837419, 0.37056077, -0.89857751, -0.21836628, -0.00997181, -0.25007051, -1.28911710, -0.89927346, -0.89662069, -0.54585367, 2.53225398, 2.06153440, -1.64439368, -0.36043042, -0.23549995, -0.24899736, 0.30137679, -0.95933115, -0.75163823, -1.85523725, -0.09705418, 0.59692103, -0.27995563, 0.19415653, -0.87306505, -0.21454456, -0.11317596, -0.15551005, -1.20940208, -0.00351509, 0.23933765, 0.10064486, -0.16201162, -0.11244094, -0.11609031, -0.13613530, 0.01477074, 0.05083695, -0.15298922, -0.05641844, 0.08660389, -0.16323240, -0.09871024, 0.05178227, -0.10934262, 0.03274028, 0.04458667, -0.09331651, 0.05717334, 0.10338459, 0.12562600, -0.09521295, 0.06457824, -0.14289610, -0.16084269, 0.05085155, -0.15653726, -0.00442432, 0.14041792, 0.00251116, 0.03433927, -0.13451441, -0.12840609, -0.39227465, 0.28537470, 0.00442315, -0.03350230, -0.21994071, 0.21539259, -2.85940909, 0.15664266, 0.24460742, -0.93405825, -0.76368105, -0.89516318, -1.69124222, -0.81897491, -0.03275169, -0.76866633, 0.35141706, -2.98288846, -1.26906931, 0.05642445, -0.07337889, 0.15683724, 0.10525003, -0.09812435, -3.60147643, 0.02106428, -0.28932062, -0.06619799, -0.07157195, 0.09421261, 0.28977126, -4.18497753, -0.05030219, -0.17107207, -0.01111059, 0.89680713, 0.49171606, 0.01009328, 0.94339693, 0.49758440, 0.34752062, -2.75546050, -0.14072487, 0.04754677, 0.81509930, -2.01700854, -0.14322968, 0.05429951, 0.38209864, -1.02740645, -0.65153849, -0.11653337, -0.06231274, 0.03255371, 0.30850887, 1.13923430, -0.06404700, -0.24147591, -0.63538814, 0.16001558, -0.16724807, 0.50239807, 0.07794938, 0.19536693, 0.17245388, 0.19015624, 0.37194040, -0.25192460, -0.62642473, -0.07276127, -0.59506059, -1.52820122, 0.08164910, -3.40711951, 0.04155864, 1.22709668, 2.35506654, -3.40500045, 0.40919718, 0.43029150, -0.11845399, -2.75180078, 0.93623841, -0.11478830, -1.91401136, -0.20982072, 0.36979806, -0.73354024, 0.26216540, -0.83280468, 0.24946102, -0.15885307, -0.15347512, -0.48929453, -0.10989255, 0.09824257, -0.06181745, 0.03579822, 0.02426475, 0.77529061, 0.48146412, 0.04895479, 0.29756585, 0.39456293, 0.57151681, -4.47618294, -0.47155467, -1.06097102, -0.82710069, -4.53545284, 0.09605820, -0.02765239, 0.41377228, -3.28268194, -0.68637967, -0.07994929, -1.75641382, 0.11767679, 0.05598648, 1.01248181, 0.02192468, -0.27941105, -0.21212822, 0.08035164, 0.02608809, 0.72822940, 0.28706127, 0.22281642, 0.51346797, 0.01084989, 0.26730448, -0.52351052, -0.58475536, -0.07112335, -0.76778263, -0.43691948, -0.39492249, 1.49461436, -0.20562439, 0.22696297, 0.71035224, 1.21274102, 0.23105514, -0.03065118, -0.48602921, 1.26597035, 0.30003911, 0.23767871, 0.48588556, -0.19571967, -0.09133870, -0.76531202, -0.13593145, -0.16329491, 0.69006443, 0.17015582, 0.08858325, -0.46979275, 0.02554170, 0.13012749, -0.02342948, 0.17383999, -0.04229833, -0.30919361, 0.30807388, 0.05272517, -0.19296376, 0.78831547, -0.00022715, -2.65071082, -0.18784694, -2.04529905, -1.01561034, -2.97313690, 0.08251244, -0.00148151, 0.20330364, -3.52138567, -0.15755032, -0.00919682, -1.84762609, 0.28114790, 0.36009172, 0.31042764, 0.11003136, 0.56523216, 0.44309783, 0.11152789, 0.09410562, -0.08624548, 0.27104899, 0.00889522
};

static const float net_2_bias[32] = {
  -0.19012088, 0.03652421, 0.09289702, 0.16179331, -0.14925006, 0.08917717, 0.22776146, 0.16079049, 0.09801716, 0.32328767, -0.09151575, -0.00967118, 0.12932120, 0.24838667, 0.25298104, -0.12834050, 0.05094158, 0.10472587, 0.26392573, -0.07515606, 0.13925973, 0.09918670, 0.11552575, -0.09646749, 0.24311164, -0.15266633, 0.17992644, 0.09215736, 0.01418422, 0.15037391, 0.13806511, -0.08657980
};

static const float net_4_weight[1024] = {
  -0.83981270, 0.57228029, -1.07829463, -0.57320219, 0.01010121, 0.43891451, 0.74663955, -1.29574656, 0.45377326, 0.20499678, 0.14312151, -0.93930507, 0.59736365, -0.32613000, 0.05353658, 0.93249828, 0.38378346, 0.59116530, 0.37526625, 0.10208058, -0.48468778, 0.61186498, 0.26863286, 0.32963723, -1.65632284, -0.18174823, 1.30195677, 0.79104000, -1.74619496, 0.42917904, -0.50010967, 0.64725363, 0.16936715, -0.22306336, 0.19580029, 0.25266492, 0.10188702, -0.09744720, 0.63632017, -0.11161952, 0.16186313, 0.44102296, -0.23576933, 0.18021826, 0.92203689, 0.14075533, 0.07426842, 0.84403449, 0.22350565, 0.08345520, -0.23027189, 0.08025543, 0.12070622, -0.38973606, 0.18534048, -0.17998128, 0.84757948, 0.03525120, -0.60229743, 0.21975709, 0.07028539, 0.44306460, 0.28603217, -0.35421020, -0.05215422, -0.19408883, -0.52204072, 0.39740661, -0.16887896, -0.04322797, -2.27201724, -0.69917899, 1.04417455, 0.09591375, -0.11909310, 0.04121635, -1.27979958, 0.33874118, 0.12782125, 0.96457821, -0.22534254, -0.23703289, 0.01977049, 0.26115158, 0.87141800, 0.08607362, 0.45352384, -0.01415191, 0.73897338, 0.13929740, 0.21746685, 0.17061299, 0.21566424, 0.95736873, 0.24212268, 0.82579011, -0.44040623, -0.07819012, -0.29795036, 0.39881921, -0.05040301, 0.21844912, -0.89104384, 0.17995875, -0.31669569, 0.13825479, 0.57974118, 0.16312496, -0.78938597, -0.56447107, 0.38059467, -1.54799449, 0.15955898, -0.19882056, -0.03711906, 0.03571191, -0.28841260, -0.43669528, 0.30903411, -0.81868106, 0.61415273, 0.03324752, -0.38011375, 0.02078260, 0.27077499, -0.71390647, -0.16592239, -0.26073524, 0.01201156, -0.06689693, 0.01596143, -0.14724845, -0.07417323, 0.10693879, 0.11753184, -0.02843363, 0.03481945, 0.13935579, 0.05233746, -0.08030726, -0.15507650, -0.13192761, 0.05931241, 0.10505725, -0.13809800, -0.04293467, -0.12690321, 0.00082447, -0.10140868, -0.03936030, 0.03479656, -0.20463832, -0.01419525, -0.03379260, -0.00880344, -0.09041108, 0.14180560, 0.03841062, -0.11613709, -0.16046852, -2.16936088, 0.27525371, -2.01599669, -2.30796671, 0.00017329, 0.20203911, 0.64580083, -1.91398489, 0.56283194, 0.20797931, 0.20587774, -2.40894151, 0.75784749, -0.05634799, 0.28815126, 0.83345622, 0.26275474, 0.14389569, 0.42682385, 0.00484893, -0.09295236, 0.00167598, 0.25907099, 0.45917943, -2.86175299, -0.11985847, 1.10771334, 0.69306839, -1.83408546, 0.70680016, -0.71664160, 0.80329633, -0.08347829, -0.03349635, 0.16860330, -0.19153525, -0.15356390, 0.12261439, 0.02719028, 0.00937059, -0.21492226, -0.21995433, -0.14222960, -0.06395140, 0.01958134, -0.16732360, 0.00023345, -0.13282868, 0.01784511, -0.12961146, -0.16862163, -0.01185035, -0.03372339, 0.05619562, 0.06799284, -0.11700896, -0.02883992, -0.02864757, -0.02842541, -0.22121449, -0.13879558, 0.05140360, 0.03207467, -0.05748069, 0.27941984, -0.56558293, 0.66360462, -0.14241670, 0.12509125, -0.02575356, 0.78404665, 0.47881261, -0.78662783, 0.45268190, -1.70586860, 0.33298334, 1.14757347, 0.99078947, -1.90716362, 0.47317773, 0.61348832, 0.03159437, -4.21080399, -1.00542951, 0.02614170, -1.93684244, -1.12059450, -2.23465228, 0.33496785, 0.02349683, -0.28984749, -0.12278230, -0.85499901, 0.21520802, -1.18053961, -1.22209072, -0.79723227, 0.50741482, -1.19898653, -0.66548055, 0.08391792, 0.37411672, 0.56560898, -0.89447612, 0.35994571, 0.30722728, 0.46106863, -0.97485405, 0.39196551, 0.48217216, -0.02087318, 0.23151937, 0.11751883, -0.52694857, 0.19277091, -0.08297279, 0.24484809, 0.60679066, -0.07019108, 0.34741068, -0.33733356, 0.13695969, 0.69756174, -0.07283686, -0.11472495, 0.37896132, -0.00687518, 0.63174528, 0.18113273, 0.13065431, 0.19345677, 0.38047075, -0.08436285, -0.14751391, 0.20335424, 0.19506428, 0.08199283, 0.62001562, -0.02105617, 0.30926061, 0.35103413, 0.02997381, -0.03435267, 0.62385523, 0.20811011, 0.16971758, -0.11258697, 0.10220989, 0.22546640, -0.09255864, 0.18911679, -0.39862719, 0.36677122, 0.07061763, -0.56328183, 0.70621425, 0.19922589, 0.53233331, -0.09466722, -0.44935465, -0.10327309, -0.16636908, -0.17755288, -0.01323318, 0.05646436, -0.16884461, 0.07199371, -0.13747364, -0.16415760, -0.12117916, -0.05557519, 0.12677109, -0.13620245, 0.05065823, 0.11714523, -0.15334883, -0.16949388, -0.13394871, -0.08091853, -0.10025346, -0.08907790, -0.04965919, -0.09218831, 0.06560135, -0.12423222, -0.03145440, -0.08857847, 0.12195616, -0.06592073, 0.16330786, 0.03032899, -0.13561678, -0.28775766, 0.33122918, 0.16894348, -0.00151252, -0.10723675, 0.36982486, -0.44070965, -0.06810208, -0.09217495, 0.27106044, 0.37148476, 0.10613790, -0.26662275, -0.03567132, -0.00153144, -0.52158290, -0.06666698, -0.04154496, 0.14404730, -0.07866810, -0.31934121, 0.49497461, 0.41908664, -0.46150318, -0.95334202, -0.01860834, -0.13564545, -0.46939471, 0.29126555, -0.25259289, 0.00130153, -0.60788566, 0.04656070, 0.46531391, 0.25447434, -0.43883139, -0.17276569, 0.38555402, -0.67370951, 0.48740017, -0.40383670, 0.11116581, 0.16795035, 0.10611983, -0.82629037, -0.26210704, 0.00463251, -0.31135407, -0.00326391, -0.01448935, 0.07967700, -0.10888362, -0.48041928, 0.65816635, 0.15839630, 0.11108458, -0.28277436, 0.14016390, 0.56801099, -0.49674207, 0.29537076, -0.42235443, 0.18267128, 0.44992101, -2.15187550, 0.09994012, -1.40658844, -1.22743440, 0.10436442, 0.16962606, 0.39372677, -1.95334411, 0.45108438, 0.05993433, 0.45756751, -2.19798207, 0.43594679, 0.73190349, 0.44061294, 0.47915286, 0.15278555, -0.93841618, 0.35442179, -0.13478136, 0.88191342, 0.05574856, 0.04010151, 0.73489648, -0.72968382, 0.01082541, 0.98898631, -0.06097738, -0.75183457, 0.55561119, 0.16858502, 0.76222169, -0.30076998, 0.48683098, 0.11295205, -2.84290838, -0.16465724, 0.49405667, 0.69110137, 1.05237985, -0.37336999, 0.39406812, -0.44991186, -0.83920914, 0.96423757, 0.63387662, -0.96818197, 0.06972328, 0.24612935, 0.39931551, -2.72548795, -1.66553521, -1.59868360, -0.70623606, -0.40513626, -0.21438517, -2.47772598, -0.02501573, 1.42292404, -0.16266680, -2.18508697, 0.12056764, -0.84194803, -0.20151450, 0.15560864, -1.31353199, -0.38871187, 0.42963633, -0.06397308, -1.14737022, 0.60656452, -1.08758831, 0.50485379, 0.48673961, -1.71154201, 0.24871397, 0.40849134, -0.85468251, -0.06338014, 1.44904864, 0.31304714, 0.73894763, -0.54111755, 0.22832994, 0.55459815, -1.33665144, 0.29707050, -0.58791476, 0.41511098, 0.11347792, -0.54786175, 1.14713144, -0.55956089, 1.02550948, -1.15249479, -0.59798867, -0.15934248, -0.10348453, -0.17865890, 0.01353845, -0.10327312, 0.02115036, -0.06522615, 0.12716410, -0.15322749, -0.12064797, -0.16155955, 0.00652410, -0.14405516, -0.10758850, -0.09324253, -0.12958512, -0.10230368, 0.05848451, 0.08672483, -0.00508673, -0.13039990, -0.02806173, 0.06054300, 0.11063710, -0.08634152, -0.13689010, -0.07392669, -0.12352671, -0.01618905, 0.02720476, -0.04895528, 0.16334531, 0.07127521, -0.21910256, 0.31653637, 0.48506108, -0.03468882, -0.21976210, -0.63883334, 0.45737657, 0.03462450, 0.51432300, -0.03918289, 0.36812028, -0.95686340, 0.15758637, -0.17768222, -2.16821289, 0.32140964, 0.35058078, -0.09357101, 0.13200282, -0.14751787, -0.10826921, -0.26370832, -0.44453964, 0.43367699, -0.09602520, -0.99799311, 0.50310856, 0.15932025, -0.50704098, -0.07237430, -0.39417973, -0.19825934, 0.09461172, -0.48827064, -0.61455053, -0.03150039, 0.01182598, 0.20561579, -0.97774732, 0.09537602, 0.13568954, 0.18559900, 0.06249456, -0.02042944, -0.96110636, -0.09814274, -0.03151499, 0.34392023, 0.01880595, 0.23981996, 0.24059202, 0.19231361, 0.88210750, -0.05158249, -0.29579106, -0.90325737, 0.04362916, 0.44827580, 0.34606925, 0.23965937, 0.18860251, -0.03974606, -0.14874794, 0.67146993, -1.04505694, 0.67704964, -0.57938755, 0.06074433, -0.91584718, 1.32097280, -1.59784877, 0.02269216, 0.36919191, -3.12752771, 0.46782821, 1.17439663, 0.31014383, -2.85610390, 0.77807939, 0.56205815, 0.13412093, -4.59031773, -0.40095207, 0.83438271, -1.47668719, -0.83672690, -2.51502609, -1.17734969, 0.16783836, -0.38585100, 0.53870261, 0.20070140, 0.58090639, -2.45559263, -1.03010786, -2.05322504, 0.21653293, -1.91715288, -2.01497030, 0.09944327, 0.29745558, 0.66881812, -1.74351323, 0.33754182, 0.23060298, 0.34316465, -2.18354249, 0.79421467, -0.13127181, 0.41640428, 0.81431794, 0.35553867, 0.14896835, 0.16842087, 0.30625501, -0.31546274, 0.10698390, 0.10731087, 0.41995013, -2.64621830, 0.15793435, 0.92952538, 0.59970838, -1.85337567, 0.67814034, -0.83153880, 0.86490697, -0.09896000, 0.53209090, -0.34200031, -0.08994683, -0.12541226, 0.12071805, 0.58070582, -0.96497566, 0.14910103, 0.26047876, -0.02217938, 0.26773232, -0.18729173, -1.68498802, -0.14955609, -0.28781047, -0.11274363, 0.41007045, 0.20273243, -0.04995566, 0.00686201, 0.99553102, -0.28949824, -0.06903045, -0.39837688, 0.10719895, 0.41807726, 0.18812270, 0.34049988, 0.57198340, -0.36296499, 0.10965335, -0.12517831, 0.08080270, 0.00942609, -1.99400961, -0.11711829, 0.57536966, 0.46014968, 1.23668146, -0.92687380, 0.54862422, 0.92791033, -0.04614658, 0.91815889, 0.72597575, -0.71005172, -0.35006809, 0.47037280, 0.27819541, -2.26958156, -1.81968772, -1.39847243, -0.29694298, -0.21086942, 0.66707391, -0.37889197, -0.15585206, 0.97529280, -0.51446211, -2.23429990, -0.27296272, -0.19326712, 0.15607040, -1.94110548, 0.17470171, -1.97504318, -2.27810860, -0.02489009, 0.31485569, 0.62348139, -2.07983756, 0.51130623, 0.29258317, 0.42820358, -2.28866100, 0.80746830, -0.14102919, 0.30501434, 0.75949126, 0.33588973, 0.29359603, 0.26805466, 0.09181862, -0.07719999, -0.12732598, 0.28704286, 0.38970649, -2.65892267, -0.08287752, 1.14740169, 0.60526836, -2.05198693, 0.39935896, -0.66871828, 0.83820421, -0.69952297, 0.32010627, -1.15040755, -0.51816648, 0.04965491, 0.06653530, 0.85202640, -1.29326630, -0.01273520, -0.05369950, 0.21933323, -0.31614751, 0.72254610, -0.54328424, 0.07386427, 0.38381794, 0.26956999, 0.26380095, 0.16686478, 0.05418297, -0.43300304, 0.60883158, 0.09741567, -0.16724482, -0.31776452, 0.00675127, 0.48519561, 0.08256657, -0.24712516, 0.28769982, -0.02029995, 0.02542367, 0.05842674, -0.97107524, 0.05134101, 0.04978167, -0.03908465, -1.07024086, 0.99243104, -0.07291719, 0.41154158, 0.30110610, -0.06417585, 0.00841975, 0.81376225, -0.02747089, 0.08305907, 1.30083835, -0.12666725, -0.00764164, 0.01023813, -0.03482518, 0.03861118, -2.01952314, 0.15136442, -0.02916528, 0.52322870, 0.04979401, -0.13746582, 0.95431781, -0.04158058, 0.63396728, -0.12153655, 0.09330036, 0.16863607, -0.83846664, 0.07090597, 0.31959856, 0.02110414, -0.75365746, 0.91466379, 0.03427562, 0.01651030, 0.24114154, -0.28956386, 0.17921184, 0.66944188, 0.21473064, -0.05185692, 1.05422080, 0.21117705, 0.22783402, -0.05104122, 0.17662039, 0.29501963, -1.24946034, 0.12208291, -0.09200614, 1.08470285, -0.08862346, -0.89469934, 0.32304913, 0.17921749, 0.45872220, -0.23976161, -0.62356371, 0.13851377, -0.02330915, -0.07572101, 0.04124518, -0.02708082, -0.14185791, 0.08749495, -0.09289232, -0.13962062, -0.15058798, -0.08347873, -0.03031829, -0.04050631, -0.12836386, 0.12244818, 0.09944692, 0.04914424, -0.06219839, -0.08244365, -0.05244507, -0.19531243, 0.02187848, -0.06970561, -0.17488687, 0.02493316, -0.16376232, 0.16847679, 0.12203114, 0.15012789, -0.22136882, -0.19723812, -0.07084160, -0.26646626, 0.15333241, -0.26064390, -0.00668481, 0.02941957, 0.30052030, 0.78216809, -0.16888154, -0.18063450, 0.18419307, -0.12096861, -1.16715372, 0.80823886, 0.38850057, 0.10327996, -0.11353096, 0.38442010, 0.13523450, 0.01053237, -0.12680329, -1.81915379, -0.21883664, 0.31413645, -1.95091820, 0.13438573, 0.00162320, 0.98011667, 0.26846713, -0.30453262, -0.52186310, -0.28571230, -0.07555824, -1.03760099, -1.43644249, -1.00983238, 0.62519032, -0.11736264, -1.73821449, -0.02454940, 1.65217710, -0.50480425, 0.37685832, 0.34688428, -3.06655812, -0.00735275, -9.22334099, 0.48563430, 0.19959307, 0.56063658, 1.45640528, 0.50885385, 0.40944690, -1.38961613, -1.21540821, 0.28499496, 0.01659446, -0.47051206, 0.05106877, 0.06275672, 0.47146985, -3.86552048, -0.40230709, -0.39657137, -0.94422764, 0.39524281, -0.40739900, 0.27481040, 0.10296286, 0.03607821, -0.41056561, -0.62096286, 0.27554521, 0.12623769, 0.10848426, -0.16065757, 0.40773609, -0.95504975, -0.04171589, 0.09215034, -2.22771072, 0.29345462, 0.12987255, -0.13780771, 0.11525668, 0.42861888, 0.64190245, -0.19683789, -0.21920991, 0.29751983, 0.01392582, -1.77773118, 0.06624766, 0.49792561, -0.19780844, 0.03106911, -0.38708910, -0.98212332, 0.00042241, -0.93137491, -1.80934918, 0.04040894, 0.20036343, 0.34521425, -1.93772101, 0.36162451, 0.02239243, 0.38859722, -1.34953785, 0.69787616, 0.28463611, 0.27687988, 0.99972159, 0.21484396, -0.42585745, 0.38434401, 0.30658665, 0.54945296, -0.47299674, 0.17810845, 0.70571733, -1.45563722, -0.13959928, 1.12891316, 0.39463744, -1.26618636, 0.48982444, -0.13858861, 0.68391699
};

static const float net_4_bias[32] = {
  0.22845700, 0.19383477, 0.04154846, -0.00771243, -0.19039656, 0.10809813, -0.06215388, 0.23233767, 0.35660040, 0.01695748, -0.13074987, 0.00392640, -0.09741586, 0.11154816, 0.25720122, 0.17970757, -0.17279685, 0.22159028, 0.34229845, 0.15905522, -0.11483674, 0.12270757, 0.17882511, -0.02262398, 0.16022468, -0.13908522, 0.12037566, -0.07651673, -0.09342069, 0.16990970, 0.20898265, 0.10933881
};

static const float net_6_weight[96] = {
  1.52970386, -0.95894766, -0.55212349, 1.58426273, 0.13814686, 2.47297144, 0.17242870, -2.00947499, 1.31151235, -0.59790182, 0.07797636, -0.41923419, -0.76061928, 1.73466492, 1.30111682, -2.35996652, 0.16270256, 0.86619759, 0.78995699, -2.21673918, 2.28903127, 0.54521090, 1.67088878, 2.20622015, 0.98335302, -1.31430376, -1.15361905, 0.10100169, 1.04288912, 0.09418508, 0.89949185, 1.78108454, 0.49359548, 0.17176531, 0.04047766, -0.15991543, -0.07873886, 0.94224405, 0.00880974, 0.22607353, -0.17386475, -0.12617543, -0.06396137, 0.10270718, 0.03899165, -0.01880291, 0.43081868, 0.58806306, -0.13354091, -0.03890483, -0.13098703, 0.70985442, 0.96390784, 0.03251198, 0.00081756, 1.05872881, 0.15730470, 0.49253789, 0.11500981, 0.10258568, 0.08605834, 0.29652673, -0.02486384, 0.19758911, 0.56769693, -0.17852615, -1.02510321, 1.42683578, -0.00635782, 0.08721139, 0.07520987, -1.23639214, -0.11245390, 0.31376016, -0.10448442, -0.10848016, 0.02416136, -1.00981343, -2.00397301, 0.81494939, -0.04777753, -0.05602922, 0.97417706, 0.25305963, 0.22565080, 1.49723279, -2.57709837, 0.07698717, 0.72499609, -0.43927041, -0.04644807, -0.05600854, -0.67060828, 2.78527403, -0.07613821, -0.57195741
};

static const float net_6_bias[3] = {
  -0.14930423, -0.03872018, 0.08741498
};

static const float input_mean[3] = {0.00000000, 0.00000000, 6749.99951172};
static const float input_std[3]  = {2338.09155273, 2338.09155273, 4214.56005859};
static const float output_mean[3] = {0.00000001, 0.12292606, -0.00000000};
static const float output_std[3]  = {22.14661598, 71.60929108, 22.14662170};
