// Auto-generated field NN weights
// Architecture: [32, 32], activation=silu
// Parameters: 1283, FLOPs: 2688
// MAE: 7825.54 Gauss, p99: 68615.2 Gauss

#pragma once

static const float net_0_weight[96] = {
  1.76966202, 0.08565508, -0.30456689, -6.34292459, -0.56092370, 1.26749742, 3.83348489, 0.29204929, 0.76002133, 2.27281690, 0.03246407, -0.84453046, 5.56745958, -0.06214555, -1.68416333, -5.21587133, 0.50297940, -0.21332827, -1.25474751, -0.02383353, -0.77255446, -2.58099461, -0.00042734, -3.26601624, 1.07293749, 0.97539264, 1.31106555, -1.75526321, 0.29234591, 0.45599511, 0.74537325, -0.80229145, -0.10399980, 1.72066915, 0.03090593, -0.01398330, 3.95301771, 0.24156234, -1.80439723, -2.03154540, 0.18141094, 2.21948385, 3.73097944, 0.34150130, -1.28773665, -7.48105860, 0.07135782, 3.18944955, 7.27699089, 0.32532638, 1.10911107, -3.23472142, -1.05817378, -0.61479264, -0.30759972, 1.40336454, -0.57463187, -0.42062375, 1.27757943, 1.15123034, 1.60912466, 1.19785249, 0.38940859, 1.64061522, 0.01448907, 5.90222740, -3.78869367, 0.51373279, 0.68587923, 0.79982835, 0.18482286, -0.24472494, -4.93746376, -0.61370486, 1.39429247, 6.55684614, -0.55738896, 1.44553328, 3.21315932, 0.02210953, 0.17252932, -7.81352472, 0.20880781, -1.34112799, -1.52003384, 0.00438591, -0.27188092, 2.66738319, -0.70528591, -0.87180173, 0.78352404, -0.26006073, -0.67012745, 3.37421131, -0.54056180, 0.82568407
};

static const float net_0_bias[32] = {
  0.02144037, 0.32346836, 0.15014452, 0.06787530, -0.27697355, -0.15046415, -0.00120255, -0.72063017, -0.02216734, 0.18019153, -0.19815227, 0.17161310, -0.26835549, 0.39941138, -0.42979661, 1.00929856, 0.19553719, -0.33824170, -0.60273886, 0.09993968, -0.08219665, 2.09316254, 0.01722928, 0.22636276, 0.09570701, 0.20580423, 0.33904561, -0.42051500, 0.32652056, -0.27690122, 0.07765041, 0.37647659
};

static const float net_2_weight[1024] = {
  -0.05910621, 0.26719671, 0.32276738, 0.06154386, -0.26268190, -0.00437709, -0.12994657, 0.14743835, 0.17116088, -0.16712447, 0.03733549, 0.02704185, -0.08160015, -0.14992614, -0.18319175, 0.10448117, 0.48237404, 0.15528437, -0.04056028, -0.01333375, 0.03829912, -0.28576362, -0.14121552, -0.05154169, -0.09462027, -0.43513709, -0.13764681, -0.47384867, 0.07941420, 0.12277551, -0.10173918, -0.11343817, -0.01594804, -0.16696571, -0.03851235, 0.07652483, -0.18390560, 0.12941805, 0.12621632, -0.10007058, 0.26471949, 0.00650108, -0.00584404, 0.09304267, 0.02578107, -0.07423002, -0.06965763, -0.08464707, -0.30236316, 0.32867751, 0.30850640, 0.22217692, 0.01765955, -0.09116038, -0.00245306, 0.11168520, 0.16162437, 0.18166874, -0.01890082, -0.13751407, -0.14640033, 0.25660610, 0.08974703, 0.13412607, 0.02542621, 0.24286175, -0.21680549, -0.19745965, -0.83135515, 0.05186836, -0.16138311, -0.84137177, -0.01220914, -0.07023206, 0.20123866, 0.01425138, -0.21645926, -0.43316135, 0.38932979, -0.61351669, -0.44543761, 0.10027222, 0.61620855, 0.06695089, 0.45846987, -1.25057554, -0.04967996, 0.09646058, 0.42157644, 0.22001158, -0.13439067, -0.54563552, -0.19073799, 0.05885755, 0.08272548, 0.30997461, 0.18062702, -0.22952926, 0.05364756, -0.00772182, 0.00005269, 0.05421626, 0.18175523, -0.11719497, 0.28025591, 0.08464628, -0.00705146, 0.22567184, -0.22774370, 0.09801730, -0.43662527, -0.04085506, -0.04451012, 0.11267000, -0.27266222, 0.13386540, -0.05985764, -0.51995224, 0.22915307, -0.01653420, -0.33362621, -0.23302561, 0.11528024, -0.03811727, 0.22376512, 0.06488773, 0.15142161, -0.09401066, -0.00153638, -0.40829518, -0.23999096, -0.17090115, 0.20554990, 0.34396747, 0.15119055, -0.11699498, 0.02679882, 0.12307175, -0.12386302, -0.26169050, 0.15238920, 0.37140793, -0.16202879, 0.14796588, -0.20933029, -0.07781692, -0.04915477, 0.15494034, -0.18166585, 0.00329773, 0.03181791, 0.17704080, -0.14798591, 0.40573132, -0.00174500, 0.20304774, 0.04477228, 0.11156309, 0.11602329, 0.35872841, 0.16355316, -0.06410290, 0.23173623, 0.03138701, 0.08599684, -0.11247520, 0.04999923, -0.14652823, 0.15071189, 0.08989227, -0.17901087, 0.22150204, -0.13555551, 0.40300778, -0.24039264, -0.00424549, 0.08523820, 0.09018422, -0.16159841, 0.04092228, 0.03166942, -0.15330955, 0.14948304, -0.09247914, -0.41428462, -0.27077532, -0.10343261, 0.00562531, -0.03124749, 0.25601530, -0.04113587, 0.01563795, -0.09086147, 0.15274699, 0.17082395, 0.11956968, 0.00170290, -0.02667361, 0.19722377, -0.17257901, 0.01811156, 0.19895223, 0.03069084, 0.15091938, -0.18974805, 0.12878343, -0.02308357, 0.16272286, -0.15527777, -0.02202152, -0.04233434, 0.09623708, -0.05866678, -0.24925564, 0.13429296, 0.08173703, -0.19983879, -0.48117888, -0.05980477, -0.27823329, 0.04610049, 0.02351388, 0.08191858, 0.04170917, -0.12059614, -0.51925278, 0.01474623, -0.10933454, -0.07409471, 0.01090468, -0.07618605, -0.99945599, 0.46227255, 0.20933224, 0.23687668, 0.04300171, -0.62519419, 0.00151306, -0.63542652, -0.49860060, 0.16193295, 0.11574885, -0.17815432, 0.26591414, 0.05681520, -1.57321000, 0.19460964, 0.05301026, -0.66249150, -0.36872253, 0.02151931, -0.34345832, 0.01181841, 0.39287478, 0.10235658, -0.00606302, -0.15416558, -0.23736534, 0.25354347, -0.12719676, -0.27869236, -0.21772920, -0.14746696, -0.93410689, 0.27115855, 0.04956289, 0.19940366, -0.01624929, -0.91793823, -0.24268757, -0.57904100, -0.35580927, 0.33188739, 0.22640528, -0.23076490, 0.33797407, 0.15134037, -1.80233967, 0.28807214, -0.16461299, -0.53278095, -0.86798459, 0.22897789, -0.30516055, 0.12469172, 0.32278299, 0.16296807, -0.27181232, 0.17980289, -0.26822257, -0.05232664, -0.16533053, 0.07991823, 0.18261151, -0.11642869, -0.10478045, -0.04964451, 0.05609077, -0.24736254, 0.22091420, -0.11436897, -0.08559621, -0.19762143, 0.13733050, -0.04328720, -0.05594783, -0.33372164, 0.00878893, 0.04504699, -0.12400182, 0.26661441, -0.04989460, -0.30604959, -0.01357562, -0.10102813, 0.03364696, -0.03328814, 0.17268135, 0.04247455, 0.21585637, 0.17409635, -0.26088911, 0.03783176, -0.01264569, -0.07505406, 0.04974640, -0.15196712, -0.15299898, 0.05640979, -0.17790991, -0.02784006, -0.27172437, -0.16596182, -0.42879537, -0.01883264, -0.35508811, -0.31566516, 0.02675073, 0.09652104, -0.05781796, -0.02570325, -0.33620825, 0.11054301, 0.15381740, 0.07028089, 0.44817498, -0.25996327, 0.12391111, -0.05817765, -0.06493853, 0.04956808, 0.19181405, -0.04640755, 0.18342198, 0.18577299, -0.00670425, -0.44828007, -0.33477575, 0.00664164, -0.22340567, 0.11408935, 0.13062623, 0.17257130, -0.14687470, -0.44604036, -0.18796127, -0.17728859, -0.33731440, 0.58226109, 0.28727779, -0.10452050, 0.14010027, 0.23926596, -0.74267930, -0.01911938, 0.06013803, -0.15325375, -0.49971139, -0.07426925, -0.40135521, 0.12391764, -0.17416155, 0.18000765, -0.22611196, -0.05498428, -0.27865392, -0.31130591, -0.10527387, -0.49987078, 0.14223924, -0.02742310, -0.39006248, 0.32884803, -0.02056135, 0.21440682, -0.17547934, -0.36606741, -0.07726337, -0.00284116, -0.77634978, -0.53943855, 0.27309179, 0.37155804, 0.30225721, 0.13767898, -0.87881756, 0.01245794, -0.17641716, -0.10747746, 0.63237923, -0.36597064, -0.14664736, -0.14974523, 0.28262532, -0.09060562, 0.06421401, 0.12631136, -0.18953928, -0.46528822, -0.41175702, -0.51732188, 0.25367755, -0.23890145, -0.92921990, -0.09662247, -0.10342609, 0.07993384, -0.18923084, -0.26957640, -0.46593496, -0.06984160, -0.72635627, -0.80902076, 0.03162739, 0.27407628, 0.34542543, 0.13435908, -1.33786869, 0.09783705, 0.11050537, -0.11635549, 1.03309238, -0.27555317, 0.13389178, -0.13740404, 0.08783275, -0.27419022, 0.33841100, -0.27586442, -0.77599251, -0.30719590, -0.16851440, -0.18731141, 0.13446146, -0.34262562, -0.62076825, -0.24556389, -0.00804154, 0.18146051, -0.09592472, -0.23082113, 0.20099005, -0.36538416, -0.29525602, -0.84994626, -0.54190212, 0.12584142, -0.06857200, -0.16631696, -0.67309684, 0.33050010, 0.00653846, -0.55757701, 0.50270748, -0.30411962, 0.30211279, -0.35138634, -0.03309247, -0.36169046, 0.22834884, -0.23732078, 0.21365306, 0.07578672, -0.22244962, -0.14289828, -0.20100760, 0.05861662, -0.02491435, 0.21798921, -0.23977642, -0.15160327, 0.11003579, -0.03833360, -0.38108543, 0.01298158, -0.38833258, 0.20429090, -0.01900430, 0.22395061, -0.00073288, -0.02093981, -0.43842483, -0.07199157, -0.22829278, 0.33829316, -0.26137549, -0.18087962, -0.38322106, 0.02186620, -0.01377587, -0.00068965, 0.01273814, -0.06203011, 0.44546786, 0.11080828, -0.29260060, -0.95238096, -0.33438170, -0.05757293, -0.57003814, 0.15844181, -0.19353460, 0.30135158, -0.08129019, -0.16349961, -0.48680422, 0.06630914, -0.80004978, 0.47954866, 0.29616120, 0.13014890, 0.31551942, 0.34495530, -1.48772180, -0.39245725, -0.21136390, 0.61704445, -0.82852620, -0.06639710, -0.78044707, -0.24595091, 0.02175790, -0.14968231, -0.14967628, 0.09271327, -0.22301041, -0.11472876, -0.00697490, 0.02211612, 0.23648584, -0.20480677, -0.25244021, 0.19306098, -0.10467104, -0.10591136, -0.06776855, -0.27044010, -0.20854062, -0.37770790, -0.03899671, -0.38593352, 0.07681742, 0.18593949, 0.19041029, -0.06892350, -0.57761037, 0.23103376, -0.15695064, -0.24700008, 0.51258022, -0.26680502, -0.11548107, -0.03746401, 0.35129860, -0.12724699, 0.08799225, -0.32532722, -1.41064453, -0.95626312, -0.25690985, -1.13201439, 0.52844477, -0.29295781, -1.82126153, 0.54070097, 0.34371930, 0.57130772, -0.22552125, -1.32723880, -0.31962630, -1.08692956, -1.94984591, -2.20390463, 0.15789956, 0.71835852, 0.65496093, 0.31031924, -2.92122436, 0.87834728, -0.20307662, -1.04009509, 0.91754830, -0.35596570, -0.98584688, -0.12546867, 0.69051021, 0.08589415, 0.63837224, -0.11356895, -0.08619654, -0.22694802, -0.16364725, -0.46351221, -0.00038156, -0.10114215, -0.65053356, -0.20489533, -0.08522666, 0.01562691, 0.23902863, -0.07695361, -0.46270216, 0.12086219, -0.18586853, -0.45148748, 0.02772798, 0.02147485, 0.00555544, -0.08358773, -0.46291474, 0.00344456, 0.12737878, 0.20093933, 0.77554375, -0.01110391, -0.11140520, -0.21247308, -0.06520128, -0.01885195, 0.01256650, -0.01883288, -0.49813783, -0.09985434, -0.40726638, -0.26668310, 0.07269372, -0.15747857, -0.82786220, 0.46583620, 0.00885830, 0.19207333, 0.01180212, -0.74550015, 0.06916633, -0.48179823, -0.37857971, -0.49739224, 0.25482550, 0.05043113, 0.43275270, 0.28671032, -1.41940773, 0.47409686, -0.10850757, -0.43894744, 0.40020302, -0.00056582, -0.07811446, -0.07985669, 0.31762046, 0.20791383, 0.28036794, 0.10737064, 0.03799115, -0.19464265, 0.08128637, -0.09112257, 0.20262660, -0.11252750, -0.11085799, -0.00031640, -0.07445958, -0.15618686, -0.08773636, 0.05262218, -0.33658782, 0.10522880, -0.10007178, -0.42122823, -0.06471141, -0.09337547, 0.13369240, -0.09327714, -0.02435040, 0.02148121, 0.20807488, -0.03317953, 0.49110299, -0.19394340, 0.10772278, -0.17920163, -0.18659702, 0.05049205, 0.22441952, -0.11272617, 0.76493561, 0.22013552, -0.48273173, -2.33874631, -0.87718743, -0.08690642, -1.46803415, 0.85353273, -0.19584668, 0.29310364, -0.34509996, -0.54235578, -0.88857466, -0.03561095, -2.17636609, -0.20740108, 1.02398825, 0.57640660, 0.59365511, 0.74195898, -3.26201653, -0.64899069, 0.03476824, 0.83837503, -2.02716589, -0.68175042, -2.91464615, -0.06748967, -0.05996270, -0.05169470, -0.42490488, -0.00122721, -0.13278137, -0.05303909, -0.11426386, 0.06870594, -0.16112117, -0.08801078, -0.15688625, 0.22361098, 0.09661829, -0.05830761, 0.17066315, -0.39926478, 0.23592399, -0.22714213, -0.04631766, 0.37479860, 0.12062088, -0.09619776, 0.27341732, -0.10411412, -0.56510472, 0.19041237, -0.16964053, -0.35913372, -0.37993515, 0.05144614, -0.21127002, 0.11566035, 0.10573474, 0.30797455, 0.06235774, -0.25523892, 0.12872241, -0.30588827, -0.02280412, -0.30006191, 0.15627521, -0.00338627, -0.44265446, -0.29620314, 0.06341956, 0.06176732, -0.14026487, 0.14463302, -0.34522620, 0.23750271, -0.22139730, -0.31272033, -0.12740134, 0.25455427, -0.09726977, 0.14109857, -0.32797983, -0.13433424, 0.08606651, 0.53658032, 0.30808440, -0.07941821, -0.22330439, 0.07284634, -0.01426513, 0.03051252, -0.02317846, 0.01457709, 0.27156153, 0.24831331, -0.16683027, -0.51460338, 0.00274448, -0.02452663, -0.48361930, 0.47034404, 0.15241511, 0.20274185, 0.06064522, -0.16253819, -0.15780252, 0.13339469, -0.60779619, 0.10661852, 0.45864764, 0.31586182, 0.30927047, 0.16667970, -0.88461679, -0.07080433, -0.21974906, 0.64747381, -0.26252198, -0.27555725, -0.58406854, -0.22355579, 0.14233209, -0.09000663, 0.02482141, -0.13227248, 0.26849365, 0.15935434, -0.17702189, -0.26773751, 0.03342957, 0.09716077, -0.17415507, -0.14161085, -0.04314439, 0.06978128, 0.03010725, 0.25004399, -0.39836723, 0.06920207, -0.19659804, -0.00872033, 0.00423068, 0.20472375, -0.15231100, 0.08836222, -0.39490521, -0.28593338, -0.15875316, 0.26537791, 0.00361461, 0.12671745, -0.21326876, -0.07143275, -0.25189561, -0.20494370, -0.05391393, 0.03957152, 0.20500050, -0.18835077, 0.09595244, -0.21960619, 0.03222475, -0.12752967, -0.10368491, -0.24303789, -0.19816877, 0.03308759, -0.09217218, 0.15627494, -0.33773431, 0.19796734, 0.05034782, -0.08033923, -0.17833872, -0.02619903, -0.08765165, 0.04016082, -0.06295900, 0.01435346, 0.16740099, 0.09696098, 0.16801868, 0.07553088, -0.06489744, -0.05186802, -0.25862175, -0.04441316, 0.05102470, 0.11671998, 0.43449453, -0.01944363, -0.01898997, -0.63323087, -0.30262402, -0.07425749, -0.80609101, -0.17897496, 0.06689140, 0.02105819, -0.03100623, 0.11875256, -0.44821805, 0.28784892, -0.41940653, -0.04726489, -0.12125517, 0.25517210, -0.08813215, 0.02170609, -1.16408610, -0.25544611, 0.16245925, 0.53730178, 0.05039699, -0.12812264, -0.17491750, -0.13888925, -0.38107008, -0.32756728, 0.14370564, -0.00670509, 0.51070768, -0.38593391, -0.15283164, -1.10917521, 0.06389161, -0.37408987, -1.56409311, -0.47034970, -0.06600305, -0.07641699, 0.08952454, 0.04067633, -1.05379677, 0.37788838, -1.21278703, -0.98457581, -0.29162401, 0.59213638, -0.06430769, 0.28621447, -1.96108687, -0.25085148, 0.34805065, 0.80891019, 0.80025434, 0.22948495, -0.23619965, 0.21661490, -0.37567654, -0.19095595, 0.29457456, 0.17264940, 0.01113724, -0.29521808, 0.09092371, -0.17597289, 0.08301860, -0.25460088, -0.36521158, -0.20260637, -0.02803437, -0.20639995, -0.01756608, 0.05085251, -0.57774204, 0.13588770, -0.17000489, -0.31232607, -0.12433276, 0.25246254, -0.06297955, -0.02336359, -0.52500600, -0.01019096, 0.08963988, 0.08495905, 0.53027278, -0.06441277, 0.11733234, 0.00021429, -0.24377875, -0.22809194, -0.00003525, -0.23338498, 0.38251039, 0.11599489, -0.25373667, -0.13275315, 0.02361965, -0.24745427, 0.01150651, 0.02669579, 0.08910409, -0.10229317, -0.13742697, 0.10172753, -0.18911250, 0.29196310, -0.39502290, -0.11801343, 0.16393708, 0.15706655, -0.05758400, 0.00922139, -0.12726846, 0.11135767, 0.10128608, 0.37176773, 0.21611093, -0.02621121, -0.31905484, 0.07271849, -0.17222430, -0.05052139, 0.01719825
};

static const float net_2_bias[32] = {
  0.11456504, 0.10166417, 0.06128418, 0.13690735, 0.03697047, 0.17079082, -0.05988293, 0.07520126, 0.21412385, 0.14920884, -0.06371778, -0.10070582, -0.00468995, -0.01793725, -0.28244573, 0.02979267, -0.03871109, 0.08067521, -0.09187573, 0.13439628, 0.02312419, 0.00615858, -0.11263900, 0.14221159, -0.08749314, -0.00622861, -0.01156435, 0.13728264, 0.16243188, 0.16783613, 0.11108905, 0.01329854
};

static const float net_4_weight[96] = {
  0.46890724, -0.16024224, 0.05161809, -0.19404827, -0.04075140, 0.05597246, 0.05794257, -0.25181776, 0.47910622, -0.33592409, -0.24639046, 0.37819111, -0.40074295, -1.23660922, 0.24726634, 0.31202433, 1.20807564, -0.54069418, -3.74614692, -0.28637385, -0.85969222, -0.25358209, 3.79063940, 0.01306417, 0.13551463, 0.45981207, 0.44116670, 0.08851928, 0.39744499, 0.18886833, -0.20386197, 0.15347123, 0.06667644, 0.20345157, 0.54870600, 0.02558234, -0.00368245, -0.06598739, -0.00514398, -0.27967569, -0.28459680, 0.02171925, 0.03448156, -0.31309748, 0.30429530, 0.04967822, -0.28646374, 0.07066146, 0.05731169, 0.08768810, 0.55748594, -0.00277723, 0.25128859, 0.01006080, 0.55938441, -0.03803924, -0.00111706, 0.45946664, 0.03858243, 0.00084239, -0.32199788, -0.16980182, -0.07675835, 0.04503827, 0.38389021, 0.04943964, -0.50103170, 0.53191382, -0.02955439, 0.37998453, 0.07451737, 1.75834239, 3.02375627, 0.18258759, -0.09512180, 0.62748349, -0.01493825, -0.91129345, -0.05263392, 0.01370895, 0.06075981, 0.09813320, 0.60424447, -0.36836225, 0.61221397, -0.37892258, 0.46864960, 1.09275270, -0.81111360, 0.02955823, -0.53542709, -0.68572116, -0.90543830, -3.82042789, -0.66213197, -0.25291270
};

static const float net_4_bias[3] = {
  0.05178609, 0.07964694, -0.04728782
};

static const float input_mean[3] = {0.00000000, 0.00000000, 6749.99951172};
static const float input_std[3]  = {2338.09155273, 2338.09155273, 4214.56005859};
static const float output_mean[3] = {0.00000001, 0.12292606, -0.00000000};
static const float output_std[3]  = {22.14661598, 71.60929108, 22.14662170};
