// Auto-generated: [32] relu
// Strategy: log_space
// Params: 227, FLOPs: 416
// MAE: 0.58 G, relMAE: 0.4333

#pragma once

static const float net_0_weight[96] = {
  0.00020931, 0.50834560, -0.26127818, 0.00654700, -0.23641640, 0.69892234, -0.14622632, 0.13053103, 0.21513081, -0.00142998, 0.21394065, 0.30076745, 0.00073086, 0.31068990, -0.29031965, 0.28556794, 0.05260484, 0.53892076, 0.15442370, 0.22901873, -0.03492390, -0.09837230, -0.10437506, 0.61267126, 0.10705148, 0.20012955, 0.22367023, -0.00526302, 0.22082677, 0.44769013, 0.15810645, 0.30524850, -0.01331578, -0.40296316, -0.02654241, -0.21413609, 0.33683375, -0.11548026, -0.31519157, 0.00746151, 0.17844453, 0.11926135, 0.11170960, -0.10880635, 0.63487041, -0.28048915, 0.04874155, 0.51730049, -0.10551948, -0.25090417, -0.84493536, 0.29409039, -0.05288889, 0.53900975, -0.12182222, 0.13960102, 0.72300237, -0.28000379, 0.22782840, 0.11033140, -0.79043114, 0.06903400, -0.41217840, -0.12242242, -0.26268566, 0.04942993, -0.13056892, 0.14346728, 0.09486693, -0.43075597, 0.23261443, -0.01728059, -0.03912291, -0.41553295, -0.14722218, -0.11737398, -0.24121706, -0.11709028, -0.50764215, 0.31425679, 0.17292041, -0.14265996, -0.16680133, -0.88132012, -0.23389155, 0.10296381, 0.48345581, 0.34696430, 0.06773844, -0.57889014, -0.07228037, 0.00436828, -0.35809711, -0.09517280, 0.18109605, 0.63137066
};

static const float net_0_bias[32] = {
  -0.76773810, 0.03433918, 0.08085171, 0.40807828, -0.63983190, 0.21286280, 0.37988815, -0.05887919, 0.60604584, 0.58338535, 0.41918975, -0.09595847, -0.15190750, 0.35113135, -0.05540320, 0.20840876, -0.04564619, 0.21034686, -0.02581194, 0.35194996, -0.19153549, 0.65244901, 0.58595347, -0.50370520, -0.63158065, -0.48004577, 0.64468944, 0.04868887, 0.18774731, -0.22354369, 0.72891366, 0.03006827
};

static const float net_2_weight[96] = {
  -0.01788078, -0.01254037, 0.09961220, -0.00017342, 0.00967762, 0.21138234, -0.17334203, -0.07049391, 0.23563379, -0.02214710, 0.06135469, 0.31693175, -0.14085521, -0.08982719, 0.09503601, -0.14878125, 0.02744759, -0.19310015, 0.11454522, -0.16753201, -0.18224949, 0.14239776, -0.07782006, 0.09831212, 0.06644019, -0.26609024, 0.18697160, -0.07842058, -0.04149115, 0.20541987, 0.06513534, -0.08792736, 0.15387128, 0.05261374, 0.01482316, 0.14400955, -0.24356773, 0.01033242, -0.11960935, -0.03468945, 0.15570527, -0.13108425, 0.09838774, -0.01059496, -0.00026339, -0.36230481, -0.03765261, 0.05478710, 0.03356842, 0.02271971, -0.06115111, 0.04879285, 0.00978004, -0.03305691, 0.15384698, -0.01083772, 0.18358327, -0.22113580, -0.03416439, -0.03636909, -0.04350078, 0.01060732, 0.02663256, 0.06845409, -0.08385966, -0.22009797, -0.07482409, 0.06657937, 0.28074759, 0.29009813, 0.00495094, 0.31180856, 0.17913230, -0.19138078, 0.00583839, 0.02508154, 0.04605021, -0.38706866, 0.29484037, 0.14817497, 0.18567383, -0.27456611, -0.40605482, 0.05108217, -0.01572737, -0.19957617, -0.11180279, 0.00324184, 0.12458245, -0.13793343, -0.03220843, -0.30339295, 0.11967878, -0.20511355, 0.38921833, 0.27593538
};

static const float net_2_bias[3] = {
  -0.17744060, -0.05229685, -0.00571826
};

static const float input_mean[3] = {0.00000000, 0.00000000, 6749.99951172};
static const float input_std[3]  = {2338.09155273, 2338.09155273, 4214.56005859};
static const float output_mean[3] = {0.00000001, 0.12292606, -0.00000000};
static const float output_std[3]  = {22.14661598, 71.60929108, 22.14662170};
