// Auto-generated field NN weights
// Architecture: [64, 64], activation=relu
// Parameters: 4611, FLOPs: 9088
// MAE: 9194.78 Gauss, p99: 54181.2 Gauss

#pragma once

static const float net_0_weight[192] = {
  -0.95739669, -0.06731959, 0.20726362, -1.96052396, 0.43738794, 0.36125779, -1.80387151, 0.38488197, 0.41053659, 2.20313120, -0.53087521, 0.23395915, 1.11505425, -0.32101223, -1.10988140, 2.18667769, 0.41169778, 0.62859446, -0.98068631, 0.35087550, 1.34523737, -2.42719817, 0.48534808, -0.92266572, -2.12227201, -0.38852239, -0.04999473, -0.38323733, -0.00410627, 1.04227746, -2.02875853, 0.42065981, 0.15938437, -1.24801731, 0.50228745, 0.22075407, -2.41608596, 0.11906601, 0.26054826, 2.56843185, 0.23078990, 0.11656838, -1.39685702, 0.49103671, 0.52903348, -0.51408911, 0.58475059, 0.10756675, 0.85054582, 0.15771711, 0.72643316, 2.26169062, 0.05795780, -0.73354369, -0.04331486, 0.01918941, -1.29562724, 2.59918785, -0.42593369, -1.09692073, 2.17242289, -0.34606051, 0.43800536, 0.01751994, 0.01137650, -1.47459209, -0.04167325, 0.01704983, 1.18827498, -0.03272268, -0.00675309, -1.53664708, 0.31131989, -0.04674729, -0.67263407, 2.52677441, 0.40108195, 0.21990840, 1.54574633, 0.33001512, -0.21278988, -0.29890698, -0.22175294, 1.37454104, 0.50293058, -0.55387038, -0.61777300, 0.92857325, -0.00585383, 0.95368063, -1.03695381, -0.00619831, -0.14271507, 1.16212237, 0.11641917, 0.06257994, 2.99100113, -0.00057943, 0.41314906, 2.47561526, -0.06368673, 0.71674114, -1.53640831, 0.39623016, -1.00545967, -0.05591039, -0.55867672, 0.68518221, 1.85472214, -0.30907395, -0.44635701, 0.81636149, 0.31563982, 0.81634969, -0.70470440, -0.88702369, 0.00402358, 0.70472711, 0.25403899, -1.37432432, 1.13499856, 0.14124700, 1.06184745, 2.41960049, -0.48946223, -0.17439838, 0.89476889, -0.68073213, 0.42742446, 1.91290259, -0.55799818, 0.98840058, -1.96358740, 0.59238333, 0.77759725, -0.58515126, -0.49026796, -1.43438113, -2.25248408, -0.05648419, 1.12834001, 1.95598948, 0.50065750, 0.15796834, -3.30908155, -0.08133776, -0.31190595, -1.81110942, -0.04575750, -0.99172252, -0.19827352, -0.38773796, 1.27541256, -1.69334340, 0.05143593, 1.39597607, 1.26990378, 0.29309046, 1.36758852, 1.99601531, 0.37262857, -0.44697133, 0.10415633, 0.40431041, -0.76634103, 1.32381141, 0.03313535, 1.10011399, -2.28566647, -0.32034019, 0.39644000, -1.54231000, 0.52575135, 0.07457153, 2.15161896, -0.04145553, 0.21616657, 2.32135606, 0.05884743, -0.29089502, -1.91920578, -0.45449454, -0.06558757, 1.38265204, 0.33653948, 1.00817692, 0.00122257, -0.00066299, 1.23742962, 2.83000207, 0.29513568, -0.58491033
};

static const float net_0_bias[64] = {
  0.23870723, -0.10177866, -0.39821106, -0.69383705, -0.66929227, -0.33246467, -0.07964474, 0.32468700, -0.58221501, 0.47195926, -0.55219430, 0.23845436, 0.41210628, -0.22662872, -0.08864062, -0.52702206, 0.61551809, -0.30416512, -0.53595358, 0.14226688, -0.30085102, -0.59358454, 0.49417743, -0.62512356, 0.00789185, -0.46873140, 0.53165394, 0.24562281, -0.49814898, 0.44775745, -0.00232889, 0.16813150, 0.04365562, 0.29831442, -0.48067835, -0.17194611, -0.62185204, -0.13658591, 0.10158640, -0.18232299, 0.62811500, -0.51522350, -0.72480392, -0.43703425, -0.58308321, 0.18713599, 0.46937525, -0.68653470, -0.13072373, -0.41133049, -0.07112519, 0.59339619, 0.00529739, -0.72196883, 0.38294151, 0.45644403, -0.27373689, -0.45134288, 0.25306454, -0.12103155, -0.45226139, -0.08416289, 0.54458344, 0.37292525
};

static const float net_2_weight[4096] = {
  0.02533638, 0.02452196, -0.06893393, 0.06516588, -0.01563959, -0.08356029, -0.02892666, -0.12140971, -0.01505838, -0.13015267, -0.02447409, 0.10292780, -0.07338715, -0.06505205, -0.08092840, -0.08665670, 0.08289300, -0.12354498, 0.01739284, 0.04902838, 0.07469139, -0.01581997, 0.04450662, 0.09730180, 0.08509810, 0.03797179, -0.13524413, 0.00860011, -0.11193211, -0.03282593, -0.09709334, -0.04885501, 0.00129732, -0.01153818, -0.12124580, 0.09119771, -0.07478173, 0.03211702, -0.07828417, -0.05988720, -0.11982906, -0.08817232, -0.06750695, -0.03484706, 0.01503375, -0.02044557, 0.07997439, 0.04661185, 0.07403097, -0.03332693, -0.14046758, -0.06438112, 0.07568552, 0.05339339, -0.11765176, 0.02191582, 0.10462867, -0.11009342, -0.11181430, 0.08136462, 0.09266368, -0.08748350, 0.02092240, -0.10826062, 0.16051070, 0.08943465, 0.17478418, 0.29702842, -1.32464790, 0.05601513, -0.18511499, -0.00323034, 0.39980945, 0.29285878, 0.14223903, 0.13942277, 0.07184074, -0.57811773, 0.19021356, 0.13090312, 0.24046023, -0.73269337, -1.24916029, -0.23533152, 0.01209398, -3.14578509, -0.28674197, -0.35613796, -0.17343883, -0.24208608, 0.18085416, 0.12796189, 0.05685833, 0.37307233, -0.06258138, 0.02661446, 0.01364880, 0.19379352, -0.15222253, 0.29657251, -0.03676081, 0.20030917, 0.23040214, -0.06350370, 0.06860773, -0.79933268, -0.10941360, 0.02425247, 0.10696596, 0.08391470, -0.04363395, 0.12333170, 0.08932015, -0.15558921, 0.09563644, 0.24405313, 0.15908584, -0.61763734, 0.11365670, -0.04168865, 0.14851837, 0.12044676, -0.10820011, -0.34765410, 0.11559679, 0.04496388, -0.01976703, -0.09856827, -0.07664356, 0.17229643, -0.57033443, -0.32362264, 0.12254625, -0.77071834, 0.32055286, 0.09817632, -0.48003066, -0.34369987, -0.39729425, 0.15248396, 0.27032074, -1.53069198, 0.05140324, -0.25663644, 0.25073788, -0.16662939, -1.03470659, 0.10887808, -0.07728638, -0.25733277, -0.57844913, 0.39918599, 0.14146975, -0.69206351, 0.07506602, -0.97470105, 0.22441769, -0.39509407, 0.09902441, -0.08932366, 0.14241445, -0.07779325, -0.31674924, 0.12705885, 0.30237380, -0.89160705, -0.07839936, -0.91216052, 0.35790399, 0.07419916, -0.67853260, -0.94907159, -0.68866754, 0.20132877, -0.97710091, -0.29166737, -1.26756310, -0.36546335, -1.44036782, 0.01111652, 1.15246904, -0.30875751, 0.29367751, -0.32836664, -1.41100085, -0.01720840, -0.04828983, -0.44315636, -0.55353010, -0.90445286, 0.05423214, 0.14766085, -0.05599479, 0.30136585, 0.84343749, 0.12477534, -2.33670497, -1.09107792, -5.27403831, 0.29093164, -0.07893207, -1.25518608, 0.89396441, 0.19003464, -0.02125815, -0.68928730, 0.05712686, 0.30548733, -0.18203229, 0.07270631, 0.30758294, 1.12257695, -0.03905064, 2.07894158, -2.63515282, -1.41869450, -0.02120680, -0.64878571, -0.07817999, -0.09371832, 0.00863044, -2.42545581, 0.02223688, -0.04853669, 1.37529981, 0.52188468, 0.38947678, 0.01148773, -0.17966899, -2.18294835, -0.07966138, 0.18658195, -0.14350340, -0.09048422, 0.03224351, -0.02467408, 0.74894613, -6.86924696, -4.72084665, -0.50551373, -2.04136300, -3.30734515, -0.04878785, -0.70723885, -0.11470828, 0.14549382, 0.21693498, -1.17515397, 0.04983110, 0.48085669, -0.26609823, -0.10589228, 0.07618765, -1.66016388, -4.25437307, 0.18444991, 0.00869665, -0.10034540, 0.15587901, -0.55294955, -0.19785438, 0.13007912, -0.24640009, 0.04382924, 0.09992364, -0.02862558, 0.10099708, -0.10688750, 0.19024888, 0.01752170, 0.08501334, -0.01296742, -0.03871830, -0.27852446, -0.42459193, -0.15874763, 0.09009039, -0.89781988, -0.32257894, -0.25018784, 0.10040656, -0.19327585, -0.01427473, 0.08947914, 0.07958049, 0.16247416, 0.13805687, 0.17684764, -0.42947492, -0.04856667, -0.07822502, -0.02031917, -0.75088686, -0.05773165, 0.02053494, 0.02898039, 0.11686870, -1.37942410, 0.03494279, 0.05869414, -0.02923884, 0.12040076, 0.01640088, -0.69116670, 0.15342498, 0.16625488, 0.04543307, 0.06448834, 0.10330300, -0.93127245, 0.04737337, 0.02801846, 0.09477106, -0.00903934, -0.05907471, 0.17390300, 0.25275156, 0.05494272, 0.00378613, 0.11833417, -0.51820433, 0.10170641, -0.31078923, -0.10912639, -0.28547543, 0.34556651, 0.30971929, 0.03978054, -0.31747088, -0.31539237, -0.67209721, -0.00185460, -0.29363054, 0.29832271, 0.04094629, 0.29093739, 0.06730206, 0.13452026, 0.40203711, -0.21380994, 0.04118524, -1.05671406, 0.07445691, -0.29022828, -0.05260243, 0.24569236, -0.08746842, 0.11571376, 0.28728303, 0.18166308, -0.20314184, 0.05044534, -0.16324165, 0.03637245, 0.31551185, 0.30375671, 0.08961064, 0.25221300, -0.08277268, -0.07623755, 0.16008115, 0.08401138, -0.15181844, 0.05920440, -0.22448803, -0.43088683, -0.01572448, 0.12403730, -0.40060547, -0.44235331, -0.11958314, -0.27144712, -0.03393455, 0.26850432, -0.13830881, 0.11352714, -1.60389709, 0.14735073, -0.01016646, 0.18800244, -0.06497648, 0.22758803, -0.03144170, -0.05359328, 0.13474727, 0.10311300, -0.04696614, 0.21698071, 0.02127885, -0.15555696, 0.01452430, -0.04428216, -0.33322826, 0.06401646, 0.00585065, 0.02896922, 0.12707545, -0.35722011, 0.11207483, -0.07313398, 0.09938574, -0.33891949, 0.71133864, -0.04670675, 0.14572056, -2.83166718, -0.20489766, -3.41827703, 0.19976470, -0.68261325, -0.01669785, 0.48863155, 0.18716536, 0.29603869, -0.05851842, 0.17977577, -0.50028980, 0.16180034, 0.20733792, -0.01791770, 0.48405054, -0.40718001, 0.09077960, 0.18677525, -0.36026946, 0.03435154, -0.02885479, -0.09479798, -0.08380960, 0.04213302, 0.04527438, -1.03278184, -0.64916474, -0.92632425, -0.01985851, 0.22061463, 0.20944180, -0.77102190, 0.01330846, -0.73155117, 0.09955318, 0.14033578, 0.07332425, -0.17050487, 0.15910634, -0.23441142, 0.07603024, 0.29624945, -0.09860351, 0.45794612, 0.96149522, 1.09327638, 0.47630057, -0.23638123, -3.78421450, 0.21097989, -1.22400546, -0.91359794, 0.80041558, 0.21723087, -0.18991415, -0.80145293, 0.32553262, 0.85433030, -0.14410563, -1.92246938, -3.05320072, 0.11725631, 0.49832591, -4.99736881, -1.63743234, -5.73531675, -0.09044769, -0.63106698, 0.02194710, -1.62324536, 0.28535247, -0.64196527, -0.21053138, -0.18221134, -3.90530610, -0.22949955, 0.36007136, 0.37340260, 1.11439466, 0.49363658, 0.28818125, 0.17273144, -0.15684319, 0.55385017, 0.76138866, 0.57684684, 1.17179096, 0.17103708, -3.41999125, -0.31044817, -2.33376408, -1.33389449, -0.97090328, -0.09645700, -1.07182515, -0.38188788, 0.09080100, -2.30170488, -1.22396255, 0.57898086, -0.12252489, -1.50866258, 0.54721856, 0.22018293, -2.92622662, -0.09664088, -0.06022735, -0.54557413, -0.19475409, 1.08768117, 0.37548238, 0.35519627, 0.06605233, -0.09879632, -0.37095451, -0.54530603, -0.40431917, 0.33211210, -1.43862927, 0.04375697, -0.35795018, 0.19408800, -0.86230183, -1.18755698, -2.49963403, 0.14915930, 0.65069783, -1.43677938, -5.52976942, -1.91879249, 0.13220957, 0.30968070, -0.40923440, -1.03271890, 0.37062192, -0.27442232, -0.08083494, -1.39040613, -2.39154124, -0.04600769, 0.37839603, 0.22848113, 0.90897030, 0.05063612, 0.20781560, -1.98055077, -2.31514716, 0.29550228, 0.86250401, 1.02115142, -0.23669638, 0.13904032, -1.66060984, 0.96328396, -0.97823530, -0.54552525, -0.28110698, -1.62773073, 0.48355317, 0.70638800, -1.29346347, -3.09734130, -0.66480887, -0.27727821, 0.09770089, -1.03887999, 0.32061863, -0.10640464, -1.89598143, -0.03921702, 0.03566265, -0.10944068, 0.01627696, -0.85560876, -0.19938891, -0.55703872, -0.02767667, 0.15074004, 0.18236487, -0.00938804, -0.03169520, 0.07305519, 0.14062528, -0.28998408, 0.04174478, 0.19910437, 0.04346545, -0.36596951, -0.58766603, -0.04448776, 0.08424427, -0.44632795, -0.08963813, 0.18070228, 0.08000850, -0.56002283, 0.02998502, 0.11168209, 0.38141376, -0.19164430, 0.02750000, 0.00547721, 0.03701156, -0.12534750, -0.06674447, -0.24330235, 0.65623260, -0.29401812, 0.14271563, 0.08114271, 0.16380942, -1.79672170, -0.74887699, -0.59080136, -0.07012237, 0.09040714, -0.06765092, -0.95313543, 0.23024118, 0.04868336, 0.02972613, 0.09476855, -0.51832920, -0.62332618, 0.03796693, -0.14075556, 0.23251210, 0.20605972, -0.36609787, -0.05458388, -0.01811854, -0.07014588, -0.14542103, -0.00134629, -0.30204523, -0.10882005, -1.12570083, 0.06136298, 0.01188189, 1.42367911, -3.30849218, 0.15060659, -0.08267604, -1.29127705, -1.02949893, -0.03989744, 0.04627766, 1.25744569, 0.10585427, 0.26864505, -0.05762827, 0.88835609, -2.91399097, -5.79449749, -0.05935937, -3.52123666, -2.52590084, -5.54517221, 0.13457541, 1.46152616, 0.13511223, 0.11111455, 0.03864292, -0.52213800, -0.29598895, 0.17798577, -3.54720449, -5.43015480, 0.10615420, -0.11504982, 0.19240171, 0.64593405, -1.12998712, 0.21071334, 0.11266013, -0.00754287, -0.05697083, -0.03463431, -1.42194247, -0.69686604, 0.26871988, 1.72889686, 1.14728606, 1.28220963, 0.10560730, -1.34733582, -6.08540583, 1.53542936, 0.09085663, 0.03976286, -0.99374926, 0.05092663, 0.14625996, 0.49956587, -0.14575504, 0.99771416, -3.18169713, 0.29034233, -0.09207403, 0.27141786, -0.15812461, -0.64240235, 0.52638930, 0.88363981, -0.84069300, -0.11206572, 0.63697755, -0.58506429, -0.38975021, 0.16416121, -0.03823669, 0.49298474, 0.34874657, 0.17841744, -0.03138517, -0.18651302, -3.19523668, 0.02100011, -0.90562886, -4.40000200, -0.15580598, -0.79437935, 0.11387964, 0.55699939, -0.05052441, -2.07690287, 0.36589319, -0.62564427, -0.00011739, 0.07521737, -2.91138840, -1.91738164, -0.04446603, 0.14986748, 0.03888603, 1.45712519, 0.06687280, -0.06997230, 0.29909137, 0.33890820, 0.14521720, -1.36630917, -0.06679374, 0.24690966, -1.21394658, 0.91814572, 0.03116481, 0.64135844, -1.73299086, -0.42890710, -3.94393563, 0.22324705, 0.15522553, 0.34027302, -0.03308083, 0.17220129, -0.01078394, -0.15421708, 0.23290135, 1.29907429, -1.71888077, -0.03935053, -0.04356903, -0.12326820, 0.10824434, 0.04931802, -0.09360886, 0.00129668, -0.08584085, -0.12182711, -0.06819983, -0.12462288, 0.09165558, -0.07924670, -0.09736603, -0.02715742, 0.10499528, 0.09169112, -0.09077159, -0.11331035, 0.10411958, 0.04133904, -0.11154652, 0.03797835, -0.10500474, -0.01976450, -0.11250828, -0.02448705, 0.08971465, 0.00005392, -0.02157374, 0.06563101, -0.12222307, -0.10192756, 0.07086136, -0.11233889, 0.11815698, -0.02251465, 0.07096795, 0.10606533, -0.01676356, -0.00896899, 0.03526660, -0.04598583, 0.10923209, -0.08309986, 0.11813852, -0.06099933, -0.07741790, 0.07286495, -0.07322820, 0.03081992, 0.06361353, -0.05608967, -0.06723480, -0.06345843, 0.03712657, -0.09846168, 0.02275243, 0.04382509, 0.09922898, -0.10437768, -0.07329798, -0.00056326, 0.00044369, 0.00932217, 0.08128808, 0.02008629, -0.01806745, -0.09958134, -0.08421398, -0.07513079, 0.00748157, 0.03428055, -0.12146284, -0.02554186, 0.05891506, -0.05316532, -0.00280825, 0.05886445, 0.08279484, 0.10298631, -0.03350193, 0.07542397, 0.10077789, 0.03768189, 0.06643197, 0.00556185, 0.02502305, -0.05831299, -0.05222857, 0.01708262, -0.09756033, 0.08686958, 0.06822290, -0.11292207, 0.01365338, -0.06565877, 0.03021123, 0.10755601, 0.04646865, -0.09287703, -0.01539486, 0.07711507, 0.00286959, -0.11497086, 0.06181056, -0.05574508, -0.17247541, -0.15002641, 0.08340984, -0.14075546, -0.05644575, -0.08370371, -0.08488039, -0.09418768, -0.09565956, -0.09902460, -0.11845483, 0.00305370, -0.13674377, 0.00301401, -0.05401296, -0.05125998, 0.09245391, 0.06260344, 0.13796082, -0.01393692, -0.05098290, -0.00951411, -0.19650455, 0.09134519, -0.00734697, -0.02827236, 0.17197117, 0.10177075, -0.08408727, -0.01232073, 0.38687536, -0.08484290, 0.15987845, 0.03713833, -0.10253955, 0.07555392, 0.04979329, 0.17452586, -0.11629593, 0.45914468, -0.16354948, 0.10504112, -0.04335163, 0.24627170, 0.10953706, -0.60380656, -0.16141210, 0.22172627, -0.04653491, 0.20278595, -0.07225464, -0.11473301, -0.14652191, 0.12271936, -0.10685931, -0.22663018, 0.05864083, 0.25582197, -0.03720738, -0.07035609, 0.02219058, 0.29077917, 0.04899004, 0.20872289, -0.15332793, -0.02838578, 0.03796411, 0.12054269, 0.28731614, 0.24617083, 0.05726427, -0.30773264, 0.21483320, -0.18527363, -0.24729659, 0.33559081, -0.17812556, -0.00584855, 0.31093249, 0.28488755, 0.03332518, 0.09981920, -0.02460976, 0.03177186, -0.06535769, -0.03697517, 0.22948566, -0.52233660, 0.14545724, 0.08290965, 0.13093999, 0.26688933, 0.16016892, -0.02088947, -1.19369018, 0.31713530, 0.40856671, 0.16363618, -0.40499526, 0.19147107, -0.31050208, -0.71502936, 0.08944967, 0.01415698, 0.22444496, 0.13366838, 0.15893666, -0.11949985, 0.19504638, -0.44951367, 0.21355094, 0.25115904, 0.26366264, 0.00018280, -0.04675217, 0.38964415, 0.28003666, 0.02962617, -0.01409918, 0.31956488, -0.39201641, 0.19786893, 0.09928225, 0.09736726, 0.16200867, 0.00642952, 0.14120531, 0.24474105, 0.00533989, 0.05520121, 0.16083597, -0.06273349, -0.52959740, 0.29313654, -0.66205305, -0.74762595, -0.04401767, -0.39186460, 0.18948090, 0.22421509, -0.01178059, 0.06177914, -1.15708876, -0.84056312, 0.28076619, 0.05355948, 0.17727637, 0.22289039, 0.19591825, 0.12694734, 0.14391477, 0.11785866, 0.05289022, -0.52993482, -0.46381631, -0.62270069, -0.05322465, 0.03867994, 0.06572642, -0.06526489, -0.06950983, 0.06141001, -0.02366121, -0.55184740, 0.10194205, 0.38245606, 0.18221535, -0.34538072, -0.27259508, -0.35823408, -0.20637952, -1.02099311, -0.29904115, -0.31930271, 0.14517310, -0.56334335, 0.17451428, -0.12191189, 0.35014540, -0.74256778, 0.19048434, 0.06505325, 0.99400240, -0.30350715, 0.10155196, 0.27180800, -0.19610533, -0.75684458, 0.34192795, 0.08587831, -0.03418721, -2.25334573, -0.61181670, 0.31411818, -0.21509959, 0.16858284, -0.02333249, -0.90608168, 0.16812839, 0.13802721, 0.01080237, -0.16099754, -5.31254959, -0.73994130, 0.08910317, -0.56898594, -0.02063407, 0.09687133, -0.06952998, -0.04804116, -0.00694078, -0.48096520, -0.17527111, 0.03818143, 0.28940979, 0.09484942, 0.19073446, -0.13696921, 0.19161685, -0.02372406, -1.27936184, -0.06290611, 0.20690347, -0.35976705, -0.11849141, -0.00630903, -0.00031454, 0.17102684, 0.17227675, -0.00315501, -0.09225179, -0.34793049, -0.49846151, 0.25604302, -0.21927017, -0.44874108, 0.36462918, 0.17026916, 0.18801922, -0.00906969, 0.07725751, -2.37413335, 0.01447367, -0.18203685, 0.06894191, 0.00951439, -0.02415297, -0.19608708, -0.03278392, 0.10633288, 0.24191363, 0.09720621, -0.08959810, -0.07680739, 0.03209698, 0.00049431, -0.08013715, -0.06237818, 0.87519008, 0.09025337, -1.60760915, -0.03299826, -0.32528141, 0.09245159, -2.14139032, 0.69728529, 0.07634082, 0.08724955, -0.03722687, -0.03271591, -0.00750368, -0.20267923, 0.02552180, -0.01819823, 0.32096013, 0.14543918, -0.25374198, 0.13381875, -0.02074857, 0.24706712, -0.82346487, -1.30274332, 0.46576226, 0.71415704, -3.19931173, -0.10922753, 0.53800315, -0.59974593, -0.67794919, 0.13581739, -0.17839749, 0.32217991, 0.28848863, -0.03140638, 0.07276174, 0.15034263, -3.62476492, 0.03937422, -1.25709319, -3.47133374, -1.42267942, -2.88949060, 0.09603547, 0.57058042, 0.04722214, -1.36850917, 0.34834075, -0.50422335, -0.19919547, 0.03710603, -2.09280634, -1.81109512, 0.18207398, 0.22992761, -0.48331532, 0.81683499, 0.19314058, -0.02292312, 0.06615391, 0.37110883, -0.18585762, -1.77660179, -0.88116825, 0.15903410, -0.84869951, 0.69469124, -0.02228509, 0.29976928, -1.41051972, -1.05308187, -2.71066761, 0.29152501, 0.08343078, 0.32306677, 0.10152616, 0.25017753, 0.07815463, 0.05613187, 0.01401708, 0.82499617, -1.78626394, 0.16158924, -0.16259529, 0.27822641, 0.64398336, 0.09591597, -0.06493768, -1.00989687, -3.95461655, 0.15403752, 0.02793314, -1.24992764, 0.69396240, 0.02940916, 0.16806909, -0.92238879, 0.21629827, 0.38515967, -0.00991563, -0.00641761, 0.69873595, 1.77614069, 0.08752495, 0.39827660, -2.93010187, -1.38059235, 0.24859783, -0.79430383, 0.06842119, -0.10620010, 0.12258323, -2.31179762, -0.04249242, 0.09055459, 0.69811302, 0.57791710, 0.35488448, -0.02947402, 0.07095258, -1.52517390, 0.01172102, 0.28130430, -0.17471956, -0.02113532, 0.12762657, -0.11387040, 0.60367388, -5.19163036, -3.17303634, -0.35592353, -1.01419902, -1.30974150, 0.05025294, -0.76625431, -0.16315068, 0.09753320, 0.20523864, -1.11941385, -0.02397472, 0.34557149, -0.25319952, 0.02516614, -0.02115627, -1.46826315, -4.43385220, -0.02176856, -0.07363380, 0.09683042, -0.15904540, -0.70442027, 0.29987788, 0.79900694, 0.13061896, -0.18773575, 0.00069333, -0.22404537, -0.16265160, 0.04053995, -0.02131908, 0.16116686, 0.05709575, 0.02570208, -0.25210980, 0.14999062, 0.00094945, -0.00604898, -0.87164181, -0.60745203, -0.73203367, -0.47304189, 0.14318472, 0.47785419, -0.00778817, -0.24025147, 0.02817693, -0.04789788, 0.06364270, 0.07545891, -2.32802963, -1.84845138, 0.31659615, 0.35501751, -0.46563277, 1.06151772, 0.10056646, 0.08197839, 0.05770177, 0.40740266, 0.34660894, -1.29434550, 0.08528593, 0.15210141, -0.05434062, 0.46802264, 0.25738165, 0.30987146, -0.40709051, -0.77368647, -2.29167938, -0.15361477, 0.03536904, 0.39523584, 0.06183723, 0.18911330, 0.17177774, -0.16279906, -0.07475546, 1.15981066, -2.03695226, 0.10292564, -0.04422908, 0.07116631, 0.88612622, -0.00189826, 0.21892373, -0.04183809, -3.26657772, -0.04331337, 0.19960929, -0.04299172, 0.51229900, -0.00808632, -0.29617527, -0.06628488, 0.12813318, 0.35814855, -0.18395969, -0.20574383, -0.43569502, 0.12834869, -0.04598927, -0.26850608, 0.56592512, -0.11376484, 0.06039892, -0.03559565, 0.03025835, -0.36371544, 0.14182928, -0.10459060, -0.19222711, 0.06233107, -0.02547541, -0.14236832, -0.12645856, 0.16494164, 0.20774259, 0.06063126, -0.00327544, -0.04095569, 0.09194705, 0.15283355, 0.14959517, -0.04263295, 1.57209647, 0.02895881, -2.15086603, 0.00054042, -0.95234513, -0.33155280, -0.18957675, 0.36319587, -0.18122111, 0.29944548, 0.02920072, 0.17906365, -0.41212243, 0.28269079, 0.05839697, 0.02701584, 0.28077465, -0.03121014, -0.05651880, 0.00017264, 0.12436076, -0.12824368, 0.63605183, -0.01514574, 0.11812917, -0.27862862, -2.25688958, -0.00529200, -0.76315397, 0.01837241, 0.25927705, 0.05643553, -0.21644084, 0.00390936, -0.09237623, 0.03377681, 0.06400756, -0.24229342, -0.00626031, 0.12860999, 0.03255480, 0.29170892, -0.92669117, -0.04211975, 0.20434920, -0.13632421, -0.04733592, -0.65530080, 0.18164465, 0.05696046, 0.03598025, -0.00855611, -0.10965520, 0.02207299, 0.02521973, 0.22007394, 0.04022697, -1.04139388, 0.13394219, -0.01419291, -0.04446552, -0.10705865, -0.06586052, 0.06405173, 0.73433900, 0.04631776, -1.26734889, -0.10828774, -0.95101607, -0.54126340, -0.75097960, 0.31716684, -0.15864438, 0.27974749, 0.17629567, -0.28862509, -0.96173477, -0.19505925, 0.00158436, -0.20809908, 0.33588988, -0.28489146, -0.05090687, 0.12537125, -0.00745148, 0.12602854, -0.10503148, -0.30874914, 0.00783319, 1.14796054, -0.12932573, 0.04742037, 0.26902583, -0.05383717, -0.01216189, 0.13681467, 0.12558000, 0.61366707, 0.15353696, 0.09137733, -0.13478968, -0.04174680, -0.21103914, -0.34525225, -0.75642967, -1.83857620, 0.00245965, -0.12923726, 0.05924163, 0.79656661, -0.15456660, -0.06197223, 0.08558021, -0.21917973, 0.01502784, 0.02084267, -4.28094578, -3.01930285, 0.06315753, 0.11487148, -0.03752949, 1.28957772, 0.13802505, 0.07340075, 0.08860613, 0.45175415, 0.46776393, -1.02786779, -0.14325839, 0.23376445, -0.07778726, 1.30693853, 0.13036756, 0.27125639, -0.08022299, -0.32572794, -5.31568623, 0.79521430, 0.06868790, 0.20922548, 0.13832524, 0.07468439, -0.37565872, -0.08421741, 0.05432944, 1.22924101, -0.43065691, -0.15931365, -0.10976306, 0.02874335, -0.13633713, 1.59998691, 0.32013202, 0.01153412, -0.00449991, -1.39078820, -0.41686997, 0.16034941, -0.11633840, 0.12579697, -0.99771112, -1.32531023, -0.01558755, -0.00510655, 0.04729873, -2.43162560, -5.40671301, 0.21052067, 1.56680596, -8.19102955, -5.65163136, -3.39132094, -0.07320091, -0.04599834, -0.50562394, 0.66632700, 0.21308257, 0.51883972, -0.18301743, -1.77858388, -2.28033137, 1.20083284, -0.08587666, 0.37288210, 1.27933872, -0.04149948, 0.24568403, -6.97286320, -6.47543621, 0.44827095, 0.98925114, 1.64510310, 0.00000845, 0.06456313, -0.41360721, -0.01868568, -1.01582706, -1.60991478, 1.10290563, 1.86405253, 0.07714040, -0.00733864, -3.88903022, -6.18420029, -0.49706009, -0.12877618, 0.34307963, -1.88362968, 0.17026494, -0.07617409, 0.68299538, 0.04481628, -0.02240399, 0.12502412, -0.02871938, -0.83814335, 0.82715088, 1.01662505, 0.08738517, -0.17590705, 0.17892750, -0.16573578, -0.16490582, 0.03470757, -0.04787726, 0.54678923, 0.10124701, 0.01538709, 0.09584930, 0.56858128, -2.36159420, 0.04585143, -0.96338195, -4.65368509, 0.03416984, -1.86079526, 0.14455204, 1.01176918, 0.05159247, -0.07067825, 0.20393710, -0.50001019, -0.08728123, 0.15165198, -2.51574421, -2.29933357, 0.03844837, 0.14791620, -0.47043493, 0.68338400, 0.03305636, 0.00757619, 0.16838565, 0.67339081, 0.15477717, -1.37026906, 0.01098007, 0.04803969, 0.13142359, 1.50300610, 0.20683013, -0.19377512, -0.13215642, -0.05905116, -3.66307902, 1.33090258, 0.07327523, -0.17174436, -0.06343535, 0.06616670, 0.09190851, 0.17740938, -0.04337358, 0.57989776, -0.27706048, -0.00921140, -0.02020615, 0.32607430, 0.89057851, 0.30458581, -1.79337406, 0.70631957, -4.83703136, -0.06896144, 0.52547199, 0.37017581, 0.63499355, 0.07945113, 0.07669999, 0.13006981, 0.18173467, 0.52787721, 0.21778876, -0.73925012, -5.50549078, -0.06574486, 0.04205402, -5.66810560, -1.93428743, -4.26754808, -0.12162516, 0.28227228, 0.02984289, 0.46058711, -0.08242358, 0.14968702, 0.09707087, 0.06617361, 0.01033695, -0.70527184, -0.05070187, 0.19253248, -0.56506193, 1.13129151, 0.82431489, -0.03478773, 0.03218842, -0.09187926, -0.07121928, -0.07721259, 1.14934444, -0.15569153, -1.18977594, 0.48496574, -0.38228819, -3.47388506, -0.29771280, 0.19694734, -2.96162724, -0.27598310, 0.03944528, 0.32149065, 0.34286746, 0.49115825, -0.14708965, -0.09577034, -0.51169908, 0.81001592, 0.86818892, -0.03305172, -0.53472358, -0.59077376, 0.47916186, 0.33389515, 0.05553445, -0.09950669, -0.17752732, 0.16242307, -0.04397964, -0.21841896, 0.68888479, 0.23208366, -0.60591364, -0.14721026, -0.52706856, -1.46865118, -0.08031588, 0.10294843, 0.62012178, 0.12244386, 0.33165145, 0.62478542, -0.13406822, 0.27257568, 0.05158564, -0.07950573, 0.10470206, -0.08707663, 0.08586457, 0.07797193, -1.15880716, 0.12782127, 0.15930748, 0.29682332, -0.65295112, -0.13100639, 0.24870078, -0.02112840, 0.13874958, -0.20809773, 0.16289115, 0.11786125, 0.24963735, 0.13815977, 0.45173505, -0.05437086, -0.12608647, 0.04577429, -0.89008301, -0.67740434, -0.17104113, 0.80723780, 0.09235229, -0.12516667, 0.20260108, 0.02782898, -0.53337848, -0.15966946, 0.20435372, 0.04353256, -0.73254502, -0.13188569, 0.30290085, 0.11307127, -0.05268990, 0.01497902, 0.02445659, -0.08382868, -0.00713906, -0.00048699, -0.09914122, 0.10056297, -0.11863324, -0.03723868, 0.05416903, -0.10341278, -0.07227229, 0.09503055, 0.10947771, -0.05004063, -0.13203162, 0.02681514, -0.02000524, 0.00020850, -0.12832260, 0.02577166, -0.08450913, -0.04960008, 0.06457319, -0.05414115, 0.00301995, -0.02431651, -0.14181721, 0.10708480, -0.11573160, 0.08405174, 0.01265888, -0.13639617, 0.03724940, 0.04566607, -0.00439523, -0.08924793, 0.01473639, -0.09026752, -0.02847386, -0.00387785, -0.04071536, -0.06022842, 0.01685139, -0.05878639, -0.08688674, -0.13002534, 0.03656171, 0.01786028, -0.06895528, 0.02942029, 0.08643475, -0.02012315, -0.04636861, 0.10486909, 0.04132155, -0.12660553, -0.04608879, 0.06298030, -0.02736485, -0.06259415, -0.01265228, -0.01975868, 0.26246366, 0.11269560, 0.17372687, -0.14687766, 0.34922475, 0.07876610, 0.17489021, -0.13219079, -0.07149400, 0.18141277, 0.06883861, 0.28279388, 0.07731891, -0.07163893, -0.05566600, 0.00004295, 0.29863161, -0.58506590, -4.70438242, 0.11014422, -0.11029935, -6.38670111, -0.08025350, -5.61977768, 0.31878224, -0.02182595, -0.08846628, -0.03236518, 0.15510456, 0.28460339, -0.03328301, 0.21656470, -0.10035145, -0.25206849, -0.32776061, 0.18628691, -0.13600312, 0.05144722, 0.03794932, -0.40975961, 0.05671533, 0.04552404, -0.13683094, 0.27863714, 0.04239139, 0.04558263, 0.27141044, 0.08029064, -0.15862437, -0.50775903, 0.10684904, -0.05866374, -0.01823308, 0.18267459, -0.05065632, -0.13867873, 0.01439966, -0.15741420, 0.02726018, -0.43924278, 0.11364558, 0.20709851, 0.26672059, -0.02781300, -0.04209865, -0.05688094, -0.81341559, 0.04374257, -0.03302976, 0.04834966, -1.87750793, 0.12549534, -0.50543112, -2.08656883, -0.34792888, 0.07432115, -0.02506960, 0.55442566, -0.06233603, -0.00672061, -0.03791499, 0.85004735, 1.64610755, -2.84163237, 0.01416198, -0.41922238, -3.19545364, -3.32651973, 0.34816313, 0.32414937, 0.19452572, 0.02786046, -0.10715080, -0.77646649, 0.23023832, -0.05670428, -0.24453516, -0.96683192, 0.33940279, -0.03278673, 0.11104891, -0.80900842, 0.02158852, 0.35357052, -0.23615494, 0.04117516, -0.00165038, -0.12988837, -1.23489499, -4.62452984, -0.46990651, 0.24735698, 1.75805402, 1.54430926, -0.08784705, -1.77095878, -2.71881390, 0.71241844, 0.24452683, -0.99383330, -0.44954610, 0.06192716, 0.00709443, 0.12946948, -0.09318766, -0.45279610, -4.07625341, 0.19973740, 0.13858084, 0.09858519, 0.15738459, 0.11396016, -0.24140914, -0.72802269, -4.81814528, 0.24594368, -0.78563219, 0.22179294, 0.38226131, -0.02594412, 0.14810823, -0.05430410, 0.17294899, 0.21833421, 0.06841696, 0.02002650, 1.03403974, -0.01520373, 0.34068996, -1.58016157, -4.49092054, -3.65695024, 0.07301529, -0.18819512, -0.04587110, 1.14339805, 0.16876030, 0.21294852, 0.04513366, -0.13604568, -1.76426303, 0.41472614, 0.31392440, 0.21293026, -0.30017018, -2.11007524, 0.34171826, 0.22664168, -0.48261338, -0.21054721, -0.15515985, 0.57521677, -0.27552968, -0.09367408, 0.43128124, -0.49898991, -0.23058918, -1.67730439, 0.89188772, -1.23380411, -0.29117486, 0.29040474, -0.06763028, -1.77077353, 0.09286769, 0.17193660, 0.14049760, -0.14928837, 0.16703106, -1.49706089, -0.49980918, 0.11475674, -0.06695429, -0.10955323, 0.07614689, 0.08669795, -0.01328677, 0.00412795, -0.04725023, -0.10297287, 0.06927612, -0.11827644, -0.12473533, 0.02992934, -0.12408076, 0.02404698, 0.06012268, -0.05007410, 0.02490696, -0.02032956, 0.04001375, 0.09119850, -0.02774204, -0.08987306, 0.01384437, 0.02252055, -0.06420953, 0.07697314, -0.03915637, -0.02412223, -0.01710735, -0.08078368, 0.06878173, 0.11421046, -0.12861930, -0.12422507, -0.06841840, 0.03837523, -0.10161553, 0.08746032, -0.03157704, 0.04122296, -0.04372953, 0.10403814, -0.03591456, -0.08720880, 0.00575814, 0.01542697, -0.02960816, 0.01302588, 0.01335827, -0.03881933, -0.05850136, 0.07980664, -0.12440303, -0.00980386, -0.07869498, -0.08069290, -0.02981061, 0.11637829, -0.08818512, -0.01538038, -0.03544521, -0.08055344, -0.10417616, -0.08238307, -0.23520301, -0.11800436, -1.19367564, 0.02648701, 0.43205550, 0.10884127, 0.27330664, 0.06545606, 0.31194863, -0.12288940, -0.72807467, 0.05268195, -0.08649611, 0.04863822, -0.13172616, -0.14195496, 0.10470078, 0.21325205, -0.82786292, 0.00739557, 0.11540271, -0.11303927, 0.08408469, -1.17748332, 0.21834150, 0.02422522, 0.08156520, 0.24670993, 0.15548484, -0.09087673, -0.19377750, 0.20368190, 0.10122739, -0.22338155, 0.31284520, 0.12023897, -0.11097723, -0.04022922, 0.09670636, 0.21585815, 0.06464309, 0.16431552, 0.09118612, -0.10831748, -1.57227242, 0.28636226, 0.12669094, -0.07075642, -0.22187595, -0.17383067, 0.05131216, -1.77037692, 0.06468113, 0.05703585, 0.05780889, 0.03226925, -0.00469313, -0.04968918, 0.21441974, 0.14545900, -0.12039833, 0.05598928, -0.51730299, 0.15749066, -0.14398667, 0.25690010, 1.16607273, 0.07380417, -0.05164554, -0.57249981, -4.40220499, 0.17358004, -0.18102375, -0.34760994, 1.10763490, 0.16440403, 0.13435122, -0.94947457, 0.32243344, 0.80834144, -0.04178839, -0.95167303, -1.11893392, -1.47702241, -0.10011365, -3.15412068, -1.20370615, -3.41024446, -0.22115408, -0.74068123, -0.06674339, -0.16940750, -0.06562463, -1.70670903, 0.13671711, 0.09690353, -0.46044758, -0.78029269, 0.37571335, -0.14869066, -0.09057879, -0.29798797, -0.01578537, 0.08342861, -0.03900664, 0.06448609, -0.08384340, 0.05085344, 1.60778248, -7.77977085, -4.40501118, -0.28628626, -2.34128046, -2.42933893, -0.02187395, 0.15930158, -0.26447123, -0.36787379, 0.07209511, -0.62706012, 0.09235723, 0.61091644, -0.39752379, -0.65232962, 0.18443418, -0.23562856, -1.66970360, 0.11569349, -0.24597783, 0.01438741, 0.01374556, -0.23091802, 0.28897810, 0.23168559, 0.26172748, -0.11750977, 0.14893256, -0.14917067, -0.28597900, -0.05782353, -0.14361441, 0.00890605, 0.10406450, 0.08105755, -0.07410745, 0.10939584, -0.17774110, 0.09762136, -0.17106551, -0.09023026, 0.21947445, -0.57501072, -0.00050367, 0.24407209, 0.07006184, -0.00480834, 0.10605217, -0.21378729, -0.04337275, 0.13603494, -0.02489391, -0.25771457, -0.02960490, -0.11444902, -0.00383286, 0.07721210, 0.03424601, 0.25698853, 0.07943475, 0.06710414, -0.02185927, -0.03244525, 0.07334261, -0.00796399, -0.05144621, -0.04588900, 0.19845897, -0.09890452, -0.22373092, 0.34761304, 0.24436152, -0.05040008, -0.02063065, 0.08287146, 0.00940270, 0.03265865, 0.06461202, 0.11070989, -0.00680263, 0.28214717, -0.07224654, 0.07838226, 0.03379585, -0.03983871, -0.08534916, -0.73183584, 0.22305216, -0.34597453, -0.16037585, -3.64998817, 0.78048378, 0.40228042, -0.08085642, -0.05205292, 0.40427759, -1.84395730, -0.08474329, -0.02522367, 0.18025127, -0.49755448, -7.46613312, 0.16402194, -0.77799058, -4.67122364, -7.44580269, -5.25994539, 0.06494108, -0.53265554, -0.49322122, 0.96965587, 0.29026023, -0.03460341, 0.09814452, 0.70116526, 0.56368744, -0.44366574, -0.23153093, 0.15300412, -0.96148789, -0.07039134, 0.17397778, 0.52988476, 1.20143557, 0.11422303, 0.05251015, -0.51162243, -0.07240953, 0.14410053, 0.60211438, -0.13175732, 0.38271964, 0.21723875, 1.16340864, -5.67225313, -0.08630438, -0.13843258, -0.92664695, 1.43771505, 0.64714032, -0.06865443, 0.04397998, -0.33986151, -0.01411099, -0.11512307, 1.02199602, -0.71524566, -0.27566615, 0.13735028, -0.46705657, -0.04420548, -0.10420773, 0.72433609, -1.28338981, 0.04359135, -0.37066156, -0.54239702, -0.31784558, 0.12958929, -0.16345580, 0.60793716, 0.03990569, 0.37315878, 0.06942306, 0.27354375, -2.54311156, -3.42862225, -0.04980167, -2.62348843, -1.10979354, -4.25483084, -0.13313191, 0.76736313, -0.03490490, -0.01661211, -0.07436804, 0.09483204, -0.19890444, 0.05383158, -1.96672106, -2.72211552, 0.03082906, -0.10765295, -0.03391769, 0.96523649, 0.03398085, 0.13160032, 0.08084558, 0.04589818, -0.07210709, 0.05870677, -0.06286918, -3.20645666, 1.26806295, 1.04359841, -0.43835449, -0.46823469, -0.14106435, -0.40097541, -4.03039217, 0.96348614, 0.11637755, 0.28989577, -0.32646269, 0.26337951, 0.00268762, 0.31559578, -0.07661572, 0.87966192, -0.47563678, 0.04134223, -0.17574793, 0.35995588, 1.18853891, 1.19424593, 0.55606794, 0.32886150, -3.07795000, 0.10918641, -0.35307702, -0.75973535, 0.97714931, 0.17749441, -0.01990438, -0.32057407, 0.25751531, 0.79052919, -0.14953649, -1.33845913, -3.01021004, 0.12746707, 0.46782807, -3.63046813, -0.46039960, -3.26735663, -0.05062870, 0.00362897, 0.00922728, -1.63014078, 0.27678737, -0.61813879, -0.03770244, -0.11180808, -3.58570504, -0.63661569, 0.24913712, 0.15856120, 1.28163099, 0.93083835, 0.17984459, 0.02985369, -0.05453464, 0.35850903, 0.77046257, 0.49736542, 1.75097430, 0.01526381, -2.95425630, 0.39085504, -1.46642590, -0.44085857, -1.13416362, 0.40633738, 1.51648819, -0.18954067, -0.06153728, -0.76020956, -0.69642031, 0.50556391, -0.05774420, -0.76398796, 0.40677121, 0.74294597, -2.28441644, -0.12851037, -0.06396812, 0.27752185, 0.66699314, 0.08799997, -0.10384908, -1.56105971, -5.10079479, 0.24007992, 0.02514058, -0.81053597, 0.83108008, 0.09981423, 0.04688651, -1.36012590, 0.27512473, 0.46299797, -0.06458094, -0.44587094, -0.25396723, -2.18720341, -0.13670300, -1.50334048, -2.18407559, -1.94118488, 0.15564975, -1.24008691, 0.14745171, -0.03832443, -0.13838317, -2.80060196, 0.11789250, 0.08209360, -0.76137286, -0.39969835, 0.35286584, 0.00567592, 0.02367768, -1.30991173, -0.23493688, 0.18941742, -0.17138423, 0.00053396, -0.04585599, 0.09249782, 0.74682009, -7.08227587, -4.53574610, -0.78902394, -2.45118165, -2.44439244, 0.00081072, -0.32232267, -0.52678418, -0.45860881, 0.11303736, -1.85489285, -0.07986273, 0.45919439, -0.56142455, -0.41798359, 0.00208262, -1.61281049, -3.73047137, 0.12354480, 0.00551262, -0.77393711, 0.07847045, 0.56654882, 0.41427061, -0.06785081, -0.00134481, 1.08184481, -0.46095610, -0.62402689, -0.06197220, -0.63810128, -0.38737786, -0.06299275, -0.14545932, 0.08642039, 1.06739724, -1.66645157, -1.13085258, 0.30396494, 0.57826477, -0.21613342, -1.03135836, 1.17778587, 0.26808214, -0.12697814, 0.30033240, -2.52700615, 0.29081583, -0.71351409, 0.00941862, -3.19606996, -0.37316012, -0.95746452, 1.01443148, -0.02659743, 1.34794354, -0.01905663, 0.02610545, -5.32510757, -2.65033484, -0.04046306, -0.94494927, 0.35057727, 0.03217155, 0.19838086, -1.08389652, -0.00167078, -0.08867709, 0.20677836, -2.22311211, -0.21851590, 0.06499778, -0.13366738, 0.09308202, -1.43311620, -0.91191357, -0.14335750, 0.00628577, -1.68938637, 0.15632333, -0.01786078, -0.71239424, -0.05699787, 0.10460409, 0.17062920, -0.15816729, -0.39747104, 0.03250131, -0.27441686, 0.04204673, 0.08777133, -0.04174762, 0.05853197, -0.06946311, 0.13624309, -0.00099463, 0.13122144, 0.12639369, 0.00155977, -0.04480240, 0.48667616, 0.44944212, -0.16072163, -0.11662064, -0.38089228, -0.62927020, -1.35545695, 0.10187209, 0.27920774, -0.10634515, 0.15140951, 0.09707856, -0.08078253, 0.07099112, -0.02835955, -0.39320588, 0.30794454, 0.25274989, 0.02387013, -1.16235018, -1.09367740, 0.09451808, 0.15667088, -0.10502259, 0.08919743, -0.14298756, 0.18805841, -0.19376369, 0.10701816, 0.36203778, -0.07092201, 0.15059395, -0.21201463, -0.16759938, -0.54189253, -1.02491164, 0.24508727, -0.06382494, -0.53333300, 0.14103138, -0.01918579, 0.23280269, 0.01174251, 0.24150157, -0.82942885, -0.16745435, -0.04912099, 0.27224320, -1.67265165, 0.04125517, 0.01039763, 0.16461319, -0.76881117, -0.11898535, -6.59071493, 1.50313759, 0.18461633, 0.07614093, -0.62909919, 0.41545689, -1.00849164, -0.28274536, -0.04410619, -1.24594688, 1.17708516, -8.59443569, 0.10568272, -0.25403386, -2.06202316, -8.54957771, -6.65144062, -0.00871140, -0.83566523, -2.44710755, 1.02411318, 0.17610738, -0.08231156, 0.13282280, -0.02981369, 1.58783805, -0.87651169, 0.10941035, 0.34916812, -0.54763997, -0.14730898, 0.30090806, 1.39141631, 0.89538884, 0.22131073, 0.75844949, 0.35944015, 0.17114098, 0.18273759, 0.74017859, -0.00385960, 0.99089831, 0.75859213, 1.37847948, -8.17051697, -0.52693725, -0.33656383, -3.70095611, 1.97749972, 1.38427067, -0.08331478, -0.15821370, 1.12108898, 0.42285946, -0.62266344, 0.15532090, -2.32020831, -0.06520654, -0.02479596, 0.07591178, -0.03135807, 0.04215828, 0.11203449, -0.07217421, -0.01623264, -0.13977031, 0.02533161, 0.05760099, 0.00753404, -0.08286217, 0.08709134, 0.00775026, -0.01021896, -0.09429221, -0.12450328, -0.06805377, -0.06362811, -0.11645678, -0.09012786, 0.04261090, -0.08391940, -0.12141707, -0.09405035, 0.00060888, -0.01758700, -0.08082374, -0.12602794, 0.04571266, 0.01320485, -0.11746238, -0.09569698, -0.10956857, 0.06843165, -0.10687402, 0.02453842, 0.08896218, -0.04056647, -0.13789782, -0.00358668, -0.07375919, -0.04769087, 0.05807424, -0.07853878, 0.02825076, -0.03793025, -0.08133899, 0.06683034, -0.01555479, 0.04474039, 0.05308472, 0.11006217, -0.08893126, -0.06885673, -0.03668058, -0.12897541, -0.03340397, -0.00809459, 0.09264773, -0.01840612, -0.03397401, -0.12338918, -0.06620058, 0.23768282, -0.06443319, -0.15707377, 0.26527420, 0.12913969, 0.13306585, -0.02746670, 0.28826019, 0.14058830, -0.06602659, 0.12953065, 0.02390063, 0.05308577, 0.08864559, 0.03513258, 0.14761938, -0.10137346, 0.06573208, -0.19580850, -0.06314419, 0.06095358, 0.04736044, -0.09163104, -0.03344445, 0.15462703, -0.01012847, 0.27112928, 0.19228689, -0.03283476, 0.06310466, -0.03479159, -0.69781077, -0.48674583, -0.02003483, 0.12843965, 0.07393426, -0.45003146, 0.23855335, 0.08867366, -0.00259746, 0.25133628, 0.01624212, 0.26365319, -0.19592863, 0.10668521, 0.36478561, 0.11774033, 0.01877124, -0.27993512, 0.26231617, -0.38549408, -0.14125493, 0.24265680, -0.10781746, -0.14392669, 0.35404301, 0.16332819, -0.08204348, -0.07791615, 0.14039363, 0.07142514, 0.28478712, -0.08345223, -0.02922452, -0.05339342, -0.10811767, -0.04991604, -0.16048312, -0.04052467, -0.36481866, -0.02045289, -0.15609069, -0.11669762, -0.06630670, -0.02533560, 0.00645924, -0.04286449, -0.04601750, 0.00483653, -0.04168533, 0.09661280, -0.35965112, -0.38068563, 0.10566320, -0.52462268, 0.09851428, -0.15144835, -0.10362266, -0.06219494, -0.06357294, -0.13937581, 0.05312729, -0.40880126, -0.00560593, 0.06395173, -0.36053267, -0.26548141, 0.01776344, 0.05494882, -0.10738046, -0.30312550, -0.11144441, 0.11935385, -0.09946489, -0.04212479, -0.10095505, 0.07491439, -0.04493160, -0.01750575, -0.41876295, 0.01061513, -0.17004499, -0.24005574, -0.08845035, 0.07428329, -0.37691924, 0.01398776, 0.10178491, 0.10517769, 0.08665370, -0.06313881, -0.07724027, 0.07975653, -0.00111631, 0.02744855, -0.53611213, 0.04213063, 0.10074670, 0.02797403, -0.19097996, 0.04306370, -0.70486480, 1.22529197, -0.08795748, 0.00053904, 0.26102784, 0.04132979, -0.12944590, 0.09977210, -0.07640609, 0.95215034, -0.02862126, 0.16072872, -0.01906089, 0.49668986, 0.13229460, -5.97069407, 0.35402399, -0.92581302, -0.10735164, 0.65432394, 0.06612445, 1.15452027, 0.02014106, 0.23400354, 0.26140401, 0.03593027, 0.06546698, 0.04301042, -3.25569582, -4.46237421, -0.01875617, -0.38754660, -0.02921261, 1.01592851, -0.10195655, 0.06283417, -0.01997004, 0.22950387, -0.45068508, 0.21791920, -0.21139798, -0.12291971, 0.15754390, 1.35178947, 0.03000688, -0.02316497, 0.03263264, -0.12800243, -6.52470684, 1.16143930, 0.09324660, -0.13874905, 0.09368427, 0.12961492, -0.09602308, 0.39434922, -0.04120935, 0.85373187, 0.08572705, 0.08211374, 0.10032190, 0.02384860, 0.09870058, -0.01376270, -0.56777179, 0.01686108, -0.26149011, 0.05235143, -0.08422534, 0.40881994, 0.01856711, 0.05737137, 0.11411924, -0.16488299, 0.13046500, -0.16287757, 0.21068600, 0.06198657, -0.11594156, -0.04187277, 0.03486739, -0.00225240, 0.17188898, 0.83199447, -0.06609484, 0.10431419, 0.06822501, 0.26630494, -0.65663499, 0.14848992, 0.02556953, 0.06149203, -0.02018284, 0.00062614, -0.31070885, 0.05722606, 0.18446633, -0.07175769, 0.13315377, 0.07219476, 0.07754341, -0.12573986, -0.06799262, 0.11032622, 0.30904582, 0.12608750, 0.39520013, 0.22939520, -0.20238924, -1.35174203, 0.27360132, 0.37391916, -0.34707707, 0.04681729, -0.07559845, -0.02423014, 0.13749063, -0.10901145, 0.09254884, 0.15579836, 0.04175657, -0.22780734, 0.58029163, 0.05376374, 0.05853874, -0.07029904, -0.11050574, -0.05920219, 0.02134008, 0.00042973, 0.11881873, -0.10765484, -0.12551740, -0.06972731, 0.05101958, -0.09408535, -0.01120708, -0.04310352, -0.06440479, 0.08458002, 0.01261738, 0.07012445, 0.02583772, -0.00385636, 0.00137604, -0.02276862, 0.05515967, 0.00320377, 0.02281264, 0.00539703, -0.03334489, -0.06304136, -0.06657407, -0.13679475, 0.03396669, 0.07161048, 0.02488617, 0.01281198, -0.05814788, 0.00611740, 0.01687750, 0.06301017, 0.02414114, 0.05354070, -0.01291180, -0.08778469, -0.02445073, -0.11373497, 0.02744044, -0.10685034, -0.09241506, -0.06547321, -0.03216373, 0.10549153, -0.03684047, -0.01354206, -0.11171369, -0.00540334, -0.10844023, -0.03896024, -0.06870398, 0.03950461, 0.00570560, 0.04569627, -0.04259329, -0.13905606, -0.01468175, -0.01488096, 0.18732312, -0.07727970, -0.01610493, 0.35354722, -0.32493517, -0.07613593, -0.01719118, -0.01309036, 0.37327665, 0.05219883, -0.01535727, -0.03461161, 0.08414248, 0.28421450, 0.00725520, -0.17734715, 0.22888975, 0.12987258, -0.34614518, 0.14565140, -0.01838120, 0.40907285, -0.02732970, 0.11276402, -0.13892820, -0.13107930, -0.08276075, -0.10770614, 0.29472491, -0.06800728, 0.05610540, -0.01736684, 0.05333960, -0.56128782, -0.30938959, -0.19105732, 1.01034045, 0.14552295, -0.01444907, 0.12203372, 0.12466192, -1.35845697, -0.51048762, 0.19936030, -0.03686824, 0.11457042, 0.05565546, -0.57952648, 0.09475166, 0.07058696, -0.14378984, 0.07646650, 0.30945864, -0.50277108, 0.15100920, 0.08629488, 0.06660076, -0.00000410, -0.64508677, 0.35766336, 0.14780116, 0.19105066, 0.03964162, 0.06230097, 0.23259631, 0.08949272, 0.08216323, -1.06003046, 0.29096839, 0.40637037, -0.21094304, -0.25758827, 0.01843891, 0.02769323, 0.15303756, 0.15474951, 0.23582397, -0.57362330, 0.13099934, -0.00780204, 0.07077151, 0.23069511, -0.80768424, -0.00990841, -0.98584706, -1.14175987, -0.37158877, -0.99069929, 0.09843895, -0.06559440, 0.23366818, -0.19757418, 0.07062425, -0.11479454, 0.02177328, 1.53141177, -1.47472894, -0.70529449, -0.11660760, 0.13656962, -1.08080983, -0.18671373, 0.08300874, -0.42110249, -0.05444947, 0.21101300, -0.20774566, -0.71225655, 0.15772426, 0.13443169, 0.19296876, 0.21984497, 0.13649395, -0.13246009, 0.07333179, -0.27872476, -0.18444809, -0.18547127, 0.02170910, -0.06211993, 0.08014383, 0.15566780, 0.07013018, -0.19402868, 0.05649452, -0.35438398, 0.11109699, -0.62927341, 0.17471242, -0.64093143, -0.43703681, 0.01442216, 0.04066594, 0.13966618, 0.23693435, 0.03823540, -0.86901850, -0.12123295, -0.74539232, 0.05464654, -0.54314864, 0.20479667, -0.29083887, -0.65087438, 0.04658383, -0.10054646, -0.04609197, 0.21814619, 0.05942803, -0.30948961, -0.22000788, -0.48712382, 0.22001952, 0.12127192, 0.17300385, -0.42277178, 0.13276556, 0.13248514, -0.05992172, 0.03047658, -0.07332444, 0.17048702, -0.02448431, 0.17817965, 0.12452427, -0.20923050, 0.16267587, 0.17095381, 0.08216474, 0.18457335, 0.10848052, 0.04875837, -0.36166763, 0.00925858, -0.99035168, 0.19563934, -0.61282092, -0.23285376, 0.01344967, -1.05170131, -0.13899946, 0.19870575, 0.12366066, 0.12324628, -1.06143570, -0.59326530, 0.14565998, -0.05398760, 0.12230501, -0.09006879, -0.28243592, 0.23012672, -0.14940172, 0.27339181, 0.89982933, 0.04503385, -0.12271331, -1.36573994, -5.13884830, 0.29776239, -0.40725601, -1.05013943, 0.87589979, 0.19659667, 0.06526905, -1.11401844, 0.29358685, 0.50840354, -0.04034205, -0.46078306, 0.02510706, -1.19314408, 0.06166720, -0.18500142, -2.28932881, -1.92687929, 0.09668476, -0.95693934, 0.07279991, -0.10336652, -0.10738139, -3.03337884, 0.08096436, -0.01849816, -0.02758370, -0.72351092, 0.47757155, -0.03976518, -0.02529761, -1.57875061, -0.04853408, 0.31413165, -0.16668795, -0.00033902, 0.00332602, 0.10404301, 0.90790671, -6.93486547, -4.61201620, -0.67107719, -2.17428207, -2.53256583, 0.02589238, -0.54070348, -0.27788603, -0.22454546, -0.01223973, -1.66537309, -0.10516062, 0.55670506, -0.47990593, -0.47957793, -0.09349562, -1.55672252, -3.94745994, 0.05008372, -0.10746137, 0.46345550, 0.78675520, 0.80942625, 0.55104184, -0.20564888, -4.18122768, 0.09085693, -0.92120790, -0.66763598, 0.65768939, 0.26893079, -0.19506072, -0.53013331, 0.24188189, 0.58134317, -0.19798119, -1.41433346, -3.74645972, 0.27720964, 0.43178400, -3.53057098, -1.31275976, -5.27283430, 0.09776051, -0.59435290, 0.11134585, -1.98706818, 0.34133008, -0.53366530, -0.15283303, -0.05211407, -2.13924265, -0.18171671, 0.20598413, 0.36484161, 1.16429007, 0.43025014, 0.14443889, 0.10022850, -0.08398808, 0.52846432, 0.65816605, 0.21952257, 1.13407528, 0.18484151, -3.54454184, -0.62468827, -2.03699970, -1.16343176, -1.37444460, 0.06325778, 0.29182711, -0.74402261, -0.02886410, -1.64739525, -1.22335458, 0.49245164, -0.07214256, -0.92644286, 0.53241259, 0.20856749, -2.54658818, 0.14880407, -0.25758517, 0.04381751, -0.47251630, -0.08916911, -0.29866096, 0.16108687, -0.91497725, 0.17242654, -0.24547040, -1.53514314, -0.40168506, -0.07002813, -0.11939369, 0.31072038, 0.08706918, 0.28271663, 0.01129531, 0.40443230, 0.28799516, -1.97577953, -0.07542570, 0.04755216, -1.98847854, -1.58816326, 0.03634752, 0.22728561, 0.03874744, -0.19476233, -0.40542093, 0.20527755, -0.26310891, -0.17874676, -0.48827934, -0.57044721, 0.18851449, -0.02227025, -0.15972580, 0.38277948, 0.10199117, 0.29090351, -0.20852274, 0.04179643, 0.11393248, -0.06601163, -0.71060675, -2.36921787, -0.67883903, 0.40013999, -0.00763400, 0.61607498, -0.12095084, -1.17072570, -1.03304720, 0.40000558, 0.03451750, -0.40951645, -0.78920507, 0.09424055, -0.02158618, 0.06923201, -0.45640302, 0.11585012, -1.76504576, 0.08266195, 0.00600840, -0.10644142, 0.12151727, 0.08606613, 0.03457225, -0.09743236, 0.02861185, 0.00819211, -0.03397495, -0.12546638, -0.09480309, -0.08271985, -0.02234972, -0.09850369, 0.11387821, -0.08301678, -0.11846791, -0.04075034, -0.04162768, -0.10586711, 0.10826151, -0.03613442, -0.03873153, 0.02863565, 0.04614083, -0.05547662, -0.01464494, -0.01701981, -0.06469412, -0.05684445, -0.04612513, -0.05185643, 0.03958001, -0.01548855, -0.08362526, 0.09327972, -0.12128302, 0.05669004, -0.00649054, -0.01993664, 0.01430723, 0.07635139, -0.12375268, 0.08385228, -0.05759364, -0.08275308, -0.07410228, -0.02433871, -0.02503502, 0.12433277, -0.04749948, -0.09948616, -0.03393976, 0.08278853, -0.11809635, 0.11343614, -0.12443516, -0.03665680, -0.05156034, -0.06427114, 0.04037514, 0.07906154, 0.10562140, -0.05479689, 0.22364263, -0.14024086, 0.05203167, -1.21871257, 0.44812050, -0.07833877, -0.08692338, -6.64218187, 1.04131806, -0.14758956, 0.06292628, -0.25800422, 0.16365199, 0.02771173, -0.04703602, -0.06768670, -2.69680429, 0.68858010, -6.89029980, 0.13395689, -1.45987487, -3.44651937, -6.92278862, -4.37306833, 0.26375133, -0.17917906, -2.16817021, -0.45295644, 0.32978287, -0.98463655, 0.24710444, -0.93988168, -0.63546747, -1.98277605, -0.05274045, 0.27127671, -0.88706619, -0.01833703, 0.37373585, -3.25985932, -2.56766486, 0.17919540, 0.44685283, -1.25724626, 0.08810335, 0.38985392, 0.00891731, -0.03601796, 0.90810454, 1.04125404, -0.46176699, -7.57262993, -0.04831396, -0.07240504, -1.14197004, -0.62595254, 0.69611520, 0.06734904, -0.18148598, 0.37620059, 0.57679266, -0.03686024, -1.98220706, -2.02277279, 0.10978059, 0.17086893, 0.08863560, -0.39777207, 0.32430288, -0.04872329, -0.21652016, -4.44578171, 0.84392446, -0.96720707, -0.01090528, -0.15068254, -0.12374917, 0.18605754, 0.03323483, -0.14233653, -2.95103264, 1.63869417, -4.11329746, 0.30316785, -0.64990860, -0.20642918, -3.69705057, -1.20839095, 0.14593500, -0.16218561, -0.56311923, -2.43920755, 0.38032135, -1.13919699, 0.13270436, 0.59510338, 0.84719604, -1.25888681, 0.33720833, 0.06005098, 0.34456620, -0.10600396, 0.17099807, -3.16881371, -2.43294859, 0.31662029, -0.09603628, -1.28191078, -0.14629984, 0.35638365, -0.95750630, 0.06148109, 0.61585933, 1.33428514, -2.46923280, -5.52920961, 0.10374098, -0.06464983, 0.14858997, -1.42348444, 0.30277529, 0.07714216, -0.00341542, 1.81589103, 0.34470895, -0.04969285, -4.07130909, -0.03161561, -0.19556330, -0.07310080, -1.43725109, 0.05985696, 0.25029391, 0.65650642, -1.45718563, 0.05562726, -0.31162906, -1.85337758, -0.81074381, 0.05419099, -0.08556329, 0.47100914, 0.11196399, 0.05201425, 0.13669328, 0.61098039, -1.34149933, -3.67141700, -0.06668820, -0.98936957, -3.31643033, -2.99335694, 0.03700170, 0.65888107, 0.24019830, -0.25575450, 0.18805887, -0.77131307, 0.01486533, 0.20050019, -2.31456518, -3.05394769, 0.20227186, -0.01438498, 0.03085640, -0.14400935, 0.00905899, 0.26595563, -0.01957355, 0.01560324, 0.07085615, -0.34869388, -1.68925345, -2.10037470, -0.07299091, 0.91143131, 0.97467697, 1.47784674, -0.11790726, -1.72650254, -3.69067860, 0.97407246, 0.09683569, -0.16608895, -0.71759516, 0.08599021, 0.06929880, 0.37709755, 0.18465459, 0.14066611, -4.60784960, 0.26034182, 0.02073735, 0.25936902, 0.87083232, 0.97991133, 0.21196164, -1.13140535, -3.30697346, 0.30188230, -0.85547560, -0.34016567, 0.89639390, 0.19775707, -0.02602723, -0.92351234, 0.34843445, 0.73069096, -0.16578406, -1.86974680, -0.57140082, 0.12154338, 0.88177592, -3.48988342, -3.40342307, -3.22914267, 0.13606840, -0.59444225, -0.08695965, 0.23082337, 0.19178739, -0.43891552, 0.10534560, -0.15510429, -4.46735144, 0.50067258, 0.49469498, 0.29358852, 0.57436067, -1.14097071, 0.26265594, 0.25483888, -0.25841615, 0.29375103, 0.65611887, 1.18104088, 0.84418571, 0.08821058, -1.70085967, -0.31637761, -1.16244912, -1.43784916, 0.59476572, -0.57281661, -0.10944064, 0.13437320, -0.08136875, -2.91570520, -0.80875194, 0.41409358, -0.03492858, -1.36617470, 0.31783050, -1.23164845, -1.99499786, -0.10871372, -0.01890446, 0.03938874, 0.00627088, 0.05510728, -0.12930384, 0.18383743, -0.03522908, -0.11823166, 0.03734754, 0.17051934, 0.02325614, 0.21265438, 0.00142203, -0.08270319, 0.15873550, -0.06804800, 0.11101842, 0.07030039, 0.43220428, -0.03102980, 0.07511685, -0.43038011, -0.06106481, -1.24395168, 0.07264418, 0.04397438, 0.20029473, 0.06123739, 0.34537295, 0.07076470, 0.03240680, 0.00204138, 0.02398151, -0.14688160, 0.05068526, 0.08474836, -0.14292969, -0.12724878, 0.18632701, -0.21785703, 0.19594902, -0.13271049, -0.10086830, -0.03957336, -0.14045337, -0.23127748, 0.17291355, -0.09916175, 0.15817560, 0.19423710, -0.23056111, -0.25443712, 0.18752868, -0.05857927, 0.22544946, 0.05919248, -0.18688622, -0.05303202, -0.10955042, -0.14382866, 0.15955581, 0.10983495, 0.01840615, -0.03959740, 0.10527512, 0.03252529, 0.09075466, -0.12902637, -0.07527023, -0.02298677, 0.03134225, 0.04348370, 0.02202739, 0.06628525, 0.05942761, -0.01518070, -0.10470622, 0.05013872, -0.13277446, 0.06105854, -0.13840355, -0.04462355, -0.01132119, -0.06254993, -0.00804228, 0.05430342, -0.14632247, 0.08052864, -0.04240384, -0.12752949, -0.06743725, -0.00146116, 0.08719344, -0.04470626, -0.13941164, 0.03990510, 0.09098080, 0.05601018, -0.06279637, -0.12402050, -0.06845329, -0.07293174, -0.13466485, -0.01875899, 0.09986183, 0.04806288, -0.08302709, -0.01173708, 0.00041375, -0.03740800, 0.08317282, -0.09650173, -0.03189486, -0.09694069, -0.01023017, -0.10666072, 0.00157576, 0.06266762, -0.04942173, 0.07692900, 0.05472068, 0.06263389, 0.04640726, 0.00166094, 0.10012281, -0.05073980, 0.04356179, 0.03064343, -0.02226771, 0.28375834, 0.87586731, 0.80071926, 0.48693481, 0.13938721, -3.89862323, 0.03141838, -0.46903992, -0.54149866, 0.67937952, 0.09968857, -0.09026767, -0.33565950, 0.48310050, 0.63980556, -0.06665657, -1.37589419, -4.80271673, 0.14871308, 0.29329824, -2.88615465, -0.03370083, -2.33515716, 0.08760659, -0.30047631, 0.05459272, -2.20553017, 0.23694740, -0.74209100, 0.00734513, -0.01420955, -3.26616740, -0.62042433, 0.01502996, 0.12859260, 1.23385918, 0.98772180, 0.22175542, -0.09064259, 0.01814859, 0.22352700, 0.49699417, 0.07213426, 1.23215759, 0.05123604, -3.09839702, -0.12656614, -1.53015316, -0.28055891, -1.76882482, 0.51890802, 1.13732541, -0.43425733, -0.03966336, -0.47421008, -0.94694877, 0.36458933, -0.13158065, -0.70975661, 0.42958528, 0.88382226, -2.22415447, 0.14898627, 0.01147467, -0.04351288, -0.13918327, -0.05557984, -0.01575578, 0.07393309, 0.23659660, -0.04048609, 0.14377335, 0.09833770, -0.12840874, 0.17901920, 0.08468478, 0.02321676, 0.03304230, 0.02370393, 0.10717463, -0.07461923, -2.92581367, -0.05494374, -0.07162423, -1.48206556, 0.00958127, -2.66834617, -0.00480772, 0.08319561, 0.02333957, -0.13728902, -0.14636178, 0.14073445, -0.17271657, -0.07285060, -0.22307885, -0.28237569, -0.03807617, 0.09344044, -0.15977255, 0.03639070, 0.17362802, -0.11178478, 0.14731637, 0.12744106, -0.09293424, 0.18959972, -0.08878156, -0.12755059, 0.11032006, -0.02226007, 0.00393623, -0.40260625, -0.01244131, 0.17093754, -0.25206375, 0.17165551, 0.12566620, 0.18995380, 0.12697138, -0.00190929, 0.08330923, -0.05466403, -0.10633551, -0.07329255, 0.18045011, 0.14398749
};

static const float net_2_bias[64] = {
  -0.07849758, 0.04557615, -0.09970556, -0.10246696, 0.03199631, -0.01134770, 0.05880184, -0.19070500, -0.18254669, 0.08612490, 0.06555409, 0.06739084, 0.06124191, -0.05193630, -0.10169086, 0.12620415, -0.02544157, -0.03144469, 0.16320752, -0.05683235, 0.00633996, -0.04079626, 0.11519083, 0.09729824, 0.12674205, 0.04874155, -0.00855076, 0.02086799, -0.13973561, 0.27196297, 0.04940397, 0.25230882, -0.07342487, 0.20843785, -0.15778707, -0.11166419, 0.14459783, -0.02524622, -0.15760385, 0.00109308, 0.00728543, -0.01466200, 0.04953702, -0.00882475, 0.10982220, -0.00870148, -0.09970906, 0.09410863, -0.01298989, 0.00047563, 0.23119026, -0.07347824, -0.15722267, 0.09056082, -0.07916781, -0.06031615, 0.20546989, -0.00040277, 0.06227429, -0.13243838, -0.04887199, -0.13568698, -0.02824542, 0.01519802
};

static const float net_4_weight[192] = {
  -0.08003372, -0.43603405, 3.04326844, -2.04321027, -0.30741125, 0.41288653, -0.80114198, -2.92381263, -2.00139022, -0.50814021, 2.68815041, 1.93846464, -0.12133541, 0.03667150, 0.32678285, -0.54112417, -0.94561583, -1.00888193, 2.28500080, -1.86455655, 1.70119727, -0.67077225, -0.85618985, 1.32375002, -1.58010244, 1.77087438, -0.18397643, 0.51032943, -0.09231514, 0.19235612, 1.63050210, -0.99366176, -0.08811793, 0.78272069, -1.98647070, 0.20652547, 2.01101780, 1.31092644, -2.42966294, -2.14294219, -3.11586952, 0.10193892, 1.93860328, -0.09142288, 0.08596608, 0.08485588, 1.46393335, 0.07361396, -0.07284915, -0.37886810, 0.76923692, -0.58591300, -2.22239852, -2.68257141, 1.33403111, 0.00284654, 2.98912764, 1.59359908, 2.25167847, -2.55468965, -0.06939004, 0.00643515, -2.51084042, 0.33507103, -0.07582718, -0.06194173, -0.25559059, 0.37995067, -0.18433447, 0.11561711, -0.22646952, 0.48592550, 0.72734392, -0.08768562, 0.65605241, 0.05195079, 0.00982688, -0.02233719, 0.08786386, -0.12531544, -0.23800765, 0.03294737, -0.41069460, 0.26359197, 0.26657593, 0.21240291, -0.14522445, 0.58506179, 0.94702786, 0.36108190, 0.12523198, 0.07005259, -0.07331950, -0.08550671, -0.11007413, -0.48161745, 0.04246074, 0.04359337, 0.74090296, 0.03243955, 0.08156687, 0.46189052, 0.98309559, 0.20528305, -0.63149947, -0.27599558, 1.23343325, -0.05097334, 0.03456591, 0.05325700, 0.50298661, 0.11404102, 0.03534925, -0.08335223, 0.08773499, -0.06983107, 0.47299209, 0.14911219, 0.23642845, 0.08300338, 0.53158343, 0.18112636, 0.11760604, 0.54854923, 0.07946836, 0.03864880, 0.30555764, -0.04147528, -0.09305329, 0.23695301, 0.55687147, -1.79243755, 0.18682475, 0.07663228, -0.18995191, 0.72898757, 0.42527905, 0.06915209, 0.21666871, 2.18191195, -0.10084313, 0.09891595, -0.18054044, -0.10766246, 0.01396040, 1.23201990, 1.26467478, -1.54217577, 0.22996527, 1.01792920, -0.07854575, 0.52229756, -1.36065125, 0.51569587, 2.51534390, 0.02128683, -0.05622102, -1.00289011, -2.71992230, -2.25683856, -0.09021284, -0.40539771, 0.59277248, 0.21277067, -1.57258022, 0.97617626, 1.37943423, -0.67210370, 1.89480042, -0.86789155, -1.20946884, -0.10840003, -0.31362551, -0.08079444, 0.14613326, 0.39860213, -0.08578629, 0.17418787, -0.21195199, 0.20435721, -1.06678438, 0.81072766, -1.00270820, 0.05249208, 0.36112791, 2.88942051, -1.22324812, -0.94905663, -0.21375267, -0.02061988, 1.95590043, 0.55911231
};

static const float net_4_bias[3] = {
  0.23013264, 0.05950053, -0.13655326
};

static const float input_mean[3] = {0.00000000, 0.00000000, 6749.99951172};
static const float input_std[3]  = {2338.09155273, 2338.09155273, 4214.56005859};
static const float output_mean[3] = {0.00000001, 0.12292606, -0.00000000};
static const float output_std[3]  = {22.14661598, 71.60929108, 22.14662170};
