// Auto-generated field NN weights
// Architecture: [128], activation=relu
// Parameters: 899, FLOPs: 1664
// MAE: 11477.46 Gauss, p99: 58373.0 Gauss

#pragma once

static const float net_0_weight[384] = {
  0.73671502, -0.19274060, -0.88510835, -1.03082883, 0.37924835, -0.69774103, -1.81893694, -0.09148988, 0.30537912, 0.82817000, 0.27655867, 0.57728052, 1.12460113, 0.29981667, 0.13562506, 0.07922775, -0.08735569, -0.65181345, -0.59826452, 0.20550725, 0.62698680, -1.16912067, -0.32810917, 0.32500312, 0.40179965, 0.23898943, -0.46378809, 0.61096573, -0.06382965, -1.37358725, 0.25420803, 0.10623201, 0.44069222, -0.53492403, -0.11669068, -0.08219785, -1.37066281, 0.07900654, -1.06516600, 1.51642025, 0.07924702, -0.56660247, -0.25722232, 0.46216524, -0.10520862, 0.20000505, 0.07960518, 1.39057302, -0.90878654, -0.14054702, 0.79171962, -0.73666632, -0.19983032, -0.15756084, -0.10055802, -0.32548252, 0.48039153, -0.25032574, -0.15692391, 1.29794037, -0.77038324, 0.21161492, -0.82893956, 1.08634424, 0.13147843, 0.50166106, -0.79333252, -0.08516577, -0.45118743, 0.78469110, 0.36747301, -0.37700737, 1.06171298, 0.31452760, -0.15767801, 1.01581860, -0.13147998, 0.00943321, 1.13008738, -0.31913152, -0.58121324, -0.10193278, 0.23932923, 0.92708826, -0.00776524, -0.40966949, -0.01757634, -0.80822372, 0.18209371, 0.27734855, 0.51254082, 0.33825880, 0.70320171, -0.75148773, -0.24416049, 0.61667645, 0.02160541, 0.42072901, 0.29056019, -0.92042804, 0.12175097, -0.51414251, 0.36811650, 0.04608047, -0.13619047, -0.31637117, 0.08045232, -0.73925602, -1.34491146, 0.36179960, 0.14220415, -0.03248889, 0.07118618, -1.09827220, 0.19973591, 0.25136170, -0.35191506, -0.77048695, -0.33773604, 0.21860392, -0.95385659, -0.46392313, 0.77465069, -0.50636095, -0.25568265, -0.24902803, -0.59941274, -0.37229353, -0.34508485, 0.89769804, 0.53245234, 1.02119732, 0.82732099, 0.16149983, -0.83079559, 1.14071059, -0.36041808, -0.54776627, -0.04718246, -0.20448233, 0.41107222, -0.08460077, -0.18834488, 0.15379912, -0.20542213, 0.32322603, -0.30433282, 0.65543783, -0.22970639, 0.12690814, -0.09576652, -0.34460676, 0.55534339, -1.23847306, 0.27546483, -0.49110073, 0.70706904, -0.25355959, 0.70679921, -0.63598084, -0.14879861, -0.86572903, -0.18777874, 0.06890669, 0.70779884, 0.25517091, 0.32018292, 0.93608236, -1.66170049, 0.08515779, 0.58798790, 0.43993792, 0.01993248, -0.42163113, 0.56202310, -0.22819310, -0.30773023, 1.12176061, 0.29354894, -0.04553958, 0.96077383, 0.49274248, 1.17154896, 0.38481405, -0.05965969, -0.19574505, -0.47779018, 0.24333687, -0.10887268, -0.01785705, 0.50287670, 0.13659605, 0.19138661, -0.03761166, -0.11108037, 0.85820138, 0.16984947, 1.03353536, 0.06543276, 0.01842700, 0.06211014, 0.81983835, 0.26902092, 0.31943902, -1.85507286, -0.09510012, 0.00979001, -1.46957541, -0.09116238, -1.16330159, -0.45933321, -0.44939476, -0.49635831, -0.01175481, 0.41121200, -0.01596968, 0.43954903, -0.40178108, -0.39063406, -0.91183090, -0.33103183, -0.40498555, 0.05426702, -0.13748683, -0.26264763, -0.45618218, -0.03993120, 0.60399604, 0.05648792, 0.41734046, -0.04632981, -0.92843336, 0.23891434, -0.34916213, -0.14935268, 0.23769957, 1.38232350, 0.59723121, 0.06831944, 1.24400699, -2.01300836, 0.10322620, -0.04756365, 0.55508393, -0.24909079, -0.75385225, 0.41975120, -0.27117437, 0.97228664, 0.46880266, -0.27781045, 0.19043554, -0.85569280, 0.12867033, -0.86663830, 0.30308235, 0.21157490, -0.64327139, 0.69058478, -0.29625767, -0.62689108, 0.12980284, 0.28474420, -0.07622036, 0.00210133, 0.30361435, -0.37670571, 0.10103890, -0.02012465, 0.11479378, 0.18023692, -0.41789114, -0.01768300, -0.11988061, -0.54779810, 0.69196367, 0.56916869, 0.52629405, 0.22284502, -1.08162868, -0.36211073, 0.52934217, 1.63731170, 0.08294551, 0.23246060, 0.17720900, 0.08998259, -0.85571015, -0.56285477, -0.16392484, 0.58697414, -0.56175202, -0.20673099, -0.72779721, -1.02758563, 0.32302344, 0.64331841, 0.61772454, -0.21227291, -0.74907774, 0.33816135, 0.04465342, -0.90770459, 2.12833643, -0.10873424, 0.47093764, 0.72656173, -0.20859237, 0.25558406, -1.72111630, 0.08560264, 0.29326192, -0.45258337, 0.38028216, 0.37579554, 1.08361173, -0.24230972, 0.59934181, -0.97768009, -0.39302617, 0.79743737, -0.35148048, -0.49321640, 0.21167810, 1.05459523, 0.41766936, 0.39344868, -0.02270367, 0.02538169, 0.11195076, -0.27942911, -0.08518176, -0.53153861, -1.04978764, 0.32578489, 0.28854096, 1.12006068, -0.06319061, -0.65148646, 0.16078085, -0.17738040, -0.02879277, -1.28816700, -0.07070699, 0.77700925, -1.26719260, 0.28158218, 0.78372151, 1.26066899, -0.17734367, 0.53619826, -0.95609862, 0.26543391, 1.12270832, 0.62905067, 0.05719239, -1.27004266, -0.86719048, -0.33357042, 0.28069517, -0.75936973, 0.43191183, 0.80094939, 1.54847550, -0.42356926, 0.13072713, -0.80135435, 0.32202807, 0.94856972, -0.57524788, 0.05811630, -0.94929206, 0.35686988, -0.08470300, 1.41674924, 1.67643309, 0.08708284, 0.47302607, 0.50156856, -0.21408725, 1.13495553, -0.37840602, 0.08796133, -0.81512535
};

static const float net_0_bias[128] = {
  -0.76525098, -0.27458042, 0.12382329, -0.13163975, 0.06246525, -0.49825886, 0.53286833, 0.13494837, -0.49454486, -0.56750244, 0.40161842, -0.60557353, -0.43469745, -0.23426692, -0.10505588, 0.57008469, 0.00304821, 0.19838616, -0.26310790, 0.17865951, 0.10771577, -0.10398561, -0.41387379, 0.36489767, -0.06892736, 0.31005839, 0.18778501, 0.08831229, -0.64365089, 0.49722242, -0.18533057, 0.54119539, -0.39619362, -0.50790864, 0.23991610, -0.12564129, 0.05282241, -0.45300004, 0.11819717, -0.40522799, -0.33796751, -0.57555878, -0.66335100, -0.33991367, -0.70640588, -0.23217678, 0.53962022, 0.15583849, -0.17232740, 0.35793066, -0.36658657, 0.14482975, -0.03129138, -0.68196636, 0.47561774, 0.38787431, 0.24404651, 0.11647395, -0.40080222, -0.01188734, -0.43198881, 0.24775429, 0.27877238, -0.28667495, 0.42164505, 0.03565078, -0.32975212, -0.37606913, 0.00401805, -0.48429596, -0.00986968, -0.65666610, -0.21274525, -0.11771189, 0.14056644, 0.25231308, -0.64463025, 0.40554351, 0.06628957, 0.51591331, -0.01975037, -0.64849246, 0.04869246, 0.03456767, -0.03133489, -0.28103939, 0.31203184, 0.46059531, -0.47220165, 0.46949801, -0.24956441, -0.49513289, 0.00745913, 0.18934627, 0.09482391, -0.57910895, 0.44746652, -0.56570834, -0.17194036, -0.59325957, -0.37591076, 0.19455396, -0.16660066, 0.12172506, 0.00759187, 0.54671496, -0.40767747, -0.01276040, -0.43435842, 0.13166627, 0.27644116, 0.11949404, -0.26489639, -0.02805224, 0.32145444, -0.25339559, -0.19492617, -0.08789528, -0.52319837, -0.49215677, -0.25322199, 0.04424037, -0.01808845, -0.39421996, 0.58239645, 0.19084994, 0.03869603, -0.56712389
};

static const float net_2_weight[384] = {
  1.57589853, 0.23387001, 1.20064414, 0.41467509, -0.37284115, 0.23723471, -0.22522268, -0.27856442, 0.22804651, -1.30273736, -0.13865666, 0.34310460, -1.43741024, 1.21560109, -0.01529006, 0.21181057, -0.64771974, 0.15865517, 0.16360252, -0.25883225, 0.24534836, -0.90654874, -0.96599668, 0.12560834, -0.27282941, 0.18950000, -0.24899781, 0.00582406, -0.01721936, 0.15533954, 0.44516519, 0.18097121, -0.01126616, 1.17642486, 0.04804029, 0.17258267, 0.31185442, 0.04461042, -0.05341813, 0.83672369, 0.71074086, -1.06051445, 0.66475147, 0.57834411, -1.04425836, 0.24856728, -0.13298842, 0.02228086, 0.03325479, -0.22395773, -0.18503357, -0.28061435, -0.43189880, -1.03381443, 0.12241707, -0.13085544, -1.05079293, 0.00056566, -0.18380086, -0.39909479, -0.72290605, 0.00736529, -0.13215256, 0.01687278, -0.07663006, -0.57486093, 0.07524954, -1.14038074, 1.07956994, 1.42460728, -0.17966548, 0.11954767, 0.14232074, -0.25817284, -0.01381533, 0.40966082, -0.10422328, 0.20745984, 0.11086719, 0.67321253, -1.26846218, -0.53141767, -0.33473021, 0.12013692, 0.35255936, -0.14167552, 0.23015688, -0.06912339, 0.02747821, -0.11237083, 0.01122453, 0.03585381, -0.09985466, -0.20423771, 1.09250689, -0.46054518, 0.26882622, 0.85200614, -0.54882866, -0.68232858, 0.88334942, -1.19915617, -0.54713809, -1.25444174, 0.14977120, -0.35229692, -0.71855175, -0.04755625, 0.74237889, -0.05813342, 0.01197931, 0.32745445, -1.19125950, -0.01511801, 1.02826440, 0.75666547, 1.05296803, 0.68180543, 0.92284501, -0.84772867, -0.34304914, 0.35408807, -0.41587001, -0.91787714, -0.51283270, 0.95140368, 0.59405386, 0.80043721, -0.31574389, 0.14599401, -0.05867336, 0.11818969, 0.03092366, 0.02159785, 0.00241964, 0.10625114, 0.07857718, 0.06985708, -0.06802858, 0.11374169, -0.05014448, -0.05309738, -0.13091019, -0.05815689, -0.02829649, 0.07335227, 0.30720323, -0.04250668, -0.09970263, -0.11819497, -0.01416060, 0.07988460, -0.05127264, -0.03797026, 0.05171141, 0.24504131, 1.16225660, -0.10419314, 0.16310365, 0.11319230, 0.20943078, -0.19783902, 0.02130518, 0.02601852, 0.06554926, -0.00745378, 0.11488995, 0.36012924, 0.21399212, -0.62976259, 0.42190194, 0.19595145, -0.22120926, 0.09676003, -0.17943454, 0.00198199, -0.05149784, 0.08312663, -0.64709216, 0.03431704, 0.09755567, -0.23961242, -0.01046121, 0.18175295, 0.00869486, 0.09495572, 0.16879980, 0.13502418, -0.30662173, -0.03934174, 0.10856133, -0.15954112, -0.07195444, 0.00811142, -0.01348037, -0.45511267, -0.02245991, -0.02206148, -0.01682767, 0.84624398, -0.07656918, 0.12986499, -0.15882766, -0.04046194, 0.37177828, -0.03440583, -0.15713029, -0.11739282, -0.01607685, 0.12438613, 0.22700033, -0.07657860, -0.00321488, 0.27956370, -0.06479926, -0.04167274, 0.28682482, -0.00931429, -0.11484266, 0.29877022, -0.11225771, 0.11204063, -0.03700628, -0.15765807, 0.07257558, 0.26064438, 0.15593931, 0.30652577, -0.07149763, 0.00563315, 0.06918784, -0.05314734, -0.07331878, 0.11876801, -0.27757850, -0.16765803, 0.29808089, 0.00007144, 0.08902949, 0.04638944, -0.11834493, -0.09507520, -0.05044233, -0.15225062, -0.03881387, -0.14046924, -0.08577909, -0.32968715, 0.08891894, 0.08915169, 0.19747923, -0.00457155, 0.02260203, -0.09291320, -0.12756965, 0.10190146, -0.95278209, 0.10973470, -0.12328126, 0.13062139, -0.06108227, -1.02075088, 0.01350577, 0.05253881, -0.18593375, 1.68771684, -0.10146546, 0.01131850, -0.60054803, -0.23546030, 0.02180252, 1.12918997, 0.33956310, 0.05081305, -0.49950925, 0.75063527, 0.24407931, -0.25159356, -0.28877497, -0.07836667, 0.00731436, 0.01009948, 0.12806666, 0.53703374, 0.03361592, -0.06993290, 0.30998757, -0.07822160, 0.04091479, 0.36953920, -0.00896650, 0.37346321, -0.01335868, -1.08265817, -0.01104406, -0.14929117, -0.33592048, -0.24183682, 0.22973330, 0.37416738, 0.62491751, -0.02444927, 0.11115723, -0.03773930, 0.04601569, -0.04812241, 0.73160303, 0.01505854, -0.38109019, -0.74038535, -0.32225206, -0.06745331, 0.16207978, 0.05632127, 0.07935794, 0.02153314, -0.52223730, -0.05020541, -0.03701234, -0.01479285, 0.06091888, -0.47926816, 0.08240833, -0.26334417, 0.02087619, 0.65293872, -0.07063138, 0.01346252, -0.03828031, -0.00706588, -0.07538859, -0.31057653, -0.01570815, 0.09288234, -0.90031898, 0.74775666, -0.02491756, 0.44078380, -0.44771382, -0.01211334, 0.23759663, 0.03661090, -0.05213324, -0.05393820, -0.15614603, -0.01970229, 0.02280132, -0.21686022, -0.03706457, 0.06037896, 0.08427198, 1.27617908, -0.16754124, 0.42610526, 0.11981969, 0.41244105, -1.34448314, -0.16673684, -0.16055210, 0.14736603, -0.09741356, -0.09282285, 0.33854112, 0.06031689, 0.19115342, -0.05207827, 0.13053346, -0.09480208, 0.46396744, -0.00053723, -0.41103709, -0.29014054, 0.21120302, -0.43747523, -1.02797782, 0.19359618, 0.19970544, 0.01280780, 0.25495216, -0.86784172, -0.93889368, 0.14215469, 0.60115546, 0.84363467
};

static const float net_2_bias[3] = {
  -0.11879976, -0.03920038, -0.07070034
};

static const float input_mean[3] = {0.00000000, 0.00000000, 6749.99951172};
static const float input_std[3]  = {2338.09155273, 2338.09155273, 4214.56005859};
static const float output_mean[3] = {0.00000001, 0.12292606, -0.00000000};
static const float output_std[3]  = {22.14661598, 71.60929108, 22.14662170};
