// Auto-generated field NN weights
// Architecture: [64], activation=silu
// Parameters: 451, FLOPs: 1024
// MAE: 8655.93 Gauss, p99: 48103.8 Gauss

#pragma once

static const float net_0_weight[192] = {
  -0.02310668, -0.30684307, -0.55831289, -0.16899812, 0.00804012, 0.17579564, -0.84657550, -0.12734812, 0.04589854, 1.94917977, -0.42270285, 0.54962820, -0.37855154, 0.26954332, -0.32420787, -0.85274386, 0.02161458, 0.59562773, -0.00255175, 0.00031465, -0.00348441, -0.01039659, 0.00022002, -0.00480961, -0.25167483, -0.07397234, 0.26747283, -0.38218993, 0.31031936, 0.45071751, -0.45588988, -0.03839964, 0.09087846, 0.36235726, -0.00930309, 0.03418630, 0.03745790, -0.11964539, -0.36871210, -0.00029976, -0.00059897, -0.00019730, -1.71373534, 0.58300143, 1.17235112, 0.33562660, 0.09428003, -0.23096119, 0.91125625, -0.42112029, 0.10151162, -0.00009116, -0.00019449, 0.00023108, -0.68138850, -0.50774449, -0.41733423, 0.14221157, -0.13869865, -0.11185869, 0.76275510, -0.08067312, -0.61536902, 0.29262999, 0.11674904, -0.00520473, 0.23766233, -0.01265036, 0.13287324, -0.64463919, 0.23602104, -0.06518894, 0.04730148, 0.29540217, 0.08917005, 0.42111742, -0.03816776, 0.32696065, -0.12975463, 0.05380731, -0.35181195, -0.68376601, 0.32831207, -0.14816819, 0.56095117, -0.24701534, -0.18780370, 0.26062614, -0.00018197, 0.02202438, 0.09611330, -0.06744485, -0.05345631, -0.57688528, 0.01483780, 0.35573289, 0.02342717, 0.10881334, -0.57486105, 0.01487587, -0.00072754, 0.00100244, -0.29679969, 0.05315323, 0.26605329, -0.08780836, -0.33227414, 0.57276654, 0.40377307, -0.37217641, -0.13470854, -0.09910688, -0.00442636, 0.34526426, 0.52406800, -0.20267262, 0.14931698, -1.00202167, -0.21793725, 0.89351988, 0.50670457, -0.00701142, -0.10433962, -0.11951113, -0.20898780, 0.22800846, -0.22131883, -0.00587657, -0.03751856, 0.37815192, 0.10274233, 0.18488999, 0.35264683, 0.01295990, 0.18496227, -0.49293312, 0.21396630, -0.19645429, 0.43554160, 0.01919889, 0.37481007, -0.52318031, -0.11776140, -0.04823542, 0.61256295, 0.38730782, -0.46407059, -0.51070327, 0.23043819, -0.08481345, -0.15108372, -0.18733458, -0.12041994, 0.81568390, -0.13241997, 0.78460056, 0.49252391, -0.31877673, -0.15612461, -0.18932106, 0.13821442, 0.54452276, -0.26304880, 0.01407211, 0.25209492, 0.35755929, 0.06615708, -0.21410926, 0.88199151, 0.18609253, 0.05682278, 1.33367920, 0.32907727, 0.95106924, 2.01962805, 0.46680406, 0.20099697, 0.36964309, -0.10727656, 0.07640808, 0.74950349, 0.38792798, 0.01924667, 0.57686019, 0.21853897, 0.22497417, 0.09206829, -0.07698240, -0.21709235, -0.25144160, -0.17072725, 0.18168476
};

static const float net_0_bias[64] = {
  -0.22609390, 0.09328272, -0.41614711, 0.18588902, 0.39756268, 0.41381013, -0.00170754, -0.00259160, 0.39899579, 0.03658544, -0.02401415, -0.00274765, -0.06688225, 0.00002747, 0.43772244, -0.01774660, -0.06102603, 0.00007845, -0.62429810, -0.31704932, -0.29224712, -0.07243117, 0.21605119, -0.42442301, 0.42305073, 0.33689344, -0.13354318, -0.46442613, -0.57741523, 0.01223172, 0.21866761, 0.39977822, -0.36277109, 0.00044788, 0.09406486, -0.37090409, -0.08171085, 0.34326643, 0.07784852, 0.27774549, -0.01248849, -0.21060519, 0.01833106, 0.27972245, -0.10875954, -0.47498351, 0.23174123, 0.39142579, -0.66347575, -0.02441559, 0.32297072, 0.18187506, -0.36778751, 0.36646459, 0.15148810, 0.17438592, -0.40729168, 0.39205375, 0.02125014, 0.13228814, -0.07220701, -0.09972300, -0.08900159, 0.42561713
};

static const float net_2_weight[192] = {
  0.03342182, -0.00211902, -0.08733102, -0.18213283, 0.06764330, 0.05954985, -0.00036667, -0.00032376, -0.07771724, 0.01915853, -0.03206604, 0.02079962, -0.08719458, -0.00016294, -0.12852377, -0.07050166, 0.07854966, -0.00001237, -0.08657233, 0.12417658, 0.03367281, -0.04289596, 0.01243304, 0.11720770, -0.02111450, -0.03130336, -0.04332220, 0.07681322, 0.10249623, 0.00051312, 0.02648743, -0.00409324, -0.07433464, 0.00075476, -0.03804779, -0.07849307, 0.12425649, -0.01502678, 0.02972823, 0.18069836, -0.01042110, -0.03771345, -0.00466687, -0.05792061, -0.02793480, 0.10663260, -0.00758589, -0.05056437, -0.05771507, 0.06285868, -0.06602279, -0.01780081, 0.06938827, 0.02150938, -0.00486653, -0.10751796, -0.09372623, 0.11352750, 0.14806381, 0.04019399, -0.13752002, -0.05240132, 0.04345059, -0.04076090, 0.04398960, 0.00061345, -0.07791217, 0.01222507, -0.06122158, -0.11886649, 0.00045683, 0.00066562, 0.01267098, 0.07116593, -0.03385475, 0.00613192, 0.03781301, -0.00068807, 0.04328300, 0.03873550, 0.05887403, -0.00017286, 0.09997214, -0.06925344, -0.11751642, 0.03912306, 0.02761169, -0.04705584, -0.07320545, -0.05006088, -0.07361646, 0.05375814, -0.00795414, 0.00020668, 0.00946474, -0.07701476, 0.00402003, -0.00094030, 0.03265296, 0.06441342, -0.04569053, -0.00899706, 0.00012474, 0.02324336, -0.00308404, -0.00587713, -0.01606259, -0.03858212, -0.00755600, 0.04468510, -0.01569509, -0.04853923, 0.08421441, 0.06584493, -0.07180094, -0.02266096, -0.00817244, 0.00843646, 0.00119445, 0.00409096, -0.04948970, -0.04044243, 0.03287129, -0.03755696, 0.00895270, 0.03412567, -0.07731291, 0.07076031, 0.02770852, -0.00064212, 0.01170558, -0.00903436, 0.01308088, -0.02725602, -0.00074832, -0.00044070, 0.07379206, -0.02768047, -0.00540908, 0.00933571, 0.02162285, 0.00034660, 0.04054675, 0.01664676, 0.05169162, 0.00017946, -0.04101882, 0.06022975, 0.02609437, -0.00051263, 0.04284408, 0.04653494, -0.07461993, -0.04395933, -0.04612199, -0.01050450, -0.10083208, 0.00095109, 0.00451951, -0.04509454, -0.02381080, 0.00113323, -0.03381523, 0.11489381, -0.05332083, 0.03844251, 0.05798072, -0.10084579, 0.00364604, 0.07221322, -0.00117999, 0.02365809, -0.06352126, -0.09200572, -0.01026444, 0.09908516, 0.01187645, 0.02024155, -0.04936104, -0.12212991, -0.04877104, 0.07112185, -0.00238883, 0.03954969, 0.02566951, 0.07939664, -0.00802995, 0.01706945, -0.03418438, -0.02049793, 0.07562608, 0.06333979
};

static const float net_2_bias[3] = {
  0.06980195, 0.08061230, -0.04833141
};

static const float input_mean[3] = {0.00000000, 0.00000000, 6749.99951172};
static const float input_std[3]  = {2338.09155273, 2338.09155273, 4214.56005859};
static const float output_mean[3] = {0.00000001, 0.12292606, -0.00000000};
static const float output_std[3]  = {22.14661598, 71.60929108, 22.14662170};
