// Auto-generated field NN weights
// Architecture: [256, 256, 256], activation=silu
// Parameters: 133379, FLOPs: 268288
// MAE: 4990.16 Gauss, p99: 46547.0 Gauss

#pragma once

static const float net_0_weight[768] = {
  1.63114798, 0.06507128, 0.98103607, -1.29301703, -0.00252749, -0.34185129, 0.96533483, -0.33322442, -0.29537767, -0.92020506, 0.31135318, 0.12566672, -2.08293462, -0.00103667, -0.12972936, 1.98057652, 0.01047362, 0.35337472, -0.31950498, -0.00182002, -0.49981162, -1.72087049, -0.01253117, -0.37114051, -0.24700406, 0.66064852, 0.22701624, -2.40109038, 0.67674714, -0.26595530, -1.14826703, 0.00196573, 0.12399011, 1.36069822, 0.00469675, -0.57683921, 0.81322801, 0.01307629, -1.05431080, -3.24687052, -0.03958078, -0.10259753, -3.38761568, -0.31489447, 1.10086346, -2.48529124, -0.05844414, -0.77252918, -2.26584268, -0.01351509, -0.30698431, -1.23690271, -0.00047242, 0.76246089, -1.24452865, 0.00507805, -0.54145914, -0.63691938, 0.33174300, 0.85675949, -0.32550833, 0.01229365, 0.96617448, -2.84239030, -0.07132044, -1.36044073, -1.56721115, 0.66388166, -0.38182521, -1.12928939, -0.29602772, 0.23654360, -1.37464893, 0.01865679, 0.99135089, 1.75763631, -0.56323779, -0.40759292, -2.98654294, -0.35633123, 0.99691206, 0.13447891, 0.01489277, 0.81181848, -1.30252171, 0.00170753, -0.46098581, -0.02475637, 0.00177946, 0.44929069, 0.01268740, -0.56830734, -0.06019296, 0.04860616, 0.00681936, 0.63152194, 1.21810055, 0.01023239, 0.51386809, 2.55357981, 0.05626782, -0.94389623, -0.63418484, -0.60542130, 1.04335523, 1.12242687, 0.02270144, 0.88788676, 1.01863575, 0.01890397, -1.11902380, -0.35104725, 0.01159631, 0.53432447, -1.57534659, -0.00471664, -0.52788216, 1.40594995, 0.00302581, 0.06310232, 0.43583250, -0.00177581, -0.88967103, 2.16817760, -0.02736384, 1.10608089, 1.69573939, 0.69467574, -0.54024494, -0.14362416, -0.61511528, -0.18566102, 0.76695591, 0.00195987, -0.01070276, -2.31276131, -0.57361841, 1.03969884, 0.95140386, 0.64328414, 0.00626756, -3.04822397, -0.18460226, 0.51808679, 0.11013018, -0.00233066, -0.61472028, -0.34408826, 0.02565642, 0.80117875, 2.03900003, 0.04860675, -0.77668536, -0.38427040, -0.75205654, 0.31639159, -2.10326695, -0.02735956, -1.00967038, -0.18535264, -0.00156554, -0.34448031, 0.80217254, 0.00818490, -0.60198665, -1.51416981, 0.00994328, 0.59140807, -2.11978006, 0.57475334, -0.71371287, 0.27641189, 0.02359055, 0.84986466, 0.29337239, 0.01159311, 0.75755560, -2.57943749, -0.01857615, -0.36081782, 2.82485557, 0.07419711, -0.68417495, -0.11739210, 0.03417370, 0.97522765, 0.24129699, 0.00421114, 0.52700680, -2.02932596, 0.06107169, -0.43697700, 1.60232699, 0.00984674, 0.49599418, -1.17691267, -0.00008914, 1.22121298, -1.76968122, 0.00960239, 0.77010846, -1.09816206, 0.02030311, 0.69477421, 2.14429665, 0.00951824, -0.92214465, -3.54691958, -0.23727731, 0.65550822, -0.34448734, -0.00236507, -0.73668671, 2.21218681, -0.04594881, 1.28554940, -1.67293060, 0.79139847, -0.38101643, 0.42681733, 0.00181001, 0.34790266, -0.03436920, 0.00149498, 0.36999977, 2.83090305, 0.23601846, -0.66512567, 1.22003400, 0.00235193, 0.25513321, 2.89430571, -0.05560023, 1.19355488, -2.14881849, 0.00716270, -0.99113476, 1.23450470, -0.53258926, 0.48667544, 0.28029844, -0.72923470, 0.33858496, 0.64201009, -0.55924201, 0.11072621, -0.36015669, 0.01298975, 0.68788201, 2.36516237, 0.02251941, -0.54092312, -1.43166375, -0.42495161, 0.50546032, 0.83423251, -0.27995330, 0.64416647, 2.10653448, -0.02252690, 1.36506450, 1.31702733, 0.01044402, 0.65116364, -0.21001612, 0.00199330, 0.46595025, 0.78293216, 0.58976328, 0.63821751, -0.06431099, -0.22389677, -0.27313223, -0.00597444, -0.00484642, -0.48366490, 0.27471948, -0.00438293, -0.69557840, -1.96111143, -0.27784494, 0.44466177, 1.12497032, 0.24777272, 0.35216331, 0.32695836, -0.72337085, 0.16675736, -1.20917797, -0.00087648, -0.14228457, 0.63159233, 0.00303182, 1.14258409, -1.28177559, -0.00002737, -0.49073324, 1.15198660, 0.00289258, -0.36717588, -1.71338844, 0.00092161, 0.00314613, -2.99314451, -0.17149377, 1.12531626, 2.56923556, 0.01337821, 0.12995929, 0.18509369, 0.53368908, -0.25879052, -2.70227623, -0.30310452, -0.46756077, -0.83524638, 0.00105541, 0.38574681, 1.19616628, -0.66010374, -0.29182026, -0.12871574, 0.02204387, 0.83505309, -0.96117890, -0.41532144, -0.27776334, -3.11498022, 0.00610580, -0.12116497, 0.73029035, 0.32838398, 0.60419935, -1.14325702, 0.02836333, 0.74679786, -0.98640490, 0.57613391, -0.15547694, 1.73867679, 0.00318979, 0.32352027, 0.68969095, 0.02694880, 1.03873456, -2.85967994, -0.42701793, 0.99193394, 2.06851029, 0.03824072, -1.56655896, -0.07828604, 0.01660192, 0.98515111, 2.39349174, -0.00501344, 1.17139041, -2.27820253, -0.10998157, -0.74438989, -0.40670377, 0.72349036, -0.03610889, 1.33579350, 0.05247414, 0.90187132, 1.14646924, 0.00578483, 0.53588247, -2.55000448, -0.42134485, 0.24563159, -2.45040774, -0.41881019, 0.75061244, -0.04298153, -0.42638740, 0.12787363, 1.54317820, -0.00015938, 0.32427615, -2.77245426, -0.11999992, 1.01098633, 0.60458040, -0.00138692, -0.09611597, 0.90388662, -0.67239481, -0.50514567, 0.78006577, -0.48690671, 0.06272026, -1.57605648, 0.13305520, 0.00343917, 2.95779443, -0.13044372, 0.75892717, 0.32458997, 0.66522676, 0.13415456, -1.99080753, 0.58749384, 0.71454155, -2.68820357, -0.55921263, 0.74654263, -1.17584944, 0.00335547, 0.97351944, -0.12302842, -0.54994762, -0.23502937, 1.43615413, 0.00274087, 0.28955993, 1.71052074, 0.00842289, -0.54093367, 2.04673910, -0.01079272, 0.04670504, -0.44247830, 0.05863049, 1.10581303, 3.10796523, -0.13306724, 1.01084638, -2.01935101, 0.00406378, 0.48575619, 1.45430386, -0.23451625, 0.01343488, -0.03861785, 0.00093444, 0.10098801, -0.42115727, 0.00304198, 0.39518884, 0.19312346, 0.61089712, 0.12478840, 2.08768916, -0.07421973, 0.69916660, 0.62465334, -0.50597620, 0.76948005, -1.65978491, -0.00697823, -0.92011082, 2.99968052, 0.09284458, 0.55765456, -0.36512211, -0.00505842, -0.79371256, 0.35500023, 0.06311024, -0.55778873, -1.21164572, -0.00114147, -0.44793203, 1.63882208, 0.03827746, -0.97983301, 1.87833714, -0.32607162, 0.67812616, -0.94746739, 0.01065925, 0.80462849, -1.95674586, -0.00263407, -0.16910535, 1.11743677, 0.01682850, 0.69759226, -2.12199497, 0.59908074, 0.77076066, 2.33533692, 0.00842417, -0.04368782, -0.14797163, 0.23431778, 0.53607994, -1.87352324, -0.01816560, -0.58293051, 1.79233027, -0.00057680, 0.95310795, 0.21723340, 0.00176532, 0.48348796, 0.34821814, -0.00090574, -0.56236863, 1.96566308, 0.48566273, -0.23697577, -2.79511881, -0.11110256, 0.41376930, 1.64104378, 0.01133173, -0.57579708, -0.47298053, -0.00368988, -0.54490876, 0.54611027, -0.00085057, 0.69993532, -3.13386917, 0.08807481, -1.39332998, 1.23983467, 0.54131645, -0.14606500, -0.16437618, 0.00288683, 1.15725589, 0.91109073, -0.64856035, 0.28745770, 1.71048415, 0.00406661, -0.24396232, -1.22237182, -0.00178186, -0.08807217, 2.31163907, 0.02900952, -0.64507049, 1.11963975, 0.00210302, 0.31905210, 0.41545352, -0.00181388, -1.01452088, 1.64773142, 0.01496104, 0.66430157, -0.24010602, -0.00527941, -0.72898346, 1.54246569, -0.02218422, -1.55415118, 1.85050964, -0.01984852, 1.02798152, 1.79803729, 0.42747959, -0.05456959, 0.77554518, 0.24116828, 0.06137431, -2.28499603, -0.06762188, 0.32661185, 2.44720197, 0.03549898, -0.56450307, -0.15428866, -0.41165870, 0.24146143, 0.92917037, 0.01221448, 0.75913543, -1.78448570, -0.04879856, -0.08541140, 0.31660858, -0.07229807, 1.38210702, -2.47011733, 0.01528225, -1.34715259, 1.28502846, 0.00499725, 0.09414557, -0.51850754, 0.25673681, -0.00865225, -2.51064873, -0.14752688, -0.48919159, -1.32762456, 0.00140179, 0.88129616, 1.90640378, 0.01092853, -0.54657018, -1.29154646, 0.47347257, 0.36129636, 1.49508607, 0.01176809, 0.88721240, -1.72892296, 0.01485778, 0.71935785, 0.02740765, 0.00735034, 0.61750543, -3.21779943, -0.06492534, 0.83549386, 1.20507121, 0.00569320, 0.47564492, 0.18892471, -0.00041773, -0.39934942, -1.62994790, 0.01162261, -0.72560680, -0.42163906, -0.61951935, 0.28228435, -0.99449223, 0.03689475, 0.53123659, -2.57597971, -0.08662186, 0.56878012, 0.01541200, 0.00112635, 0.13757768, -0.76202649, 0.00078906, 0.65397841, 3.02717948, 0.01673816, 0.31803221, -2.83747983, -0.06811628, 1.19994318, -3.05466390, 0.07041794, -1.44421148, -2.01218605, -0.00834434, 0.31261888, -2.90514398, -0.02047836, 0.90594572, -0.80564570, 0.00523526, 0.71433008, 3.25337124, 0.08382171, 2.38342810, -0.83951825, -0.00788228, -0.69997090, 2.46441936, -0.07212661, 1.06851590, -0.96162546, -0.00184146, 0.12391098, 1.30759192, -0.64674628, -0.07031371, 2.46548223, 0.05475350, -0.81196481, 1.17362750, -0.25742382, -0.61603755, -2.49905705, -0.01303795, -0.15955913, 0.46706358, 0.00143109, 0.45721355, 0.56639344, -0.25952345, 0.00536832, -3.35374236, -0.04728262, -0.88103443, -2.17697525, 0.01117957, 0.17936870, -2.76635981, -0.10939278, 0.99586809, -0.32004273, 0.02750689, 1.00795221, -1.25510049, 0.00638749, 1.01080072, 0.06134991, -0.00130855, -0.52445340, 0.00773017, 0.00091719, 0.58147323, -1.15677452, 0.07589857, -0.79330075, 1.13570571, -0.50352925, 0.51629972, 3.21818638, 0.01212411, 1.99179852, -0.88602924, -0.60999817, 0.17065015, 2.28302741, -0.69403929, 0.48728547, 2.27056265, 0.01812635, 0.29377189, -1.51384306, -0.00108322, -0.03136009, -1.08311927, -0.00510087, -0.64744848, 2.79918885, 0.00208096, 1.07127404, 0.89179802, -0.31127965, -0.07770542, 2.51344681, 0.10105180, -0.79606104, 0.53386039, -0.00144932, -0.67309892, -0.08954273, 0.72244275, -0.25485823, 0.65712875, -0.00218405, -1.04730821, -1.86879718, -0.08450241, -0.64237654, 2.00141931, 0.00502526, 0.71913749, -1.06195438, 0.00730501, 0.42127720, -2.81302571, -0.03277634, 0.96123248, -1.24502087, 0.56673694, -0.29901093, -3.23442650, -0.13477860, -0.84719777, -2.75701284, -0.09214817, -0.51833588
};

static const float net_0_bias[256] = {
  0.45137909, -0.14725110, -0.57866400, -0.37541464, -0.07028844, 0.12848175, -0.20200126, -0.12451543, -0.55295360, -0.36089444, 0.03469288, -0.23071955, -0.29977095, -0.08443598, 0.09289721, -0.36948627, -0.12036256, 0.36537284, -0.21310416, 0.26940572, 0.47359595, -0.38175774, -0.45993769, -0.36984941, 0.40080869, -0.67047960, -0.17706408, 0.39050308, -0.18409601, 0.18871044, -0.42381015, 0.26976717, 0.22829983, -0.32755581, -0.37393069, 0.42827725, -0.31323645, 0.23159739, -0.20364539, 0.01262474, -0.32976314, 0.52804124, -0.67277980, -0.58212852, -0.00071859, -0.27440625, -0.60084265, -0.16939546, -0.24815887, 0.38380441, -0.31605285, -0.57223815, -0.25779325, -0.14052112, -0.27291846, 0.26797241, -0.63878661, 0.40337390, 0.34938982, -0.15517774, -0.34830654, 0.49325687, 0.22480668, -0.14772414, 0.21367222, 0.50756603, 0.34375498, 0.32309389, -0.29083714, -0.17259306, -0.28330725, 0.53388757, -0.50122213, 0.14270736, 0.15287784, -0.55347019, 0.09928546, 0.25988039, -0.31817123, 0.00464357, -0.62638009, -0.15023424, 0.30348679, -0.20923577, -0.29856730, 0.20563649, 0.70084977, 0.27130771, 0.19463311, -0.17548445, -0.43587029, -0.19478695, -0.27262685, -0.10401740, -0.04344710, -0.46032721, -0.07364967, 0.49363402, -0.19677459, -0.15381429, -0.01528615, 0.20288718, 0.03638934, -0.47735608, -0.44587451, 0.15360644, -0.55589491, 0.39504662, -0.62885875, -0.08158731, -0.12066244, 0.34965155, -0.48247615, 0.12867282, 0.52213162, 0.06338804, -0.42036971, 0.51054686, 0.39438599, -0.20787962, -0.51645446, 0.49588713, 0.22902165, -0.45500538, -0.15995888, -0.38922504, 0.13495068, 0.34529966, -0.04795510, -0.60313165, -0.54215872, -0.03667440, 0.01983106, -0.40556508, 0.13613209, -0.28348684, 0.46468413, -0.44897857, 0.11998544, -0.21673878, -0.04207126, 0.57048213, 0.10187855, 0.21138006, -0.38218763, 0.03203317, 0.16296962, -0.10372010, 0.32948184, -0.23961483, -0.30860269, -0.07948837, -0.30012414, -0.34816262, -0.18065260, -0.37397358, -0.23506483, 0.38871723, -0.09318875, 0.33259240, -0.05469574, -0.05096854, 0.11876736, -0.22304267, 0.54820907, 0.20190902, -0.22677740, -0.48137775, 0.02488051, -0.22037518, -0.21399923, 0.30238101, -0.44486433, -0.60357702, 0.58909029, -0.32730356, -0.10996109, -0.05842646, -0.23347801, 0.12566243, -0.35365912, 0.31970331, -0.27604306, -0.47979876, 0.45911765, -0.49869937, -0.19911946, 0.17877015, -0.21467216, -0.45954874, 0.36847284, 0.05201879, 0.39403343, -0.36515340, 0.01375436, -0.26661879, 0.08327793, 0.36685473, -0.21173505, -0.41590333, 0.36046606, 0.32575080, 0.27709186, 0.17960370, 0.20478192, -0.17159101, -0.25605714, -0.58794177, 0.23348197, 0.13931106, 0.04917096, 0.27526540, 0.10558943, 0.34594795, -0.41047779, 0.13308272, 0.22151089, 0.32382247, -0.96373576, -0.25818059, 0.41951668, 0.02705886, -0.40191117, -0.24106994, -0.47340372, -0.07209902, 0.18871048, -0.11298608, -0.13859539, 0.05835458, 0.15198584, 0.53236318, 0.53716850, -0.21103831, 0.24578109, -0.37974501, -0.48954323, -0.00365526, -0.52625352, -0.52041882, 0.09637216, -0.02821999, -0.24151011, 0.36193934, -0.47789493, -0.35078731, -0.25858739, -0.65095580, -0.34846103, -0.10336977, 0.26444340, 0.17389680, 0.31973210, -0.30359250, 0.08588955, 0.01923096
};

static const float net_2_weight[65536] = {
  0.02160857, 0.05185275, 0.04954681, 0.03649326, -0.07200827, -0.03520608, -0.00767914, -0.03345581, 0.22944789, 0.21250652, 0.00502712, 0.00634601, -0.07056130, -0.08146681, 0.00558273, -0.02557190, -0.03175337, -0.10414905, 0.01827065, 0.03583089, -0.09223184, -0.14770147, 0.18829392, 0.06536685, -0.04783251, 0.17240046, -0.06690780, -0.08883876, -0.02760137, -0.07262343, 0.20004101, -0.06874787, -0.04429541, -0.19114584, 0.09815288, -0.08470856, -0.15167582, 0.00827025, -0.01191989, -0.01750078, -0.03850049, -0.08291489, 0.19344293, 0.14605622, 0.03780226, 0.10856440, 0.20429143, 0.01309548, 0.03057846, -0.03893045, 0.00831280, 0.27433538, -0.11488035, 0.05090565, -0.04051772, 0.02209816, 0.15601854, -0.10753059, -0.09292328, 0.03054683, -0.13536513, -0.06743409, 0.00383007, -0.00810092, 0.04885656, -0.07855965, -0.11451722, 0.03594512, -0.15898225, -0.05056803, -0.02395718, -0.17650922, 0.28768784, 0.05996002, 0.00093781, 0.01518664, -0.03708530, -0.11624780, 0.02082437, 0.10801026, 0.35814166, 0.11777893, -0.05441354, -0.00389646, 0.06582186, 0.10714708, -0.30040336, -0.06218486, 0.02016510, 0.16956297, 0.04562490, 0.06889026, 0.03922533, 0.06247048, 0.06399059, 0.19602169, -0.02369849, -0.12013829, -0.03377028, 0.04004515, -0.09838644, -0.07426805, -0.02904237, 0.17776974, 0.01116703, -0.03449570, 0.22443345, -0.04950246, 0.13108669, -0.03100465, 0.05508922, -0.09151411, 0.16920377, 0.03592197, -0.11068787, 0.08648342, -0.26149729, -0.09443934, -0.15063779, 0.05682366, 0.20270486, 0.00624702, -0.02204647, 0.10699752, 0.02633424, 0.10413422, -0.04600689, -0.07922512, 0.01988430, 0.12527578, 0.07004932, 0.03118358, -0.05079000, 0.14127171, 0.03966366, 0.16804270, -0.12834056, 0.17892738, 0.05130439, 0.01397574, -0.06565786, -0.02628793, -0.09292695, -0.07095991, 0.03104940, -0.00993392, -0.00786977, 0.09191745, 0.01586176, 0.14456168, -0.05088511, -0.07656431, -0.10015858, 0.06587729, 0.06345294, 0.04213768, 0.02388466, -0.11655384, -0.06937979, -0.04035702, 0.03204657, 0.04073759, 0.09165624, -0.05555341, -0.06948270, -0.03133135, 0.06876945, 0.13720430, -0.04027504, -0.07725543, 0.00648964, 0.00917821, -0.13330355, 0.18023898, -0.08814368, 0.17187403, -0.02559111, 0.00832736, -0.05440031, 0.03600821, -0.01119723, 0.01686860, 0.04279463, -0.23598389, -0.06108571, 0.10489526, 0.09651192, 0.05820784, -0.05935482, 0.13539641, 0.00025184, -0.02975148, -0.10432522, -0.24054603, 0.03489944, 0.08107596, 0.03787366, -0.06499115, -0.02178908, 0.14123921, -0.01062522, -0.05068903, -0.01107885, -0.09457692, 0.02961766, -0.01074278, -0.01827850, 0.20805785, 0.04435011, -0.07636501, -0.01997337, -0.00966785, -0.07591152, -0.16566154, -0.12367751, -0.07098190, -0.09475766, -0.05230490, -0.03633679, 0.05931295, -0.11088419, 0.04132979, 0.10792740, -0.11658778, 0.07198465, -0.05719468, -0.00061069, 0.07639560, -0.17479305, -0.07643145, -0.03170697, -0.12904096, -0.08312410, 0.04376004, -0.03727893, 0.02722510, 0.17298155, -0.14288199, 0.23628438, 0.25218529, -0.05192377, -0.04851709, -0.05819362, -0.23722674, 0.01140124, 0.01163734, -0.00668566, 0.30149207, 0.00166584, -0.03540789, -0.03477567, -0.05903045, -0.19244203, 0.09640271, -0.06690899, -0.05525206, 0.03119178, -0.07075401, 0.04485042, 0.05274431, 0.02407664, 0.04469471, -0.09099369, -0.05411952, 0.16123034, 0.05921973, 0.05150465, -0.01754626, -0.18122424, -0.05574984, -0.15258583, -0.12599367, -0.02854349, -0.08567680, 0.02499388, 0.04793674, -0.12428245, -0.12686725, 0.14523603, 0.02243174, 0.00717570, 0.12314096, -0.05672245, 0.00468963, -0.03244498, 0.02523709, 0.13094911, 0.00991965, -0.00453358, -0.13047454, 0.10493314, -0.10697137, -0.16855505, 0.00715275, -0.06639933, 0.00827233, -0.03209448, -0.23133016, 0.12708813, 0.10945620, 0.07978252, 0.04522918, 0.19770040, -0.00194652, -0.06664390, -0.02188954, -0.06316303, 0.31241554, -0.08190418, 0.01293652, -0.01608216, 0.02958586, 0.09753698, -0.01231190, -0.04258890, -0.10537407, -0.11043375, -0.06381257, 0.11896860, -0.00064236, 0.02776054, -0.21373154, -0.10310268, -0.01268562, -0.13646048, -0.11564881, 0.01270880, -0.20546316, 0.15486819, -0.02289689, 0.00733979, -0.08783690, 0.03855563, -0.10017223, -0.02487630, 0.01695490, 0.21783026, 0.14244762, 0.09102971, -0.02778779, 0.09794493, 0.05461329, -0.27303135, -0.03799495, 0.03676067, 0.12140495, 0.05895052, 0.02614394, -0.08122051, 0.00790873, 0.00366977, 0.24170136, 0.04494329, -0.09633994, -0.03663019, -0.02061589, -0.03315311, -0.17280030, 0.03058771, 0.09049216, 0.05777067, -0.00086425, 0.18194768, 0.03076218, 0.08024805, -0.04601454, 0.07125570, -0.07227702, 0.16360787, 0.04251913, -0.02010933, 0.01379327, -0.35756549, -0.14907080, -0.14564721, 0.06250080, 0.16664937, -0.04390949, -0.00961471, 0.03419268, 0.00631681, 0.09886563, 0.05684069, -0.07825919, -0.04253899, 0.19625872, 0.06510383, -0.01293136, -0.08782908, 0.15230952, 0.10758744, 0.07079996, -0.11053808, 0.16696976, 0.04603013, -0.05815436, -0.05081916, -0.01400906, -0.13371268, -0.00093040, 0.05570603, -0.05267807, 0.07191984, 0.11352876, -0.07983942, 0.10669631, -0.01137565, -0.05325594, -0.03500048, 0.04016393, -0.01635065, -0.06587245, -0.04503755, -0.04381115, -0.01971506, -0.06208210, 0.04485834, 0.05845238, 0.11255580, -0.04449011, -0.11914837, 0.12252718, 0.06793803, 0.10604933, 0.00878510, -0.07729972, -0.06411777, 0.06971775, -0.17099635, 0.16735442, -0.15993215, 0.15786934, 0.07678709, -0.00425336, -0.20134459, 0.04197572, -0.06928614, -0.02443853, -0.08252801, -0.16327454, -0.11787212, 0.10136914, -0.00218263, 0.02502136, -0.11328270, 0.08829166, 0.00254665, -0.00446368, -0.10664464, -0.25232965, 0.00661771, -0.00726049, -0.07605770, -0.00625847, -0.02180777, 0.08100458, -0.03476917, 0.03192862, 0.01270073, -0.11136577, 0.08019144, -0.04461794, -0.08297185, 0.24086595, 0.02454329, -0.09448221, -0.00474452, -0.07238008, -0.08399115, -0.27873725, -0.32479462, 0.00796665, -0.09089413, -0.06130715, -0.05007542, -0.06357208, -0.14726885, -0.01802173, 0.07911453, -0.17707385, 0.05035319, -0.05584723, 0.00002463, -0.01515570, -0.18424073, -0.04174896, -0.08693635, -0.05638953, -0.15108317, -0.01753468, -0.02478683, 0.00057489, 0.09026238, -0.14592884, 0.20219970, 0.10806245, 0.01588056, -0.01300743, 0.02387961, -0.16079184, -0.02380455, -0.07658061, 0.00368422, 0.20439021, -0.00584915, -0.00577116, 0.02173112, 0.06838058, -0.18247087, 0.16637971, -0.07779155, -0.01231533, -0.01153776, -0.01087926, -0.18554597, -0.11417894, -0.04939085, -0.04322460, -0.05476359, -0.05377021, -0.50548297, -0.26148495, 0.04290287, -0.10451151, -0.03349526, -0.16074693, -0.28739613, -0.16814019, -0.06983800, 0.19999439, -0.06058449, -0.11577437, 0.30295968, -0.15329286, -0.27987564, -0.20754007, 0.08260915, -0.28384766, -0.23207836, 0.25537425, -0.02094830, 0.10206096, -0.26220849, 0.05055641, 0.08479016, -0.27032617, -0.36312857, 0.17613217, -0.15336710, 0.03766794, -0.08701126, -0.08552497, -0.13610359, 0.13383393, -0.54372776, -0.34952229, 0.03372679, -0.40938535, -0.48827276, -0.10012704, -0.19210140, 0.13452736, -0.18421666, -0.48633400, 0.00377331, -0.06519642, -0.09270731, 0.17600264, -0.35005763, 0.22121081, 0.25778496, -0.06426014, -0.27160263, 0.21911602, 0.27352977, 0.03006880, -0.02991611, 0.17615497, 0.16710287, 0.21270208, -0.10841796, -0.20503138, -0.19609551, 0.05930538, -0.33541700, 0.02883913, 0.04592040, -0.34889644, -0.02107581, -0.07592974, -0.15404920, -0.16346997, -0.49716774, -0.22793816, 0.04542751, -0.22647901, -0.26763144, -0.09065540, 0.12618202, 0.01409660, 0.11665190, -0.28122213, -0.06670986, -0.05722676, -0.02279941, -0.14807564, -0.20938921, -0.38948822, -0.07868961, 0.17010231, -0.09867361, -0.08543792, -0.03402287, -0.13737595, -0.07415330, -0.32553691, -0.17693338, -0.00213120, -0.33844879, 0.28736383, -0.22432816, -0.02203465, -0.23849893, 0.20795515, -0.32632646, -0.04129611, 0.18269613, -0.26530564, -0.12864012, 0.19972728, -0.08876422, 0.00390475, -0.42955306, 0.07962710, -0.01625235, -0.31589159, -0.24909386, -0.21909617, -0.07273267, -0.09906396, -0.08136756, -0.29691145, -0.28568447, -0.06179005, -0.06649183, -0.44731525, -0.16258220, -0.46579763, 0.33183128, -0.30071050, -0.00605740, -0.07821630, -0.02675876, 0.11740673, -0.08997905, 0.12215577, -0.06222373, 0.04307775, 0.10134765, -0.25034025, -0.01823689, -0.29183623, -0.19985175, -0.20391192, -0.19906637, -0.07458773, -0.03001041, -0.14721298, -0.11738688, 0.22601797, -0.10468545, 0.17527018, -0.13997534, -0.06188270, -0.08409559, -0.03130504, 0.07814491, 0.16747804, -0.06889999, -0.37861219, -0.14903663, -0.16992010, -0.15470001, 0.20762081, -0.09399103, -0.39253730, 0.31019709, -0.25480124, -0.02828703, -0.08947289, -0.21822101, -0.01616120, -0.20411663, -0.03346879, -0.17619734, -0.12810899, 0.05289875, -0.40749449, -0.12769283, -0.06997443, -0.18237390, -0.23110512, 0.10858083, -0.04464195, -0.00486759, -0.12719131, -0.07705723, -0.13818380, -0.04917439, 0.10941743, -0.20142554, -0.30523083, 0.02272007, 0.17138654, 0.32213417, -0.04996571, 0.01438455, -0.02129908, -0.04431920, -0.46049058, 0.04285070, -0.08905082, 0.02494816, 0.17423077, -0.25105819, -0.05168346, -0.13052836, 0.03827193, -0.11051668, 0.18350580, -0.12020332, -0.12589346, -0.03573681, -0.05529203, -0.21595606, -0.13790371, -0.13281305, -0.10663484, 0.01266336, -0.04926790, -0.00587364, -0.02302399, -0.14585869, 0.16706550, 0.24916814, -0.14318122, 0.11911549, -0.13145100, -0.23857576, -0.07884379, -0.36567274, -0.48430666, -0.16060877, 0.00341603, -0.12399466, -0.06908507, -0.13367082, -0.26880729, -0.18996456, -0.48817942, -0.15008409, -0.00009921, -0.06908567, 0.01172581, -0.03087546, -0.27949357, 0.00742560, 0.04613997, 0.00119214, -0.07486539, -0.00499386, 0.01785035, 0.03598141, -0.00233304, -0.04304909, -0.05750474, 0.12744954, 0.08433209, -0.02667219, -0.01895357, -0.05187110, -0.07188179, -0.03656736, -0.08513279, -0.01722425, -0.08770665, 0.00230596, 0.06481801, 0.02103682, -0.04451251, 0.09181642, 0.08251920, -0.08682317, 0.10859568, -0.02421980, -0.01522344, 0.01545911, -0.02106708, 0.08133537, -0.03896281, -0.06684677, -0.09334374, -0.01996981, -0.03671328, -0.13556483, -0.02983038, -0.02895162, 0.00185799, 0.00135976, -0.11890615, 0.11607376, 0.06745536, 0.03290144, 0.05682896, 0.17739528, -0.02634471, -0.04392391, -0.06302290, -0.07044386, 0.24529442, -0.11146954, 0.05179203, 0.02470738, 0.01532541, 0.00077447, -0.07580133, -0.04084234, 0.00499581, -0.08826342, -0.05482762, -0.01090150, -0.07139971, 0.03148481, -0.10177160, -0.01515059, -0.01764553, -0.10866202, -0.04080742, 0.01379191, -0.26230323, 0.09623386, 0.02330438, -0.07697347, -0.07200576, -0.03078361, -0.05154740, -0.09229940, 0.10534628, 0.16964042, 0.09327071, 0.04171268, -0.09411723, 0.06897946, 0.03950434, -0.16134059, -0.00316796, -0.03912003, 0.13777207, 0.04068934, -0.03454110, 0.00158189, 0.00286469, 0.01144157, 0.10061270, 0.02356945, -0.13232873, -0.01099672, -0.05216900, 0.01197027, -0.19809139, -0.03001915, 0.00637996, 0.08215720, 0.00095794, 0.15061204, -0.04323358, 0.01408166, -0.06751408, -0.01404092, -0.05078305, 0.12296049, -0.04740188, -0.09834680, 0.05427647, -0.23223931, -0.05118080, -0.11479310, 0.01092989, 0.15380207, 0.03007895, 0.02474500, -0.01915263, -0.01211223, 0.06927267, 0.03330727, -0.11606585, -0.06631074, 0.06788541, 0.04160467, -0.02817077, -0.04177224, 0.10223636, 0.10773104, 0.09404072, -0.14995979, 0.08505965, -0.06873481, -0.08180893, -0.06633894, 0.04717966, -0.19130787, 0.02264217, 0.01590863, -0.04389124, -0.04169673, 0.12553880, -0.06964768, 0.08651508, -0.04389566, -0.06624500, -0.01308604, 0.05296560, 0.00295395, -0.03262919, -0.05764605, -0.01727853, -0.07099323, -0.07795273, 0.06111079, 0.02870099, 0.03790374, 0.00816884, -0.13802949, -0.10752179, 0.03055220, 0.10844694, 0.01224626, -0.08884937, 0.08153468, -0.03546563, -0.19714636, 0.06473336, -0.15838543, 0.05466863, -0.00438905, -0.01001542, -0.06963070, -0.01647552, -0.01137886, -0.04291488, 0.04589123, -0.11670299, -0.15591043, 0.01623873, -0.00486628, 0.04305591, -0.03032931, -0.00595241, 0.01546744, 0.02082027, -0.03982475, -0.31607723, 0.03942588, -0.02061248, 0.04856836, -0.08470780, 0.02710910, 0.12577267, 0.00941979, -0.03407914, 0.02127490, -0.09576496, -0.09920653, 0.00045277, -0.04444558, 0.12659462, 0.04261746, -0.04666184, 0.04158027, 0.01378263, -0.12605684, -0.23789455, -0.30685306, -0.05442597, -0.11285648, -0.07507754, 0.02775795, 0.01608970, -0.14259052, -0.06577146, 0.11534836, -0.05883000, 0.03161623, -0.01230942, -0.05204939, 0.03222162, -0.07334731, -0.00924505, -0.09270672, -0.10812794, -0.05214107, 0.01089957, -0.05870326, -0.03614318, -0.01583824, -0.17334338, 0.17953284, 0.08890696, -0.05087555, -0.00960373, -0.03421662, -0.13436618, 0.07089107, -0.07377452, 0.00068377, 0.17154510, 0.02752551, -0.04459508, -0.00608049, 0.00037331, -0.23099075, 0.00346943, -0.00858026, 0.02930860, 0.19789250, -0.19400153, -0.10191321, -0.07382623, 0.06622496, -0.15389545, -0.62461323, -0.03827970, -0.09396253, -0.09429149, 0.05986899, -0.62988520, -0.51007813, 0.00615314, -0.07060119, -0.20457664, -0.08702341, 0.55773920, -0.25669771, 0.09819674, 0.67448461, -0.21986620, -0.16588540, -0.06284329, 0.47447044, -0.11986843, -0.03266261, 0.56591350, -0.24587819, 0.87152320, -0.02959864, 0.36667719, 0.23313443, -0.73296785, -0.13982281, 0.39403862, -0.54510397, 0.21276222, -0.26029184, -0.24439423, -1.24671745, 0.22760366, -0.18072946, -0.11611439, -0.07999644, -0.19917782, -0.18480954, -0.03800756, -0.85001373, 0.36023378, -0.53057528, -0.16353099, -0.27535433, -0.35575312, -0.29537061, 0.48579037, -0.12131710, 0.55941641, 0.65725797, -0.10230540, -0.55193597, 0.40639463, 0.75568473, -0.07434598, 0.04224050, 0.76996380, 0.56623751, 0.46227172, -0.76819283, -0.11323323, -1.03496814, 0.21487567, -0.10281691, 0.30617186, 0.62295395, -0.37863928, -0.07536665, 0.00260528, -0.38851917, 0.02297234, -0.16988131, -0.03699794, 0.42558801, -0.77072662, -0.10598353, -0.01144328, 0.37015882, 0.23187380, 0.72662407, -0.05750966, -0.11981843, -0.30813751, -0.75980723, 0.02406673, -0.07969064, -0.15586992, -0.06483140, 0.92342108, -0.29999283, -0.61585480, 0.12163451, 0.00222303, -0.28881130, -0.14106137, -0.10903075, 0.32718718, -0.12089219, 0.68106234, -0.08465663, -0.02740098, 0.01954842, 0.46004549, -0.17583369, -0.08535647, 0.49869999, -0.03828811, -0.74317783, 0.41702223, 0.10908376, -0.07606799, -0.09160005, 0.15044017, 0.22826070, -0.07606795, -0.04308740, -0.02288013, -0.09402782, 0.09088741, -0.03164076, -0.09342431, -0.08462059, 0.03847774, 0.00323400, -0.09650399, -0.03287705, -0.10389069, 0.85249567, -0.02467272, -0.10920408, -0.62415415, -0.03542932, 0.31700104, -0.02446426, 0.45213977, -0.11901803, 0.00876771, 0.34390917, -0.09860846, 0.06397182, -0.03122297, -0.43198058, -0.03046243, -1.08979893, -0.18156312, -0.21783982, -0.62900949, -0.09582057, 0.52113962, -0.01580640, 0.25996846, -0.08481337, -0.25529015, -0.01270960, -0.18532039, 0.14293528, 0.66577780, -0.73260599, -0.21405576, -0.01021442, -0.78137916, -0.77193713, 0.80086118, -0.25443932, -0.15485545, 0.68359351, -0.10792322, -0.41469961, -0.02668845, -0.74042422, 0.01144366, -1.03627563, 0.07992921, -0.99459624, -0.79375243, 0.36385724, -0.22144897, -0.03325038, 0.10730697, -0.66630220, -0.05362052, 0.35353693, -0.03725757, 0.16533117, -0.37001684, -0.14480013, -0.00463126, -0.05356473, 0.69641876, -0.78049546, -0.11494955, 0.27014381, 0.56574225, 0.66661716, 0.05903242, 0.12055340, -0.13238819, -0.25515607, -0.16391994, 0.17901368, 0.01781388, 0.06417699, 0.61378926, -0.40998042, 0.19182283, -0.32212108, 0.18910918, 0.06708142, 0.47888651, -0.09762099, -0.63096827, 0.10393160, 0.03687835, -0.06317884, -0.57347602, -0.09800919, -0.01336315, 0.28978467, -0.03742554, -0.18679048, 0.21651290, 0.08779086, 0.35516235, 0.40537363, -1.10731816, 0.74799007, -0.15584981, -0.07245518, -0.05326045, -0.14447872, -0.22538717, -0.23650125, 0.12743393, -0.51561135, 0.06674497, -0.12513097, -0.37364385, -1.24306631, -0.15443967, -0.87283701, -0.05618465, 0.14822015, 0.45223880, 0.19573411, -0.09431791, -0.04374433, -0.09701844, 0.01002639, -0.00068704, 0.00604132, 0.02670467, -0.08474112, -0.06687943, 0.19387200, -0.05779418, 0.13637009, -0.00986341, -0.11208762, 0.05964193, -0.11601136, -0.15891409, -0.11573739, 0.03632841, -0.06586035, -0.18124934, -0.02076034, 0.01326607, -0.35220250, -0.02790617, 0.11983851, 0.03298159, -0.14357826, 0.17887773, -0.05973494, -0.20863809, 0.03398362, -0.45466128, 0.17202811, -0.16584048, -0.15434793, -0.11933812, 0.01472280, -0.25444818, -0.12371130, -0.15160708, 0.01166567, 0.02541521, 0.19265272, -0.40362078, 0.11777113, 0.17997181, 0.14603393, -0.06990339, 0.20527029, -0.00797782, 0.32897931, -0.08179403, -0.03858646, 0.20921580, -0.02569458, 0.18865176, 0.16293298, -0.21647486, -0.06952658, -0.21903127, -0.25603279, 0.01707917, -0.04792723, -0.15947551, -0.40862837, -0.04245429, -0.08305393, -0.51337606, -0.26597151, -0.17505154, -0.01284576, -0.14706784, 0.25697288, -0.45700973, 0.14339873, -0.12285031, -0.39812580, -0.05494928, 0.02837595, -0.15369870, 0.04626845, 0.02246946, 0.19985262, 0.14315474, -0.15271987, 0.08598973, 0.07843545, 0.00846142, -0.50131422, -0.17910048, -0.30115226, 0.16502437, 0.02406229, 0.09669353, 0.15009274, 0.01914034, 0.07786604, 0.15002838, -0.03628812, -0.52030754, 0.15144493, 0.15744685, -0.05110332, -0.17932068, 0.00471631, 0.02097207, 0.09295257, -0.18836938, 0.22467946, -0.19436011, 0.16089480, -0.21993454, 0.09617403, -0.20058960, 0.08625987, -0.02832546, -0.22534762, -0.02471519, -0.20546301, -0.22189118, -0.21810161, 0.11680548, 0.11331878, -0.10124735, -0.16286226, 0.06607614, -0.08169745, 0.12386107, -0.04352790, -0.24273781, 0.10379570, 0.13597302, 0.08393463, 0.01970489, -0.09485526, 0.10283709, 0.08368468, 0.03808208, -0.43304873, 0.15756398, -0.03264469, 0.07176255, -0.07133845, -0.11708242, -0.26308697, -0.23388407, -0.05360216, -0.06673557, -0.20610905, 0.05148613, -0.06690741, 0.04511685, 0.07375838, -0.06599442, 0.28853777, 0.02404165, 0.11083227, 0.09280082, -0.04744358, -0.17251125, -0.07010318, -0.16633253, 0.09344400, 0.06986953, -0.00026708, 0.05430580, -0.24792087, -0.26840794, 0.20171276, 0.02954029, -0.12287736, 0.03474887, 0.25915581, -0.31327936, -0.16092132, 0.09375498, -0.41308880, 0.10806549, 0.00142393, -0.11722668, -0.03044397, -0.04314550, 0.24409562, -0.09080096, 0.33160287, 0.05153547, -0.29176193, 0.05529076, -0.00319208, -0.07966746, 0.00668018, 0.07144608, -0.21468192, 0.02761869, -0.14683858, -0.12756625, 0.04487232, -0.03320702, 0.01105756, -0.32423073, 0.08561511, 0.02273980, -0.27022800, -0.28739354, -0.28953716, -0.24937008, -0.08297779, 0.20530917, 0.01363579, 0.20242423, -0.11450302, -0.08517964, -0.05612005, -0.30167827, -0.13223650, -0.30166423, -0.22980057, -0.20266761, -0.21351171, -0.19673432, 0.02301868, 0.20711847, -0.25879440, -0.05096246, 0.13071828, -0.04227445, 0.07479962, -0.10122483, -0.16360232, 0.00454864, -0.07130985, -0.19347987, -0.17707899, -0.23332648, -0.30180010, 0.37382686, -0.38557714, 0.04323823, 0.02719343, -0.14334640, 0.16946858, 0.05929462, -0.05736872, -0.11849676, 0.15462142, -0.37991112, 0.00492436, 0.00923754, 0.25400266, 0.15165031, 0.27710897, 0.00065575, -0.17839040, -0.10931031, -0.36035427, 0.05774929, -0.00580696, -0.07297877, -0.23508321, 0.15063256, -0.04540132, -0.22610624, -0.11063384, -0.01180504, 0.47184882, 0.08995165, -0.37911287, -0.36805609, 0.00359069, 0.34047300, 0.50718468, -0.27120793, -0.56938887, -0.03057037, -0.07194842, -0.69125414, 0.22181810, -0.27484050, -1.15971351, 0.33227995, -0.35086277, -0.15878443, -0.41953415, -0.06920808, -0.36771247, -0.82627553, 0.26997131, -0.67086029, -0.11452984, -0.32765302, -0.25220886, 0.36143181, -0.51763213, -0.55657732, 0.52960283, -0.16219321, 0.18582089, -0.06272841, 1.01660419, -0.39673623, -0.28954089, -0.18657443, -0.10080455, -0.66521025, -0.35410503, -0.27405962, 0.46635959, -0.47021219, 0.21387422, -0.42805421, 0.32446164, 0.17057249, 0.19080722, -0.66014761, -0.36989421, -0.99697918, -0.86353064, -0.00965848, 0.18588242, -0.71995902, -0.73128366, -0.00628367, -0.10899849, -0.78407973, -0.85411292, -0.65163350, 0.41057768, -0.33454004, 1.00088573, -0.39256895, -0.39090377, -0.13171421, -0.42169058, -0.04485460, -0.05935170, -0.20239146, 0.28140104, -0.11150049, -0.45718813, -0.12921287, -0.39185429, 0.35702389, -0.33166781, -0.10526197, -0.49499542, -0.31790522, -0.51276785, -0.32750326, -0.05436505, 0.22314790, 0.34958518, -0.22463693, -0.19189546, -0.32922307, 0.03048989, -0.89063340, 0.33907434, 0.27563247, -0.14948983, -0.50179899, -0.01037470, -0.18197185, -0.07814579, -0.06867096, -0.18411469, -1.09039330, -0.11929569, -0.19216792, -0.18804537, -0.99494773, -0.26056707, -0.07531044, -0.76949179, -0.45406529, 0.68479270, -0.71199304, -0.32201159, 0.07440700, -0.33608338, -0.23716141, -0.32135904, -0.33431891, -0.49516538, -0.10729440, -0.15461385, -0.49969932, 0.03063161, -0.09103439, -0.23223813, -0.13387614, -0.11875524, -0.30217972, -0.28338286, -0.59309739, -1.35707319, -0.08212983, -0.02692366, 0.26668715, -0.01311696, -0.52508879, -0.15255451, -0.62743527, 0.00457954, -0.02238213, -0.15713859, -0.25522867, -0.11704545, -0.35769242, 0.61104298, -0.08813162, 1.23446262, 0.01753774, 0.26624095, 0.28940174, -0.17544630, -0.72040933, -0.00143707, -0.36296692, -0.33509666, 0.02166796, -0.12764554, 0.12817352, -0.20055757, -0.52578652, 0.41948771, -0.20732425, -0.32339081, 0.49085695, 0.85223782, -0.64999580, 0.18737763, -0.20710090, -1.18247330, -0.28606263, 0.09352665, 0.08974987, 0.35285401, -0.10420178, 0.90523970, -0.16405128, 1.06586468, 0.78440988, -0.46899563, -0.24260761, -0.05542894, -0.02160591, 0.33768985, -0.19021210, -0.36368346, 0.06930861, -0.23633459, 0.33229837, -0.05332141, -0.10207174, 0.10595166, -0.62138259, 0.40601790, -0.31085169, -0.35967410, -0.89311749, -0.83830202, -0.35112801, -0.19519828, 0.13443644, 0.21719249, -0.32852688, -0.25867981, -0.29540247, -0.07867040, -0.50186795, -0.05690559, -0.54829687, 0.17176573, -0.18306565, -0.23113608, -0.48243722, 0.01098113, 0.80988127, -0.22971725, 0.02425304, -0.14055705, 0.36571816, 0.08295982, -0.08491720, -0.25571099, -0.04986199, 0.06382594, -0.25274888, -0.27637741, -0.50645792, -0.75345051, 0.91053271, -0.50346541, 0.05475781, -0.27397189, -0.06538673, -0.37978187, -0.38140401, -0.04739830, 0.02260677, 0.60708660, -0.33233264, -0.09432159, 0.17154060, 0.92100221, -0.39436576, 0.93238914, 0.09963748, -0.22174478, -0.42162070, -0.55208421, -0.23149216, 0.01418690, 0.00634262, 0.04075458, -0.19408242, 0.00395160, -0.06970884, -0.02487953, -0.03018962, -0.22463408, -0.14269164, -0.10652730, -0.05484672, 0.03375798, -0.10591903, -0.19228588, -0.19382219, -0.14203320, -0.17479134, -0.15781675, 0.15529473, -0.14127658, -0.01338495, 0.23352657, -0.09289438, -0.05850324, -0.03385666, 0.03803248, -0.10725262, -0.11907581, 0.19913739, -0.10831629, 0.18279366, -0.01304166, 0.09285583, 0.00447612, -0.20639347, -0.19021462, 0.05237011, -0.15682511, 0.10783057, -0.17335966, -0.07969718, -0.12174329, 0.02944256, -0.08703873, -0.06363038, -0.03328787, -0.21673644, -0.11252537, -0.09298719, -0.18699846, 0.10380789, -0.17078874, -0.06887543, -0.11783917, -0.15200765, -0.14727007, 0.21116427, -0.10492171, 0.13626306, 0.24037439, -0.17719291, -0.13393943, 0.10539915, 0.22524148, -0.05912473, 0.03292531, 0.06258033, 0.04455611, 0.11522377, -0.19311345, -0.16379584, -0.24784198, -0.06863908, -0.17086692, -0.01751717, 0.19197603, -0.19499312, -0.08973420, -0.04558123, -0.15768662, -0.07529524, -0.12786765, -0.03890108, 0.12868068, -0.18710053, -0.06715958, -0.03658679, 0.05524067, 0.05700633, 0.14198764, -0.09863050, 0.02351077, -0.14900416, -0.13142627, -0.06919461, -0.07724762, -0.05009617, -0.15897828, 0.19190168, -0.22382022, -0.18038358, 0.00283562, -0.05856763, -0.13672253, -0.10815918, -0.13849925, 0.04604449, -0.05963705, 0.23048328, -0.04997235, -0.15011542, -0.07124474, 0.17240225, -0.07982273, -0.03811051, 0.20312145, -0.12562975, -0.21580929, 0.08656295, -0.07677506, 0.02555755, -0.06788029, 0.01608113, 0.07573883, -0.08606021, -0.11327074, -0.10096354, -0.04548442, -0.01611525, -0.05382028, -0.08859059, -0.05007340, -0.08957314, -0.09991537, -0.07302923, -0.03035974, -0.15882413, 0.22757068, -0.11750571, -0.12639986, -0.19787455, -0.08600554, 0.10300268, -0.15579265, 0.08438087, -0.08389591, 0.07121424, 0.10383143, -0.08525604, -0.01228313, -0.07380014, -0.15672818, -0.09074021, -0.25432873, -0.05140644, -0.19967659, -0.10329767, -0.12904428, 0.13476104, -0.13866720, 0.09385420, -0.08499826, -0.14692476, -0.02711244, -0.14307325, 0.05639271, 0.12116012, -0.13273571, -0.07893038, -0.04844277, -0.20268497, -0.27676252, 0.22751300, -0.18199180, -0.16461949, 0.22832488, -0.08605713, -0.10422661, -0.03889475, -0.19649814, 0.00136937, -0.16385520, 0.04837196, -0.22232744, -0.13017215, -0.01591437, -0.17198838, -0.08813041, -0.04450288, -0.24570887, -0.03061358, 0.15367289, -0.01946105, 0.02856348, -0.17938489, 0.00774993, -0.04546038, -0.00536020, 0.08899117, -0.19257377, -0.11962540, -0.00908666, 0.13712545, 0.14579540, -0.02995620, 0.07835914, -0.17336258, -0.10622232, -0.09721351, -0.02829546, -0.09063900, 0.00590210, 0.15939973, -0.27811933, -0.09372734, -0.20672388, -0.07634088, -0.04869714, 0.14556208, -0.08021673, -0.20970649, -0.05767213, 0.02945009, -0.01321989, -0.22056301, -0.07327023, -0.15638974, 0.08228987, 0.04939582, -0.12853006, -0.07598357, -0.09165863, 0.01805314, 0.09394616, -0.24371283, 0.27780566, -0.05095714, -0.08021370, -0.12086935, -0.10360779, -0.15112707, -0.05517953, 0.04365111, -0.13540940, -0.08153534, 0.00636580, -0.08687343, -0.20402698, -0.19959262, -0.12882750, -0.00806396, -0.00059148, 0.03052523, -0.01751216, -0.09538994, -0.00773618, -0.00078744, -0.09878546, -0.10963291, -0.05232571, -0.10609420, -0.13941014, -0.12573689, 0.09660897, 0.02063693, -0.16937296, -0.13202238, -0.10851996, 0.07141348, -0.00922780, -0.26233381, -0.19004853, -0.15748841, -0.11971966, -0.19478533, 0.03411145, -0.15342428, -0.10237329, -0.08304138, -0.06758451, -0.09730347, -0.33643574, -0.16739321, -0.18429911, -0.16736743, 0.01455060, -0.24178034, -0.11201453, -0.09755316, -0.23547792, -0.16582662, -0.17028111, -0.26965874, 0.01475968, -0.12819448, -0.05957078, 0.00495950, 0.17757486, -0.36627746, -0.04297902, -0.12222791, -0.03141937, -0.08932937, -0.13037178, -0.12054770, 0.27991974, -0.13066392, 0.02613008, -0.15605403, -0.06402343, 0.08050569, 0.05515921, -0.26085532, -0.18090317, -0.22500253, -0.13150473, -0.15897772, -0.17522244, -0.09099498, -0.17237663, -0.03370582, -0.17174655, -0.49763134, -0.32962194, -0.11328474, -0.14994355, -0.12034338, 0.28243604, -0.37136000, -0.15528473, -0.03720167, -0.10061529, -0.19209614, -0.03902106, -0.18545187, 0.01417986, -0.09261232, -0.16680378, -0.00268857, -0.10977466, -0.16885614, -0.03225781, 0.05575082, -0.32503855, -0.29294947, -0.17027576, -0.21244466, -0.00559519, 0.04583722, 0.07667811, -0.04241147, -0.09931757, -0.04258702, 0.00530512, -0.42483160, 0.01493054, -0.03660275, -0.23488609, -0.22673330, -0.19180670, -0.12464553, -0.08782113, -0.10891730, -0.17726299, -0.18912725, -0.10980567, -0.32570198, -0.12310111, -0.17339286, -0.16933630, -0.13172071, -0.22241057, -0.08060721, -0.09061401, -0.11775936, -0.32106391, -0.00357835, -0.16452937, -0.03093204, -0.08992334, -0.11505742, -0.06932823, -0.00188302, -0.07113721, -0.13937855, 0.01854506, -0.07634670, -0.13618983, 0.00445141, -0.15507410, -0.10752241, -0.13210814, -0.12277676, -0.18924181, -0.09562474, -0.11500764, -0.04907457, -0.12849298, -0.12244101, -0.23088136, -0.34026754, -0.10158098, -0.08988074, -0.17920028, -0.03063957, -0.08034363, -0.04162728, -0.03972548, -0.20149048, 0.14380871, -0.02291132, -0.00604066, 0.04351215, -0.16101535, -0.16721126, -0.17514564, -0.13809606, -0.31101808, -0.08001193, -0.05111546, -0.08811329, -0.11076000, -0.18521373, 0.21308425, -0.05251326, -0.10703000, 0.00208332, 0.19321845, -0.25540516, -0.10580072, -0.18803541, -0.17074749, -0.10003514, -0.05710091, -0.12009541, -0.13688788, -0.13266158, 0.11450843, -0.09801316, 0.20332025, -0.17216103, -0.33438578, -0.11896756, -0.05570167, -0.08775829, -0.15817761, -0.13799831, -0.07797233, 0.00269207, -0.09243572, -0.03108579, -0.01487033, -0.06119906, -0.04100873, -0.35103714, -0.14753053, -0.22889335, -0.39181510, -0.34826177, -0.13351597, -0.28712952, -0.13796350, 0.06348792, 0.01036616, -0.12969920, -0.05493519, -0.06416061, 0.05627207, -0.22833483, -0.43814093, -0.32726803, -0.13080627, -0.14754912, -0.23011886, -0.12040965, -0.16300446, 0.14976643, -0.21321054, -0.14265341, -0.06972553, 0.00351934, -0.14396434, -0.12186517, -0.13769259, -0.04481803, -0.10634860, -0.27052701, -0.10781722, -0.08908166, -0.17514662, 0.30994251, -0.18365158, -0.05765720, -0.06638919, -0.27957016, -0.14773020, -0.16776417, -0.16750689, -0.14117952, 0.16485131, -0.39082685, -0.05246060, -0.07008448, 0.17377613, -0.04747763, 0.12728685, -0.02425537, -0.28259605, -0.14680934, -0.36197773, -0.10912743, -0.01901708, -0.02204199, 0.40061572, -0.61388040, -0.05633639, -0.23706053, -0.54831541, 0.37675875, -0.59614879, -0.33059770, -0.08914430, -0.27057251, -0.22874556, 0.15521683, -0.08961982, -0.78222746, -0.26753080, -0.60849470, -1.29168570, -0.19444905, -0.40858805, 0.16391279, 0.50440955, -1.78197527, -0.15696554, -0.24635585, -0.04735608, -0.08150470, -0.22116892, 0.70147794, -0.62605053, 0.55249685, -0.12980442, 0.36951441, 0.88441473, 0.39209276, -0.24960525, 0.89546120, -0.06688317, 0.17689960, -1.25263870, 0.21960428, -0.22322477, 0.55357170, -0.03326412, -0.19400202, 0.18932943, -0.24209352, 0.03060061, -0.24373317, -0.40944570, 0.23433506, 0.19588539, -0.32308087, -0.92852193, -0.24208926, -0.09070628, -0.50224620, -0.37203526, 0.70657516, 0.88768083, -0.81319195, 0.52731305, 0.42523679, 0.86393499, -0.23549563, 0.57164091, 0.11005984, -0.40204167, -0.02740500, 0.43063784, -0.20201541, -0.96568924, 0.34683627, -0.16512395, 0.35315380, 0.37046227, 0.25772560, 0.20563565, -0.00375683, -1.30090868, -0.11256592, -0.29461876, -0.12207765, 0.24432300, 0.55067593, -0.26864514, -0.04145800, 0.67567718, 0.78332508, 0.29290035, 0.15501918, -0.17183709, -0.23600121, -0.07774979, -0.31576276, 0.13272493, -0.13415052, -0.21849538, 0.75478625, -0.69774538, 0.42236102, -0.79088199, -0.22595291, 0.46730059, -0.05272299, -0.44030172, -0.14651546, -0.16711378, 0.45460522, -0.19900575, -0.98862004, 0.15037003, -0.01508794, -0.21121152, 0.25072765, 0.76088661, -0.25574395, 0.20667069, 0.39814019, 0.27707046, -0.50657928, -0.07079846, 0.41641754, 0.68323475, -0.24943912, -0.27042136, -0.14159909, 0.48028085, -0.30403188, 0.07302149, -0.15245610, -0.09277082, -0.09619144, 0.02550284, 0.01400963, -0.03339942, -0.33724475, -0.07677615, -0.17493041, 0.69468057, 0.26969346, 0.15882799, 0.29261944, 0.02662865, -0.68110222, -0.05380013, 0.00691483, 0.02158529, 0.01511552, 0.21638659, -0.16617925, -1.43493092, 0.16123863, -1.33769000, -0.10121587, -0.84551668, 0.10469793, -0.10759231, 0.03069962, -0.52491140, 0.84931815, -0.06404418, 0.28814957, 0.09981886, -0.81008637, 0.61406350, 0.66280442, -0.18462950, 0.13099542, -0.34590766, 0.47815484, -1.20406473, 0.45510897, -0.78183222, -0.02163093, 0.64459151, -0.14394432, 0.26106399, -0.20068784, 0.44718328, 0.36364925, -0.24842183, 0.44558233, -0.97698343, 0.05910549, 0.46476763, 0.06751888, 0.13621369, -0.46204659, 0.43808067, -0.21333736, 0.61541122, -0.25268808, -0.10568657, -1.24993885, 0.12333452, -0.05864383, -0.38623282, -0.09348223, 0.60600442, -0.30659136, 0.86158979, -0.44222414, 0.70375377, -0.30012286, 0.74089056, -0.15447283, -0.66285557, -0.24964717, 0.02209158, -0.40543216, 0.06067999, -0.01391765, 0.81679291, -0.20798439, -0.87798452, -0.88389426, -0.18382096, 0.06748121, -0.16658609, -1.62248051, 0.19470236, -0.18472800, -0.15179935, 0.24580346, -0.01734839, -0.92930877, 0.39347503, -0.02519650, -0.96983415, -0.66595042, -0.19319682, 0.21350911, 0.02081359, -0.59054673, 0.54738659, -0.23620145, -0.17120402, -0.02860344, -0.28884229, -0.27140054, 0.71941477, -0.27056980, -1.44056368, 0.52022457, -0.07797386, 0.17276561, -0.00601188, -0.09302406, -0.07506723, -0.44046733, 0.51534581, -0.32298875, -0.26211321, -0.16779758, -0.51654041, -0.47484088, 0.02928840, -0.12026225, -0.01631458, -0.09042375, -0.03206613, 0.01135839, -0.14723906, -0.04075819, -0.02965488, -0.04377295, -0.07772399, -0.07437636, -0.20452447, -0.18612319, -0.16592692, -0.08611425, -0.02561746, -0.04388363, -0.10874829, 0.02834432, 0.01447028, -0.15811983, -0.00654965, 0.07192625, -0.15098049, -0.04134382, -0.02715235, -0.03188623, -0.00819490, 0.06497109, 0.04902817, 0.08326457, 0.01762659, -0.24713723, 0.04229337, -0.04527290, -0.23448572, 0.00149268, -0.00126645, -0.00146305, 0.01536127, -0.19813344, 0.11820716, -0.00486662, -0.02198279, -0.01082754, 0.06901944, -0.00844975, -0.15812615, -0.02595044, -0.07585233, 0.08418805, -0.06338704, -0.09243916, -0.09699319, -0.02431519, 0.00666155, 0.04026244, 0.03305440, -0.11175328, -0.23142022, 0.02031572, 0.15176962, -0.00159800, 0.04040508, -0.31376904, -0.19739221, 0.00699938, -0.15272231, -0.14577326, -0.09823739, -0.26675808, 0.00176126, 0.05214282, 0.02577494, -0.11809964, 0.01748610, -0.14241013, 0.00909345, -0.01996443, 0.14979628, 0.04378384, -0.03829622, -0.20385328, 0.03492647, 0.03493024, -0.25374448, -0.04071173, 0.01146297, -0.04297980, 0.03333832, -0.02376364, -0.12932687, -0.00483450, -0.05934744, 0.06945285, -0.10078163, -0.08595316, -0.13564001, -0.04062373, -0.05111486, -0.19895902, -0.03690547, 0.02733341, -0.05444477, 0.01229911, -0.02173555, 0.00654874, 0.04500266, -0.09090207, 0.00112638, -0.08802557, 0.02937292, 0.04149605, -0.04975517, -0.02608742, -0.43346035, -0.09032200, -0.16763425, -0.04164573, 0.02680025, -0.00183369, -0.04407246, 0.01318820, 0.01712008, 0.03827063, 0.01732673, -0.19707459, -0.04719053, -0.04838321, -0.03530489, -0.06453893, -0.14910255, 0.06602735, -0.03422889, 0.03900942, -0.11055896, 0.01491427, -0.09414420, -0.08892705, -0.07717598, -0.06961689, -0.18946932, -0.04048353, -0.04332810, 0.05714405, 0.02196416, 0.08870578, -0.05792904, 0.04810539, -0.02446829, -0.11280969, -0.04513440, -0.01721009, -0.05370151, 0.00364456, -0.09798675, -0.02587509, -0.11466444, 0.06096366, -0.08970822, -0.03031928, -0.05913487, -0.11507078, -0.09846972, 0.11144497, -0.06674337, 0.01871408, -0.01746851, -0.14294189, -0.01726062, 0.18616097, -0.23926356, 0.00220101, -0.08104073, 0.00349548, 0.01350031, -0.03598672, -0.24655791, -0.03866372, 0.05686682, -0.04213222, -0.02710559, -0.24454384, -0.19565925, -0.06180456, -0.02010970, -0.03169516, -0.16315868, 0.06657954, -0.00912849, -0.03472014, -0.12493656, -0.25003174, 0.02228204, -0.02192607, 0.02226774, -0.14401014, -0.13886674, -0.10528522, -0.09202979, -0.03650467, -0.02536566, -0.22504884, -0.09398822, -0.09535667, -0.13304240, 0.07584483, 0.03731749, -0.06928520, 0.02774185, 0.00091814, -0.29348406, -0.27606985, -0.21464701, -0.05954760, -0.16084202, -0.04741615, -0.15342379, -0.04788963, -0.14494249, -0.06202161, -0.02424394, -0.11210283, -0.00432389, -0.09225321, -0.06089070, -0.00749385, -0.15477942, -0.00704444, -0.09946121, -0.01868074, -0.15577146, -0.07662400, 0.07136343, 0.01432514, -0.05642282, -0.14517610, 0.00718112, -0.03276619, -0.05092991, -0.07259567, -0.00030690, -0.21339355, -0.05891430, -0.04383300, -0.04050994, 0.04537520, 0.07624245, 0.02126212, -0.12345397, -0.03854102, -0.33601153, -0.00210669, 0.00402089, 0.02089715, 0.03479229, 0.00735370, 0.05402230, 0.08168469, -0.03069575, 0.01745378, 0.03763315, 0.00717677, 0.21718043, 0.14342020, -0.03163368, 0.04537033, -0.09339806, -0.06515616, -0.08578692, -0.00326637, -0.05830425, -0.08251102, -0.06763130, 0.00585793, -0.22785169, -0.11518577, 0.07324331, 0.09137577, -0.12058574, 0.17886816, -0.03202483, -0.14453292, 0.03720269, -0.20761928, 0.19072638, -0.09182194, -0.00134731, -0.11458660, 0.14614712, -0.17336711, -0.12497252, -0.05229868, -0.03180502, -0.04346535, 0.08683118, -0.31668290, 0.18404703, 0.12769961, 0.06085807, 0.08308704, 0.16794790, -0.03150364, 0.10577933, -0.05122601, 0.06552941, 0.26898181, -0.12296502, 0.14923508, 0.04439545, -0.14347687, 0.09108006, -0.10793255, -0.06401029, -0.01087574, -0.09547334, -0.16231266, -0.12216973, 0.00902544, 0.04648376, -0.21304899, -0.23275626, -0.04598549, -0.12581895, -0.02716226, 0.01354455, -0.26112160, 0.11133920, -0.05302737, -0.12795857, -0.04152525, -0.04001368, -0.10761233, -0.03591757, 0.08260848, 0.26572275, 0.08049784, -0.03360446, -0.09668266, 0.03208225, 0.02210509, -0.48656836, -0.08361334, -0.16551726, 0.17256041, 0.07982958, 0.13133255, 0.07836104, 0.01771926, 0.11685143, 0.26701194, -0.04443968, -0.20348884, -0.04401990, 0.13727510, -0.10583007, -0.17930502, 0.00218084, 0.08405711, 0.08362745, -0.00507609, 0.21345773, -0.07525751, 0.11270995, -0.12619524, 0.00375085, -0.11766690, 0.14601490, -0.07749919, -0.13976154, -0.00414393, -0.25349537, -0.20815240, -0.11991360, 0.01738835, 0.20041409, -0.05560140, -0.00244555, -0.02355485, 0.00079511, 0.06054299, -0.02860336, -0.16282888, -0.04599082, 0.23732689, 0.06551845, 0.04547651, -0.14808545, 0.23956969, 0.10052195, 0.11175918, -0.23414168, 0.15593222, 0.03282827, 0.05407771, -0.05620818, 0.00538691, -0.20102139, -0.09096564, 0.00502594, -0.08765586, -0.01160155, 0.07195981, -0.10488538, 0.07310443, 0.06688289, -0.04426752, 0.16133820, 0.00723079, -0.00049653, 0.06891284, 0.00705541, -0.15842916, -0.05867189, -0.04479762, 0.12222022, -0.02152799, 0.01890006, 0.01403357, -0.18095918, -0.12940532, 0.12331238, 0.07892769, -0.03280405, -0.02867159, 0.10094154, -0.14974988, -0.25031871, 0.11226876, -0.28404668, 0.16391137, -0.04227164, -0.02637063, -0.14276414, 0.05150408, 0.17389324, -0.01958343, 0.03581543, -0.17624235, -0.24029529, 0.10708904, 0.08624514, -0.02982093, -0.05507326, 0.02645309, -0.04144523, 0.02070901, -0.09042833, -0.19863662, -0.05131240, 0.09222440, 0.01573556, -0.18219325, 0.05221089, 0.14408249, -0.12520590, -0.13229452, -0.04329581, -0.17502487, 0.01211635, 0.01350915, -0.09285346, 0.20090081, -0.05785358, -0.10981191, -0.03650546, -0.10026441, -0.21626811, -0.26566514, -0.18279549, -0.07701622, -0.06711497, -0.14346768, -0.04288750, 0.05991741, -0.16356997, 0.02083316, 0.12524398, -0.05525538, 0.01021125, -0.12251847, -0.03697963, 0.06711901, -0.16464004, -0.05111355, -0.03429225, -0.06181353, -0.24298383, 0.15468916, -0.18897389, -0.00778745, 0.06541272, -0.16377966, 0.21823959, 0.10420046, -0.04625396, -0.01769572, 0.03113692, -0.26305529, 0.03772621, 0.05719001, 0.10865992, 0.20825960, 0.14936885, -0.02955747, -0.09898107, -0.00942839, -0.23957275, 0.04805551, -0.00266989, -0.02103337, 0.03599425, -0.02065469, -0.04477946, -0.00211754, -0.02812370, -0.04163813, -0.00462824, -0.04066259, 0.20214444, 0.16398603, 0.01251385, 0.00118989, -0.14496250, -0.05702866, -0.06668451, -0.09267677, -0.06673648, 0.09118534, -0.08176380, -0.00506225, 0.08161529, -0.19906147, 0.14735815, -0.00665953, 0.00231404, 0.05481285, 0.05748037, -0.01431764, -0.02742759, 0.06476273, 0.10317516, 0.09938925, 0.03948848, -0.08246525, 0.13558833, -0.04954831, -0.22762999, 0.06778408, -0.04365829, -0.06203180, -0.16742569, -0.08922316, 0.22447015, 0.19991605, 0.00799271, 0.10551468, 0.18214089, 0.04112613, -0.13526912, 0.02838126, -0.05129499, 0.29053247, -0.12365095, -0.02841321, -0.03079534, 0.04077702, 0.10855891, 0.05729094, 0.02861400, 0.02700605, -0.10517037, 0.05287095, 0.11609486, -0.01736434, 0.02633708, -0.01037790, -0.01608239, -0.03192510, -0.17934854, -0.01237758, -0.08047306, -0.02895887, 0.16040319, 0.03297245, 0.12172863, -0.03935089, 0.03023216, -0.03645493, -0.16018131, 0.11568076, 0.19911827, 0.13359216, 0.03402819, -0.03054705, 0.02495808, 0.10468669, -0.10181221, -0.05237972, 0.08835982, 0.06359375, -0.02172094, -0.07743208, -0.13030960, 0.05859699, 0.00208528, 0.18689835, 0.03184996, 0.02837949, -0.07750192, -0.09917895, -0.03673506, -0.05682119, 0.06489494, 0.08281526, -0.01210940, 0.05614602, 0.16161095, 0.01199638, 0.02181206, 0.03157165, -0.02758062, -0.03590130, 0.16723116, -0.04181955, 0.04464328, 0.01332324, -0.33731192, -0.06975835, -0.10511354, -0.01044016, 0.15433130, 0.00974308, 0.00085186, 0.01549705, 0.03182787, 0.06730906, -0.01751087, -0.03230356, -0.05577565, 0.16618977, 0.02865584, 0.09870319, -0.03303085, 0.11705880, 0.04277537, 0.06956568, 0.02457426, 0.07825485, -0.09860968, -0.03688144, -0.09090168, 0.06335270, -0.10051882, 0.00650979, -0.05188279, 0.05278325, 0.06341365, 0.09314394, 0.03560506, 0.06864116, -0.14221610, -0.11480813, -0.15322341, -0.04488222, -0.08358854, -0.05217986, 0.00821128, 0.00055145, 0.04732725, -0.03232137, 0.10537738, 0.03842059, 0.08877872, 0.01855942, -0.01839288, 0.01579943, -0.04680402, 0.10834382, 0.00631544, -0.02972127, -0.07940941, 0.03707768, -0.18719530, 0.08043148, 0.02851804, 0.21387561, -0.01671312, 0.02885987, -0.09144294, -0.01101312, -0.19723497, 0.03188272, -0.11711714, -0.31622139, -0.07176826, 0.09111258, 0.08808099, 0.04949108, -0.01484798, 0.10524237, -0.05902903, 0.04540551, -0.03447523, -0.29961658, 0.03823579, 0.04017906, -0.00898377, 0.06543342, -0.11843507, 0.08663607, -0.07228226, -0.03365088, 0.10970651, -0.03784729, -0.04653388, -0.03686191, -0.10580248, 0.15053804, -0.02035199, -0.04610924, 0.00122274, 0.11635219, -0.06353497, -0.05210152, -0.24581890, 0.03622542, -0.01067998, 0.08321425, -0.10593482, -0.06675700, -0.03736452, -0.03489267, 0.09720708, -0.10779463, 0.00497388, -0.03417742, -0.03605038, 0.04646939, -0.17072439, -0.03010624, 0.00957803, 0.02888157, -0.10074000, -0.11639880, 0.04814845, -0.04112221, 0.03752502, -0.09418848, 0.10152243, 0.20138237, -0.00427421, -0.05988485, -0.01440600, -0.10755002, 0.04588249, -0.03358711, -0.06310412, 0.26443925, -0.13118389, 0.02691673, 0.03109728, 0.05517113, -0.04323047, 0.07888440, -0.08058058, -0.03989502, -0.02062365, -0.06681243, 0.00607640, 0.04096516, 0.06295667, -0.01080386, -0.05756764, -0.04321188, 0.22004242, 0.10474829, 0.03726599, 0.01618697, -0.07565559, -0.06924313, -0.12310778, -0.03541140, 0.04354642, -0.08909543, 0.02347166, 0.10725159, -0.04850025, -0.05015157, 0.09303540, -0.00133408, -0.02458651, 0.05844981, -0.08928659, -0.09511990, 0.03097948, 0.05040558, 0.10896678, 0.00452374, 0.01466858, -0.22461241, -0.00948434, -0.17155841, -0.07954479, 0.05118461, -0.00478529, 0.03140539, 0.07802610, -0.20377405, 0.07875109, 0.11373160, 0.06113097, 0.00493254, 0.10225973, 0.01175011, -0.06783404, 0.04652601, -0.00283978, 0.27147892, -0.05667710, 0.01133812, 0.08366407, -0.01459139, 0.08386598, -0.11451805, -0.03378309, 0.03497054, -0.12696685, -0.15976872, 0.00722399, -0.07060411, 0.02950690, -0.09961285, -0.03716972, -0.07597051, -0.09589379, -0.03997276, 0.03778464, -0.18949133, 0.17384988, 0.01313093, 0.06709097, -0.04005707, 0.02423059, -0.02900803, 0.01959378, 0.03691458, 0.20529097, 0.14447346, -0.04593628, -0.11696626, 0.01246256, 0.06065309, -0.25304756, 0.07732252, -0.07451710, 0.15417132, -0.00866421, 0.03919526, -0.03438006, 0.00687659, -0.02480341, 0.18211411, -0.02224815, -0.05782684, 0.02531362, 0.00482012, -0.04646193, -0.23409541, -0.00927476, 0.09733006, 0.01767580, 0.01964198, 0.19357912, -0.03920180, 0.14037040, -0.06537381, 0.00941924, -0.02065497, 0.07664397, -0.08113416, -0.08267118, 0.01667165, -0.34090418, -0.17082846, -0.08018719, -0.04231639, 0.14113571, -0.11034591, -0.04440225, 0.03379200, 0.01397723, 0.11524342, -0.00997959, -0.15682602, -0.01411239, 0.20256500, 0.04410436, -0.02264875, -0.13308062, 0.10999601, 0.04537927, 0.06145767, -0.16643353, 0.09908574, -0.03568836, 0.01155867, 0.02610955, -0.02286892, -0.11997444, -0.04565337, 0.05213862, -0.01070745, 0.03763818, 0.06143093, -0.07741991, 0.08139687, 0.04880603, -0.08153965, 0.12955531, 0.02141335, 0.03228160, 0.01837158, -0.00134176, -0.13438725, -0.01160531, -0.08221735, 0.12389310, 0.00210836, 0.00797301, -0.03301414, -0.06882417, -0.01161539, -0.01029194, 0.00254969, -0.05374425, -0.09891251, 0.05722411, -0.03191771, -0.17394423, 0.16439432, -0.20323797, 0.08546848, 0.07619116, -0.08599265, -0.06360222, 0.08938517, 0.08066883, -0.09490359, 0.04923207, -0.10975537, -0.16303150, 0.04859919, -0.02735072, -0.05272729, -0.11321433, 0.04166058, -0.02011955, -0.01419404, -0.09099536, -0.27271578, 0.01856114, -0.02315948, -0.06759848, -0.09997202, -0.02467404, 0.09448619, -0.04219052, -0.08379938, -0.02547116, -0.08181310, 0.00729411, 0.04418099, -0.08293471, 0.12018149, 0.04927892, -0.00417291, -0.03251885, 0.02741157, -0.16706294, -0.24613065, -0.23991638, -0.07222091, -0.03962103, -0.03879144, 0.04322553, 0.03833412, -0.17027326, 0.00980577, 0.13760167, -0.06412634, 0.05195298, -0.05697433, 0.03729799, 0.07037763, -0.18608963, -0.05918235, -0.01163455, -0.15121810, -0.16722925, 0.01744696, -0.05124979, 0.01286364, 0.08868384, -0.12555033, 0.17057532, 0.04565880, -0.04000719, -0.00801403, -0.00758924, -0.14611511, -0.00151009, -0.08837915, -0.02685775, 0.21635520, 0.07640319, -0.05657293, -0.03486236, -0.02212179, -0.23480077, 0.10024490, -0.01736158, -0.09686922, -0.19930346, 0.07528891, -0.00566693, -0.06603507, -0.08765479, -0.02877982, 0.42879605, 0.01757305, -0.13916656, -0.19305305, -0.12078454, 0.32455373, 0.14130661, -0.16816805, -0.31383970, 0.04689846, -0.05853384, -0.65461981, 0.08067615, -0.05146597, -0.67114609, 0.12899822, -0.23315321, -0.06229528, -0.31364912, -0.05801907, -0.19637632, -0.67296463, 0.15531960, -0.75767100, -0.06547818, -0.45230758, -0.36119124, 0.10141983, -0.40790805, -0.67975533, 0.17352468, -0.22595811, 0.22888988, -0.00288607, 0.79673201, -0.57239908, -0.23123908, -0.11118560, 0.12148217, -0.44466862, -0.10738415, -0.08519652, 0.61318994, -0.45694783, 0.19750445, -0.25369695, 0.09023809, 0.26730248, 0.30297402, -0.50535560, -0.18983573, -0.65408081, -0.77068007, -0.00104619, 0.04655552, -0.49375281, -0.78161323, -0.05434178, -0.19438121, -0.90350342, -0.70171112, -0.49591872, 0.21698469, -0.20446435, 0.88968974, -0.68334305, -0.20478065, -0.12578170, -0.43501091, -0.02774901, -0.06404564, -0.14381908, 0.16850433, -0.13580637, -0.25127557, -0.07503114, -0.41756201, 0.19016652, -0.20918666, -0.08378549, -0.72551113, -0.20537475, -0.71991682, -0.16365854, 0.08494142, 0.23241739, 0.31033531, -0.16227812, -0.10129219, -0.10297848, -0.08086194, -1.02261209, 0.13084951, 0.21184659, -0.12336274, -0.35299805, 0.03078428, -0.15722239, -0.01003527, -0.23069781, -0.04052755, -0.65818125, -0.00065179, -0.15373360, -0.04952386, -0.53312302, -0.11496413, -0.04859832, -0.67447370, -0.22443724, 0.22385164, -0.48252475, -0.36738637, 0.04529348, -0.18470296, -0.26466230, -0.24139109, -0.17071620, -0.25754610, -0.10570052, -0.02842202, -0.46053344, -0.00429020, -0.04151666, -0.06249383, -0.03160996, -0.10806125, -0.12596117, -0.09151094, -0.24825683, -0.95101500, -0.05832448, -0.08741593, 0.28302205, 0.06938468, -0.46382055, -0.21074456, -0.47495618, -0.00190115, -0.14450172, -0.35747531, -0.14963533, -0.13533722, -0.24145964, 0.34909517, -0.00392832, 0.77444214, 0.08747335, 0.22675979, 0.23130456, -0.11445264, -0.65478301, -0.13980894, -0.42866063, -0.16472550, 0.05186426, -0.05020264, 0.07704238, -0.38255590, -0.59437555, 0.49627197, -0.11234935, -0.10595541, 0.42227206, 0.51087254, -0.70201391, -0.11079905, -0.09818234, -0.77784169, -0.08625393, 0.18170951, -0.06239082, 0.22497194, -0.05802708, 0.60576755, -0.32143760, 0.68746483, 0.32309729, -0.68219066, -0.07643232, -0.00185448, -0.05994160, 0.06315701, -0.05946496, -0.47782305, -0.02535207, -0.22915582, -0.04452731, 0.00222295, -0.00235600, -0.00358422, -0.63850790, 0.27218112, -0.02981841, -0.42483637, -0.57281971, -0.82409286, -0.28334695, -0.23272787, 0.30346164, 0.13765816, -0.11504412, -0.23821369, -0.18366054, -0.04243489, -0.59810174, -0.16940796, -0.44405773, -0.05594607, -0.35499734, -0.25989020, -0.64967680, 0.05932543, 0.47731009, -0.43004709, -0.09438042, -0.07706488, 0.14793813, 0.09557290, -0.13100155, -0.22996937, -0.00681090, -0.06172879, -0.25019979, -0.20185910, -0.50515604, -0.59909892, 0.84364957, -0.63818628, 0.12391592, -0.14949551, -0.12888689, -0.08633347, -0.27124524, -0.06643797, -0.13299862, 0.46473151, -0.40497380, 0.05153211, 0.08491210, 0.77147210, -0.21440886, 0.50494844, 0.02638558, -0.17086001, -0.42408797, -0.53668278, -0.11225374, 0.02488315, -0.09989884, -0.04495824, -0.14068665, -0.03625879, -0.17663530, -0.11611364, -0.10054109, 0.02625998, -0.06802646, -0.28042588, -0.10780183, -0.10312913, -0.04365673, -0.11834417, -0.09951204, -0.20548111, -0.03723470, -0.01483364, -0.01312507, -0.06226911, -0.11271835, 0.12963942, 0.01709096, -0.16519751, -0.16613764, -0.05892974, -0.15007095, -0.25864550, 0.11206563, -0.00122881, -0.05420000, -0.18013169, 0.04450726, -0.03087678, -0.17198458, -0.37312549, 0.10157895, -0.12858061, 0.04944582, -0.04677603, -0.01558541, -0.01539201, 0.05266476, -0.38742885, -0.20706579, -0.04304863, -0.42137229, -0.31400931, -0.11158428, 0.05861381, -0.01137787, -0.17088799, -0.31702527, 0.03509576, -0.01256057, -0.06989084, 0.01509719, -0.15899196, 0.06755083, 0.06269898, -0.11230222, -0.23663150, 0.10134449, 0.00057104, -0.04248329, 0.01421124, -0.09031957, -0.07403784, 0.01299841, -0.02052180, -0.19785623, 0.05251103, -0.06013498, -0.26690581, -0.02122577, -0.04678101, -0.26641774, -0.03172907, -0.11252300, -0.03458113, -0.07114392, -0.32688344, -0.08311140, 0.06145625, -0.02194138, -0.23204815, -0.02868290, 0.04915518, -0.02630556, -0.10426309, -0.20861331, -0.08927283, 0.07274160, 0.07315861, -0.10233937, -0.13780728, -0.22571304, -0.14884733, -0.04022787, -0.01059794, -0.03319157, -0.09134383, -0.20396009, -0.05827356, -0.23974119, -0.12442566, -0.02720386, -0.15627964, 0.12593153, -0.12582423, -0.11857029, -0.20825845, 0.06142911, -0.19132896, -0.08731719, 0.02803629, -0.23622093, -0.07802795, 0.04965896, -0.11260109, -0.05015548, -0.33333728, 0.03887103, -0.05776805, -0.23557322, -0.21425320, -0.14167531, 0.06686925, -0.16735342, -0.00278321, -0.12444597, -0.16092327, -0.00139750, -0.11208715, -0.21013974, -0.08687731, -0.32318619, 0.14431188, -0.17024566, -0.05911674, -0.09956036, -0.00003420, -0.03570440, -0.06593160, -0.09801540, -0.09792200, -0.10215337, -0.06100013, -0.21731928, 0.03161479, -0.20827062, 0.04175703, -0.10030932, 0.01252610, -0.05871159, -0.06037947, -0.16438009, -0.14171046, 0.04559428, -0.06753568, 0.03264014, -0.16669302, -0.15590136, -0.03924543, -0.08896842, -0.02108398, 0.01402790, 0.04225640, -0.31344056, -0.14943059, 0.00392322, -0.02654791, 0.00715542, -0.08044311, -0.26821047, 0.06423842, -0.19195747, 0.01382543, -0.07920798, -0.03741369, 0.01788548, -0.04394389, 0.00473929, 0.04564757, -0.01780503, -0.02791275, -0.31094861, -0.16264121, -0.03050194, -0.10860575, -0.13996449, -0.01196850, -0.02372941, -0.13499539, -0.04230398, -0.04066568, -0.06291831, 0.04883085, -0.03181683, -0.01867302, -0.20498590, -0.02459636, 0.04382606, 0.15657257, -0.10740225, -0.05925636, -0.03711700, -0.05153836, -0.30696061, -0.03941580, -0.03362662, -0.04088248, -0.09724650, -0.14455494, -0.18266502, 0.00793159, -0.08598805, -0.07712654, -0.03951432, -0.08724114, 0.08863973, 0.01857965, -0.10441127, -0.13934273, -0.08215981, -0.06135513, -0.13041081, -0.00619220, 0.02537406, 0.01486685, -0.07998255, -0.16190906, 0.00122702, 0.06434063, 0.13239533, 0.00154911, -0.10868983, -0.14494826, -0.07546605, -0.18763641, -0.28907678, -0.06009652, -0.01216190, -0.01634201, -0.17618820, -0.09825043, -0.13887481, -0.00667536, -0.30875185, 0.01881078, 0.03842482, -0.07223596, -0.06313763, -0.18319908, -0.14740606, 0.07274159, 0.05756272, -0.08175790, 0.11214218, 0.11689679, 0.06590085, 0.10497587, -0.11083592, -0.06907387, -0.08103416, 0.19408672, 0.17246296, 0.18839833, -0.17614293, -0.33075842, -0.00662320, -0.03695485, 0.07222589, 0.02878782, -0.01835184, 0.04788165, 0.04611227, -0.20547700, -0.21840999, 0.16117889, 0.16634730, 0.14393160, 0.19198470, 0.14151238, -0.21500140, 0.04377963, 0.09499731, 0.13464710, 0.10794795, -0.17107463, -0.49548948, 0.23035006, -0.33834806, -0.39940906, 0.10051059, 0.05813424, -0.12464684, -0.32047445, -0.25849739, 0.15430801, 0.23158401, -0.10644016, 0.12134871, 0.11642999, 0.13297850, -0.17177524, -0.06786691, -0.24389234, 0.24930643, -0.16581945, -0.04099878, -0.08668513, 0.06843267, 0.12895060, -0.20845076, -0.22270647, 0.01204775, -0.27465841, -0.15939116, -0.09737998, -0.01216912, -0.13329275, 0.00041965, 0.00776510, 0.04696751, -0.38384885, 0.06286179, -0.08012439, -0.30715257, 0.29577634, 0.01119439, 0.11071579, -0.05994137, -0.06502164, -0.05460467, -0.15749110, 0.14081873, 0.39233309, 0.14652604, 0.12758248, -0.28205138, 0.12955371, 0.05711375, -0.35757771, -0.05616273, 0.15624987, 0.17539482, 0.09169212, -0.07506347, -0.19359162, 0.07401071, 0.09893698, 0.24686061, 0.12809122, -0.09051818, -0.00381615, -0.20741004, 0.10777681, -0.02968762, -0.22226895, 0.13909312, -0.01032937, 0.19495352, 0.17617244, -0.13987051, 0.17648315, 0.05536266, 0.10142285, 0.00768694, 0.16193466, -0.17054029, -0.28151646, -0.02006652, -0.61315501, -0.18100598, -0.18357480, -0.05655700, 0.18953213, -0.18481721, -0.16268076, 0.10028949, 0.06290354, 0.12239532, -0.09919031, -0.05633688, -0.10465808, 0.12221055, 0.17324789, 0.00912259, 0.01424427, 0.17955960, 0.05565683, 0.06412140, -0.16422285, 0.16881303, -0.13309617, -0.23603129, -0.05614531, -0.06369251, -0.11312786, 0.00846839, 0.11556759, 0.10347313, 0.23435391, 0.18075536, -0.09739579, 0.14950062, -0.10570541, -0.13431105, -0.07494541, 0.03421456, 0.11490729, -0.24003737, 0.13827288, -0.05823586, 0.11256719, -0.25678760, 0.16942713, -0.08451094, 0.01885244, 0.00482125, -0.21934885, -0.02132593, -0.16896842, 0.02161974, -0.01132546, -0.31041175, 0.03914713, -0.03039845, -0.23739974, 0.12053380, -0.22825372, 0.19328494, -0.12142033, 0.11453985, -0.43452910, -0.06669909, -0.20116404, -0.20386043, -0.12151415, -0.24025644, -0.30583185, 0.07256605, 0.02131818, -0.03429302, -0.34568176, 0.27744663, -0.26654235, -0.09084549, 0.07697094, -0.32076710, -0.05600024, 0.11555577, -0.11016265, 0.13335174, -0.25708401, 0.11623757, -0.16430977, 0.00257744, -0.04978622, 0.08112786, -0.17791311, -0.00885623, -0.12170821, 0.26532379, 0.03108655, 0.06137211, 0.05207188, 0.07585455, -0.32248527, 0.05813860, -0.27995536, 0.07453953, 0.13304676, -0.01387541, 0.04928679, 0.00644358, -0.11023144, 0.14541297, 0.08682562, -0.43911731, -0.00073185, 0.03507096, -0.06543902, 0.06417949, -0.21461506, 0.10395119, 0.17042409, -0.20073859, -0.15213205, -0.23306750, 0.05962663, 0.08330090, 0.20727362, -0.12055772, 0.25296140, 0.25182542, -0.18190730, 0.13455829, 0.00051549, -0.29078600, 0.09035183, -0.16558878, -0.27583206, 0.20999634, -0.12764817, -0.06370009, -0.07432568, 0.15129404, 0.01540421, 0.10937082, -0.09215195, -0.12126286, -0.12063418, -0.03057404, 0.14680041, 0.03642880, -0.05022727, -0.03173017, -0.02701256, -0.08823517, 0.15753140, 0.10696732, -0.05589652, 0.01094740, -0.27268773, -0.21953540, -0.05154849, -0.03065547, -0.06679463, -0.09565709, -0.08233520, -0.05033523, -0.17143384, -0.28657785, 0.11603887, -0.02448148, -0.11745285, 0.15728530, -0.05643871, -0.19223294, -0.07598824, -0.00436362, 0.17803733, -0.04377693, -0.09508632, -0.29869100, 0.24530137, -0.32805261, -0.19567765, 0.06858885, -0.06228469, -0.01288014, -0.07731934, -0.12983109, 0.07464532, 0.19209924, 0.02470205, 0.08130044, 0.10943253, -0.06765453, -0.07090959, -0.16940802, -0.18491001, 0.37557766, -0.14853731, -0.00347579, -0.06321871, -0.15618922, 0.02233381, -0.27423307, -0.20095915, -0.08487116, -0.17516150, -0.21792324, -0.04967631, -0.13853063, -0.03029132, -0.27011639, -0.25805238, -0.16233371, -0.24546425, -0.16146868, -0.08894509, -0.20351033, 0.11055174, 0.00168956, -0.01961246, -0.16136637, -0.06352594, -0.05956364, -0.15343954, 0.08212771, 0.40027916, 0.13998061, -0.03608793, -0.20532490, 0.14897884, 0.06450436, -0.29002196, 0.00713665, 0.01782820, 0.00821791, 0.05881881, 0.03082763, -0.04119366, -0.02377741, 0.00027245, 0.24363221, 0.00048054, -0.12398991, -0.05458750, -0.01948683, -0.03393842, -0.18651296, -0.09766820, 0.09983934, -0.03801630, -0.03124873, 0.13228399, -0.36795118, 0.18880081, -0.23797214, -0.00313630, -0.26663169, 0.04290207, -0.06838053, -0.23029900, 0.04122447, -0.47689092, -0.22310336, -0.19650261, 0.03939353, 0.17933214, -0.09751263, -0.04288366, 0.07256280, 0.08574294, 0.18007012, -0.05336840, -0.07905720, -0.04619036, 0.19688448, 0.22574411, -0.10778758, -0.10851448, 0.12236727, 0.03309485, 0.05806050, -0.24452671, 0.18485501, -0.00167249, -0.03641928, -0.05436034, -0.31707519, -0.11886919, -0.13563477, 0.05476609, -0.02275820, 0.04493644, 0.05342870, -0.00415192, 0.18835551, -0.14659554, -0.15728448, -0.06697568, 0.02436342, -0.05191785, -0.15116945, -0.00761563, -0.11645286, -0.12799771, -0.15800947, -0.06021052, -0.09264002, 0.02453210, -0.02822056, -0.11060437, 0.01805259, -0.05584201, 0.07264858, -0.02964581, -0.15663354, -0.06640743, 0.01682157, -0.39700705, 0.10839272, -0.15971981, 0.17787637, -0.01734146, -0.11301646, -0.18427408, -0.03876695, -0.07752393, -0.07505740, 0.03407941, -0.21546735, -0.10971304, 0.01384434, -0.01670743, -0.02851244, -0.19359368, 0.18588589, -0.04216123, 0.03394626, -0.05599214, -0.46366486, -0.00963478, -0.03831478, 0.01985965, -0.07051403, -0.16862559, -0.00580874, -0.14164858, -0.22515699, -0.10916725, -0.13944888, -0.00323381, -0.01955091, -0.15487859, 0.26923373, -0.05903587, -0.12483173, -0.04856978, -0.01868656, -0.26968876, -0.23842537, -0.47048816, -0.09410032, -0.11021914, -0.01855401, -0.06881359, -0.08684383, -0.05388431, -0.07765038, 0.18491192, -0.21164526, -0.02058437, -0.15259209, -0.01005838, 0.08894573, -0.25265431, -0.06867903, -0.04492824, -0.16268390, -0.24195066, -0.01525288, 0.02721092, -0.12102208, 0.26942238, -0.22121850, 0.27942929, 0.25082830, -0.07216704, -0.05814943, -0.01118392, -0.34262758, 0.11064310, -0.15284511, -0.03220902, 0.13527724, -0.08593504, -0.05122862, -0.03353980, -0.02610568, -0.35085562, 0.05260118, -0.09603719, 0.00557984, 0.02134562, 0.01777665, 0.01197033, 0.11991869, -0.06813788, 0.03078699, 0.03546961, 0.04217461, 0.21433114, 0.15284640, 0.00772606, -0.01649524, -0.13036954, -0.14525926, -0.14367357, -0.03688927, -0.07129189, -0.04835523, -0.01776451, 0.08373583, -0.03379558, -0.10215557, 0.16608106, 0.09166428, -0.00503389, 0.16805138, -0.01443268, 0.00882221, -0.05976135, -0.07822832, 0.14221813, 0.00312659, 0.02768314, -0.16358814, 0.17179047, -0.13224970, -0.17234597, 0.06654710, -0.08604524, 0.01513849, 0.00308917, -0.25724408, 0.20015690, 0.16029730, -0.02199002, 0.08407514, 0.17933510, -0.04057384, 0.05073583, -0.01411801, 0.00347253, 0.32857326, -0.13845254, -0.01917026, -0.05300052, -0.03209966, 0.09899488, -0.00178316, 0.00563253, -0.04432729, -0.18035048, -0.03181306, -0.05198421, 0.00799200, 0.02509648, -0.10826315, -0.05152132, -0.00413748, -0.07045572, -0.08726970, -0.06434081, -0.20166597, 0.14558776, 0.05150368, 0.05340560, -0.12008076, 0.00092591, -0.12123942, -0.03438320, 0.10144403, 0.27898708, 0.18649395, -0.02341421, -0.07934549, 0.05899379, 0.01285813, -0.28393701, -0.00355990, -0.04288267, 0.09486757, 0.01371162, 0.00620489, 0.04877233, -0.03406804, 0.04113780, 0.24892652, -0.03393151, -0.13599883, -0.03316438, 0.00657025, -0.02913514, -0.09030529, -0.00343234, 0.16122961, 0.08020734, 0.03662348, 0.26496264, -0.09840079, 0.09391338, -0.07435574, -0.00068648, -0.05689719, 0.10032787, 0.00650431, -0.02448900, -0.01582273, -0.32185742, -0.08391122, -0.18996666, 0.00800285, 0.23040590, 0.01055578, 0.00488312, -0.01789077, -0.00239261, 0.07563896, -0.01866369, -0.16100082, -0.00118752, 0.19359967, 0.08804822, 0.01777778, -0.12333819, 0.14736438, 0.12165453, 0.04665066, -0.15011358, 0.19714184, -0.00825167, -0.00570458, 0.02632184, -0.05491334, -0.08215594, -0.02070563, 0.03874744, 0.07084025, -0.00259899, 0.17123680, 0.00786108, 0.07743286, -0.09350996, -0.11645237, -0.00154787, 0.03803508, -0.04896768, -0.03820926, -0.02950096, -0.12306650, 0.00204148, -0.05342982, 0.09784125, -0.03429198, 0.03610966, 0.02056848, -0.15820929, 0.02737280, -0.02802870, 0.11785925, -0.08563481, 0.02811475, 0.00865027, 0.00867657, -0.16947111, 0.08977795, -0.19040716, 0.13252863, 0.01488139, 0.02852050, -0.09388219, 0.02113650, 0.01566547, -0.05367503, -0.03405657, -0.11292616, -0.11803604, 0.08998363, 0.03407373, 0.05734648, -0.05801819, 0.05282364, -0.02974133, 0.01515596, -0.08710355, -0.21298678, 0.03455171, 0.02171493, 0.05715848, -0.09130301, 0.01012330, 0.12684320, -0.08390424, -0.01884978, -0.04764662, -0.13318951, 0.00381166, -0.00938287, -0.10191410, 0.23863140, -0.02595368, -0.08444430, 0.02807526, 0.01695872, -0.19306730, -0.27272591, -0.23804843, -0.07496478, -0.02501344, -0.04225377, 0.00266955, 0.01611201, -0.18862188, -0.00698375, 0.19476119, -0.12915704, 0.10980511, -0.05442579, -0.00181538, 0.00839729, -0.12498524, -0.05125001, -0.02445479, -0.01501935, -0.16280565, -0.02159668, -0.04292718, 0.04233099, 0.15244599, -0.10458219, 0.15342444, 0.16139501, -0.02623163, 0.00806614, -0.03346260, -0.18776299, 0.06950143, -0.04547385, 0.02493374, 0.30205572, 0.03535479, -0.05393239, -0.06480134, -0.02302721, -0.18055610, 0.14284927, -0.09321394, -0.01110764, 0.29418871, -0.19071837, -0.29366547, -0.23155330, -0.07543515, 0.09093426, -0.48586580, -0.02208111, -0.40216121, -0.27254254, 0.07150608, -0.38554528, -0.53132486, -0.05021349, 0.12566906, -0.25430882, -0.02581870, 0.59759247, -0.17311686, 0.07573377, 1.08079398, -0.29505438, -0.31236893, -0.16164348, 0.31011689, -0.48880354, -0.02346881, 1.12112844, -0.19582270, 0.72338045, -0.18609779, 0.41049707, 0.58429027, -0.67521912, -0.25835642, 1.00920880, -0.55440718, 0.28016347, -0.35893556, 0.03677335, -1.33301294, 0.56958759, -0.36237681, -0.33152372, -0.00796712, -0.19614415, -0.35550845, -0.08199953, -0.53447115, 0.54309493, -0.34725198, -0.40108648, -0.30629554, -0.17174266, -0.31709826, 0.58221358, -0.45470652, 1.11784399, 1.21956062, -0.11501842, -0.37283424, 0.79720277, 1.02116799, -0.03624172, 0.30748248, 0.65863490, 0.66795158, 0.64810497, -0.65024382, -0.01506029, -0.98970813, 0.31863049, -0.41626847, 0.13158859, 0.31679907, -0.30328947, 0.10679916, -0.09528083, -0.56116349, -0.08064450, -0.50996143, -0.16291507, 0.44579804, -0.66135508, -0.10918617, 0.03789998, 0.82121491, 0.19881473, 0.46746513, -0.14391902, -0.18347158, -0.17978786, -0.39754301, -0.04109317, -0.06864963, -0.30211815, -0.03330062, 0.78521627, -0.32712740, -0.20964769, 0.04466309, 0.10784990, -0.02433318, -0.20833786, -0.19190647, 0.03850774, -0.36006084, 1.08801603, -0.35032466, -0.12552910, -0.14952415, 0.74722248, -0.37367982, 0.05652414, 1.07140338, 0.07655894, -0.85617489, 0.83475143, 0.07592726, -0.01742232, -0.38549128, 0.34054795, 0.45849708, -0.19901538, -0.00996754, -0.22287439, 0.15470099, 0.21751969, -0.00317627, -0.39965832, -0.33111453, -0.03352610, -0.18211569, -0.28617162, -0.19736490, -0.17593220, 1.06255984, -0.18491602, 0.14899716, -0.40500268, -0.14819905, 0.53303736, -0.16424833, 0.44258681, -0.27330419, -0.06880295, 0.23271783, -0.15456249, 0.06174718, -0.22167626, -0.51400775, -0.18496403, -1.35633719, -0.26827532, -0.31194195, -0.44242576, -0.24343017, 0.66902423, 0.01382951, 0.76921004, -0.24935356, -0.07200065, -0.03454107, -0.26626509, 0.45856845, 0.61299628, -0.35281971, -0.23255867, -0.00341021, -0.66794181, -0.86477607, 0.66194075, -0.41948199, -0.37200642, 1.15847313, -0.24410018, -0.10329972, -0.04371564, -0.65140182, 0.09254363, -1.28483379, 0.27992070, -1.16113734, -1.01713836, 0.51376766, -0.32343158, -0.13278598, 0.12374897, -0.48562291, -0.19862431, 0.70812964, 0.00043560, 0.12960303, -0.58559728, 0.05911047, -0.18419948, -0.04559669, 0.57999837, -0.65443242, -0.32108036, 0.22337756, 0.70894128, 1.10795796, 0.09203795, 0.33854836, -0.16343261, -0.32038680, -0.35725984, 0.17679654, 0.12552859, 0.02731617, 0.46149680, -0.18400893, 0.12535173, -0.47599787, 0.17718841, 0.01699440, 0.40784085, -0.25566739, -0.79247791, 0.14901294, -0.00154717, -0.30367753, -0.44788337, -0.29864848, 0.03240276, 0.14930049, -0.10292400, -0.09658520, 0.16552478, -0.00854232, 0.59920967, 0.67368329, -1.01801205, 0.50242120, -0.17064771, -0.26870552, -0.16093867, -0.25407350, -0.57776481, -0.00384278, -0.05256400, -0.52301097, -0.00728304, -0.28477550, -0.24698029, -1.14677739, -0.32889494, -1.18432117, 0.02751414, 0.06377850, 0.37616351, 0.21454310, -0.23144212, -0.02956471, 0.03830737, 0.04434567, -0.03958757, 0.04373048, 0.04609039, 0.03774415, -0.02821900, -0.06234448, -0.01517183, 0.20210014, 0.04181768, -0.00871708, -0.08038607, -0.18015979, -0.01395339, -0.07512392, -0.02113320, -0.04267752, -0.00501501, 0.02621320, 0.01953270, -0.11254934, -0.07087796, 0.11744957, -0.04381092, -0.08665636, 0.18689530, -0.06363369, -0.08582598, -0.08778169, -0.01300039, 0.10596140, 0.06331284, 0.01148091, -0.25294936, 0.04659977, -0.06266172, -0.19549826, 0.02576430, -0.06803069, -0.03816032, -0.09912112, -0.19495839, 0.16666554, 0.18958677, -0.02157147, 0.01993395, 0.15697761, -0.01809377, -0.09359266, 0.03046107, -0.03607842, 0.17822163, -0.05979936, 0.05558292, 0.04937075, -0.05564329, -0.00684526, -0.05760850, -0.00778568, -0.00961956, -0.14175522, -0.03964884, 0.04273468, 0.02704357, 0.04675918, -0.12378725, -0.10599448, -0.03440082, -0.15538131, -0.09888449, -0.03418317, -0.25126973, 0.11451036, -0.00126751, -0.06157769, -0.07969902, 0.03908901, -0.03118308, -0.05282465, 0.09699499, 0.27547762, 0.08285539, 0.01591748, -0.07851692, -0.00658383, 0.00858614, -0.19064867, 0.07333495, 0.02656881, 0.18105218, -0.00824188, 0.02861599, -0.07244139, -0.04517024, 0.09912728, 0.14881366, 0.00285207, -0.06471473, -0.08151168, -0.02228293, 0.02139781, -0.13380034, 0.05496769, 0.07822501, 0.04115592, -0.01851673, 0.17767288, -0.04242316, 0.04174130, 0.01512572, 0.06849775, -0.08433065, 0.09389047, 0.03210373, -0.07123890, 0.03625624, -0.41022146, -0.10857309, -0.05790184, 0.04845868, 0.18585928, 0.00251654, 0.01541972, 0.08514009, 0.00130274, 0.10603990, -0.04812856, -0.06639236, 0.05646863, 0.23520471, 0.05024215, 0.03596620, -0.07324623, 0.18524416, 0.14272994, 0.04912049, -0.14454341, 0.12657359, -0.01252817, -0.07286395, 0.02523010, 0.04446508, -0.19420515, 0.01497307, -0.04027661, 0.04068620, -0.02111841, 0.12337079, 0.01734957, 0.05041451, -0.04365354, -0.05606537, -0.09886319, 0.05265639, -0.06180011, -0.09748455, -0.07042440, -0.00736605, 0.02296041, -0.06912018, 0.15024397, -0.02835195, 0.08495191, 0.05903422, -0.10383724, 0.05372427, 0.01367757, 0.08863337, -0.06892525, 0.01578661, -0.09676624, 0.03961552, -0.20108633, 0.09279172, -0.15957710, 0.20827410, 0.02211151, -0.00523089, -0.14166072, 0.05957752, -0.01006824, -0.05568666, -0.08066547, -0.07981516, -0.14607537, 0.07412607, 0.00569553, -0.04951836, -0.12781581, 0.09547197, 0.02344870, -0.05221834, -0.09519491, -0.25602302, 0.04085661, 0.07577281, -0.01278040, -0.05973744, -0.04790365, 0.14866300, -0.04489325, -0.06110490, -0.04866093, -0.04969244, 0.04526889, -0.01781272, -0.07777725, 0.20612717, -0.01402843, -0.09047375, -0.05309384, 0.03561435, -0.09236214, -0.24305925, -0.33112109, 0.00026856, -0.02473664, 0.01205484, 0.01160380, -0.01877182, -0.18730165, 0.02520321, 0.11799005, -0.13864087, 0.00450937, -0.05760333, 0.03775805, 0.04589424, -0.16126844, -0.05181653, -0.05812540, -0.12863362, -0.09074952, -0.11900496, 0.03084387, -0.09261835, 0.04889962, -0.17327762, 0.17258474, 0.07796422, 0.02413065, 0.02937081, -0.05866887, -0.20380880, -0.01845139, -0.03573331, -0.02328447, 0.14911737, -0.01467133, 0.02137777, -0.01318632, 0.00207004, -0.13385902, 0.04682202, -0.07280015, -0.07995346, -0.06421923, 0.12947483, -0.08072278, -0.09332183, 0.20618998, -0.17357235, -0.13244201, -0.04754741, -0.19466221, -0.11957149, 0.12967601, -0.34903008, -0.21642934, 0.08588220, 0.00675479, 0.07884260, 0.11622047, 0.20102482, -0.01280099, -0.01754478, 0.27855229, -0.04301360, -0.18000102, -0.01940142, 0.23072690, -0.15705806, -0.09148954, 0.26497450, 0.00154074, 0.33243158, -0.13964072, 0.09429264, -0.15193154, -0.29863763, -0.24702695, 0.00581308, -0.20115991, 0.11666252, 0.12387164, -0.16882081, -0.31308001, -0.09440468, -0.23838820, -0.14548932, -0.08728974, -0.19722688, -0.28096744, 0.01669860, -0.31323281, 0.18426433, -0.24718957, -0.30749321, -0.08658570, -0.01816702, -0.08974111, 0.32391900, -0.07775778, 0.17158581, 0.28507903, 0.06539142, -0.25892448, 0.16553360, 0.32690611, 0.04116694, -0.13585038, 0.33082995, 0.33345231, 0.34893048, -0.33167332, 0.02971351, -0.14878199, -0.00538613, -0.11814913, -0.02142209, 0.36239544, -0.15486684, -0.16979684, 0.05992426, 0.08174714, -0.08989184, -0.33722982, -0.08382145, 0.08638549, -0.38849571, -0.09959736, 0.02407652, -0.08215878, -0.02655416, 0.35424441, -0.17023349, -0.01776998, -0.06817849, -0.22512861, 0.01240218, -0.09017394, -0.22536789, -0.01167585, 0.22708629, 0.04964516, -0.45370099, 0.21533954, 0.00659773, -0.24342637, -0.13544522, -0.13746446, 0.22249438, -0.15106024, 0.26943770, -0.17388289, 0.18648367, -0.09327650, 0.30072352, -0.16044205, -0.11131816, 0.07920089, -0.03443927, -0.28784674, 0.12858167, -0.04786745, -0.01983576, -0.20664987, -0.07338172, -0.16530055, -0.13413128, -0.10378515, -0.13147350, -0.18843438, 0.03602336, -0.02213988, -0.22913840, -0.20299675, 0.07961854, -0.10693390, -0.25988516, -0.04863218, -0.12187605, 0.38632101, -0.20060265, -0.18973707, -0.39165586, -0.14057752, 0.15950935, -0.00706714, 0.37463224, -0.04970795, 0.07175680, 0.17907470, -0.11393336, -0.10479776, -0.09536089, 0.09985860, -0.04356660, -0.16589771, -0.06696053, 0.05975011, -0.20046599, -0.05103502, 0.26681617, 0.10033442, -0.03431704, -0.14361429, -0.17977820, 0.02529918, 0.02783242, -0.13075215, 0.18266331, -0.22829525, -0.24331495, 0.00679244, -0.44288677, -0.11355354, 0.20165376, -0.02835597, -0.21368544, 0.18700793, -0.22265546, -0.20822658, 0.05975406, -0.31560716, -0.07281025, -0.26172104, -0.11932324, -0.16239282, -0.32122722, 0.02990109, -0.16924578, -0.03028505, 0.03114143, -0.34661692, -0.11071301, 0.02066604, -0.05664904, 0.06639048, -0.08346622, -0.10432792, 0.00313848, -0.04228059, 0.34003153, -0.38451597, -0.09970626, 0.02599935, 0.33299476, 0.34923902, 0.09831998, -0.14549911, 0.00623520, -0.03967829, -0.19961366, 0.11410616, 0.06795308, 0.05499144, 0.31295577, -0.28974172, 0.09860746, 0.04672795, 0.09611948, 0.06181669, 0.21908592, 0.00355777, 0.01968864, -0.09173943, 0.01155025, -0.19214852, -0.32083163, -0.09847583, 0.00647193, 0.01929966, -0.03793699, 0.02783095, 0.22308002, 0.01966066, 0.05393442, 0.15138571, -0.38459069, 0.26100364, 0.03970221, -0.20895086, -0.02685338, -0.25924289, -0.30642694, -0.17445827, 0.20477124, 0.05777744, -0.02846752, -0.09677309, -0.20994435, -0.51969117, -0.21029139, -0.36568162, -0.06518241, -0.10290511, 0.32878983, 0.11997496, -0.14935569, -0.01974331, -0.03686313, -0.25386912, -0.09123308, 0.35592455, -0.09411499, -0.12388979, -0.16808240, -0.03192532, -0.03185052, -0.03314165, -0.19102515, -0.18466501, -0.05450248, -0.20558955, -0.10877758, 0.14430995, -0.01991220, -0.22270961, -0.02341452, -0.11656102, -0.26120400, -0.09559104, -0.12484854, -0.09552963, 0.18782125, -0.21557707, 0.10429379, 0.04140313, -0.03878391, -0.18377835, -0.05752743, 0.15725069, -0.20247656, -0.02080304, -0.22997750, 0.60495955, -0.10878190, -0.17007291, -0.27337843, -0.26187247, -0.02913737, -0.02008672, 0.05268895, -0.03587328, 0.20441279, -0.03173868, 0.30122763, 0.00074942, -0.10272928, 0.00136370, -0.27301964, -0.25754347, 0.38174728, -0.16253638, 0.03937868, -0.08645600, -0.23752524, -0.24379808, -0.18587743, -0.04036654, -0.12824205, -0.19916061, -0.28218168, -0.02322171, -0.49828276, -0.02918844, -0.19755441, -0.35184163, -0.28781405, -0.13194312, -0.02477462, -0.02046436, 0.09981662, -0.16458707, -0.11778151, -0.04588820, -0.19061096, -0.00434440, -0.12232123, -0.44949675, 0.11682126, 0.44275457, 0.20962751, -0.28015730, -0.03515330, 0.22368953, 0.08404985, -0.04033575, -0.04859888, -0.10766499, -0.12209331, 0.28267696, 0.08001868, -0.02222877, 0.17102203, -0.10786556, 0.32208839, -0.14478174, -0.05193929, -0.18334158, -0.08271596, -0.09013624, -0.10043446, -0.03137936, -0.06734271, 0.11269447, 0.05564863, 0.17216219, -0.36830294, 0.30104312, -0.37801152, -0.08972246, -0.53552228, -0.13847642, -0.01342147, -0.08157387, 0.15947011, -0.51365662, -0.10935276, -0.10914488, 0.02790150, -0.00592591, -0.14640044, -0.06272255, 0.25527140, 0.25282720, 0.19444650, 0.04545756, 0.01686358, 0.02666304, 0.13393192, 0.36891052, -0.32815376, 0.00326587, -0.02618326, -0.35175991, 0.20267175, -0.35788941, 0.19032273, 0.01346596, -0.04441771, 0.06469230, -0.37584916, -0.07423560, -0.19679144, 0.19831823, 0.03959009, -0.15143169, -0.10477207, 0.04152208, 0.30079824, -0.28063911, -0.11770373, -0.11308673, -0.10748412, -0.15140192, -0.16617186, 0.34808919, -0.16979823, -0.14846538, 0.02682284, -0.31614223, -0.12689763, -0.25178021, -0.01109565, 0.01041555, -0.11393417, -0.10604560, -0.01077258, 0.01936765, -0.10821509, -0.12023497, 0.05830654, -0.71418577, -0.01223540, -0.07902525, 0.24808377, -0.05161332, -0.11870134, -0.20481987, -0.06693588, -0.02087221, -0.01820222, 0.02351415, -0.16743509, 0.14535654, -0.03078086, -0.11571035, 0.06320817, -0.15086541, 0.44085842, -0.03960667, 0.09529385, -0.10632727, -0.38428661, -0.20329836, -0.07919985, 0.07671273, -0.11369941, -0.01031465, -0.08257812, -0.06747754, -0.38327453, -0.03446466, -0.22798470, -0.01136897, -0.05572722, -0.28786823, 0.47618899, -0.40687898, -0.02922094, -0.11024008, 0.00747245, -0.02047355, -0.32477722, -0.84971654, -0.08165178, -0.16296715, -0.09355729, -0.07397214, -0.12981550, 0.07049280, -0.11306831, 0.13327608, -0.26279080, 0.05050015, -0.14198332, -0.01358711, 0.15709606, -0.12791201, -0.28898612, -0.12710698, -0.20728062, -0.18593393, -0.05884746, -0.03464754, -0.19565339, 0.53433156, -0.16404752, 0.36326844, 0.25848195, -0.14408357, -0.05278677, -0.15265198, -0.20878239, 0.32024738, -0.21683897, -0.03146794, -0.00452556, -0.01004252, 0.01177484, -0.10735385, -0.18230145, -0.35455900, -0.22769952, -0.00564927, -0.02660486, -0.14715722, -0.03621225, 0.17457244, -0.02703808, -0.00553447, -0.22963312, -0.10387084, -0.04546585, 0.02631757, -0.08536413, -0.08422267, -0.12190309, -0.23472072, -0.07186456, -0.08394954, 0.00188894, -0.17770760, -0.19369949, -0.19156431, -0.13346122, -0.23125026, -0.26440731, -0.02282868, 0.38035139, -0.16743280, 0.08306846, 0.02263402, -0.27719000, -0.05921218, -0.03155937, 0.14419456, -0.23315403, -0.06582708, -0.35857534, 0.42822224, -0.27965268, -0.25318992, -0.21069187, -0.09970886, -0.13205005, -0.21315168, -0.04559107, -0.04026821, 0.11975507, -0.07864326, 0.23514743, 0.10591687, 0.05922031, -0.13407893, -0.26852393, -0.16186163, 0.31347165, -0.25911891, -0.01497539, 0.02846668, -0.15196227, -0.03956729, -0.31121278, -0.20668325, -0.04373490, -0.09585291, -0.36863437, -0.13251169, -0.39212513, -0.15235475, -0.24439970, -0.25036517, -0.20499715, -0.14830492, -0.05196612, -0.02521493, -0.09713113, 0.04297346, -0.11872686, -0.01562300, -0.16495989, -0.11935490, 0.01382840, -0.45979548, 0.04756824, 0.29633766, 0.07835686, -0.25406241, -0.12097065, 0.22239043, 0.02574334, -0.17363460, -0.10557897, -0.00523695, -0.06096904, 0.20884427, -0.03001284, -0.10291966, 0.00844545, -0.08181504, 0.18891044, -0.12606435, -0.11568064, -0.09281850, -0.04147135, -0.05288629, -0.04364242, -0.11413082, 0.05790689, 0.02116949, 0.06405417, 0.15267053, -0.37476426, 0.22149073, -0.20891388, -0.00952856, -0.36846653, 0.01850310, -0.21241498, -0.26256248, 0.06207167, -0.49549845, -0.23717013, 0.00419829, -0.04485645, 0.07261353, -0.23269224, -0.10297646, 0.15639788, 0.09721059, 0.08961710, 0.01586016, -0.09031567, -0.06966665, 0.04763519, 0.27213317, -0.22407132, 0.06488867, 0.05505558, -0.14729086, 0.15433156, -0.36122319, 0.10012993, -0.18626627, -0.11495373, -0.01034617, -0.45495528, -0.00373043, -0.17368121, 0.25524154, 0.03706911, -0.07701129, -0.07472288, 0.02804519, 0.17958890, -0.29832366, -0.01143502, -0.14764301, -0.05727700, -0.09820885, -0.24844947, 0.20973298, -0.22097972, -0.14840931, -0.17392269, -0.11018263, -0.16378832, -0.12642159, 0.00123287, -0.09092690, -0.11658593, -0.05829370, -0.04247987, -0.06635009, -0.10539212, -0.07002928, 0.00982258, -0.44635478, 0.04300139, -0.27963647, 0.13441464, -0.16829996, -0.05171783, -0.15094802, -0.15022044, -0.15110822, -0.11152986, 0.05407706, -0.27719590, -0.02785113, -0.05185560, -0.04149340, -0.06605127, -0.24097593, 0.34776384, -0.08862226, 0.00728159, 0.00761041, -0.61241210, -0.19052941, 0.00893151, -0.08584304, -0.08631841, -0.15546475, -0.03034292, -0.10144025, -0.26812935, -0.12170172, -0.01023706, -0.04356589, 0.01447657, -0.30335882, 0.35117662, -0.24758241, -0.00573596, -0.06324035, 0.04873703, -0.11724945, -0.15328161, -0.70167762, -0.04943952, -0.08692434, -0.15078661, -0.09968320, -0.19443302, -0.00806454, -0.10098917, 0.15855719, -0.32807258, -0.00595359, -0.10236148, 0.02266725, 0.05882659, -0.24927127, -0.10682277, 0.03935444, -0.21872875, -0.21196580, -0.09880483, 0.04621975, -0.12672572, 0.50905001, -0.16825897, 0.13854988, 0.21442910, -0.08109910, 0.04823412, -0.22372790, -0.07597560, 0.28998104, -0.20038159, 0.00315800, 0.10371009, -0.04857503, -0.06615607, -0.07463423, -0.11603094, -0.14895044, -0.04234927, -0.14837267, -0.05479376, -0.05764650, -0.06186449, -0.00963649, 0.04949500, -0.04551644, -0.04489817, 0.05314714, -0.02720550, 0.08099894, 0.07013149, -0.02133362, 0.00856758, -0.14487106, -0.06770449, -0.11823981, -0.00159402, -0.05574126, -0.03640645, 0.03434679, 0.05371644, -0.05815595, -0.19038334, 0.05717952, -0.01143881, -0.00773858, 0.07861710, -0.04071073, -0.07770379, 0.01514787, -0.08229984, 0.03924501, -0.01123159, -0.02648268, -0.21805124, 0.08144978, -0.07584355, -0.10769747, -0.04972579, 0.03396822, -0.02667191, 0.00836889, -0.12339089, 0.15604471, 0.10192809, 0.07838522, 0.05620467, 0.15588044, 0.02505269, 0.03254950, 0.02162952, 0.00615933, 0.22520371, -0.12794027, 0.02968017, -0.01316898, -0.08671425, 0.04993181, -0.05654418, 0.00904658, -0.00701903, -0.18116595, -0.08270370, -0.03861294, -0.05973108, -0.04276557, -0.16803201, -0.09146456, 0.02487509, -0.04606592, -0.10189627, 0.00699348, -0.25487927, 0.13644624, -0.00664388, -0.02319014, -0.05586624, -0.00395946, -0.07531270, 0.00032260, 0.05131700, 0.20805626, 0.12148624, 0.00636017, -0.07696939, 0.01286080, 0.02775170, -0.17972398, 0.03092449, -0.09394205, 0.05561612, 0.04927377, 0.04450293, 0.05776183, -0.04384647, 0.00678751, 0.16483000, -0.06589519, -0.12928328, 0.02073505, -0.05675930, -0.03024580, -0.13805741, -0.04338465, 0.13213778, -0.03740966, -0.02357932, 0.14861205, -0.06909840, 0.03544991, -0.07997809, 0.00269548, -0.10601237, 0.11760648, -0.05389675, -0.03798624, 0.00642503, -0.25157204, -0.14391638, -0.08592003, -0.02528855, 0.07178262, -0.09533284, -0.02449185, 0.06533639, -0.04710424, 0.10098004, 0.03344014, -0.14936860, 0.01593746, 0.14986791, 0.08666070, -0.00024616, -0.09316803, 0.10749628, 0.04210677, -0.00871825, -0.09530406, 0.05066206, 0.06655119, -0.02944103, 0.00234414, -0.05415986, -0.18528962, -0.12502286, -0.02023252, -0.00535433, -0.08689802, 0.09682071, -0.04311164, -0.01112662, 0.00549526, -0.08403171, 0.06549915, 0.02922888, -0.02689601, -0.09176891, -0.00389421, -0.08795714, -0.07671131, -0.04950645, 0.00482216, -0.05155695, 0.03565945, -0.01200265, -0.11431523, -0.03233965, 0.02070525, 0.00386173, -0.04676881, -0.06382785, -0.00164507, -0.08976623, -0.20997803, 0.06833733, -0.07513823, 0.12110425, -0.02586798, -0.07850447, -0.08396696, 0.02067976, -0.01051327, -0.02145201, 0.00618634, -0.09091957, -0.20269832, 0.09617959, 0.05930343, -0.04652387, -0.16882212, 0.02296341, -0.07756264, 0.00491979, -0.03281034, -0.23860982, -0.02382291, 0.05608225, 0.03971009, -0.07531782, -0.00085725, 0.07835919, -0.01981909, -0.10190248, -0.06680577, -0.10179607, 0.04132733, 0.04183360, -0.02054441, 0.18113555, -0.03621890, 0.02678238, 0.09000098, 0.00945086, -0.16740555, -0.25531182, -0.27081656, -0.01080678, -0.03353149, -0.00323872, -0.01670639, -0.02902740, -0.07779006, -0.05045312, 0.07876081, -0.13402300, -0.00228684, -0.10336667, -0.00438674, 0.00637206, -0.09321510, -0.09712724, -0.02064317, -0.13210233, -0.07218760, -0.03256408, -0.08274546, -0.04764053, 0.05781166, -0.13244760, 0.16598591, 0.08463061, -0.07782985, -0.08882454, 0.04586045, -0.22367252, 0.05022768, -0.09137055, 0.04719585, 0.15542215, 0.07132529, -0.06552096, -0.10934426, -0.00555352, -0.23048510, 0.11744368, -0.09193905, -0.04155005, 0.01619641, -0.05932673, -0.16226418, -0.24016424, -0.14104901, 0.07648967, -0.01829055, -0.01400393, -0.42366803, -0.34350196, -0.03530093, 0.01902762, -0.01936618, -0.33319110, -0.27941954, -0.32896233, -0.26380515, -0.02704112, -0.00433581, -0.15058023, 0.04872946, -0.28513637, -0.38780510, -0.18580285, -0.16232134, -0.21120077, -0.19482346, 0.11704925, -0.10551777, 0.06360466, -0.22280490, 0.00347227, 0.08828077, 0.06050928, -0.34941307, 0.11154859, 0.06295944, 0.05145222, -0.31020045, -0.00094887, -0.01631620, 0.05010801, -0.27965376, -0.25648493, 0.01924204, -0.35824841, -0.35682419, -0.14838199, -0.00624482, 0.07968050, -0.03465918, -0.35091579, -0.20602410, 0.02205604, -0.00196660, -0.14168794, -0.46092078, 0.11299791, 0.18819401, -0.22697458, 0.03686726, 0.10214318, 0.01213699, -0.14078158, 0.08150548, -0.12605137, -0.26280043, -0.06918804, 0.06121656, -0.32676473, 0.06037202, 0.01737164, -0.42117187, -0.04102942, -0.01046456, -0.10274789, 0.00731445, -0.14474812, -0.44239664, -0.15043432, -0.33366263, -0.13876951, 0.00893869, 0.03931367, -0.26492885, -0.02526446, 0.09232427, 0.09114134, -0.01324119, -0.17453872, -0.12046354, 0.02868399, 0.03139004, -0.11640918, -0.02520920, -0.28104284, 0.05087625, 0.01268418, -0.11624791, 0.00986601, -0.21969156, -0.22013286, 0.06149317, -0.26433897, -0.22967526, 0.04164911, -0.20870516, 0.07786106, -0.17370439, -0.40557984, -0.14098589, -0.11920422, -0.38140070, 0.06491165, 0.15431988, -0.27779940, 0.11394321, 0.08072153, -0.12243347, -0.07335687, -0.34574893, 0.03148668, 0.05369160, -0.38188785, -0.29170141, -0.08805133, 0.00294565, -0.22472741, -0.05221777, -0.26771361, -0.18725398, -0.14290786, -0.12045868, -0.25387651, -0.24232732, -0.41375771, -0.00600537, -0.17976157, 0.03670902, 0.00616856, 0.01142483, -0.01997371, -0.03717218, -0.32262647, -0.04613625, -0.02001585, -0.00296859, -0.17343606, 0.08081640, -0.17566232, -0.29157206, -0.09840320, -0.06105348, -0.04161872, -0.18151298, 0.05377117, -0.10561858, -0.00496404, -0.08537538, 0.14377205, -0.37504485, -0.02246982, -0.05957595, -0.10131573, 0.05294830, 0.06689163, -0.01683408, -0.15121478, -0.18073817, 0.05522995, -0.06937197, 0.03318762, -0.38361004, -0.25345895, 0.05930066, -0.17125480, -0.04413814, 0.03197705, 0.09700239, -0.07218095, -0.00401258, 0.07217788, -0.02261969, 0.04266621, 0.12308323, -0.25951967, -0.08163450, -0.07679499, 0.11554396, -0.14870811, 0.13282600, -0.07168013, -0.07342391, -0.45361128, -0.01044109, -0.21406935, -0.06537051, -0.05459252, 0.15887372, -0.33022496, 0.02363040, -0.26464120, 0.02617455, -0.26393166, 0.04437867, -0.03839666, -0.22637340, -0.29266819, -0.06226960, -0.15848833, 0.01567497, 0.00785176, 0.07117457, -0.16102077, -0.42866096, -0.20094262, -0.15442017, 0.08583136, -0.11485989, -0.21496111, 0.00444255, 0.08406728, -0.21544059, 0.04692853, -0.13056697, -0.26244533, 0.04262744, -0.02803911, -0.20077823, -0.19880249, -0.19401354, -0.03455244, -0.08686676, -0.01134271, 0.06424237, -0.14853029, -0.27096596, -0.09029111, -0.31978601, -0.39334899, 0.02309207, -0.00022909, -0.25113890, -0.05215319, -0.11773843, -0.02273428, 0.04726474, -0.36467087, -0.01005607, 0.02467968, -0.00204351, -0.06211478, -0.21123892, -0.28278688, -0.08490207, -0.06447318, -0.03851216, -0.03747779, 0.07758205, 0.08583947, -0.05559532, 0.03368213, -0.08169050, 0.02188308, 0.20753859, 0.12219476, -0.01286805, -0.08132008, -0.20072015, -0.09423319, -0.08342981, -0.07529701, -0.06082139, -0.00203243, -0.07730553, 0.11183660, -0.08753025, -0.21841574, 0.22450379, 0.02921576, -0.03052293, 0.20940292, -0.01164931, -0.12834667, 0.00328358, 0.03548662, 0.19058929, -0.02345259, 0.00606438, -0.20924164, 0.17241421, -0.14739655, -0.17103529, -0.01523803, -0.00110842, -0.05984311, -0.16264476, -0.18325911, 0.18600914, 0.18920408, 0.00851092, 0.06639846, 0.19286188, -0.08338248, -0.06741593, 0.01442382, -0.05776612, 0.32188463, -0.10898861, -0.02182800, -0.01108270, 0.01565050, 0.17225775, -0.15198836, -0.05027094, -0.07184331, -0.24625258, -0.03826726, 0.05406956, -0.05382121, -0.07944927, -0.14951637, -0.06181175, -0.01453021, -0.14497679, -0.03280648, -0.07217251, -0.21955262, 0.25625479, -0.03126182, 0.13841213, -0.13194071, 0.03221809, -0.03443041, -0.20150992, 0.18735786, 0.35007653, 0.07594119, -0.02342859, -0.18300258, 0.08255256, 0.00783935, -0.27722868, 0.00245094, 0.07088500, 0.12008134, 0.03671033, -0.00881823, -0.02755794, 0.04985855, 0.07907816, 0.25331286, 0.04389321, -0.08689564, -0.10981562, -0.08660962, -0.06620221, -0.09640336, -0.01174934, 0.16068383, -0.01174048, -0.03390455, 0.21581088, -0.10051896, 0.15258850, -0.12553203, 0.06982830, -0.07693513, 0.21064529, -0.04795976, -0.19305226, 0.07424787, -0.52666658, -0.08580558, -0.14057301, -0.06746541, 0.24812670, -0.04191321, -0.05440591, 0.00824832, 0.00886688, 0.06612942, -0.00025876, -0.10170364, 0.02189578, 0.20049049, 0.11257119, -0.03042988, -0.03456267, 0.26484290, 0.16810267, 0.04368751, -0.07354753, 0.19673787, -0.06344350, -0.06951850, -0.04111636, -0.04662753, -0.02401826, -0.08052865, -0.02543375, 0.06861389, 0.04511323, 0.10014268, -0.03916794, 0.10688771, -0.07454189, -0.16076472, -0.07616767, 0.00463675, 0.00220812, -0.05463143, -0.00470414, -0.04308278, -0.00758102, -0.13485019, 0.13239329, -0.03776975, 0.03861888, -0.04882532, -0.14424725, -0.01315485, 0.00456319, 0.06817577, -0.09013635, -0.13174471, -0.04249448, 0.00430990, -0.23288634, 0.11083391, -0.20295694, 0.21530604, -0.01287464, -0.06022065, -0.21232288, -0.06079043, -0.10221305, -0.05903412, -0.03510609, -0.24327584, -0.10842007, 0.05885736, 0.00962766, 0.02272607, -0.17353299, 0.06716920, -0.02570130, -0.03005028, -0.05115155, -0.34699553, 0.02495557, 0.09939459, -0.05462683, -0.00980872, -0.10129891, 0.06672836, -0.10156113, -0.10456739, -0.01683300, -0.07939338, 0.02837988, 0.02856294, -0.04052098, 0.22441001, -0.02396632, -0.05462333, 0.02288397, 0.07445427, -0.21380527, -0.14929973, -0.30806616, 0.01565724, -0.10985629, -0.03043895, -0.06071440, -0.11656468, -0.05934979, 