// Auto-generated: [128, 128] silu
// Strategy: weighted_mse_strong
// Params: 17411, FLOPs: 35328
// MAE: 6.57 G, relMAE: 6.7485

#pragma once

static const float net_0_weight[384] = {
  -0.10203473, 0.37027451, 0.04524951, -0.55939913, -0.19802859, -0.10126276, -0.23966752, -0.36597213, 0.42460456, -0.06854165, -0.48898891, 0.34323987, 0.52840948, -0.52794558, 0.52650714, 0.36053884, -0.55820704, -0.35584134, 0.42450660, -0.01266860, -0.30198839, 0.47200021, -0.24607801, -0.35985297, 0.51329750, 0.20577605, -0.22079356, 0.38468790, -0.30560458, 0.36573046, -0.21754619, -0.29040396, 0.43985388, 0.19888395, -0.28502604, -0.22625470, -0.22566377, -0.35681516, -0.09217235, 0.41102189, 0.08852088, -0.60787821, 0.10260268, -0.07813627, -0.53907704, -0.31740505, 0.11676637, -0.26888314, -0.13858405, -0.24106184, 0.27774775, 0.57827860, -0.16202848, -0.41047955, -0.55110276, 0.24196357, 0.46080378, -0.02969862, 0.35279307, -0.35864270, 0.11521890, -0.01947025, 0.36411807, -0.10139384, 0.56068277, -0.31439295, 0.33825344, 0.11850736, 0.20849405, 0.32285079, -0.27661920, -0.06539709, -0.00652508, -0.29285344, 0.10069607, 0.19586723, 0.00551579, -0.46267977, 0.11081801, -0.08389947, 0.50054497, 0.33955425, -0.54381901, 0.49098387, -0.47871223, 0.48097348, 0.32538998, -0.33490068, 0.32509676, -0.32037148, -0.18247369, 0.38826406, 0.02308925, -0.17950846, -0.01912175, -0.14605337, 0.36263990, 0.50265545, 0.51186693, -0.16556039, -0.38802019, 0.17346652, 0.48335963, 0.20140846, -0.39270699, -0.01323688, -0.26665765, -0.12913115, 0.15079144, 0.15080556, 0.14986648, -0.47444707, 0.18667904, -0.31786370, 0.33430350, -0.56078446, 0.10993071, 0.34885040, 0.09261429, 0.20399344, -0.23218605, -0.20336118, -0.47919792, 0.52494383, -0.36580053, -0.42690510, 0.48792183, -0.42523646, -0.22840682, 0.52770597, -0.48002043, -0.06486442, 0.42961699, 0.42686307, -0.13801655, 0.19780965, -0.22408457, 0.56634665, 0.15605058, -0.02698297, -0.07334065, -0.34846660, -0.32263198, 0.01270581, -0.57963967, 0.32458395, -0.43492499, -0.03795858, -0.51846874, -0.51497090, 0.54436654, -0.43847719, 0.01816119, 0.38818434, -0.08850501, -0.49340963, 0.20958951, 0.23218967, 0.01385939, 0.48864096, -0.22500806, 0.24672720, 0.02048125, -0.47693747, 0.51113349, 0.34518355, -0.18991494, 0.01492750, -0.19193384, -0.47907948, -0.44277281, 0.29518718, -0.01018302, -0.31452805, 0.31563744, -0.35317650, -0.44625458, -0.23165265, 0.44938901, 0.17081305, -0.04335091, 0.41588432, -0.10880031, -0.33077487, 0.33045661, -0.08056109, 0.53873032, 0.25226572, -0.18086700, -0.16955647, -0.05120048, -0.36542147, -0.36758059, 0.00636461, -0.48246279, 0.26906234, 0.09480159, -0.55269831, 0.32902339, -0.05411320, 0.45373806, 0.55642784, 0.36525425, -0.30744526, 0.35838634, -0.01000291, 0.21305878, 0.49525756, -0.39548540, 0.26907206, 0.05450151, -0.44162983, -0.34515020, -0.27431583, -0.53549415, -0.41523212, 0.54044712, -0.14842159, -0.31011197, 0.54727381, -0.07307031, -0.26134372, 0.42728844, -0.18496510, 0.26937693, -0.15974489, 0.49403170, -0.21212646, -0.09787515, -0.09682807, 0.07157299, 0.28778705, 0.51316595, -0.31510597, 0.03776487, -0.53994197, 0.57409436, 0.15988111, 0.50579017, -0.39888549, 0.10038652, 0.04215194, 0.29823071, 0.39481074, 0.13794552, 0.19956791, 0.43900633, 0.48435098, 0.28314266, -0.29714203, -0.00740709, -0.56215090, -0.08464776, -0.22052661, 0.26709521, -0.50548685, -0.30481434, -0.57907385, 0.38282123, 0.48510769, -0.42341721, 0.41067931, 0.31488195, -0.20476992, -0.41478276, 0.39672533, 0.39715186, 0.15872397, -0.21539159, 0.03594057, -0.13969836, -0.22281076, 0.34958121, -0.01888554, 0.40896928, -0.04674123, 0.40438369, 0.32174623, 0.19429505, 0.23585033, 0.30612651, 0.27366892, -0.08713569, 0.26511481, 0.54284739, -0.22525616, -0.39094156, 0.24957997, 0.09988662, 0.15527709, -0.24460275, -0.21427990, 0.02609695, -0.38854146, -0.22525954, -0.05992128, 0.27150998, -0.19746515, -0.46201807, 0.16841459, 0.07492859, 0.20353636, -0.50480855, 0.44180095, -0.14892954, 0.00316934, -0.20161909, 0.49931157, 0.31407228, -0.56656653, -0.27949065, -0.21023791, 0.02677793, 0.19344446, 0.44346994, -0.32659224, -0.29868871, -0.52522516, -0.52878428, -0.00604899, -0.33087918, -0.54223812, -0.51386684, 0.49223593, -0.26358405, -0.32134056, 0.55961603, -0.53581595, -0.11903550, 0.49898785, 0.41787061, 0.43639359, -0.50558549, -0.23469953, 0.28813463, -0.47174209, -0.52083111, 0.35315123, -0.07267953, -0.35107833, 0.46383440, -0.16916892, -0.01665509, -0.24043727, 0.18680504, -0.07226088, -0.10959233, -0.47527996, -0.09205109, 0.41091254, -0.20454080, 0.28373629, -0.15478246, 0.29742557, 0.19825807, -0.09103854, -0.11376476, 0.58349639, 0.39440504, -0.53833020, -0.03250613, -0.23688540, 0.13717997, 0.10908999, -0.33091047, -0.22597468, 0.28577206, 0.52273321, 0.57165098, 0.14920519, -0.24323758, 0.22489287, -0.21530418, -0.21252589, 0.53787178, -0.33046988, -0.12778072, -0.50351804, -0.33744535, -0.37208119, -0.08090427, -0.19845136, 0.07837418, -0.36598930
};

static const float net_0_bias[128] = {
  0.56021649, 0.27584898, 0.30149266, -0.41017422, 0.19825356, -0.41813609, 0.13844341, 0.43793237, 0.50153804, -0.52496642, -0.07713100, 0.22243993, 0.16549698, -0.48527247, -0.33398139, -0.16950303, 0.49593377, -0.45760649, -0.20081535, 0.49276739, -0.53600639, 0.44068670, -0.39221889, 0.05942534, 0.08317208, -0.54429489, -0.07634753, 0.04869901, 0.56433922, 0.34270975, 0.38367823, -0.12646589, -0.43762574, 0.48057404, -0.42989329, 0.28328535, -0.37788820, -0.11920125, 0.55780607, -0.41723096, -0.38176572, 0.25952595, 0.12927574, -0.48882818, 0.29599324, 0.08372643, 0.09544947, -0.48730946, 0.21513662, 0.40110162, 0.29491746, -0.08808177, 0.10954804, -0.41362888, -0.15841076, 0.50344396, -0.42182392, -0.00984417, -0.04873199, -0.17367886, 0.16606677, -0.28315115, 0.28296408, 0.30593899, -0.15967923, -0.47091576, 0.08859603, 0.33993188, 0.07086729, -0.29854292, 0.08301664, -0.54086220, -0.18673468, -0.50544745, -0.23545919, -0.40844360, 0.04620060, -0.50856274, 0.46252814, -0.16958696, 0.24074002, 0.18268618, 0.10545148, -0.41251478, 0.01363562, -0.26753622, -0.42730257, -0.10773896, 0.24469630, 0.49659219, -0.52008504, -0.16308908, -0.24905846, -0.37655959, 0.11883949, -0.36952868, -0.35425100, 0.41354936, -0.04605159, 0.10571752, -0.15760227, 0.40148166, 0.17857487, -0.08304164, -0.49558112, 0.27130941, -0.30800015, 0.04385610, -0.31297597, -0.01755562, -0.51895899, 0.05861562, 0.14556335, -0.08829547, -0.32647613, -0.00202947, 0.29370502, 0.51376796, -0.10860608, -0.53219700, -0.17009632, -0.40527782, -0.05761170, 0.50558835, -0.35933223, 0.31351802, -0.23677105, -0.01069164
};

static const float net_2_weight[16384] = {
  -0.04896446, 0.09376124, 0.02448707, 0.03011174, -0.06362440, 0.05267498, 0.06502792, -0.01536813, -0.06793784, -0.03540223, 0.08292056, -0.08539179, 0.01402997, 0.01907599, -0.05978689, 0.02120835, 0.03968265, -0.07772275, -0.08562326, 0.06906726, 0.07716478, 0.04456095, -0.01950300, -0.04323041, -0.07888758, -0.06931251, 0.00040613, -0.07754115, 0.01142287, -0.00846681, -0.04350419, 0.00099825, 0.04357696, -0.03089817, -0.08037803, -0.08495714, 0.05357637, 0.04074210, -0.02819861, -0.07418171, 0.00774843, -0.08641491, -0.03997190, 0.00567549, 0.00917646, -0.01002729, 0.04134290, -0.02183432, -0.07401896, -0.02422667, 0.07141940, -0.01019465, -0.07861389, 0.00385235, 0.00238139, 0.05434534, 0.06098921, 0.06736285, 0.00727786, -0.07816378, 0.03108560, -0.02280412, 0.08613019, -0.08407454, 0.06480485, -0.03903434, -0.08832556, -0.00611118, -0.01960705, -0.07118008, 0.04587380, 0.07841525, 0.01431005, -0.06475075, 0.05282016, 0.00779165, -0.02563022, 0.00820882, -0.09028888, 0.05925893, -0.02029977, 0.03976769, -0.03424272, -0.03777296, -0.04911901, 0.02350959, -0.07395077, -0.01002638, 0.06049754, 0.00868672, 0.08296630, 0.01808488, 0.04564216, 0.03560527, -0.00814441, 0.00720640, -0.06295301, -0.01605765, -0.06434381, -0.00590237, 0.08659024, -0.07006937, 0.08311553, -0.00655559, -0.07861187, 0.09571805, -0.03128093, -0.05581816, 0.07928959, -0.04621425, 0.02464821, 0.00435117, 0.01263653, 0.00968118, -0.04683845, -0.04793836, 0.08534921, 0.02320686, 0.03624544, 0.07799919, 0.04831059, -0.06362472, 0.05581897, -0.04311266, 0.03230225, -0.02511092, 0.01796764, 0.02903284, -0.00027732, -0.02813789, -0.00553661, 0.03741775, -0.04504564, -0.03129920, 0.05340401, -0.03345972, -0.01887497, -0.06934405, 0.08621661, 0.06139322, 0.03631739, 0.02067703, -0.07959786, -0.06696539, -0.05945292, 0.06008334, -0.04487926, -0.07812356, -0.03367695, 0.07570208, -0.05328368, -0.07245927, -0.05388182, 0.04647510, -0.01349244, 0.07414298, 0.03230425, -0.00588774, -0.02988821, -0.07512841, -0.07863507, -0.02416180, -0.01098593, -0.03291306, 0.04998105, -0.04307067, 0.04254228, -0.04568330, -0.06976749, -0.01598717, 0.04233689, -0.04920258, 0.00481661, 0.07933605, -0.02736231, 0.02722392, 0.01626109, -0.03177370, -0.02588352, -0.07957308, 0.03517429, -0.02571682, -0.02927226, 0.01514387, -0.07167645, -0.07485271, -0.06080069, 0.00968810, -0.03019259, 0.02163647, -0.02398937, -0.05839664, -0.00190593, 0.07742044, 0.01545617, -0.03291506, -0.03548762, -0.05705668, 0.03649041, -0.04785301, -0.02341930, 0.01889349, -0.05368619, -0.01612888, -0.02985168, -0.07402657, 0.07183943, 0.08127648, -0.04337877, 0.07802873, -0.08487348, -0.03915887, -0.06566671, -0.05435264, -0.02885859, 0.05780122, 0.02499672, 0.04362920, 0.05304210, 0.01081680, 0.07900230, -0.05893817, 0.04524003, 0.03434873, -0.02872315, 0.01461518, -0.07820106, 0.04267138, -0.08081287, 0.06426997, -0.03220932, -0.00358215, -0.02527338, 0.07565273, 0.07421885, 0.01441995, 0.01137498, 0.05011569, -0.09076832, -0.06282610, 0.05654109, -0.08148996, 0.07798178, -0.00085773, 0.06622522, -0.05364159, -0.05765385, 0.00582190, -0.06170464, 0.02004486, -0.04891183, -0.08400176, -0.07767661, -0.01943783, -0.02488302, -0.07845947, -0.09016066, -0.01648612, -0.04240770, 0.00014452, 0.01671661, -0.00782011, -0.01532657, -0.09080350, 0.07248823, -0.01432940, -0.06916807, 0.04895002, 0.07098193, -0.06311642, 0.07681575, 0.06367579, -0.05720751, 0.07462773, 0.04315586, -0.09038036, -0.02095176, -0.04916865, -0.05984050, 0.07397497, 0.01386355, 0.06324180, -0.07333321, -0.07797609, 0.00092454, 0.05784481, 0.06818578, 0.07175077, 0.01669247, -0.02721379, 0.02141177, -0.02946984, 0.01595798, -0.05372370, 0.02706928, 0.01105401, 0.02117372, -0.01830304, -0.07243634, 0.05717990, 0.06630568, -0.02175149, 0.04760640, 0.03396723, 0.00842762, -0.01762041, -0.06123888, -0.05824956, -0.05150429, -0.07331191, -0.07110815, 0.07225569, 0.03174493, -0.07272756, -0.03093313, -0.04886167, -0.03808196, 0.07852248, 0.02555122, -0.02491292, -0.08657663, -0.02739364, -0.02630546, 0.00337002, -0.04364952, -0.05731832, -0.07209177, 0.02996111, 0.08700919, -0.06029669, 0.06484125, 0.07643932, -0.06225945, -0.08735751, -0.04682659, 0.07352822, -0.02724128, 0.07181155, 0.03544950, -0.00876591, -0.01283449, 0.01729410, 0.06018911, 0.04624878, -0.05453278, 0.02363272, 0.06067909, -0.06241613, 0.00091457, 0.01942403, -0.03781813, 0.03665900, 0.04629474, -0.04882107, 0.09806689, -0.00431450, 0.01828212, 0.02026527, 0.00772341, 0.05877556, 0.07003668, 0.03723381, -0.05894946, -0.05577733, 0.07600300, -0.07031932, -0.00743680, 0.00121436, 0.07449888, 0.04989129, 0.01793545, 0.06330387, 0.04371997, 0.03224945, -0.06094469, -0.03369335, -0.05400356, 0.08489808, -0.08864944, 0.07220142, -0.04774082, -0.09576046, 0.00637441, -0.07727238, -0.05652193, 0.05681926, 0.06307995, -0.07739206, 0.03434590, -0.04755904, -0.09101692, 0.06510136, -0.07578540, -0.04185122, -0.04517812, 0.00329520, 0.01471030, -0.00655007, -0.03525002, -0.08377876, 0.04808858, 0.03765453, -0.04990579, -0.07542609, 0.04827606, -0.05710125, 0.05572960, 0.01072301, 0.02448838, 0.01619573, 0.02924589, -0.01884730, 0.07789975, 0.06072142, -0.09436328, -0.02385377, -0.10028819, 0.09107044, 0.04543744, -0.07747247, 0.08280625, 0.02158695, -0.06924408, 0.07242919, 0.00229295, 0.07118834, 0.02831766, -0.06229870, -0.07553310, -0.05166402, 0.02462265, -0.00437089, -0.01868293, 0.07272030, 0.07880452, -0.06808147, -0.02848400, -0.02822436, -0.05055989, 0.04518865, 0.08620350, 0.00329493, 0.06759422, -0.02247369, 0.06023016, 0.04329916, 0.04184493, 0.06581301, -0.06280186, -0.00262397, -0.07076469, -0.03327051, -0.01698146, 0.07298447, 0.08862393, 0.00179002, -0.02239834, 0.04758035, 0.08145300, 0.02917425, 0.08534422, -0.05861837, 0.04468031, 0.06630943, -0.07660678, -0.07680604, 0.06449399, 0.07069419, 0.03144195, -0.05108458, -0.00165809, -0.06714568, -0.08175971, 0.06189364, -0.02860055, -0.09452870, 0.05213795, -0.05559474, -0.01098773, 0.00372279, 0.00926375, 0.00806261, 0.03019747, 0.05883789, -0.01504606, -0.01620980, -0.00918635, -0.05571548, 0.01329489, -0.01855071, -0.03615459, -0.05301699, -0.01120183, -0.07478248, 0.03253544, 0.03512789, 0.00370185, 0.00049737, -0.04992612, -0.08237596, -0.04882864, -0.03096240, 0.08613438, 0.04030346, 0.06778128, 0.04626277, 0.00089678, -0.00593813, -0.04499700, 0.02444929, 0.06961247, 0.02654990, -0.01244681, 0.07916648, -0.04277101, 0.03355619, 0.07067907, -0.03023311, 0.06945983, 0.03227942, 0.06817602, 0.08042756, 0.07425401, -0.04509515, -0.01380772, -0.06733240, -0.02381191, 0.08144207, 0.05610399, 0.04162669, 0.07798743, 0.03566267, -0.01722289, 0.07353895, -0.03078316, -0.03111340, 0.00481659, -0.06285389, 0.08534048, 0.06959829, 0.04607083, -0.08865754, -0.00184865, -0.02281563, -0.08036844, -0.07480796, -0.06962771, 0.04599770, 0.08196780, -0.01182753, 0.08382707, -0.01389245, 0.06554595, -0.02460671, 0.00738005, -0.01313435, 0.07109341, 0.01894565, -0.01122836, -0.07612518, 0.08357650, 0.04221162, -0.05491849, -0.02834459, 0.07216630, 0.01153353, -0.05817054, 0.07611671, -0.01785987, 0.03568863, 0.06716819, -0.04608165, 0.07305596, 0.03332939, 0.02360177, -0.04651272, -0.07967042, 0.06744246, 0.08745603, -0.07545215, 0.06651805, -0.04725299, -0.00898738, -0.01378425, 0.01760623, 0.08289941, -0.02830144, -0.07117178, 0.06124475, 0.05521243, 0.03804510, -0.00426633, -0.04776199, -0.00044308, 0.00693311, -0.02000341, -0.01698132, -0.01928827, -0.04566425, 0.06753843, -0.01699869, 0.04466698, -0.05904539, -0.05047643, -0.01429258, 0.05660321, -0.03220858, 0.00037487, 0.03311367, -0.02612446, 0.07669670, 0.08056104, 0.04021474, 0.02436554, -0.08856498, 0.03760548, 0.01789195, 0.04089321, -0.06931143, 0.04131393, 0.02824930, 0.08338010, -0.05373873, -0.05231181, 0.00647272, -0.06528877, 0.08976652, -0.00657144, 0.02311617, -0.03016071, 0.08097611, 0.00964443, 0.08022018, -0.07912883, -0.05296829, 0.08110279, 0.03712159, -0.07413796, -0.06121996, -0.05436634, -0.00321021, 0.04076680, 0.05268661, -0.01022205, 0.04704246, -0.07528231, 0.09656044, -0.01463352, 0.04017898, 0.07133649, -0.06561398, 0.04065184, -0.07345980, 0.03450771, -0.06763483, 0.04862243, 0.08075571, -0.08983129, -0.00078032, 0.05990487, 0.03446106, 0.05717559, -0.09120867, -0.07134836, -0.03441701, 0.02346106, 0.07219406, -0.06479643, -0.00929411, -0.00189527, 0.03253790, 0.06866794, -0.05819448, -0.03907568, 0.03360473, -0.00847800, 0.03838524, -0.02491719, 0.07294742, 0.06851133, -0.06346864, 0.01476856, -0.03946750, -0.01954004, 0.01797353, -0.02355032, -0.00053979, -0.02391514, -0.05242459, -0.02447593, 0.01112228, 0.08637303, 0.08673926, 0.05896464, -0.01879968, 0.02853024, -0.03761419, -0.06948555, 0.07449613, -0.05663886, 0.02022640, 0.05795198, 0.04510916, 0.01887555, 0.04602027, 0.03865817, 0.05508005, 0.06143030, 0.02386747, -0.07330374, 0.07049400, 0.04272042, 0.06138977, 0.06789748, -0.01642114, 0.06997934, 0.02781459, -0.05646208, -0.03262560, 0.00681115, 0.02973282, 0.09040915, -0.07444783, -0.06124639, 0.04821033, 0.05395439, -0.00869551, 0.01616081, -0.02279802, 0.04020616, 0.03845666, 0.01931185, 0.08634921, 0.04055767, -0.08273541, 0.00041265, -0.04525124, -0.03608156, -0.08779251, -0.02316316, 0.02928746, -0.03634166, -0.00658476, -0.01560067, 0.04804425, -0.06784566, -0.04949819, 0.00914045, -0.08195628, 0.01294296, -0.00130620, -0.04909464, 0.02843884, 0.05517662, 0.00017629, 0.06853241, 0.07829191, -0.00736317, -0.01226409, 0.08274648, 0.06338654, -0.09397057, -0.01501455, -0.00326944, -0.01923290, 0.09931605, 0.03318385, 0.00710994, -0.00750932, 0.03075488, 0.08679114, -0.02366086, -0.04476038, 0.06536455, -0.07506715, -0.01965922, 0.00513703, 0.08764868, -0.02620672, -0.03863669, 0.07509615, 0.04207583, -0.05456288, -0.02764983, 0.05579535, -0.01711370, -0.00809286, 0.01286564, -0.07054298, 0.00579714, 0.00275221, 0.05483399, 0.05305035, -0.05035921, 0.05722449, 0.04778978, -0.03927157, -0.03687317, 0.02982842, 0.00541367, 0.02202006, -0.05319878, -0.03298364, 0.04806995, -0.06348584, -0.03308436, -0.01030498, -0.01442216, -0.03319280, -0.06499904, -0.06174523, 0.01100610, -0.01190890, 0.02924283, 0.00726097, 0.07214722, 0.06537644, -0.00622139, -0.06676322, 0.02676066, 0.03711764, -0.05147198, 0.07641556, -0.06862965, 0.06170838, -0.02856443, 0.02967621, 0.01631265, 0.07281391, -0.02076233, 0.00416063, -0.03729548, -0.08009680, -0.07245831, -0.02458229, -0.06517982, 0.01142566, -0.04321248, 0.04169065, -0.07414408, 0.07339082, 0.00789145, 0.05177234, 0.00764355, -0.01465343, 0.00743213, -0.03762263, -0.04070158, -0.04664002, 0.06810994, 0.00405975, -0.07941209, 0.04712270, 0.08275752, 0.00054177, 0.06971800, -0.03165305, -0.01720508, 0.07738733, -0.00020009, -0.04039438, -0.08202950, 0.08341223, 0.01922560, -0.08086228, 0.01315566, -0.08498807, -0.01207667, 0.08532002, 0.03748452, 0.06844950, 0.00704779, 0.08123767, 0.01436799, -0.08320509, -0.01341051, -0.06496041, 0.03740312, 0.07621823, -0.08688851, 0.06882554, -0.00220144, 0.06492082, 0.02622077, -0.07335093, 0.03927431, -0.08186861, -0.07952794, 0.02605797, -0.07431451, 0.06221066, 0.02624147, 0.08616189, -0.03468194, 0.07439738, -0.01584528, 0.07196365, -0.09216385, 0.06577669, -0.03538303, 0.02504006, -0.03621425, -0.08891984, -0.02248109, 0.02580441, 0.09588661, 0.08271945, -0.01503784, 0.04770475, 0.06650747, 0.02642711, 0.09512403, 0.01356988, 0.08781772, 0.02295747, -0.07048739, 0.02418832, 0.04074000, -0.04396020, 0.03600352, -0.06668074, -0.00895657, 0.08439063, -0.04398016, -0.05713844, 0.06017858, -0.02958188, -0.05561251, 0.05097207, -0.07538391, 0.03404557, -0.02686093, -0.04808115, -0.01307087, -0.05564434, 0.01720333, -0.06054652, 0.04248824, -0.05222383, -0.05996842, -0.04110547, -0.00315459, -0.06795801, -0.05411899, 0.08068822, 0.03213971, 0.02018434, -0.08614875, 0.05930427, 0.08032304, -0.04557477, 0.01004416, -0.08992440, -0.05532177, -0.01281301, -0.00818526, -0.06193468, -0.03810499, -0.07907353, 0.00359553, 0.07115465, -0.00639705, -0.03774973, 0.06708885, -0.02605863, 0.00674019, 0.05714570, -0.01937809, -0.01022850, 0.05161995, -0.05430752, -0.05638498, 0.04352985, -0.06115226, 0.00760656, 0.01850849, -0.00595181, -0.02029926, -0.06712281, 0.06176899, -0.07065949, -0.07982736, -0.00169534, 0.04904900, -0.00059403, -0.10365199, 0.09973480, -0.02519247, -0.06194778, 0.04507934, 0.00265118, -0.07331385, 0.03893952, -0.05884729, 0.08181593, -0.04973237, 0.03509966, -0.05549759, -0.04914338, -0.06004835, 0.00302813, 0.01570259, -0.02231403, -0.04134321, 0.09267034, 0.08863519, -0.04914957, 0.04747220, 0.05952254, 0.02743441, -0.06509718, 0.02819527, -0.08981150, 0.00251570, 0.03799925, -0.05246449, -0.01308078, -0.07219423, -0.06188475, -0.08139564, 0.09979833, -0.03409814, -0.06431038, -0.06041180, 0.08337393, -0.07147872, 0.06907451, -0.08945141, -0.04069469, 0.07197841, -0.01906261, 0.04772352, 0.07668354, 0.07637157, 0.06501204, 0.06081238, -0.01684614, -0.06134682, 0.06682148, -0.06520350, -0.03813705, -0.00042296, 0.06506834, -0.06515516, 0.04703042, 0.04888278, -0.06949870, 0.01885322, 0.07577479, -0.02726895, 0.01223448, 0.02405603, -0.06989583, -0.06380153, 0.00544703, 0.07128055, -0.01982634, -0.02396098, -0.01364266, -0.00671054, 0.05444418, 0.06712657, -0.06745768, 0.07531449, -0.07853439, -0.01232606, -0.08398921, -0.02582861, 0.03582235, -0.01929669, 0.08823619, -0.06252617, 0.02224388, 0.01882344, -0.07329126, -0.02574120, -0.06648603, 0.02663627, -0.01565611, -0.06078955, 0.01706917, -0.06082514, 0.02508350, 0.05353977, -0.07975791, -0.07672492, -0.06415516, 0.08257931, 0.00884384, -0.08136168, 0.03980279, -0.03283487, -0.07278996, 0.02321328, 0.02481289, 0.02479428, 0.07129820, -0.03145170, -0.00779450, -0.02005980, -0.02375736, -0.04801447, 0.01675794, -0.04218856, 0.06572527, -0.01389660, -0.05250558, -0.06342982, -0.06171554, 0.06743373, 0.06651410, 0.02978891, -0.05681679, 0.01600321, -0.09065040, 0.03379183, 0.04732844, -0.02013955, 0.08834673, -0.02219983, 0.02453762, 0.08184395, 0.00495359, -0.06711765, -0.02026870, 0.00531427, 0.07112304, -0.08798487, 0.00335351, 0.06756963, -0.02767272, 0.05514927, -0.05191866, -0.01711416, 0.01404348, 0.04351986, 0.04007978, 0.00049899, -0.07379321, 0.09019390, 0.03892412, 0.05426352, 0.01472396, -0.05869409, 0.05854461, -0.07893529, -0.02440405, -0.06849690, -0.06591547, -0.00800151, -0.07980848, 0.03822234, -0.08320703, -0.08384462, 0.03799932, -0.03398201, -0.05241007, 0.01191199, 0.02284731, 0.05343407, -0.07925848, 0.07135232, 0.00582386, 0.07334907, 0.03379619, -0.06788186, -0.08067017, 0.00612211, 0.06037766, -0.06422546, 0.00078257, -0.03300526, 0.06938551, -0.08613309, 0.04344374, 0.03922402, -0.04483612, -0.06936395, -0.02740883, -0.08154373, -0.08258559, -0.08966191, -0.03384667, -0.05463792, -0.03273769, 0.06505165, -0.00041874, 0.03858263, 0.07954518, 0.05802846, 0.08177911, -0.05987712, 0.06554002, 0.05443213, 0.01346119, -0.02344713, 0.06194448, 0.07547202, 0.05204089, 0.00306670, -0.01226647, -0.04574495, -0.05608205, -0.02409590, -0.02149232, 0.00746401, 0.03839404, 0.04392306, 0.03342837, -0.05287423, -0.01879157, -0.03333895, 0.05667076, 0.01019927, -0.03197073, -0.04033665, -0.04431477, -0.03818011, -0.00168625, 0.03641848, -0.07231794, -0.02418237, -0.03683067, -0.07557306, 0.00480333, 0.02695131, -0.05362219, 0.04228224, -0.02422789, 0.06329231, -0.05328539, 0.04475960, -0.00776951, -0.05835422, -0.05154211, -0.07895772, -0.04294021, 0.00090440, 0.01518006, 0.00999286, 0.07005139, -0.05486379, 0.07924812, -0.03585694, 0.02685905, 0.07896631, 0.06220852, 0.03324066, -0.02095575, -0.02735737, 0.06646547, 0.07421657, 0.08176836, -0.02269648, 0.07600177, 0.00742109, -0.04367789, 0.02936366, 0.04268781, -0.02306960, 0.00605749, -0.05998668, 0.08580729, 0.02824767, 0.07126030, 0.05817815, 0.08510473, -0.04833535, -0.07043887, 0.03005162, 0.01661999, -0.00852868, 0.07934364, 0.04674904, 0.01986484, 0.00874248, -0.04363628, -0.07036591, -0.05294586, -0.03184619, 0.04997040, 0.04277143, 0.08524264, -0.01389855, -0.02732262, 0.02656396, 0.03349965, 0.00427294, 0.03659098, -0.02839798, 0.00667365, 0.04980813, 0.01036668, -0.03481251, -0.06503400, 0.07025920, 0.00035407, -0.07702687, 0.03665520, 0.04862485, -0.02188706, 0.04766455, -0.01255820, 0.01170028, -0.05282672, -0.05510234, 0.08451575, -0.00562181, 0.02297571, -0.06534776, -0.01422237, 0.03546311, 0.07186463, -0.08177427, -0.02404441, 0.08581653, 0.02883565, -0.04557567, -0.06896286, -0.00245669, 0.05429599, -0.05781198, 0.00572288, -0.07806707, -0.01929792, -0.07305414, -0.02683569, -0.05991969, 0.02842353, -0.05778548, 0.03738278, -0.02655094, -0.09185311, 0.04370310, -0.05426744, 0.05407953, -0.07310095, 0.06292460, -0.01032922, -0.03395192, -0.00652267, 0.05555529, 0.00092224, -0.07758579, 0.05513030, 0.07364023, 0.05342716, -0.06850458, 0.02291371, -0.05995792, -0.06119783, 0.02202272, 0.06118929, 0.03190235, -0.02818725, -0.06484953, -0.02432337, -0.03211757, 0.07012738, 0.03092456, -0.00141678, -0.05267990, 0.02325077, -0.08425898, 0.06513058, -0.01548881, 0.01813692, 0.03409234, -0.00361863, 0.04134581, -0.02137664, 0.05928754, 0.07589623, 0.00740041, -0.02747224, 0.01812159, -0.00216633, 0.01153078, 0.06091062, -0.02562212, -0.09277244, -0.05451852, 0.06022910, -0.04200548, -0.02767345, 0.04412547, -0.06012773, 0.05876508, 0.02251791, -0.06447517, -0.01540637, -0.04273194, 0.06870881, 0.03205870, 0.01860910, 0.02956834, -0.08027149, 0.04457713, 0.08615503, 0.02791931, 0.06367821, 0.08559711, -0.00340259, 0.04125475, 0.00478605, 0.02477636, 0.04168195, 0.04338424, -0.01405839, 0.05667895, -0.01760483, 0.07235296, 0.06632149, 0.02784770, -0.00249133, 0.07106150, -0.09218178, -0.01232563, -0.07347549, -0.05949455, -0.03983205, 0.01804810, -0.01525493, 0.04121602, 0.07713956, 0.02421003, -0.02248056, 0.07174009, 0.01093211, 0.02018616, 0.01481134, -0.07038911, -0.05912619, 0.08437245, 0.04199515, -0.03200011, 0.03113623, -0.02807848, -0.03934472, 0.03139663, -0.01409910, -0.06019388, -0.07873641, -0.02358174, -0.02583351, -0.09026271, -0.04502251, -0.05302518, 0.00362193, -0.07651316, -0.02213623, -0.05473089, -0.06927257, 0.04595645, -0.10122444, 0.04253099, 0.01286331, 0.06259180, -0.06586293, 0.07216228, 0.05410914, 0.10359685, -0.06098656, -0.00387272, -0.04699716, -0.05113203, 0.00125415, -0.00591516, -0.04445180, -0.08526799, -0.01008962, -0.04505751, -0.02984395, 0.07335504, 0.00462210, -0.00577828, -0.07419880, 0.01208773, 0.02075942, 0.08607166, -0.08145972, 0.04168367, 0.03138384, -0.08376835, -0.06601120, 0.02983865, -0.07648088, -0.04197196, 0.01842661, 0.03320993, 0.05625512, 0.00786302, -0.07371393, 0.08520533, -0.01313552, -0.00472335, 0.02378604, -0.00490418, 0.00558504, 0.07945546, 0.01551181, -0.04136292, -0.08580393, -0.07611506, 0.00537085, 0.04755504, 0.05592461, 0.07244050, 0.04555139, 0.03826387, 0.01527801, 0.00771024, 0.07971129, 0.03054831, -0.00886422, -0.07439126, 0.08846279, -0.04997411, 0.08287787, -0.00876974, 0.07741719, 0.02811868, -0.06665627, 0.05114814, -0.07253217, -0.07825651, -0.04470430, 0.04790117, -0.02275976, -0.07571325, -0.03180949, 0.06020950, 0.03640477, 0.02274157, 0.01405220, -0.03326964, 0.05964886, 0.03548703, -0.03558918, -0.06560330, 0.00386512, -0.08255502, 0.04057126, 0.01247696, 0.07250517, 0.05458304, 0.05766124, 0.06508933, 0.06559099, -0.03388255, -0.01765715, 0.06054054, -0.00405625, 0.01360845, -0.08497469, 0.03968244, -0.03199209, -0.06168232, 0.06107125, -0.02991790, 0.05427281, 0.04217979, -0.05020037, 0.01149702, 0.03397617, 0.00561839, 0.08113839, -0.05275483, 0.03469197, 0.03882774, -0.01141099, 0.05768175, 0.02867857, 0.03126799, 0.04335035, -0.05141307, 0.03204877, 0.06886786, 0.03032438, 0.03726196, 0.05926866, -0.04796697, -0.07477167, 0.03268866, -0.06055065, 0.03009217, 0.03571653, -0.01664088, -0.06039008, 0.01390932, -0.07677039, 0.01360927, -0.03602014, -0.07527862, -0.02308045, -0.00446061, -0.05781391, 0.01646161, 0.05240290, -0.06282321, -0.07272562, -0.02082580, -0.01954179, -0.07270223, 0.09535334, -0.06584194, 0.05492278, 0.04623343, -0.07769138, -0.01591535, 0.02146711, -0.04501833, -0.06492995, 0.08077147, -0.06464828, -0.04561082, -0.01634105, 0.03772969, -0.07205822, 0.02229090, -0.08134819, 0.05979821, 0.04649549, -0.07012655, 0.04658363, 0.01830941, 0.05120100, -0.00484900, 0.05220512, -0.04433871, -0.05014699, 0.04840199, -0.06358293, 0.05905599, -0.00314495, 0.06136767, -0.06604955, 0.04945248, 0.00264835, -0.03775205, 0.01764806, -0.09354103, 0.05360466, -0.06030614, 0.00081019, 0.02044859, 0.06763136, -0.07113808, -0.01400578, 0.08531612, 0.01949861, -0.05130761, -0.03425658, -0.04563529, 0.06530773, -0.03786978, 0.06460749, 0.06194630, -0.01745129, 0.01438077, -0.06525169, -0.02672963, 0.05344025, -0.07639743, 0.02727394, -0.06713831, 0.08310904, 0.07630227, 0.02026030, 0.02555156, 0.00082454, 0.00540458, -0.02887295, -0.03498054, 0.05592722, 0.05695793, -0.03789802, -0.03134459, -0.04084088, -0.09339779, -0.07938337, 0.00682711, 0.06544375, -0.06162130, 0.05860412, 0.03839280, -0.00086238, 0.00704981, -0.00592273, 0.05538709, 0.00076840, -0.00635760, -0.04858640, -0.02368133, 0.01087287, 0.00646338, -0.05726009, 0.06876463, 0.07724591, 0.00908252, 0.07513991, -0.02049151, 0.06662402, 0.02553873, 0.00599351, -0.02537463, -0.04795564, -0.05835778, 0.07298941, -0.03909179, 0.04322790, -0.07826576, -0.05455333, -0.07277288, 0.05321067, 0.01056641, 0.00166293, 0.05856630, -0.01713683, 0.03804235, 0.01183063, 0.00568528, 0.04919422, 0.04457118, -0.00529966, -0.06413837, -0.02466131, -0.00591809, -0.05020940, 0.03089294, 0.03515642, -0.00745110, -0.07427265, 0.00569370, 0.07153048, -0.03434060, 0.00669033, -0.06185215, 0.08376510, -0.01855326, 0.07708818, -0.07769117, -0.02539170, 0.00047590, -0.05121013, -0.04003073, -0.04074815, -0.05408315, 0.07397588, 0.03304073, -0.08900703, 0.00842539, 0.00054027, 0.06193775, 0.08012146, -0.04438103, -0.03237895, 0.05985526, -0.07311451, 0.06974836, -0.05528750, -0.06390478, -0.01267561, 0.02038060, 0.00957238, 0.07099337, 0.05283240, 0.04244520, -0.04222240, -0.01892259, 0.04178913, 0.01482303, -0.07701588, 0.04098881, 0.04484165, 0.01935579, -0.06499248, 0.08504810, 0.05545173, 0.01986378, 0.03168966, -0.04606228, 0.05090977, 0.00791954, 0.02896328, 0.06449760, -0.07013109, 0.04703115, -0.00255719, -0.04082668, -0.04834861, -0.03128088, -0.05952698, -0.06930442, -0.03609558, -0.08455158, 0.05924556, 0.03337508, 0.05983612, -0.06393243, 0.03294358, 0.03811167, -0.00762231, 0.07345422, 0.04560949, -0.07083511, -0.02378463, -0.08028120, -0.09557861, 0.03413984, 0.00552499, -0.00819014, 0.04475205, 0.08269396, 0.06577136, 0.03875177, -0.00655515, -0.01188071, -0.07715676, -0.01888432, -0.02527179, 0.08321986, -0.02017671, 0.04505037, 0.04456097, -0.01002784, -0.06223110, 0.04936706, -0.06972613, 0.00834696, -0.01090015, -0.04476807, 0.05125684, -0.01461770, 0.05594856, 0.03310139, -0.04387926, 0.04752148, 0.04967967, 0.03596967, 0.06347951, 0.01092194, 0.08581958, -0.06136574, -0.08690576, -0.08130161, -0.04047537, 0.02123212, -0.01419827, 0.04686092, 0.07734501, -0.06772637, -0.04862266, 0.05182064, -0.02417630, -0.05827374, -0.08539551, -0.01503288, 0.00612315, -0.01026031, 0.00071657, -0.06990945, -0.06364322, 0.08223855, -0.03069125, 0.03572224, -0.05257550, 0.08372693, 0.01860698, 0.01512726, -0.08183292, -0.01678478, 0.03001669, -0.06103443, -0.03764768, 0.08741567, -0.05826709, 0.04326556, 0.06248235, 0.07923375, 0.02347496, -0.01462390, -0.00732595, 0.05194497, 0.03261290, 0.02833003, 0.03145610, -0.03424627, 0.01560181, -0.07714767, -0.00053856, -0.04103103, -0.02542875, 0.05693316, -0.01391671, 0.00758094, -0.04744589, 0.05642307, 0.08308257, 0.05998162, 0.03987097, -0.03915800, -0.02787207, -0.01731621, -0.06142379, 0.08436942, 0.03998721, 0.02578665, 0.04169237, 0.04406795, 0.07464406, -0.04206567, -0.04730333, -0.05511212, 0.06822418, 0.07565966, -0.08181352, -0.05763689, 0.07654246, -0.06716499, 0.05257620, 0.06452718, 0.06820792, 0.05835565, -0.04302444, 0.05166172, -0.06612767, 0.01866859, 0.02573596, -0.00011139, -0.00523348, 0.00216942, 0.01547509, 0.00376846, -0.02146168, -0.02345611, -0.02752021, 0.05004043, 0.00660428, 0.01701570, -0.02440292, 0.06884402, -0.01430069, 0.08455878, -0.01844328, -0.03114301, 0.00469117, 0.02012817, 0.07890689, -0.02727263, 0.00714171, 0.06510925, -0.06878862, -0.03419509, -0.03420210, -0.04045453, 0.01356845, -0.05327669, -0.04168537, 0.01126656, -0.03592120, -0.04294397, -0.02745065, -0.07297533, 0.03258467, -0.01841598, -0.06147104, 0.04450306, 0.08372069, 0.00088869, -0.03249616, 0.08148938, 0.05811074, 0.06341235, -0.03134734, 0.03245034, 0.01112069, -0.07313999, 0.01317948, 0.03231913, 0.00550081, 0.02083162, 0.06517484, 0.05654955, -0.08499414, 0.04714582, -0.05825035, 0.00832471, 0.01735313, -0.03812775, -0.03723979, 0.08313803, -0.05983328, 0.03717446, -0.03493474, -0.07061512, -0.06469560, -0.07076702, 0.07859486, -0.01780348, -0.06152876, -0.06676158, 0.01955180, -0.03978767, -0.03116445, -0.01313381, -0.00605882, -0.06818327, -0.02923956, 0.06835060, -0.01507425, -0.06895212, -0.03991128, 0.07877517, 0.04196705, 0.03662290, 0.05596773, 0.00174677, 0.06538264, -0.06617075, -0.04677823, -0.02947950, -0.04694086, 0.02592650, 0.06610714, -0.01158638, -0.02209183, 0.07707535, -0.05587273, -0.05610522, -0.02897446, -0.06957545, 0.03456834, 0.06179372, -0.04723500, -0.05333483, -0.06479955, -0.07921133, 0.04934510, -0.06525929, 0.05960432, 0.00931041, 0.02664565, 0.06392102, -0.05840911, 0.06773655, -0.03263494, 0.02176353, 0.02900018, -0.02841720, 0.00376785, 0.02454651, 0.06008850, 0.00410243, 0.01788713, 0.01612673, -0.02445139, 0.05706807, -0.02104663, -0.05118123, 0.00407868, 0.03756667, -0.00065038, -0.08373827, 0.07427036, 0.06916661, -0.07509247, 0.08185919, -0.02059758, -0.05586822, 0.02099212, 0.04712556, -0.00566987, 0.01409181, -0.07881022, -0.00802690, -0.00701237, -0.02460215, -0.04535988, -0.03776419, 0.00737441, 0.00982227, -0.03083345, -0.04411019, 0.05590326, -0.04862477, -0.09100406, 0.01307039, -0.08283377, 0.07150654, 0.00112076, 0.08365335, 0.06578022, 0.02786585, 0.00055021, 0.01500057, -0.07081785, 0.06374271, -0.01639999, -0.04583963, 0.02839011, -0.09167179, -0.07830267, 0.00910672, 0.03246652, -0.07709651, 0.06263665, 0.00598060, -0.06343974, 0.00345916, 0.01615454, 0.06308173, -0.03586036, 0.03356002, -0.00207318, -0.05899678, 0.06953603, -0.08454770, -0.03488502, -0.05530636, -0.08632979, -0.04544581, -0.05049060, -0.06493661, 0.06428451, -0.05018872, 0.06726006, -0.01781605, 0.03907867, -0.01800865, 0.07011154, 0.06881224, 0.02214928, -0.02093746, 0.05889922, 0.01176366, -0.01301136, -0.00157511, -0.01391414, 0.00222323, -0.06732158, 0.07446882, 0.00563922, 0.07583200, -0.03293047, -0.03024756, -0.08587429, 0.04742536, -0.01238544, -0.06788738, -0.06492563, -0.07658572, -0.00147767, 0.08227103, -0.01139115, 0.03721536, -0.04762195, -0.06935392, -0.03080055, -0.06972638, 0.05642402, -0.02322260, 0.00842205, 0.05301155, 0.05503390, 0.06699334, 0.08053941, -0.03383408, -0.04437242, -0.01353072, -0.00566263, -0.08935892, 0.05481901, -0.06995542, -0.06863034, 0.08685012, -0.03272409, 0.01221140, -0.03811726, -0.04308971, 0.01547414, -0.00993061, -0.01639333, -0.02054708, -0.08455940, -0.06514269, -0.05491591, -0.04611895, 0.04367734, 0.06150763, -0.02144952, 0.00474175, 0.02151524, 0.03265531, -0.01428651, -0.06803920, -0.01397070, -0.02854355, 0.03822773, 0.05611926, -0.05306381, 0.03280982, 0.07005025, 0.03583359, 0.01421292, 0.06108508, 0.01972867, -0.07340006, -0.05426213, 0.00490107, -0.08801055, -0.07129812, 0.00817159, 0.07797910, -0.06282205, -0.00633030, -0.06116483, -0.06109148, -0.07631082, 0.05907128, -0.03530197, 0.01397530, -0.03173975, -0.04184216, -0.03773101, 0.05575179, 0.01286133, 0.07353303, 0.01089827, -0.02186623, -0.05033233, 0.02116976, -0.03404913, -0.03498869, -0.01683622, 0.00457059, -0.04262816, 0.03824456, 0.00341933, 0.08332855, -0.06035049, 0.07509683, -0.05756095, 0.03806270, -0.08656115, 0.08496670, -0.03919929, 0.07212926, -0.01486314, -0.07476582, 0.07764618, 0.07838061, 0.08116908, -0.04324505, -0.02053267, 0.07407986, -0.00860965, -0.07347826, -0.05930738, 0.01981518, 0.01519399, 0.05719954, -0.03391858, -0.05279051, 0.04553495, 0.01403424, 0.07997900, -0.00841282, 0.04967471, -0.04193329, 0.00634834, -0.06996311, 0.04716273, 0.00970444, -0.06384116, 0.08207317, 0.08125590, -0.00699954, -0.03864493, 0.03805947, -0.01933988, 0.06850395, 0.05404005, 0.01550551, -0.07671321, -0.01180345, -0.08681377, -0.05675262, -0.02790995, -0.01447940, -0.00248009, -0.01311175, 0.04933024, -0.01602719, -0.03831512, -0.03554120, 0.00945235, 0.03703130, -0.00681948, 0.06364707, -0.09430166, -0.00992247, -0.05074941, -0.07036334, -0.07358336, 0.07070252, 0.04683647, 0.04185279, -0.01725411, 0.03060880, -0.09039054, -0.07630109, 0.00568894, 0.06365216, 0.06254077, -0.01598467, 0.08084606, -0.03992065, -0.07610843, -0.07093673, -0.06566165, -0.00652803, -0.01150928, -0.06366388, 0.08733065, 0.02574577, 0.05782297, 0.02913144, 0.04203087, -0.02104644, -0.04243795, 0.00980482, -0.00924452, 0.02992475, -0.03280852, 0.00834762, -0.06662493, -0.03554017, -0.07326230, -0.05892124, -0.01607838, 0.01344482, 0.04728337, 0.02570591, 0.00368377, 0.08121922, 0.09314382, -0.03264990, -0.05398807, 0.07607099, -0.00605822, -0.01344387, 0.06927770, 0.05999481, 0.07685123, 0.06723388, -0.01262688, 0.08418357, -0.02362799, 0.00818499, -0.02803767, 0.00820665, -0.03540992, -0.04139505, 0.05731536, 0.04573960, 0.05632157, 0.07280691, 0.01799098, 0.00537764, -0.06479281, -0.00989592, -0.04721879, 0.00815848, 0.08950087, -0.07586607, -0.08529618, 0.08189014, 0.08962227, -0.05076046, -0.02364855, 0.01527491, 0.06363366, -0.05659205, -0.04511976, 0.04533560, 0.05176594, 0.01185918, -0.02905956, -0.04123396, -0.02298583, -0.06853992, 0.04486683, -0.01162385, 0.09703556, 0.08658349, 0.07984993, 0.06522106, -0.02591467, -0.01780587, -0.08133714, 0.04203781, -0.02364106, 0.01813503, 0.07100763, -0.04080410, 0.08152609, 0.03310400, 0.00663970, -0.01524412, -0.02104255, -0.03928641, 0.05520699, -0.01421045, 0.05777874, 0.06177582, -0.04480468, 0.06469178, 0.05456821, 0.06772718, 0.07302298, 0.05561598, 0.05051406, -0.00518516, 0.00858634, 0.07439138, -0.00534466, -0.02346916, 0.05368968, 0.05568697, -0.07933037, -0.08623566, -0.01093672, -0.06922759, -0.03388406, -0.08209068, 0.02041544, 0.03604240, 0.06302186, 0.07509612, -0.08598837, -0.01198859, 0.07124697, 0.09456793, 0.05118166, -0.02749525, 0.05705252, 0.04045770, -0.01864114, 0.02938074, -0.00688814, -0.08334085, 0.09736998, -0.01593899, -0.03724286, -0.01234585, -0.02396188, -0.03989243, -0.03659331, 0.05434282, -0.02767123, 0.02053981, 0.07708432, 0.06287269, -0.08310430, -0.03922550, -0.08683582, -0.00841357, -0.05272644, 0.06730103, 0.07001463, 0.08364536, 0.05077025, -0.00600017, 0.09977238, -0.05811888, 0.06885716, -0.07000094, 0.01802366, -0.00798742, -0.03031480, 0.03217792, 0.05895061, 0.00292632, -0.03363333, 0.07150104, -0.04114921, -0.06836194, -0.02301945, 0.03280920, -0.02905060, -0.00346971, -0.05884983, -0.09326986, 0.04130853, 0.02656367, 0.05830448, 0.03908843, 0.05694169, -0.04493026, -0.06792016, 0.04442647, 0.09611940, 0.00856007, 0.04165192, 0.08204129, -0.06180706, 0.02897370, 0.01131274, -0.05470871, -0.05862025, -0.07052442, -0.06248634, 0.03813010, -0.08928423, 0.06506591, -0.07826643, -0.02425170, -0.04078966, -0.04850339, 0.06181150, -0.05074705, 0.00294450, -0.02386664, 0.00190352, -0.02661540, -0.08628693, -0.04897647, -0.06002139, -0.04795185, 0.07504364, -0.03859993, 0.03085863, 0.06441794, 0.04551322, -0.06657197, -0.05580096, 0.07650885, 0.06775930, 0.00266729, 0.01513783, 0.04416390, -0.01570585, 0.00428463, -0.02281744, 0.05503336, 0.06731969, -0.04188754, 0.04861005, -0.02244931, 0.02354298, 0.06071837, -0.00299380, -0.02321106, -0.05240566, -0.01721824, 0.02741896, 0.04988407, 0.01419940, -0.05256961, -0.09577372, 0.04843924, 0.04108356, 0.08060474, 0.09553651, -0.05697265, 0.06382628, 0.00612020, -0.07243213, 0.07437660, -0.06682693, 0.07225001, 0.03606680, -0.05074105, 0.09120379, 0.00793477, 0.01677677, 0.00109127, -0.01458198, 0.07238196, -0.03444464, -0.08302642, 0.05137847, 0.08822023, 0.03224128, 0.05239911, 0.00263899, 0.08588044, 0.02946040, 0.04336180, 0.06421218, 0.09253988, -0.03221976, -0.06292956, -0.05112527, 0.01791767, 0.05485424, -0.06763881, -0.02498912, -0.06444298, -0.03325874, 0.06825738, 0.04252551, 0.06579813, 0.03575820, -0.06897350, -0.03191895, 0.07479990, 0.06062739, 0.00703657, 0.08869500, 0.05136842, 0.03732103, 0.07219567, 0.09302487, 0.03572288, -0.07296553, -0.05699225, -0.04055071, -0.09016997, -0.06957263, -0.03696984, 0.06211191, -0.06104894, -0.00531606, 0.04897901, 0.05610450, 0.03795268, -0.03148383, 0.01127431, 0.06831362, -0.04626067, 0.01258737, 0.04670624, 0.04194843, -0.01733105, 0.04122847, 0.03414927, 0.03938926, 0.01644031, -0.03984017, -0.00913257, -0.01617081, 0.00058173, -0.04326506, 0.08156119, 0.00847044, -0.05413234, -0.05758088, -0.07478815, 0.08171251, 0.04751740, -0.03699824, 0.01943573, 0.03134752, 0.04499411, 0.07916024, 0.01143644, 0.08764622, -0.04872366, 0.00051494, -0.05243645, -0.02681738, 0.02395915, -0.02922764, 0.01821355, -0.01319917, 0.07419042, 0.07859625, -0.04368957, -0.01564163, 0.05606702, -0.06226918, 0.00055249, 0.02701880, 0.05071241, -0.06087882, 0.05851514, -0.02745506, 0.04231976, 0.08573593, -0.00280122, 0.01494034, 0.09009480, -0.03357745, 0.00224939, -0.00262416, -0.00949554, 0.04842249, -0.04074084, 0.03654160, 0.02562438, 0.01223589, 0.00819097, -0.09454095, -0.06073541, 0.00332836, -0.00332166, 0.03829292, -0.03822294, 0.05845574, 0.09257443, -0.06304715, -0.01230347, -0.01964790, -0.07587378, 0.06207706, -0.03559515, 0.01971094, 0.06966025, -0.04918001, 0.02791121, -0.01809533, 0.06903919, 0.04183399, 0.06696483, -0.02819715, -0.07813419, -0.01017268, -0.00401174, -0.00830769, 0.07323375, -0.05279763, 0.07879930, 0.06934959, -0.04534343, 0.01373862, 0.05200493, 0.04944742, -0.05301661, -0.04108456, -0.08632158, 0.03170340, 0.00953212, 0.04220845, 0.00071601, -0.00484079, 0.00474249, -0.09184511, -0.04515880, 0.05787113, -0.04034883, 0.07189489, 0.02748631, -0.05973826, -0.06311283, 0.00967967, -0.01605028, 0.02872580, -0.06628467, 0.02146164, -0.05423380, 0.03257963, 0.00552012, 0.06770717, -0.00040140, -0.00308874, 0.03382030, -0.04124987, -0.06383833, 0.08384334, 0.08517727, -0.02231916, 0.02786265, -0.07303362, -0.00620798, -0.01695393, -0.08120997, -0.05407235, -0.04599270, 0.04335595, 0.04772010, -0.04490902, 0.03431707, 0.00591575, 0.00101773, 0.03984192, 0.07174243, -0.06945387, -0.04717357, 0.04690338, 0.05195497, -0.03885102, -0.08087786, -0.06183892, -0.03055927, -0.06370264, 0.04777959, -0.01775491, -0.01033331, -0.01388296, 0.00560466, -0.03700538, 0.09219723, -0.00933195, -0.03226177, 0.06772678, 0.08717307, 0.05372538, 0.07796388, 0.04192245, 0.08868695, 0.03843454, -0.03381661, -0.08707562, -0.03886095, -0.04077902, -0.04068467, 0.05693394, -0.09017789, 0.07535951, 0.05691538, -0.03906269, -0.02401115, 0.02872243, -0.08656514, -0.00747250, 0.02276348, 0.03459325, -0.01806156, -0.06221920, 0.00636154, 0.03459350, 0.01407290, -0.05962474, 0.07430667, 0.05094473, -0.01357379, -0.02624747, -0.08077452, 0.04859985, -0.05150593, -0.02746606, -0.05071443, 0.06456944, 0.01736142, -0.06007046, -0.03520701, 0.02199018, -0.06353130, 0.06891120, -0.07851405, 0.01508356, 0.03182751, -0.01743482, -0.07507439, 0.08124657, 0.02162867, 0.00219504, 0.01979928, 0.04648243, -0.03879534, 0.06347461, -0.03443378, -0.07835919, 0.06852702, -0.05874312, 0.07946213, 0.01660197, 0.02947540, -0.08061431, 0.04849069, 0.01201445, -0.07302392, -0.05748436, 0.06739004, 0.07459555, 0.08304399, -0.01647056, -0.07678042, 0.03613602, -0.05102965, -0.02829598, 0.00460068, 0.01124906, -0.02852347, 0.02376876, -0.02747463, -0.03746001, -0.08176803, 0.06473494, -0.01291636, 0.02915706, 0.06458351, -0.04873296, -0.01961317, -0.08491834, -0.07129614, 0.06353565, -0.00101534, -0.06806373, -0.04311326, -0.03919497, 0.05184598, -0.01267948, 0.08007114, 0.03358280, 0.05974399, 0.00661923, 0.06669729, -0.08181115, -0.03404306, 0.05204976, -0.06266278, 0.03421351, 0.02125706, -0.06175958, -0.07021401, 0.06858733, 0.02578482, 0.04639561, 0.02142819, -0.08939473, 0.05825642, -0.01067717, -0.03474921, -0.02930483, -0.07000071, -0.01313545, -0.02695965, 0.06552136, -0.02575237, 0.01089903, 0.01568005, 0.03457227, 0.07231014, -0.08571600, 0.08758332, 0.02426687, -0.04384494, -0.06367639, -0.05842366, 0.03753595, -0.04480441, -0.01695006, 0.02972226, -0.04868424, -0.06186824, -0.06237362, -0.00634635, -0.06882252, -0.04597344, -0.03572334, 0.04316415, 0.02623554, 0.01455440, 0.01749241, 0.04243804, -0.02679816, 0.01312973, -0.03831322, -0.09581671, -0.05066676, 0.03593987, -0.01843897, 0.06764171, -0.05583260, 0.09643983, -0.05927934, 0.08347099, 0.04326031, 0.07444566, 0.03050887, -0.05417889, -0.06704710, -0.03544583, -0.06019715, 0.08699461, 0.08760317, -0.02775484, 0.03007546, 0.04336091, -0.05491108, 0.02841588, -0.05898703, 0.04230156, -0.00593991, -0.08412907, -0.05272772, -0.06920215, -0.04150744, -0.08307125, -0.01957120, -0.05968543, 0.03024825, -0.02775596, 0.08284571, -0.00526278, 0.03648521, -0.07062339, -0.00800485, 0.00501440, 0.08061660, 0.02759810, 0.04823218, 0.07747663, 0.05726416, -0.05616392, -0.08556852, 0.01429121, 0.01381902, 0.04258968, -0.08282807, -0.04856750, 0.02909377, 0.00913306, 0.07088815, -0.04381745, 0.04836306, 0.03944682, 0.07039731, 0.03025043, -0.01895312, 0.03861014, -0.01351835, -0.01441790, 0.08453231, 0.01422139, -0.02727751, -0.06653393, -0.06033810, 0.03889408, 0.02930763, -0.03232544, -0.04422532, -0.01570227, 0.05251626, -0.03305598, 0.02018697, 0.02695668, 0.04427386, -0.02521174, -0.01786348, -0.07936355, 0.07807183, 0.05391990, 0.06653910, 0.05611172, 0.06423844, 0.03955501, 0.00803883, 0.03459448, 0.02013335, -0.07376762, 0.00104656, -0.10120406, -0.03323920, 0.06651333, -0.03764698, -0.07082418, -0.04061202, -0.03228693, -0.01449650, -0.07875451, -0.04647873, -0.01788096, -0.01213054, 0.03461714, 0.01515452, 0.07246563, 0.02011486, 0.06129367, -0.02072926, 0.08175009, 0.06337193, -0.03103749, 0.03577203, -0.01741379, -0.06102844, 0.03765743, 0.05783022, -0.03430337, -0.05805368, 0.04015946, 0.02548412, 0.05180924, -0.01426731, 0.00224037, -0.07217900, 0.03538213, 0.06024742, -0.04775737, 0.04944368, -0.07007363, -0.02122859, 0.04527862, 0.03923390, -0.04690923, -0.06931781, 0.02749257, 0.04976331, -0.07721258, -0.00993737, -0.09055112, -0.07254293, -0.05165080, 0.02538932, -0.01974787, 0.09233310, 0.07047878, 0.02872235, -0.07794525, -0.00497487, -0.01221263, -0.08325683, 0.06371769, -0.06567204, -0.06264427, 0.02608586, 0.07763755, -0.04691467, -0.07277469, 0.00279302, -0.05835034, 0.01764414, 0.09249241, 0.03218450, 0.06325337, -0.07562277, -0.00034285, -0.02354222, -0.00824094, 0.00075612, 0.05745662, -0.05381240, -0.02321995, 0.05637267, 0.08352655, 0.00689446, -0.03327236, 0.05446222, 0.07611717, -0.03707019, -0.00456770, -0.04022458, -0.09753241, 0.05067053, -0.00778516, 0.05583850, 0.06849598, 0.05235630, 0.06945784, -0.05724036, 0.09485900, -0.00329912, -0.06678811, -0.00269084, 0.02721037, 0.04161048, 0.03296524, -0.03431036, 0.01414077, 0.00517928, -0.08671296, 0.01687491, 0.01122674, 0.00505468, 0.01362461, 0.00713602, 0.07963595, 0.02802324, -0.06017851, -0.00202456, -0.01630463, -0.08181299, -0.02411571, 0.03242816, -0.00857617, -0.05162299, 0.01137996, 0.00438891, 0.04085288, -0.06703244, 0.03161100, -0.02913526, 0.08538219, 0.08517892, -0.07448836, 0.07116155, 0.08759153, 0.08908823, -0.03249785, 0.04675980, -0.01933201, -0.02472670, -0.02573594, 0.04278161, -0.00197894, 0.05024545, 0.02362326, 0.07656405, 0.06888913, 0.01760969, -0.03966716, -0.08076724, 0.02524458, -0.03806602, 0.03350431, -0.05469556, -0.09258129, 0.02161552, 0.04992450, 0.00061216, 0.03196875, -0.00140313, 0.01828626, -0.08060215, 0.08150660, -0.08531307, -0.04647952, -0.08134118, 0.00006615, -0.07596957, -0.03551638, -0.01874784, 0.03044430, -0.06811900, -0.05191522, -0.01218744, -0.00475383, 0.00562390, -0.05319045, 0.02818850, -0.04210357, -0.05742380, -0.01149183, 0.00128279, -0.00683481, -0.00705119, 0.02395736, 0.06082202, 0.08952468, 0.01787765, -0.04772158, -0.08935378, -0.02727805, -0.03474709, 0.03412561, -0.02659163, 0.07443038, -0.00301142, -0.03061662, 0.08061584, 0.00137878, -0.02225360, 0.03574840, 0.04372351, -0.03953899, 0.07434195, 0.04117115, 0.03463998, 0.04072385, -0.01382364, -0.05289901, -0.02012749, -0.04228631, -0.04409784, 0.01562708, 0.02939197, -0.08519208, -0.05825362, -0.00045451, -0.02499059, 0.02838389, -0.01000211, 0.03595813, -0.02469841, 0.01971141, -0.00905629, 0.02618716, 0.00237113, 0.05722738, -0.06265901, 0.06267039, 0.03213267, -0.04106368, 0.07139534, -0.00335025, 0.01248400, -0.07653970, -0.00002278, -0.00123596, -0.05419435, -0.02569912, 0.01405217, -0.04861502, -0.00235487, -0.02679840, -0.02357206, 0.06754682, 0.04208735, -0.00356048, -0.03403871, -0.06939865, -0.01736694, -0.07846212, -0.09239206, -0.08387759, -0.02759703, -0.02840510, 0.00414657, 0.02164180, -0.08079445, 0.02225230, -0.00939213, -0.03510376, -0.00408865, 0.06200482, -0.02628732, 0.05126957, -0.03464931, -0.02298588, 0.07169919, -0.07280713, 0.06757294, 0.07443412, -0.08570261, -0.06739014, 0.01607381, 0.06001503, 0.01416739, -0.04770917, -0.06427164, -0.01461815, 0.05700954, -0.04948573, 0.08010946, -0.01242335, -0.08173805, -0.03450553, -0.08866078, -0.03150958, -0.01303518, -0.01944752, -0.08748531, 0.02809984, -0.00110410, -0.01947794, 0.06065824, 0.00458682, -0.00147254, -0.02467310, -0.05023147, 0.05374544, 0.01390591, 0.07961785, -0.04416884, -0.05560864, -0.00185200, -0.01930911, 0.09412257, 0.03686335, 0.05363207, -0.03634647, -0.00660686, -0.02239657, -0.08115657, -0.00264937, 0.02919659, 0.07215785, 0.00561265, 0.02154911, 0.02623642, 0.01968091, 0.06724920, 0.05468205, -0.04693137, 0.08197009, -0.03033988, 0.06892401, 0.04784663, 0.05125107, -0.02283499, 0.04048329, -0.04161004, -0.05397389, 0.04752782, -0.00452541, 0.00492582, -0.06374616, -0.03733297, 0.07857434, 0.02517321, -0.03914171, -0.08480936, -0.01500387, -0.06072751, -0.04671832, -0.02107471, 0.00621550, 0.01535438, -0.10235187, -0.00063199, -0.03647419, -0.02125621, -0.03991312, -0.04115891, 0.07564509, -0.04931573, 0.01181316, 0.04946880, 0.03804566, 0.07080065, -0.00919784, -0.06807358, 0.08626512, -0.05129175, 0.06892328, 0.07028829, -0.00172597, 0.04878281, -0.02080476, 0.05645578, 0.01187630, -0.01508202, -0.04988865, 0.04215687, 0.03073352, -0.01123473, 0.06011733, 0.00791463, 0.07885075, -0.01943049, 0.00917729, -0.06127169, -0.08631722, -0.00628220, 0.06427315, -0.01621506, 0.01451948, -0.00261869, -0.03893993, -0.02739955, -0.00074530, 0.01517971, 0.03263694, 0.06076401, 0.00246717, 0.00230001, 0.03008119, -0.06570921, -0.00480052, 0.07395197, 0.00733153, 0.07272334, 0.01786753, 0.06344767, -0.07536744, -0.08285336, -0.09543375, -0.03110540, -0.06780215, -0.00305644, -0.02301271, -0.02643964, -0.00629052, 0.05708518, 0.01280755, -0.05655834, -0.05500866, -0.04936991, 0.07719292, -0.03798642, 0.04351160, -0.07587784, 0.02331240, 0.00820576, -0.00661995, -0.00649630, -0.07442937, -0.07872245, -0.03013838, -0.00210775, -0.00958320, -0.01248022, 0.04517564, -0.03085009, 0.00936634, 0.07582208, -0.07777365, -0.05494323, -0.04146310, 0.09449781, -0.03911125, -0.07293932, 0.07778914, -0.05263955, 0.04276363, -0.06023310, -0.06942724, -0.00672388, -0.06729154, 0.05813178, 0.03856511, 0.00504515, 0.05182415, 0.04955932, -0.04963405, 0.01522444, -0.00513034, -0.06820299, 0.06751676, -0.09717908, 0.02774699, -0.03510770, 0.00469866, 0.00775871, 0.00849690, 0.03534629, 0.09005728, -0.01634619, -0.02166981, -0.06425461, 0.05693235, 0.03856135, 0.06442045, 0.05245149, 0.03673032, -0.02246992, 0.05618420, -0.04083591, -0.01072938, 0.00503111, 0.06351431, -0.01869266, 0.01613019, -0.05416105, 0.04218965, -0.00226904, 0.06666796, 0.07191379, -0.02608440, 0.01096582, -0.04360067, -0.04359911, -0.01539822, 0.05237517, 0.08312615, 0.01705392, 0.08226857, -0.03439463, 0.07379436, -0.03748082, -0.01405062, 0.07015453, -0.06186103, 0.03323996, -0.08740751, 0.00795244, -0.07752991, 0.01983612, -0.03039262, -0.04876937, -0.05269231, -0.05955405, 0.06427093, -0.03920033, -0.01269056, 0.04583010, -0.01258515, 0.00287447, 0.01734904, -0.05652971, -0.07420154, 0.07006033, 0.03516259, 0.07146316, -0.05440472, -0.02311615, 0.00235536, -0.00239893, 0.07756667, -0.00643984, -0.08712430, -0.07370125, 0.05513570, 0.05303945, 0.03513490, -0.05929235, 0.02725873, -0.06302634, 0.06119725, -0.00580827, -0.06430245, -0.06621183, 0.01895674, -0.04569539, 0.05174059, -0.08850134, -0.02311616, 0.04098980, -0.02718644, -0.01452368, 0.07598072, -0.05441511, -0.03454584, -0.06622138, 0.06588019, -0.04784201, 0.02818317, 0.06487955, -0.02997205, -0.03549829, 0.02715395, 0.06184096, -0.07944210, -0.08918743, 0.02947873, 0.02070199, 0.02770667, -0.04762141, 0.05884239, 0.09183738, -0.00371231, -0.01935506, 0.02346256, 0.03832584, -0.04396676, 0.08115350, -0.08011830, -0.05331111, 0.03060493, 0.06351447, -0.03463750, 0.00237657, 0.01376127, 0.02045330, -0.02705959, 0.03740120, 0.04711316, -0.01036473, 0.03294004, 0.00629231, -0.01512324, 0.04380425, -0.04847528, -0.04445054, -0.02324305, 0.00018731, 0.04180972, 0.00500258, 0.09204136, -0.05577116, -0.00797423, 0.00143414, -0.01994947, 0.02592366, 0.04213681, -0.00780582, -0.05808264, 0.08014174, 0.05965986, -0.01402777, -0.06963696, 0.07602216, -0.01383415, 0.02711858, -0.02246696, 0.06237156, 0.01491342, 0.00467149, 0.08218452, -0.04755146, 0.07488301, 0.06781673, -0.05274767, 0.06772731, -0.02397058, 0.03535346, -0.07046351, -0.00756324, -0.03185359, -0.07714924, -0.00229165, 0.02398438, -0.02962872, 0.04314849, 0.06779205, 0.02169002, -0.07846335, 0.00254395, 0.03991376, -0.05866417, -0.00488523, -0.00733266, 0.01827499, 0.04499825, -0.00353671, 0.06627060, 0.04945502, -0.07344684, -0.01925876, -0.06143973, 0.01488037, 0.02816411, -0.03945015, 0.05730798, 0.02896293, -0.03054047, 0.04273436, -0.07089958, 0.01841715, -0.04330235, 0.05307692, 0.02983007, 0.05322160, -0.08640698, 0.06105078, 0.01145507, 0.02049596, -0.05525282, 0.04424250, 0.05468517, -0.07559557, 0.07434992, 0.03842293, -0.01964964, 0.00997998, 0.03885667, -0.06810977, 0.03698211, 0.05535356, 0.00374127, 0.03671167, 0.03880430, 0.03243722, -0.05707027, -0.05846496, 0.08380467, -0.01182616, -0.06355111, -0.08892104, -0.05075008, 0.04054650, 0.06096528, 0.01676697, 0.05922820, 0.02976568, -0.02583710, -0.04937377, 0.03781475, -0.06609984, -0.04374733, 0.01479626, -0.07957309, -0.08217633, 0.04083895, 0.04589978, 0.06079742, 0.07077627, -0.07306988, -0.05990740, 0.04347646, -0.02324462, -0.01696559, 0.02886787, 0.02034612, 0.01925331, -0.09254228, -0.05726756, -0.04831256, 0.01688712, 0.04346259, -0.03040546, 0.02481022, -0.05845023, -0.06376560, 0.06942966, -0.03626090, -0.05774203, 0.06765389, 0.01562541, 0.07235570, 0.06467981, -0.04268314, 0.02856703, -0.08681028, -0.00788435, 0.08062179, 0.07102229, 0.00760621, -0.07753517, -0.06652150, -0.01511988, 0.02710994, -0.00613758, 0.03856401, -0.02930859, 0.07739861, 0.03560507, -0.00598129, 0.08200838, 0.05638187, 0.02409576, 0.06036031, 0.02149679, -0.03571827, 0.06184662, -0.04484440, 0.00371373, 0.06248549, -0.00748968, 0.07056114, -0.03458511, 0.09193475, -0.00550212, 0.07287102, 0.00475857, 0.01571601, -0.00395029, 0.08648806, -0.08228310, 0.07380312, -0.08632219, -0.07788252, -0.04766731, 0.09052120, 0.09487569, 0.04292622, -0.06987428, -0.06057142, -0.04956082, -0.02832827, 0.06635186, 0.05920312, -0.03084417, -0.02250019, 0.07153924, -0.01889200, -0.01899604, 0.04975942, 0.00072508, -0.08048854, -0.03938615, -0.05925358, -0.04961696, 0.01594661, 0.07468782, -0.01022886, 0.07340334, -0.10089739, 0.00938325, 0.02847571, -0.05003608, 0.06929977, -0.07846601, 0.01436304, -0.06332220, 0.02260010, -0.02761099, -0.01330403, -0.01925611, 0.06776479, -0.07058101, 0.01464739, -0.07173220, -0.00668953, 0.00542376, 0.03852583, 0.02194081, 0.04362497, 0.01839958, 0.09509221, 0.05056839, 0.00296926, 0.03542982, 0.07597173, 0.02054327, -0.04386443, -0.02367513, -0.01024320, -0.07204534, 0.00301319, -0.05809401, -0.04074135, -0.03184744, -0.03250248, 0.06206584, 0.05912157, -0.03905994, 0.08154624, 0.04817995, 0.07480174, 0.04940449, 0.04799816, 0.08758112, 0.07542620, -0.03110446, 0.00696339, -0.02204694, 0.08036797, -0.03082778, -0.00174448, 0.05578656, -0.00751623, 0.02798201, -0.03340464, 0.02891570, 0.01076345, -0.06948751, -0.08361062, 0.01779795, -0.06513389, -0.08693680, -0.05552361, -0.06027892, -0.02903266, -0.02998148, 0.05334988, -0.05361933, -0.02308027, 0.01024363, 0.03746941, 0.01967602, 0.08068375, -0.04530295, -0.01159009, -0.02766489, 0.09642230, 0.02212905, 0.06651316, 0.02020047, 0.04081147, -0.00237916, -0.06704100, -0.07838785, -0.00467731, 0.00880065, -0.05004872, -0.07997945, 0.00794790, -0.03442515, 0.01740989, -0.00259218, 0.01026270, 0.01453433, 0.02667341, -0.09063953, 0.08494967, -0.05205092, 0.03777625, 0.08424371, -0.06835905, 0.09186953, 0.07774971, 0.06387389, -0.06062679, 0.01212896, -0.07423192, 0.04811919, -0.03941087, -0.00049779, -0.04863636, 0.01830574, 0.04825320, 0.08639023, 0.06205700, -0.00510297, -0.01984186, -0.02287732, -0.01723442, 0.07118178, 0.03343675, 0.01777561, 0.05535195, 0.01309416, -0.02110807, 0.02850175, 0.03155623, 0.04675572, -0.01805936, 0.04639551, -0.07741749, -0.04906230, 0.03024141, 0.01508719, 0.03810830, -0.08143596, 0.08415711, 0.04545301, -0.08536848, 0.06220268, -0.04688028, -0.05046616, -0.04403219, 0.00382177, 0.06165248, 0.03717057, 0.06024691, -0.04796854, -0.07680605, 0.05640025, 0.05788192, -0.02656958, -0.06741757, 0.07471658, 0.08723173, -0.07661013, 0.00599538, 0.04690886, 0.05526967, -0.07460204, 0.00793765, 0.08027253, -0.09461023, -0.07848726, 0.07968631, -0.01582004, -0.01030443, -0.07075537, 0.02193138, 0.08661030, 0.02446817, -0.02707690, 0.05893797, 0.01714388, -0.02685016, 0.05561622, -0.05783135, -0.05364085, -0.02566231, -0.07957260, 0.05979474, 0.08659574, 0.02898063, 0.07323758, -0.08833665, -0.00113167, -0.06093854, -0.07202453, -0.06306460, 0.05674474, -0.00826518, 0.06340333, 0.07719661, -0.05490803, 0.07238732, 0.06917293, 0.05560865, 0.03727577, 0.00550508, 0.00289902, 0.04641555, -0.07267123, -0.05380800, -0.06466472, -0.04481317, 0.08123171, 0.01725431, 0.01679165, 0.04210284, 0.06339582, -0.03873786, -0.06469411, -0.02913025, 0.04852758, -0.00216763, -0.08044874, -0.08249152, -0.08104974, -0.04374354, -0.07010642, 0.02318820, 0.05596390, -0.02019789, -0.00058755, 0.07517017, 0.04466448, 0.02787443, -0.07218688, 0.00200212, 0.05536984, -0.05547043, -0.03934932, -0.07264080, -0.03534750, -0.07676114, -0.08436178, 0.03487992, -0.07667926, 0.02319418, -0.08055308, 0.07779934, -0.04141847, 0.00735193, 0.03652486, -0.09051521, -0.05520672, 0.05343273, 0.06632373, -0.03732258, -0.03769926, 0.07090573, -0.01146806, 0.01583172, 0.08985513, -0.01928986, 0.07476498, -0.04252018, 0.03441253, 0.05989830, 0.04497703, -0.02428132, 0.05303998, -0.09139833, 0.02290221, 0.05273745, -0.03588988, -0.01265154, -0.03465167, 0.03081403, -0.03097344, -0.04469270, 0.00792144, 0.05176445, -0.02436702, -0.04229071, -0.03298908, -0.02202108, -0.06129818, 0.05360765, 0.06371783, -0.06209724, -0.07662559, 0.04633732, -0.09557393, 0.03943017, -0.05829128, -0.09005227, -0.03749516, 0.06003677, -0.05491930, 0.05279559, -0.05029027, -0.00829670, -0.05293835, 0.05356329, -0.02744254, -0.05339216, -0.03457266, 0.02198189, -0.02373536, -0.08196072, 0.04675414, -0.03884432, 0.05932017, 0.06550831, 0.03835254, 0.07135636, -0.03433409, 0.06936496, 0.00438963, -0.02928646, -0.05845031, 0.06361744, -0.00826236, -0.07875501, 0.06084848, -0.06987020, -0.01928814, -0.06624191, 0.06520274, 0.03034445, 0.04356700, 0.05356903, 0.02451503, 0.01729279, 0.01713141, -0.03847450, 0.05508392, -0.06621045, -0.06943259, 0.07819903, -0.05507584, 0.06816273, -0.02098743, -0.01359311, -0.05593032, -0.02631261, 0.02468908, -0.00156627, -0.07826459, 0.06693647, 0.05870352, 0.04624211, -0.01274163, -0.01165751, -0.03593035, -0.02868694, 0.03145731, -0.00159017, -0.05890885, 0.03225848, 0.06664988, -0.05971584, 0.08294085, -0.00752067, -0.06525154, -0.02274832, 0.03400277, -0.07182770, 0.06165234, 0.09420661, -0.01108748, 0.05542101, 0.02135491, 0.00874406, -0.00735260, 0.01063460, -0.07130661, 0.07420763, 0.02143765, -0.00908438, -0.01338718, 0.04872327, 0.06288852, 0.03693276, -0.07736941, -0.06421858, -0.02636322, 0.05130395, 0.08002450, -0.05284692, -0.04224851, 0.07922576, -0.07090341, 0.04630856, -0.01319704, -0.05685163, 0.05870279, 0.04973054, 0.00941143, -0.06507062, 0.05834216, -0.02635873, -0.03083810, -0.02989948, -0.08903295, -0.02031422, -0.00678381, 0.06268040, -0.03840255, 0.01345316, 0.00004916, 0.07606022, -0.01414156, -0.04299660, 0.07729220, -0.05657468, 0.04479601, -0.05674208, 0.03549275, 0.07717469, -0.03207221, 0.00503260, -0.04451837, -0.00224305, 0.06834838, 0.01669035, -0.05086605, -0.02207398, 0.00376485, -0.07972354, -0.04398330, -0.03416612, -0.01004945, -0.01617624, -0.08989741, 0.07830836, -0.05967226, 0.09416886, -0.04809294, 0.06059519, -0.04233399, 0.02280236, 0.07197294, 0.03984118, -0.07021435, -0.01888531, -0.04454331, 0.07084543, -0.04590566, -0.04736300, 0.03581715, 0.00078166, -0.02635324, -0.04958875, -0.03222087, -0.08486295, 0.02767349, -0.05335030, 0.02849359, -0.08075913, 0.06297665, 0.07880958, 0.04481059, 0.00211852, 0.00577863, 0.02620046, -0.05495045, -0.02028337, -0.05505470, -0.08651537, 0.08248599, 0.01570138, 0.01455094, -0.02265660, 0.07782376, -0.07898332, 0.00597028, 0.05967916, 0.06843651, 0.06114570, -0.06181794, -0.07056451, 0.08417129, -0.05099534, -0.04808237, 0.01742911, 0.03325757, 0.05321702, -0.04473319, 0.04031177, 0.02282506, 0.01130870, -0.06714065, -0.08144466, 0.07000691, 0.00031270, -0.02367247, 0.07485762, 0.04502973, 0.03893269, -0.03698660, 0.02718600, 0.02453481, 0.04468334, 0.06089761, 0.05009181, -0.01092339, 0.07252000, -0.06648745, 0.08469392, 0.01637091, 0.08422863, -0.01808063, -0.00459390, 0.08104948, -0.01628864, 0.00015582, 0.04564945, 0.07045183, 0.04653298, 0.08689524, 0.04307091, -0.05798027, -0.06187544, 0.02899387, 0.00935388, 0.00603849, 0.04780446, -0.01809169, 0.03213584, -0.05113634, 0.02161008, 0.05348979, -0.03647937, -0.04193999, -0.06671160, 0.05331557, 0.01582305, 0.09291549, 0.02550337, 0.01097218, -0.08776556, -0.08268153, 0.03993391, 0.03348427, -0.03292139, -0.00886189, 0.05964933, -0.04083145, -0.02671664, 0.04325762, 0.01696379, 0.00697462, 0.03800590, -0.02555624, 0.00538336, 0.09713276, -0.03447652, -0.05172061, -0.07047775, 0.04399560, 0.00702954, -0.06097338, -0.06695795, -0.01439404, 0.00396901, 0.01516436, -0.03363357, -0.03762798, -0.07301398, -0.04292287, -0.00833677, -0.02749416, 0.03065062, -0.05074408, -0.02442160, 0.01594088, 0.02572230, 0.08155463, -0.04408277, -0.01331022, 0.01947230, -0.06532606, -0.01538027, -0.03556044, -0.02102609, 0.08529296, 0.07480331, -0.07744998, 0.06456662, -0.04803785, 0.01346854, -0.01894039, -0.04181832, -0.00105150, -0.06350807, 0.05444140, -0.07631736, 0.05743247, -0.02344013, 0.07548497, 0.00156423, -0.08665263, -0.09503859, 0.04450643, 0.03105680, -0.03965958, 0.03900425, 0.07476032, 0.04761782, 0.00344655, 0.00449576, -0.07909318, -0.02539215, 0.05674275, -0.07334287, -0.00244043, -0.07175317, -0.05189707, -0.00418645, 0.00914198, 0.01175272, 0.02444590, 0.01708329, -0.06382837, -0.04951404, -0.06185097, 0.04931608, -0.02578866, 0.02020235, 0.04868678, 0.00827823, -0.05284345, -0.06369828, 0.07946339, 0.06949902, -0.05693434, 0.01269936, 0.07555477, 0.06068966, -0.02300165, 0.00270805, -0.07806153, 0.06877741, -0.03253381, -0.00207453, -0.00496746, -0.04816690, 0.04679638, 0.04674171, 0.05008860, -0.00727905, -0.01835365, 0.04356768, 0.03314675, -0.05644565, 0.02489529, -0.00524412, 0.03146732, -0.08887675, 0.01422125, -0.02234358, -0.08275491, 0.05267447, 0.01031245, 0.01069073, -0.05541862, -0.04998581, 0.06859120, -0.08010466, -0.03898582, -0.05384402, -0.09721728, -0.02675116, 0.08115591, 0.02766010, -0.03515755, -0.05643979, 0.02340057, 0.02560009, 0.03042551, 0.07574660, 0.00673580, 0.05651862, 0.02981409, -0.07730725, -0.08925391, 0.06572442, -0.02181651, -0.08315538, -0.00921473, -0.00290889, 0.00298302, 0.00719980, 0.03152478, -0.04694600, 0.06854779, 0.00689659, 0.03133984, 0.05513273, -0.08781487, 0.08312573, 0.05579023, -0.00906271, -0.07349590, -0.01195100, 0.00558902, -0.08105898, -0.08671319, 0.00385785, -0.00681854, -0.01404748, -0.07797799, 0.08229791, 0.04311671, 0.07634404, 0.06556654, -0.07870638, 0.00117457, 0.02799291, 0.00959418, -0.00520265, 0.02606996, 0.09125658, -0.03002551, -0.01253308, 0.04803127, -0.06033117, -0.07782598, -0.08547757, 0.06334698, 0.04769431, 0.02864744, 0.08320255, 0.06472481, 0.04726923, -0.04354301, -0.04155799, -0.05545055, 0.00106554, 0.05776345, 0.04086792, 0.07789873, -0.03898944, 0.02675763, -0.05640582, -0.01651497, -0.03203972, -0.00944308, -0.07630314, 0.01656158, 0.07141417, 0.07296424, 0.02651314, 0.07562456, -0.08350169, 0.06142956, -0.04343973, -0.05166482, -0.03267221, 0.08361226, -0.05683515, 0.04322981, -0.04235998, 0.08808079, 0.07637040, -0.00427816, -0.04916101, -0.00900563, -0.02857730, -0.07622311, 0.04506690, 0.06127632, -0.07383258, 0.06916942, 0.00335055, -0.08015352, 0.08493926, 0.01739391, 0.07311309, 0.04576879, -0.03891946, 0.07280062, 0.00621453, 0.04421837, -0.05807136, -0.08204236, 0.04122005, -0.04393695, 0.06236554, 0.05134219, -0.01060843, 0.02898546, -0.08370901, -0.04277408, 0.03860357, -0.05896664, 0.07037554, -0.06046108, 0.05891244, -0.04585403, -0.02623942, 0.05731186, -0.07896893, -0.02179359, -0.05485452, 0.02950652, 0.01312368, -0.06689558, -0.03267834, 0.08382410, 0.06490712, 0.00240657, -0.00925394, -0.02158855, -0.08311293, -0.07191934, -0.00014189, 0.01665243, -0.00276290, 0.02341624, 0.00358907, -0.04129671, 0.00292668, -0.05420870, 0.07237016, 0.08160692, 0.02593626, 0.05910486, -0.00212783, 0.01061367, 0.02892314, -0.02459948, 0.01542711, -0.05735728, -0.07618670, -0.00980954, -0.05338794, -0.00518783, -0.05971735, 0.06976852, 0.04534694, 0.03734631, -0.04265419, -0.03718069, 0.05425081, 0.02705093, 0.08389338, -0.00466906, 0.01170653, -0.07038557, -0.00900472, 0.02171463, 0.08248606, 0.04084168, 0.01626130, 0.00014561, 0.00012451, -0.07017380, -0.04585884, 0.03878218, -0.03594156, 0.04240494, -0.03589616, -0.05939379, 0.02476186, -0.06091474, 0.06286948, 0.07427619, 0.04520743, -0.08611420, -0.06365406, -0.08091483, 0.04907995, -0.03124984, 0.00767940, 0.04104664, 0.01699828, 0.02932180, -0.08290084, -0.03003651, 0.05100566, -0.01136757, 0.06550337, 0.08168357, 0.03730342, 0.06489187, 0.00276649, -0.00642746, -0.00805150, 0.07384984, -0.03926271, 0.01827878, 0.07819247, -0.01505888, -0.00314668, 0.07854263, 0.05098400, -0.06644941, 0.00258543, -0.06467442, -0.04919355, 0.07630204, 0.03612463, 0.07417918, -0.00139270, 0.03591243, 0.06763460, -0.01049343, -0.07432958, 0.08018688, -0.05605694, 0.00752621, 0.04539069, 0.08874390, 0.02764373, -0.07532283, -0.02332410, 0.00706829, -0.07774922, -0.02168863, -0.03804786, 0.01646748, -0.06293500, -0.06017046, -0.03890743, 0.02702705, -0.08052796, -0.06538720, -0.08265927, 0.06275126, 0.08425939, 0.02266676, -0.00105414, -0.04414336, 0.05594797, 0.08532685, -0.06318377, -0.07432720, 0.08407744, 0.05275800, 0.08515225, -0.04333774, 0.06221702, 0.01098042, 0.08238569, 0.08659115, 0.03901196, -0.02071251, -0.08308849, 0.01073245, 0.05871417, -0.01012149, -0.04492371, -0.05153356, -0.08016685, 0.03881123, -0.04869866, 0.06166750, 0.02982735, -0.01761805, -0.03148987, -0.00337533, 0.06264812, -0.01520577, -0.00123345, 0.07287069, -0.06630159, -0.08455595, -0.03822924, -0.03552814, -0.02552863, 0.00089079, 0.06601683, 0.02544598, 0.02223610, 0.04357611, -0.02277679, 0.07912277, 0.03164910, 0.06569051, 0.03785021, 0.03685959, 0.03227603, 0.01553378, 0.01776713, 0.01628975, -0.00245710, 0.08536009, -0.01766049, 0.08506689, 0.00656900, -0.00511520, 0.06635855, 0.04800989, -0.01418832, -0.08562126, -0.06800931, 0.00223725, 0.00608623, -0.03479868, 0.04150357, 0.08084494, 0.06620339, 0.06776743, -0.01036741, 0.04014603, -0.03078904, -0.00399487, -0.04421362, -0.04264082, 0.07190322, -0.06251662, 0.07341047, 0.04030877, -0.04350991, -0.01703740, -0.03629686, -0.05218283, -0.06900137, -0.06472384, -0.04962699, 0.06431102, 0.02129398, 0.00407637, 0.07257041, -0.02862201, 0.08856667, 0.05736720, 0.04318712, -0.05195342, -0.02361582, -0.03055116, 0.08568788, -0.03409774, -0.00155466, -0.02471295, -0.00677054, -0.07079577, 0.02716155, 0.01294233, -0.07004987, -0.05589797, 0.02302894, 0.01943378, -0.03737705, 0.04033195, 0.05682092, 0.10210755, 0.06707311, 0.02556397, 0.03319794, -0.00486360, 0.08134945, -0.05002925, 0.04939024, -0.06963133, 0.10357259, -0.04766193, -0.03309346, 0.05832549, 0.00509589, -0.04446121, 0.02121451, 0.00435383, 0.03379507, 0.08362422, -0.02041816, -0.04744473, 0.07917599, 0.04209911, -0.08092694, -0.04743077, -0.07311089, -0.00743741, -0.08053076, -0.02905465, -0.03366648, 0.02539895, 0.02752505, -0.07416565, -0.03682644, 0.06138846, -0.01487636, -0.02752714, -0.00933491, -0.03275822, -0.04245382, -0.09908441, -0.03386619, 0.04814622, -0.00296914, 0.06938088, 0.04215872, -0.06829875, -0.04913488, 0.03807558, 0.04667670, -0.09019885, 0.09810843, -0.06388962, 0.05365593, 0.02838181, -0.08000728, -0.00136297, 0.03080943, 0.02840865, 0.08084627, 0.00978248, -0.04826228, -0.06995802, 0.00272398, -0.05477634, -0.01777488, 0.09189411, 0.05318784, 0.00775533, -0.07094115, -0.02448338, 0.05083087, 0.05970164, 0.00338718, -0.04401029, -0.01670603, -0.09881989, -0.03641158, -0.05779118, 0.00341061, -0.02618859, 0.03456739, 0.09459273, -0.01045294, -0.08492197, -0.05471965, 0.06810243, 0.03678759, 0.03862881, -0.03509801, -0.00906898, 0.00715911, 0.05593174, -0.04572457, 0.00645702, -0.08762275, -0.07820484, 0.02260922, -0.01984902, -0.09395681, 0.02186183, -0.03921350, 0.07929932, 0.03062410, 0.02764769, 0.07202290, -0.00124728, 0.04353726, -0.09515199, 0.05256523, 0.00649151, 0.08703941, 0.02075049, 0.00199487, 0.00245833, -0.07150806, -0.01545393, 0.02515491, 0.03511693, -0.08767056, -0.04452619, 0.01624075, -0.04166073, -0.07682784, 0.02202155, 0.00092783, -0.04806180, 0.06664006, 0.02238143, 0.08273490, 0.00442016, 0.04169165, -0.01511525, 0.09036775, -0.03942225, -0.08693764, 0.06672011, -0.06930127, 0.04360677, 0.02372616, 0.02042643, -0.03127815, 0.00933651, -0.02741976, -0.06210827, 0.01715220, -0.04782562, 0.03073499, 0.00318961, -0.06206670, 0.07762706, -0.05853171, 0.02411124, 0.07312089, 0.05630464, 0.00223185, -0.01121978, -0.08514928, -0.05304861, -0.03637227, 0.01054532, -0.00448903, -0.03499159, -0.06633402, 0.00814379, 0.01427724, -0.01079115, 0.00584454, 0.05350203, 0.03473816, -0.00763481, -0.06213257, 0.03849951, -0.03568707, 0.06876291, -0.01607018, 0.08473505, -0.00392034, -0.07650779, 0.03230998, -0.05746116, -0.02918375, -0.05392705, 0.00605572, 0.00388579, -0.05688756, -0.08332914, 0.01860381, 0.08366358, -0.07899103, 0.00060155, 0.07893733, 0.03994942, 0.07917241, -0.01776861, 0.07663570, 0.01708108, 0.03389956, -0.00514992, -0.01817013, 0.00826721, 0.03776107, 0.04916919, 0.04085920, -0.06100902, -0.06775430, -0.03704211, -0.03055272, -0.04337082, 0.06432383, -0.08162729, -0.04575949, -0.04685393, -0.00890420, 0.07425910, 0.09256813, 0.06388820, -0.07358346, -0.06108073, 0.05956578, 0.00222874, 0.05813962, -0.02343171, 0.07931307, 0.02679338, 0.07863019, 0.07264907, -0.02871574, 0.02569839, -0.06300920, 0.03156918, -0.01847484, 0.05320203, -0.08294366, 0.06399556, -0.02135484, 0.00670714, -0.00093068, 0.05662088, -0.02083579, -0.04895411, -0.00954062, -0.06983727, 0.01220300, 0.08680031, -0.04037712, 0.00073431, 0.07738241, 0.07682356, -0.00848693, 0.08516683, 0.09193508, -0.07623857, -0.03283749, 0.01964144, -0.04897965, -0.03446876, -0.03657114, -0.04368680, 0.01381812, 0.03533138, -0.05277554, -0.00210491, 0.04768918, 0.01356420, 0.05718951, 0.06618650, -0.02240138, -0.06472626, -0.00249157, 0.04246285, 0.07874022, 0.06362870, 0.05232275, 0.07564642, 0.02136746, 0.05093677, -0.01945565, -0.05295233, -0.00233081, -0.00436696, 0.03638084, 0.06830879, 0.00369554, -0.07813828, 0.00816340, -0.00573059, 0.01121456, 0.01771870, -0.07650606, 0.00331054, 0.08435734, 0.01536127, 0.01491782, -0.07614844, -0.06509295, 0.01104620, 0.05658940, -0.05102172, 0.01833248, 0.00569316, -0.05210047, 0.00555016, -0.04385224, 0.03182212, 0.00869895, -0.05910938, 0.09590659, 0.07165998, 0.00462744, -0.06466138, -0.05233422, 0.02020866, 0.05722099, 0.00292689, -0.07377639, -0.01985438, -0.07956866, 0.05509157, -0.01652670, -0.02482551, 0.01360798, 0.04992182, -0.08030966, 0.02354567, 0.07856183, -0.05017864, 0.00824643, -0.06555692, 0.07405634, -0.03622164, 0.07451716, -0.06150262, -0.07579996, -0.00319342, -0.04676145, 0.04814586, -0.04441473, 0.09249521, -0.01279523, 0.04065363, 0.00845311, -0.04786185, -0.03287177, 0.03396701, 0.00629886, -0.00669930, 0.05364393, -0.00275202, -0.07827614, -0.08341286, -0.06564730, -0.05938394, -0.02011192, -0.06049369, -0.02395613, -0.04725734, -0.01725070, -0.01839349, 0.04319221, -0.04935601, 0.06486608, 0.08657518, -0.04285428, 0.00006677, 0.08488414, -0.03921280, -0.00378816, -0.03630866, 0.07019034, 0.07407426, -0.00910532, 0.00190676, -0.00659586, -0.01924854, 0.06588919, -0.04816196, -0.04418198, 0.07000682, 0.01854613, -0.07064588, 0.01164017, 0.08063416, -0.03592457, 0.06419851, -0.09203629, 0.08803511, 0.05329789, 0.08072736, 0.07658372, -0.02593542, -0.01676396, -0.04009734, -0.03071126, 0.04122756, -0.07815999, 0.04881353, -0.02563509, -0.03216555, -0.05490229, 0.03928982, 0.04617945, -0.05751102, 0.04259864, -0.07592528, -0.05093925, 0.00858017, -0.04015549, 0.00221209, -0.02681889, -0.05166880, -0.06028868, 0.03146851, 0.05798801, -0.03475013, 0.05560357, 0.04126832, -0.04952773, -0.04913066, 0.09015531, -0.00749942, -0.01945801, -0.02933764, -0.00708443, -0.06930616, -0.05973748, -0.00503494, 0.06576512, -0.02688417, -0.03662908, 0.05876008, 0.05305432, -0.06859859, -0.09050408, 0.08032937, -0.08945198, -0.00308092, 0.04362497, -0.04587814, -0.00390541, -0.09794333, -0.05418573, 0.06516211, 0.04500328, -0.00267667, 0.07641281, 0.06530010, -0.02021587, 0.08513584, 0.05292530, 0.02538639, -0.02152631, -0.06439060, 0.02821950, -0.04075924, 0.03305272, -0.00011135, -0.05257057, -0.04379526, -0.00749363, -0.02442701, 0.08397614, 0.00509350, 0.04636340, 0.00249385, -0.03791156, -0.09158069, -0.03982690, -0.04362451, 0.06020985, -0.03279896, -0.06471513, 0.01350385, 0.07511943, -0.07476809, 0.04620989, -0.06693473, 0.01058345, -0.03046078, 0.03714047, 0.09386060, 0.03144840, -0.05226316, -0.00428285, -0.05047280, -0.02131168, 0.04213834, -0.08953347, 0.02789449, -0.07701489, 0.06422321, -0.08587606, -0.04538202, -0.03386544, 0.03379709, -0.09726720, -0.04698187, 0.01576699, 0.09383015, 0.00402995, 0.09210201, 0.06029087, -0.04026323, 0.03905253, 0.09106338, -0.07572822, 0.05501325, -0.04355881, -0.01875083, -0.03048706, -0.03731585, 0.06690449, 0.00697565, 0.02098679, -0.08783277, -0.03157461, 0.06489312, -0.07792223, 0.09873638, 0.01685800, 0.05843056, -0.03664658, -0.01871078, 0.06105966, -0.05271224, 0.07548176, 0.02685560, 0.04627287, -0.02148877, 0.05713322, 0.00157062, -0.05509969, -0.04603504, 0.07556992, -0.05874999, 0.00969350, 0.07263476, 0.07150992, 0.07835235, -0.02163964, -0.02544680, -0.02234164, 0.04063911, -0.02249123, -0.05692634, -0.06525798, -0.06120567, 0.06045698, 0.02404043, 0.07293376, -0.07474434, 0.08790806, 0.01024535, 0.08550128, 0.08031630, 0.03641942, 0.03205744, -0.06603453, -0.04055436, -0.06419830, -0.00968003, 0.03785042, -0.03133866, 0.06393009, 0.02227102, -0.02860329, -0.06061394, 0.02700505, -0.01891051, -0.06055009, -0.09116597, -0.00709796, -0.03372535, 0.08509186, 0.04005685, -0.08009778, -0.07150086, -0.06442294, 0.03831908, 0.07296907, -0.05953603, 0.07759523, -0.08288227, -0.04354484, -0.08157616, 0.09176184, 0.08046068, 0.06307825, 0.02744188, -0.08977854, 0.05079428, -0.06332415, -0.09952032, 0.04105204, 0.09690616, 0.02306855, 0.02741243, -0.06010077, 0.08869904, 0.00310726, 0.07996829, 0.07409138, 0.06441792, 0.01741259, -0.00628666, 0.07216324, -0.02284447, -0.04000118, 0.05016547, 0.06518698, 0.01943996, -0.01492496, 0.07183207, -0.02441085, -0.03720185, -0.01601231, 0.00657131, -0.01317983, -0.07255119, 0.07571643, -0.03303418, 0.02678672, -0.03848030, 0.04069263, -0.01909338, 0.06037500, 0.05558619, 0.02326442, -0.05214893, 0.04686834, 0.06852853, 0.08553269, -0.05356910, 0.00320876, 0.07383934, 0.06566654, -0.06203370, 0.02604101, -0.02176960, -0.00407071, -0.06190680, -0.04330704, 0.08518007, 0.00017703, -0.06455228, -0.03225880, 0.05919359, -0.00050245, 0.00281590, 0.00093615, 0.02807364, 0.07886054, 0.01078822, 0.02554474, -0.07169670, -0.04507717, 0.05454745, 0.03515798, 0.07795098, 0.00406001, 0.00794572, 0.04158016, 0.00622899, 0.06591422, -0.04134855, -0.02211975, 0.00691137, -0.01762055, -0.05763867, -0.01516113, -0.02648710, 0.02710323, 0.06129678, 0.04314155, -0.05414924, 0.05609118, -0.00671723, 0.01160845, -0.07711652, -0.03150735, 0.07346582, 0.02617037, -0.04901386, -0.01118380, 0.01224221, -0.06100661, -0.05638027, -0.05785859, 0.08188327, 0.04062513, 0.03031130, 0.01043734, -0.07186536, 0.05292541, 0.00922257, -0.06228917, 0.01833566, -0.03148490, -0.05967192, 0.00081080, 0.04191464, 0.04354072, 0.00996147, -0.04215229, -0.02997543, 0.06379049, -0.01881199, -0.01688713, -0.03228781, -0.04652879, -0.04034641, 0.07853688, 0.00924210, 0.02732277, -0.00344911, -0.03367370, -0.05933019, -0.04130606, -0.07679842, -0.04768836, 0.07892633, -0.07597567, -0.01316904, -0.03656200, 0.01954263, -0.05153194, -0.04882228, 0.03551556, 0.04995032, -0.00962164, -0.00568804, -0.07887086, -0.01884617, 0.00197079, 0.08121569, -0.02388091, 0.04127374, 0.01281235, 0.05228312, -0.01732746, -0.05457662, -0.05962696, 0.07444648, 0.02281352, 0.04614867, -0.05246495, -0.03276709, 0.04156145, 0.01516000, 0.03178046, 0.03936729, -0.01322571, 0.02936850, 0.02638238, 0.05784144, 0.01762793, 0.05540536, -0.04436924, 0.00532512, -0.02437859, 0.02001964, 0.04099461, 0.01896270, 0.02510661, 0.03041018, -0.01229969, -0.04739810, 0.07589460, 0.06696772, 0.00969692, -0.06286222, 0.00554239, -0.02608111, -0.04840896, -0.04769120, -0.05996571, 0.08056937, -0.02867526, -0.06823856, -0.05888320, 0.00636228, 0.01814649, -0.05245712, 0.02830968, 0.03657789, 0.02585047, -0.00859749, -0.04484572, -0.01831412, -0.04268794, -0.04239843, -0.03686133, 0.06504067, 0.02137988, -0.04367819, 0.01578478, -0.00428616, 0.00284849, 0.06365595, -0.07507958, -0.02797497, 0.08539424, -0.00976592, -0.08379599, -0.03064235, 0.01979607, -0.03620673, 0.02143073, -0.06078510, 0.00600772, 0.01153667, -0.02642677, 0.05744522, 0.05256839, 0.04141928, -0.05304312, -0.08367689, -0.09170289, 0.02339961, 0.06770144, -0.06422610, 0.06318720, 0.01309391, 0.04721006, 0.05518384, 0.05720454, -0.04969705, -0.02434436, -0.04001448, 0.07005003, 0.07328454, -0.02844589, 0.04429114, 0.07567696, 0.01447972, -0.03512695, -0.06734116, -0.02665018, 0.07067709, 0.07443675, 0.01325443, -0.05004108, -0.04386028, -0.04365002, -0.04249531, 0.03647311, -0.05631438, -0.02064039, -0.07852572, -0.04720219, -0.05526783, 0.03549619, 0.04291561, 0.02299334, -0.08169918, 0.07758243, 0.01760674, -0.01907482, 0.04827410, -0.02381785, 0.05925728, -0.05943612, 0.07609212, 0.01368629, 0.01283148, -0.08667766, -0.07705469, 0.06579763, -0.05028123, -0.05873686, -0.06594036, -0.08124554, 0.04625089, -0.07513084, 0.06485571, 0.01721406, -0.01278667, -0.06024580, -0.03392676, 0.01127583, -0.03848096, -0.07243846, -0.00485061, 0.03656143, 0.08722220, -0.04918490, 0.05561472, -0.06214981, 0.07846244, 0.05764883, -0.03594612, -0.07275799, 0.01107422, 0.08150367, 0.01984193, -0.06675009, 0.01729969, 0.06426963, 0.05277788, -0.04153236, 0.01193426, 0.03197351, 0.07879370, 0.04400793, 0.07772323, -0.06298681, 0.06334842, -0.01263475, 0.06323688, -0.06670700, 0.03782526, -0.06428141, -0.02857168, -0.02967113, 0.01100029, 0.03931389, 0.07838675, -0.05462676, 0.01322656, -0.03358386, 0.03758972, 0.08132675, -0.01291225, 0.08619873, 0.06516878, 0.02364716, -0.06986096, -0.07331944, -0.05772291, 0.05154702, 0.05974117, -0.05443447, 0.08591512, 0.02442901, -0.06765263, -0.03603455, -0.03708284, 0.06756986, 0.02665149, 0.01752030, 0.05013517, -0.01098256, -0.00229736, 0.03803771, 0.08619054, 0.02404378, -0.08137190, -0.06267236, -0.02270673, -0.06282236, -0.04634697, 0.05957731, 0.04064309, 0.08077056, 0.00694474, 0.01392882, 0.07358935, -0.03954691, 0.01376464, 0.04964285, -0.03790435, 0.07540517, -0.06172668, -0.07629658, -0.05443739, -0.07213217, -0.00968101, 0.02370833, -0.05011318, -0.03635499, 0.00329997, 0.03360059, -0.01855738, 0.07669204, 0.00057843, -0.02659127, -0.05255819, -0.03274662, -0.03775370, -0.02865068, 0.00671550, 0.04561970, -0.05757479, 0.08836199, 0.02334751, -0.04591251, -0.03230888, -0.00399769, 0.02970503, -0.04390556, -0.03657175, 0.01582457, -0.04980227, -0.08017765, -0.03969081, 0.08415460, 0.05077756, 0.04083314, -0.01799869, 0.02237925, 0.03547239, -0.04376639, -0.06721199, -0.00091472, 0.03333761, 0.08406480, -0.00051462, -0.04434323, -0.04408295, -0.08775280, -0.02353857, 0.07682141, -0.02838996, -0.04580274, -0.03036969, -0.01642882, 0.00446853, 0.00528018, -0.06293176, -0.01760588, -0.08876480, 0.03459622, 0.07636692, -0.07572141, 0.04380336, 0.02825638, -0.05651224, -0.04091312, 0.03899406, -0.08885998, 0.03592213, -0.04386984, -0.06975862, -0.00173490, -0.05345199, 0.05608790, 0.00480521, 0.05346477, -0.07962109, 0.00141901, 0.07449917, -0.03941581, -0.00012527, -0.02123417, -0.07974330, -0.05668172, 0.04457323, -0.08800317, 0.02121473, 0.03933214, -0.05502584, -0.06812994, -0.06114968, -0.03640473, -0.04353831, 0.05168810, -0.06459775, -0.06557503, 0.00332469, -0.01760947, -0.03363110, 0.04648172, -0.06121031, 0.02029954, -0.04024594, -0.07497381, 0.00899415, 0.08969440, -0.01820878, -0.00075947, 0.03620984, -0.02941426, 0.06514505, -0.07780063, -0.05138747, 0.03880840, -0.04915068, -0.06000059, 0.03169294, 0.05613609, -0.01502572, 0.03795627, -0.07699541, 0.05213368, 0.04304614, -0.05609813, 0.05871435, 0.07371045, -0.03493979, 0.01008079, -0.00711321, 0.05045317, 0.05532210, 0.03734915, -0.00542071, -0.04847091, 0.04730078, 0.05459261, 0.04500434, 0.04278842, -0.07887962, -0.01569708, -0.04816291, -0.04356534, -0.07280464, -0.06852759, -0.05889940, -0.00309060, -0.06190697, -0.00235488, 0.06422593, 0.03894865, -0.05990859, -0.05281111, -0.04927976, -0.02416609, -0.07507246, 0.03096642, 0.07693771, 0.05718810, 0.01828675, 0.08329701, 0.04330858, 0.08564661, 0.04234831, 0.00448096, -0.06402086, 0.01533516, 0.07911150, 0.00846750, -0.03240523, -0.00827285, -0.01703460, 0.08494873, 0.00064439, -0.04637036, -0.07710119, -0.05827876, 0.03921294, 0.07798894, 0.03332572, 0.07753556, 0.03214741, 0.02583844, 0.04847477, -0.06292182, -0.01223444, -0.08551718, -0.02213312, 0.01658497, -0.06374972, 0.09060599, -0.04959261, 0.00811730, -0.04687744, 0.06814033, 0.08628391, -0.06296965, 0.05930152, -0.01252814, 0.00979885, 0.09520663, 0.03373690, -0.04572999, -0.07845737, 0.06240188, 0.02102767, -0.08240195, 0.02968514, 0.01311056, -0.06325532, -0.02551077, 0.08736737, 0.01378378, -0.06194315, 0.06616439, 0.04672045, -0.06156371, 0.05771153, -0.06867199, -0.07140289, 0.04013377, 0.02659605, -0.07474763, 0.01196043, 0.02779599, 0.06832181, 0.05395329, 0.03415933, -0.09246428, 0.08952906, 0.03634399, -0.07236286, 0.07431981, 0.08229764, -0.06488135, -0.05249324, -0.00155022, -0.04964207, -0.08451000, 0.08734555, -0.04498902, 0.03342656, 0.06952635, 0.03530961, 0.04608773, 0.08029644, 0.05543030, 0.05636180, -0.07452906, -0.00615523, 0.06856336, 0.00809587, -0.00958255, -0.01025232, 0.06275004, 0.04322514, -0.07390757, 0.02711820, -0.09189627, -0.08840289, 0.08977987, 0.02600765, -0.03256977, 0.02835080, -0.06584604, 0.00206119, 0.08033921, 0.06996380, 0.06447293, -0.04200655, -0.01363205, 0.05951166, 0.07271180, -0.01199386, -0.02306861, -0.03542912, 0.07712296, 0.05668858, 0.01808004, 0.02183462, -0.07466007, 0.07890087, -0.01553541, -0.08078343, 0.04377826, -0.00538613, -0.04866674, 0.06954199, -0.06241810, 0.03520421, 0.04550913, 0.04166889, -0.00264846, 0.08873235, 0.02523846, 0.05961747, -0.03228404, -0.07102577, 0.06768934, -0.07823124, 0.05623934, 0.03750515, 0.09473836, -0.02533518, 0.00630479, 0.01972808, -0.08259144, -0.02890132, 0.06871425, -0.02304753, 0.04166120, 0.00699901, 0.04313616, 0.06886949, -0.05207027, -0.06226324, 0.02770101, 0.06220371, -0.04223829, 0.04922174, -0.08398601, -0.03280466, -0.06435094, -0.01163656, -0.00446888, 0.06296965, 0.01652134, -0.07524395, 0.00053622, -0.08998915, 0.04885555, -0.04405574, 0.08406845, -0.06305593, -0.05671252, -0.06703070, 0.02284728, -0.03568194, -0.08728712, 0.01959499, -0.03186202, -0.03995882, -0.00798820, -0.08640434, 0.01710624, -0.04891257, 0.05924067, 0.03702364, 0.03535790, -0.09344792, 0.05788154, 0.01391390, 0.05618626, 0.01798142, 0.01871896, -0.07474183, 0.06235184, -0.01313019, -0.01143427, -0.06385343, 0.05446290, 0.09553947, 0.07628947, 0.03678718, 0.06852593, 0.09254883, -0.02528994, 0.00768583, 0.03352188, 0.09818990, -0.05483864, 0.05160550, -0.04763075, -0.07223739, -0.02328170, -0.09328663, 0.06582895, 0.02905943, -0.01170788, -0.05705786, 0.07358667, 0.03913972, -0.03661064, -0.06787948, 0.06528459, 0.01504912, -0.08606544, 0.04342262, 0.05146321, -0.04996262, 0.09802926, -0.05985331, 0.07651632, -0.04284719, 0.06727467, -0.08197152, -0.02144281, -0.03522040, -0.04817512, 0.07165053, 0.02929033, 0.00773441, 0.04046142, -0.05311910, -0.01604277, -0.09039068, 0.02722495, -0.08432937, -0.00632819, 0.06453609, -0.09907762, -0.01986386, 0.02347283, 0.05655226, -0.06132129, 0.06858543, 0.05595679, -0.07146298, -0.01677317, -0.00474633, -0.07022375, -0.06972644, -0.08260579, 0.05990490, 0.07622238, -0.02041773, -0.09607926, 0.04425453, 0.03872112, -0.00370875, -0.08095459, -0.08268096, 0.06470684, 0.03097783, 0.04479501, 0.00009788, 0.02035215, 0.05803816, 0.06468858, 0.09642540, -0.04534516, -0.00971787, 0.07380340, 0.04301855, -0.05684391, -0.07939512, 0.01420914, 0.08168019, 0.05379960, 0.03783219, 0.08437133, 0.06658224, -0.04593933, -0.06908423, 0.01998419, 0.09185226, -0.01648081, -0.07275260, -0.02010545, -0.04721733, 0.02038431, 0.07554793, 0.05608512, -0.05124486, 0.05506650, -0.03378300, 0.00929326, 0.03690766, 0.06726522, -0.00850064, 0.08912393, 0.06541921, -0.07105026, -0.05140495, -0.05784536, -0.00554133, -0.03848345, -0.03413920, 0.05203262, 0.02589032, -0.03067031, 0.03051982, -0.03001460, 0.08686709, -0.03523554, -0.05284090, 0.02854182, -0.05881028, 0.03643816, -0.00935487, 0.03942230, -0.06964471, 0.02461384, -0.05695613, -0.08139876, 0.03130176, 0.07193974, 0.04852707, -0.02646737, 0.02641076, 0.00377891, 0.00291784, -0.01353415, 0.09478621, 0.09017209, -0.03111546, -0.08481494, -0.08868131, -0.00381626, -0.06226594, 0.02141521, 0.04863548, 0.00869493, 0.05527513, 0.05369497, -0.07614899, 0.00686301, 0.08041114, -0.01145524, -0.09703673, 0.01736001, 0.03004787, 0.00225258, 0.00630110, 0.06652962, -0.07706419, 0.03650114, -0.03802751, 0.04998286, -0.00981625, 0.01546602, -0.03714675, -0.08417685, -0.00707821, -0.03135196, 0.03533746, 0.05477021, 0.05546255, 0.03250391, -0.04105291, 0.00830346, -0.02657203, 0.05141285, 0.02814884, -0.05347402, -0.07890191, -0.03182088, -0.10296585, -0.05655694, 0.05273592, -0.05095688, 0.03282774, -0.00140411, -0.00893466, -0.06852225, -0.06766190, -0.00792778, -0.04404948, 0.07621440, -0.04856959, 0.04090825, -0.08018054, 0.06263795, 0.00886205, -0.06015714, -0.06785414, -0.01942833, 0.03746841, -0.04351208, -0.06381209, -0.04127530, -0.07461227, -0.07806762, -0.01684450, -0.03268941, 0.00267615, 0.06536791, -0.02383544, 0.04882540, 0.07463908, 0.01672543, 0.00714834, -0.07427289, 0.05062168, 0.05600779, -0.02018674, 0.07740641, 0.05309195, -0.03910734, 0.00821393, -0.03286595, 0.03434309, -0.03851632, -0.05468643, 0.01278441, 0.07403792, -0.03521647, 0.01388245, -0.08576096, -0.04554584, -0.05203101, 0.00367118, 0.03964526, -0.08132740, 0.00434016, 0.07445216, -0.00359398, -0.03542820, 0.05743723, 0.02495376, 0.03919348, -0.05979906, 0.05866836, -0.04676533, 0.04697914, -0.05007874, -0.02506895, -0.06853586, -0.00710584, 0.00034789, 0.02312118, 0.08092234, -0.07020251, 0.01540356, -0.08598852, -0.00800206, 0.01655427, 0.07542852, 0.05993154, -0.00120270, 0.07787448, 0.02601375, -0.01111670, -0.05581620, 0.02413026, -0.01203791, -0.05245727, -0.03170562, -0.04548008, 0.02871481, -0.04169134, -0.08078177, -0.06389479, -0.00899015, 0.01280838, -0.05835772, -0.07315595, -0.02352236, -0.01985771, 0.05918918, -0.00413216, 0.01371675, 0.09474779, 0.07193890, 0.00604343, 0.04732846, 0.00461325, 0.03912345, 0.00217038, 0.06584495, 0.04176702, -0.04335469, 0.01412474, -0.00574394, -0.05924406, -0.01639372, -0.01117909, -0.02524670, 0.08707540, -0.01697289, -0.00738921, -0.06304902, 0.07361808, 0.08261514, -0.03130044, -0.00853392, -0.00511417, -0.01150382, -0.07388515, 0.03984256, -0.01693248, -0.06009486, 0.07123981, 0.03808193, -0.04246410, -0.02291398, -0.03450560, -0.09393466, -0.07274067, -0.03910765, -0.08941595, 0.02158809, -0.08473730, -0.01965114, 0.00654992, 0.00530987, 0.05328058, -0.08498932, 0.07739523, -0.05086248, 0.09782466, -0.01297643, 0.06020915, -0.02892578, 0.09702237, -0.07386742, 0.08166010, 0.00212272, -0.01179316, 0.01240161, 0.02826394, 0.05913277, 0.07299260, -0.07867691, -0.00565448, 0.03950698, -0.01749754, -0.00743850, -0.05471186, 0.00578354, 0.02226537, -0.01412959, 0.00546538, 0.00158967, -0.00086236, -0.03403724, -0.02015854, -0.02717631, -0.05220219, -0.04426353, 0.00960349, 0.05072583, -0.07824670, 0.03227187, 0.07513196, -0.04825570, 0.06584437, -0.03130032, -0.07153873, 0.09146021, 0.03456264, -0.05659624, -0.02320400, -0.08754012, 0.07783624, -0.03432178, 0.00678618, 0.07645237, -0.03216095, 0.06777447, -0.03802571, -0.01483397, -0.06211462, -0.08485462, -0.07974472, -0.07438031, 0.01456114, -0.03683423, -0.04042332, 0.06497531, -0.00973241, 0.05825435, -0.01140592, 0.00748661, 0.04007569, 0.00380960, -0.02238831, -0.06183320, -0.01798930, 0.04504904, 0.07818490, 0.02545677, 0.05705883, -0.01130457, 0.00480084, 0.04672656, -0.04522092, -0.02000686, -0.00007568, -0.02977590, -0.02265537, -0.02457904, -0.01293412, 0.05909786, -0.07230307, 0.07572509, 0.03271631, -0.03184851, -0.01277973, -0.08454173, 0.01517351, -0.06051880, -0.03175445, -0.02698374, 0.03020184, 0.00829367, -0.01260610, 0.07809953, -0.00982924, 0.05836596, -0.05543916, 0.03915544, 0.04274819, 0.04023759, -0.04065790, 0.06374178, -0.05726464, 0.03278782, 0.07486521, -0.03794181, -0.01279773, 0.01732416, 0.06692883, -0.04300076, -0.08670674, 0.04315786, 0.03619142, -0.01890300, 0.05550686, -0.02375475, -0.01120814, -0.02067960, -0.05779267, -0.04201505, 0.03130673, -0.03556594, -0.01104415, -0.01164330, -0.00006085, 0.06676453, 0.07898224, 0.04069021, -0.07667396, 0.08125937, 0.01576039, -0.07588942, -0.02557464, 0.08647764, -0.07439825, 0.01214891, -0.06299501, 0.07764576, 0.01201557, -0.02081713, -0.00270940, 0.03030162, -0.08875159, 0.06043399, 0.08336844, 0.07924750, 0.04879601, 0.05102888, -0.07113002, 0.02680817, -0.04065622, -0.08284197, -0.07084381, -0.07945944, -0.02589564, 0.06428712, -0.06571978, -0.01101868, -0.00244254, 0.00226681, 0.02503480, 0.05613464, 0.02600357, 0.04702618, 0.06277025, -0.01852946, -0.05313212, -0.04688577, -0.02440284, 0.07157099, 0.06162608, -0.08838107, 0.04585502, 0.04974995, 0.05035466, 0.07378808, -0.06912135, 0.07400146, 0.00057210, -0.01862554, -0.04699564, 0.03988621, 0.01885054, -0.00369731, 0.05678773, 0.04451733, -0.02036320, 0.02292022, 0.01672668, -0.07470775, 0.01032526, 0.05356313, 0.07264683, 0.05389287, 0.02001461, -0.06367078, -0.00578572, 0.07648285, 0.03167538, -0.05110116, 0.01970281, 0.06804257, -0.00437624, 0.05882881, 0.00270561, 0.05484043, -0.08360985, -0.06514450, -0.01086225, -0.04340495, -0.07777669, -0.00944320, 0.00977287, -0.02896033, 0.07491074, 0.03137707, 0.03360524, -0.04841469, 0.00420893, -0.03661333, 0.00445980, -0.02024372, -0.05464043, 0.06862944, -0.06560703, -0.00654305, -0.08956693, -0.05193128, 0.09059118, 0.04936911, -0.07563668, 0.00286022, 0.01873487, -0.02108382, 0.00329983, -0.01316500, 0.08637151, 0.02720422, 0.00418485, -0.04817992, 0.00533536, -0.06855252, 0.03838718, 0.07907078, -0.03071992, 0.06937661, 0.04570761, -0.00805077, 0.08144962, 0.08060881, -0.02541548, -0.04014559, 0.02122611, -0.00496474, -0.00535191, -0.00303940, 0.02630070, 0.02560662, 0.05492126, -0.01978934, 0.00080277, 0.06883065, -0.03615763, 0.07097384, 0.05366484, -0.03378068, -0.04695933, 0.07921390, 0.06363424, -0.08949318, 0.03052239, 0.07036310, -0.00802920, -0.07324980, -0.06593960, 0.03146943, -0.05886928, -0.01649186, -0.04589277, -0.00328720, 0.02684258, -0.04258797, 0.01557900, -0.00382671, -0.03793773, 0.07214957, 0.03332528, -0.04930500, -0.07755398, -0.05963355, -0.03430351, 0.03725000, 0.00972411, -0.06387370, 0.08458045, -0.06295075, -0.00874596, -0.07936346, 0.04195408, 0.01530557, -0.01747739, -0.05494966, -0.07977786, -0.03433667, 0.04106076, -0.08116719, -0.05289849, -0.00443498, -0.00490703, -0.00764051, -0.05094834, -0.03564165, -0.07929922, -0.03464205, -0.00032694, -0.03935740, -0.01258656, 0.03114233, -0.03700147, 0.01755955, -0.00829918, -0.04292708, 0.09102520, -0.03435726, -0.01808525, 0.02992399, -0.04631702, 0.08182037, 0.00556619, -0.05603259, 0.01637594, 0.02942382, -0.04065517, -0.00894301, -0.01747363, 0.03037239, 0.01801696, 0.02768697, 0.02431270, -0.06390893, -0.03327802, 0.00644961, -0.08478057, -0.03238855, -0.02511089, -0.03525627, 0.05318440, -0.08556481, 0.03056718, 0.06263147, -0.04515124, -0.05240382, -0.02386250, -0.02619713, 0.00582671, 0.04324657, 0.08018427, 0.01710932, 0.06176647, 0.00043808, 0.06853978, 0.07249551, -0.07939994, 0.08632191, 0.09099329, -0.06175493, 0.04085682, 0.06306347, 0.07606343, 0.07541307, 0.01422080, -0.02855428, -0.06398388, -0.05265047, 0.05082596, -0.02317594, 0.05013284, -0.07482337, -0.02249055, 0.08720618, 0.03292610, 0.04441351, 0.07336113, 0.05211559, 0.04650956, 0.01370744, -0.01408579, -0.00852233, -0.05471389, -0.07323828, 0.03772723, 0.03474215, -0.06284387, 0.02467543, 0.02926443, 0.07313975, 0.01980835, 0.08928037, 0.00327424, -0.05064584, 0.01784553, 0.02501041, -0.03866097, -0.02305839, -0.05916378, -0.05721359, 0.06751145, -0.08063338, 0.08236232, 0.03630020, -0.00887664, -0.02473845, 0.00350748, 0.04979815, -0.08141863, -0.02692251, -0.02276051, -0.05344205, -0.03436907, 0.03454289, -0.02096477, -0.06494567, -0.03386180, 0.02846235, -0.01524627, -0.00905925, -0.08722968, 0.03344339, 0.05827873, -0.05476660, 0.04583158, -0.05213631, -0.01993316, -0.04083019, 0.06035901, 0.04589698, -0.00614833, -0.06091755, 0.05867130, 0.06815022, -0.03197252, -0.07457584, 0.01049484, -0.06573526, 0.05511297, -0.07459529, 0.06065418, 0.02211815, -0.05410327, 0.01722108, -0.02172786, -0.04224014, -0.03937221, -0.05774026, -0.07504594, -0.06180030, 0.06625619, 0.06450830, -0.02210622, 0.00332915, -0.05902298, 0.05373567, 0.02676633, 0.07063868, -0.05634507, 0.06027552, -0.04093496, 0.01506368, -0.03258333, -0.00705280, 0.04425316, 0.04095345, -0.03945352, 0.06110699, 0.07353462, 0.05444933, 0.05727205, 0.03874548, -0.00588085, -0.05311031, 0.05043769, 0.01478504, 0.00395113, -0.01539931, 0.07751291, -0.01757668, 0.01142423, -0.00176975, -0.05440374, 0.01022315, -0.00700721, -0.01297210, -0.04404938, 0.02572898, 0.05183334, -0.08220362, -0.04455757, 0.00679601, 0.05335587, 0.04157415, -0.05047318, -0.05980736, 0.04587533, 0.05271715, -0.03892737, -0.08339538, 0.08278200, -0.05683992, 0.01445603, 0.03475197, -0.08662282, 0.00801437, -0.06855389, 0.00482179, -0.04889073, 0.08203060, 0.06945923, -0.04567293, 0.04076215, -0.02218754, 0.00423301, 0.01082031, -0.07862464, 0.06077005, -0.02327755, -0.05940833, -0.01960903, 0.02452490, -0.03914033, 0.06596248, -0.04702218, -0.02863013, 0.03770410, 0.03853056, -0.01241459, 0.06165638, -0.05310996, -0.01136505, -0.04590433, -0.06168347, -0.01643059, -0.01149171, 0.05621915, 0.07067730, 0.00751650, -0.06674067, 0.06301362, 0.05416774, -0.01091150, 0.03477418, 0.06360782, -0.08031990, -0.03810776, 0.08288649, -0.07336484, -0.06867903, -0.02324109, -0.05086069, -0.03567509, -0.03123501, 0.04598445, -0.05006275, 0.02908846, 0.07286598, 0.07342742, -0.01794322, -0.04502612, -0.01741346, -0.06980001, -0.02655791, 0.03166374, 0.02569196, 0.08222347, 0.03561703, 0.03705339, 0.07017890, 0.08880328, -0.04033245, 0.06364249, -0.03169278, -0.04426476, 0.07889041, -0.05151570, 0.02269608, 0.06653320, -0.04070677, -0.02125432, 0.00715425, -0.05044403, -0.01905863, 0.05178613, 0.08137602, 0.05468303, 0.00480229, -0.08613899, 0.01440798, 0.08814391, 0.07592415, -0.04325417, 0.07192764, -0.01190009, -0.03539942, 0.08044769, 0.07788248, -0.01915358, 0.01563676, 0.04924659, 0.07556161, 0.00165096, 0.06121464, -0.01019210, 0.08276548, 0.08359797, 0.08805908, -0.07403234, 0.02614251, 0.08889678, -0.04805554, -0.05990851, -0.02157659, 0.03148484, -0.03466801, -0.05356373, 0.04147631, -0.04539733, 0.05619468, -0.03930667, -0.02097920, 0.04492916, 0.07793553, 0.03804609, 0.06716938, 0.07449551, -0.01821213, -0.02724352, -0.00300312, -0.02707604, 0.08279064, -0.01442590, 0.07724030, -0.01614725, -0.05600393, 0.02421290, 0.04626371, 0.02703427, 0.07355254, 0.01929710, 0.06216763, -0.04237230, 0.05014580, 0.07387784, -0.02743025, -0.00861972, 0.03403649, 0.01399588, 0.05420534, 0.07047963, 0.08001652, -0.08284883, -0.01559374, -0.05487450, 0.02020454, 0.00166361, -0.03285281, 0.03669262, -0.08983526, -0.07284527, 0.05798313, 0.08453755, 0.06007716, 0.02517128, 0.05756702, -0.06505938, 0.06021549, -0.01770384, 0.00675004, -0.03442016, 0.03146575, -0.06368151, -0.06575639, 0.01086177, -0.08024378, 0.02812690, 0.02026370, 0.04563468, 0.09466354, 0.06669156, -0.00997553, -0.07947923, -0.03033915, 0.01951494, -0.00521540, 0.02346561, 0.07273221, -0.09402961, -0.02932148, -0.04577137, 0.01917215, 0.07397560, 0.08630189, -0.04292515, 0.02487677, -0.05787851, 0.08511692, 0.07172470, -0.05943736, 0.02742540, -0.02974367, -0.07425960, 0.01190477, 0.06409460, 0.02759924, -0.06046556, -0.05459476, 0.00920688, 0.04783419, 0.08641842, -0.05136388, -0.06787799, 0.03635453, -0.01431665, -0.04130790, -0.04220203, -0.07275801, -0.07026669, -0.06429098, -0.04655375, 0.02150386, 0.03443037, 0.03428382, -0.08204018, -0.01022793, -0.05148624, -0.00492911, -0.03538793, 0.05534964, -0.09450493, -0.02931243, 0.04237222, -0.04821119, 0.04318995, 0.01560083, 0.06491340, -0.08336725, 0.08769240, -0.00462202, 0.01541837, -0.02089794, 0.00486328, -0.03050113, -0.03437135, 0.08056697, -0.00178913, 0.06552960, -0.01451458, -0.04067398, 0.03220377, 0.02722542, -0.07630919, -0.00546687, -0.01450818, -0.05285722, -0.04351593, 0.09011058, 0.00533256, 0.05868891, 0.01199735, 0.03791663, -0.06977068, -0.09716227, -0.07101442, -0.01128942, 0.05070626, 0.08813930, 0.06394362, 0.00333777, 0.03400490, -0.03051044, 0.03092177, -0.02593025, 0.01619803, 0.02479300, -0.07935235, -0.02355238, 0.03481886, 0.03121722, 0.00275191, -0.06424420, -0.06098330, -0.01865694, 0.05499890, 0.05572245, -0.01513162, -0.02033330, 0.07755217, 0.08276720, -0.00504668, 0.03481088, 0.05511160, -0.07603678, -0.00086308, 0.04292779, -0.00663464, 0.07900303, 0.08317117, 0.05874034, -0.02447032, -0.08114684, 0.02606544, 0.00271939, -0.02246800, -0.07056648, 0.06024231, -0.08022541, -0.03263995, -0.02007318, -0.04576721, -0.04609724, -0.06291670, -0.08805887, 0.00572593, 0.04062084, 0.04336924, 0.04882039, -0.00123383, 0.06433837, 0.07085200, -0.03938734, 0.08434678, -0.07432596, -0.06771228, -0.06378987, 0.01246206, -0.05566408, 0.07639517, -0.00645753, 0.06871016, 0.03697449, -0.01919640, 0.06605254, -0.07178859, -0.07432863, -0.05448379, -0.07663709, -0.01945823, 0.05922052, -0.08547633, -0.08720747, 0.01567967, 0.06847313, 0.04955911, 0.08647923, -0.05064883, -0.03827543, 0.03671217, 0.08366936, 0.07733816, 0.01091785, -0.04690007, -0.02530200, 0.08564460, 0.07773960, -0.06181257, 0.03364741, 0.00598555, -0.01935282, 0.04481370, -0.04474919, -0.06212750, -0.08175714, -0.01798824, -0.08012201, 0.04159318, -0.00872793, 0.07177041, 0.05320686, -0.02034854, -0.07492442, -0.05828768, -0.01000801, -0.07016715, 0.07365873, -0.01849136, -0.00535518, -0.01819327, -0.06102047, -0.01172286, 0.02585161, -0.02297109, -0.01284011, 0.01922582, -0.02599648, 0.03236254, -0.00019525, 0.06041553, 0.07158988, -0.07362147, 0.00552519, 0.06000372, -0.02071724, -0.06865656, 0.04207602, -0.02901030, 0.03346143, -0.07198673, -0.03033721, -0.06216246, -0.06188367, 0.06422825, -0.05850674, 0.04406901, 0.04901300, -0.00759053, 0.06133332, -0.04876398, 0.01138329, -0.08269358, -0.06340816, -0.01629310, 0.07817988, 